person 0.757274 -0.341414 -1.259074 0.117560 0.556890 -0.273038 1.168906 -0.247600 -0.527110 0.548824 -0.451910 -1.011485 -0.363869 -0.241657 -0.123504 -0.766418 -0.514002 -0.739801 0.391860 -0.127294 0.262498
onlin -0.489668 -0.194445 -2.037058 0.011448 0.171903 0.134438 2.181602 -0.908696 -0.384004 0.233907 -0.340949 -1.098412 -0.524202 -0.715158 -0.286956 0.250080 -0.213823 0.023225 -0.045141 -0.226490 0.450854
feel 0.078559 -0.149300 -1.156895 -0.211092 -0.530690 -0.479786 1.109829 0.457337 -0.992008 0.683196 0.314866 -0.584522 0.509517 -0.617866 -0.418534 -0.270431 -1.096649 -0.090995 0.735707 0.650544 0.333524
class 0.296157 -0.177231 -1.024951 -0.120905 0.537974 0.250829 1.707795 -0.668847 0.180591 0.632666 -0.079919 -1.641114 -0.067362 -0.449321 -0.561643 -0.643355 0.401922 -0.469889 -0.202546 -0.128918 0.543453
cours 0.416990 -0.451677 -0.845598 -0.301980 0.937877 -0.241404 1.515975 -0.317750 -0.290115 0.258214 -0.339430 -1.422199 -0.083415 -0.290811 -0.959111 -0.424723 0.237893 -0.667771 0.331217 -0.337231 0.286398
learn 0.363019 -0.473575 -1.060662 0.097968 0.924248 -0.030925 0.733020 -0.046793 -0.068374 0.386576 0.232471 -0.871201 -0.304024 -0.298739 -1.110049 0.198894 -0.019824 -1.338312 -0.197340 0.623772 0.473899
motiv 0.079073 -0.454968 -0.879334 0.165390 0.133550 -0.515182 1.183574 -0.214094 0.015680 0.800716 0.899257 -0.793561 0.087474 0.053634 -0.477659 -0.043251 -0.292211 -1.021191 0.806373 -0.160098 0.048971
engag 0.546292 -1.211131 -0.760069 0.435746 0.783895 -0.063021 0.681024 -0.265578 -0.355926 0.894801 -0.077169 -0.700730 0.393046 -0.200437 -0.581818 0.187501 -0.371022 -0.802134 1.208197 -0.192316 0.098809
easier 0.026860 -1.540635 -0.509358 0.737470 0.416187 0.143109 0.452795 -0.097613 -0.429827 0.570968 -0.056095 -0.580639 0.244930 -0.026205 0.628303 -0.975174 -0.163225 -1.146921 0.739412 -0.069418 0.045747
like -0.090209 -0.107438 -1.139534 -0.315755 -0.273892 0.139588 0.776032 0.424891 -0.502590 0.601663 0.362419 -0.810908 0.403938 -0.416432 -0.707162 -0.048125 -0.481375 -0.608436 0.719360 0.136691 0.228758
inperson 0.440573 -0.268044 -0.674748 0.248834 0.761098 -0.165743 1.131815 -0.205764 -0.255571 0.609008 -0.543746 -0.991730 0.074315 -0.386927 -0.434269 -0.004818 -0.508231 -0.776800 0.329910 -0.682884 -0.068335
get 0.511927 0.016570 -0.129241 -0.893722 -0.373846 -0.185394 1.496535 0.080432 -0.331613 1.144958 1.062951 -0.752821 0.199323 -0.368892 -0.523574 -0.587498 -0.143253 -0.637665 0.124747 -0.038905 0.340739
lectur -0.618678 -0.306972 -0.189001 -0.008635 -0.180469 0.047457 1.650660 0.224607 0.013886 1.409227 -0.684664 -1.245606 -0.489351 -0.447082 0.035558 -0.143052 -0.380242 -0.062942 0.617873 -0.111784 0.308669
interact 1.094626 -0.858266 0.169888 0.567596 0.023699 0.167798 0.765834 -0.113762 0.100496 0.204792 -0.329074 -0.910261 0.341929 0.193985 -0.880583 -0.377596 0.068912 -0.527102 1.130324 0.099400 0.053461
also 0.136357 -0.402835 -0.769336 -0.007617 0.415306 0.399130 1.049686 -0.096952 -0.455948 0.937444 -0.251357 -1.067897 0.317646 0.037266 -0.438132 0.266968 -0.200323 -0.535688 0.664121 0.008661 0.214528
work 0.224228 -0.759466 -0.773328 -0.312710 -0.029149 -0.433940 0.431169 0.374350 0.011361 0.835319 0.455193 -1.298426 -0.999888 -0.243145 -0.785967 0.382511 0.514813 -0.972558 -0.060628 0.186878 0.259091
much 0.382888 -0.780244 -0.498469 0.106035 0.448130 -0.045860 0.725196 -0.057723 -0.606071 0.634519 -0.048178 -0.874825 -0.028827 -0.224921 -0.084957 0.083696 -0.680447 -0.618346 0.203787 -0.102904 0.037873
peopl 0.170951 0.082923 -0.754719 0.098243 -0.643920 0.175667 0.488047 0.340506 -1.021621 1.055559 0.327597 -1.070467 0.026797 0.546692 -0.302652 -0.598747 -0.152859 -0.627924 0.183717 -0.137209 0.088977
better -0.299864 -0.333478 -0.119361 0.149619 0.282834 0.044394 0.688997 -0.202250 -0.788381 0.377287 0.066614 -0.143772 0.497614 0.001080 -0.340357 -0.673951 -0.362813 -1.222131 1.173865 0.149700 -0.006914
ask 0.487279 -0.493318 0.344389 0.102522 -0.502854 0.729058 0.851800 -0.591862 -0.296298 0.761830 0.203033 -0.553185 0.392382 -0.791046 0.188217 -0.236826 0.238440 -0.368321 0.262821 0.788511 -0.025014
question 0.379616 -0.557168 0.546141 -0.278587 -0.147877 0.672757 0.419640 -0.430028 -0.449902 1.021451 0.078440 -0.848622 0.504225 -0.738937 -0.006811 -0.499673 0.480370 -0.449412 0.332997 0.436822 0.114477
student 0.465019 0.239554 -0.325034 0.764375 -0.044731 0.002584 0.217184 -0.553951 -1.009387 0.605101 -0.128573 -1.216925 0.148760 0.249593 -0.768372 -0.438792 0.459138 -0.557222 0.260476 0.025633 0.069648
make 0.045150 -0.125681 -0.695486 -0.085077 0.012740 0.410371 0.676746 -0.408359 -0.329177 0.744191 0.524722 -0.426036 0.529964 0.018842 -0.804426 0.159225 -0.840141 -0.652455 0.146548 0.165445 0.047194
it’ 0.680152 -0.673868 -0.261995 -0.043753 0.369201 0.114898 0.591481 -0.331051 -0.629856 0.483478 0.303301 -0.793871 0.238709 0.601607 -0.467224 0.131892 -0.353190 -0.119524 -0.102435 0.598322 0.107619
less 0.531262 -0.631597 0.087938 0.330343 0.112901 -0.389011 0.716654 0.037234 -0.551361 0.109053 0.432192 -1.186731 1.067085 -0.614501 0.539895 -0.014324 -0.514885 0.055249 0.318599 -0.353497 0.066908
prefer 0.318208 -0.382675 -0.103258 -0.094807 -0.550791 -0.041691 1.116011 -0.145219 -0.385859 -0.404727 -0.098926 -0.978804 0.039291 -0.297396 -0.516009 0.009562 -0.330553 -0.561734 0.288813 -0.162445 -0.427053
distract 0.399406 -0.507587 -0.017073 -0.084120 0.112334 -0.556055 0.955305 -0.482949 -0.333638 0.524209 0.670040 -1.241851 0.862620 0.064496 0.174924 0.413456 -0.078754 -0.061871 0.265511 -0.039124 -0.164771
friend 0.506878 0.124523 -0.361806 -0.229576 -0.619691 0.716403 0.435723 0.086692 -0.573629 0.938621 0.090010 -1.185878 0.214817 0.612246 0.042573 -0.359309 0.003063 -0.750341 0.115657 -0.081212 -0.067770
see 0.614196 -0.229605 0.054124 0.202622 -0.563607 0.591556 0.637229 0.116365 0.065021 0.890035 -0.415969 -0.422964 0.656365 0.309898 -0.411154 -0.125820 -0.255298 -0.542959 0.507868 0.526350 -0.112342
studi -0.088135 -0.582495 -0.443648 -0.011806 -0.075815 0.012334 -0.085675 0.114698 -0.037945 0.254013 0.275725 -1.486235 -0.482903 0.458502 -0.491210 0.260754 -0.131933 -0.446038 0.106717 0.647896 0.086346
home -0.247334 -0.416245 -0.851685 -0.412477 0.261820 -0.203958 0.264879 0.091808 0.227791 0.118157 0.500899 -1.337511 0.392061 -0.069169 0.071936 0.772054 -0.222421 -0.667010 0.332851 0.467238 0.095530
go 0.571513 0.202200 -0.788846 -0.745057 -0.515459 0.008006 0.453415 -0.040475 0.499396 0.497869 -0.156464 -0.590219 -0.020386 -0.134656 -0.024025 0.495798 -0.204374 -1.344253 -0.086766 0.887865 0.074774
social 0.868453 0.021329 -0.232833 0.294511 0.112648 0.647322 1.268928 0.322751 -0.406448 0.058757 -1.001062 -0.510028 0.374362 0.654198 0.077981 0.664522 -0.767452 -0.738285 -0.428759 -0.066186 -0.161113
discuss 0.472765 -0.878039 -0.232034 0.395364 -0.207886 0.519131 0.365129 -0.452058 -0.371833 0.844051 -0.149334 -0.314175 -0.317674 0.080100 -0.328890 -0.102790 0.039358 -0.760248 0.017941 -0.276251 0.047192
time -0.500641 -0.268061 -0.480334 -0.685408 0.161953 0.511275 0.277476 -0.534693 -0.193415 0.435644 0.320501 -0.877884 0.704435 -0.118161 0.085240 0.100407 0.523545 -0.970690 0.233579 -0.074308 0.179291
find 0.236477 -0.919616 -0.078026 -0.361127 0.480752 0.006479 0.653386 -0.541606 -0.523083 0.597280 0.370839 -0.642670 -0.011757 0.222659 -0.140526 -0.034070 -0.654336 -0.442514 0.047934 0.369704 -0.242645
environ 0.124219 -0.350272 -0.130449 0.440636 0.265900 -0.281878 0.356824 0.552726 0.195136 0.007087 0.283450 -1.065381 0.087631 0.162075 -0.375885 0.353032 -0.552006 -0.546164 0.373974 0.660777 -0.014695
help 0.045481 -0.523004 -0.020335 0.238735 0.148515 0.131117 0.204517 -0.049241 -0.125460 0.525018 0.006634 -0.282863 0.344064 -0.170935 0.018718 -0.180699 0.212987 -1.378044 0.411452 0.314529 0.017876
i’m -0.025691 -0.238506 -0.616545 0.069094 0.025307 -0.670154 0.371571 0.200413 -0.095095 0.488541 0.347562 -0.728188 0.429665 -0.213882 -0.418537 0.108641 -0.499663 -0.353040 0.182690 0.890436 -0.010177
professor 0.038044 -0.402315 -0.134839 0.529273 -0.632302 0.116558 0.795700 0.056175 -0.835161 0.799853 -0.326669 -0.719424 0.059061 -0.339028 -0.741118 -0.809087 0.228597 0.045998 0.246620 -0.080050 -0.121980
abl 0.074341 -0.048523 -0.430207 0.329929 0.060349 0.490904 0.389328 0.420732 -0.347699 0.905537 -0.489944 -0.903711 0.122443 -0.113115 -0.303354 -0.383751 0.072928 -0.634400 0.234074 0.303714 -0.199198
lot 0.172303 -0.620481 -0.041314 0.177089 0.215683 -0.024540 0.494742 0.138374 -0.468022 0.468577 -0.208669 -0.621587 0.158174 0.097681 -0.173902 0.280409 -0.204939 -0.578073 -0.175850 0.250611 -0.024894
realli -0.048168 -0.160930 -0.745078 0.116196 0.367842 0.331219 0.833054 -0.180558 -0.390488 0.760708 -0.209708 -0.634467 0.459186 0.548335 -0.559393 0.431159 -0.326207 -0.228202 -0.294921 0.312050 -0.138921
univers 0.017934 0.106188 -0.892288 -0.033123 -0.127837 0.099655 0.382355 -0.010302 0.178035 -0.153190 -0.192348 -1.053114 0.005213 0.600896 -0.476126 0.210697 -0.503320 -0.480347 0.083347 0.289823 -0.082139
understand -0.062334 -0.626684 -0.550214 0.142164 0.079283 0.176237 0.290148 -0.261592 -0.795341 0.950690 -0.046828 0.221247 -0.191145 -0.324692 -0.392087 0.105683 -0.115999 -0.656913 0.391784 0.645770 -0.171961
way -0.105135 -0.449174 -0.027997 0.317226 0.126670 -0.225388 0.677079 0.025731 -0.475899 0.351332 -0.087941 -0.575092 0.358363 -0.525732 -0.440252 -0.100591 -0.271488 -0.396102 -0.064066 0.060702 -0.114249
face 0.471516 -0.417258 -0.159050 0.704474 -0.171897 0.261737 0.569617 0.201388 -0.752809 -0.061465 -0.374135 -0.354683 0.500108 0.195073 -0.155758 -0.377250 -0.477895 -0.016258 0.240716 -0.018391 -0.078970
actual 0.356260 0.292157 -0.912067 -0.076728 -0.230259 -0.334324 0.520661 -0.215027 -0.197808 0.404917 0.021604 -0.715699 0.233582 -0.245491 -0.357750 -0.465997 -0.270451 -0.643147 0.130740 0.415757 -0.152398
uni 0.188578 0.185924 -0.372457 -0.268971 -0.285180 -0.146123 0.206843 0.182582 0.672684 -0.099264 0.106015 -1.115078 0.462636 0.334467 -0.229644 0.125976 -0.274147 -0.604622 0.045052 0.084108 -0.054362
enjoy 0.296906 -0.282396 -0.185036 -0.048589 -0.411596 0.506661 0.738879 0.299877 -0.167522 -0.025451 -0.283501 -0.708605 0.094863 0.372566 -0.437931 0.033390 -0.442212 -0.839287 0.054541 -0.070811 -0.306506
teacher 0.236396 -0.183891 0.132734 0.407820 -0.375906 0.283724 0.723019 0.006956 -0.545219 0.764532 -0.309085 -0.384094 0.146569 -0.139827 -0.772460 -0.593301 0.358580 -0.174269 -0.083503 0.041237 -0.171905
experi 0.399540 0.092843 -0.353914 0.179470 -0.025973 -0.190784 0.526071 0.287638 -0.193130 -0.578722 -0.520571 -0.623614 0.376338 0.327043 -0.705695 0.065950 -0.196145 -0.590369 0.074639 0.407276 -0.083474
miss 0.242247 -0.221086 -0.076186 -0.249767 -0.473547 0.722521 0.608353 0.077099 0.043618 0.329633 -0.357905 -0.732552 0.246226 0.359879 -0.621633 0.178164 0.041025 -0.740067 0.232579 -0.164271 -0.244266
connect 0.400798 -0.958498 -0.214456 0.769067 -0.356382 0.368380 0.151215 -0.456593 -0.114367 -0.122723 0.034609 -0.290614 0.178230 -0.388224 -1.073980 0.064656 0.119454 0.011562 0.420472 0.038446 -0.223754
focu -0.106313 -0.707671 -0.046285 0.169612 0.439724 0.220434 0.347232 -0.225854 -0.410861 0.276099 0.368013 -0.859636 -0.078548 -0.232784 -0.406489 0.354642 -0.195117 -0.412462 0.112295 0.794226 -0.430552
need -0.254456 -0.143903 -0.123276 -0.277048 -0.371761 -0.010818 0.623026 0.004126 -0.307038 0.371710 -0.085226 -0.210231 -0.032128 -0.396268 -0.446756 0.110081 0.276131 -0.968203 -0.125059 0.406767 -0.053458
teach 0.142320 -0.639238 -0.239814 0.027863 0.375513 -0.223560 0.357707 -0.356083 -0.592255 -0.435092 -0.440125 -0.251058 0.062889 -0.452510 -0.524237 -0.132465 -0.096071 -0.379646 0.180196 0.422226 -0.118782
structur 0.695707 0.222623 0.323404 -0.283960 0.347935 -0.508471 0.387770 0.588030 0.044792 0.116449 -0.297335 -0.817849 0.604930 -0.418478 0.059544 -0.169067 -0.602383 -0.839551 0.649946 -0.449880 -0.282498
around 0.488144 -0.426299 0.117794 0.721631 -0.503869 0.130301 0.195417 0.561200 0.549498 0.637984 0.156188 -0.459677 0.222935 0.323534 -0.291823 0.307449 -0.273672 -0.593590 0.116792 0.009738 -0.278614
classmat 0.509570 0.062810 0.090768 0.435480 -0.588575 0.644345 0.127273 -0.285777 -1.015127 0.695308 0.080078 -0.590658 0.434232 0.376835 -0.116642 -0.423323 0.046652 -0.606458 0.052888 -0.178720 -0.394066
don’t -0.161657 -0.313998 -0.716768 0.041784 -0.218734 -0.244035 0.162488 0.112495 -0.197961 0.625298 -0.136387 -0.645835 0.569229 -0.366880 -0.374904 -0.371579 -0.094425 -0.156934 -0.170762 -0.042029 -0.151492
day 0.088852 0.446772 -0.279015 -0.812799 -0.289564 0.100049 0.441647 0.157823 -0.115777 0.487226 -0.177847 -0.655382 0.644897 0.033535 0.496116 0.407005 0.230215 -0.764002 0.218317 -0.213840 0.006506
thing -0.289039 -0.355271 -0.030468 -0.048782 -0.170901 0.225332 0.215497 0.411768 -0.208927 0.828646 0.144032 -0.613318 0.046259 -0.145341 -0.189460 -0.390587 0.113419 -0.673311 -0.302706 0.156391 -0.118718
think -0.021195 -0.394536 -0.046854 -0.214638 -0.132941 0.394328 0.669344 0.046214 -0.254721 -0.116625 -0.427758 -0.530214 0.286500 0.089959 -0.824173 0.155546 -0.189487 -0.360099 0.021213 0.008881 -0.177432
talk 0.815762 -0.287274 -0.066356 -0.118701 -0.674521 0.804934 0.375421 -0.184159 -0.181810 0.717344 -0.086088 -0.712100 0.104926 -0.183615 -0.326496 -0.287127 -0.268522 -0.025012 0.332268 0.278003 -0.365616
commun 0.478395 -0.424538 -0.120436 0.383555 -0.222536 0.055561 0.445349 -0.328622 -0.400792 -0.034948 0.052647 -0.007270 0.098176 -0.109829 -0.938029 0.320179 -0.460210 -0.216371 0.287774 0.317171 -0.263170
hard -0.632995 -1.273288 -0.630784 0.240171 0.196544 -0.007556 0.071433 0.118781 -0.158581 0.457626 -0.145269 -0.681776 0.322186 0.732952 0.416700 -0.181144 -0.379101 -0.151721 -0.255380 0.116548 -0.259533
peer 0.214258 0.044380 0.017337 0.597312 -0.025144 0.442698 -0.011996 -0.104713 -1.101108 0.665580 0.011636 -0.472639 0.444259 0.219151 -0.114481 -0.344545 -0.204243 -0.509617 -0.119252 0.156713 -0.319015
give 0.530132 0.101907 0.155723 -0.317812 -0.339744 -0.329793 0.577743 -0.146921 -0.179598 0.213274 -0.205112 0.020437 0.482315 -0.462471 -0.204239 0.391924 -0.421905 -1.006662 0.491995 -0.117953 -0.088636
materi -0.231053 -0.391875 0.354239 0.407568 0.357396 0.070476 0.181914 -0.180478 -0.604197 0.451919 -0.437504 -0.609145 0.065310 -0.417156 -0.186942 -0.279167 -0.137216 -0.457080 -0.128202 0.196493 -0.181411
im 0.001534 -0.169054 -0.225446 0.268140 0.033199 -0.193004 -0.035662 0.200471 -0.320710 0.185256 0.263512 -0.887859 0.478389 0.072887 -0.220250 0.490779 -0.436205 -0.172186 0.015547 0.202920 -0.102596
practic -0.361920 -0.187690 0.116205 0.076754 0.154656 -0.164889 0.408180 -0.377074 -0.217852 -0.115767 -0.390263 -0.270651 -0.781490 0.227836 -0.749411 0.642174 -0.286744 -0.645851 0.083985 0.362083 0.002893
aspect 0.669110 -0.201285 0.018074 -0.169269 -0.152099 0.453873 0.451734 0.195907 -0.140877 0.019343 -0.716023 -0.765119 0.391825 0.878882 -0.387419 0.075425 -0.113976 -0.645079 0.364270 -0.012126 -0.578935
would -0.011149 -0.175192 -0.461349 -0.232604 0.184140 -0.005569 0.473484 0.028303 -0.186648 0.082096 -0.880445 -0.659875 0.124209 -0.257119 -0.532498 0.348262 -0.072673 -0.373267 0.068832 -0.301678 -0.112802
physic 0.217296 0.269164 -0.419976 0.201700 -0.315924 -0.518817 0.107357 0.183982 -0.034329 0.435273 0.247915 -0.619397 -0.039544 0.063561 -0.142030 -0.110981 -0.551115 -0.713286 0.365813 0.417126 -0.131834
one 0.138967 0.022026 -0.161586 -0.120011 -0.160416 0.097782 0.217230 -0.023653 0.180461 -0.021641 -0.331220 -0.666071 0.037823 -0.885127 -0.006962 -0.408857 -0.009510 -0.661072 -0.118101 -0.098482 -0.031792
content -0.271925 -0.630278 0.159014 0.378844 0.156526 0.101104 0.021407 0.139724 -0.404146 0.345656 -0.247156 -0.321915 -0.125568 -0.348128 0.050842 -0.518533 -0.513594 -0.592311 0.141634 0.483666 -0.328566
use -0.500496 -0.007055 -0.130717 -0.427537 -0.080490 -0.032198 -0.021822 0.194548 -0.268022 0.016501 -0.285586 -0.658983 0.114718 0.033837 -0.319903 0.383037 -0.170363 -0.343769 0.086757 0.408239 -0.070477
concentr 0.390845 -0.920145 -0.043295 0.107355 0.437945 -0.091518 0.163955 -0.125454 -0.493923 0.087388 0.445252 -0.814802 -0.147285 -0.035113 -0.202550 0.568099 -0.316410 -0.193218 0.182418 0.723494 -0.545592
take -0.020146 -0.240359 0.085740 -0.582504 -0.064585 0.128318 0.340960 -0.337910 0.327194 0.690278 0.315475 -0.208041 0.173002 -0.429019 -0.445214 0.298057 -0.574188 -0.546176 0.129768 0.167438 -0.066294
allow 0.188605 -0.222413 0.518041 0.161253 -0.180636 -0.277089 0.351401 -0.172086 -0.525785 0.055411 -0.206603 -0.441947 -0.010511 0.084635 -0.340799 -0.288711 0.015555 -0.874353 0.200033 -0.398954 -0.385175
human 0.672317 0.376023 -0.394193 0.502874 -0.256758 0.120906 0.594273 0.152464 -1.104973 -0.107457 -0.616335 -0.251150 0.376649 0.257976 -0.441668 -0.337207 -0.156005 -0.219249 -0.262211 -0.156393 -0.598708
dont 0.040046 -0.198421 -0.261493 0.076124 -0.074520 -0.242337 -0.030859 0.177921 -0.030156 0.459087 -0.131479 -0.754174 0.622437 -0.285585 -0.080518 0.056782 -0.137786 -0.083419 -0.039284 0.097380 -0.107639
live 0.173161 0.165734 -0.407419 -0.100882 -0.285539 0.211419 0.403490 -0.154547 -0.121345 0.347305 -0.391202 -0.672672 -0.079157 0.164006 -0.218196 0.065799 -0.377178 -0.401776 -0.209771 0.094102 -0.247165
attend 0.489594 -0.303179 -0.097277 -0.074408 -0.350203 -0.244550 0.253798 -0.155944 0.183999 0.440194 -0.085743 -0.673965 0.125824 -0.234789 0.126938 0.299142 -0.625164 -0.538514 0.077846 0.260828 -0.336799
contact 0.737835 -0.518783 0.365449 0.082323 -0.325117 0.420388 0.365661 0.075231 0.365329 -0.373330 -0.877727 -0.347144 0.359938 0.267202 -0.661884 0.000555 0.161804 -0.511351 0.621858 -0.317075 -0.233380
well 0.118004 -0.141681 -0.012717 0.271094 -0.086106 0.084709 0.368583 -0.286120 -0.067951 0.279251 -0.224996 -0.174800 0.329386 -0.015725 -0.417602 0.009695 -0.302016 -0.699094 -0.127274 0.151802 -0.312973
real 0.692373 -0.049415 -0.650614 -0.223461 -0.381343 0.845021 0.255875 0.468505 -0.363194 0.022888 0.216364 -0.440093 0.451580 -0.317257 -0.078381 -0.051343 -0.823188 -0.528452 -0.149789 0.044990 -0.427619
easili 0.310984 -0.603423 0.205153 0.145552 -0.243700 -0.083956 0.841510 0.266037 0.003652 0.622889 0.224195 -0.650496 0.635454 -0.328282 0.338884 -0.211974 0.064005 -0.162030 -0.120013 0.006281 -0.554984
difficult -0.490255 -1.136234 -0.704703 -0.075313 0.089652 0.022448 0.416693 0.099956 0.026633 0.035387 -0.064890 -0.538567 -0.015135 0.253408 0.180354 -0.252523 -0.160881 -0.462164 -0.285492 -0.108039 -0.311200
group -0.156233 -0.336728 0.412368 0.458913 0.097861 0.243502 -0.122384 -0.249597 -0.361917 0.616221 0.234648 -0.374414 -0.059597 0.281645 -0.060728 -0.188870 0.061504 -0.883060 -0.481364 -0.265618 -0.135894
life 0.399203 0.226946 -0.291326 -0.676000 -0.494147 0.339351 0.345003 0.549334 0.098590 -0.147781 0.179175 -0.618677 0.526868 0.307616 -0.293708 0.536785 0.059670 -0.773914 0.103360 0.387258 -0.342921
know 0.193445 -0.208608 -0.328286 0.071476 -0.455080 0.073299 0.115298 -0.205873 0.043302 0.530883 -0.163852 -0.179826 0.546337 -0.414624 -0.319107 0.000598 0.094905 -0.388504 0.187295 0.406484 -0.246533
meet 0.624333 -0.138173 -0.075863 0.189153 -0.713844 0.538403 0.451902 0.318458 0.487002 0.462189 -0.360813 -0.569536 0.330995 0.243208 -0.428001 -0.181113 0.020581 -0.294910 -0.307382 0.157133 -0.617432
pay 0.670135 -0.583936 -0.072183 0.215087 0.079600 -0.714837 0.069051 0.042186 -0.322987 0.256188 0.685595 -0.021832 0.312704 -0.240450 -0.309197 -0.316893 -0.820565 0.515053 -0.209944 0.690804 -0.004362
someth -0.245477 -0.067395 -0.123543 -0.085349 0.050745 -0.162321 0.129084 0.249139 -0.359534 0.715287 -0.093233 -0.146576 0.460731 -0.380267 -0.395874 -0.373770 -0.001399 -0.515076 -0.044093 0.417319 -0.228086
campu 0.245125 0.250271 -0.424917 0.440976 -0.425645 0.194541 0.206060 0.288022 0.312423 0.158535 -0.228362 -1.064383 0.227709 0.524576 -0.232317 0.474088 -0.142433 -0.464582 0.081947 0.060895 -0.295216
degre -0.102433 -0.338594 -0.113362 0.017730 0.215641 -0.355343 -0.034655 0.052017 -0.268658 -0.409314 -0.227990 -0.482341 0.047497 0.460913 -0.578364 0.095101 -0.168682 0.044619 -0.080171 0.175847 0.030361
differ -0.365367 -0.267126 -0.241595 0.379900 -0.317713 0.501726 -0.000957 -0.125401 -0.022756 0.071110 0.126329 -0.458945 -0.196069 0.268305 -0.078529 -0.246144 -0.221839 -0.687907 -0.161187 0.143381 -0.127944
etc 0.055984 -0.054029 0.296913 -0.209735 -0.363450 0.270627 0.245151 -0.027844 0.008579 0.425567 -0.246135 -0.465160 0.115669 -0.059116 0.303040 0.116727 0.022130 -0.400311 -0.130092 0.398792 -0.297830
keep 0.202098 -0.203214 0.343884 0.001824 0.037659 -0.563348 0.247822 -0.052186 0.134644 0.384866 0.453360 -0.162668 -0.122790 -0.181958 0.260406 0.129099 -0.852931 -0.675249 -0.218138 0.560607 -0.256745
other 0.189203 0.072005 0.091414 0.452177 -0.257646 0.173596 0.161879 -0.112047 -0.766484 0.450623 0.192315 -0.321742 0.145142 0.613357 -0.260529 -0.249093 -0.129931 -0.567221 -0.143000 0.106648 -0.321970
rather -0.593258 0.045432 0.048630 -0.369035 -0.227520 0.098915 0.212660 -0.014487 0.210421 -0.022956 -0.153492 -0.641401 0.107189 -0.447714 0.242421 -0.074126 -0.266238 -0.380067 -0.093408 0.699596 -0.016885
room 0.107775 -0.035019 -0.060878 0.223688 -0.151864 0.043628 -0.012332 0.232584 0.250305 0.135161 0.036013 -1.073616 0.417078 -0.377689 0.069814 -0.002827 -0.327463 -0.219509 0.449501 -0.038348 -0.227398
school -0.256965 0.249749 -0.283577 -0.262923 -0.183746 -0.098437 0.092956 0.406003 0.325605 0.038277 0.221233 -0.795598 0.448877 0.095015 -0.367178 -0.101774 -0.182059 -0.352647 -0.240874 0.384881 -0.217001
stay 0.277051 -0.708020 0.476739 0.091243 0.116278 -0.091319 0.206735 0.092638 0.161367 0.446724 0.738150 -0.612101 -0.181186 0.118835 0.117697 0.330661 -0.666453 -0.289512 -0.244543 0.497877 -0.299522
subject 0.185589 -0.251176 0.231884 0.503292 0.281892 0.110004 -0.013368 0.119696 -0.268283 0.034425 -0.282766 -0.380954 -0.148533 -0.062749 -0.357860 -0.492780 -0.182285 -0.557481 -0.012068 0.129987 -0.091624
import 0.155930 -0.369739 -0.265340 0.081317 -0.059619 0.187381 0.403231 0.053192 -0.339190 0.006702 -0.388562 -0.060357 0.277172 0.510413 -0.506385 -0.062574 -0.161524 -0.382828 0.043793 0.163821 -0.187596
classroom 0.131742 0.030347 -0.273277 0.423572 0.047988 0.151722 -0.048480 0.112394 -0.017323 -0.062973 0.088866 -0.783028 0.244431 0.045069 -0.154474 -0.065480 -0.298860 -0.474917 0.162101 0.178234 -0.290968
even -0.279643 -0.209045 -0.703777 0.059426 -0.180290 -0.100400 0.227243 -0.129896 -0.155459 0.263732 -0.180179 -0.302601 0.300182 -0.450839 -0.161320 -0.417617 -0.445116 0.058664 -0.084807 0.151706 -0.243873
part 0.165430 0.009304 -0.474182 0.076780 -0.219127 0.154276 0.239985 0.086343 -0.407362 -0.383534 -0.194751 -0.258793 0.105652 0.060215 -0.470965 -0.009094 -0.231243 -0.532101 -0.266226 0.037846 -0.192135
focus 0.342033 -0.820228 -0.128221 0.097051 0.040869 -0.378837 -0.015478 0.127653 -0.111248 0.034044 0.464358 -0.659542 0.007277 -0.346993 0.230275 0.081638 -0.411475 -0.647689 0.353215 0.318080 -0.510681
space -0.511399 -0.108176 0.187171 0.298798 0.141258 -0.228084 -0.178757 0.255953 0.251594 -0.247927 0.436427 -0.980626 0.039322 0.040774 -0.254579 0.396221 -0.095377 -0.540718 0.024074 0.526027 -0.311108
hous 0.318876 0.132938 -0.242598 -0.178443 -0.674375 -0.553095 0.163257 0.261943 0.161724 0.240429 0.475970 -0.367512 0.884659 0.390424 0.352158 0.089349 0.167419 -0.710069 0.210746 -0.018347 -0.224819
mean -0.220337 -0.119296 0.286957 -0.227485 -0.256588 -0.192151 0.269962 -0.038109 -0.045760 -0.148081 -0.004609 -0.704982 0.087760 -0.202758 -0.191653 0.230912 -0.231719 -0.243593 0.200870 0.310840 -0.183933
account -0.068179 -0.704920 -0.520069 0.276165 -0.423135 -0.455481 0.132940 -0.147940 -0.076810 0.009134 0.702087 0.007538 0.224245 -0.402658 0.182828 0.192795 -0.478336 -0.717528 0.193341 -0.102105 -0.276074
routin 0.195956 0.340713 -0.025963 -0.117471 -0.306776 -0.319017 0.443965 0.111971 -0.001189 0.129954 -0.098058 -0.312190 0.438323 -0.218042 -0.156908 0.055888 0.015420 -0.593241 0.496852 0.056824 -0.327697
access -0.252130 -0.186229 0.217007 0.089741 -0.214129 0.271935 -0.090764 -0.528115 -0.284830 0.155352 -0.159507 -0.540376 -0.223562 -0.150527 -0.467533 0.454240 -0.062911 0.090673 0.107368 0.529900 -0.108899
love 0.285318 -0.041206 0.011256 0.078833 -0.501307 0.135654 0.159368 0.037508 -0.158246 0.115993 -0.273543 -0.425665 0.143354 0.475498 -0.446310 -0.078168 0.001800 -0.636133 0.212056 -0.175565 -0.405658
set -0.075089 -0.126156 0.034715 -0.371683 0.220366 0.012178 0.223262 -0.005518 -0.131388 0.102344 0.141766 -0.340770 0.335109 0.065929 -0.076629 0.028268 -0.342465 -0.653144 0.137916 0.054934 -0.222767
topic -0.220816 -0.485468 0.588764 0.472093 0.152844 0.302330 -0.093573 -0.184666 -0.494361 0.718327 -0.053302 0.028304 0.121023 -0.000835 0.058695 -0.455356 -0.036561 -0.699491 -0.123824 0.203662 -0.311338
answer 0.407272 -0.470898 0.551008 -0.286698 -0.387735 0.022194 0.223015 -0.083477 -0.216847 0.337727 -0.344443 -0.019135 0.224084 -0.681671 0.470918 -0.133683 0.590736 -0.286137 -0.025220 0.288388 -0.147936
attent 0.390863 -0.701202 -0.470075 0.207089 -0.006657 -0.503210 -0.165252 -0.532734 -0.553856 -0.071739 0.504961 -0.089382 0.080664 -0.195458 0.080800 -0.158434 -0.533116 0.092569 -0.043290 0.370163 -0.249592
product 0.175848 -0.198107 -0.024158 -0.023552 -0.087107 -0.253288 -0.017845 0.159437 -0.133955 -0.013455 0.377226 -0.425926 0.488754 -0.156715 -0.085489 0.319822 -0.339356 -0.521114 -0.057118 -0.132385 -0.404619
easi 0.090653 -1.105098 -0.098779 0.339400 -0.234795 -0.322991 0.441326 0.103505 -0.170432 0.408169 -0.214370 -0.361860 0.558273 -0.050427 0.533474 -0.193808 -0.040441 -0.068039 -0.166081 -0.065892 -0.472804
opportun 0.347694 0.028615 0.518654 0.203475 -0.048474 -0.109298 0.497522 0.120434 -0.477490 0.312636 -0.370553 0.004197 0.683545 -0.366142 0.096508 -0.443354 0.413472 -0.630906 0.065243 -0.393427 -0.427274
without -0.197919 -0.205364 -0.019607 0.024845 -0.245467 0.350835 0.066318 -0.025022 -0.099298 0.472483 -0.047901 -0.118726 0.346725 -0.286161 0.128404 -0.026250 -0.089459 -0.316500 -0.222379 0.355531 -0.118855
harder -0.186220 -1.125019 -0.327839 0.320537 -0.020840 -0.058361 0.003076 -0.028664 -0.273557 0.222615 -0.236141 -0.321138 0.215417 0.312022 0.275147 -0.474398 -0.242029 -0.281100 -0.114141 -0.138338 -0.544428
surround 0.493372 -0.260672 0.060022 0.961409 -0.288068 0.200747 0.015494 0.340414 0.371930 0.292724 0.094407 -0.692816 0.145991 -0.067321 -0.468702 0.004531 -0.362113 -0.448655 0.309721 0.373798 -0.653600
can’t -0.353957 -0.384711 -0.359079 -0.073314 0.033552 -0.002318 0.076498 -0.082771 -0.209030 0.009857 -0.090740 -0.284657 0.199904 0.192952 -0.131674 -0.219025 -0.070647 -0.255146 -0.213372 0.115309 -0.186391
lab -0.405163 0.061214 0.127646 -0.108978 0.021176 -0.034698 0.197310 -0.342354 0.174455 0.026769 -0.448191 -0.461566 -0.044181 0.174063 -0.415374 0.194500 -0.011025 -0.342305 -0.077711 0.193647 -0.046168
librari -0.571900 0.370790 0.041017 0.509561 -0.233286 0.284900 -0.153687 -0.011191 0.366124 0.214029 -0.465056 -1.178804 -0.056777 0.116619 0.006673 0.108827 0.057675 -0.334563 0.084694 0.267280 -0.326485
screen -0.038918 0.000237 -0.094086 -0.770874 -0.343366 0.170453 -0.430916 0.755545 -0.084512 0.421650 -0.184697 -0.373249 0.560426 -0.014342 -0.141079 -0.242678 -0.588990 0.150051 0.130720 -0.169359 -0.077278
record -0.539643 -0.177736 -0.254026 -0.371053 -0.000404 -0.078997 -0.008558 -0.782323 0.228520 0.567025 -0.869092 -0.570991 -0.239547 -0.543390 0.444695 0.019294 -0.327021 0.054842 0.366130 0.082443 -0.535644
activ 0.079056 -0.149078 0.180911 0.221503 0.095962 -0.117463 0.094592 0.077461 -0.158339 -0.013652 0.005344 -0.328196 0.055690 -0.099383 -0.278600 -0.058500 -0.528733 -0.512729 0.053807 0.100980 -0.450977
mani 0.089312 -0.306224 0.288486 0.129468 -0.165800 -0.174002 0.697128 0.067988 0.308319 0.141774 -0.003116 -0.457698 0.158523 -0.390679 -0.094987 0.234853 -0.057599 -0.055679 -0.191321 -0.123791 -0.211892
place -0.309123 0.019311 -0.152099 -0.090504 0.037001 0.142611 0.159659 0.013231 0.361599 -0.255755 0.147155 -1.017541 0.081461 -0.342232 0.164517 0.094369 0.043741 -0.839136 0.131725 0.133050 -0.461711
idea 0.437919 -0.451750 -0.088484 0.472878 -0.520431 0.082908 -0.163971 0.200618 -0.358024 0.100918 0.214858 -0.294634 -0.132995 0.323416 -0.325935 -0.917580 -0.025466 -0.118463 0.092769 0.106354 -0.264610
atmospher 0.360161 0.277414 0.100530 0.296892 -0.086192 0.154892 0.155605 0.279779 -0.380763 0.112279 0.030318 -0.654483 0.051650 0.378766 -0.359692 0.312839 -0.415071 -0.580010 0.208982 0.202657 -0.476597
good -0.126324 -0.166404 0.032274 -0.121929 -0.239409 -0.227159 0.136994 -0.069381 -0.014010 0.261376 -0.196650 0.123396 0.644565 0.238460 -0.206844 -0.112165 -0.054164 -0.440957 0.203935 0.063014 -0.171388
listen 0.062756 -0.203017 -0.052883 0.108832 0.053298 0.091446 -0.046854 -0.216460 0.038830 0.371000 -0.181464 -0.542560 0.014707 -0.567034 0.168856 -0.002790 -0.454007 -0.094978 0.171323 0.470196 -0.333079
done -0.180025 -0.439930 -0.149296 -0.327163 -0.097845 -0.451038 0.083131 -0.130617 -0.341262 0.178553 0.064801 -0.349190 0.413279 0.035567 0.012629 0.130747 0.359129 -0.413206 -0.300638 0.282173 -0.317931
educ 0.061791 -0.079001 -0.041181 0.094261 0.092243 -0.118065 0.093495 -0.084627 -0.189284 -0.590927 -0.281087 -0.330093 0.368376 0.064649 -0.155912 -0.022077 -0.075914 -0.245241 -0.051768 0.141759 -0.243723
mental 0.256591 -0.174857 0.281812 -0.036196 0.353167 -0.344443 0.314730 0.379054 -0.419434 -0.067552 -0.089723 0.215478 0.214525 0.425139 -0.015421 0.194823 0.005047 -0.871000 0.561013 0.432817 -0.217789
togeth -0.305520 -0.186116 0.147155 0.476161 -0.114314 0.205209 -0.063451 -0.018637 0.122662 0.559117 0.269878 -0.317672 0.137107 0.116491 -0.128766 0.265627 0.012359 -0.794051 0.088526 0.156385 -0.463179
alon -0.170348 -0.154293 -0.269571 0.048604 -0.131748 0.035285 0.056786 -0.080996 0.214321 0.219805 0.656548 -0.642247 0.568093 -0.303399 -0.107815 0.630366 -0.298170 0.032331 -0.093366 0.008678 -0.364630
everyon -0.045371 -0.133261 -0.065219 0.131095 -0.472942 0.232971 -0.034495 -0.067904 -0.388432 0.365838 0.174508 -0.502787 0.126494 -0.000360 0.053532 -0.273610 0.121662 -0.073634 -0.159795 0.171664 -0.240145
everyth -0.070765 -0.420240 -0.145422 -0.171609 0.040054 0.120642 0.019635 -0.138843 -0.028855 -0.042059 0.120924 -0.521390 0.219328 -0.074039 -0.121404 0.092380 -0.071241 -0.202500 -0.187647 0.099274 -0.299286
inform 0.264935 -0.654956 0.208915 0.251479 0.113116 0.087902 -0.287789 -0.257166 -0.322180 -0.404514 -0.146100 -0.137300 0.204585 -0.250536 0.222985 -0.215020 0.056920 -0.396445 0.133688 0.454743 -0.044304
often 0.087332 -0.307840 0.035495 0.051120 -0.098928 -0.190221 -0.036257 -0.244754 -0.147414 0.216606 -0.072076 -0.272623 0.272959 -0.375028 0.044937 0.007277 -0.272912 -0.247785 -0.206764 -0.035148 -0.158266
particip 0.369658 -0.553061 0.170275 0.532206 0.028222 0.021726 -0.039224 -0.049328 -0.137199 0.484090 0.032424 -0.239506 -0.010053 -0.211701 -0.406182 -0.147345 -0.372930 -0.076194 -0.168209 0.277744 -0.454617
sit -0.028080 0.241767 -0.092057 -0.079119 -0.289128 0.104962 -0.183731 0.038913 0.453962 0.353704 0.041954 -0.765164 0.286682 -0.122234 0.018199 0.329318 -0.431175 -0.100894 0.261758 0.178282 -0.202938
come -0.175442 -0.132754 0.092240 0.064015 -0.272600 0.032162 0.162422 0.015026 -0.016296 0.129986 0.124494 -0.327684 -0.077894 -0.034840 -0.213261 0.026248 -0.309623 -0.431190 -0.208217 0.030175 -0.323066
tutor 0.124887 -0.409790 0.350776 0.050381 -0.490681 0.284497 0.281399 0.070441 -0.390533 0.313598 -0.269808 -0.219739 -0.054042 -0.358693 -0.102660 -0.339710 0.110345 -0.325508 0.054758 0.217275 -0.412074
us -0.089834 -0.230450 0.143750 0.148948 0.066491 -0.015070 0.184812 -0.133276 -0.181351 0.174461 -0.012973 -0.123032 0.049903 0.144987 -0.262349 -0.347672 0.079722 -0.420335 0.201049 -0.267041 -0.168518
comfort 0.128194 -0.539088 -0.346888 0.082893 -0.228076 0.209783 0.037324 0.004567 -0.469951 0.004448 0.301154 -0.500487 0.358864 -0.534104 -0.033240 -0.143254 0.035690 -0.186354 -0.243734 0.074263 -0.545420
want -0.404586 -0.193703 -0.123093 0.210125 -0.179246 0.116827 0.152898 0.196763 0.016227 0.035276 -0.206709 -0.231048 0.183462 -0.249615 -0.015995 -0.037975 -0.175225 -0.456927 -0.014966 0.193789 -0.300879
best -0.332828 0.095877 -0.149010 0.154099 0.148373 -0.021029 0.381770 -0.423318 -0.216316 -0.230388 -0.048165 -0.356103 0.359239 0.035812 -0.260262 0.010977 -0.129152 -0.487490 0.190078 0.125616 -0.539948
sens 0.131214 0.097597 -0.560383 0.213993 -0.143946 -0.603002 0.167898 0.381714 -0.461565 -0.249034 0.035816 0.128341 0.245988 -0.042744 -0.295274 -0.453362 -0.524588 -0.584393 -0.170443 -0.317715 -0.405569
especi 0.033206 -0.285913 0.148855 0.254721 0.041514 -0.260919 0.125951 -0.143273 0.000829 0.281195 -0.120489 -0.427061 0.065860 0.119062 -0.063234 0.238182 -0.223324 -0.289841 -0.068024 0.001422 -0.233594
far 0.326348 -0.541259 0.160099 0.158162 0.200235 -0.297468 0.275571 -0.154614 -0.374945 0.027955 0.074710 -0.427836 -0.007468 -0.187197 0.042401 0.182519 -0.714458 -0.183868 -0.126348 -0.001701 -0.499803
instructor 0.439095 -0.347660 0.256243 0.480555 -0.439078 0.200032 0.398108 0.126789 -0.570393 0.270682 -0.131823 0.096327 -0.188627 -0.285938 -0.429650 -0.425897 0.242343 -0.145225 0.065731 0.164465 -0.418883
taught 0.036700 -0.358683 -0.064294 -0.218474 -0.092674 -0.422447 0.176536 -0.178902 -0.158289 -0.044284 -0.113465 0.052330 -0.072197 -0.130333 -0.469831 -0.258634 -0.268451 -0.260407 0.116254 0.440131 -0.356862
explain 0.204735 -0.385358 0.118077 0.243402 0.116956 0.277342 0.091962 -0.387873 -0.474376 0.597545 -0.262672 0.201372 -0.172172 -0.380488 -0.136275 -0.357074 0.077874 -0.497790 0.333648 0.360935 -0.366981
right 0.094907 -0.256961 -0.140806 -0.040764 -0.177267 0.202402 -0.080711 -0.102813 -0.088391 0.342775 0.170705 -0.227785 0.307113 -0.594240 0.020245 -0.045064 0.064596 -0.166907 -0.209798 0.336935 -0.239814
schedul -0.000561 -0.164812 0.158698 -0.146896 0.196609 -0.425689 0.021149 -0.122361 -0.163027 0.190305 -0.048995 -0.190119 0.132670 -0.168471 0.260411 0.149344 -0.049020 -0.574768 0.254161 0.125487 -0.149245
sinc 0.042421 -0.346097 -0.228587 -0.209101 -0.065639 -0.217107 0.182280 -0.068795 0.037329 0.153846 -0.146615 -0.286261 0.100082 -0.201884 -0.277913 0.141066 -0.213691 -0.181879 -0.068733 -0.070548 -0.359928
hand -0.085431 -0.190707 0.029739 0.229447 0.035678 0.036734 0.186425 -0.115809 -0.176097 -0.168520 -0.163721 -0.319799 -0.091272 0.110788 -0.260358 -0.046728 -0.192166 -0.487928 0.014571 0.207616 -0.129751
support 0.322396 -0.374843 -0.062803 0.408060 -0.023851 -0.082286 -0.000774 -0.086115 -0.027191 -0.031681 -0.049657 -0.213507 0.237293 -0.160090 -0.262172 0.228962 -0.344162 -0.256199 0.157510 0.217022 -0.359196
watch -0.258310 -0.185528 -0.398459 -0.336968 0.014828 -0.034919 -0.051187 -0.396059 0.289902 0.362946 -0.816216 -0.477013 -0.189474 -0.412029 0.358934 0.079667 -0.447102 0.008634 0.044657 0.206812 -0.292379
whole 0.022659 -0.034726 -0.438464 -0.093183 -0.295491 0.302338 0.062329 0.314262 0.039647 -0.193117 -0.079734 -0.376592 0.136092 0.291116 -0.397108 0.013444 -0.400318 -0.389606 0.028589 0.115127 -0.350580
fun 0.064422 -0.418728 0.088174 0.271156 -0.068632 -0.021476 0.190543 0.078759 -0.157717 0.152692 0.234640 -0.264310 0.267078 0.208831 -0.148373 -0.157401 -0.470217 -0.502451 -0.112575 0.072750 -0.385112
lack 0.090867 -0.294435 -0.051142 0.090494 0.099135 -0.397134 0.135691 0.042032 -0.048217 -0.232332 -0.332071 -0.234365 0.062785 0.036998 -0.102380 0.311890 -0.525912 -0.250077 -0.318516 0.051811 -0.213526
though 0.148846 -0.112383 -0.573227 0.002070 -0.097384 -0.034107 0.067036 -0.098057 -0.240182 0.070730 -0.248001 -0.278340 0.442388 -0.374380 -0.384688 0.063191 -0.430129 0.189241 -0.321425 -0.082229 -0.480128
due -0.081810 -0.280038 0.004238 0.229390 -0.184830 -0.164166 0.171665 -0.248794 -0.003643 0.004081 -0.053365 -0.306546 0.161219 0.059063 -0.139051 0.096856 -0.419910 -0.090808 -0.327393 -0.031904 -0.283086
languag -0.139669 -0.331397 0.390898 0.354435 -0.013312 0.300547 -0.182747 0.066041 -0.410802 0.034086 -0.270136 0.010378 -0.076018 0.571534 -0.706303 0.072484 -0.117112 -0.058339 0.170603 0.499951 -0.035916
present 0.156750 -0.033393 -0.177946 0.367900 0.048480 0.096505 0.014829 -0.520290 -0.137644 0.085580 -0.107639 -0.171034 0.072827 -0.327489 -0.289489 0.141598 -0.355032 -0.243007 0.017483 -0.051931 -0.365357
howev -0.142299 -0.385053 -0.226396 -0.218750 0.052904 0.047106 0.307181 -0.116567 -0.128236 0.000913 -0.344586 -0.396884 0.271230 -0.218196 -0.086849 -0.016733 -0.153081 -0.145975 -0.210408 -0.046949 -0.473192
separ -0.322328 0.018675 -0.180935 -0.353167 0.129632 0.061660 0.160472 0.161835 0.097244 -0.216203 0.625202 -0.682800 0.057185 0.350792 0.044542 0.636812 -0.321326 -0.664487 -0.129698 0.558307 -0.441413
cannot -0.195286 0.001133 -0.189618 -0.252796 -0.135520 -0.475689 0.308646 -0.047358 -0.490883 -0.124757 -0.191738 -0.114861 0.205375 0.091863 -0.064550 -0.319714 -0.104306 -0.241952 -0.342068 -0.181286 -0.220333
could -0.169174 -0.066322 -0.074941 -0.165411 -0.289697 0.015815 0.114352 -0.048235 -0.014135 -0.001496 -0.430767 -0.504482 0.077625 -0.107467 -0.175384 -0.116175 -0.024307 -0.296726 -0.195200 -0.121427 -0.308868
read -0.124375 -0.146432 0.085284 -0.020810 -0.034040 0.225459 -0.031752 -0.131580 -0.147666 0.267755 -0.233974 -0.236943 -0.101392 -0.091182 -0.114212 0.067025 -0.173216 0.059341 0.144544 0.558538 -0.239004
seem 0.197154 -0.272865 -0.083970 -0.181942 -0.440201 0.085754 0.018853 -0.161351 -0.163241 -0.044781 -0.007109 -0.195574 0.352731 -0.268661 -0.155868 -0.070511 -0.447010 -0.140665 0.062364 0.119918 -0.205402
wherea -0.279736 -0.320759 -0.120517 -0.301262 -0.085341 -0.312811 0.112863 -0.098604 0.005397 0.128683 -0.106734 -0.498302 0.385162 -0.243368 -0.007051 -0.036535 -0.300498 -0.288487 -0.242119 0.080900 -0.520652
chang -0.005185 0.145551 0.117245 0.200149 -0.112512 -0.200730 -0.173425 0.105556 -0.183389 -0.328045 0.178959 -0.507949 0.138271 0.219804 -0.018602 0.030580 -0.023281 -0.315186 -0.165769 0.409613 -0.147381
feedback 0.281034 -0.343949 0.466491 -0.018053 -0.224676 -0.068145 0.027701 -0.174887 -0.360921 0.278005 0.037601 -0.203198 0.413189 0.160243 0.389474 -0.051898 0.413648 -0.398721 0.130567 0.058031 -0.171517
follow 0.263673 -0.579690 0.329588 -0.055349 0.287517 0.058309 -0.041288 -0.507873 -0.393633 0.241504 0.169198 -0.253949 -0.238891 -0.220058 -0.091802 0.039904 -0.353982 -0.140602 -0.002809 0.163628 -0.374055
forc 0.065692 -0.126826 0.049902 -0.062029 -0.065202 -0.575542 0.107876 -0.231780 -0.158570 0.245275 0.268557 -0.297860 0.159802 -0.169580 0.228049 -0.143746 -0.311717 -0.550244 0.071211 -0.039715 -0.251229
assign 0.022888 -0.290697 0.047032 -0.002838 -0.046819 0.095281 0.043769 -0.231362 -0.019765 0.431645 0.218980 -0.236346 0.012444 -0.075864 -0.062255 0.167733 -0.039867 -0.344919 0.015817 -0.106291 -0.284481
cant -0.295446 -0.359708 -0.115416 -0.250480 -0.023585 -0.033579 0.152837 0.005882 -0.010248 0.016502 -0.066465 -0.384557 0.336484 0.203458 0.068548 -0.054932 -0.078493 -0.243918 -0.157210 0.124389 -0.380084
problem -0.125239 -0.501220 0.297916 0.110385 -0.194280 0.028738 0.081368 -0.308976 -0.379798 0.342172 0.118005 -0.117887 0.013242 -0.146758 -0.000313 -0.213707 0.050802 0.040622 -0.287131 -0.174890 -0.082608
provid 0.226983 0.109650 0.320373 -0.172817 -0.076115 -0.404122 0.432277 -0.194898 -0.359501 -0.356956 -0.291119 0.070116 0.104025 -0.149394 -0.189362 0.400353 -0.153181 -0.659713 0.422902 -0.366549 -0.434173
someon -0.006343 -0.010573 0.141418 -0.074347 -0.292316 0.261263 0.140200 0.168065 -0.322290 0.169692 -0.468638 -0.199279 -0.119335 -0.366889 0.010589 -0.467854 -0.041326 -0.301094 0.148091 0.299714 -0.204014
alway 0.008279 -0.084638 -0.166111 -0.175391 -0.197385 -0.165975 0.213202 0.063464 -0.107285 0.181574 -0.093954 -0.217166 0.184663 -0.243588 -0.078065 -0.034713 -0.125308 -0.225759 -0.179192 0.142554 -0.461766
there’ 0.379892 -0.263633 0.224938 -0.051637 -0.087274 -0.296973 0.578922 0.112753 0.034688 0.082994 0.288880 -0.392535 0.316732 -0.010629 0.027148 0.179007 -0.213977 -0.269270 0.133992 -0.273596 -0.314011
you’r 0.101598 -0.059778 -0.114136 0.246077 -0.221075 0.037195 -0.024247 0.212061 -0.047295 0.308192 0.212732 -0.379392 0.217824 -0.061080 0.080373 -0.042838 -0.342199 -0.281718 0.038150 0.305940 -0.414572
health 0.138527 0.051242 0.223430 -0.036519 0.191008 -0.357445 0.324111 -0.005576 -0.463991 0.069899 -0.020055 0.490076 0.298707 0.437825 -0.057799 0.042616 0.101703 -0.684587 0.447970 0.574200 -0.307733
new -0.154270 -0.097225 -0.461736 0.095551 -0.570809 0.488012 0.076627 0.103327 0.041669 0.384706 -0.002874 0.002798 0.282089 0.396450 -0.105789 -0.459912 0.166274 -0.562163 -0.370586 0.042357 -0.468284
put -0.031985 -0.110563 0.134443 0.064094 0.009127 -0.221046 0.013997 -0.267096 0.049565 0.022074 0.210447 -0.279704 0.424276 -0.270977 0.111559 0.176155 -0.230327 -0.393541 -0.100852 0.307842 -0.195707
sometim -0.143809 -0.432609 -0.236049 -0.078633 -0.183435 0.144630 -0.010287 -0.223481 -0.390972 0.190691 0.082068 -0.243780 0.148277 -0.236586 -0.071394 -0.114691 -0.041829 0.036985 -0.258203 0.181252 -0.339247
chat 0.368766 -0.009162 0.126052 0.120364 -0.605522 0.470229 0.093674 -0.270061 0.229903 0.424274 -0.633064 -0.140432 0.205168 0.219834 -0.276953 -0.056598 -0.166887 -0.346235 0.192176 -0.098789 -0.567838
convers 0.515054 -0.283564 0.301916 0.258887 -0.210620 0.183658 0.053833 -0.236589 -0.334952 0.094150 -0.094042 0.047876 0.062518 -0.090400 -0.129555 -0.155155 -0.125258 0.070845 -0.114567 0.165798 -0.240359
lesson 0.207356 -0.349586 0.048847 -0.221960 -0.158123 0.114885 0.328128 -0.127808 -0.143553 0.077620 -0.218843 -0.165991 0.163372 -0.136614 -0.241393 -0.279872 -0.167035 0.070446 -0.253080 -0.103931 -0.362668
there 0.187453 -0.163887 0.118225 0.000928 -0.142524 -0.230695 0.305551 -0.227079 -0.180357 0.186506 0.190401 -0.247495 0.177524 -0.079812 -0.059254 0.050197 -0.341331 -0.198638 -0.017272 -0.136136 -0.444211
year 0.031883 -0.045055 -0.185637 -0.220303 -0.203445 -0.200315 -0.150630 0.062461 0.230056 0.029448 -0.012055 -0.220627 -0.083344 0.293832 -0.366169 0.278179 0.013271 -0.107899 -0.196248 0.340719 -0.053534
zoom -0.067404 0.246974 -0.185190 -0.094110 -0.483883 0.347702 -0.121672 -0.343950 -0.018634 0.234198 -0.248322 -0.282788 -0.007532 0.017943 -0.183689 -0.441058 -0.321938 -0.149465 -0.175605 -0.107809 -0.128341
design -0.335346 0.023714 0.330723 0.098249 -0.025689 -0.360530 -0.048474 -0.116450 -0.205996 -0.327656 0.015224 -0.323697 -0.136488 0.063694 -0.366778 0.189290 -0.203982 -0.522156 0.130248 0.132249 -0.223528
email 0.028218 -0.154826 0.164412 -0.337230 -0.414977 0.297587 -0.311522 -0.116829 -0.024693 0.081936 -0.513251 0.202125 0.326763 -0.550929 0.381006 -0.089459 0.192626 0.150821 -0.080610 0.489306 0.026884
hour 0.070014 0.393239 -0.030559 -0.169316 -0.294647 0.330317 0.430439 0.129340 0.051378 -0.441787 -0.554556 -0.192957 0.249398 0.189249 -0.067622 -0.110659 -0.306340 -0.226389 -0.279718 -0.096324 -0.171129
issu -0.428628 -0.584043 0.570779 0.005970 -0.029299 -0.090734 0.309827 -0.410152 -0.483170 0.035666 0.155924 -0.000479 0.202785 -0.100711 0.070933 -0.216250 -0.242883 0.358460 -0.176227 -0.310861 -0.163055
qualiti -0.130959 -0.093165 0.248552 -0.045023 0.536574 -0.322468 -0.025875 -0.294564 -0.625400 -0.145071 -0.702280 -0.080285 -0.051263 -0.321435 -0.295763 -0.017408 -0.339888 -0.071167 0.335009 0.230335 -0.337760
gener 0.241669 -0.258385 -0.118091 0.218059 -0.064340 -0.101861 -0.085244 0.084752 -0.337586 -0.320566 0.163924 -0.368483 0.184103 0.038357 -0.227726 0.008383 -0.380922 -0.288172 -0.153784 0.082950 -0.442873
internet -0.456225 0.003321 0.096079 0.455774 -0.212299 -0.065059 -0.248233 -0.215817 -0.631123 0.067913 -0.071997 -0.387160 0.109368 -0.203125 -0.089495 -0.377167 -0.049816 0.455910 -0.271560 -0.040217 -0.158368
leav 0.381786 0.157746 0.011213 -0.452569 -0.412239 -0.465362 0.191064 0.137071 0.300989 0.181310 0.468535 -0.419333 0.263331 -0.116858 0.103942 0.001460 -0.279826 -0.301137 0.090058 -0.124633 -0.456583
natur 0.276878 -0.461380 -0.000939 -0.053045 -0.039147 0.195920 0.252782 -0.154764 -0.426224 -0.183971 -0.100628 -0.081789 0.124053 -0.269196 -0.201723 -0.280809 -0.204120 0.115277 0.001744 -0.030011 -0.439809
speak 0.380551 -0.403428 0.036929 0.168833 -0.286271 0.256128 -0.061394 -0.088529 0.047499 0.149920 0.017402 -0.056654 0.141689 -0.014053 -0.228909 -0.159717 -0.279446 -0.080868 -0.127009 -0.004939 -0.294954
mate 0.139338 0.087900 0.085780 0.039485 -0.479811 -0.105899 0.150351 -0.289987 -0.406039 0.300446 -0.519534 -0.157966 -0.026263 0.112276 -0.188795 -0.056506 -0.438810 -0.586362 0.145197 -0.241807 -0.708881
involv 0.186442 -0.171312 -0.194286 0.164143 -0.152668 -0.248720 -0.065143 -0.065775 -0.017820 -0.169423 -0.030425 -0.222572 0.363002 -0.064248 -0.097803 0.174080 -0.218072 -0.187021 -0.001981 -0.039823 -0.437874
isol 0.074007 -0.640059 -0.369436 0.158263 0.078712 -0.270012 0.345235 -0.070639 0.032569 0.210432 0.399656 -0.262061 0.621351 -0.187637 -0.149018 0.180026 -0.251215 0.065840 -0.225000 -0.337176 -0.663495
opinion 0.086871 -0.438374 0.396926 0.475905 -0.106790 0.077621 0.119196 -0.006689 -0.128674 0.180677 -0.049915 -0.010384 0.081040 -0.021706 -0.267083 -0.209845 -0.014179 -0.252564 -0.015492 -0.114731 -0.411831
socialis 0.656291 0.036360 0.075331 -0.001901 -0.390188 0.303982 0.265101 -0.017280 0.144179 0.490725 0.043163 -0.079828 0.199642 0.160951 0.021169 -0.043762 0.110807 -0.329454 0.241031 -0.005131 -0.413756
away -0.213151 -0.239816 0.273827 -0.308502 -0.184470 0.265057 0.106349 -0.055947 0.272329 0.205585 0.073309 -0.604390 0.317538 -0.748847 0.541196 0.147500 0.422704 0.047202 -0.292083 0.607189 -0.264037
base -0.075751 -0.213724 0.032867 0.150293 0.058825 -0.129441 -0.020857 -0.163183 -0.437175 -0.122913 -0.091449 -0.106993 -0.311669 0.379522 -0.419168 -0.085910 -0.241101 -0.334092 -0.158157 -0.043571 -0.304119
end 0.092850 0.014112 -0.140846 -0.226821 -0.247432 0.164889 -0.041291 -0.283690 -0.059863 0.394388 -0.563626 -0.325706 0.361178 -0.550598 0.196568 0.013199 -0.053933 0.020376 -0.198842 -0.031925 -0.262441
requir -0.073259 -0.245489 0.199935 -0.011986 -0.176396 -0.303691 0.294538 -0.270112 -0.167606 -0.110604 -0.333740 -0.040226 -0.206951 0.112665 -0.342137 -0.008018 -0.234883 -0.376011 0.100264 -0.136851 -0.300497
note -0.183640 -0.024888 -0.198492 0.039689 0.033312 0.112006 -0.164962 -0.396054 0.057708 -0.228634 -0.382220 -0.521759 0.035850 -0.312294 0.415842 -0.284527 0.010332 -0.242747 0.258060 0.040924 -0.323489
share 0.260488 -0.036408 -0.012103 0.711775 -0.444022 0.253729 -0.059337 -0.055189 -0.075978 0.022735 0.114861 0.057599 -0.102107 0.022162 -0.249994 -0.254949 -0.405892 -0.310513 -0.011218 -0.105863 -0.209794
video -0.400205 0.054457 -0.080370 -0.496868 -0.020270 0.035488 -0.053322 -0.359158 0.259868 0.228605 -0.647516 -0.389467 -0.110276 -0.067922 0.070856 -0.261268 -0.038437 0.091548 0.060741 -0.038780 -0.336498
interest 0.150192 -0.377944 0.066192 0.424368 0.085498 -0.059393 0.321354 -0.006241 -0.488103 0.151734 0.141725 0.113809 0.006993 0.064849 0.095727 -0.140775 -0.383546 -0.387366 -0.091452 -0.035154 -0.530078
skill -0.626066 -0.025668 0.180875 0.063348 0.319247 -0.130378 -0.202163 0.380511 -0.191515 -0.362231 -0.286950 -0.090650 -0.168173 0.073176 -0.391492 -0.193623 0.126874 -0.389731 -0.127510 0.394795 -0.264328
still -0.058382 0.221870 -0.154004 -0.036293 -0.031706 -0.172200 0.250612 0.197852 -0.133811 -0.360579 -0.434486 -0.374694 0.151140 -0.162354 -0.456104 -0.149491 -0.337217 -0.154364 0.053999 -0.218680 -0.506320
awkward 0.188661 -0.675375 0.014341 -0.260795 0.031562 0.003962 0.401882 -0.328649 -0.272536 0.322643 0.273122 -0.259982 0.231328 -0.244893 0.163072 -0.058110 -0.025577 0.049126 -0.200769 -0.375267 -0.452829
back -0.255586 0.215976 0.115880 -0.181678 -0.425231 0.067028 0.081137 0.049080 0.525858 0.078630 -0.063616 -0.690405 -0.036078 -0.279184 0.190510 -0.089792 0.128973 -0.143027 -0.198884 0.073373 -0.327215
comput -0.276272 0.063983 -0.150659 0.027086 -0.283326 -0.212016 -0.146870 0.094888 -0.005024 0.209959 0.169268 -0.416762 0.398159 -0.136809 -0.048221 0.127111 0.086037 0.260742 0.033402 -0.029534 -0.264327
creat 0.084688 -0.201613 0.151817 0.151817 -0.043051 -0.164055 0.014952 0.051810 -0.158626 -0.335905 0.223679 0.034266 0.070205 0.092608 -0.275045 0.184626 -0.258485 -0.480726 0.053079 0.127349 -0.300506
money 0.419522 -0.087495 0.033871 0.003757 -0.409828 -0.588510 -0.373215 -0.103386 -0.469652 -0.036225 0.544330 0.122141 0.916950 -0.183384 0.439681 0.041422 -0.092975 0.291977 -0.059704 0.253144 -0.014801
move -0.081262 0.052225 -0.090952 -0.351569 -0.287301 -0.066201 0.022045 -0.040354 0.427435 0.141591 -0.200938 -0.449981 0.134335 -0.145538 -0.160812 -0.000400 -0.074968 -0.118164 -0.132575 -0.023888 -0.377351
possibl -0.095724 -0.334722 -0.001352 -0.083423 0.048463 -0.087472 0.243960 0.013057 -0.184250 0.004661 -0.361579 -0.175165 0.273727 -0.156487 -0.064329 -0.252757 -0.042480 -0.251926 -0.213151 -0.102974 -0.475503
quit 0.188612 -0.174495 -0.041795 -0.108544 0.124247 0.021744 0.027546 -0.332841 -0.261400 0.069676 -0.190238 -0.321688 0.317115 -0.052009 0.062267 -0.049181 -0.379760 0.170146 -0.251566 0.155951 -0.278023
reason 0.336316 -0.130375 0.136144 -0.054331 -0.135708 -0.491506 0.112519 0.131565 -0.051179 -0.242849 -0.232745 -0.116972 0.428970 -0.228713 0.113756 -0.048887 0.084275 -0.328660 0.035667 -0.338131 -0.254472
relationship 0.557036 -0.163920 0.457901 0.572565 -0.222340 0.505600 -0.133532 -0.278997 -0.246868 -0.048765 -0.563387 0.295698 0.178646 -0.237820 -0.327573 -0.234437 0.187016 -0.062959 0.515101 0.322917 -0.160959
seminar 0.213040 -0.305846 0.251417 0.095894 -0.064890 -0.048388 -0.086928 -0.450720 -0.135109 0.190306 -0.391110 -0.435265 -0.153772 -0.171025 0.066738 -0.183089 -0.217836 -0.257855 0.103156 0.017138 -0.379067
struggl -0.190312 -0.294014 -0.143836 -0.147366 -0.043155 -0.092696 -0.076446 0.076039 -0.040071 0.186399 -0.102011 -0.359336 0.251208 -0.063559 -0.047161 -0.020162 -0.258441 -0.158334 0.114576 0.229894 -0.417905
tri -0.297633 -0.306888 -0.118200 -0.038348 -0.031694 0.026876 0.000359 0.177565 -0.031954 0.195055 0.121975 -0.324471 0.228411 -0.020493 -0.046900 -0.251987 -0.119222 -0.231569 -0.172892 0.222022 -0.380194
abil 0.154333 -0.134589 0.015881 0.116928 -0.161588 0.300779 0.152339 0.107928 -0.409848 0.280977 -0.135597 -0.060015 0.141712 -0.078340 0.030841 -0.467372 0.002053 -0.304155 -0.028045 0.115255 -0.523374
bedroom -0.131631 -0.067468 -0.118720 0.103248 0.225267 -0.235434 -0.186312 0.080625 0.156226 -0.190699 0.243296 -0.527009 0.128853 -0.101127 0.222685 0.318638 -0.275979 -0.159802 0.145890 0.508349 -0.441331
collabor 0.180900 -0.207708 0.365016 0.320528 -0.293216 0.099624 0.217950 -0.059642 -0.227949 0.153646 -0.038342 0.098725 0.012594 0.222569 -0.301053 0.010022 0.146913 -0.274093 0.068206 -0.041300 -0.383224
everi 0.147137 0.197176 0.091795 -0.358724 -0.408081 -0.158292 -0.040435 0.249195 0.589927 0.316458 -0.380886 -0.221975 0.404096 0.138690 -0.091712 0.013826 -0.295218 -0.258580 0.238675 -0.241140 -0.423884
exampl -0.235275 -0.177382 0.106900 0.243397 -0.007987 -0.039686 -0.011040 -0.139266 -0.025957 0.228882 -0.223359 -0.172486 0.005948 0.019115 -0.170353 -0.011816 0.072590 -0.360229 0.125078 0.168327 -0.318474
fellow 0.675610 0.051469 0.233236 0.887387 -0.500077 0.305946 0.486500 -0.184930 -0.082474 0.388734 -0.326411 -0.031301 0.081478 -0.118105 -0.667620 -0.285030 0.398171 -0.292304 0.309485 -0.021747 -0.841235
instead -0.127591 -0.003571 0.069116 -0.205279 -0.304628 0.093128 -0.068441 0.161899 0.063929 0.164604 -0.019193 -0.389445 0.224130 -0.255028 0.179729 0.020536 0.002606 -0.125034 -0.194215 0.159302 -0.233038
technic 0.027951 -0.555880 0.492649 0.227551 0.301674 -0.198868 0.326676 -0.713614 0.088538 -0.040398 0.291846 0.233145 0.216138 -0.354524 -0.082404 0.453348 -0.141480 0.497183 -0.310838 -0.375681 -0.084377
bodi 0.068162 0.082867 0.214143 0.055051 -0.236849 0.436057 -0.119832 0.110085 -0.842648 -0.100310 -0.172128 -0.090585 -0.411551 0.497026 -0.160772 -0.256619 -0.192801 0.146540 0.348288 0.338484 -0.295535
compar -0.136204 -0.225620 0.145251 0.029108 -0.161138 -0.052907 0.141815 -0.137200 0.048928 -0.218325 -0.019984 -0.435946 0.165105 0.017937 -0.247303 -0.097430 -0.257662 -0.188691 -0.102491 0.127154 -0.384758
debat 0.327009 -0.376807 0.501245 0.306937 -0.048845 0.267757 0.192678 -0.176800 -0.327707 0.342614 -0.039931 -0.116519 -0.228131 -0.159617 0.113152 -0.403205 0.014829 -0.073294 -0.080672 -0.107185 -0.476203
made -0.144294 -0.183265 0.050574 -0.154799 -0.053274 -0.049815 0.141162 -0.257088 -0.092637 -0.224523 0.074584 -0.161403 0.405492 -0.049295 -0.320238 0.164022 -0.392926 -0.033364 -0.502410 -0.176155 -0.384717
isn’t -0.290670 -0.174378 -0.008520 -0.085220 -0.040104 -0.225535 0.009403 -0.099091 -0.075329 -0.212993 0.074665 -0.447520 0.002825 0.208598 -0.145281 0.142742 -0.285902 -0.259603 -0.074066 0.228102 -0.321984
usual -0.114546 -0.096228 0.164573 -0.051538 -0.188317 -0.159425 0.374885 -0.039399 -0.043140 -0.001093 -0.116458 -0.099729 0.014367 -0.157008 -0.325222 0.070234 0.017498 -0.263907 0.085552 -0.271562 -0.342901
build 0.060533 0.261373 0.020419 0.318048 -0.046854 0.237789 0.025549 0.144367 -0.346932 0.240619 -0.150129 0.109802 -0.103047 0.034168 -0.148156 -0.434933 -0.126015 -0.081268 0.246506 0.205157 -0.094762
colleg 0.190914 0.142586 -0.037533 0.250947 -0.109872 -0.046040 0.026801 0.229407 0.136790 -0.163230 0.020291 -0.237336 0.021523 0.339197 -0.225890 0.198023 -0.237208 -0.265087 -0.115075 0.042517 -0.259861
effect -0.124782 -0.295820 0.204437 0.084910 0.039585 -0.211458 0.050953 -0.225983 -0.456415 0.009088 -0.060229 0.048982 0.039591 -0.037949 -0.174404 -0.313992 -0.129519 -0.181590 -0.022082 0.102005 -0.521780
great -0.307504 -0.087993 -0.097027 0.018417 -0.170722 -0.059156 0.053828 0.022603 -0.058603 -0.004957 -0.050425 -0.225490 0.066438 -0.110327 -0.430432 -0.079437 -0.186471 -0.290208 -0.169956 0.134657 -0.478819
certain -0.028217 -0.003909 0.110639 -0.478150 0.076515 0.395437 -0.197661 -0.058143 0.075497 0.207809 0.141730 -0.252945 0.134613 0.127661 0.146569 0.026586 -0.250854 -0.433366 0.098236 -0.089414 -0.245990
front -0.011134 0.310402 -0.057785 -0.166064 -0.278412 0.036627 -0.051847 0.004333 0.126207 0.214333 -0.207407 -0.224099 0.181057 -0.465494 -0.086928 -0.023068 0.085559 -0.046129 0.271788 0.174647 -0.216165
prepar -0.003573 -0.009836 0.029667 -0.125141 -0.139786 -0.200514 0.041459 -0.277864 -0.179738 0.007810 -0.580453 -0.162342 0.207451 -0.058854 -0.433810 0.117624 0.019694 -0.202261 -0.130025 0.026113 -0.236936
say -0.042635 -0.024095 -0.014355 -0.071173 -0.076783 -0.004128 0.432188 -0.030295 -0.337104 -0.201820 -0.081435 -0.093828 0.029934 -0.343465 -0.622723 0.129814 0.012385 -0.089099 0.020714 0.147624 -0.367458
small 0.147370 -0.431172 0.142201 0.016476 -0.386043 0.009625 -0.131153 0.072652 0.043934 0.418688 -0.037793 -0.055064 -0.680653 -0.170628 -0.173350 -0.205995 -0.198704 -0.364654 -0.255343 -0.211587 -0.396573
spend 0.120537 -0.121573 -0.028091 -0.749268 0.048433 0.367191 0.007949 0.055889 0.325474 0.303486 0.229391 -0.451588 0.292783 0.155259 0.030525 0.006724 -0.214908 -0.360682 0.199869 -0.215503 -0.567892
start -0.157081 -0.008583 -0.159108 -0.027546 -0.260360 -0.081380 0.056292 0.044873 0.277630 0.279487 -0.072105 -0.348288 0.212399 -0.086653 0.025510 0.128251 -0.218607 -0.256952 -0.101699 0.035471 -0.492143
they’r 0.231957 -0.031565 0.067571 0.189478 -0.035585 -0.115260 0.252171 0.004537 -0.366390 0.221742 0.197760 -0.245168 0.134630 -0.171238 -0.007360 -0.016997 -0.224283 -0.204026 0.035821 0.008205 -0.428948
academ -0.124457 0.153903 -0.159456 0.258035 0.098078 0.021952 -0.063303 0.187818 -0.151978 -0.258817 0.313421 -0.392831 0.137540 0.384925 0.055970 0.011992 -0.113383 -0.241167 -0.112574 0.098535 -0.471967
bit -0.021982 -0.342696 0.190291 0.016163 -0.191809 -0.030234 -0.184870 -0.148928 -0.016182 0.082193 -0.013722 -0.096566 0.157074 -0.211787 -0.007160 0.034137 -0.177119 0.072591 -0.330171 -0.033106 -0.295888
hear 0.357078 -0.161476 0.167357 0.329756 -0.096215 0.182544 0.066765 -0.100891 -0.073875 0.211843 -0.205230 0.126090 -0.046368 -0.151546 -0.147498 -0.137376 0.139369 -0.179369 0.222622 0.003348 -0.397872
process -0.369106 0.127903 -0.147242 0.289155 0.113032 0.173516 0.135240 0.273614 -0.096857 -0.120478 0.046547 -0.168451 0.063998 0.101819 -0.216517 -0.188285 -0.422479 -0.574386 -0.062595 0.463428 -0.509426
resourc -0.490767 -0.013957 -0.108291 0.101995 0.143112 -0.219300 -0.185356 -0.098529 -0.048456 -0.289960 -0.566069 -0.500413 -0.087252 -0.205192 -0.299255 0.018755 0.085926 0.318901 -0.148592 0.123128 -0.221674
walk 0.308698 0.651817 -0.183582 0.096016 -0.663665 0.207901 -0.296096 -0.222552 0.199756 0.514999 -0.057721 -0.232455 0.128875 0.420993 0.199145 0.380134 -0.312877 -0.350682 0.223241 0.017452 -0.391692
break 0.154509 0.150582 0.037892 -0.330573 -0.340710 0.401234 -0.020253 -0.089317 0.353268 0.188288 -0.263759 -0.280651 0.168087 -0.072615 0.131272 -0.112188 0.097612 -0.237643 0.174758 -0.131578 -0.274326
contribut 0.251886 -0.401939 0.103338 0.048131 -0.242039 0.379593 0.093078 -0.135459 -0.248223 0.340557 0.038851 0.000819 -0.153049 -0.236851 0.082173 -0.269860 -0.260613 -0.177489 -0.093695 0.020771 -0.545609
overal 0.309881 -0.036356 -0.136003 0.326341 0.338484 0.011376 0.250688 0.015383 -0.250535 -0.141772 -0.272188 -0.199697 -0.047380 0.105797 -0.231250 0.059115 -0.444749 -0.238926 0.239451 -0.128899 -0.618050
relax -0.441807 -0.173332 -0.030141 -0.376804 0.206047 0.012626 -0.203588 0.118435 0.213575 -0.142593 0.742987 -0.506498 0.227637 -0.114687 0.150138 0.283493 -0.338415 -0.211604 -0.206601 0.158839 -0.562461
tutori 0.218639 0.073615 0.122027 -0.142545 -0.085740 -0.017210 0.054300 -0.360482 -0.068516 -0.003278 -0.409073 -0.176652 -0.223301 -0.167513 0.073639 -0.027949 0.011886 -0.217307 0.114316 0.199305 -0.120678
complet -0.314868 -0.142952 -0.099086 0.022981 0.070244 -0.290782 -0.143465 -0.089541 0.053713 0.064566 0.054151 -0.265553 0.190782 0.283570 0.087296 0.192649 -0.313940 -0.308180 -0.283197 0.048040 -0.267786
definit 0.326486 -0.027330 0.108029 0.097436 0.119268 -0.107823 0.010854 -0.076576 -0.290528 -0.267923 -0.106337 -0.175696 0.212790 -0.186543 -0.241502 -0.077827 -0.384760 -0.193458 -0.129484 -0.177401 -0.307345
exam -0.198630 -0.066591 0.003602 -0.211169 -0.041211 -0.119420 -0.093335 -0.175841 -0.049526 0.027697 0.011741 -0.180778 0.186963 -0.150936 -0.009815 0.047290 -0.065329 0.029687 -0.110604 0.032809 -0.431590
nice 0.249547 -0.426531 -0.008597 0.279454 -0.334409 0.256582 0.198361 0.207992 -0.038263 0.259503 0.093664 -0.186133 0.106515 0.503396 0.032360 -0.253331 -0.075757 -0.276086 0.192485 -0.167381 -0.501837
normal -0.007273 0.062054 -0.154495 -0.168355 -0.055901 -0.089838 0.067011 -0.113290 0.064970 -0.145957 -0.214405 -0.308136 0.069437 0.046263 -0.031859 0.374449 -0.348814 -0.104185 -0.003759 -0.139781 -0.433466
show 0.117498 -0.221813 0.115495 0.087675 -0.207243 -0.098939 0.178598 -0.028514 0.105682 0.108420 -0.177621 0.038661 0.098036 0.015568 -0.422364 0.130309 -0.038962 -0.266582 -0.013122 0.083469 -0.237581
stress -0.007632 -0.269477 -0.279970 -0.103106 0.072178 -0.233328 0.153878 -0.078238 0.104166 -0.091139 0.519968 -0.163943 0.365965 -0.185467 0.010626 0.341435 -0.221313 0.055637 -0.158184 -0.210913 -0.577877
term -0.103542 0.106874 0.127454 -0.422345 -0.052750 -0.233583 0.102189 -0.166522 -0.203019 -0.050603 -0.234838 0.049000 -0.035120 -0.075232 -0.167005 -0.052705 -0.048813 -0.186072 0.011668 -0.031406 -0.163938
wait -0.005865 0.022728 0.141983 -0.507561 -0.362456 0.109047 -0.225726 0.077119 0.307533 0.309889 -0.338222 0.151893 0.204335 -0.458199 0.451758 -0.166277 0.265278 0.125836 0.156354 0.172451 0.036680
bounc 0.780079 -0.100013 0.073631 0.808122 -0.539540 0.485688 -0.095122 0.058390 -0.295300 0.192298 0.200306 0.149562 -0.267105 0.117664 -0.114952 -0.454895 -0.289906 -0.245111 0.067134 -0.042026 -0.529774
gain 0.034952 -0.078196 -0.137712 0.063496 0.158670 -0.007469 -0.048148 -0.093223 -0.317426 0.053828 -0.008668 -0.070342 0.066875 -0.320778 -0.086869 -0.100507 -0.182358 -0.156722 0.085989 0.212261 -0.403448
immedi 0.459840 -0.307059 0.354357 -0.160435 -0.578910 -0.162882 0.233527 -0.075355 -0.143644 0.281502 0.026440 0.251663 0.166483 -0.355723 0.128559 -0.186736 0.608624 -0.126728 0.125049 0.283150 -0.444998
least 0.014436 -0.065408 -0.019546 0.011707 -0.287439 -0.148505 -0.129187 -0.322718 -0.055938 -0.167072 -0.378931 0.044939 0.281151 -0.249987 -0.221495 0.039854 -0.105043 -0.085305 -0.026351 -0.137289 -0.441483
moment 0.030606 -0.336756 0.130521 -0.008533 -0.212107 0.176181 -0.015570 -0.145054 -0.078406 0.335589 -0.139660 -0.086611 0.175485 -0.474063 0.171725 -0.015783 0.079268 -0.180235 -0.068651 0.112272 -0.480812
semest -0.196122 -0.055513 0.038807 -0.352463 -0.195680 -0.356894 0.030270 -0.242456 -0.189598 -0.079440 -0.190198 0.024342 -0.162589 -0.055871 -0.250395 0.090128 -0.295663 -0.142551 -0.322402 -0.222228 -0.338561
theatr -0.109204 0.250801 0.048358 0.037026 0.079566 -0.168523 -0.186733 -0.357895 0.185769 0.047100 -0.399961 -0.489058 -0.173491 -0.185956 0.231733 0.152207 -0.337622 -0.275315 0.224763 0.319851 -0.334397
turn 0.050973 -0.167486 -0.014257 0.170577 -0.323535 -0.127698 -0.077022 -0.044025 0.097580 0.219844 -0.127942 0.096303 0.081917 -0.203672 0.019925 0.109911 -0.098156 0.053445 -0.151453 -0.023334 -0.049876
call -0.146057 -0.021994 -0.425061 -0.114769 -0.137491 0.210057 0.216186 -0.284532 0.357076 0.100672 -0.477624 -0.112697 -0.025364 -0.079032 0.027508 -0.017618 -0.038067 -0.022647 -0.231908 -0.054512 -0.232238
didn’t -0.127176 -0.072284 -0.214621 -0.114652 0.060097 -0.025095 0.027468 -0.130583 0.029716 0.089574 -0.217239 -0.197788 0.240871 -0.016296 -0.100441 -0.052508 -0.109025 -0.089682 -0.073571 0.141291 -0.244187
knowledg 0.017996 -0.147377 0.075765 0.235097 -0.061790 -0.024006 -0.161312 -0.032264 -0.192353 -0.291596 -0.171486 0.086091 0.090469 0.020533 -0.337728 0.021392 -0.111246 -0.092081 -0.027009 0.178150 -0.184535
lone 0.191091 -0.316348 -0.383047 -0.056902 0.013290 -0.125524 0.144435 -0.164339 -0.000816 0.111667 0.300071 -0.253598 0.777612 -0.067149 -0.114144 0.320271 -0.215309 0.101436 -0.234786 -0.231708 -0.735993
situat -0.097562 -0.101541 -0.393797 -0.102990 -0.002295 -0.032093 0.089667 0.107325 0.180855 -0.276399 -0.404125 -0.303806 0.146028 0.344071 -0.309385 0.111830 -0.015846 0.104851 -0.128448 -0.046347 -0.302819
somewher -0.322219 0.484978 -0.162021 0.064570 -0.465321 -0.105486 0.208933 0.353539 0.643049 -0.017750 0.163227 -0.606402 0.365872 -0.040114 0.011420 -0.306926 -0.081723 -0.453169 -0.060696 0.191902 -0.602378
believ 0.119838 -0.183585 0.330107 0.137209 -0.135671 -0.180518 0.310764 -0.037844 -0.307673 -0.119720 -0.158171 0.041526 -0.096650 0.065506 -0.258431 0.005568 -0.269435 -0.320493 0.002359 -0.165477 -0.504277
benefit -0.034461 -0.111627 0.321512 0.004073 -0.111035 -0.184717 0.041982 -0.021666 -0.138697 -0.003962 -0.277548 0.029873 0.174559 -0.130805 -0.162325 -0.144524 -0.036745 -0.214043 0.089966 0.062009 -0.302174
chanc 0.342119 0.058890 0.149452 0.043032 -0.059841 -0.064258 0.411411 -0.005980 -0.399309 0.290444 0.133617 -0.050420 0.364025 -0.054204 0.082867 -0.260080 -0.080044 -0.171034 0.030115 -0.500613 -0.518311
creativ 0.042200 -0.175398 -0.044024 0.359994 -0.074706 -0.110422 -0.236062 -0.125731 -0.177035 -0.069715 0.000918 0.068286 -0.320935 0.250435 -0.292864 -0.059597 -0.181823 -0.158206 0.068405 -0.095603 -0.206329
current -0.023024 -0.216585 -0.068510 0.001800 -0.046501 -0.077625 0.021234 -0.034947 -0.097981 -0.309748 -0.278007 -0.164330 0.264227 -0.158341 -0.250008 -0.099193 -0.104028 0.044243 0.031583 0.053655 -0.386154
direct 0.425735 0.117835 -0.123974 0.316249 -0.100077 0.310799 0.466964 0.043578 -0.185647 -0.044394 -0.412612 0.040470 0.147242 0.244708 -0.219671 -0.045017 -0.103998 -0.126685 -0.221140 -0.341462 -0.524671
doesn’t -0.062582 -0.149718 -0.463848 0.008100 -0.134358 0.060747 -0.141022 0.018029 -0.048583 -0.281357 0.229616 -0.480871 0.493702 -0.238921 -0.288238 0.187844 -0.253508 -0.035641 -0.303400 0.077280 -0.595273
happen 0.049374 0.073317 0.204780 -0.040210 -0.173563 0.004470 -0.051871 -0.170187 -0.093870 -0.083467 -0.197646 -0.010801 0.152595 0.065886 -0.273601 -0.154043 -0.288508 -0.126880 -0.162061 0.032675 -0.379289
major -0.038535 -0.063024 0.247803 -0.136097 -0.389023 -0.215327 -0.267361 -0.195258 0.057861 -0.195608 -0.308004 0.060684 -0.017247 0.044513 -0.274181 0.109667 -0.151055 -0.092201 -0.101692 -0.051192 -0.316369
mindset -0.246390 -0.152898 -0.007274 0.011565 0.130574 -0.342322 0.139068 0.160487 0.148404 -0.067773 0.485648 -0.275104 0.274339 -0.110439 0.162704 0.159999 0.032292 -0.390414 0.017959 0.474703 -0.518180
respons 0.173771 -0.073743 0.154033 0.012456 -0.291719 -0.136633 -0.013914 0.075352 -0.020212 -0.122065 0.027458 0.087815 0.413401 -0.307622 -0.047566 -0.036878 0.047651 -0.174653 0.112548 -0.005385 -0.198101
therefor -0.074089 -0.297428 0.223334 0.155574 0.023279 0.026623 0.024379 0.055151 0.004382 -0.205562 -0.081230 -0.152620 0.247077 -0.071373 -0.196776 0.110073 -0.112864 -0.236908 -0.108313 0.125486 -0.384985
although -0.131952 0.046851 -0.185484 -0.147490 -0.009949 -0.208588 -0.042976 -0.038042 -0.044284 -0.121065 -0.285919 -0.209832 0.191661 0.073045 -0.342505 0.011889 -0.279406 0.048435 -0.235839 -0.065288 -0.490316
anoth 0.017320 -0.111456 0.029123 -0.115687 -0.133594 0.104867 0.211956 0.015340 0.322980 -0.230372 -0.001388 -0.255097 -0.060551 -0.379089 0.014931 -0.085299 0.048310 -0.217277 -0.039145 0.022825 -0.323914
becom -0.096282 -0.093534 0.169207 0.159076 0.063289 -0.096080 0.053335 0.081566 0.001098 -0.030061 0.041280 -0.260375 0.187424 -0.071580 -0.105612 -0.015532 -0.300226 -0.063067 -0.203736 0.092466 -0.320227
effort -0.103112 -0.242701 -0.439848 -0.107452 -0.047329 -0.120698 0.206497 -0.051098 0.115247 0.070418 0.238629 -0.189804 -0.096390 -0.172325 0.064288 -0.068533 -0.297393 -0.097589 0.023453 -0.035227 -0.432963
look 0.008297 0.390651 -0.233335 -0.161334 -0.628366 0.023792 0.017545 0.100657 -0.077693 0.360069 -0.045557 -0.028738 0.405052 -0.250606 -0.138371 0.054345 -0.039192 0.018802 -0.036549 0.069035 -0.241302
mind -0.208363 0.019185 -0.075942 0.095817 -0.410721 -0.067149 -0.133418 0.006408 0.228437 0.018851 -0.076464 -0.264983 0.464613 0.039510 -0.304602 0.075125 -0.073843 -0.074726 -0.339814 0.112367 -0.383418
session -0.181660 -0.093901 0.294703 -0.277474 0.097803 -0.031989 -0.029264 -0.065562 -0.044744 -0.247476 -0.329622 -0.115512 -0.149591 0.076270 -0.236947 -0.184326 0.205905 -0.186892 0.022985 -0.061333 -0.398458
side 0.223699 -0.126053 0.303035 -0.270724 -0.025306 0.191362 0.170834 -0.016014 0.060108 -0.406032 -0.533067 -0.186798 0.249024 0.558153 -0.404790 -0.000069 -0.011368 -0.397281 0.215390 -0.162630 -0.428113
concept -0.279499 -0.127053 0.360963 0.107763 0.065338 0.098500 -0.269326 -0.150818 -0.347743 0.372573 -0.336268 0.104753 0.105626 0.005441 0.083667 -0.497109 -0.054349 -0.279058 0.033502 0.406423 -0.362773
flexibl -0.004552 -0.261853 -0.074387 -0.039874 0.195320 -0.245083 0.099458 -0.141856 0.094555 -0.184686 -0.387996 -0.236772 0.046061 0.063223 -0.444685 0.114835 -0.228106 -0.078830 -0.059799 -0.249904 -0.573895
form -0.102622 0.059864 0.109957 0.187231 -0.164559 0.084235 0.065962 -0.114843 -0.265841 0.116668 -0.097104 -0.087207 -0.154114 0.017630 -0.366236 -0.296019 0.083592 -0.135288 0.007314 -0.086769 -0.612108
found 0.014639 -0.341226 0.101674 -0.038017 0.226281 0.065380 0.140244 -0.312596 -0.147546 0.166932 -0.152596 -0.163040 -0.106806 0.022173 -0.181058 -0.062470 -0.205091 0.098027 -0.380894 0.006600 -0.486140
greater 0.417194 0.050941 0.150407 0.261297 -0.096314 -0.257971 0.132420 -0.043565 -0.218453 -0.025752 -0.023057 0.068326 0.111253 0.027074 -0.045115 -0.117556 -0.185156 -0.177432 -0.034975 -0.211358 -0.388575
inspir 0.115207 -0.217301 -0.101110 0.501494 -0.014051 0.030412 -0.003185 0.115520 -0.283033 0.170061 0.422710 -0.028009 0.186100 0.135471 -0.041843 -0.046831 -0.309299 -0.097388 -0.039488 0.118521 -0.616199
longer -0.050043 -0.276393 -0.122722 -0.156540 0.089004 -0.035497 -0.298549 -0.348082 -0.088736 -0.043077 -0.053470 -0.292048 0.151715 -0.174988 0.331437 -0.052847 -0.048718 -0.067646 0.079539 0.092863 -0.501071
project -0.082858 -0.376638 -0.074932 0.119136 -0.209117 -0.227739 -0.158911 0.105645 0.033378 0.391630 0.420296 -0.086299 -0.381455 0.199466 0.029251 0.323248 -0.008734 -0.645887 -0.101829 -0.020276 -0.344052
directli 0.278855 -0.308660 0.209275 0.243579 -0.342205 0.122265 0.031236 -0.261675 -0.317304 0.537605 -0.525582 0.151990 0.017467 -0.309139 -0.030491 -0.231648 0.329858 -0.251780 -0.073529 0.048770 -0.471918
encourag -0.054416 -0.018593 -0.097199 0.444836 0.104206 -0.052724 0.094664 0.112100 -0.260719 -0.011941 0.334220 -0.250303 -0.155127 0.085224 0.010043 -0.257491 -0.398373 -0.416409 -0.087921 0.207705 -0.775138
given -0.290125 -0.210083 0.172774 -0.034983 0.040256 -0.211646 -0.078901 -0.249455 -0.053275 -0.025583 -0.112138 -0.023468 -0.085674 -0.035319 -0.144465 0.088884 -0.215378 -0.148850 -0.150473 0.009151 -0.405587
hall 0.175979 0.268837 -0.119064 0.098367 0.062186 0.067284 -0.073194 -0.348320 0.138101 0.332136 -0.320026 -0.527704 -0.047311 -0.355576 0.525874 -0.025145 -0.237044 -0.176830 0.371356 0.271607 -0.697950
long 0.014508 -0.004746 0.091087 -0.446107 -0.081469 0.099845 -0.212154 -0.149153 -0.008462 0.103745 -0.076189 -0.208556 0.154728 -0.119708 0.205805 -0.107776 -0.249886 -0.118574 0.152113 -0.097244 -0.367709
open -0.179986 -0.061231 0.217527 -0.259299 -0.142659 -0.123231 -0.092721 -0.092826 0.024375 0.008650 -0.158721 -0.053378 0.078925 0.058087 -0.091081 0.003820 0.025253 -0.166469 -0.261943 0.094828 -0.291670
plu 0.210918 -0.060057 0.101896 -0.056848 -0.216163 0.081805 0.206236 -0.003426 0.026849 0.287524 0.022822 -0.250951 0.124118 0.150915 -0.059098 0.056871 -0.149860 -0.294706 -0.033087 -0.144675 -0.563719
properli 0.116351 0.025790 0.107671 0.145197 -0.175102 0.076270 0.111727 0.007879 -0.244812 0.314402 0.048986 -0.013594 0.091991 -0.118474 0.093735 -0.240769 -0.003179 -0.133177 -0.004717 0.037542 -0.523373
tend 0.080029 -0.241208 0.170030 0.110781 -0.024153 -0.184883 0.024068 -0.449488 0.052033 0.082427 -0.157134 0.017427 0.129598 -0.146148 -0.030513 0.172894 -0.318904 -0.086583 -0.032994 -0.195215 -0.388802
case -0.220485 -0.040235 0.026536 0.011168 0.053568 -0.135771 0.070483 -0.039936 -0.072372 -0.226114 -0.204173 -0.225101 0.233683 -0.044345 -0.197376 -0.058434 -0.232502 -0.156258 -0.064062 -0.042592 -0.503056
fact 0.088639 0.194945 -0.059278 -0.077683 -0.379913 -0.168985 0.025651 0.058381 0.185554 0.128664 -0.204042 -0.262600 0.136701 -0.025781 -0.142960 0.044852 -0.082183 -0.137032 -0.092508 0.187286 -0.460123
higher -0.044619 -0.189181 0.023335 0.120261 0.244355 -0.162886 0.132798 0.049012 -0.237594 -0.342710 -0.083286 0.156584 -0.116926 0.028782 -0.103558 -0.043856 -0.414328 -0.078164 0.097399 0.049744 -0.319073
hold 0.455755 -0.013490 -0.033350 0.202373 0.027640 -0.408009 -0.057284 0.244842 -0.007433 0.294283 0.498576 0.257968 0.022663 -0.348781 -0.043003 -0.055590 -0.712586 -0.050150 -0.320401 0.291950 -0.247363
level 0.158924 0.005973 -0.061110 0.143636 0.058887 -0.348380 0.160769 0.038544 -0.265975 0.079509 0.056274 0.001169 0.148005 0.072318 0.076658 -0.028284 -0.152026 -0.187231 -0.172263 0.011278 -0.440105
littl -0.177971 0.002474 -0.143370 0.074381 -0.025464 -0.060198 -0.016550 -0.052493 -0.204862 0.070250 -0.126651 -0.018029 0.175772 -0.092573 -0.090444 -0.076588 -0.137916 -0.152501 -0.091452 -0.020624 -0.372225
never -0.254136 0.060351 0.105685 0.010907 -0.104179 0.090127 -0.084373 -0.089947 0.153606 -0.100807 -0.226529 -0.222021 0.046609 -0.064090 -0.059587 -0.148797 -0.073502 0.059884 -0.190225 0.058924 -0.340789
next 0.216787 0.079155 0.189848 0.007226 -0.397245 0.064134 -0.193075 -0.131092 0.336005 0.243435 -0.204104 -0.053569 0.230367 0.112084 0.079776 0.064581 0.033693 0.000848 -0.115664 0.021259 -0.445654
offer 0.084114 -0.043379 0.276512 -0.051812 -0.110372 -0.248609 0.169385 -0.241397 -0.327497 -0.203458 -0.327304 0.064350 -0.109501 -0.115161 -0.334446 0.087625 -0.171266 -0.186253 0.004448 -0.235739 -0.549807
that’ -0.124095 -0.227488 -0.232541 -0.007751 0.285070 -0.093746 0.100221 -0.047147 -0.116111 -0.132967 0.032849 -0.368391 -0.052547 0.144812 -0.262574 0.004215 -0.291028 0.125639 -0.051459 0.132197 -0.621527
worth 0.253910 -0.183817 -0.127486 -0.170746 -0.276061 -0.270074 -0.117454 0.153640 0.088855 0.060692 0.588705 0.150614 0.479672 -0.176691 0.050861 -0.054981 -0.017784 0.343098 -0.112619 0.074619 -0.043639
write -0.118539 0.004096 0.273035 -0.086257 -0.139350 0.048892 -0.197525 -0.403480 0.134065 0.185152 -0.217062 0.275494 -0.060055 -0.266416 0.014494 0.107909 -0.116587 0.119681 -0.173614 0.068115 -0.216845
your -0.272468 0.009800 0.107415 0.104956 0.036358 -0.118723 0.029132 0.210266 -0.073960 -0.019138 0.301390 -0.223700 0.214294 -0.162830 0.029342 0.005984 0.027032 -0.199472 -0.025731 0.224803 -0.441018
field -0.553935 0.052337 0.204424 -0.010342 0.094903 -0.083689 -0.068809 -0.147898 0.037873 -0.052910 -0.179522 -0.080624 0.046508 0.416138 -0.098153 0.220168 0.058844 -0.253032 -0.033184 -0.115484 -0.193380
full 0.160754 -0.154112 -0.156990 -0.236109 0.032848 -0.458274 0.096372 0.006784 0.017731 -0.261587 -0.132488 -0.063532 0.265642 0.180063 -0.021564 0.024023 -0.003986 -0.051093 -0.081580 -0.060009 -0.392290
kind -0.097678 -0.028417 0.096170 -0.082836 -0.198015 -0.167481 0.046105 -0.091187 -0.211202 -0.039597 -0.081311 0.036669 0.210370 -0.104734 -0.082829 -0.220622 -0.105142 -0.224707 0.023542 -0.022133 -0.431954
laptop -0.129726 0.087491 -0.104819 -0.344370 -0.117994 -0.212997 -0.105201 0.108829 0.164782 0.091406 -0.030271 -0.221062 0.109183 -0.171763 0.118295 0.118214 0.002762 -0.003827 0.069426 -0.021739 -0.527206
larg 0.121286 0.031569 0.031590 -0.186493 -0.170944 -0.259308 -0.011063 -0.141642 0.061382 -0.084405 -0.158580 0.219999 -0.210225 0.166970 -0.466728 0.062762 -0.302849 -0.147616 -0.140664 -0.114183 -0.273536
may 0.006136 -0.101393 -0.007556 0.026435 -0.043615 -0.154319 -0.061980 -0.125046 0.015763 0.112300 -0.143558 0.058965 0.157863 -0.270911 0.001448 0.010077 -0.076062 -0.073339 -0.152259 0.145169 -0.368155
proper 0.075326 0.004655 0.154034 0.257108 -0.037756 -0.005764 -0.044826 -0.033090 -0.201830 -0.045022 -0.099429 -0.069346 0.003119 -0.036202 -0.014446 -0.128902 0.012342 -0.286733 0.133923 0.077165 -0.329240
specif -0.054052 -0.231101 0.139547 -0.053240 -0.030705 0.172830 0.090154 -0.175955 -0.051964 0.284740 0.152535 -0.075214 -0.099266 -0.062294 0.017840 0.007890 0.003183 -0.399052 -0.026612 0.204513 -0.396910
technolog -0.012417 -0.162652 0.058059 -0.009095 -0.064336 -0.251510 -0.038162 -0.238073 0.038289 -0.014058 0.033454 0.049045 0.279205 -0.041854 0.149194 0.089956 -0.054178 0.111809 -0.080141 -0.057472 -0.105742
add 0.058732 0.106967 0.156851 -0.357204 -0.026610 -0.136337 0.155127 -0.103735 0.029603 -0.140897 -0.309706 0.049013 0.039420 -0.073618 0.070657 0.160017 -0.033758 -0.312925 0.209010 0.016635 -0.364926
bed 0.171862 0.004369 -0.161299 -0.133526 -0.521381 -0.430763 -0.131641 0.082413 0.389842 0.135975 -0.153368 -0.179458 0.380355 0.007402 0.401548 0.061078 0.259778 -0.044627 -0.103384 0.019647 -0.339087
behind -0.140295 0.181685 -0.215828 -0.188025 -0.252067 -0.210821 -0.160474 -0.045998 -0.158282 -0.082450 0.132295 -0.083606 0.347762 0.044304 0.090710 0.299521 0.068601 0.075879 -0.265628 0.000122 -0.149186
camera -0.158954 0.096877 -0.127443 -0.002128 -0.350708 0.065161 -0.176105 -0.066502 0.232926 0.151701 -0.063707 0.021021 0.129162 -0.076228 -0.168780 -0.125245 -0.061082 0.287057 -0.227486 -0.215356 -0.075821
famili -0.049871 0.071207 0.112532 -0.043428 -0.173281 -0.011326 0.078972 0.177156 0.277460 -0.037509 0.172374 -0.360222 0.107300 0.003648 0.141475 0.179041 0.125177 0.155526 -0.137103 0.105917 -0.252308
felt 0.106167 -0.161717 0.288401 0.160172 -0.129145 -0.043759 -0.063219 0.001502 -0.227986 0.025970 0.141239 -0.094628 0.118965 -0.153626 -0.088047 -0.009811 -0.237461 0.016180 -0.047899 0.358408 -0.379264
flow 0.120966 -0.182388 0.150171 0.124758 -0.037094 0.052954 -0.043742 -0.276361 -0.234867 0.059611 -0.191038 0.209027 0.069203 -0.038042 -0.034669 -0.078702 -0.153383 0.108966 -0.074684 -0.313473 -0.386563
lost -0.051228 -0.175985 -0.001360 -0.332622 -0.112713 -0.098292 -0.062939 -0.224781 0.122057 -0.040029 -0.251313 -0.072543 0.168426 -0.096643 -0.129518 0.045784 -0.190125 0.089100 -0.260773 -0.064167 -0.452250
procrastin 0.007295 -0.216055 0.116820 -0.087626 0.011963 -0.194438 0.037239 -0.321195 0.014998 0.076058 0.073346 -0.152501 0.112331 -0.149986 0.139299 0.276652 -0.216779 0.081976 -0.151073 -0.121458 -0.417430
purpos 0.129842 0.361350 -0.260087 0.019896 -0.276154 -0.256824 0.082370 0.238506 0.153080 -0.149624 0.292241 0.010856 0.249597 -0.123244 -0.172598 0.157415 -0.454889 -0.148655 0.061100 0.193296 -0.414848
simpli -0.069922 -0.084216 0.059581 -0.141129 0.075910 -0.217813 0.204434 -0.081601 0.039068 -0.252423 -0.113898 -0.124616 0.033023 -0.083825 -0.206004 -0.029288 -0.115390 -0.008906 -0.126342 -0.172477 -0.462960
stuck -0.016488 0.112975 -0.245898 -0.133255 0.030564 -0.136587 -0.203114 0.164302 0.250630 0.086253 0.189549 -0.316193 0.075458 -0.137056 0.139630 0.181246 -0.114866 0.098791 0.043252 0.287617 -0.255478
stuff 0.001954 -0.040526 0.131030 -0.028416 -0.074888 -0.041049 0.058074 0.148377 0.022416 -0.002023 0.037148 -0.034251 0.197815 -0.021644 -0.062703 -0.049841 -0.008605 -0.138494 -0.008038 0.126094 -0.318920
unmotiv 0.060580 -0.121366 -0.298055 0.112289 -0.145842 -0.084216 -0.058432 0.030963 -0.121542 -0.181186 0.037237 -0.253046 0.608836 -0.207314 -0.075432 0.122109 -0.132915 0.022104 -0.271233 -0.083263 -0.661540
week -0.216998 0.134638 -0.031664 -0.077202 -0.145441 0.028978 -0.124889 -0.009679 0.140549 -0.164410 -0.251566 -0.005187 0.172125 0.250691 -0.154350 -0.004302 -0.065206 -0.102973 -0.197990 -0.124488 -0.284140
doesnt -0.380329 -0.103081 -0.137988 -0.022878 -0.029618 -0.193685 -0.036094 -0.053949 0.028702 0.038126 0.185437 -0.292458 0.387948 0.022385 0.042444 0.093615 -0.073667 -0.327032 -0.213369 0.029740 -0.454929
effici -0.141770 -0.253790 0.068766 0.088007 -0.023629 -0.161281 0.058620 -0.132856 -0.166192 -0.089370 -0.068350 -0.005849 -0.042840 0.033195 -0.085794 -0.029246 -0.025950 -0.124064 0.015669 -0.071793 -0.539419
element 0.350979 -0.196626 0.175221 -0.275676 0.125924 0.047061 0.280115 0.092289 0.056500 -0.420322 -0.176682 -0.255691 0.098403 0.520177 -0.409904 0.068272 0.166931 -0.188705 0.259860 -0.239375 -0.588502
enough -0.055901 -0.115429 0.008624 -0.018792 0.037427 -0.193138 -0.022672 -0.030899 -0.070056 0.068894 0.041103 -0.039084 0.096075 0.051765 -0.036082 0.144473 -0.159298 0.055164 -0.118710 0.000447 -0.304631
mainli 0.193592 -0.040992 0.134070 -0.014344 0.078145 -0.030021 0.115103 -0.058850 -0.097632 -0.209612 -0.330832 -0.123334 0.005248 0.257326 -0.183856 0.101749 -0.054341 -0.078665 0.138484 -0.118134 -0.548684
medicin -0.384962 -0.040207 0.183984 0.335152 0.388069 0.034422 0.022474 0.120247 0.044217 -0.379518 0.114686 -0.342049 -0.111755 0.315718 -0.060791 0.124222 -0.082028 -0.378707 0.102083 0.241520 -0.469149
option 0.124827 -0.251643 -0.234605 0.169152 0.094957 0.018925 0.000099 -0.021437 -0.199197 0.060824 -0.078932 -0.212192 0.137676 -0.183817 -0.195549 -0.054425 -0.112846 0.031988 -0.028469 0.068408 -0.604403
outsid 0.000237 0.305717 0.041155 -0.113726 -0.398501 -0.059502 -0.003727 0.039821 0.482423 0.103517 0.053541 -0.335051 0.173813 0.042578 0.115041 0.015692 0.057409 -0.273607 0.065265 0.025482 -0.373192
receiv -0.022658 -0.140626 -0.005092 -0.044188 0.056902 -0.126029 0.084809 -0.145537 -0.101236 -0.043699 0.008363 0.035553 -0.138681 -0.114744 -0.229441 0.054846 -0.012886 -0.019656 -0.120005 0.015869 -0.494118
rememb 0.128379 -0.166443 -0.106033 0.102660 0.024293 -0.002016 0.183344 -0.014527 -0.159648 0.230693 0.276905 -0.038506 -0.040388 -0.091524 -0.041273 0.032806 -0.063470 -0.127204 -0.005617 0.197884 -0.467856
stare -0.116728 0.403344 -0.345474 -0.529924 -0.362128 -0.090300 -0.076575 0.298973 -0.066228 0.179557 0.129260 -0.100770 0.420600 -0.046186 0.290174 0.164475 0.019338 0.260328 -0.059916 -0.107893 -0.058489
wifi -0.110535 0.055035 0.076547 -0.028847 -0.113155 -0.106503 -0.018465 -0.117284 -0.006160 0.081423 -0.136238 0.035213 -0.001402 -0.069065 -0.180203 -0.057694 0.121494 0.266021 -0.107834 0.076288 -0.208783
adapt -0.130648 -0.068630 -0.034909 -0.209277 0.056200 0.044058 0.141463 -0.067021 -0.257751 -0.082984 -0.180258 -0.046753 -0.084738 0.048488 -0.400424 -0.064362 -0.107895 -0.165835 -0.048729 0.084436 -0.611441
addit 0.000794 -0.335118 0.085840 0.002778 -0.042738 -0.024995 0.113631 -0.141546 -0.268645 0.004864 -0.053185 -0.014084 0.051974 0.037259 -0.208656 -0.048627 -0.219250 -0.235462 -0.153602 -0.017123 -0.570421
afterward 0.105440 0.120827 0.081456 0.093754 -0.148883 0.354102 0.038032 -0.124982 0.134425 0.339992 -0.003861 -0.079996 0.084989 -0.246905 0.086192 -0.119415 0.221265 0.048960 0.063379 0.046534 -0.329414
art -0.171045 0.070013 -0.193564 -0.304039 0.017089 -0.091904 0.008507 -0.111436 0.205823 -0.039014 0.123975 -0.065036 0.058532 0.213689 -0.198012 0.281587 -0.064991 -0.025004 -0.134775 0.281447 -0.047277
big 0.104766 0.172409 -0.125868 0.047281 -0.173252 -0.024990 -0.157885 0.074392 0.038214 -0.057321 0.094244 -0.033267 0.259371 -0.242621 0.042757 0.027144 -0.053657 0.127631 -0.139287 0.041198 -0.281135
care 0.093642 -0.064434 -0.072197 -0.054083 -0.044996 -0.082180 -0.059565 -0.030922 -0.050373 -0.055087 0.073862 0.047808 0.099588 -0.184749 0.100721 0.057883 -0.131769 -0.006941 0.205979 0.001808 -0.385346
confid 0.261743 -0.184355 -0.436290 0.182698 -0.166416 0.242147 -0.117571 0.093220 -0.190835 0.082697 0.157932 -0.097176 0.387322 -0.419166 -0.116192 -0.076667 0.017990 0.089368 -0.205359 -0.153719 -0.577871
develop 0.031890 -0.096375 0.227305 0.386458 0.139712 0.157387 0.006047 -0.101788 -0.333739 -0.018645 -0.116445 0.161516 -0.080556 -0.056662 -0.234603 -0.228147 -0.125891 -0.139802 0.137772 0.123762 -0.528444
eg -0.105311 0.173926 0.286890 -0.054980 -0.248874 0.089302 -0.166065 -0.164956 0.030765 -0.047361 -0.064059 -0.133204 -0.093337 -0.117259 0.032236 -0.008023 -0.208741 -0.081878 0.077087 0.266222 -0.368700
els -0.263102 0.218519 -0.060311 -0.094993 -0.198245 0.055515 -0.009530 0.012505 0.158689 -0.105039 0.019340 0.067182 -0.016042 -0.026493 -0.067091 0.009037 0.034948 -0.009434 0.002901 0.116120 -0.202696
energi 0.170593 -0.219227 -0.050632 0.130396 -0.078770 -0.060092 -0.125923 -0.001347 -0.160695 -0.110405 0.063762 0.078578 0.125159 -0.289772 -0.101736 -0.019260 0.005120 -0.090107 0.146915 -0.140183 -0.405902
excit -0.096810 -0.267293 -0.144715 0.167694 -0.007386 -0.198227 -0.103708 0.226256 -0.082388 -0.092426 0.230300 -0.151436 0.324993 0.071700 0.070940 0.073819 -0.121878 -0.242862 -0.047051 0.180897 -0.418472
final 0.056901 0.125897 -0.045582 -0.169908 -0.196760 -0.024253 0.004401 -0.039885 0.139257 0.127464 0.047386 -0.215636 0.103781 -0.030014 -0.071865 -0.123444 0.063838 -0.005427 0.001489 0.061401 -0.383119
held 0.243193 -0.038503 -0.154818 -0.217717 0.134741 -0.540292 -0.124672 0.120326 0.013341 0.234291 0.355785 -0.044175 0.079201 -0.378171 -0.046343 0.164598 -0.651238 -0.002531 -0.274234 0.454391 -0.387823
i’v -0.130614 -0.137697 -0.143995 0.086368 -0.022134 0.032766 -0.038970 0.061386 0.049183 -0.086656 -0.146952 -0.076711 0.204926 0.191603 -0.007273 -0.043489 -0.142741 0.062053 -0.163969 0.115714 -0.244660
imposs -0.283913 -0.190585 -0.046936 -0.071803 -0.050248 -0.269660 -0.081120 -0.085722 0.129981 0.006373 -0.117621 0.041434 0.134640 0.136209 -0.038579 -0.010550 -0.076620 -0.095705 -0.261116 -0.016227 -0.395103
point 0.169020 -0.066300 0.192051 0.016895 -0.102583 -0.022795 -0.051451 0.178219 -0.132513 0.028610 -0.133659 0.218337 -0.009595 0.077963 0.138052 -0.128218 0.274087 0.043020 0.101014 0.180964 -0.217645
pressur 0.178276 -0.234485 -0.122628 0.233894 0.010560 -0.180105 0.074502 -0.184332 -0.011712 0.098180 0.462404 0.052618 0.319682 -0.038953 0.045895 0.295123 -0.209119 -0.001285 0.047295 -0.286261 -0.308951
stimul -0.041187 -0.012002 0.029400 0.015559 0.130044 -0.140256 0.151223 0.009755 -0.325146 -0.339356 0.148448 0.008441 0.024768 -0.055900 -0.167736 0.051183 -0.185774 -0.184649 -0.011912 0.099008 -0.290631
travel -0.012379 0.286937 -0.312046 -0.486534 -0.070787 -0.003470 -0.021271 0.188050 0.312832 -0.071285 0.037274 -0.426116 0.042260 0.118801 -0.046272 0.301268 -0.184184 -0.159026 0.000754 -0.013948 -0.543834
almost -0.154322 0.037781 -0.022464 -0.112196 -0.070779 -0.158458 -0.098367 -0.113323 0.038002 0.000880 -0.147928 -0.213372 0.186319 0.151800 -0.063316 0.003545 -0.142933 0.080456 -0.153433 -0.022057 -0.278133
anyth -0.262335 0.129360 -0.003181 0.038041 -0.031798 -0.095523 0.043088 0.118297 0.187596 -0.204234 0.025455 -0.026033 0.144899 -0.004344 -0.096309 0.074736 -0.222455 -0.016798 -0.105750 0.057798 -0.361912
avail -0.181390 -0.007857 0.117793 -0.130063 0.020550 -0.216866 -0.088629 -0.216456 0.056322 -0.130243 -0.204885 0.034289 0.095773 0.046180 -0.041051 0.126484 -0.176192 0.073227 -0.278215 -0.154901 -0.127308
bad -0.250147 -0.286530 0.032159 0.047049 -0.027533 -0.099112 -0.087627 -0.140451 -0.053877 -0.153754 0.047881 0.022584 0.120904 0.038101 -0.065737 -0.153415 0.021621 0.238030 -0.099586 -0.114637 -0.213911
bore 0.088778 -0.341531 0.077968 -0.066635 -0.154828 -0.329340 -0.064708 -0.109509 0.043009 0.144148 -0.120159 0.035172 0.380406 0.092703 0.208157 0.132699 0.151815 0.055530 -0.084661 -0.090202 -0.259185
difficulti -0.192187 -0.263939 0.315736 0.138613 0.050934 -0.233888 0.139312 -0.159097 0.083167 -0.103697 0.206028 0.078223 0.086113 -0.074515 0.171643 0.069486 -0.173127 0.144900 0.029030 -0.255280 -0.272397
explan 0.145190 -0.231422 0.184797 0.042177 0.228829 0.120987 -0.036735 -0.106765 -0.277481 0.222078 -0.028428 0.173581 -0.177916 -0.081711 0.142197 -0.151173 0.177478 0.031631 -0.004894 0.134490 -0.227984
express 0.169060 -0.004030 0.494152 0.055074 0.012916 0.156292 -0.133367 -0.129900 -0.225099 0.019215 0.030002 0.142237 -0.222819 0.041127 0.123465 -0.057132 -0.033963 0.073167 0.073268 0.136280 -0.154732
facetofac 0.270221 -0.011431 0.061217 0.144411 -0.064022 0.105486 0.342127 -0.044729 -0.355756 -0.003994 -0.152254 -0.065487 -0.008316 -0.074365 -0.192432 -0.124446 -0.122184 -0.113247 0.124369 -0.227319 -0.527777
first 0.068562 -0.022735 -0.094220 -0.116216 0.167281 0.011943 -0.043906 0.121654 0.035773 -0.046394 0.110809 -0.173293 -0.023796 0.255848 0.095981 0.028172 -0.035232 -0.006276 -0.023223 0.245888 -0.312593
haven’t -0.091313 -0.039475 -0.096332 -0.157487 -0.091416 -0.083123 -0.024458 -0.191594 0.028744 0.000605 -0.185739 0.009943 -0.091394 -0.131015 -0.150124 -0.018040 -0.066178 0.054068 -0.037069 -0.082090 -0.402697
lose -0.144657 -0.356772 -0.063829 0.083815 0.279538 -0.172557 -0.158416 0.041959 -0.103663 0.074312 0.064791 -0.158473 0.016174 0.147969 0.099729 -0.022446 -0.231524 -0.100810 -0.084734 0.101117 -0.475801
organ -0.172285 -0.098146 0.084938 -0.054522 0.077668 -0.200094 0.023821 -0.077579 -0.216477 -0.180691 0.004866 -0.054580 0.055558 -0.026900 -0.125205 0.035042 -0.140353 -0.091897 -0.092968 -0.064935 -0.424069
patient -0.043835 0.206027 0.033035 0.043295 -0.039734 -0.017612 0.050663 0.032639 -0.167479 -0.291762 -0.168823 0.093029 -0.013548 0.353073 -0.268198 -0.105509 -0.130681 -0.028975 -0.275180 -0.092137 -0.071709
sat -0.109600 0.114894 -0.023629 -0.361656 -0.051249 -0.089496 -0.164335 0.024664 0.347473 -0.041721 -0.082272 -0.311999 -0.069899 -0.144855 0.201360 0.208165 -0.283428 0.017079 0.043858 0.286746 -0.257351
studio -0.333671 0.081617 -0.075479 -0.033075 0.172402 -0.082049 -0.257751 0.007300 0.105553 -0.294882 0.176069 -0.251891 -0.198817 0.086280 0.069153 0.201771 -0.104026 -0.003631 -0.040467 0.111700 -0.378539
sure -0.152288 -0.170894 -0.504566 -0.150135 -0.059310 -0.022487 0.060135 0.162691 -0.067004 -0.131406 0.048009 -0.330422 0.088196 -0.011767 -0.205500 -0.049765 -0.261187 -0.019334 0.062648 -0.022765 -0.522967
via -0.166874 -0.007711 -0.061521 -0.055791 -0.067532 0.028277 -0.062691 -0.082572 0.199307 -0.021173 -0.202221 0.058326 -0.112904 -0.040737 -0.086580 -0.109211 -0.008508 0.090159 -0.222851 0.042637 -0.311714
whilst -0.076181 -0.066729 0.015053 -0.192086 -0.127552 -0.091626 0.102656 -0.014435 0.093166 -0.023271 -0.114639 -0.310550 0.335199 -0.071395 -0.193345 0.053326 -0.138001 -0.069548 -0.145926 -0.031114 -0.749231
achiev -0.033931 -0.205577 -0.004345 -0.054039 0.024370 -0.195314 -0.061848 -0.190792 -0.093362 0.001798 -0.123357 -0.044320 0.206884 -0.162577 -0.212545 0.036578 -0.142670 0.020759 -0.191244 0.107916 -0.471318
advantag -0.146733 -0.206488 0.120360 -0.390378 -0.060075 -0.213427 -0.152418 -0.213364 0.045503 -0.252562 -0.349439 -0.011720 0.182239 -0.029558 -0.183841 -0.036183 -0.087915 0.148469 -0.310749 -0.171163 -0.333525
desk -0.250087 0.221423 -0.050983 -0.364907 0.011112 -0.085416 -0.247874 0.128065 0.374091 0.069957 0.083324 -0.201811 0.093105 0.040187 0.259009 0.067017 -0.059902 0.113873 0.045451 0.070103 -0.258750
faster 0.320482 -0.209230 0.216454 -0.020088 0.102861 -0.045668 0.102024 -0.058761 -0.238072 0.119873 0.262819 0.181308 -0.020589 -0.195024 0.199229 0.049908 0.203721 0.032121 0.105224 0.129128 -0.381965
got -0.094133 0.015263 0.213463 -0.035320 -0.228382 -0.155029 -0.134718 -0.053398 -0.107973 -0.207378 -0.166236 0.084789 0.100443 -0.088833 -0.078578 -0.139099 -0.105681 0.104956 -0.155346 -0.074528 -0.076038
music -0.106870 -0.026792 0.030266 0.148700 0.049590 -0.179727 0.015919 -0.150614 0.026933 -0.073543 -0.044039 0.018826 -0.146483 0.085768 -0.306183 0.115586 -0.124489 -0.080403 0.024861 0.010811 -0.203081
oppos -0.135895 -0.126923 0.182214 -0.078530 -0.094994 -0.059740 -0.012923 -0.057850 0.004656 -0.156165 -0.049455 -0.161282 0.030226 -0.037660 -0.004567 -0.093808 -0.206608 -0.118116 -0.126725 0.220163 -0.421173
organis 0.059854 -0.220756 0.161385 0.048424 0.126873 -0.075531 -0.033752 -0.136315 -0.099102 0.015694 0.092397 -0.091127 -0.038769 -0.271884 0.025529 0.069319 -0.170233 -0.135829 -0.039666 0.226763 -0.329985
presenc 0.367091 -0.002865 -0.157836 0.453182 -0.083949 0.382800 0.065381 0.103925 0.229411 0.031929 -0.039429 0.045130 0.089179 0.000687 -0.331815 0.089981 0.029365 -0.112857 0.205471 0.004384 -0.457746
relat 0.099995 -0.179670 0.113034 -0.138438 -0.114264 0.121155 0.078230 -0.074512 0.046764 -0.073359 -0.233296 0.078501 -0.010302 0.036696 -0.167084 -0.071581 0.016426 -0.060317 0.116401 -0.079877 -0.334293
replac 0.039609 -0.095211 0.059439 -0.283234 -0.055819 -0.106534 0.166999 0.039436 0.103907 -0.495295 -0.182189 0.032515 -0.048311 0.025881 -0.484764 -0.145390 -0.014336 0.137545 -0.109792 -0.052325 -0.349263
retain -0.232631 -0.161496 0.209574 0.190515 0.233510 -0.035765 0.118025 -0.031325 -0.177478 -0.068012 0.070693 0.318343 -0.095214 -0.139077 -0.194008 -0.102528 -0.308081 -0.191533 0.111517 -0.044316 0.004638
sociabl 0.281642 -0.141850 -0.092089 0.161403 -0.070391 0.018879 0.163242 0.165166 -0.297879 0.148022 0.071184 -0.068641 0.065935 0.109821 -0.098442 -0.064730 -0.129312 -0.151555 0.057571 0.151563 -0.568418
staff 0.232050 -0.183070 0.119314 0.317416 -0.074275 0.088417 0.235262 0.051250 -0.262162 0.098145 -0.076383 0.150469 -0.205389 -0.127336 -0.192412 -0.220523 -0.077463 -0.022597 0.104757 -0.045168 -0.514757
standard -0.093474 -0.107309 -0.167207 -0.057249 0.060846 -0.206122 -0.132843 -0.110591 -0.206607 -0.255829 -0.202336 0.091458 0.256278 -0.337425 -0.223698 -0.033034 -0.157243 0.291898 -0.170936 -0.194900 -0.306113
thought 0.021852 -0.118663 0.252754 -0.073792 -0.035917 -0.025949 -0.013256 0.006171 -0.116747 -0.098866 0.082422 -0.064963 -0.032628 -0.180637 0.067434 -0.119247 -0.087705 0.091255 -0.285084 0.092950 -0.347232
aren’t -0.010380 0.016402 0.161504 -0.197061 -0.207390 -0.060543 -0.167285 -0.151552 0.216545 -0.083493 -0.246174 -0.044704 0.195845 -0.043650 -0.002044 0.082270 -0.060661 0.088788 -0.191906 -0.059227 -0.255775
entir 0.015808 -0.089799 0.025380 0.035212 -0.244933 -0.083051 -0.010227 -0.084880 0.148023 0.022880 -0.011717 -0.152042 0.061461 0.049471 0.017393 -0.055273 -0.239239 -0.023005 -0.058855 -0.003607 -0.626827
expect -0.288099 -0.074175 0.122901 0.072671 -0.047456 -0.021125 -0.063879 -0.102824 0.000731 -0.067922 -0.054164 0.032725 0.017592 -0.000125 -0.134418 -0.147594 -0.065276 -0.080586 -0.127479 0.100727 -0.524094
improv -0.114448 0.019373 0.018130 -0.153534 -0.041010 -0.044657 0.190862 -0.082116 -0.060289 -0.092480 -0.157384 0.034351 0.059011 -0.000770 -0.239443 0.039711 0.071635 -0.137349 -0.065937 -0.126995 -0.550052
ive -0.053409 0.054730 0.055814 -0.091668 0.048626 -0.101475 -0.079110 -0.146458 0.085517 -0.182656 -0.100057 0.147626 -0.092885 -0.111503 -0.042489 0.107284 0.004549 0.177632 -0.023234 -0.147332 0.004552
last -0.138443 0.005848 0.072394 -0.246135 -0.154289 -0.223699 -0.307350 -0.255833 0.241230 -0.069286 -0.218830 0.011430 0.049716 -0.023099 0.145413 -0.027888 -0.018375 0.160936 -0.197058 0.017810 -0.115253
manag -0.070667 -0.098445 -0.077099 -0.581769 0.243913 0.270966 -0.209667 0.052544 -0.069517 0.199122 0.164835 -0.373156 0.132980 -0.089818 -0.043714 0.152643 -0.260353 -0.167404 -0.081875 0.105223 -0.547498
might -0.091415 0.001601 0.015036 -0.207192 -0.152198 -0.054099 -0.111039 -0.152892 -0.093030 0.014734 -0.158871 -0.010572 0.137635 -0.097453 -0.156044 -0.137409 -0.105066 0.148448 -0.341144 -0.086756 -0.534613
minut 0.104982 0.138262 0.079809 -0.211600 -0.305140 0.001613 -0.123426 -0.034558 0.075319 -0.170322 -0.213808 0.161427 0.145514 0.030728 0.177300 -0.022600 0.168162 0.106987 -0.015997 -0.102601 -0.164562
mostli 0.149949 -0.026750 -0.017630 0.228843 -0.066297 0.114877 0.059795 -0.046262 0.103730 0.000846 -0.148637 0.089449 0.085737 -0.011640 -0.123592 0.007383 -0.222326 0.051276 -0.140776 -0.160578 -0.358784
pace -0.125917 0.000654 0.019830 -0.058851 -0.096785 -0.118539 0.069178 -0.107494 0.085644 -0.034835 -0.178222 -0.302434 0.085167 0.006059 -0.022274 0.071178 -0.096324 -0.214475 0.046695 -0.065548 -0.478770
passion 0.068163 -0.139665 -0.114860 0.294391 0.190820 0.078629 -0.201808 -0.104010 -0.254857 -0.088168 -0.061246 0.146846 -0.153135 -0.003138 0.058631 0.003221 -0.214718 -0.043943 0.200918 -0.030764 -0.199115
prof 0.034008 0.026242 0.311524 0.267658 -0.086324 0.023057 0.022165 0.001822 -0.128755 -0.053645 -0.118756 0.135412 -0.079338 -0.035037 -0.168575 -0.134757 -0.118084 -0.062838 0.031403 0.080559 -0.200227
replic -0.295968 -0.222785 -0.168437 -0.447136 0.244685 -0.226996 0.066258 -0.263995 -0.002991 -0.054594 0.076525 -0.165662 0.024688 0.098315 -0.385924 0.086137 -0.035455 0.340327 -0.407520 0.125482 -0.476621
said -0.020836 -0.063648 0.162438 -0.079993 -0.097912 -0.081670 -0.186245 -0.091280 0.063460 -0.091678 -0.134179 0.137487 0.103213 -0.046608 -0.120938 0.032015 -0.139474 0.022050 -0.054161 -0.076499 -0.395290
scienc -0.323786 0.022167 0.138463 0.022207 0.309651 -0.100493 -0.055681 -0.011329 0.069729 -0.377476 -0.003186 -0.277427 -0.160221 0.210274 -0.190605 0.172399 -0.027455 -0.221149 0.032387 0.094104 -0.535985
train -0.125857 -0.126010 0.134662 -0.242600 -0.145390 -0.168880 -0.026019 -0.056453 0.043825 -0.125302 -0.212501 0.040857 0.135689 0.132438 -0.075967 0.013201 0.101794 0.011394 -0.118521 -0.079403 -0.460037
workshop -0.215276 -0.040515 0.199226 -0.157372 -0.014632 -0.174969 -0.043555 -0.139583 0.122194 -0.186104 -0.118475 0.024249 -0.309428 -0.075982 -0.099870 0.103475 0.008593 -0.019757 -0.032004 0.032467 -0.078279
alreadi -0.076368 -0.248339 -0.102809 -0.174909 0.109952 -0.049219 -0.086194 -0.214011 0.058430 0.027429 -0.151708 -0.030779 0.105465 0.147040 -0.034162 0.094748 -0.173590 0.075689 -0.192634 -0.100547 -0.563532
arent -0.139063 -0.009152 0.037843 0.016574 0.015776 0.009106 -0.080097 -0.282769 -0.024131 -0.016922 -0.375395 0.057317 0.106260 -0.004824 -0.141443 -0.046101 0.058129 0.112080 -0.136230 -0.068420 -0.269835
besid 0.095092 0.051521 -0.088235 0.174245 -0.122915 0.151778 0.077652 -0.000678 0.106824 0.171690 -0.061185 -0.067428 0.050129 0.035609 -0.081477 0.128403 -0.041626 -0.086340 0.082688 0.126508 -0.683368
book -0.319523 -0.058203 0.133469 -0.107271 -0.056464 -0.026210 -0.293218 -0.147803 0.148703 -0.032601 -0.164216 0.164252 -0.142565 0.026997 0.037710 0.092704 -0.059625 0.162531 -0.088287 0.047454 -0.030701
close 0.153137 -0.105849 -0.040050 -0.027023 -0.215757 0.008636 0.032055 -0.007767 0.143296 0.140171 -0.077375 -0.082850 -0.034930 -0.181971 -0.159032 0.084406 -0.078114 0.054065 -0.026072 -0.010922 -0.564651
equip -0.253909 0.132518 -0.080535 -0.209899 -0.013747 -0.090077 -0.079467 0.071966 0.088668 -0.166769 -0.254149 -0.240686 -0.056147 0.055348 -0.149426 0.150727 0.066468 0.064437 -0.058156 0.026231 -0.425386
essenti 0.023543 0.010350 0.047514 0.036428 -0.028786 -0.102999 0.081863 -0.061387 -0.158918 -0.063909 -0.078985 -0.033390 0.026608 0.104397 -0.127895 -0.055737 -0.011802 -0.120495 -0.083664 -0.068258 -0.455819
everyday 0.161486 0.205650 -0.211718 -0.082261 -0.217558 0.046265 -0.050973 0.255324 0.300473 0.203502 0.091321 -0.129154 0.134933 0.116713 0.157065 0.150489 -0.031373 0.000026 -0.038647 0.011672 -0.503555
facilit 0.014411 -0.082568 0.382645 0.098689 0.145782 -0.045166 0.157611 0.010346 -0.342257 -0.136442 -0.052736 -0.035666 0.060444 -0.040671 -0.068849 -0.154067 -0.037642 -0.170634 0.010988 -0.166042 -0.590613
fulli -0.067807 -0.132917 0.132739 0.124462 0.189662 -0.096163 0.103642 -0.089479 -0.306790 0.313732 0.098758 0.048363 -0.006038 -0.115667 0.077060 -0.329628 -0.185997 -0.202212 -0.042603 -0.007684 -0.637280
isnt -0.285660 0.049572 0.006446 -0.042834 0.053544 -0.032236 0.045783 -0.030117 0.024654 -0.144124 0.046092 -0.100755 0.139970 0.107823 -0.111175 -0.034871 -0.096253 -0.121674 -0.137484 0.025009 -0.607259
key 0.205139 0.015585 -0.038352 0.041146 -0.038797 0.071853 0.093791 0.075468 -0.138726 -0.088003 -0.161031 0.114385 0.018883 0.283296 -0.174372 0.005625 -0.021804 -0.068459 -0.022443 -0.094166 -0.426046
method -0.249092 0.038408 0.046018 -0.008201 0.120064 -0.074107 0.047268 -0.225777 -0.249107 -0.210072 -0.210123 0.187384 -0.102156 -0.147198 -0.145190 -0.010393 -0.038922 0.165382 0.060026 -0.178266 -0.256331
necessari 0.089872 -0.050283 0.003946 0.052209 -0.178919 0.026565 0.012779 -0.072513 -0.124255 0.044139 -0.159573 -0.109594 -0.008634 0.028999 -0.111082 0.025392 0.010243 -0.051888 -0.021123 -0.024905 -0.567676
occur 0.089272 -0.205581 0.129502 -0.136268 -0.037282 -0.085909 0.163879 0.005248 -0.115564 -0.114612 -0.032818 -0.096062 0.101488 -0.017293 -0.115575 -0.065174 -0.153745 0.085506 -0.079312 0.052446 -0.470371
paus -0.167131 -0.004169 -0.009884 -0.195426 0.132564 -0.060364 -0.171932 -0.325302 0.161388 0.074602 -0.230421 -0.078128 -0.019162 -0.183030 0.235307 0.071329 -0.161355 0.101041 -0.009285 -0.019969 -0.262993
perform 0.073555 -0.060040 0.210721 0.069936 -0.089838 -0.132437 0.005106 -0.061247 -0.073777 -0.055753 -0.045992 0.042737 -0.043367 0.149379 -0.119158 0.101781 -0.009889 -0.165427 0.011767 -0.024403 -0.278200
quickli -0.005641 -0.136342 0.144969 0.003556 -0.038058 0.140938 -0.006754 -0.049800 -0.054191 0.258515 -0.175435 0.118907 0.036399 -0.208701 0.217264 -0.162188 0.328948 -0.027409 -0.017910 0.112743 -0.314615
