0,1,2,3,4,5,6,7,8,9,10,11,12,13,14,15,16,17,18,19,20
hustl,0.226884,0.053856,0.077676,0.025092,0.029774,0.015358,0.015644,-0.217068,0.168759,0.169243,0.056605,-0.148944,-0.007552,0.115221,0.186922,0.085002,-0.190629,-0.010313,-0.062345,-0.102306
meaning,0.043019,0.095369,0.118239,0.079668,-0.137502,-0.114295,-0.107328,-0.058118,0.010626,0.01188,0.182059,-0.05105,0.007087,0.116368,-0.042998,-0.058008,0.207035,0.160491,0.108192,-0.002202
get,0.047622,-0.515561,0.035372,0.800338,-0.598855,-0.594564,-1.915491,1.241685,-0.844133,-0.363908,0.469367,1.048715,-0.675285,-1.022148,-0.28613,-0.202613,2.54491,1.589211,0.450825,0.835662
your,-1.147074,-0.006937,0.134759,0.318111,-0.476969,0.001613,-0.692998,-0.831585,-0.199896,0.332825,-0.139162,0.301283,0.260205,0.199048,0.500821,-0.463794,0.245281,0.277204,-0.14183,0.650376
multipl,-0.721943,-0.153048,-0.318555,0.159667,-0.059256,0.322268,0.327945,0.986215,0.112524,0.038679,-0.304289,0.113222,-0.616544,-0.882358,-0.193003,0.131625,-0.33947,-0.560831,0.539791,0.130867
manag,-0.623087,-0.322777,-0.772482,-0.075497,0.171376,0.116945,0.526944,0.89095,-0.303623,-0.567878,-0.060611,0.321548,-0.161583,-0.654047,-0.741107,-0.524335,0.281566,-0.278613,-0.126072,0.697419
organis,-0.078493,-0.367638,-0.501496,0.008671,0.582977,0.179655,0.436888,0.292856,-0.091961,-0.5723,0.094571,0.307305,0.028422,-0.175603,-0.874098,-0.21533,0.14708,-0.191328,-0.098241,0.509098
opportun,-0.331455,0.879866,-0.523423,0.218185,-0.222207,-0.381569,0.217816,0.111945,-0.882889,-0.567674,0.570073,-0.943944,0.387676,-0.623038,-0.021469,-1.157251,1.283093,0.808989,1.121276,-0.043092
dinam,0.030188,0.002221,-0.02849,-0.144825,0.097436,0.156192,0.307913,-0.142506,0.312036,0.202328,-0.039191,-0.02166,-0.053942,0.183839,-0.012718,0.213036,-0.349848,-0.271953,-0.024623,-0.066973
help,-0.380795,0.382294,-0.449083,1.506473,0.272973,-0.103078,-0.784978,1.387441,-1.125113,-0.942026,0.142646,-0.13277,-0.255083,0.192432,-0.482647,-1.560817,1.393812,1.163212,0.006319,0.575461
lear,0.071842,-0.073736,-0.054914,-0.024287,0.196545,0.080541,0.194357,-0.182427,0.09779,0.040094,-0.04417,-0.000373,0.073788,0.053283,-0.059119,0.152715,-0.153843,-0.187709,-0.055588,0.053139
comment,0.186399,0.00726,0.016947,0.133141,0.265843,-0.088254,0.193041,-0.353196,0.270759,0.188287,0.058032,-0.19075,0.190839,0.028674,0.103173,0.012187,0.057315,0.000111,0.042334,0.182518
differ,-0.030959,-0.231774,-0.412495,-0.212977,-0.03548,-0.237992,0.628559,0.908337,-0.50419,-0.057079,-0.196099,-0.213754,-0.216511,-0.738231,-0.093393,-1.107052,0.255113,-0.2808,-0.058385,0.445037
correctli,0.233164,0.048025,0.022389,-0.312915,-0.103225,0.032721,-0.003225,-0.175285,0.281198,0.231655,-0.025287,-0.038715,-0.043521,0.236249,0.055345,0.243125,-0.18459,-0.065278,-0.015156,-0.154518
organ,-0.77791,-0.117192,-0.502066,-0.322232,0.228319,0.069967,0.325723,0.430644,-0.824686,-0.569717,-0.280992,0.476732,0.196107,-0.569311,-0.834823,-0.364357,0.027646,-0.482366,-0.166612,0.108751
differ,-0.030959,-0.231774,-0.412495,-0.212977,-0.03548,-0.237992,0.628559,0.908337,-0.50419,-0.057079,-0.196099,-0.213754,-0.216511,-0.738231,-0.093393,-1.107052,0.255113,-0.2808,-0.058385,0.445037
close,0.192399,-1.052826,0.506441,-0.492004,-0.942588,-0.77461,-0.694463,-1.666311,-1.08159,-0.061154,0.59357,0.902371,0.649571,-0.180822,0.685552,-0.8278,0.337616,0.68958,-0.795935,-0.370267
doubt,1.118801,0.686503,0.640279,-0.056041,-0.663658,-0.705891,-0.279103,0.139036,0.540824,0.192524,0.589276,0.16163,-0.241852,0.338638,-0.420904,-0.500716,0.75744,1.042526,0.668614,0.09005
similar,-0.493013,-1.141051,0.228367,-0.794729,-0.727066,-0.368145,-0.809326,-0.811887,-1.599999,-0.588236,0.73706,1.248025,0.649471,-0.625548,0.062358,-1.692251,0.398756,0.758998,-0.922342,-0.617846
teacher,-0.056596,0.407009,0.188804,0.916886,-1.284078,-0.607466,-1.604439,1.456093,-1.588167,-1.037669,0.371972,-0.18951,-0.179275,0.018542,-0.201908,-1.231407,2.469955,1.895236,-0.030329,0.475678
spontan,0.13704,0.234496,-0.125503,-3.9e-05,-0.00494,-0.16014,0.36725,-0.336952,0.197956,-0.012078,0.202065,-0.422845,0.193785,0.253168,-0.07205,0.007637,0.071021,-0.055895,0.111462,0.030398
quickli,0.467862,0.22694,0.329183,0.086431,-0.169183,-0.112784,-0.534724,0.654359,0.56267,0.254894,0.302871,-0.050975,-0.631988,-0.194274,-0.123391,0.005431,0.544677,0.448704,0.433534,0.202535
whenev,-2.102461,0.2339,0.270574,0.787229,-0.678262,0.289579,-0.984982,1.306259,-1.490909,-1.063325,-0.408105,0.351082,-1.442695,-1.325861,-0.61091,0.702499,-0.159922,-0.596093,0.783539,-0.361888
yo,0.085251,-0.049226,-0.028257,0.005514,0.060171,0.018945,0.091734,-0.09438,0.066616,0.026335,0.043087,0.020272,0.005145,0.193559,-0.096013,0.033951,0.01002,-0.029657,-0.029188,0.130798
clear,0.905532,0.33364,0.26916,-0.110788,-0.487442,-0.433097,-0.157347,0.178367,0.488814,0.175815,0.411597,0.039143,-0.328627,0.324006,-0.339844,-0.342916,0.611968,0.671726,0.441094,0.167412
properli,0.363217,0.144529,-0.247903,0.058195,-0.44658,0.084672,-0.370172,0.859447,-0.132267,0.142702,0.20096,0.196487,-0.196054,0.198256,0.202744,-0.380041,0.567025,0.753995,0.15513,-0.178052
dificulti,0.030572,0.012104,0.047594,-0.01794,-0.013939,0.065585,0.139351,-0.026113,0.281863,0.164396,0.004613,-0.047522,-0.142587,0.087706,-0.016153,0.144282,-0.282821,-0.124277,0.089831,-0.070776
high,-0.40967,-0.313785,-0.170043,-0.344171,-0.238925,0.127464,-0.121004,-0.689041,-0.021135,0.046899,0.113389,0.173641,0.264807,0.553921,-0.205647,0.032536,-0.194403,-0.022413,-0.3145,-0.159205
arrang,-0.21963,-0.031026,-0.115405,-0.049657,0.066055,0.166927,0.120211,0.043492,-0.0167,-0.061534,-0.067768,0.042288,-0.090599,0.068324,-0.077373,0.114409,-0.135451,-0.176356,0.124756,0.02572
invest,0.115175,0.032616,0.037435,-0.079956,0.019459,-0.076303,0.147913,-0.223668,0.298804,0.199077,0.015617,-0.118505,-0.008422,0.060485,0.038461,0.13174,-0.126102,-0.145648,0.090143,-0.015545
resembl,0.294092,-1.123269,0.200647,-1.063092,-0.795614,-1.082814,-0.89181,-1.196596,-0.621174,0.000353,0.195951,0.383528,0.933974,-0.715428,0.903451,-0.414841,0.11272,0.354643,-1.572505,-0.534225
abstract,-0.004803,0.005004,-0.011399,0.001462,0.034053,0.003293,0.093276,-0.052245,0.07513,0.004447,-0.038524,-0.115914,-0.054871,0.023316,0.027011,0.115488,-0.099833,-0.101703,0.0676,-0.031076
text,0.328768,0.246049,-0.18153,-0.300542,-0.361916,0.574842,-0.036745,0.36879,0.005031,0.328533,0.552258,0.08174,-0.127904,0.732387,0.142645,0.039925,-0.080248,0.301296,-0.023439,-0.286547
fundament,0.067905,-0.007454,-0.038623,-0.099292,0.021753,0.029306,0.086214,-0.079683,0.186585,0.135396,-0.034997,-0.017555,-0.008236,0.060145,0.025775,0.167115,-0.186106,-0.142408,-0.021085,-0.049298
forget,0.253741,0.318151,0.487074,0.054126,-0.43857,0.012616,-0.366578,0.302034,0.326827,0.304818,-0.135691,-0.116961,-0.376946,-0.434016,0.281212,0.254273,-0.433796,0.118376,0.629227,-0.571621
understood,0.515915,0.716799,0.008144,0.467661,-0.253703,0.424927,-0.153197,0.74329,0.425355,0.631037,0.13754,0.287154,-0.444738,0.248206,0.328019,-0.12904,-0.64323,0.475156,0.9048,-0.314957
qualiti,0.346555,0.08592,-0.138012,-0.132865,0.13837,0.291269,0.137194,0.261049,-0.468453,0.088729,-0.191637,0.263807,-0.100967,0.586859,0.142313,-0.322296,-0.313799,-0.032553,-0.487077,-0.31388
face,0.398031,-0.829608,1.023606,-0.080146,-1.841352,-0.666767,0.093392,-0.732472,-1.920505,-0.671482,0.181316,0.669307,-0.600269,0.630863,0.537424,-1.760144,0.715543,0.548652,0.001652,0.234329
option,-0.701858,0.006671,0.135513,0.419103,-0.384184,-0.164648,-0.697068,0.133851,-0.625899,-0.314185,-0.265637,0.039441,-0.040585,-1.132142,0.567397,-0.92385,-0.246051,0.207939,-0.112141,-0.10372
choos,-1.660263,-0.357119,-0.710925,0.198548,0.080298,0.579359,0.23165,0.834037,-0.966605,-0.472579,-0.351527,0.043845,-0.467106,-0.652316,-0.310122,-0.131105,-0.267916,-0.911938,-0.100521,0.771362
complet,-1.429248,0.18717,-1.131017,-0.011181,0.359712,1.004788,-0.317922,1.433764,-0.512476,-0.372662,-0.441319,0.638859,-0.210079,0.012359,-0.433904,0.104215,0.765779,0.288867,0.00378,0.556195
appropri,0.123201,-0.098433,-0.010006,-0.269687,0.094348,0.049747,0.23336,-0.165976,0.268559,0.126733,-0.078489,-0.035885,0.053735,0.12696,0.007668,0.249178,-0.391972,-0.316125,-0.105911,-0.163831
face,0.398031,-0.829608,1.023606,-0.080146,-1.841352,-0.666767,0.093392,-0.732472,-1.920505,-0.671482,0.181316,0.669307,-0.600269,0.630863,0.537424,-1.760144,0.715543,0.548652,0.001652,0.234329
harder,0.790237,-0.385627,0.102427,0.523586,0.701034,-0.094518,-0.427652,0.524556,-0.098406,-0.368302,0.317295,1.028155,0.165111,-1.1436,-0.220547,-0.101603,0.107056,0.111693,-0.524861,-0.157717
clarifi,0.744185,0.612631,0.766003,0.083987,-0.954884,-0.360688,-0.40222,0.373023,0.841761,0.367599,0.681137,0.388533,-0.646582,0.202063,-0.233132,-0.598291,0.235321,0.993708,1.057407,0.080886
talk,0.187133,0.200445,0.523218,0.411768,-1.009385,-0.513496,-1.158505,1.029357,-0.836881,-0.142869,-0.717806,-0.021384,-0.26313,0.484661,0.518631,-0.982175,0.990064,1.055539,-0.294585,0.426932
whiteboardscreen,0.090508,0.047169,0.141065,-0.050814,0.02585,0.036834,0.091801,-0.166676,0.31269,0.129158,-0.076232,-0.092675,-0.096771,0.164406,-0.022745,0.10967,-0.28135,-0.123599,0.101863,0.028925
contact,-0.179022,-0.145813,0.293402,0.570047,-0.754374,-0.653484,0.142944,-0.802488,-1.171645,-0.574985,0.872535,-0.167691,0.271867,0.68786,-0.176884,-0.864946,1.244256,0.486821,-0.387654,0.660128
interact,0.014921,0.192068,0.324707,1.207708,-0.393563,-0.896499,-0.794907,-0.196054,-2.237307,-1.274679,0.934627,0.433269,0.726649,-0.789657,-0.1775,-1.962556,2.178396,1.520528,-0.152644,0.655068
disengag,0.032376,-0.035709,-0.072857,-0.072903,0.051073,-0.288067,-0.108724,-0.137015,-0.060355,-0.030918,-0.117414,0.00089,0.181436,-0.098449,-0.020828,0.093371,0.093053,-0.020142,-0.26933,-0.112771
doubl,-0.657131,0.127483,-0.012336,0.169504,0.041459,0.475355,0.396926,0.337698,0.002392,0.19404,-0.30872,-0.100388,-0.483623,-0.205038,0.17139,0.167406,-0.793449,-0.647711,0.537924,0.047686
honestli,-0.062156,-0.132313,-0.124715,-0.04622,0.068986,-0.223873,-0.128439,-0.173347,0.043333,0.163858,-0.11744,0.054639,0.19358,-0.131853,0.230828,-0.046075,-0.091466,0.027204,-0.320168,-0.200585
interact,0.014921,0.192068,0.324707,1.207708,-0.393563,-0.896499,-0.794907,-0.196054,-2.237307,-1.274679,0.934627,0.433269,0.726649,-0.789657,-0.1775,-1.962556,2.178396,1.520528,-0.152644,0.655068
respons,-0.01345,-0.295888,0.651501,-0.29522,-1.211081,-0.614221,-1.071635,0.166939,0.462232,-0.577582,0.790465,-0.427763,-0.44919,0.405349,-0.817234,0.617705,2.073445,0.785503,1.013007,0.371362
till,-0.029645,0.034256,-0.038129,-0.027745,0.007777,0.075126,0.107073,-0.111066,0.12959,0.108979,0.055482,-0.188381,-0.092061,0.073262,0.057684,0.234222,-0.121626,-0.116414,0.00013,-0.049197
hear,0.732355,-0.171989,0.168398,1.31901,-0.81075,-0.068087,-0.340621,0.87206,-1.05799,0.270479,0.272831,-0.620262,-1.266461,0.592142,1.491865,-1.384131,0.882638,1.007324,0.086231,1.137068
convers,0.286351,0.568645,0.295999,-0.203121,-0.168343,0.05007,-0.001262,0.059026,-0.528737,-0.211458,0.440216,-0.166445,0.340958,0.371505,0.213976,-0.678823,0.828818,0.612458,0.227269,-0.067224
endgam,0.014702,0.011683,0.017348,0.024804,-0.042994,-0.010698,0.016428,0.00634,0.012096,0.00476,0.032018,-0.032895,-0.035131,-0.013695,-0.027207,0.009942,0.05051,0.006347,0.002762,0.00226
oncampu,-0.053266,0.002494,-0.019983,-0.051989,0.001596,-0.024254,0.037093,-0.096957,0.034713,0.013586,0.032064,-0.01499,0.076863,0.051516,-0.012561,0.021201,0.006,0.006052,-0.05061,0.004349
face,0.398031,-0.829608,1.023606,-0.080146,-1.841352,-0.666767,0.093392,-0.732472,-1.920505,-0.671482,0.181316,0.669307,-0.600269,0.630863,0.537424,-1.760144,0.715543,0.548652,0.001652,0.234329
interact,0.014921,0.192068,0.324707,1.207708,-0.393563,-0.896499,-0.794907,-0.196054,-2.237307,-1.274679,0.934627,0.433269,0.726649,-0.789657,-0.1775,-1.962556,2.178396,1.520528,-0.152644,0.655068
knowledg,0.381658,0.585585,-0.029275,-0.356995,-0.084703,0.089056,0.694491,0.271691,0.027403,0.09915,0.194397,-0.146112,-0.226271,0.850957,-0.112636,-0.639855,0.223935,0.1911,0.286228,0.124961
content,-0.295139,0.879539,-0.450675,0.617001,-0.047196,1.031202,-0.328619,1.657075,-1.166286,-0.162171,0.444607,0.832275,-0.162338,0.220266,-0.042409,-1.230134,0.606391,1.276643,0.665573,-0.174504
access,-0.185502,-0.067982,0.161847,0.198572,-0.469378,0.06106,0.003516,0.735447,-0.873737,-1.048633,-0.207433,-0.450569,-1.092208,-1.439252,-0.565205,0.247202,0.910817,-0.421758,0.56371,0.474956
extent,0.186717,-0.045059,-0.057897,-0.128782,0.011955,-0.105867,0.140613,-0.247706,0.157869,0.025766,0.133757,-0.082639,0.15464,0.228621,-0.076227,0.008918,0.116479,-0.037308,-0.171235,0.095511
speed,-1.05593,0.400881,0.393155,0.874548,0.507562,1.056491,0.176517,0.721111,-1.130251,-0.020132,-0.999296,-0.158286,-0.78605,-0.431676,0.726585,-0.623024,-1.14918,-0.59216,0.899252,0.108886
peopl,0.325451,-0.39052,0.647986,0.405558,-0.674926,-1.390997,-0.620292,0.631072,-0.803824,-0.417544,-1.164581,0.062919,-0.238224,-0.438513,0.008096,-1.110946,1.173382,0.13319,-0.471208,1.146874
chanc,-0.631816,0.709653,-0.581332,0.567671,-0.499489,-0.302558,0.025792,0.134551,-0.343246,-0.232987,0.804304,-0.482841,0.006773,-0.108769,-0.559675,-0.494766,1.151803,0.774082,0.854807,0.183556
provid,-0.338654,-0.025961,-0.649882,0.236272,0.063923,-0.061858,0.295753,-0.440017,-1.774726,-1.182718,0.412524,-0.573302,0.236438,-0.206308,-0.430698,-0.654256,1.058847,0.539075,-0.251232,-0.178237
pace,-1.429152,0.412565,-0.268806,0.223124,0.450861,1.714147,-0.981896,1.937656,-1.313901,-0.950463,-1.310162,0.851374,-0.598875,-0.511138,-0.446328,-0.204908,0.861969,0.538144,1.063533,0.350909
mean,-1.041375,-0.328068,-0.167868,0.44553,-0.072286,0.074978,-0.703684,0.578084,-0.508573,-0.233186,-0.333058,0.453401,-0.148931,-0.555206,0.033757,-0.532707,0.5253,0.356258,0.270779,0.369719
record,-0.443076,0.228008,-0.217772,1.639884,0.633585,0.082472,-1.013868,1.159151,-2.243153,-0.859403,0.169176,-0.387449,0.154235,-2.645306,1.518844,0.356964,0.711479,0.391956,-0.268246,-1.239004
fave,0.015831,-0.014717,-0.019117,-0.033986,-0.041907,0.000963,-0.011122,0.02303,0.025659,-0.030223,0.000846,0.028298,-0.005879,0.013865,0.043315,-0.025669,0.014697,-0.017806,0.006485,-0.00859
great,-0.127911,-0.298834,0.166136,0.171506,-0.001011,-0.443784,-0.396502,-0.057533,-0.726063,-0.056823,-0.247292,-0.285255,0.09928,-0.957236,0.725118,-0.343561,0.34608,-0.021243,-0.369945,-0.165428
everyon,-0.313959,-0.344004,0.283863,0.313648,-0.874782,-0.5337,-0.497222,0.112115,-0.621358,-0.010422,-0.91298,0.040888,-0.41828,-0.301761,0.667176,-0.463047,0.584582,0.168877,-0.320917,1.118869
feedback,0.500307,0.078942,-0.138847,-0.170567,-0.634413,-0.814667,-0.380581,-0.032953,0.259987,-0.252245,1.0823,-0.33651,-0.043858,0.20284,-1.036297,-0.06787,2.433238,1.020727,0.337351,0.93081
topic,0.373845,1.007761,-0.509372,0.635076,-0.381805,-0.298436,0.360846,2.051382,-0.511123,0.001983,-0.033085,0.069335,-0.559876,-0.402118,0.028413,-1.203875,0.317476,0.703486,0.544266,-0.191247
rewindrewatch,-0.014568,0.013745,0.058351,0.053108,-0.041783,0.009353,-0.136434,-0.094136,-0.130024,-0.036046,-0.018829,0.011595,0.010692,0.074247,0.111304,-0.033096,0.021042,0.117438,-0.048256,0.031249
quiet,0.015969,-0.18699,-0.327429,-0.352133,0.199476,-0.303012,0.345388,0.008853,0.621123,0.175366,-0.202248,-0.153272,0.045765,-0.02898,-0.37622,0.340525,0.048359,-0.361939,-0.049634,0.156075
student,-0.2618,0.36489,-0.28655,0.892199,-0.10342,-1.120659,-0.210943,0.466649,-1.36433,-0.794466,-0.128178,-0.892436,0.589568,-0.645084,0.051716,-1.406592,1.632372,0.754255,0.025051,0.607834
pace,-1.429152,0.412565,-0.268806,0.223124,0.450861,1.714147,-0.981896,1.937656,-1.313901,-0.950463,-1.310162,0.851374,-0.598875,-0.511138,-0.446328,-0.204908,0.861969,0.538144,1.063533,0.350909
workshop,0.310634,-0.155919,0.12327,-0.294946,-0.030933,-0.314885,0.11242,-0.451548,0.345156,0.15976,0.125598,-0.413356,0.139397,-0.148839,0.133103,0.334286,-0.11374,-0.197015,-0.066144,-0.23643
assumpt,0.12206,-0.050924,-0.034416,-0.029951,0.073389,0.054138,0.116355,0.021123,0.185707,0.113393,-0.017969,-0.141129,-0.093344,0.159026,0.018947,0.094739,-0.171808,-0.141613,-0.027388,0.015958
face,0.398031,-0.829608,1.023606,-0.080146,-1.841352,-0.666767,0.093392,-0.732472,-1.920505,-0.671482,0.181316,0.669307,-0.600269,0.630863,0.537424,-1.760144,0.715543,0.548652,0.001652,0.234329
rare,0.127003,0.001245,0.038506,-0.175908,-0.034538,-0.151841,0.025731,-0.229606,0.126649,0.154695,0.009094,-0.116257,0.166093,0.138314,0.051122,0.046207,-0.130163,-0.066163,-0.168192,-0.141834
fall,-0.37258,-0.46861,-0.301417,0.130977,0.201641,0.126536,0.4167,-0.568301,0.521436,0.504792,0.112411,0.124505,-0.034249,-0.094368,0.087072,0.665949,-0.544144,-0.380983,0.203422,0.140398
dislik,-0.011268,0.059581,0.042057,0.116571,0.049686,0.027971,0.066507,-0.024309,0.167719,0.064362,-0.065954,-0.0366,-0.024697,0.118871,0.003663,0.106912,-0.121099,-0.045817,-0.025766,0.004445
benefici,0.064567,0.031145,-0.300034,-0.051767,0.464699,0.189249,-0.199407,0.298569,-0.657501,-0.283999,-0.074402,-0.215546,0.329463,0.279569,0.191083,-0.4583,0.527362,0.208599,-0.683658,0.238442
allow,-0.841317,0.620354,-0.113939,0.441451,0.062277,0.044559,-0.042149,1.02309,-2.109892,-1.285534,0.03805,-0.03125,-0.072982,-0.330642,-0.500086,-1.292135,1.679696,0.803801,0.863647,0.256649
engag,0.038453,0.551051,-0.185357,1.465573,0.997603,-0.105134,-0.624983,0.703959,-1.534028,-0.99883,0.971618,0.65819,1.297973,-0.661921,0.213327,-1.574323,2.042916,1.65128,-0.208006,0.567908
closet,0.02205,-0.047803,0.044597,-0.028762,-0.035183,-0.027724,-0.040678,-0.02374,0.093852,0.06085,-0.00447,0.031388,-0.058514,-0.022519,0.022299,0.073615,-0.023525,-0.028483,0.035583,0.003653
uncertainti,-0.034866,-0.074013,-0.015948,-0.005963,0.01984,0.012283,0.075551,-0.074939,0.088091,0.062248,-0.013502,0.052883,-0.014461,0.052334,-0.081259,0.067299,-0.0603,-0.090203,-0.012751,-0.003093
face,0.398031,-0.829608,1.023606,-0.080146,-1.841352,-0.666767,0.093392,-0.732472,-1.920505,-0.671482,0.181316,0.669307,-0.600269,0.630863,0.537424,-1.760144,0.715543,0.548652,0.001652,0.234329
interact,0.014921,0.192068,0.324707,1.207708,-0.393563,-0.896499,-0.794907,-0.196054,-2.237307,-1.274679,0.934627,0.433269,0.726649,-0.789657,-0.1775,-1.962556,2.178396,1.520528,-0.152644,0.655068
worker,-0.232174,-0.038654,-0.242672,-0.31584,0.083371,0.380565,0.263451,-0.441707,0.352942,0.395714,-0.030869,-0.158453,0.169416,0.584073,0.094258,0.373233,-0.285987,-0.294965,-0.171521,0.112125
engag,0.038453,0.551051,-0.185357,1.465573,0.997603,-0.105134,-0.624983,0.703959,-1.534028,-0.99883,0.971618,0.65819,1.297973,-0.661921,0.213327,-1.574323,2.042916,1.65128,-0.208006,0.567908
face,0.398031,-0.829608,1.023606,-0.080146,-1.841352,-0.666767,0.093392,-0.732472,-1.920505,-0.671482,0.181316,0.669307,-0.600269,0.630863,0.537424,-1.760144,0.715543,0.548652,0.001652,0.234329
nice,-0.200481,-0.79413,0.591962,1.07515,-0.482201,-0.192754,-0.676478,-0.203664,-1.124486,-0.412528,-0.291643,-0.250671,-0.725605,-0.264805,0.495753,-1.132436,0.883714,0.171372,-0.407293,1.588087
commun,0.445959,0.065877,0.539855,0.381705,-0.856292,-0.718383,-0.019578,-0.307096,-0.813722,-0.948233,0.474706,0.347399,-0.19816,0.243853,-0.790691,-1.251063,1.177766,0.554271,0.378569,0.802545
face,0.398031,-0.829608,1.023606,-0.080146,-1.841352,-0.666767,0.093392,-0.732472,-1.920505,-0.671482,0.181316,0.669307,-0.600269,0.630863,0.537424,-1.760144,0.715543,0.548652,0.001652,0.234329
email,-0.241659,0.899999,-0.107176,-0.344795,-0.681315,0.291889,-2.001378,1.659231,-0.755114,-0.813308,0.322363,-0.373162,-0.077082,0.204967,-0.449188,1.181429,1.727579,1.33297,0.353369,-1.474487
similar,-0.493013,-1.141051,0.228367,-0.794729,-0.727066,-0.368145,-0.809326,-0.811887,-1.599999,-0.588236,0.73706,1.248025,0.649471,-0.625548,0.062358,-1.692251,0.398756,0.758998,-0.922342,-0.617846
face,0.398031,-0.829608,1.023606,-0.080146,-1.841352,-0.666767,0.093392,-0.732472,-1.920505,-0.671482,0.181316,0.669307,-0.600269,0.630863,0.537424,-1.760144,0.715543,0.548652,0.001652,0.234329
provid,-0.338654,-0.025961,-0.649882,0.236272,0.063923,-0.061858,0.295753,-0.440017,-1.774726,-1.182718,0.412524,-0.573302,0.236438,-0.206308,-0.430698,-0.654256,1.058847,0.539075,-0.251232,-0.178237
interact,0.014921,0.192068,0.324707,1.207708,-0.393563,-0.896499,-0.794907,-0.196054,-2.237307,-1.274679,0.934627,0.433269,0.726649,-0.789657,-0.1775,-1.962556,2.178396,1.520528,-0.152644,0.655068
rememb,0.585506,0.44715,-0.095816,0.240465,-0.155621,0.375913,-0.178123,0.384348,-0.252862,0.033179,0.406351,0.344172,-0.036021,0.366092,-0.002472,-1.096406,0.208623,0.926147,0.173498,0.056904
go,-0.939563,0.747305,0.253256,0.865522,-0.174654,1.264537,-1.309959,1.414958,-1.155659,-0.417017,-0.775985,0.360202,-0.628958,-1.376874,0.490839,-0.630514,0.432341,1.068033,1.549473,-0.255734
box,0.037827,0.053186,-0.009857,0.021359,0.019558,-0.030811,0.104637,0.013397,0.04639,0.031961,-0.014526,-0.146719,-0.025582,0.070765,0.00406,-0.008838,0.044121,-0.049475,0.044963,0.062582
interact,0.014921,0.192068,0.324707,1.207708,-0.393563,-0.896499,-0.794907,-0.196054,-2.237307,-1.274679,0.934627,0.433269,0.726649,-0.789657,-0.1775,-1.962556,2.178396,1.520528,-0.152644,0.655068
life,-0.968717,-0.946828,0.294501,-0.499485,-1.138553,-0.579855,-0.664028,-0.806092,-0.319884,-0.084048,0.272343,0.284828,0.123794,-1.242669,0.200309,-1.05049,0.403139,0.214646,0.15258,0.349781
peopl,0.325451,-0.39052,0.647986,0.405558,-0.674926,-1.390997,-0.620292,0.631072,-0.803824,-0.417544,-1.164581,0.062919,-0.238224,-0.438513,0.008096,-1.110946,1.173382,0.13319,-0.471208,1.146874
peopl,0.325451,-0.39052,0.647986,0.405558,-0.674926,-1.390997,-0.620292,0.631072,-0.803824,-0.417544,-1.164581,0.062919,-0.238224,-0.438513,0.008096,-1.110946,1.173382,0.13319,-0.471208,1.146874
engag,0.038453,0.551051,-0.185357,1.465573,0.997603,-0.105134,-0.624983,0.703959,-1.534028,-0.99883,0.971618,0.65819,1.297973,-0.661921,0.213327,-1.574323,2.042916,1.65128,-0.208006,0.567908
activ,-0.017416,0.624388,0.149966,0.396247,1.063615,0.129994,0.006461,0.223522,-1.372437,-0.64474,0.23922,0.203934,1.30006,0.213292,0.192511,-1.012995,1.341161,0.868574,0.093697,0.579027
kinda,-0.335319,-0.096902,0.104639,0.144644,-0.047781,0.33646,-0.127289,-0.385252,-0.038525,0.10864,-0.192211,0.203798,-0.077321,0.07247,0.224321,-0.017369,-0.44039,-0.029465,-0.005585,0.087503
facilit,0.021296,0.079367,-0.038736,0.002706,-0.013507,0.044995,0.133923,-0.106525,0.124383,0.079661,0.100461,-0.12378,-0.044328,0.165668,-0.023189,0.024211,-0.027104,-0.030356,0.053019,0.059903
spot,0.422887,0.503015,0.520707,-0.047347,-0.96882,-0.488203,-0.797646,0.423093,0.61408,0.1481,0.54772,0.200291,-0.386535,-0.071044,-0.191615,-0.254721,0.934344,1.0151,0.790863,-0.03297
clarifi,0.744185,0.612631,0.766003,0.083987,-0.954884,-0.360688,-0.40222,0.373023,0.841761,0.367599,0.681137,0.388533,-0.646582,0.202063,-0.233132,-0.598291,0.235321,0.993708,1.057407,0.080886
student,-0.2618,0.36489,-0.28655,0.892199,-0.10342,-1.120659,-0.210943,0.466649,-1.36433,-0.794466,-0.128178,-0.892436,0.589568,-0.645084,0.051716,-1.406592,1.632372,0.754255,0.025051,0.607834
challeng,0.490255,0.093118,-0.183175,0.018455,0.394449,0.112338,0.132368,0.363588,0.049836,-0.008846,-0.083492,-0.199317,0.07581,0.019508,0.022533,-0.226631,0.025498,0.123904,-0.007993,-0.063256
flick,0.166404,0.089419,0.213534,0.026717,-0.002738,0.1189,0.190425,-0.131654,0.13906,0.119302,0.035671,-0.135688,-0.179771,0.253864,0.090223,0.035662,-0.319752,-0.13788,0.181676,0.007353
peerstutor,-0.006928,0.00292,0.087563,0.058833,0.044195,-0.027975,0.015674,-0.054416,-0.007442,-0.031164,0.005009,0.003135,-0.014574,0.011333,0.058358,0.030023,-0.058656,-0.017255,-0.044403,0.01644
human,-0.063473,-0.315683,0.188921,0.654812,-0.283713,-0.445717,0.017355,-1.12105,-1.076045,-0.262847,0.340224,0.018634,0.411215,0.102122,0.1175,-0.642347,0.78575,0.334353,-0.486882,0.655875
prerequisit,0.011761,-0.029006,0.007077,0.001654,-0.041108,0.013802,-0.019269,0.002042,0.027036,-0.00652,-0.030739,-0.013737,-0.034599,0.024793,-0.035112,0.000545,-0.005444,-0.008492,-0.029877,-0.00057
concept,1.175956,0.601671,-0.069255,0.478202,-0.082895,0.499716,0.027576,2.163896,-0.139824,-0.040315,0.055876,0.334512,-0.982308,0.288899,0.148843,-1.195848,0.156935,0.913396,0.400805,-0.215319
serv,-0.044368,-0.056183,-0.076159,0.077761,0.114039,0.057502,-0.016145,-0.104691,-0.058755,-0.025299,0.013449,0.042003,0.08791,0.007967,-0.002206,-0.057177,-0.084941,-0.030046,-0.147193,0.093906
rework,0.027534,0.077416,0.004554,0.037145,0.046002,0.057464,0.010043,0.02753,-0.022607,0.021523,-0.011024,-0.102987,-0.071219,-0.027408,0.022691,0.029195,-0.024366,0.031178,0.085033,-0.027789
pace,-1.429152,0.412565,-0.268806,0.223124,0.450861,1.714147,-0.981896,1.937656,-1.313901,-0.950463,-1.310162,0.851374,-0.598875,-0.511138,-0.446328,-0.204908,0.861969,0.538144,1.063533,0.350909
learn,-0.223903,0.182387,0.021744,0.147094,0.337838,0.792095,-0.501872,1.531833,-2.503869,-1.035585,-0.441964,1.103313,0.895865,0.083965,0.194635,-2.257158,0.986816,1.061717,-0.207448,0.315301
go,-0.939563,0.747305,0.253256,0.865522,-0.174654,1.264537,-1.309959,1.414958,-1.155659,-0.417017,-0.775985,0.360202,-0.628958,-1.376874,0.490839,-0.630514,0.432341,1.068033,1.549473,-0.255734
insight,0.352557,0.167417,-0.006291,-0.062467,-0.19429,-0.204801,0.112515,0.149608,0.056849,0.06699,0.144072,-0.06452,-0.091037,0.175859,0.02954,-0.013037,0.176139,0.099266,-0.0759,0.006277
full,0.04963,0.103114,-0.477236,-0.22702,-0.090575,0.175031,0.537348,0.463842,-0.074428,-0.011336,0.258739,-0.09197,-0.265153,0.236576,-0.21175,-0.037391,0.356236,0.18342,0.319035,0.02624
mindlessli,0.100743,0.023795,-0.055028,-0.213191,0.173778,0.197412,0.223692,-0.07953,0.121369,0.081311,0.02985,-0.031516,0.061841,0.248011,0.021345,0.056585,-0.127035,-0.168116,-0.001757,0.047778
held,0.266185,-0.25984,-0.304127,-0.316233,1.006696,-0.192086,0.218243,-0.864044,0.08942,-0.134274,-0.021316,0.164259,1.150281,-0.370653,-0.03385,-0.558591,0.253323,-0.271018,-0.100708,0.675085
activ,-0.017416,0.624388,0.149966,0.396247,1.063615,0.129994,0.006461,0.223522,-1.372437,-0.64474,0.23922,0.203934,1.30006,0.213292,0.192511,-1.012995,1.341161,0.868574,0.093697,0.579027
larg,0.123936,-0.014518,0.072963,-0.201533,0.271946,-0.163534,0.177688,-0.326742,0.015691,-0.047202,-0.3193,-0.145691,0.222332,-0.088973,0.062772,0.100658,-0.413806,-0.338457,-0.33753,-0.232672
tediou,0.142524,-0.080592,0.009734,-0.123353,0.093377,-0.099829,0.123683,-0.309689,0.462704,0.103434,-0.108159,0.04377,0.146187,0.001806,-0.038204,0.359195,-0.196474,-0.165305,0.001502,-0.028145
applic,-0.036629,0.034483,-0.184932,-0.121025,0.008242,0.065751,0.180317,-0.384395,0.112577,0.199848,0.106153,-0.226249,0.17906,0.398828,0.117888,-0.032448,-0.133564,-0.061452,-0.165429,0.083581
juggl,-0.038723,-0.028159,-0.049697,0.00321,0.08535,-0.024249,0.0516,0.072761,-0.050643,-0.087155,-0.011836,-0.046049,-0.00454,-0.084454,-0.061822,-0.016814,0.052727,-0.009219,0.046397,-0.016399
hold,0.064133,-0.125298,-0.91316,-0.35491,1.15772,-0.260111,0.28319,-0.343174,-0.315888,-0.265368,-0.008388,-0.065646,1.424157,-0.509304,-0.202144,-0.87851,0.987271,0.077716,-0.25744,0.651494
abil,-0.321183,0.867325,0.616525,0.784119,0.114008,-0.177676,-0.095777,0.675595,-0.639792,-0.675598,0.315199,-0.333296,-0.329545,-0.655553,-0.082149,-1.118531,0.868238,0.685137,1.395533,0.510095
isol,-0.655154,-0.171763,0.162736,0.986856,-0.127999,-0.338368,-0.239454,-0.833404,0.341916,-0.314925,-0.214535,1.199413,0.399473,-0.421145,-0.776774,0.167391,0.114906,0.09851,0.145456,0.600951
stop,-0.796712,0.562874,0.924458,1.087203,0.15911,0.077013,-0.499746,0.943034,-1.127998,-1.025329,-0.803182,0.052182,-1.049988,-1.103474,0.188806,0.40693,-0.250443,-0.421995,0.741321,-0.250209
film,-0.057964,0.057249,0.024624,0.040456,-0.002595,0.075168,-0.099198,-0.030356,-0.140533,0.017021,-0.064622,0.042209,0.006002,-0.052419,0.096996,0.024443,-0.034754,-0.024913,-0.043435,-0.095365
scari,0.028901,-0.050998,-0.003205,-0.033971,-0.024108,-0.03539,0.037592,-0.096647,0.092174,0.056863,-0.031815,-0.066793,0.048129,0.087153,-0.035237,0.089642,-0.02479,-0.04336,-0.041119,0.019591
faster,0.12678,-0.214416,0.323285,-0.050762,-0.011005,0.721221,-0.033166,0.714613,-0.504915,-0.367166,-0.005968,0.527325,-0.332116,-0.254022,-0.167349,-0.716635,0.027993,0.060537,0.373442,0.371183
qa,0.461534,-0.05682,-0.146861,0.052361,0.419703,-0.510569,0.19944,-0.494942,0.246827,0.12479,-0.113944,-0.323163,0.465133,-0.40454,0.154382,0.381951,0.020804,-0.202832,-0.231593,-0.29737
whenev,-2.102461,0.2339,0.270574,0.787229,-0.678262,0.289579,-0.984982,1.306259,-1.490909,-1.063325,-0.408105,0.351082,-1.442695,-1.325861,-0.61091,0.702499,-0.159922,-0.596093,0.783539,-0.361888
timet,-0.754635,-0.544896,-0.810217,-0.133767,0.455394,0.182391,0.059006,0.109128,0.016741,-0.171691,0.204058,0.350011,0.292886,-0.09156,-0.649275,0.425305,0.287014,-0.274257,-0.244365,0.249425
clarif,0.283147,0.67702,0.395564,0.123034,-0.606893,-0.478575,-0.005789,0.541612,0.252158,-0.18115,0.361566,-0.283061,-0.298219,-0.038359,-0.408104,-0.350556,0.640935,0.580667,0.967839,0.012903
internet,0.594723,-0.812824,0.596518,0.557404,-0.300684,-1.185024,-0.005371,-0.437382,-0.086994,-0.38104,-0.826826,-0.550159,-0.384512,-1.35206,-0.362085,0.717121,0.702614,-0.379582,-0.107476,0.084442
face,0.398031,-0.829608,1.023606,-0.080146,-1.841352,-0.666767,0.093392,-0.732472,-1.920505,-0.671482,0.181316,0.669307,-0.600269,0.630863,0.537424,-1.760144,0.715543,0.548652,0.001652,0.234329
typic,-0.345973,-0.40919,-0.137433,-0.264677,0.000261,-0.101681,-0.106754,-0.451752,0.088918,0.049672,0.018991,0.244575,0.343448,-0.18405,0.051036,0.050847,-0.290994,-0.131548,-0.357399,-0.142981
clunki,0.363453,0.000628,0.006764,-0.257143,0.194356,-0.337042,0.137603,-0.44153,0.434861,0.208555,-0.198748,-0.136218,0.281416,0.004002,-0.05796,0.255512,-0.186005,-0.198101,-0.186092,-0.231917
focu,0.271611,-0.079398,-0.518893,0.663341,0.916494,0.661721,-0.575801,1.01868,-0.145054,-0.173281,0.428729,0.882647,0.1161,-0.87091,-0.177778,-0.389484,0.534125,0.552536,-0.41768,0.703944
basic,-0.226906,-0.202696,0.091472,0.043288,-0.158412,0.22363,-0.011243,-0.397715,-0.447428,-0.279598,0.070721,0.225969,0.00303,-0.217801,0.052828,-0.369873,-0.256736,-0.003011,-0.169038,-0.014783
voic,0.217548,0.070837,0.342895,1.325669,-0.47787,0.050272,0.044301,0.135638,-0.638308,0.26059,0.520116,-0.986424,-0.769241,0.488654,1.216278,-0.32118,0.233776,0.362907,0.34395,0.489852
receiv,0.084508,0.141253,0.077767,0.06805,-0.629673,-0.502484,-0.401737,0.303362,0.084042,0.1205,0.861091,-0.24013,-0.498789,0.392097,-0.039017,-0.455489,1.423784,1.067825,0.560342,0.304243
true,-0.007152,-0.255786,0.004355,-0.043141,-0.003381,-0.002941,0.002975,-0.337217,-0.067909,0.033682,0.080258,0.238424,0.175382,0.03187,0.060177,-0.006566,-0.219307,-0.06351,-0.282535,-0.074895
slip,0.069185,0.091535,0.115804,0.089074,0.052905,0.129407,0.128792,-0.043917,0.098625,0.004075,-0.020343,-0.022913,-0.160581,0.049197,-0.023565,0.145328,-0.164861,-0.097766,0.127631,-0.020957
face,0.398031,-0.829608,1.023606,-0.080146,-1.841352,-0.666767,0.093392,-0.732472,-1.920505,-0.671482,0.181316,0.669307,-0.600269,0.630863,0.537424,-1.760144,0.715543,0.548652,0.001652,0.234329
connect,0.394848,-0.628244,0.598876,1.025783,-0.366233,-1.667797,-0.19903,-0.826692,-0.491256,-0.833645,-0.865316,-0.128712,0.420754,-0.561945,-0.772771,-0.008048,1.24018,-0.209565,-0.270205,0.661248
block,-0.009582,0.001133,-0.014445,-0.150951,-0.081408,-0.063625,0.212386,0.21531,0.251458,0.004598,-0.094064,-0.094229,-0.116148,-0.218945,-0.201383,0.10482,-0.189476,-0.226482,0.119001,0.070034
exhaust,0.073978,-0.270073,-0.124921,-0.014705,0.300114,-0.092555,-0.054708,-0.408744,0.371956,0.099504,-0.018632,0.411873,0.404396,-0.050476,-0.175919,0.211349,-0.22632,-0.058131,-0.405383,-0.005807
frame,-0.545448,-0.000685,-0.247198,-0.298235,-0.118454,0.037615,0.047526,0.923846,0.370335,-0.172818,-0.23448,-0.064735,-0.453561,-0.608521,-0.577601,0.613281,0.143108,-0.247493,0.379994,-0.045297
classmat,-0.183182,0.029825,0.428553,1.388596,-1.034447,-1.064558,-0.365458,-0.242866,-0.957535,-0.448265,0.157604,-0.461808,-0.245044,0.183719,0.371448,-1.225597,1.289061,0.669707,-0.286049,1.051974
foster,0.19291,0.161051,-0.059319,-0.120101,0.035866,-0.059328,0.270059,-0.137701,-0.030477,-0.03156,0.08825,-0.024989,0.084683,0.330444,-0.150773,-0.31091,0.105333,0.041687,-0.002597,0.161277
instructor,0.304028,0.650092,0.378535,0.625038,-0.35431,-0.745299,-0.239696,-0.002551,-0.571602,-0.225485,0.452625,-0.731686,0.33705,0.022571,0.389238,-0.710392,1.073695,0.713118,0.180725,0.075806
social,-0.197009,0.253773,0.522066,0.998984,0.111919,-0.613562,-0.53779,-1.628479,-0.416224,-0.035019,0.271075,-0.137352,0.722061,-0.088561,0.09378,-0.39326,0.778055,0.754067,-0.18149,0.521763
breakout,0.231194,0.26493,-0.240034,-0.538992,0.009841,-0.386749,0.279375,-0.290234,0.30679,0.230501,-0.196315,-0.394773,0.364254,0.385729,-0.180589,0.146578,0.203173,-0.029191,-0.056851,0.030379
collabor,0.689403,0.671085,0.374109,0.183413,0.399549,-0.581449,0.141537,-0.044045,-0.288147,-0.215495,-0.075846,-0.302405,0.706789,0.11242,0.06956,-0.615581,0.159598,0.420416,-0.099492,-0.048083
totor,0.023107,0.044109,0.061746,-0.035096,-0.139059,-0.050712,-0.096543,0.009278,0.094441,0.001571,0.117842,-0.028653,-0.06716,-0.001233,-0.01966,0.014637,0.115438,0.076434,0.122589,-0.01509
busi,-0.432021,-0.404868,-0.262295,-0.287482,0.141821,0.288608,0.304344,-0.052298,0.282835,0.072879,-0.107756,0.145388,-0.059277,-0.17026,-0.238112,0.389446,-0.501428,-0.503676,0.031893,0.014643
unsuccess,0.040442,-0.023632,-0.013101,-0.044723,0.056582,0.013978,0.09947,-0.097986,0.193571,0.051636,-0.028632,-0.047333,-0.028327,0.039674,0.003288,0.122657,-0.163411,-0.132898,0.008368,0.006534
hand,-0.07339,0.252433,-0.135219,-0.087,-0.236418,0.164275,-0.243999,0.629513,0.384059,0.072469,0.142796,-0.122228,-0.304418,-0.111364,-0.291259,0.485179,0.527176,0.230018,0.463391,-0.113726
peopleask,0.096532,0.115497,0.087486,0.010955,-0.132884,-0.064916,-0.067876,0.083354,0.097992,0.072505,-0.023486,-0.048639,-0.09495,0.127812,0.023996,-0.052179,0.06481,0.148671,0.085201,0.03991
interact,0.014921,0.192068,0.324707,1.207708,-0.393563,-0.896499,-0.794907,-0.196054,-2.237307,-1.274679,0.934627,0.433269,0.726649,-0.789657,-0.1775,-1.962556,2.178396,1.520528,-0.152644,0.655068
inform,0.783077,0.431083,0.242172,0.215761,0.186555,1.459331,0.168919,1.273931,-0.894853,-0.899243,0.208817,0.655277,-1.129943,-0.224359,-0.25284,-0.198049,0.366251,0.458329,0.554217,-0.16519
person,0.228235,-0.885563,0.389511,0.058781,-0.504382,-0.095603,-0.791739,0.153816,-1.69918,-0.731485,0.201109,1.200516,0.111958,-0.110326,0.073451,-1.15347,0.641063,0.783687,-0.781241,0.065709
flexibl,-1.353377,-0.315013,-0.723121,0.39134,0.337355,0.231434,0.264235,0.518307,-1.546898,-1.120613,-0.091838,0.187913,-0.381813,-1.10796,-0.755059,-0.150632,0.478107,-0.444506,0.230325,0.470444
interact,0.014921,0.192068,0.324707,1.207708,-0.393563,-0.896499,-0.794907,-0.196054,-2.237307,-1.274679,0.934627,0.433269,0.726649,-0.789657,-0.1775,-1.962556,2.178396,1.520528,-0.152644,0.655068
routin,-1.723579,-0.777265,-1.208227,0.310291,0.413157,-0.062082,0.565702,-0.779189,-0.256219,-0.558796,0.764827,0.052336,0.457037,-0.230592,-1.136686,-0.280728,0.730943,0.056225,0.253755,0.706957
abil,-0.321183,0.867325,0.616525,0.784119,0.114008,-0.177676,-0.095777,0.675595,-0.639792,-0.675598,0.315199,-0.333296,-0.329545,-0.655553,-0.082149,-1.118531,0.868238,0.685137,1.395533,0.510095
realiti,-0.047367,-0.073194,0.0754,0.004969,-0.038401,0.008446,-0.027792,-0.145322,0.123505,0.063968,-0.003356,0.044115,-0.062454,-0.149703,0.079483,0.219968,-0.253228,-0.1117,0.012039,-0.252842
forc,-0.390281,-0.770801,-0.595149,0.562191,1.315233,0.07145,-0.18006,-0.084343,-0.37612,-0.28785,0.658931,0.254934,1.220533,-0.836758,-0.118577,-0.079033,1.377987,0.360266,-0.468156,1.233231
account,-0.35169,-0.162954,-0.857017,0.229802,1.681398,-0.026936,0.209683,-0.697504,-0.354852,-0.470577,0.231998,0.34562,1.80931,-0.774361,-0.403016,-1.104943,0.748934,0.156213,-0.009426,1.030028
greater,-0.286528,0.645807,-0.403211,0.470902,0.035427,-0.027601,0.805414,-0.085141,-0.011753,-0.159016,0.464754,-0.227624,-0.058313,0.364172,-0.485819,-0.526075,0.240982,0.124472,0.683343,0.343565
vs,-0.128675,-0.039217,-0.015232,0.334985,0.077211,0.086952,-0.189372,0.181949,-0.432161,0.044946,-0.136912,-0.171556,-0.096595,-0.599217,0.474419,0.308212,-0.095414,-0.174923,-0.039162,-0.329721
lack,0.132604,-0.285322,0.019272,0.261092,0.379749,-0.281444,0.17823,-0.3585,-0.064031,-0.060902,0.129013,-0.168513,0.407398,-0.756033,0.214081,0.005062,0.135183,-0.211287,-0.059023,0.153335
easiest,0.908123,-0.408633,0.047505,-0.317616,0.038395,0.2337,0.299562,0.527968,-0.53428,-0.336772,0.335769,1.121963,0.073667,-0.123423,-0.638487,-1.302248,-0.007608,0.122128,-0.511374,0.277645
ask,-0.146243,1.006846,0.746248,0.778785,-0.959183,-0.953047,-1.5952,0.975834,-1.041862,-0.991913,0.882071,0.157543,0.135508,-0.910597,-0.479388,-1.710707,2.693983,2.145451,1.248849,0.221703
medium,0.10186,0.112528,-0.024834,-0.068909,0.017426,0.077946,0.257851,-0.002161,0.011106,0.052482,0.023446,-0.155566,-0.047053,0.145667,-0.056222,-0.080562,-0.130552,-0.085043,0.102951,0.014044
within,-0.588033,-0.158408,-0.187627,-0.292633,-0.176383,-0.067724,0.144124,-0.016101,-0.17186,-0.161592,-0.056643,-0.016974,0.045324,-0.04213,-0.161709,-0.145138,0.175612,-0.068671,0.00611,0.163827
discusson,0.058793,0.022761,-0.042917,-0.005046,0.024894,0.028825,0.00762,-0.008437,-0.020703,-0.01525,-0.026836,0.007537,0.032072,-0.005529,-0.029188,-0.069685,-0.00755,-0.021749,0.004886,-0.006496
onlin,0.224598,-0.390168,-0.305119,-0.359951,-0.070626,-0.517994,-1.146389,1.133362,-1.334144,-0.448234,-1.03228,0.666507,0.573159,-1.112067,0.2428,-0.232922,0.883331,0.529747,-1.014224,-0.556353
go,-0.939563,0.747305,0.253256,0.865522,-0.174654,1.264537,-1.309959,1.414958,-1.155659,-0.417017,-0.775985,0.360202,-0.628958,-1.376874,0.490839,-0.630514,0.432341,1.068033,1.549473,-0.255734
deliv,0.443317,-0.081997,0.016589,-0.000844,0.14806,0.40118,0.672933,0.061026,-0.026162,-0.046582,0.36918,-0.157659,-0.48295,0.16285,0.213766,-0.124036,-0.161558,-0.148841,0.008477,-0.039132
requir,-0.286428,0.272395,-0.418267,0.429839,1.045797,-0.039552,0.220491,0.197963,-0.552411,-0.468516,0.033053,0.050254,0.747515,-0.468103,-0.170785,0.210559,0.628229,0.051654,0.22383,0.105927
isol,-0.655154,-0.171763,0.162736,0.986856,-0.127999,-0.338368,-0.239454,-0.833404,0.341916,-0.314925,-0.214535,1.199413,0.399473,-0.421145,-0.776774,0.167391,0.114906,0.09851,0.145456,0.600951
enjoy,-0.179547,0.294797,0.052223,0.324932,0.168233,0.112271,-0.490497,-0.010003,-0.971873,-0.381487,-0.503471,-0.243136,0.323006,0.0131,0.452148,-0.588073,0.691068,0.43334,-0.187152,0.148447
abilityknowledg,-0.020691,0.009472,0.045985,-0.065145,-0.02667,-0.075751,-0.040404,-0.036871,0.047824,-0.042955,-0.0056,-0.090962,0.023105,-0.106384,0.009943,0.107544,0.00381,-0.000149,0.049545,-0.074381
permit,-0.101846,-0.010679,0.051978,0.03938,0.031527,-0.063625,-0.008458,-0.164094,-0.117197,-0.030655,0.031919,0.022698,0.11025,0.018457,-0.028764,-0.125452,0.02701,0.042482,-0.009271,0.105185
ither,0.023253,0.034432,0.044081,-0.106083,-0.088228,0.003231,0.161981,-0.224184,0.237243,0.174376,0.025843,-0.14219,-0.080875,0.262535,-0.011095,0.075041,-0.129428,-0.098431,0.014297,0.094818
regular,-0.596963,-1.093309,0.007993,-0.704531,-0.261335,-0.391143,-0.60086,-0.886448,-0.698943,-0.555963,-0.082422,0.803979,0.592402,-0.572232,-0.177568,-0.362092,-0.135375,0.086413,-0.769889,-0.295069
inform,0.783077,0.431083,0.242172,0.215761,0.186555,1.459331,0.168919,1.273931,-0.894853,-0.899243,0.208817,0.655277,-1.129943,-0.224359,-0.25284,-0.198049,0.366251,0.458329,0.554217,-0.16519
curat,0.022537,-0.008145,-0.011834,-0.064842,0.013532,-0.055668,-0.065681,-0.020442,0.077776,-0.04074,-0.02196,-0.048507,0.022732,0.006843,-0.049765,0.151186,0.054665,-0.025043,0.021567,-0.052246
order,0.122413,0.462396,-0.138041,0.236014,-0.081685,0.148487,0.161625,0.90424,0.294256,0.038835,0.133964,0.15589,-0.350909,-0.012722,-0.266254,-0.145694,-0.13274,0.086769,0.55035,-0.010079
daynight,-0.018181,0.012087,-0.016594,-0.057028,-0.00432,0.007501,0.049396,-0.070714,0.099335,0.070575,-0.001727,-0.037258,-0.043463,0.015734,0.037335,0.051759,-0.070709,-0.018514,0.082371,-0.045192
encourag,0.265404,0.240924,0.021827,-0.09957,0.677343,-0.115874,0.102853,-0.046946,-0.111611,-0.29373,0.108795,0.041909,0.710951,0.09866,-0.090894,-0.237629,0.645083,0.304359,-0.107188,0.377028
ask,-0.146243,1.006846,0.746248,0.778785,-0.959183,-0.953047,-1.5952,0.975834,-1.041862,-0.991913,0.882071,0.157543,0.135508,-0.910597,-0.479388,-1.710707,2.693983,2.145451,1.248849,0.221703
trust,0.093734,0.115599,-0.05705,-0.052245,-0.034617,-0.072355,0.398687,-0.249376,0.263898,0.116038,0.135976,-0.405343,-0.000178,0.282633,-0.058567,0.052712,-0.190043,-0.162842,0.077176,-0.019862
post,-0.095684,0.064955,-0.263953,0.038274,-0.057983,-0.023717,-0.088963,0.15311,-0.326401,0.181061,0.094225,-0.499541,0.059059,-0.185151,0.511186,0.273039,0.172621,0.070938,-0.065705,-0.486115
talk,0.187133,0.200445,0.523218,0.411768,-1.009385,-0.513496,-1.158505,1.029357,-0.836881,-0.142869,-0.717806,-0.021384,-0.26313,0.484661,0.518631,-0.982175,0.990064,1.055539,-0.294585,0.426932
interact,0.014921,0.192068,0.324707,1.207708,-0.393563,-0.896499,-0.794907,-0.196054,-2.237307,-1.274679,0.934627,0.433269,0.726649,-0.789657,-0.1775,-1.962556,2.178396,1.520528,-0.152644,0.655068
alwayd,-0.085554,-0.019481,0.034291,0.002547,0.016327,-0.039723,0.084694,-0.114882,0.065193,0.075187,0.055783,-0.054045,0.012281,0.009955,0.007612,0.005902,-0.078722,-0.061458,0.03282,0.007433
normal,-1.409119,-0.930981,0.040151,-0.078553,-0.974365,-0.47246,-1.321195,-1.341356,-1.783996,-0.573267,0.678738,1.239061,0.258989,-0.59012,0.173623,-1.136349,0.512385,1.02491,-0.516473,-0.558094
useless,0.34832,-0.255309,-0.085587,-0.614305,0.138331,-0.244376,-0.028402,-0.421208,0.170632,0.096999,-0.211923,0.246777,0.399738,-0.167574,0.080204,0.120261,-0.296367,-0.184403,-0.485828,-0.328472
better,0.479332,0.315718,-0.617588,0.669131,0.113817,0.256747,-0.02837,1.836998,-1.891157,-0.598193,0.252794,0.817545,-0.382057,0.12551,-0.121665,-1.520575,0.753766,0.877163,-0.285069,0.103989
normalci,-0.328544,-0.0841,-0.203076,0.109658,0.267946,0.024055,0.647711,-0.793378,0.219279,-0.12884,0.014498,-0.294056,-0.091126,0.377251,-0.442679,0.181865,-0.383269,-0.387952,0.169929,0.222272
unclear,0.250341,0.290076,0.510062,-0.048869,-0.650657,0.079257,-0.24768,0.09876,0.500848,0.571219,0.105566,0.287993,-0.366157,-0.003784,0.376987,-0.105823,-0.692103,0.177049,0.631955,-0.372914
know,-0.355727,0.05609,0.058128,0.982945,-0.399268,-0.220452,-1.108594,0.551176,0.059368,0.361276,-0.02119,0.556649,-0.079705,-0.461005,0.314024,-0.312165,0.260378,0.435481,-0.384264,0.650134
rewatch,-0.741109,0.820181,0.625409,1.359219,0.032411,0.42926,-0.618856,1.557125,-0.566774,-0.10814,-0.900037,0.277414,-1.025761,-1.078988,0.648447,-0.138463,-0.840032,-0.082153,1.250439,-0.628404
crucial,0.238628,0.151855,0.059837,-0.168453,-0.026162,-0.011008,0.538275,-0.445611,0.637694,0.214779,0.227461,-0.354675,-0.070328,0.513281,-0.06788,0.120925,-0.324097,-0.232756,0.171822,0.061066
digest,0.168771,0.130078,-0.163206,-0.072508,0.156655,0.394716,0.230965,0.644368,-0.001135,-0.18876,0.101042,0.296718,-0.292882,-0.125317,-0.275767,-0.026241,0.199064,0.076315,0.202918,0.085004
interest,0.674217,0.231684,0.450052,0.667856,0.361845,-0.001211,-0.080442,-0.000555,-0.276533,-0.218959,0.223202,1.116061,0.359396,-0.44422,-0.286741,-0.672502,0.249446,0.397949,0.154092,0.220135
enhanc,-0.001263,-0.020004,-0.054467,-0.240201,0.208,0.147918,0.246765,-0.225229,0.206537,0.185642,-0.016981,-0.002034,0.129737,0.475561,-0.060971,-0.000259,-0.337845,-0.263449,-0.139941,0.068728
system,0.217206,-0.216465,-0.005025,-0.332327,-0.081355,0.00273,0.099854,-0.346892,0.371364,0.243549,0.094387,0.055698,0.036608,0.258471,-0.012553,0.140153,-0.019424,-0.071382,-0.166016,0.067664
interact,0.014921,0.192068,0.324707,1.207708,-0.393563,-0.896499,-0.794907,-0.196054,-2.237307,-1.274679,0.934627,0.433269,0.726649,-0.789657,-0.1775,-1.962556,2.178396,1.520528,-0.152644,0.655068
often,0.110341,0.1379,-0.312989,0.20714,0.079966,-0.121301,-0.855268,0.966148,-0.260546,-0.134184,-0.366677,0.159568,0.121107,-0.696538,0.198317,0.421335,0.29297,0.18992,-0.468391,-0.6932
alon,-0.872971,0.093351,-0.708999,0.354438,-0.091445,0.275905,-0.814916,-0.008904,0.252539,0.086391,0.090441,1.39486,0.545489,0.233148,-0.666818,0.545341,0.458374,0.566103,-0.183934,0.251974
simpli,0.416158,0.329498,-0.348545,-0.311078,-0.041353,0.819569,-0.281082,0.793561,-0.517896,0.104975,0.160994,0.029779,-0.070007,0.642965,0.092402,0.284675,-0.041388,0.273296,-0.369683,-0.656553
put,-0.367813,0.031237,0.04985,0.294154,0.038483,0.038525,-0.54256,0.20552,0.244986,-0.192329,-0.228077,0.648834,-0.04883,0.004289,-0.356343,0.432765,0.561111,0.401148,0.285987,0.065161
alway,-0.049962,0.401277,0.2569,0.462874,-0.354273,0.326778,-1.148741,0.491803,-0.258659,-0.259918,-0.115493,-0.405543,0.010692,-1.35138,0.274517,0.296615,0.486107,0.575088,1.006767,-0.680243
postpon,0.163489,-0.100343,0.014207,-0.298789,-0.068135,0.044885,0.244786,-0.291921,0.260907,0.17244,0.017151,-0.028716,0.10219,0.192534,0.029415,0.198663,-0.341371,-0.138294,-0.02608,-0.234831
explain,0.7006,0.576201,-0.249063,0.391188,-1.170251,0.736465,-0.73205,2.510141,-1.172825,-0.006027,0.672885,0.585578,-1.229445,0.566963,0.592288,-1.634853,0.811487,1.585539,0.139926,-0.176648
colleagu,-0.015875,-0.050663,-0.012111,-0.042194,0.00124,0.009337,0.051337,-0.023415,0.048061,0.050425,-0.048431,-0.011659,-0.022476,-0.016132,-0.016537,0.058887,-0.099587,-0.050099,0.005613,-0.035758
flexibl,-1.353377,-0.315013,-0.723121,0.39134,0.337355,0.231434,0.264235,0.518307,-1.546898,-1.120613,-0.091838,0.187913,-0.381813,-1.10796,-0.755059,-0.150632,0.478107,-0.444506,0.230325,0.470444
want,-1.725247,-0.101145,0.184456,0.403452,-0.819547,-0.10443,-0.53513,1.666124,-1.713291,-1.076551,-0.854341,0.625694,-1.044,-1.292515,-0.62073,0.111205,-0.140699,-0.677933,0.36646,0.007929
quicker,0.409554,0.195665,-0.090264,-0.358407,-0.148062,-0.045225,-0.361911,0.695378,-0.027283,-0.340619,0.234759,0.040607,-0.162106,0.212485,-0.634676,0.277338,0.800765,0.386657,0.07572,-0.154357
importantli,-0.286807,-0.126054,-0.058898,-0.150615,-0.046717,0.024138,0.223436,-0.447456,-0.250722,-0.021072,0.017009,0.01893,0.234561,0.253704,-0.020687,-0.332671,-0.052449,-0.18975,-0.174616,0.222622
thing,-0.027533,0.103269,0.077025,-0.003114,-0.929999,0.753192,-1.090698,1.517408,-0.49893,0.204336,0.054683,1.36609,-0.475849,-1.12608,0.404668,-1.643215,0.11447,1.150805,0.49134,-0.009916
interact,0.014921,0.192068,0.324707,1.207708,-0.393563,-0.896499,-0.794907,-0.196054,-2.237307,-1.274679,0.934627,0.433269,0.726649,-0.789657,-0.1775,-1.962556,2.178396,1.520528,-0.152644,0.655068
commit,-0.150709,-0.137468,-0.167923,0.014565,0.212197,0.042127,0.150024,0.210393,0.009541,-0.040172,-0.025466,-0.126334,0.087932,-0.276387,-0.038126,0.159768,0.036709,-0.201214,0.122796,0.048931
rewatch,-0.741109,0.820181,0.625409,1.359219,0.032411,0.42926,-0.618856,1.557125,-0.566774,-0.10814,-0.900037,0.277414,-1.025761,-1.078988,0.648447,-0.138463,-0.840032,-0.082153,1.250439,-0.628404
person,0.228235,-0.885563,0.389511,0.058781,-0.504382,-0.095603,-0.791739,0.153816,-1.69918,-0.731485,0.201109,1.200516,0.111958,-0.110326,0.073451,-1.15347,0.641063,0.783687,-0.781241,0.065709
straight,0.70557,0.566354,1.103821,0.062584,-1.088331,-1.093841,-0.777276,0.334538,0.970644,0.739897,1.324104,0.070026,-0.939995,0.267351,-0.092862,0.327629,1.155579,1.143525,1.713192,-0.267225
allow,-0.841317,0.620354,-0.113939,0.441451,0.062277,0.044559,-0.042149,1.02309,-2.109892,-1.285534,0.03805,-0.03125,-0.072982,-0.330642,-0.500086,-1.292135,1.679696,0.803801,0.863647,0.256649
good,0.42672,-0.273581,0.740214,0.647084,0.428188,-0.310624,-0.444976,0.491576,-0.753297,-0.64965,-0.863283,-0.051046,-0.358249,-1.008834,0.438523,-0.536964,0.393714,-0.01584,-0.199818,0.088246
faster,0.12678,-0.214416,0.323285,-0.050762,-0.011005,0.721221,-0.033166,0.714613,-0.504915,-0.367166,-0.005968,0.527325,-0.332116,-0.254022,-0.167349,-0.716635,0.027993,0.060537,0.373442,0.371183
moment,0.074445,0.264926,0.537066,0.121056,-0.578705,-0.493634,-0.298925,0.442459,0.085758,-0.276713,0.232285,0.033646,-0.532087,-0.390157,-0.417067,-0.250775,0.589212,0.380679,0.875829,0.017105
bound,0.028932,-0.107938,0.019553,-0.064493,-0.076966,-0.136283,0.163607,-0.176315,0.260512,0.129769,0.065217,-0.062585,0.011902,0.081333,-0.046092,0.004021,-0.012644,-0.062432,0.026224,0.152827
organ,-0.77791,-0.117192,-0.502066,-0.322232,0.228319,0.069967,0.325723,0.430644,-0.824686,-0.569717,-0.280992,0.476732,0.196107,-0.569311,-0.834823,-0.364357,0.027646,-0.482366,-0.166612,0.108751
peac,0.075037,0.03801,0.047681,-0.02237,0.095568,0.082318,0.236045,-0.164408,0.126746,0.028213,-0.010561,-0.069711,-0.083563,0.22975,-0.078288,0.096225,-0.218594,-0.18211,0.009353,0.049142
contact,-0.179022,-0.145813,0.293402,0.570047,-0.754374,-0.653484,0.142944,-0.802488,-1.171645,-0.574985,0.872535,-0.167691,0.271867,0.68786,-0.176884,-0.864946,1.244256,0.486821,-0.387654,0.660128
interact,0.014921,0.192068,0.324707,1.207708,-0.393563,-0.896499,-0.794907,-0.196054,-2.237307,-1.274679,0.934627,0.433269,0.726649,-0.789657,-0.1775,-1.962556,2.178396,1.520528,-0.152644,0.655068
method,0.49936,-0.200862,-0.381029,-0.434163,-0.028219,0.069043,-0.286856,0.413158,-0.987305,-0.518764,0.031179,0.873154,0.677656,-0.415691,-0.183369,-0.550101,0.442461,0.335481,-0.797836,-0.354564
control,-0.663855,-0.149506,-0.234872,0.058436,0.253169,0.530349,0.062657,0.323466,-0.053802,-0.055757,-0.101841,0.445082,0.005921,0.272652,-0.209626,-0.17201,-0.001061,-0.056538,-0.014671,0.436291
2h,0.115762,0.015522,-0.038623,-0.054442,0.022569,0.043765,0.117985,0.010483,0.112812,0.04683,0.034277,-0.02494,-0.037821,0.103145,-0.068165,0.06096,-0.043755,-0.078714,-0.045562,-0.014551
aspect,-0.346066,0.026862,0.289796,0.247282,-0.277577,-0.332427,-0.250621,-1.742479,-0.278325,0.24096,0.480352,-0.352805,0.601071,0.577343,0.353741,-0.281415,0.226018,0.34735,-0.155167,0.462147
thema,-0.031355,0.026673,0.005271,-0.006913,-0.010351,-0.002656,-0.010193,-0.019375,-0.019145,-0.006986,-0.00074,0.013084,-0.032393,-0.028038,0.037713,0.033947,-0.015654,0.00013,-0.025107,0.008149
oblig,-0.48265,-0.328281,0.004225,0.384743,0.369167,-0.158837,-0.334308,-0.398041,-0.438945,-0.169359,-0.156869,0.566745,0.815644,-0.714914,0.261074,0.314798,0.146713,-0.171526,-0.304798,0.132546
kan,-0.000979,0.01228,0.018038,-0.003068,0.014625,-0.044559,-0.000881,0.083227,-0.04235,-0.040379,-0.066569,0.062443,-0.008996,-0.028714,-0.047209,-0.045429,0.071552,0.019809,-0.004306,0.036342
open,0.475069,0.387137,-0.080708,-0.339271,0.141411,-0.645528,0.237997,-0.375334,-0.058123,-0.057972,0.002172,-0.578707,0.501661,0.018921,0.040973,-0.00536,0.46433,0.072641,-0.195846,-0.260591
bc,-0.196456,0.056404,0.08987,0.014216,-0.076983,0.263134,-0.169682,-0.137556,-0.092038,0.217083,-0.118985,-0.160428,-0.115698,0.129025,0.460056,0.29513,-0.225363,-0.127403,-0.045097,-0.075567
mani,-0.704452,0.080759,0.291669,0.237097,-0.725614,-0.546289,-0.636802,1.10216,-0.697091,-0.379819,-0.784913,-0.019109,-0.719916,-1.460952,-0.011583,-0.00291,-0.050955,-0.518946,0.269036,-0.076537
forward,0.225314,0.246237,0.389141,0.051877,-0.133193,0.262066,0.2604,-0.111081,0.649564,0.471539,-0.037867,-0.095226,-0.51288,0.189932,0.257197,0.482128,-0.648357,-0.128051,0.851482,0.002325
somet,0.098303,-0.058667,0.020661,-0.097792,0.001231,0.010501,0.105949,-0.063433,0.024262,0.031004,0.106757,-0.120559,0.024238,0.120555,-0.023743,0.071909,-0.010174,-0.024849,-0.116825,-0.012957
oblig,-0.48265,-0.328281,0.004225,0.384743,0.369167,-0.158837,-0.334308,-0.398041,-0.438945,-0.169359,-0.156869,0.566745,0.815644,-0.714914,0.261074,0.314798,0.146713,-0.171526,-0.304798,0.132546
pauz,-0.08528,0.022658,0.118625,-0.002556,-0.007783,0.023853,0.125374,-0.227586,0.067839,0.067419,-0.055301,-0.186529,-0.10947,0.218014,0.057481,0.079748,-0.126351,-0.154793,0.018856,0.051299
hold,0.064133,-0.125298,-0.91316,-0.35491,1.15772,-0.260111,0.28319,-0.343174,-0.315888,-0.265368,-0.008388,-0.065646,1.424157,-0.509304,-0.202144,-0.87851,0.987271,0.077716,-0.25744,0.651494
possibilit,0.030052,-0.018286,-0.011293,0.003827,0.033863,-0.003784,0.003636,-0.005559,-0.044359,0.019223,0.044471,-0.010003,-0.013109,0.00518,0.000713,-0.017418,-0.020355,-0.001343,-0.036022,-0.011626
listen,-0.343247,0.001165,0.540155,0.720528,-0.024879,0.620268,-0.770961,1.457209,-1.660684,-0.538734,0.283276,0.015915,-0.656673,-0.83322,0.877117,-0.024144,0.339849,0.153778,0.12063,0.049233
follow,0.584248,-0.093509,0.219421,0.192002,0.749086,0.50659,-0.108243,0.915692,-0.599756,-1.086204,0.058507,1.087339,-0.327383,-1.264069,-1.230757,-0.180368,0.400578,-0.027261,0.520222,0.00065
face,0.398031,-0.829608,1.023606,-0.080146,-1.841352,-0.666767,0.093392,-0.732472,-1.920505,-0.671482,0.181316,0.669307,-0.600269,0.630863,0.537424,-1.760144,0.715543,0.548652,0.001652,0.234329
would,-0.400284,-0.421567,-0.360641,0.363941,0.026145,-0.179347,-1.441655,0.857548,-1.942784,-0.85818,-0.07943,0.420361,0.224439,-0.725909,0.602045,-0.598514,1.338363,0.912044,-1.060834,-0.398331
teatcher,0.006125,0.03331,0.035014,0.020762,0.040702,0.033691,0.037644,0.026714,-0.004611,0.026579,-0.016494,0.013606,0.007985,0.029188,0.010475,0.025187,-0.083926,-0.05315,-0.053932,-0.069914
classmat,-0.183182,0.029825,0.428553,1.388596,-1.034447,-1.064558,-0.365458,-0.242866,-0.957535,-0.448265,0.157604,-0.461808,-0.245044,0.183719,0.371448,-1.225597,1.289061,0.669707,-0.286049,1.051974
use,-0.032606,-0.065639,-0.249796,-0.372189,-0.088761,0.318097,-1.371359,0.623982,-1.389267,-0.368887,-0.613677,0.215263,0.519548,-0.568263,0.339651,-0.409584,0.674688,0.518957,-0.903726,-0.523384
rithm,0.022339,-0.027428,0.011966,0.003025,0.039187,-0.003515,-0.045795,-0.006869,0.024105,0.001205,-0.028261,0.023575,0.004903,0.040404,-0.002976,-0.001062,-0.000607,-0.011095,-0.028122,-0.031702
textbook,0.410009,0.327168,-0.215251,-0.127042,0.239531,0.885393,0.174465,0.782152,-0.163125,0.058521,0.184232,-0.30561,-0.305942,0.404689,0.207482,0.60631,-0.160718,0.072225,0.208354,-0.433566
unclear,0.250341,0.290076,0.510062,-0.048869,-0.650657,0.079257,-0.24768,0.09876,0.500848,0.571219,0.105566,0.287993,-0.366157,-0.003784,0.376987,-0.105823,-0.692103,0.177049,0.631955,-0.372914
focus,0.25418,-0.109538,-0.461759,1.132458,1.655934,0.482798,0.432445,0.437427,0.013701,-0.661783,0.228122,0.617364,0.597862,-0.250275,-0.620688,-0.550469,0.258211,0.083405,-0.208749,0.580966
rewind,-0.457401,0.886076,1.655738,1.389768,0.298289,0.332196,-0.408184,0.781961,-0.670929,-0.648458,-1.248144,0.729172,-1.275137,-0.48861,0.093116,-0.293495,-1.072656,-0.162626,1.577665,-0.172193
interact,0.014921,0.192068,0.324707,1.207708,-0.393563,-0.896499,-0.794907,-0.196054,-2.237307,-1.274679,0.934627,0.433269,0.726649,-0.789657,-0.1775,-1.962556,2.178396,1.520528,-0.152644,0.655068
professor,0.036895,0.393048,0.358986,1.254029,-0.721396,-0.940025,-0.68669,0.824987,-1.336132,-0.769077,0.500469,-0.657792,-0.13386,-0.695185,0.478052,-1.118494,1.387817,0.880508,0.108939,0.278658
look,-0.107444,0.382604,0.327238,0.385396,-0.038741,1.212889,-1.031484,1.114918,-0.509716,-0.250585,-0.15141,-0.087755,-0.799025,-1.180477,0.457155,-0.028118,0.058296,0.551037,0.913783,-0.298731
700,0.077725,0.093736,0.026233,0.042918,-0.054869,0.04312,0.010914,0.058245,0.147813,0.044939,-0.019031,0.067228,-0.073506,0.047336,-0.047122,-0.016807,-0.138651,0.024949,0.087935,0.00269
lesson,-0.922781,-0.200481,0.07536,0.417381,-0.61338,0.072029,-1.520348,0.362923,-1.809428,-0.864122,0.132896,0.842974,0.105581,-0.877156,0.167058,-0.765124,0.930329,0.884717,-0.201317,-0.331195
replay,-0.817963,0.788658,0.612294,1.441465,-0.028307,0.1672,-0.260598,1.084077,-0.657034,-0.024467,-0.789415,0.834051,-0.748942,-0.857033,0.410059,-0.560622,-1.444244,-0.366161,0.978027,-0.513384
appeal,0.200136,0.02798,-0.051036,-0.131949,0.132587,0.078755,0.29219,0.019423,0.277781,-0.010184,-0.060059,-0.022968,-0.04716,0.082875,-0.162931,0.343898,-0.321595,-0.222848,-0.021244,-0.129958
lag,0.071735,-0.061959,0.009452,-0.037393,0.243369,-0.127342,0.059601,-0.393859,0.226515,0.229369,-0.316181,-0.005635,0.287633,0.0138,0.094411,0.330095,-0.149643,-0.295793,-0.235492,-0.063537
normali,0.021851,-0.011203,0.025486,-0.14692,-0.008344,0.009088,0.167431,-0.21177,0.258029,0.198349,-0.056606,-0.138156,-0.089419,0.20751,0.034364,0.203678,-0.303873,-0.230012,0.044533,0.014499
interact,0.014921,0.192068,0.324707,1.207708,-0.393563,-0.896499,-0.794907,-0.196054,-2.237307,-1.274679,0.934627,0.433269,0.726649,-0.789657,-0.1775,-1.962556,2.178396,1.520528,-0.152644,0.655068
whenev,-2.102461,0.2339,0.270574,0.787229,-0.678262,0.289579,-0.984982,1.306259,-1.490909,-1.063325,-0.408105,0.351082,-1.442695,-1.325861,-0.61091,0.702499,-0.159922,-0.596093,0.783539,-0.361888
much,0.659156,0.054951,0.329046,0.438168,0.195896,-0.028173,-0.5501,1.175795,-1.624896,-1.446671,0.374588,1.701589,0.061434,-0.862601,-0.901202,-0.5623,0.812212,0.596429,-0.331022,-0.459199
way,0.297795,-0.359352,0.049324,-0.079583,-0.328978,0.375539,-0.382048,1.162806,-1.715549,-0.892181,0.155483,1.135782,-0.0777,-0.554222,-0.471591,-1.510718,0.752247,0.516582,-0.319998,0.381608
professor,0.036895,0.393048,0.358986,1.254029,-0.721396,-0.940025,-0.68669,0.824987,-1.336132,-0.769077,0.500469,-0.657792,-0.13386,-0.695185,0.478052,-1.118494,1.387817,0.880508,0.108939,0.278658
lesson,-0.922781,-0.200481,0.07536,0.417381,-0.61338,0.072029,-1.520348,0.362923,-1.809428,-0.864122,0.132896,0.842974,0.105581,-0.877156,0.167058,-0.765124,0.930329,0.884717,-0.201317,-0.331195
possibl,-0.21593,0.008342,0.545676,0.51364,-0.582355,-0.371885,-0.515516,-0.511398,-1.628493,-0.93762,0.4224,0.556475,0.249853,-0.727337,-0.015665,-0.830391,0.376527,0.725575,0.188055,-0.481064
specif,-0.442598,-0.199549,-0.097924,-0.330062,-0.309204,-0.570846,-0.193418,0.949136,0.131507,-0.269947,-0.085534,0.312059,0.092323,-0.687129,-0.909653,0.044344,0.62733,0.098979,0.596122,-0.011641
right,-0.055451,0.491092,0.599759,0.224773,-0.632477,-0.564155,-0.837496,0.620108,0.793884,0.51093,0.87795,0.263949,-0.599205,0.052378,-0.48231,0.320395,1.037957,1.070412,1.245866,-0.09695
note,0.317935,0.665681,1.223796,1.1317,0.843066,0.868625,-0.691579,1.837875,-1.364836,-1.34396,-0.799557,0.442532,-1.33692,-0.729776,0.226461,0.064854,-0.223923,0.421257,1.008278,-0.217
set,-1.349334,-0.815157,-1.152243,-0.531552,-0.265572,0.156435,-0.937083,1.241799,-0.211446,-0.4764,0.629665,0.997269,0.374686,-0.410592,-0.990617,-0.370115,1.409884,0.672244,-0.733453,0.383098
interact,0.014921,0.192068,0.324707,1.207708,-0.393563,-0.896499,-0.794907,-0.196054,-2.237307,-1.274679,0.934627,0.433269,0.726649,-0.789657,-0.1775,-1.962556,2.178396,1.520528,-0.152644,0.655068
get,0.047622,-0.515561,0.035372,0.800338,-0.598855,-0.594564,-1.915491,1.241685,-0.844133,-0.363908,0.469367,1.048715,-0.675285,-1.022148,-0.28613,-0.202613,2.54491,1.589211,0.450825,0.835662
pay,1.052688,-0.230297,0.465451,1.10033,1.499366,-0.074764,0.236664,-0.399619,-0.15899,-0.878842,0.342489,0.825225,0.762407,-0.318474,-0.524503,-0.172002,0.365417,0.301689,-0.273768,0.942451
etc,0.530342,0.394481,1.361547,0.472218,0.168055,-0.950337,-0.807926,0.246312,-0.525342,-0.819113,-0.995509,0.17507,-0.275021,-0.736638,-0.275429,-0.458724,0.219555,0.42143,0.764037,-0.157988
nicer,0.045986,-0.122499,0.032409,0.006229,0.0143,-0.019243,-0.046873,0.046208,0.037967,0.053468,-0.012089,-0.090407,-0.053543,0.070335,0.108583,-0.000288,-0.023771,-0.05489,-0.116652,0.008279
professor,0.036895,0.393048,0.358986,1.254029,-0.721396,-0.940025,-0.68669,0.824987,-1.336132,-0.769077,0.500469,-0.657792,-0.13386,-0.695185,0.478052,-1.118494,1.387817,0.880508,0.108939,0.278658
fast,-0.235162,0.367095,0.386701,0.319579,-0.108813,0.534546,-0.379464,0.412081,0.180559,0.048641,-0.897322,-0.201089,-0.72553,-0.196848,0.31763,0.430844,-0.142253,0.144281,1.188142,0.008751
press,-0.136352,0.053243,0.190124,0.146781,-0.020446,0.096685,-0.035519,-0.068233,0.211202,0.076294,-0.130816,-0.078376,-0.215257,-0.06536,0.114084,0.250536,-0.308447,-0.148259,0.215568,-0.052454
way,0.297795,-0.359352,0.049324,-0.079583,-0.328978,0.375539,-0.382048,1.162806,-1.715549,-0.892181,0.155483,1.135782,-0.0777,-0.554222,-0.471591,-1.510718,0.752247,0.516582,-0.319998,0.381608
eg,0.315306,0.271416,0.213018,-0.105451,0.012466,-0.333731,-0.338169,-0.148711,-0.276761,-0.09015,-0.265074,-0.351318,0.455513,-0.320061,0.296322,0.167952,0.212676,0.173219,0.072349,-0.533844
exercis,0.469672,0.398933,-0.217466,-0.111934,0.15952,-0.169149,0.324027,0.072627,0.44884,0.019945,0.196183,-0.723643,-0.030982,0.438066,-0.204849,0.368321,0.360649,0.049067,0.211907,-0.017597
lose,0.236132,-0.150457,-0.168129,0.234824,0.563709,0.099668,-0.044004,0.345135,0.351706,0.009839,0.142139,0.296367,0.010503,-0.56248,-0.334406,-0.028397,0.056363,-0.045218,-0.014587,0.372563
becau,0.080268,-0.006609,-0.049392,-0.087688,0.003336,0.034191,0.15067,-0.147803,0.265366,0.081879,0.017369,-0.045263,0.024261,0.192077,-0.064163,0.029133,-0.121631,-0.034876,-0.048682,0.019078
fit,-1.305102,-0.776675,-1.241727,-0.132257,0.867652,0.74585,0.58537,0.753279,-1.246085,-0.67123,-0.064934,0.08105,-0.071024,-0.406685,-0.669747,-0.261343,-0.133266,-0.909193,-0.302643,0.500139
set,-1.349334,-0.815157,-1.152243,-0.531552,-0.265572,0.156435,-0.937083,1.241799,-0.211446,-0.4764,0.629665,0.997269,0.374686,-0.410592,-0.990617,-0.370115,1.409884,0.672244,-0.733453,0.383098
top,-0.200947,-0.213412,-0.604686,0.309583,0.95254,0.216231,0.313513,-0.16128,0.202563,-0.304251,0.012988,0.120894,0.568447,0.068852,-0.619197,0.014941,0.150396,-0.156766,-0.294842,0.393889
fast,-0.235162,0.367095,0.386701,0.319579,-0.108813,0.534546,-0.379464,0.412081,0.180559,0.048641,-0.897322,-0.201089,-0.72553,-0.196848,0.31763,0.430844,-0.142253,0.144281,1.188142,0.008751
adapt,0.02397,0.021869,0.014812,-0.153525,0.196362,0.236406,0.300046,-0.128907,0.119027,0.183434,-0.06619,-0.032399,0.03575,0.172303,0.067624,-0.07689,-0.349352,-0.243824,0.021899,0.113076
whenev,-2.102461,0.2339,0.270574,0.787229,-0.678262,0.289579,-0.984982,1.306259,-1.490909,-1.063325,-0.408105,0.351082,-1.442695,-1.325861,-0.61091,0.702499,-0.159922,-0.596093,0.783539,-0.361888
day,-2.100406,-0.717372,-0.754202,0.065904,-0.348644,-0.35827,-0.179531,0.43741,-1.257692,-1.474213,0.133679,-0.125697,-0.055129,-0.73047,-1.515576,0.394478,0.886432,-0.540162,0.315673,-0.041213
lockdown,-0.442674,-0.310378,-0.259894,0.179565,0.02734,-0.131082,0.230269,-0.205936,0.081842,-0.205272,0.05372,0.348545,0.087904,-0.049182,-0.47434,-0.21513,-0.020303,-0.06539,-0.00976,0.246533
dynam,0.072283,-0.342612,0.149745,-0.042449,-0.179968,0.110096,-0.111269,-0.487051,-0.200942,-0.002991,0.245862,0.574848,0.206643,0.299258,0.024381,-0.721823,-0.259994,0.189551,-0.361493,0.251077
tempo,-0.409367,-0.066461,-0.194119,-0.074327,0.129938,0.252103,0.198072,-0.011551,0.02512,0.028005,-0.183624,-0.020463,-0.107883,-0.045889,-0.090696,0.19498,-0.44722,-0.477115,-0.086099,0.02372
rewatch,-0.741109,0.820181,0.625409,1.359219,0.032411,0.42926,-0.618856,1.557125,-0.566774,-0.10814,-0.900037,0.277414,-1.025761,-1.078988,0.648447,-0.138463,-0.840032,-0.082153,1.250439,-0.628404
tend,0.366018,0.039933,-0.02613,0.435573,0.52875,0.067904,-0.1713,0.323049,-0.304604,-0.075245,0.029352,-0.191499,-0.143101,-0.514656,0.315669,0.843854,0.251865,-0.146219,-0.189665,-0.243136
structur,-1.570432,-0.248848,-0.728658,0.341555,0.192132,-0.249459,0.170602,-0.481644,-1.45497,-1.542885,0.251948,-0.452955,0.215272,-0.384926,-1.322319,-0.285751,1.092077,0.057593,0.126428,0.127785
postpos,-0.057855,-0.033759,-0.01915,-0.026016,0.008047,0.049738,0.140371,-0.03758,0.051712,0.06244,-0.016047,-0.081798,-0.080683,0.025741,0.014439,0.097959,-0.136053,-0.102116,0.014654,-0.02075
teach,0.090989,-0.12726,-0.125072,-0.640407,-0.996805,0.072934,-0.728308,0.79397,-1.768644,-0.434412,0.379635,0.906049,0.327795,0.023569,0.405829,-1.257381,0.580475,1.050912,-0.744507,-0.858617
whenev,-2.102461,0.2339,0.270574,0.787229,-0.678262,0.289579,-0.984982,1.306259,-1.490909,-1.063325,-0.408105,0.351082,-1.442695,-1.325861,-0.61091,0.702499,-0.159922,-0.596093,0.783539,-0.361888
took,0.061058,-0.197206,0.179458,-0.219688,0.068899,-0.246947,-0.202496,-0.265356,0.227003,0.068125,-0.101253,0.005978,0.111084,-0.174773,0.180763,0.238402,-0.041455,-0.023483,-0.132016,-0.028602
suit,-1.20655,-0.758143,-0.564494,-0.883593,-0.121416,0.972549,0.043853,1.468072,-0.930332,-0.589429,-0.266888,0.218406,-0.430836,-0.70882,-0.208665,-0.451208,-0.118981,-0.678892,-0.175979,0.352017
voic,0.217548,0.070837,0.342895,1.325669,-0.47787,0.050272,0.044301,0.135638,-0.638308,0.26059,0.520116,-0.986424,-0.769241,0.488654,1.216278,-0.32118,0.233776,0.362907,0.34395,0.489852
way,0.297795,-0.359352,0.049324,-0.079583,-0.328978,0.375539,-0.382048,1.162806,-1.715549,-0.892181,0.155483,1.135782,-0.0777,-0.554222,-0.471591,-1.510718,0.752247,0.516582,-0.319998,0.381608
rememb,0.585506,0.44715,-0.095816,0.240465,-0.155621,0.375913,-0.178123,0.384348,-0.252862,0.033179,0.406351,0.344172,-0.036021,0.366092,-0.002472,-1.096406,0.208623,0.926147,0.173498,0.056904
pace,-1.429152,0.412565,-0.268806,0.223124,0.450861,1.714147,-0.981896,1.937656,-1.313901,-0.950463,-1.310162,0.851374,-0.598875,-0.511138,-0.446328,-0.204908,0.861969,0.538144,1.063533,0.350909
exact,0.05126,0.029896,0.158041,-0.266781,-0.2519,-0.302851,0.092706,0.043335,0.467449,-0.059573,0.196505,-0.166725,-0.259771,0.102024,-0.498989,0.147187,0.340129,-0.023936,0.361219,0.221408
materi,-0.09708,0.78695,-1.184574,0.519802,0.063385,1.123333,-0.929383,2.064167,-1.891724,-0.58988,0.00869,0.145074,-0.067364,-0.34117,0.013622,-0.235214,1.378062,1.274441,0.209046,-0.49709
explan,1.127561,0.820532,-0.376413,0.333111,-0.335897,0.327902,0.306466,1.349784,-0.780616,-0.218435,0.656888,0.020129,-0.730791,0.673376,-0.178358,-0.430217,0.85736,0.963184,0.478827,-0.322886
pauz,-0.08528,0.022658,0.118625,-0.002556,-0.007783,0.023853,0.125374,-0.227586,0.067839,0.067419,-0.055301,-0.186529,-0.10947,0.218014,0.057481,0.079748,-0.126351,-0.154793,0.018856,0.051299
classform,-0.041023,0.001842,-0.005994,0.030734,0.030127,0.007824,0.049928,-0.096821,-0.052101,0.062433,0.01767,-0.078058,0.010303,0.050142,0.1049,0.024081,-0.106188,-0.033407,-0.012418,-0.031662
studi,-1.295892,-0.20021,-0.656197,0.372829,0.10188,0.707956,-0.011651,0.827705,-1.551122,-0.748485,-0.238451,0.747921,-0.082712,-0.597455,-0.3554,-0.857836,-0.030988,-0.128941,-0.104916,0.267762
pure,-0.008568,-0.025133,-0.023095,-0.07178,-0.001817,0.021651,0.032842,0.042134,0.091544,0.048096,-0.047899,-0.037957,-0.031871,0.038035,-0.071257,0.166717,-0.085919,-0.060196,0.039718,-0.030334
anyth,0.08529,0.866035,0.509323,0.28628,-0.623516,0.421755,-0.648062,0.71657,-0.247374,0.389541,-0.320167,0.09652,-0.032112,-0.157041,1.003544,-0.335592,-0.456053,0.504777,0.638419,-0.832179
dynam,0.072283,-0.342612,0.149745,-0.042449,-0.179968,0.110096,-0.111269,-0.487051,-0.200942,-0.002991,0.245862,0.574848,0.206643,0.299258,0.024381,-0.721823,-0.259994,0.189551,-0.361493,0.251077
inperson,0.306279,-1.134574,0.384135,-0.799519,-0.636638,-0.558877,-0.543802,-0.804681,-0.541621,0.137781,0.40493,0.595447,0.669201,-0.901931,0.93996,-0.957938,-0.177135,0.370308,-0.821893,-0.555546
citi,-0.056164,0.034566,0.042171,0.078516,-0.026107,0.018857,-0.011407,0.044202,-0.05363,0.02854,-0.034483,0.068526,-0.036131,-0.003142,-0.000945,-0.062348,-0.090541,0.013969,0.058937,-0.003634
enabl,0.095396,0.624884,-0.533381,0.021748,-0.158383,-0.049141,0.562348,0.502305,-0.682787,-0.063087,0.361933,-0.482145,0.00616,0.037092,0.245783,-0.727058,0.684973,0.399637,0.181234,0.054585
prework,-0.127561,-0.024087,-0.115603,0.023702,-0.004148,0.05203,-0.05087,-0.079489,0.050726,0.056949,-0.011165,0.030934,0.059958,-0.022676,-0.02959,0.253893,-0.056466,-0.035616,-0.032444,-0.061323
check,-0.30554,0.379551,0.003657,0.303249,0.002743,0.581035,-0.096253,0.531971,0.283116,0.268361,-0.119222,-0.175864,-0.554347,-0.193952,0.270109,0.154584,-0.402028,-0.002865,0.891741,-0.135023
organ,-0.77791,-0.117192,-0.502066,-0.322232,0.228319,0.069967,0.325723,0.430644,-0.824686,-0.569717,-0.280992,0.476732,0.196107,-0.569311,-0.834823,-0.364357,0.027646,-0.482366,-0.166612,0.108751
interrupt,0.132113,-0.192277,0.284182,-0.118448,-0.110517,-0.222349,-0.352942,-0.136867,0.205323,0.007927,-0.296189,0.308288,0.056166,-0.377755,-0.091759,0.5336,0.100827,-0.103676,-0.088614,-0.212316
alon,-0.872971,0.093351,-0.708999,0.354438,-0.091445,0.275905,-0.814916,-0.008904,0.252539,0.086391,0.090441,1.39486,0.545489,0.233148,-0.666818,0.545341,0.458374,0.566103,-0.183934,0.251974
stress,0.054772,-0.086275,0.098274,0.429693,0.78558,-0.308729,-0.886769,0.063855,-0.0762,-0.825055,-1.153208,1.36452,0.740942,-0.787717,-0.853825,0.608965,0.39423,0.24245,-0.30603,-0.400481
send,0.125173,0.899206,-0.139539,-0.24607,-0.564282,0.083052,-1.02752,0.827512,-0.236068,-0.219191,0.165168,-0.975484,-0.034813,0.540369,0.008078,0.802149,1.058953,0.691017,0.206578,-0.877749
distanc,-0.014467,0.031765,-0.019985,-0.101867,0.073054,0.113891,0.238122,-0.272955,0.211311,0.15833,0.102557,-0.112751,0.033337,0.233471,0.029723,0.116662,-0.210953,-0.140899,-0.009025,0.010933
webcam,-0.028174,0.048259,0.155346,0.013188,-0.219943,0.010667,-0.163016,-0.427074,0.096106,0.108647,0.03052,0.078767,0.076328,0.434307,0.084103,0.018811,-0.221679,0.059649,-0.201292,-0.024049
20,0.137512,0.022905,0.003332,-0.238961,-0.06335,-0.008407,0.292166,-0.32966,0.521734,0.360218,0.040512,-0.192106,-0.049825,0.347832,0.006313,0.239402,-0.356879,-0.238971,0.044309,-0.04817
wast,-0.513445,-0.457285,-0.052504,-0.480777,-0.344184,-0.207381,-0.641098,0.830289,-0.007915,-0.40423,-0.456016,0.963741,0.140109,-1.008138,-0.638824,0.554395,0.427498,-0.041328,0.007485,-0.354166
word,0.311158,0.186268,-0.168858,-0.281088,0.294551,0.546153,0.348207,0.611765,0.215368,0.028468,0.098835,-0.188418,-0.307301,0.429736,-0.094818,0.628509,-0.426085,-0.213019,0.147926,-0.279328
procratin,-0.126041,-0.007287,-0.021279,0.016431,0.090706,0.254565,0.092371,0.13366,-0.029542,0.054891,-0.031094,-0.03407,-0.151193,-0.092888,0.067358,0.231577,-0.293976,-0.272909,0.040707,-0.053341
tipe,0.012905,0.028672,-0.027102,0.032737,0.037741,-0.043066,-0.043712,0.058712,-0.028265,-0.005941,-0.053613,-0.01765,-0.019613,-0.099345,-0.04003,0.040231,0.077526,-0.013478,-0.020436,-0.041048
rid,0.061865,0.021241,0.017299,0.029273,-0.093033,0.033989,0.056924,-0.027772,0.125629,0.081485,0.065889,0.001707,-0.090679,0.090732,-0.037275,0.011839,-0.021232,0.005149,0.060577,0.049141
loos,0.043102,0.182383,0.115546,-0.121393,-0.089868,0.146732,0.113736,-0.047355,0.309844,0.224005,-0.088723,0.009292,-0.112491,0.264566,0.105979,0.234409,-0.34959,-0.156674,0.21144,-0.100646
right,-0.055451,0.491092,0.599759,0.224773,-0.632477,-0.564155,-0.837496,0.620108,0.793884,0.51093,0.87795,0.263949,-0.599205,0.052378,-0.48231,0.320395,1.037957,1.070412,1.245866,-0.09695
either,0.529153,0.109309,0.196108,-0.198908,-0.166858,-0.325824,-0.143709,-0.086317,0.26337,0.113799,0.260588,-0.369091,-0.136191,0.008372,0.033997,0.220752,0.317463,0.251386,0.096908,-0.145741
interact,0.014921,0.192068,0.324707,1.207708,-0.393563,-0.896499,-0.794907,-0.196054,-2.237307,-1.274679,0.934627,0.433269,0.726649,-0.789657,-0.1775,-1.962556,2.178396,1.520528,-0.152644,0.655068
resourc,-0.369415,0.409912,-0.329741,-0.252232,-0.159654,0.530681,-0.686525,0.28798,-0.606288,-0.429708,-0.368419,-0.123672,-0.052812,-0.1266,-0.106048,0.803256,0.005909,-0.072505,-0.145166,-0.737965
schedul,-1.840441,-0.96404,-1.079746,0.270697,0.863342,0.256285,0.084287,0.563171,-1.386063,-1.121541,-0.016073,0.268654,0.059363,-0.833479,-1.195557,-0.247512,0.40161,-0.392222,0.011136,0.351696
ad,0.124789,-0.021728,0.394602,-0.170898,-0.262898,-0.144731,-0.252216,-0.304528,0.604806,0.109498,-0.187381,0.274399,0.088591,0.168193,-0.249148,0.504937,0.059166,0.077965,0.157915,-0.162458
apart,0.125164,-0.171324,0.073784,-0.129896,0.004116,-0.136977,0.010322,-0.387047,0.152082,0.140244,0.002049,0.044732,0.15758,0.046345,0.139141,0.03145,-0.254593,-0.108855,-0.277158,-0.0255
class,-0.299012,-0.6282,-0.055734,-0.081714,-0.045585,-1.164068,-1.51855,0.809732,-1.694755,-1.182951,-0.22103,0.499674,0.89944,-2.626223,0.486697,-1.113285,1.873591,0.99233,-0.537982,-0.332723
abil,-0.321183,0.867325,0.616525,0.784119,0.114008,-0.177676,-0.095777,0.675595,-0.639792,-0.675598,0.315199,-0.333296,-0.329545,-0.655553,-0.082149,-1.118531,0.868238,0.685137,1.395533,0.510095
everyon,-0.313959,-0.344004,0.283863,0.313648,-0.874782,-0.5337,-0.497222,0.112115,-0.621358,-0.010422,-0.91298,0.040888,-0.41828,-0.301761,0.667176,-0.463047,0.584582,0.168877,-0.320917,1.118869
face,0.398031,-0.829608,1.023606,-0.080146,-1.841352,-0.666767,0.093392,-0.732472,-1.920505,-0.671482,0.181316,0.669307,-0.600269,0.630863,0.537424,-1.760144,0.715543,0.548652,0.001652,0.234329
what,0.154185,-0.0395,0.073575,-0.132371,0.117985,0.036201,0.288534,-0.609062,0.441907,0.346016,0.068722,-0.176482,0.095484,0.247727,0.134083,0.360335,-0.484949,-0.316453,-0.121212,-0.027332
pay,1.052688,-0.230297,0.465451,1.10033,1.499366,-0.074764,0.236664,-0.399619,-0.15899,-0.878842,0.342489,0.825225,0.762407,-0.318474,-0.524503,-0.172002,0.365417,0.301689,-0.273768,0.942451
process,0.418306,0.418913,0.155247,0.061765,0.589166,1.007669,0.638858,1.235147,-0.500117,-0.673725,-0.182031,0.27096,-0.525896,0.117926,-0.323018,-0.491629,-0.028265,-0.065749,0.292046,0.294712
shorter,0.080628,-0.046701,0.060737,-0.150906,-0.00291,-0.06569,0.185529,-0.19463,0.195082,0.055138,0.048728,0.116724,-0.031711,0.126389,-0.13054,0.041009,-0.140574,-0.111048,0.002171,-0.034568
selfmotiv,0.035096,-0.005969,0.048056,0.023269,0.045011,0.00384,0.021336,-0.013959,0.02358,-0.022606,-0.019562,-0.018886,0.022163,-0.025987,0.007567,0.067555,0.010057,-0.008088,-0.05855,-0.045714
aspect,-0.346066,0.026862,0.289796,0.247282,-0.277577,-0.332427,-0.250621,-1.742479,-0.278325,0.24096,0.480352,-0.352805,0.601071,0.577343,0.353741,-0.281415,0.226018,0.34735,-0.155167,0.462147
slow,-0.337383,0.091586,0.827307,0.704094,0.010176,-0.193125,-0.405798,0.030284,-0.265137,0.041267,-1.339933,-0.226654,-0.644898,-0.794372,0.45049,0.435642,-0.308032,-0.491512,0.494325,-0.054951
assign,-0.623693,0.119391,-0.864416,-0.439008,-0.290946,0.593005,-0.836884,1.450512,-0.610771,-0.170436,0.076632,0.002759,-0.502709,0.116228,-0.358107,0.587895,1.059956,0.288705,-0.025651,-0.054369
struggl,-0.217647,-0.113513,-0.400164,0.374519,0.671649,0.345265,-0.342324,0.968427,-0.007372,0.028764,-0.059431,0.411787,0.021461,-0.489861,0.058299,-0.269239,0.263994,0.271965,-0.194555,0.185401
relisten,0.011659,0.371526,0.589318,0.428389,-0.129692,0.271248,-0.219949,0.213967,0.16401,0.078959,-0.249712,-0.26096,-0.544765,-0.379236,0.378372,0.042117,-0.59342,-0.047744,0.818473,-0.231216
top,-0.200947,-0.213412,-0.604686,0.309583,0.95254,0.216231,0.313513,-0.16128,0.202563,-0.304251,0.012988,0.120894,0.568447,0.068852,-0.619197,0.014941,0.150396,-0.156766,-0.294842,0.393889
favourit,0.193535,0.050452,0.025583,-0.189793,-0.097395,-0.134607,0.027622,-0.16089,0.105065,0.030271,-0.002826,-0.038469,0.095485,0.192768,-0.092531,-0.09639,-0.027202,0.032431,-0.163002,-0.044016
real,-0.487608,-0.649327,0.849697,-0.530953,-1.719543,-1.097814,-1.457931,-0.196308,-0.584913,-0.211168,0.777483,0.604343,0.436504,-1.497396,0.509877,-1.833103,1.425735,1.215543,0.03129,0.450219
place,0.063132,-0.099649,0.72549,-0.291187,0.313773,-0.512619,0.269201,0.79896,-0.130768,-0.762719,-0.829963,0.103842,-0.347144,-0.820084,0.069038,-0.199122,-0.106405,-0.432292,-0.0022,0.254328
workcom,-0.032251,0.010347,-0.064142,0.00622,0.076598,0.032174,0.038118,-0.065519,0.050032,0.035581,0.036072,-0.012309,0.009883,0.037982,-0.002173,-0.011083,-0.019885,-0.056547,-0.017875,0.052489
freedom,-2.311589,0.109285,-0.714858,0.111363,-0.341651,0.547376,0.061299,-0.194376,-0.81393,-0.557461,-0.001995,-0.258041,-0.332517,-0.202757,-0.833494,-0.069684,0.201851,-0.424493,0.702879,0.529506
small,0.501237,0.134281,0.08337,-0.376117,0.217505,-0.720395,-0.097113,-0.464652,-0.172098,-0.088961,-0.523135,-0.371455,0.743332,-0.124991,0.228319,-0.084758,0.403098,0.252379,-0.34717,-0.258485
accommod,-0.129965,-0.179635,-0.161137,-0.07055,0.282929,-0.013972,0.365134,-0.440165,0.216615,0.055036,-0.091661,-0.324183,0.05396,0.236553,-0.16353,0.243579,-0.201174,-0.35291,-0.115564,0.085807
real,-0.487608,-0.649327,0.849697,-0.530953,-1.719543,-1.097814,-1.457931,-0.196308,-0.584913,-0.211168,0.777483,0.604343,0.436504,-1.497396,0.509877,-1.833103,1.425735,1.215543,0.03129,0.450219
experi,-0.267809,-0.527964,-0.199642,-0.512154,-0.54096,-0.177652,-0.61138,-0.238414,-0.946394,0.028541,0.179395,0.587477,0.655722,-0.097207,0.499627,-1.145091,0.183595,0.572287,-0.87738,-0.275497
adob,0.084451,-0.037384,-0.019999,-0.147675,0.058569,-0.092738,0.016938,-0.045411,0.143348,0.065339,-0.1531,-0.02282,0.001549,0.042086,-0.144869,0.090037,-0.071275,-0.131201,-0.053943,-0.047989
want,-1.725247,-0.101145,0.184456,0.403452,-0.819547,-0.10443,-0.53513,1.666124,-1.713291,-1.076551,-0.854341,0.625694,-1.044,-1.292515,-0.62073,0.111205,-0.140699,-0.677933,0.36646,0.007929
sure,-0.054395,0.682406,0.188455,1.18647,0.424315,0.410938,-0.262789,0.54856,-0.259026,-0.036392,-0.259769,0.987276,-0.176932,-0.03727,-0.188915,-0.587691,-0.64343,0.420505,0.711564,0.296166
live,0.112824,-0.101002,-0.224801,0.819101,0.299806,-0.985207,-1.418046,1.107899,-1.58794,-1.079259,-0.222642,0.098967,0.730506,-2.425603,0.161788,-0.143902,2.156872,1.189402,-0.324193,-0.571641
like,-1.56864,-0.194377,0.127684,1.117979,-0.563729,-0.16087,-2.29042,0.324556,-1.850362,-0.28135,-0.256344,1.598193,0.506614,-0.948144,0.621835,-1.187804,1.31063,1.319322,-0.242193,0.234827
directli,0.122663,0.372334,0.511036,0.393505,-0.881419,-0.308026,-0.76047,0.578536,-0.315932,-0.272469,0.843476,-0.547504,-0.289092,0.150847,0.204772,-0.886853,1.041298,0.986772,0.450361,0.06877
alway,-0.049962,0.401277,0.2569,0.462874,-0.354273,0.326778,-1.148741,0.491803,-0.258659,-0.259918,-0.115493,-0.405543,0.010692,-1.35138,0.274517,0.296615,0.486107,0.575088,1.006767,-0.680243
teacher,-0.056596,0.407009,0.188804,0.916886,-1.284078,-0.607466,-1.604439,1.456093,-1.588167,-1.037669,0.371972,-0.18951,-0.179275,0.018542,-0.201908,-1.231407,2.469955,1.895236,-0.030329,0.475678
structur,-1.570432,-0.248848,-0.728658,0.341555,0.192132,-0.249459,0.170602,-0.481644,-1.45497,-1.542885,0.251948,-0.452955,0.215272,-0.384926,-1.322319,-0.285751,1.092077,0.057593,0.126428,0.127785
us,-0.818616,0.953399,-1.061956,0.467567,-0.394376,0.200591,0.058637,0.923879,-1.360448,-0.844282,0.539954,-1.143089,-0.012116,0.231305,-0.260777,-0.790115,1.54962,0.771766,0.652671,-0.196779
timezon,-0.047433,-0.033874,-0.109715,-0.143665,0.077071,0.090247,0.427224,-0.042206,0.279034,0.150307,0.009698,-0.232115,-0.153646,0.158998,-0.065714,0.113124,-0.210923,-0.351056,0.05952,0.097452
caught,0.255643,0.007375,-0.085064,-0.233953,0.037798,0.127297,0.256926,-0.182139,0.604841,0.272999,0.059988,-0.127519,-0.130136,0.35235,-0.124964,0.374602,-0.283755,-0.170584,0.064413,0.017656
person,0.228235,-0.885563,0.389511,0.058781,-0.504382,-0.095603,-0.791739,0.153816,-1.69918,-0.731485,0.201109,1.200516,0.111958,-0.110326,0.073451,-1.15347,0.641063,0.783687,-0.781241,0.065709
establish,-0.044209,-0.104767,-0.06486,-0.075534,0.033964,-0.007779,0.177062,-0.447352,0.157483,0.132263,0.005554,-0.090192,0.032167,0.1753,-0.076165,0.137657,-0.188075,-0.163638,-0.042394,0.060248
like,-1.56864,-0.194377,0.127684,1.117979,-0.563729,-0.16087,-2.29042,0.324556,-1.850362,-0.28135,-0.256344,1.598193,0.506614,-0.948144,0.621835,-1.187804,1.31063,1.319322,-0.242193,0.234827
similar,-0.493013,-1.141051,0.228367,-0.794729,-0.727066,-0.368145,-0.809326,-0.811887,-1.599999,-0.588236,0.73706,1.248025,0.649471,-0.625548,0.062358,-1.692251,0.398756,0.758998,-0.922342,-0.617846
scheduletim,-0.02669,-0.062644,0.019906,-0.047325,-0.053955,-0.039272,0.063614,-0.187501,0.158824,0.084856,-0.01428,0.005856,-0.004628,0.038699,0.002157,0.016973,-0.123377,-0.062324,-0.00453,0.102261
easier,1.177219,-0.197931,0.297438,0.983126,0.471964,0.428821,-0.483556,1.584927,-1.303842,-1.38775,0.626044,1.435645,-0.464497,-0.708733,-1.019917,-1.436825,1.218735,0.853631,0.245735,0.581516
clear,0.905532,0.33364,0.26916,-0.110788,-0.487442,-0.433097,-0.157347,0.178367,0.488814,0.175815,0.411597,0.039143,-0.328627,0.324006,-0.339844,-0.342916,0.611968,0.671726,0.441094,0.167412
flow,0.47976,0.281098,-0.36547,-0.414589,0.073408,0.124065,0.584759,0.27491,-0.03139,0.137031,0.408406,-0.250874,0.020524,0.654822,-0.06061,-0.234913,0.35248,0.105966,-0.004333,-0.08093
take,-0.244717,0.360474,1.114708,0.72256,0.850397,0.281419,-0.642776,2.143947,-1.437876,-1.596423,-1.157459,1.067542,-0.912202,-0.938409,-0.15099,-0.205972,0.461471,0.306638,0.77163,-0.02067
requir,-0.286428,0.272395,-0.418267,0.429839,1.045797,-0.039552,0.220491,0.197963,-0.552411,-0.468516,0.033053,0.050254,0.747515,-0.468103,-0.170785,0.210559,0.628229,0.051654,0.22383,0.105927
group,0.413674,0.573144,-0.180362,-0.348702,0.103984,-1.001433,-0.313977,0.042794,-0.223772,-0.148617,-1.164726,-0.214386,0.856384,0.01365,-0.100851,-0.413231,0.571851,0.465392,-0.162848,-0.218877
freedom,-2.311589,0.109285,-0.714858,0.111363,-0.341651,0.547376,0.061299,-0.194376,-0.81393,-0.557461,-0.001995,-0.258041,-0.332517,-0.202757,-0.833494,-0.069684,0.201851,-0.424493,0.702879,0.529506
person,0.228235,-0.885563,0.389511,0.058781,-0.504382,-0.095603,-0.791739,0.153816,-1.69918,-0.731485,0.201109,1.200516,0.111958,-0.110326,0.073451,-1.15347,0.641063,0.783687,-0.781241,0.065709
forc,-0.390281,-0.770801,-0.595149,0.562191,1.315233,0.07145,-0.18006,-0.084343,-0.37612,-0.28785,0.658931,0.254934,1.220533,-0.836758,-0.118577,-0.079033,1.377987,0.360266,-0.468156,1.233231
new,0.519893,0.62912,-0.744097,-0.040173,0.315326,0.685894,0.628516,0.982275,-0.49687,-0.01033,0.317886,-0.103034,0.191212,0.375659,-0.131679,-1.11351,0.537165,0.655081,0.197571,-0.03892
prerecord,-0.170528,-0.179604,-0.028154,0.357954,0.396474,0.381998,-0.356467,0.424305,-1.550186,-0.280086,0.236446,-0.379088,0.042763,-1.448225,0.945011,0.294062,0.14315,-0.207871,-0.154879,-0.670558
closest,0.596429,-1.419592,0.429363,-1.043661,-1.426131,-0.275077,-1.188146,-0.71072,-0.528006,0.262206,1.017742,1.635168,0.595813,-1.401819,0.849062,-2.166631,0.095992,1.099247,-0.66652,-0.260442
attempt,0.153354,0.021988,0.081762,-0.100554,-0.122374,-0.046345,0.254217,-0.212489,0.355861,0.258064,0.096961,-0.094818,-0.058657,0.27877,-0.009119,0.146915,-0.290196,-0.218437,0.019469,-0.11672
guidanc,-0.042307,-0.037707,-0.046298,-0.335913,-0.320926,-0.064641,0.326393,-0.163737,0.428829,0.089699,-0.060346,-0.159041,-0.108921,0.380566,-0.45022,0.311181,0.026072,-0.1329,0.098766,0.003602
classmat,-0.183182,0.029825,0.428553,1.388596,-1.034447,-1.064558,-0.365458,-0.242866,-0.957535,-0.448265,0.157604,-0.461808,-0.245044,0.183719,0.371448,-1.225597,1.289061,0.669707,-0.286049,1.051974
email,-0.241659,0.899999,-0.107176,-0.344795,-0.681315,0.291889,-2.001378,1.659231,-0.755114,-0.813308,0.322363,-0.373162,-0.077082,0.204967,-0.449188,1.181429,1.727579,1.33297,0.353369,-1.474487
find,1.207477,0.025036,-0.158213,0.457475,1.345985,0.264853,-0.856225,1.846044,-0.885039,-0.697457,-0.64436,1.314789,0.469804,-0.917022,-0.125392,-0.774819,0.465417,0.553216,-0.817365,-0.034688
fastforward,-0.065808,-0.013465,0.03787,-0.005387,0.101494,0.011239,0.102309,-0.073471,0.008323,-0.017423,-0.062152,-0.036693,-0.048413,-0.038704,-0.008621,0.030398,-0.15113,-0.123651,0.02655,-0.015575
zone,-0.530279,-0.346458,-0.383058,-0.146255,0.195577,-0.349588,0.412918,0.448441,0.084076,-0.064082,-0.179666,-0.129729,-0.16599,-1.197497,-0.352962,-0.155387,0.30064,-0.510855,0.260714,0.320927
freedom,-2.311589,0.109285,-0.714858,0.111363,-0.341651,0.547376,0.061299,-0.194376,-0.81393,-0.557461,-0.001995,-0.258041,-0.332517,-0.202757,-0.833494,-0.069684,0.201851,-0.424493,0.702879,0.529506
rematch,-0.250855,-0.001851,-0.01296,0.061714,0.078925,0.106142,0.035451,-0.064795,-0.088497,-0.020938,-0.147331,-0.032943,-0.022384,-0.024288,0.006688,0.139248,-0.128129,-0.157486,-0.016188,0.019539
relisten,0.011659,0.371526,0.589318,0.428389,-0.129692,0.271248,-0.219949,0.213967,0.16401,0.078959,-0.249712,-0.26096,-0.544765,-0.379236,0.378372,0.042117,-0.59342,-0.047744,0.818473,-0.231216
similar,-0.493013,-1.141051,0.228367,-0.794729,-0.727066,-0.368145,-0.809326,-0.811887,-1.599999,-0.588236,0.73706,1.248025,0.649471,-0.625548,0.062358,-1.692251,0.398756,0.758998,-0.922342,-0.617846
grasp,0.901193,0.219359,-0.226597,0.156711,0.179526,0.120002,0.433074,0.789612,0.08593,0.043145,0.214824,0.0365,-0.372783,0.351443,-0.095983,-0.653019,0.1605,0.267377,-0.091085,0.07888
mimic,-0.201941,-0.662854,0.201474,-0.589381,-0.726679,-0.535007,-0.294495,-1.048706,-0.275601,0.035924,0.605969,0.257771,0.623105,-0.046979,0.293777,-0.940343,0.248957,0.332556,-0.551939,0.194536
school,-1.5143,-0.821361,-0.413064,-0.223944,-0.899661,0.263149,-1.376212,-0.326642,-1.705894,-0.541684,0.085754,0.789879,0.283344,-0.028308,0.033328,-0.85623,0.591579,0.700984,-0.717484,-0.224301
mandatori,-0.044461,0.007231,0.090879,0.003833,-0.160554,-0.061461,0.051229,-0.134917,0.13115,0.059465,0.002523,0.072254,0.016237,0.092878,-0.011234,0.052393,-0.20481,-0.061493,0.097433,-0.051253
emerg,0.006401,0.000312,0.022335,-0.076949,0.116472,-0.055863,0.248977,-0.432663,0.221627,0.231524,-0.059435,-0.088514,0.085532,0.110673,0.150229,0.068943,-0.330193,-0.238305,-0.064538,-0.011355
anxiou,0.377878,-0.220415,0.508806,0.61746,0.760245,-0.435511,-0.533305,-0.358441,-0.281217,-0.315668,-0.412226,0.715303,0.407861,-0.583794,-0.149467,0.30433,-0.104519,0.09043,-0.110075,0.038202
refer,0.026779,0.44262,0.470942,0.273152,-0.195259,0.81464,-0.691104,0.275956,0.17576,0.200453,-0.322975,-0.581026,-0.183873,-1.551163,0.70474,0.634815,-0.525,-0.030682,1.277638,-0.729667
35,0.075471,-0.027971,0.138029,-0.12787,-0.095187,-0.191197,-0.065971,-0.226599,0.101022,0.03937,0.063274,-0.070643,0.026774,0.066555,0.142044,0.147015,0.014539,0.050151,0.006728,-0.104119
peopl,0.325451,-0.39052,0.647986,0.405558,-0.674926,-1.390997,-0.620292,0.631072,-0.803824,-0.417544,-1.164581,0.062919,-0.238224,-0.438513,0.008096,-1.110946,1.173382,0.13319,-0.471208,1.146874
increas,-0.239865,0.087778,-0.356173,0.729055,0.769475,0.052335,0.434855,-0.207177,0.042637,-0.187054,0.276232,0.034498,0.40715,-0.119859,-0.296783,-0.219781,0.22386,0.022161,0.190314,0.532889
slide,0.431307,0.081653,-0.140685,0.181045,-0.017952,0.92726,-0.098636,0.721305,-0.704563,0.311359,0.537666,-0.814768,-0.640501,-0.04564,1.562293,0.555043,-0.211432,0.114997,0.131234,-0.803393
zone,-0.530279,-0.346458,-0.383058,-0.146255,0.195577,-0.349588,0.412918,0.448441,0.084076,-0.064082,-0.179666,-0.129729,-0.16599,-1.197497,-0.352962,-0.155387,0.30064,-0.510855,0.260714,0.320927
live,0.112824,-0.101002,-0.224801,0.819101,0.299806,-0.985207,-1.418046,1.107899,-1.58794,-1.079259,-0.222642,0.098967,0.730506,-2.425603,0.161788,-0.143902,2.156872,1.189402,-0.324193,-0.571641
focus,0.25418,-0.109538,-0.461759,1.132458,1.655934,0.482798,0.432445,0.437427,0.013701,-0.661783,0.228122,0.617364,0.597862,-0.250275,-0.620688,-0.550469,0.258211,0.083405,-0.208749,0.580966
flexibl,-1.353377,-0.315013,-0.723121,0.39134,0.337355,0.231434,0.264235,0.518307,-1.546898,-1.120613,-0.091838,0.187913,-0.381813,-1.10796,-0.755059,-0.150632,0.478107,-0.444506,0.230325,0.470444
know,-0.355727,0.05609,0.058128,0.982945,-0.399268,-0.220452,-1.108594,0.551176,0.059368,0.361276,-0.02119,0.556649,-0.079705,-0.461005,0.314024,-0.312165,0.260378,0.435481,-0.384264,0.650134
watchlisten,-0.100826,0.073138,0.031012,0.077283,-0.013275,0.103261,0.046161,0.113099,-0.112994,0.019003,-0.016896,0.014078,-0.167581,-0.035439,0.036073,0.008398,-0.157181,-0.064832,0.126775,-0.019783
independ,-1.119883,-0.044208,-1.101352,-0.612261,0.420298,1.193793,-0.340932,1.133817,-0.80156,-0.383294,-0.487969,0.367699,0.257725,0.515304,-0.487853,0.061923,0.684526,0.133056,-0.528664,0.174861
directli,0.122663,0.372334,0.511036,0.393505,-0.881419,-0.308026,-0.76047,0.578536,-0.315932,-0.272469,0.843476,-0.547504,-0.289092,0.150847,0.204772,-0.886853,1.041298,0.986772,0.450361,0.06877
audio,-0.177616,-0.003364,-0.053814,0.336217,0.601097,0.589882,0.327467,-0.030758,-0.33381,0.14826,-0.285141,-0.331204,0.102368,0.290762,0.7716,0.146976,-0.624776,-0.403324,-0.416563,-0.230503
point,0.07478,0.224523,0.395655,0.239364,-0.56224,-0.186416,-0.286642,0.605833,0.15525,0.303421,0.228662,-0.191115,-0.790223,-0.460862,0.084971,-0.008836,0.12556,0.317148,1.130418,-0.161207
account,-0.35169,-0.162954,-0.857017,0.229802,1.681398,-0.026936,0.209683,-0.697504,-0.354852,-0.470577,0.231998,0.34562,1.80931,-0.774361,-0.403016,-1.104943,0.748934,0.156213,-0.009426,1.030028
inclass,-0.013296,-0.307293,-0.027763,-0.252134,-0.158761,-0.256406,0.083446,-0.62752,-0.02691,0.071769,0.288046,0.155523,0.323441,0.141295,0.111189,-0.432348,-0.083124,0.088539,-0.313962,0.061613
andgiv,0.022137,-0.023398,-0.068043,-0.01775,-0.002106,0.0028,0.050476,0.172846,0.048402,0.013732,0.038989,-0.032168,-0.07342,-0.007648,-0.091314,0.010544,0.04231,0.020147,-0.017918,0.010858
etc,0.530342,0.394481,1.361547,0.472218,0.168055,-0.950337,-0.807926,0.246312,-0.525342,-0.819113,-0.995509,0.17507,-0.275021,-0.736638,-0.275429,-0.458724,0.219555,0.42143,0.764037,-0.157988
hear,0.732355,-0.171989,0.168398,1.31901,-0.81075,-0.068087,-0.340621,0.87206,-1.05799,0.270479,0.272831,-0.620262,-1.266461,0.592142,1.491865,-1.384131,0.882638,1.007324,0.086231,1.137068
meet,-0.027855,0.209757,-0.61468,-0.831156,0.638176,-0.647879,-1.672111,0.59016,-0.36618,-0.184705,-1.032088,0.08498,0.990423,-0.979675,-0.510505,0.13432,0.557271,0.372237,-0.725571,-1.054456
connect,0.394848,-0.628244,0.598876,1.025783,-0.366233,-1.667797,-0.19903,-0.826692,-0.491256,-0.833645,-0.865316,-0.128712,0.420754,-0.561945,-0.772771,-0.008048,1.24018,-0.209565,-0.270205,0.661248
job,-0.425515,-0.329,-0.392878,-0.417725,-0.03563,0.125213,0.373319,-0.023108,0.495727,0.270502,-0.072883,-0.168525,-0.170567,0.042371,-0.215447,0.291866,-0.22922,-0.505938,0.047252,0.335797
tradit,0.060054,-0.5295,0.214983,-0.410875,-0.231208,-0.228718,-0.287162,-0.757997,-0.300716,0.206321,0.283293,0.286567,0.330061,-0.220547,0.5811,-0.217754,-0.29136,0.084596,-0.481462,-0.428947
format,0.197904,-0.39476,0.15571,-0.279775,-0.148038,-0.144479,-0.373085,-0.269199,-0.284287,0.077236,-0.089296,0.106763,0.141132,0.020131,0.546051,-0.241193,-0.307184,0.067455,-0.632921,-0.321158
moment,0.074445,0.264926,0.537066,0.121056,-0.578705,-0.493634,-0.298925,0.442459,0.085758,-0.276713,0.232285,0.033646,-0.532087,-0.390157,-0.417067,-0.250775,0.589212,0.380679,0.875829,0.017105
situacin,0.007011,-0.088148,0.023041,-0.146174,0.050969,-0.002701,0.205452,-0.291584,0.236302,0.145688,-0.032336,-0.079585,0.005948,0.177563,-0.046733,0.195466,-0.237338,-0.218252,-0.044641,0.052431
right,-0.055451,0.491092,0.599759,0.224773,-0.632477,-0.564155,-0.837496,0.620108,0.793884,0.51093,0.87795,0.263949,-0.599205,0.052378,-0.48231,0.320395,1.037957,1.070412,1.245866,-0.09695
tend,0.366018,0.039933,-0.02613,0.435573,0.52875,0.067904,-0.1713,0.323049,-0.304604,-0.075245,0.029352,-0.191499,-0.143101,-0.514656,0.315669,0.843854,0.251865,-0.146219,-0.189665,-0.243136
question,0.122952,0.88058,0.649585,0.39244,-0.986905,-1.071321,-1.578345,1.319288,-0.695328,-0.955232,0.895382,-0.014468,-0.057431,-1.091511,-0.430991,-1.391338,2.725819,2.090535,1.276974,0.042898
model,0.016317,-0.021834,-0.055371,-0.13022,-0.018418,0.133529,0.169035,-0.196161,0.168628,0.146197,0.095793,0.042506,0.018394,0.208024,0.106663,0.098404,-0.306202,-0.102723,-0.085145,-0.077896
term,-0.328994,-0.121118,-0.311667,-0.280981,0.038154,0.30362,0.04638,0.358016,-0.014323,-0.103559,-0.033303,0.364229,-0.020835,0.305194,-0.446777,0.135186,0.061985,-0.091531,-0.037135,0.060715
face,0.398031,-0.829608,1.023606,-0.080146,-1.841352,-0.666767,0.093392,-0.732472,-1.920505,-0.671482,0.181316,0.669307,-0.600269,0.630863,0.537424,-1.760144,0.715543,0.548652,0.001652,0.234329
late,0.34295,-0.092686,0.022604,-0.220339,-0.009252,-0.03374,0.167748,-0.284597,0.608662,0.285561,0.245143,-0.043189,-0.036196,0.353999,-0.129156,0.196272,-0.097372,-0.003424,-0.069674,0.12593
live,0.112824,-0.101002,-0.224801,0.819101,0.299806,-0.985207,-1.418046,1.107899,-1.58794,-1.079259,-0.222642,0.098967,0.730506,-2.425603,0.161788,-0.143902,2.156872,1.189402,-0.324193,-0.571641
normal,-1.409119,-0.930981,0.040151,-0.078553,-0.974365,-0.47246,-1.321195,-1.341356,-1.783996,-0.573267,0.678738,1.239061,0.258989,-0.59012,0.173623,-1.136349,0.512385,1.02491,-0.516473,-0.558094
draw,0.111085,0.115042,0.152353,0.107627,0.092852,0.115278,0.049387,0.105761,0.119879,0.03433,-0.031818,-0.070726,-0.220489,-0.003308,0.072798,0.03017,-0.215104,-0.018068,0.197725,0.039886
immed,0.076819,0.115888,0.116598,0.060065,-0.018183,0.017136,0.007905,0.085499,0.018497,0.015575,0.026111,0.03271,-0.12934,0.040574,0.018087,-0.009587,-0.102395,0.074095,0.087384,0.004547
regular,-0.596963,-1.093309,0.007993,-0.704531,-0.261335,-0.391143,-0.60086,-0.886448,-0.698943,-0.555963,-0.082422,0.803979,0.592402,-0.572232,-0.177568,-0.362092,-0.135375,0.086413,-0.769889,-0.295069
moment,0.074445,0.264926,0.537066,0.121056,-0.578705,-0.493634,-0.298925,0.442459,0.085758,-0.276713,0.232285,0.033646,-0.532087,-0.390157,-0.417067,-0.250775,0.589212,0.380679,0.875829,0.017105
creat,-1.394879,-0.422597,-0.73522,0.361415,0.484451,-0.115972,0.434216,-0.668509,-0.825301,-0.597233,0.323809,0.037511,0.348251,0.074921,-0.712863,-0.506919,0.355349,0.015016,0.00837,0.320549
studentsmyself,0.091845,0.03258,0.020193,-0.016908,-0.008615,-0.006878,0.049332,-0.159865,0.1334,0.040433,0.010683,-0.154831,0.050744,0.129632,0.084301,0.030511,-0.138632,-0.011157,-0.070825,-0.030374
interact,0.014921,0.192068,0.324707,1.207708,-0.393563,-0.896499,-0.794907,-0.196054,-2.237307,-1.274679,0.934627,0.433269,0.726649,-0.789657,-0.1775,-1.962556,2.178396,1.520528,-0.152644,0.655068
pressur,-0.464463,0.269847,0.282377,0.364997,-0.228165,-0.460392,-1.143631,0.184372,0.373246,-0.564674,-0.971851,1.588939,0.687202,-0.429991,-1.240543,0.89925,1.177233,0.83211,0.704858,-0.342521
great,-0.127911,-0.298834,0.166136,0.171506,-0.001011,-0.443784,-0.396502,-0.057533,-0.726063,-0.056823,-0.247292,-0.285255,0.09928,-0.957236,0.725118,-0.343561,0.34608,-0.021243,-0.369945,-0.165428
share,0.920344,0.338116,0.445853,-0.022769,-0.158513,-1.056055,0.175949,-0.963943,0.398163,0.055087,0.142272,-0.722682,0.197492,0.364029,0.148506,-0.613911,0.849018,0.595497,0.335118,0.772965
bed,0.213185,-0.195799,0.065936,0.1468,0.158755,0.047773,0.039062,-0.020338,0.694557,0.269958,0.167075,0.057541,-0.36104,-0.129387,-0.176078,0.529659,-0.030493,-0.17052,0.314783,0.345961
fellow,0.263417,0.389277,0.346138,0.70928,-0.531883,-1.095214,0.388462,-0.496437,-0.64363,-0.274237,0.374553,-1.475141,0.144526,0.408029,0.108075,-1.015464,1.334259,0.348114,-4.9e-05,0.970872
effect,0.342331,-0.281897,-0.327114,-0.670168,0.195055,0.276798,0.251553,0.315689,-0.790797,-0.435483,-0.031607,0.827609,0.571997,0.257393,-0.550214,-0.826978,0.445623,0.139351,-0.602786,0.140331
combat,-0.045883,0.100551,-0.025956,0.152617,0.061003,0.203295,0.187182,0.150353,0.059494,0.008781,0.042434,-0.09912,-0.138626,0.177749,-0.053336,-0.10223,-0.119682,-0.021553,0.05745,0.134479
classmat,-0.183182,0.029825,0.428553,1.388596,-1.034447,-1.064558,-0.365458,-0.242866,-0.957535,-0.448265,0.157604,-0.461808,-0.245044,0.183719,0.371448,-1.225597,1.289061,0.669707,-0.286049,1.051974
friend,0.091926,-0.217696,0.500564,0.680751,-0.891813,-0.532038,-0.335271,-0.356846,-0.676015,0.081187,0.102568,-0.78229,-0.379707,0.477913,0.665399,-0.569396,0.716361,0.315176,-0.385195,1.005454
classmat,-0.183182,0.029825,0.428553,1.388596,-1.034447,-1.064558,-0.365458,-0.242866,-0.957535,-0.448265,0.157604,-0.461808,-0.245044,0.183719,0.371448,-1.225597,1.289061,0.669707,-0.286049,1.051974
love,-0.000891,0.10344,0.249318,0.0,-0.016826,-0.054539,-0.07359,-0.054891,-0.59577,-0.138177,-0.040833,-0.328258,0.06336,-0.084853,0.48232,-0.437441,0.371399,0.078718,-0.032399,0.248356
im,-0.81996,-0.210138,0.095291,1.092847,0.405899,0.610943,-0.753319,0.250897,-0.696429,0.057334,-0.163443,1.36662,0.258792,-0.382954,0.405239,-0.648029,-0.108265,0.221978,-0.199005,0.683664
whenev,-2.102461,0.2339,0.270574,0.787229,-0.678262,0.289579,-0.984982,1.306259,-1.490909,-1.063325,-0.408105,0.351082,-1.442695,-1.325861,-0.61091,0.702499,-0.159922,-0.596093,0.783539,-0.361888
senc,0.002875,-0.035859,-0.021051,-0.03075,-0.027995,0.02147,0.003492,-0.011745,-0.020647,-0.002105,-0.029827,0.014501,-0.007212,-0.024481,-0.025331,0.018567,0.002069,0.036308,0.036628,0.036301
real,-0.487608,-0.649327,0.849697,-0.530953,-1.719543,-1.097814,-1.457931,-0.196308,-0.584913,-0.211168,0.777483,0.604343,0.436504,-1.497396,0.509877,-1.833103,1.425735,1.215543,0.03129,0.450219
dont,-0.522021,0.375968,0.280268,0.923532,-0.861675,-0.403335,-1.152853,1.362749,-0.604754,-0.140302,-0.097243,0.824045,-0.251066,-0.825107,-0.199129,-0.081288,0.257112,0.503626,0.19608,-0.660769
teacher,-0.056596,0.407009,0.188804,0.916886,-1.284078,-0.607466,-1.604439,1.456093,-1.588167,-1.037669,0.371972,-0.18951,-0.179275,0.018542,-0.201908,-1.231407,2.469955,1.895236,-0.030329,0.475678
closest,0.596429,-1.419592,0.429363,-1.043661,-1.426131,-0.275077,-1.188146,-0.71072,-0.528006,0.262206,1.017742,1.635168,0.595813,-1.401819,0.849062,-2.166631,0.095992,1.099247,-0.66652,-0.260442
explain,0.7006,0.576201,-0.249063,0.391188,-1.170251,0.736465,-0.73205,2.510141,-1.172825,-0.006027,0.672885,0.585578,-1.229445,0.566963,0.592288,-1.634853,0.811487,1.585539,0.139926,-0.176648
gap,0.018971,-0.04604,0.039328,-0.127669,-0.011376,-0.107028,0.40038,-0.579361,0.391865,0.174481,0.031019,-0.36675,0.038144,0.368234,-0.055841,0.175633,-0.272746,-0.327755,0.06497,0.086251
come,0.037853,0.194583,0.168399,-0.268086,-0.531623,0.133789,-0.950464,-0.063708,0.10504,0.061604,0.110975,-0.074577,0.186057,-1.249246,0.09009,0.137376,0.281338,0.584021,0.775759,-0.61932
way,0.297795,-0.359352,0.049324,-0.079583,-0.328978,0.375539,-0.382048,1.162806,-1.715549,-0.892181,0.155483,1.135782,-0.0777,-0.554222,-0.471591,-1.510718,0.752247,0.516582,-0.319998,0.381608
isnt,-0.046528,-0.096332,-0.048786,-0.015855,-0.145784,0.159408,-0.258133,0.187475,-0.011882,-0.007687,0.02575,0.293225,0.160915,-0.359311,0.043694,0.129754,-0.205008,0.032206,-0.021997,-0.290898
ie,-0.16351,-0.173206,0.197002,-0.092313,0.021604,-0.012093,-0.099249,-0.202749,-0.461611,-0.142293,-0.229404,0.054999,0.101112,-0.212073,0.122108,-0.090115,0.009479,-0.07227,-0.041589,0.036524
assign,-0.623693,0.119391,-0.864416,-0.439008,-0.290946,0.593005,-0.836884,1.450512,-0.610771,-0.170436,0.076632,0.002759,-0.502709,0.116228,-0.358107,0.587895,1.059956,0.288705,-0.025651,-0.054369
revis,-0.022011,0.422083,0.07296,0.371717,0.112657,0.425562,-0.385063,0.963181,0.080493,-0.259281,-0.366387,-0.220902,-0.564588,-0.71055,-0.032082,0.025285,-0.108521,0.150892,0.634024,-0.325925
depend,-0.311543,-0.17896,-0.147863,-0.045646,-0.29024,-0.548409,0.079106,0.166139,-0.211304,-0.129781,-0.209916,-0.011559,0.140864,-0.208322,-0.315649,-0.200888,0.336019,-0.12642,-0.280739,0.195498
