0,1,2,3,4,5,6,7,8,9,10,11,12,13,14,15,16,17,18,19,20
time,-1.61338,-0.795772,-0.782358,-0.045996,-0.375312,-0.470509,-0.656837,3.044927,-1.158574,-1.024141,-0.80159,0.76644,-0.332072,-2.978708,-0.841869,-0.811766,1.992656,0.052061,1.026799,0.667928
question,0.122952,0.88058,0.649585,0.39244,-0.986905,-1.071321,-1.578345,1.319288,-0.695328,-0.955232,0.895382,-0.014468,-0.057431,-1.091511,-0.430991,-1.391338,2.725819,2.090535,1.276974,0.042898
interact,0.014921,0.192068,0.324707,1.207708,-0.393563,-0.896499,-0.794907,-0.196054,-2.237307,-1.274679,0.934627,0.433269,0.726649,-0.789657,-0.1775,-1.962556,2.178396,1.520528,-0.152644,0.655068
class,-0.299012,-0.6282,-0.055734,-0.081714,-0.045585,-1.164068,-1.51855,0.809732,-1.694755,-1.182951,-0.22103,0.499674,0.89944,-2.626223,0.486697,-1.113285,1.873591,0.99233,-0.537982,-0.332723
ask,-0.146243,1.006846,0.746248,0.778785,-0.959183,-0.953047,-1.5952,0.975834,-1.041862,-0.991913,0.882071,0.157543,0.135508,-0.910597,-0.479388,-1.710707,2.693983,2.145451,1.248849,0.221703
lectur,-0.585489,-0.414781,0.119889,1.101656,0.312407,-0.333436,-0.928308,1.168807,-2.338776,-0.754955,0.546647,-0.015444,0.034751,-2.720375,1.582561,-0.457643,1.510142,0.643644,0.413755,-0.636001
teacher,-0.056596,0.407009,0.188804,0.916886,-1.284078,-0.607466,-1.604439,1.456093,-1.588167,-1.037669,0.371972,-0.18951,-0.179275,0.018542,-0.201908,-1.231407,2.469955,1.895236,-0.030329,0.475678
work,-1.918841,-0.323149,-1.535789,0.014849,0.251638,0.758502,-1.58965,2.070424,-1.202342,-0.598872,-0.869214,0.85619,0.007824,-0.657934,-0.674602,-0.256626,2.1248,0.850505,-0.240081,0.836697
like,-1.56864,-0.194377,0.127684,1.117979,-0.563729,-0.16087,-2.29042,0.324556,-1.850362,-0.28135,-0.256344,1.598193,0.506614,-0.948144,0.621835,-1.187804,1.31063,1.319322,-0.242193,0.234827
live,0.112824,-0.101002,-0.224801,0.819101,0.299806,-0.985207,-1.418046,1.107899,-1.58794,-1.079259,-0.222642,0.098967,0.730506,-2.425603,0.161788,-0.143902,2.156872,1.189402,-0.324193,-0.571641
get,0.047622,-0.515561,0.035372,0.800338,-0.598855,-0.594564,-1.915491,1.241685,-0.844133,-0.363908,0.469367,1.048715,-0.675285,-1.022148,-0.28613,-0.202613,2.54491,1.589211,0.450825,0.835662
feel,-1.297612,-0.041982,0.303142,1.81589,-0.467214,-0.726753,-2.00537,-0.376825,-1.797239,-0.763933,0.114763,2.439282,0.94804,-0.554503,-0.544189,-0.655642,1.029511,1.607987,-0.183966,0.131873
learn,-0.223903,0.182387,0.021744,0.147094,0.337838,0.792095,-0.501872,1.531833,-2.503869,-1.035585,-0.441964,1.103313,0.895865,0.083965,0.194635,-2.257158,0.986816,1.061717,-0.207448,0.315301
easier,1.177219,-0.197931,0.297438,0.983126,0.471964,0.428821,-0.483556,1.584927,-1.303842,-1.38775,0.626044,1.435645,-0.464497,-0.708733,-1.019917,-1.436825,1.218735,0.853631,0.245735,0.581516
understand,0.049493,1.352553,-0.338454,1.267872,-0.425778,0.292455,-0.564212,2.920749,-0.778748,-0.173503,0.228037,1.294199,-0.762988,-0.58474,-0.233467,-1.75409,0.343387,1.336948,0.949998,-0.337954
engag,0.038453,0.551051,-0.185357,1.465573,0.997603,-0.105134,-0.624983,0.703959,-1.534028,-0.99883,0.971618,0.65819,1.297973,-0.661921,0.213327,-1.574323,2.042916,1.65128,-0.208006,0.567908
it’,0.711682,-0.793789,0.435239,0.955975,-0.462852,-0.11207,-1.309478,0.847546,-1.613431,-1.159714,0.518783,1.587458,-0.402702,-1.78975,-0.41998,-1.654476,0.838333,0.946301,-0.582954,0.534079
also,-0.933702,0.027192,0.051445,1.409302,-0.030738,-0.474836,-1.327892,1.033259,-1.621186,-1.058503,-0.263287,0.363566,-0.238532,-1.109778,-0.259675,-1.016121,1.599535,1.11996,0.373365,0.338611
abl,-1.18351,0.207077,0.49858,1.123555,-0.153014,0.186504,-1.429841,1.163145,-1.406242,-0.555684,-0.629365,0.09533,-0.495325,-0.564565,0.712167,-1.436217,1.702024,0.840585,0.679861,1.10484
pace,-1.429152,0.412565,-0.268806,0.223124,0.450861,1.714147,-0.981896,1.937656,-1.313901,-0.950463,-1.310162,0.851374,-0.598875,-0.511138,-0.446328,-0.204908,0.861969,0.538144,1.063533,0.350909
allow,-0.841317,0.620354,-0.113939,0.441451,0.062277,0.044559,-0.042149,1.02309,-2.109892,-1.285534,0.03805,-0.03125,-0.072982,-0.330642,-0.500086,-1.292135,1.679696,0.803801,0.863647,0.256649
materi,-0.09708,0.78695,-1.184574,0.519802,0.063385,1.123333,-0.929383,2.064167,-1.891724,-0.58988,0.00869,0.145074,-0.067364,-0.34117,0.013622,-0.235214,1.378062,1.274441,0.209046,-0.49709
record,-0.443076,0.228008,-0.217772,1.639884,0.633585,0.082472,-1.013868,1.159151,-2.243153,-0.859403,0.169176,-0.387449,0.154235,-2.645306,1.518844,0.356964,0.711479,0.391956,-0.268246,-1.239004
discuss,0.676112,1.173383,0.029879,0.01487,0.267978,-1.020715,-0.46799,0.926271,-1.416983,-0.582287,-0.579417,-0.284125,1.012389,-0.49914,0.357151,-1.604653,1.815642,1.412317,0.030998,-0.279007
go,-0.939563,0.747305,0.253256,0.865522,-0.174654,1.264537,-1.309959,1.414958,-1.155659,-0.417017,-0.775985,0.360202,-0.628958,-1.376874,0.490839,-0.630514,0.432341,1.068033,1.549473,-0.255734
watch,-1.359923,-0.143968,-0.033653,1.273946,-0.036685,0.802124,-0.630088,1.573598,-1.73917,-0.683848,-0.076999,0.546108,-0.684371,-2.117597,0.552871,0.012088,0.052277,-0.528924,0.441368,-0.028465
actual,-0.682083,-0.607338,-0.247592,0.573362,-0.1916,0.232255,-1.738191,0.527225,-1.455426,0.09261,0.415129,1.306239,0.778979,-0.724076,1.032405,-1.369126,1.154118,1.295838,-0.776062,0.563464
help,-0.380795,0.382294,-0.449083,1.506473,0.272973,-0.103078,-0.784978,1.387441,-1.125113,-0.942026,0.142646,-0.13277,-0.255083,0.192432,-0.482647,-1.560817,1.393812,1.163212,0.006319,0.575461
make,-0.222829,0.172439,0.451099,1.6638,0.498594,-0.143106,-0.940947,0.541748,-1.657545,-1.217709,-0.266058,1.245637,0.111691,-0.777307,-0.424248,-0.903772,0.682931,0.948909,0.310691,0.350905
student,-0.2618,0.36489,-0.28655,0.892199,-0.10342,-1.120659,-0.210943,0.466649,-1.36433,-0.794466,-0.128178,-0.892436,0.589568,-0.645084,0.051716,-1.406592,1.632372,0.754255,0.025051,0.607834
take,-0.244717,0.360474,1.114708,0.72256,0.850397,0.281419,-0.642776,2.143947,-1.437876,-1.596423,-1.157459,1.067542,-0.912202,-0.938409,-0.15099,-0.205972,0.461471,0.306638,0.77163,-0.02067
better,0.479332,0.315718,-0.617588,0.669131,0.113817,0.256747,-0.02837,1.836998,-1.891157,-0.598193,0.252794,0.817545,-0.382057,0.12551,-0.121665,-1.520575,0.753766,0.877163,-0.285069,0.103989
paus,-0.70911,0.659684,1.520685,1.858082,0.628633,0.811408,-0.826145,1.267629,-1.184226,-1.246044,-1.326214,0.427388,-1.456977,-1.209013,0.310576,-0.429429,-0.800581,0.101873,1.655414,0.066513
need,-0.62802,0.695114,0.492726,0.802213,-0.430226,-0.12167,-1.184467,1.917318,-0.748609,-1.140013,-0.520516,0.243835,-1.066197,-0.920392,-0.554487,-0.296582,0.588194,0.505514,0.942264,-0.143081
video,-0.212031,0.708064,0.596148,1.365795,0.404733,-0.148931,-1.32597,1.8099,-1.768547,-0.795397,-1.653008,0.089506,-0.599609,-0.910825,0.456373,0.171498,-0.089235,-0.010723,-0.062307,-0.895697
lesson,-0.922781,-0.200481,0.07536,0.417381,-0.61338,0.072029,-1.520348,0.362923,-1.809428,-0.864122,0.132896,0.842974,0.105581,-0.877156,0.167058,-0.765124,0.930329,0.884717,-0.201317,-0.331195
would,-0.400284,-0.421567,-0.360641,0.363941,0.026145,-0.179347,-1.441655,0.857548,-1.942784,-0.85818,-0.07943,0.420361,0.224439,-0.725909,0.602045,-0.598514,1.338363,0.912044,-1.060834,-0.398331
explain,0.7006,0.576201,-0.249063,0.391188,-1.170251,0.736465,-0.73205,2.510141,-1.172825,-0.006027,0.672885,0.585578,-1.229445,0.566963,0.592288,-1.634853,0.811487,1.585539,0.139926,-0.176648
give,-1.76419,0.539068,-0.993772,1.157902,-0.116759,-0.097173,-0.325503,-0.092857,-1.638065,-1.09783,0.534846,-0.399389,0.029889,-0.508582,-0.68783,-0.971916,1.495054,0.970669,0.988505,0.009512
way,0.297795,-0.359352,0.049324,-0.079583,-0.328978,0.375539,-0.382048,1.162806,-1.715549,-0.892181,0.155483,1.135782,-0.0777,-0.554222,-0.471591,-1.510718,0.752247,0.516582,-0.319998,0.381608
real,-0.487608,-0.649327,0.849697,-0.530953,-1.719543,-1.097814,-1.457931,-0.196308,-0.584913,-0.211168,0.777483,0.604343,0.436504,-1.497396,0.509877,-1.833103,1.425735,1.215543,0.03129,0.450219
note,0.317935,0.665681,1.223796,1.1317,0.843066,0.868625,-0.691579,1.837875,-1.364836,-1.34396,-0.799557,0.442532,-1.33692,-0.729776,0.226461,0.064854,-0.223923,0.421257,1.008278,-0.217
back,-0.612756,0.844347,0.72456,0.852195,-0.399948,1.345486,-1.2783,1.302281,-0.32003,-0.233495,-0.330946,-0.185998,-0.990313,-2.218286,0.563026,-0.246923,-0.411728,0.593615,2.050949,-0.897059
want,-1.725247,-0.101145,0.184456,0.403452,-0.819547,-0.10443,-0.53513,1.666124,-1.713291,-1.076551,-0.854341,0.625694,-1.044,-1.292515,-0.62073,0.111205,-0.140699,-0.677933,0.36646,0.007929
much,0.659156,0.054951,0.329046,0.438168,0.195896,-0.028173,-0.5501,1.175795,-1.624896,-1.446671,0.374588,1.701589,0.061434,-0.862601,-0.901202,-0.5623,0.812212,0.596429,-0.331022,-0.459199
content,-0.295139,0.879539,-0.450675,0.617001,-0.047196,1.031202,-0.328619,1.657075,-1.166286,-0.162171,0.444607,0.832275,-0.162338,0.220266,-0.042409,-1.230134,0.606391,1.276643,0.665573,-0.174504
normal,-1.409119,-0.930981,0.040151,-0.078553,-0.974365,-0.47246,-1.321195,-1.341356,-1.783996,-0.573267,0.678738,1.239061,0.258989,-0.59012,0.173623,-1.136349,0.512385,1.02491,-0.516473,-0.558094
face,0.398031,-0.829608,1.023606,-0.080146,-1.841352,-0.666767,0.093392,-0.732472,-1.920505,-0.671482,0.181316,0.669307,-0.600269,0.630863,0.537424,-1.760144,0.715543,0.548652,0.001652,0.234329
zoom,0.270454,-0.022742,-0.220509,-0.286941,0.539364,-0.947952,-1.526932,1.030774,-1.276146,-0.729365,-1.744391,0.207928,0.879721,-1.661109,0.159985,0.008189,1.052396,0.512026,-0.539828,-1.033395
thing,-0.027533,0.103269,0.077025,-0.003114,-0.929999,0.753192,-1.090698,1.517408,-0.49893,0.204336,0.054683,1.36609,-0.475849,-1.12608,0.404668,-1.643215,0.11447,1.150805,0.49134,-0.009916
onlin,0.224598,-0.390168,-0.305119,-0.359951,-0.070626,-0.517994,-1.146389,1.133362,-1.334144,-0.448234,-1.03228,0.666507,0.573159,-1.112067,0.2428,-0.232922,0.883331,0.529747,-1.014224,-0.556353
don’t,-0.565761,0.432953,0.244362,0.85346,-0.765442,-0.180893,-1.574533,1.461368,-0.540833,-0.048228,-0.35515,1.267128,0.085999,-1.166691,-0.07954,-0.423458,0.36232,0.957633,0.654351,-0.662451
email,-0.241659,0.899999,-0.107176,-0.344795,-0.681315,0.291889,-2.001378,1.659231,-0.755114,-0.813308,0.322363,-0.373162,-0.077082,0.204967,-0.449188,1.181429,1.727579,1.33297,0.353369,-1.474487
find,1.207477,0.025036,-0.158213,0.457475,1.345985,0.264853,-0.856225,1.846044,-0.885039,-0.697457,-0.64436,1.314789,0.469804,-0.917022,-0.125392,-0.774819,0.465417,0.553216,-0.817365,-0.034688
see,0.040283,-0.640406,0.873143,1.402563,-0.958184,-0.659669,-0.992029,0.196773,-1.450912,-0.11717,-0.209128,-0.237379,-0.896481,0.38993,1.15533,-1.459333,1.21872,0.659556,-0.369771,1.596222
teach,0.090989,-0.12726,-0.125072,-0.640407,-0.996805,0.072934,-0.728308,0.79397,-1.768644,-0.434412,0.379635,0.906049,0.327795,0.023569,0.405829,-1.257381,0.580475,1.050912,-0.744507,-0.858617
still,-1.105739,-0.00064,-0.120197,0.779996,-0.563902,0.184277,-0.584349,0.137912,-1.49583,-0.395778,-0.295774,0.458161,-0.246872,0.229946,0.224602,-1.087409,1.269382,1.095796,0.296928,0.708801
less,-0.234734,-0.028344,0.145274,1.119289,0.687649,-0.484333,-1.043922,-0.174946,-0.04075,-1.07188,-0.552986,2.269396,0.892013,-1.130086,-1.241372,0.808616,0.869184,0.625438,-0.083739,0.12177
schedul,-1.840441,-0.96404,-1.079746,0.270697,0.863342,0.256285,0.084287,0.563171,-1.386063,-1.121541,-0.016073,0.268654,0.059363,-0.833479,-1.195557,-0.247512,0.40161,-0.392222,0.011136,0.351696
motiv,-0.579024,-0.390838,-0.834714,1.69897,1.051255,0.280735,-0.674248,0.464229,-0.485474,-0.566733,0.710259,0.917078,0.700093,-1.052455,-0.157141,-0.427186,0.913069,0.594091,-0.618841,0.915141
answer,0.736577,0.446445,0.561062,0.040084,-1.2942,-1.05068,-1.293438,1.041268,0.452629,0.112791,0.846519,0.464734,-0.575811,-0.307258,-0.464915,-0.041654,1.821789,1.461098,0.950953,0.026348
i’m,-1.229136,-0.128848,0.252794,1.26418,0.407863,0.870288,-1.498624,0.497588,-0.40828,0.244353,-0.402367,1.691205,0.51123,-0.13123,0.718052,-0.822457,0.322277,0.89337,-0.390908,0.875878
prefer,-0.098881,-0.043695,-0.51042,-0.33441,0.26659,0.52626,-0.860567,1.206027,-2.513117,-0.805156,-0.420939,0.052951,0.065029,-0.100949,0.598098,0.148003,0.917002,0.322285,-1.068071,-0.825027
someth,-0.136201,0.664867,0.644581,1.087461,-0.851488,0.289441,-1.142937,1.375965,-0.294734,0.191525,0.135664,1.102138,-0.696864,-1.148775,0.338226,-0.666185,-0.570207,0.810558,1.093714,-0.630786
professor,0.036895,0.393048,0.358986,1.254029,-0.721396,-0.940025,-0.68669,0.824987,-1.336132,-0.769077,0.500469,-0.657792,-0.13386,-0.695185,0.478052,-1.118494,1.387817,0.880508,0.108939,0.278658
inform,0.783077,0.431083,0.242172,0.215761,0.186555,1.459331,0.168919,1.273931,-0.894853,-0.899243,0.208817,0.655277,-1.129943,-0.224359,-0.25284,-0.198049,0.366251,0.458329,0.554217,-0.16519
person,0.228235,-0.885563,0.389511,0.058781,-0.504382,-0.095603,-0.791739,0.153816,-1.69918,-0.731485,0.201109,1.200516,0.111958,-0.110326,0.073451,-1.15347,0.641063,0.783687,-0.781241,0.065709
studi,-1.295892,-0.20021,-0.656197,0.372829,0.10188,0.707956,-0.011651,0.827705,-1.551122,-0.748485,-0.238451,0.747921,-0.082712,-0.597455,-0.3554,-0.857836,-0.030988,-0.128941,-0.104916,0.267762
whenev,-2.102461,0.2339,0.270574,0.787229,-0.678262,0.289579,-0.984982,1.306259,-1.490909,-1.063325,-0.408105,0.351082,-1.442695,-1.325861,-0.61091,0.702499,-0.159922,-0.596093,0.783539,-0.361888
rather,-0.27569,-0.192298,0.030271,-0.094916,-0.485085,0.809185,-1.3258,1.799619,-1.272977,-0.462326,0.939643,0.14669,-0.315087,0.416565,0.25918,0.46994,1.267193,0.738294,-0.113999,-0.590001
similar,-0.493013,-1.141051,0.228367,-0.794729,-0.727066,-0.368145,-0.809326,-0.811887,-1.599999,-0.588236,0.73706,1.248025,0.649471,-0.625548,0.062358,-1.692251,0.398756,0.758998,-0.922342,-0.617846
use,-0.032606,-0.065639,-0.249796,-0.372189,-0.088761,0.318097,-1.371359,0.623982,-1.389267,-0.368887,-0.613677,0.215263,0.519548,-0.568263,0.339651,-0.409584,0.674688,0.518957,-0.903726,-0.523384
school,-1.5143,-0.821361,-0.413064,-0.223944,-0.899661,0.263149,-1.376212,-0.326642,-1.705894,-0.541684,0.085754,0.789879,0.283344,-0.028308,0.033328,-0.85623,0.591579,0.700984,-0.717484,-0.224301
classroom,-1.408915,-0.383994,-0.216924,-1.001873,-1.074319,0.130986,-1.390473,-0.152829,-0.143971,0.145065,0.685883,1.349118,1.208249,0.337639,-0.127868,-2.006719,0.611225,1.309019,-1.254091,0.126758
easi,0.343747,0.008291,0.484019,0.379958,0.157521,0.26076,-0.368915,0.721921,-0.735379,-1.221799,-0.156307,0.447879,-0.80454,-1.399179,-0.865451,-0.27496,0.670607,0.257279,0.840927,0.510693
one,0.287354,-0.059241,0.153488,-0.229246,-0.744333,-0.736707,-0.944989,0.709773,-0.795961,-1.020076,-0.260281,-0.534571,0.229921,-1.373516,0.477042,-0.560281,0.479476,0.218588,-1.255284,-0.001185
listen,-0.343247,0.001165,0.540155,0.720528,-0.024879,0.620268,-0.770961,1.457209,-1.660684,-0.538734,0.283276,0.015915,-0.656673,-0.83322,0.877117,-0.024144,0.339849,0.153778,0.12063,0.049233
peopl,0.325451,-0.39052,0.647986,0.405558,-0.674926,-1.390997,-0.620292,0.631072,-0.803824,-0.417544,-1.164581,0.062919,-0.238224,-0.438513,0.008096,-1.110946,1.173382,0.13319,-0.471208,1.146874
realli,-0.063361,0.452508,-0.086673,0.990413,0.408635,-0.355159,-1.300228,1.137128,-0.511551,-0.179911,-0.759967,0.143651,0.293302,-0.614318,0.317836,-0.93084,0.531917,0.742741,-0.636257,0.116411
day,-2.100406,-0.717372,-0.754202,0.065904,-0.348644,-0.35827,-0.179531,0.43741,-1.257692,-1.474213,0.133679,-0.125697,-0.055129,-0.73047,-1.515576,0.394478,0.886432,-0.540162,0.315673,-0.041213
keep,-0.760522,-0.280501,-0.726948,1.470492,1.696753,0.205129,-0.060416,0.049526,-0.640025,-1.007007,0.267687,0.280813,0.653698,-0.793482,-0.901432,-0.530963,0.900603,0.208657,0.011665,0.808102
think,0.463812,0.10296,0.372763,0.36565,0.215523,-0.039641,-0.556311,1.001027,-1.166237,-0.671398,-0.098022,0.283309,-0.05589,-0.633275,0.370176,-1.350107,0.363281,0.579708,-0.18231,-0.022189
talk,0.187133,0.200445,0.523218,0.411768,-1.009385,-0.513496,-1.158505,1.029357,-0.836881,-0.142869,-0.717806,-0.021384,-0.26313,0.484661,0.518631,-0.982175,0.990064,1.055539,-0.294585,0.426932
without,0.156748,0.418751,0.49073,-0.068295,-0.421032,0.056163,-1.180825,0.799206,-0.330516,-0.663273,-0.748953,1.098534,0.138596,-0.017877,-0.734462,0.640119,1.030972,0.907089,0.467108,-0.656214
dont,-0.522021,0.375968,0.280268,0.923532,-0.861675,-0.403335,-1.152853,1.362749,-0.604754,-0.140302,-0.097243,0.824045,-0.251066,-0.825107,-0.199129,-0.081288,0.257112,0.503626,0.19608,-0.660769
upload,-0.113524,0.646127,-0.89223,-0.074841,0.376573,0.779908,-1.416624,1.369098,-1.634519,-0.451478,0.17765,-0.381731,0.17733,-0.26578,0.54286,0.976973,0.923774,0.746255,-0.750424,-1.484826
topic,0.373845,1.007761,-0.509372,0.635076,-0.381805,-0.298436,0.360846,2.051382,-0.511123,0.001983,-0.033085,0.069335,-0.559876,-0.402118,0.028413,-1.203875,0.317476,0.703486,0.544266,-0.191247
closest,0.596429,-1.419592,0.429363,-1.043661,-1.426131,-0.275077,-1.188146,-0.71072,-0.528006,0.262206,1.017742,1.635168,0.595813,-1.401819,0.849062,-2.166631,0.095992,1.099247,-0.66652,-0.260442
easili,0.034399,0.183662,0.431529,0.834855,0.073265,0.101987,-0.687832,0.812719,-0.368509,-0.751429,0.198234,0.236234,-0.802736,-0.847735,-0.336611,-0.308346,1.296127,0.615077,0.831679,0.685574
best,-0.35589,-0.520574,-0.407753,-0.865445,-0.064008,0.895328,-0.07956,1.019012,-1.438986,-0.449472,-0.156083,0.134636,0.180522,-0.556251,0.507775,-1.724606,0.030523,-0.196949,-0.870351,0.212019
set,-1.349334,-0.815157,-1.152243,-0.531552,-0.265572,0.156435,-0.937083,1.241799,-0.211446,-0.4764,0.629665,0.997269,0.374686,-0.410592,-0.990617,-0.370115,1.409884,0.672244,-0.733453,0.383098
call,0.216587,0.279168,0.065468,0.055781,0.191454,-0.921872,-1.420202,0.722009,-0.902126,-0.423772,-2.024682,0.574673,0.545607,-0.265367,-0.356928,0.172989,0.664392,0.384535,-0.754183,-0.691995
classmat,-0.183182,0.029825,0.428553,1.388596,-1.034447,-1.064558,-0.365458,-0.242866,-0.957535,-0.448265,0.157604,-0.461808,-0.245044,0.183719,0.371448,-1.225597,1.289061,0.669707,-0.286049,1.051974
lot,0.311189,0.100662,-0.20031,0.81712,0.247583,-0.3222,-0.179127,0.964833,-0.878435,-0.973762,0.011267,0.705145,-0.04003,-0.591296,-0.762612,-0.4314,0.935388,0.519432,-0.149178,0.213791
us,-0.818616,0.953399,-1.061956,0.467567,-0.394376,0.200591,0.058637,0.923879,-1.360448,-0.844282,0.539954,-1.143089,-0.012116,0.231305,-0.260777,-0.790115,1.54962,0.771766,0.652671,-0.196779
activ,-0.017416,0.624388,0.149966,0.396247,1.063615,0.129994,0.006461,0.223522,-1.372437,-0.64474,0.23922,0.203934,1.30006,0.213292,0.192511,-1.012995,1.341161,0.868574,0.093697,0.579027
commun,0.445959,0.065877,0.539855,0.381705,-0.856292,-0.718383,-0.019578,-0.307096,-0.813722,-0.948233,0.474706,0.347399,-0.19816,0.243853,-0.790691,-1.251063,1.177766,0.554271,0.378569,0.802545
structur,-1.570432,-0.248848,-0.728658,0.341555,0.192132,-0.249459,0.170602,-0.481644,-1.45497,-1.542885,0.251948,-0.452955,0.215272,-0.384926,-1.322319,-0.285751,1.092077,0.057593,0.126428,0.127785
read,0.428529,0.311244,-0.398671,0.110356,-0.048798,1.446228,-0.620981,1.938425,-1.173637,-0.145733,0.640838,0.432688,-0.546831,0.145692,0.430403,0.293342,0.249203,0.747074,-0.231913,-0.709296
flexibl,-1.353377,-0.315013,-0.723121,0.39134,0.337355,0.231434,0.264235,0.518307,-1.546898,-1.120613,-0.091838,0.187913,-0.381813,-1.10796,-0.755059,-0.150632,0.478107,-0.444506,0.230325,0.470444
miss,0.049573,0.927901,1.167216,1.010723,-0.425428,0.158321,-0.825707,0.359323,-0.427326,-0.146607,-0.313895,0.181139,-0.096546,-1.279292,0.689489,-0.108072,-0.431212,0.713042,1.198735,-1.069626
access,-0.185502,-0.067982,0.161847,0.198572,-0.469378,0.06106,0.003516,0.735447,-0.873737,-1.048633,-0.207433,-0.450569,-1.092208,-1.439252,-0.565205,0.247202,0.910817,-0.421758,0.56371,0.474956
well,-0.207319,0.102938,-0.553564,0.17821,0.146783,-0.078411,-0.417692,1.251061,-0.754466,-0.215675,0.011789,-0.095774,-0.167809,-0.233508,0.289196,-0.808551,1.105273,0.754616,-0.102656,0.02495
cours,-0.096049,0.185734,-0.682653,-0.056224,-0.073476,-0.091142,-0.205025,0.956136,-1.10636,-0.034081,-0.354162,0.205277,0.376138,-0.315411,0.345696,-0.768933,0.651116,0.465233,-0.502601,-0.068057
complet,-1.429248,0.18717,-1.131017,-0.011181,0.359712,1.004788,-0.317922,1.433764,-0.512476,-0.372662,-0.441319,0.638859,-0.210079,0.012359,-0.433904,0.104215,0.765779,0.288867,0.00378,0.556195
connect,0.394848,-0.628244,0.598876,1.025783,-0.366233,-1.667797,-0.19903,-0.826692,-0.491256,-0.833645,-0.865316,-0.128712,0.420754,-0.561945,-0.772771,-0.008048,1.24018,-0.209565,-0.270205,0.661248
rewatch,-0.741109,0.820181,0.625409,1.359219,0.032411,0.42926,-0.618856,1.557125,-0.566774,-0.10814,-0.900037,0.277414,-1.025761,-1.078988,0.648447,-0.138463,-0.840032,-0.082153,1.250439,-0.628404
forc,-0.390281,-0.770801,-0.595149,0.562191,1.315233,0.07145,-0.18006,-0.084343,-0.37612,-0.28785,0.658931,0.254934,1.220533,-0.836758,-0.118577,-0.079033,1.377987,0.360266,-0.468156,1.233231
follow,0.584248,-0.093509,0.219421,0.192002,0.749086,0.50659,-0.108243,0.915692,-0.599756,-1.086204,0.058507,1.087339,-0.327383,-1.264069,-1.230757,-0.180368,0.400578,-0.027261,0.520222,0.00065
immedi,0.54552,0.155154,0.710072,-0.170203,-1.066025,-1.272545,-1.206165,0.32957,0.376751,-0.220442,1.082371,-0.192167,-0.5213,-0.059313,-0.802236,0.27622,2.314336,1.330705,0.992839,0.179659
possibl,-0.21593,0.008342,0.545676,0.51364,-0.582355,-0.371885,-0.515516,-0.511398,-1.628493,-0.93762,0.4224,0.556475,0.249853,-0.727337,-0.015665,-0.830391,0.376527,0.725575,0.188055,-0.481064
mean,-1.041375,-0.328068,-0.167868,0.44553,-0.072286,0.074978,-0.703684,0.578084,-0.508573,-0.233186,-0.333058,0.453401,-0.148931,-0.555206,0.033757,-0.532707,0.5253,0.356258,0.270779,0.369719
particip,0.030503,0.122928,0.303973,0.366949,0.792779,-0.528177,-0.191892,-0.076806,-1.165702,-0.664877,0.097497,0.234166,1.207117,-0.355627,0.106066,-0.730062,1.525221,0.574011,0.074558,0.742803
hear,0.732355,-0.171989,0.168398,1.31901,-0.81075,-0.068087,-0.340621,0.87206,-1.05799,0.270479,0.272831,-0.620262,-1.266461,0.592142,1.491865,-1.384131,0.882638,1.007324,0.086231,1.137068
attend,-0.807268,-0.901011,-0.748512,0.508877,1.218145,-0.112973,-0.894517,-0.120913,-0.708059,-0.105863,0.362125,0.182849,1.417476,-1.796977,0.480408,0.409404,1.1317,0.1152,-0.595659,0.533085
instead,-0.401339,-0.271871,0.025033,-0.200941,-0.481159,0.553401,-1.042319,1.476588,-0.697352,-0.181407,0.610496,0.178405,-0.29879,-0.159489,0.076506,0.607004,0.865003,0.425227,0.11617,-0.196115
feedback,0.500307,0.078942,-0.138847,-0.170567,-0.634413,-0.814667,-0.380581,-0.032953,0.259987,-0.252245,1.0823,-0.33651,-0.043858,0.20284,-1.036297,-0.06787,2.433238,1.020727,0.337351,0.93081
im,-0.81996,-0.210138,0.095291,1.092847,0.405899,0.610943,-0.753319,0.250897,-0.696429,0.057334,-0.163443,1.36662,0.258792,-0.382954,0.405239,-0.648029,-0.108265,0.221978,-0.199005,0.683664
etc,0.530342,0.394481,1.361547,0.472218,0.168055,-0.950337,-0.807926,0.246312,-0.525342,-0.819113,-0.995509,0.17507,-0.275021,-0.736638,-0.275429,-0.458724,0.219555,0.42143,0.764037,-0.157988
focu,0.271611,-0.079398,-0.518893,0.663341,0.916494,0.661721,-0.575801,1.01868,-0.145054,-0.173281,0.428729,0.882647,0.1161,-0.87091,-0.177778,-0.389484,0.534125,0.552536,-0.41768,0.703944
opportun,-0.331455,0.879866,-0.523423,0.218185,-0.222207,-0.381569,0.217816,0.111945,-0.882889,-0.567674,0.570073,-0.943944,0.387676,-0.623038,-0.021469,-1.157251,1.283093,0.808989,1.121276,-0.043092
directli,0.122663,0.372334,0.511036,0.393505,-0.881419,-0.308026,-0.76047,0.578536,-0.315932,-0.272469,0.843476,-0.547504,-0.289092,0.150847,0.204772,-0.886853,1.041298,0.986772,0.450361,0.06877
pressur,-0.464463,0.269847,0.282377,0.364997,-0.228165,-0.460392,-1.143631,0.184372,0.373246,-0.564674,-0.971851,1.588939,0.687202,-0.429991,-1.240543,0.89925,1.177233,0.83211,0.704858,-0.342521
subject,-0.252158,0.663701,-0.735929,0.458662,0.046307,0.009212,0.012475,1.199791,-0.354465,0.092177,-0.086219,0.438428,0.084048,-0.160505,0.04103,-1.17796,-0.022838,0.368654,-0.473138,0.12495
contact,-0.179022,-0.145813,0.293402,0.570047,-0.754374,-0.653484,0.142944,-0.802488,-1.171645,-0.574985,0.872535,-0.167691,0.271867,0.68786,-0.176884,-0.864946,1.244256,0.486821,-0.387654,0.660128
respons,-0.01345,-0.295888,0.651501,-0.29522,-1.211081,-0.614221,-1.071635,0.166939,0.462232,-0.577582,0.790465,-0.427763,-0.44919,0.405349,-0.817234,0.617705,2.073445,0.785503,1.013007,0.371362
speed,-1.05593,0.400881,0.393155,0.874548,0.507562,1.056491,0.176517,0.721111,-1.130251,-0.020132,-0.999296,-0.158286,-0.78605,-0.431676,0.726585,-0.623024,-1.14918,-0.59216,0.899252,0.108886
part,-0.835129,0.681938,0.416857,1.388891,-0.154939,-0.317074,-0.230504,0.850756,-0.275138,0.026296,-0.681211,1.234334,0.056383,-1.160016,0.219414,-0.810958,-1.319285,-0.09669,0.785117,-0.619489
even,-0.416211,-0.178177,0.26591,1.206319,-0.431601,-0.663483,-0.675682,0.604949,-0.721298,-0.50825,-0.360239,0.528536,0.046096,-0.277919,0.384844,-0.355609,0.188794,0.33097,-0.753359,-0.046341
done,-0.517951,-0.529533,-0.487769,-0.476261,-0.009566,0.383602,-0.671828,0.850972,-0.188798,-0.376251,-0.45688,0.728657,-0.420291,-0.486702,-0.828115,0.466245,0.855486,0.117717,-0.092814,0.41593
rewind,-0.457401,0.886076,1.655738,1.389768,0.298289,0.332196,-0.408184,0.781961,-0.670929,-0.648458,-1.248144,0.729172,-1.275137,-0.48861,0.093116,-0.293495,-1.072656,-0.162626,1.577665,-0.172193
chat,0.545327,1.029202,0.386076,0.22874,-0.028155,-1.200585,-1.144818,0.623426,-0.666224,-0.352816,-1.067334,-0.650256,0.501684,-0.371085,0.0037,-0.153488,1.003968,0.664132,-0.387066,-0.559777
abil,-0.321183,0.867325,0.616525,0.784119,0.114008,-0.177676,-0.095777,0.675595,-0.639792,-0.675598,0.315199,-0.333296,-0.329545,-0.655553,-0.082149,-1.118531,0.868238,0.685137,1.395533,0.510095
could,-0.390026,0.28744,-0.105599,0.455267,-0.167918,0.149972,-0.500635,0.684556,-0.860525,-0.482649,-0.211738,-0.225264,-0.183567,-0.566716,0.262145,-0.35346,0.372456,0.258682,0.295752,-0.111529
mode,0.909087,-0.327957,-0.440607,-0.90009,-0.037864,0.295023,-0.790529,0.500526,-1.456743,-0.496518,-0.097894,0.489921,0.737799,-0.141208,0.454162,-0.329785,0.78486,0.532004,-1.631481,-0.445611
alway,-0.049962,0.401277,0.2569,0.462874,-0.354273,0.326778,-1.148741,0.491803,-0.258659,-0.259918,-0.115493,-0.405543,0.010692,-1.35138,0.274517,0.296615,0.486107,0.575088,1.006767,-0.680243
explan,1.127561,0.820532,-0.376413,0.333111,-0.335897,0.327902,0.306466,1.349784,-0.780616,-0.218435,0.656888,0.020129,-0.730791,0.673376,-0.178358,-0.430217,0.85736,0.963184,0.478827,-0.322886
other,0.192668,-0.024299,0.035027,0.349731,-0.101211,-0.368923,-0.570376,0.171715,-0.463017,-0.355117,-0.187475,-0.038709,-0.096596,0.341414,-0.040008,-0.589331,1.162631,0.761003,-0.114005,0.731536
good,0.42672,-0.273581,0.740214,0.647084,0.428188,-0.310624,-0.444976,0.491576,-0.753297,-0.64965,-0.863283,-0.051046,-0.358249,-1.008834,0.438523,-0.536964,0.393714,-0.01584,-0.199818,0.088246
concept,1.175956,0.601671,-0.069255,0.478202,-0.082895,0.499716,0.027576,2.163896,-0.139824,-0.040315,0.055876,0.334512,-0.982308,0.288899,0.148843,-1.195848,0.156935,0.913396,0.400805,-0.215319
distract,0.414899,-0.170655,0.549599,0.851442,0.520413,0.012711,-1.139928,0.109927,0.410092,-0.431859,-0.136949,0.821994,-0.527933,-1.184912,-0.493513,0.784834,0.996142,0.388968,0.428161,0.715931
account,-0.35169,-0.162954,-0.857017,0.229802,1.681398,-0.026936,0.209683,-0.697504,-0.354852,-0.470577,0.231998,0.34562,1.80931,-0.774361,-0.403016,-1.104943,0.748934,0.156213,-0.009426,1.030028
provid,-0.338654,-0.025961,-0.649882,0.236272,0.063923,-0.061858,0.295753,-0.440017,-1.774726,-1.182718,0.412524,-0.573302,0.236438,-0.206308,-0.430698,-0.654256,1.058847,0.539075,-0.251232,-0.178237
meet,-0.027855,0.209757,-0.61468,-0.831156,0.638176,-0.647879,-1.672111,0.59016,-0.36618,-0.184705,-1.032088,0.08498,0.990423,-0.979675,-0.510505,0.13432,0.557271,0.372237,-0.725571,-1.054456
everyth,-0.139079,0.068048,0.193644,0.592632,-0.17727,0.644338,-0.155178,1.130976,-0.395689,-0.434004,-0.334383,0.626557,-0.85861,0.181281,-0.239614,-0.252611,-0.217249,0.274171,0.411893,0.171031
know,-0.355727,0.05609,0.058128,0.982945,-0.399268,-0.220452,-1.108594,0.551176,0.059368,0.361276,-0.02119,0.556649,-0.079705,-0.461005,0.314024,-0.312165,0.260378,0.435481,-0.384264,0.650134
hard,1.125118,-0.071451,-0.477883,0.633464,1.790351,0.142342,-0.41792,1.035738,0.067869,-0.247924,-0.108536,0.814743,0.741509,-1.253258,-0.08035,-0.354637,0.351103,0.381354,-0.925514,-0.153133
look,-0.107444,0.382604,0.327238,0.385396,-0.038741,1.212889,-1.031484,1.114918,-0.509716,-0.250585,-0.15141,-0.087755,-0.799025,-1.180477,0.457155,-0.028118,0.058296,0.551037,0.913783,-0.298731
everyon,-0.313959,-0.344004,0.283863,0.313648,-0.874782,-0.5337,-0.497222,0.112115,-0.621358,-0.010422,-0.91298,0.040888,-0.41828,-0.301761,0.667176,-0.463047,0.584582,0.168877,-0.320917,1.118869
nice,-0.200481,-0.79413,0.591962,1.07515,-0.482201,-0.192754,-0.676478,-0.203664,-1.124486,-0.412528,-0.291643,-0.250671,-0.725605,-0.264805,0.495753,-1.132436,0.883714,0.171372,-0.407293,1.588087
difficult,0.708612,-0.354671,-0.844073,0.301992,0.935183,0.034037,-0.214438,1.806846,0.125867,-0.282546,0.097208,0.844313,0.229246,-1.209379,-0.279125,-0.476996,0.341651,0.356569,-0.832946,-0.27562
independ,-1.119883,-0.044208,-1.101352,-0.612261,0.420298,1.193793,-0.340932,1.133817,-0.80156,-0.383294,-0.487969,0.367699,0.257725,0.515304,-0.487853,0.061923,0.684526,0.133056,-0.528664,0.174861
assign,-0.623693,0.119391,-0.864416,-0.439008,-0.290946,0.593005,-0.836884,1.450512,-0.610771,-0.170436,0.076632,0.002759,-0.502709,0.116228,-0.358107,0.587895,1.059956,0.288705,-0.025651,-0.054369
away,0.256029,0.605571,1.119989,0.213446,-0.87103,-0.802556,-1.194565,0.65033,0.889848,0.467233,1.043448,0.696854,-0.857464,0.269776,-0.642444,0.534708,1.287785,1.291843,1.471446,-0.350814
stop,-0.796712,0.562874,0.924458,1.087203,0.15911,0.077013,-0.499746,0.943034,-1.127998,-1.025329,-0.803182,0.052182,-1.049988,-1.103474,0.188806,0.40693,-0.250443,-0.421995,0.741321,-0.250209
certain,-0.887214,0.651149,-0.495181,0.609943,-0.229725,-0.467356,0.172906,1.513276,-0.153979,-0.016918,-0.307011,0.251542,0.029066,-1.304347,-0.229083,-0.517586,-0.387522,0.034863,0.889777,-0.55186
routin,-1.723579,-0.777265,-1.208227,0.310291,0.413157,-0.062082,0.565702,-0.779189,-0.256219,-0.558796,0.764827,0.052336,0.457037,-0.230592,-1.136686,-0.280728,0.730943,0.056225,0.253755,0.706957
someon,1.182374,0.121997,-0.289573,0.380756,-0.415571,0.645229,-0.413934,1.785671,-0.874878,0.279663,0.280818,0.515936,-0.606868,0.66815,0.89862,-1.3462,0.2107,1.110756,-0.674166,-0.050489
method,0.49936,-0.200862,-0.381029,-0.434163,-0.028219,0.069043,-0.286856,0.413158,-0.987305,-0.518764,0.031179,0.873154,0.677656,-0.415691,-0.183369,-0.550101,0.442461,0.335481,-0.797836,-0.354564
idea,0.798753,0.695521,0.450995,0.257217,-0.027553,-0.98168,0.069498,-0.458229,0.093691,0.017052,-0.322455,-0.623829,0.089296,0.486893,0.40222,-1.481641,0.920304,0.81674,0.037151,1.080178
speak,0.858372,0.018419,0.451221,-0.058237,-0.574559,-0.366986,-0.272273,0.535807,-0.320781,0.068306,0.115037,-0.404634,-0.399409,0.165299,0.597552,-0.860586,0.43902,0.50792,-0.312314,0.200784
attent,0.94826,-0.169619,0.240185,1.10157,1.527734,0.170005,0.331553,-0.239916,-0.245752,-0.928663,0.355697,0.68445,0.62392,-0.36888,-0.394773,-0.081262,0.356813,0.182764,-0.183386,0.806801
detail,0.464391,0.480273,0.104844,0.805338,0.393061,0.634158,0.224848,1.173421,-0.929095,-0.491054,0.432922,-0.264247,-1.056002,0.311369,0.431057,-0.200835,0.517048,0.710733,0.576412,-0.351881
home,-1.04521,-0.915795,-0.421002,0.200403,0.284684,0.247168,-0.586173,0.189021,0.24187,-0.215507,0.087843,0.683449,0.413595,-0.412883,-0.489591,-0.168567,0.527062,0.108804,-0.651782,0.911493
environ,-0.532711,-0.588286,-0.318695,-0.961187,-0.519656,0.236365,-0.637439,-0.122011,-0.408887,0.092668,0.306813,1.08087,0.954598,0.613186,-0.036838,-1.585751,0.310024,0.7469,-1.218571,0.137621
specif,-0.442598,-0.199549,-0.097924,-0.330062,-0.309204,-0.570846,-0.193418,0.949136,0.131507,-0.269947,-0.085534,0.312059,0.092323,-0.687129,-0.909653,0.044344,0.62733,0.098979,0.596122,-0.011641
write,0.183674,0.348126,1.151609,0.606668,0.151281,0.388084,-0.653073,1.326463,-0.512386,-0.688531,-0.385762,-0.032883,-1.240157,-0.280172,0.184221,0.321045,-0.041337,0.246416,0.926247,-0.086824
bit,-0.987066,0.269445,0.316163,1.030631,0.006234,-0.340379,-0.703019,-1.091218,-0.481287,-0.103911,-0.248253,1.056791,0.545748,-0.952401,-0.053973,-0.528354,-0.339008,0.435348,0.302973,-0.150597
social,-0.197009,0.253773,0.522066,0.998984,0.111919,-0.613562,-0.53779,-1.628479,-0.416224,-0.035019,0.271075,-0.137352,0.722061,-0.088561,0.09378,-0.39326,0.778055,0.754067,-0.18149,0.521763
taught,-0.292815,0.342699,-0.324997,0.330212,-0.267934,0.71281,-0.885805,0.5495,-0.631934,0.532761,0.720424,1.087966,0.174834,0.80809,0.557408,-0.906919,0.542905,1.396304,-0.124025,0.025229
stay,0.544417,-0.324156,-0.622887,1.489039,2.165547,0.206115,0.414936,0.415636,0.2496,-0.860969,0.322083,0.554433,0.721019,-0.146263,-1.259785,-0.629243,0.608089,0.141514,-0.574372,1.090996
anyth,0.08529,0.866035,0.509323,0.28628,-0.623516,0.421755,-0.648062,0.71657,-0.247374,0.389541,-0.320167,0.09652,-0.032112,-0.157041,1.003544,-0.335592,-0.456053,0.504777,0.638419,-0.832179
concentr,0.892556,-0.18408,-0.28516,0.777467,1.797469,0.085802,-0.021105,0.953265,-0.100376,-0.624169,-0.136581,0.597986,0.427699,-0.931903,-0.342856,-0.472979,0.364853,0.023289,-0.463009,0.703847
experi,-0.267809,-0.527964,-0.199642,-0.512154,-0.54096,-0.177652,-0.61138,-0.238414,-0.946394,0.028541,0.179395,0.587477,0.655722,-0.097207,0.499627,-1.145091,0.183595,0.572287,-0.87738,-0.275497
sometim,0.43143,-0.147043,0.194802,0.883033,0.083713,-0.673795,-0.708188,0.674597,0.008795,-0.318439,-0.359537,0.373827,-0.127233,-1.120773,0.11867,0.576981,0.190088,0.015158,-0.627385,-0.599431
given,-0.248382,0.211482,-0.671948,-0.476754,-0.076924,0.527021,-0.328056,1.115911,-0.455681,-0.108182,0.133134,-0.283123,-0.372555,-0.294309,0.092199,0.227852,0.754727,0.31731,0.210229,-0.114789
often,0.110341,0.1379,-0.312989,0.20714,0.079966,-0.121301,-0.855268,0.966148,-0.260546,-0.134184,-0.366677,0.159568,0.121107,-0.696538,0.198317,0.421335,0.29297,0.18992,-0.468391,-0.6932
option,-0.701858,0.006671,0.135513,0.419103,-0.384184,-0.164648,-0.697068,0.133851,-0.625899,-0.314185,-0.265637,0.039441,-0.040585,-1.132142,0.567397,-0.92385,-0.246051,0.207939,-0.112141,-0.10372
peer,0.509748,0.714851,0.477284,0.588038,0.029907,-0.730143,0.031289,-0.119684,-0.644728,-0.236199,0.318403,-0.553383,0.632267,0.092068,0.416547,-0.905676,1.014157,0.688573,-0.006688,0.310088
differ,-0.030959,-0.231774,-0.412495,-0.212977,-0.03548,-0.237992,0.628559,0.908337,-0.50419,-0.057079,-0.196099,-0.213754,-0.216511,-0.738231,-0.093393,-1.107052,0.255113,-0.2808,-0.058385,0.445037
chanc,-0.631816,0.709653,-0.581332,0.567671,-0.499489,-0.302558,0.025792,0.134551,-0.343246,-0.232987,0.804304,-0.482841,0.006773,-0.108769,-0.559675,-0.494766,1.151803,0.774082,0.854807,0.183556
direct,0.315749,0.077546,0.064488,0.149421,-0.227325,-0.449104,0.378101,-0.799238,-0.924678,-0.865996,1.126052,-0.186211,0.481013,0.805362,-0.70065,-0.526798,1.76658,0.618783,-0.305095,1.017698
howev,-0.623361,-0.004557,-0.305194,0.184983,-0.187532,-0.159855,-0.824477,0.662082,-0.944823,-0.227164,-0.423519,0.021911,0.140643,-0.861584,0.484884,0.101025,0.509762,0.228016,-0.560112,-0.245648
mani,-0.704452,0.080759,0.291669,0.237097,-0.725614,-0.546289,-0.636802,1.10216,-0.697091,-0.379819,-0.784913,-0.019109,-0.719916,-1.460952,-0.011583,-0.00291,-0.050955,-0.518946,0.269036,-0.076537
fulli,0.197222,0.822439,-0.198606,0.924356,0.297028,0.362433,0.108508,1.768348,-0.001051,-0.027745,0.044257,0.757418,-0.328463,0.151535,-0.114514,-0.852264,0.274833,0.614465,0.681465,0.290554
stress,0.054772,-0.086275,0.098274,0.429693,0.78558,-0.308729,-0.886769,0.063855,-0.0762,-0.825055,-1.153208,1.36452,0.740942,-0.787717,-0.853825,0.608965,0.39423,0.24245,-0.30603,-0.400481
tutor,0.100025,0.597426,0.559105,0.348352,-0.435146,-0.861316,-0.576143,0.125432,-0.509624,-0.162216,0.344366,-0.588401,0.376895,-0.295264,0.533368,-0.901126,1.045497,0.760608,0.090684,0.281623
effici,0.042671,-0.235089,-0.352601,-0.324316,0.600177,0.159109,0.242387,0.830414,-0.490692,-0.631695,0.007627,0.78564,0.2757,-0.558969,-0.830918,-0.522482,0.43407,-0.083335,-0.173085,0.209127
moment,0.074445,0.264926,0.537066,0.121056,-0.578705,-0.493634,-0.298925,0.442459,0.085758,-0.276713,0.232285,0.033646,-0.532087,-0.390157,-0.417067,-0.250775,0.589212,0.380679,0.875829,0.017105
freedom,-2.311589,0.109285,-0.714858,0.111363,-0.341651,0.547376,0.061299,-0.194376,-0.81393,-0.557461,-0.001995,-0.258041,-0.332517,-0.202757,-0.833494,-0.069684,0.201851,-0.424493,0.702879,0.529506
usual,0.252106,-0.541232,0.180283,-0.621557,-0.487728,0.034384,-0.345496,0.45242,-0.821825,-0.378534,0.243832,0.54754,-0.147114,-0.38019,0.281548,-0.243739,0.1436,0.3085,-0.438134,-0.728045
focus,0.25418,-0.109538,-0.461759,1.132458,1.655934,0.482798,0.432445,0.437427,0.013701,-0.661783,0.228122,0.617364,0.597862,-0.250275,-0.620688,-0.550469,0.258211,0.083405,-0.208749,0.580966
manag,-0.623087,-0.322777,-0.772482,-0.075497,0.171376,0.116945,0.526944,0.89095,-0.303623,-0.567878,-0.060611,0.321548,-0.161583,-0.654047,-0.741107,-0.524335,0.281566,-0.278613,-0.126072,0.697419
though,-0.455245,-0.15266,0.35312,1.259165,-0.063355,-0.553042,-0.74113,-0.014401,-0.325703,-0.134848,-0.411783,0.984626,0.438823,-0.145931,0.481976,-0.377022,-0.192684,0.414528,-0.997093,-0.17659
conveni,-0.521493,-0.427644,-0.145065,-0.120341,0.005126,-0.010614,0.02847,0.725005,-0.430996,-0.448562,-0.281029,-0.015642,-0.522493,-1.484747,-0.071019,0.039469,0.06022,-0.5406,0.107366,0.017979
convers,0.286351,0.568645,0.295999,-0.203121,-0.168343,0.05007,-0.001262,0.059026,-0.528737,-0.211458,0.440216,-0.166445,0.340958,0.371505,0.213976,-0.678823,0.828818,0.612458,0.227269,-0.067224
internet,0.594723,-0.812824,0.596518,0.557404,-0.300684,-1.185024,-0.005371,-0.437382,-0.086994,-0.38104,-0.826826,-0.550159,-0.384512,-1.35206,-0.362085,0.717121,0.702614,-0.379582,-0.107476,0.084442
uni,-1.556751,-0.7062,-0.506396,-0.068434,-0.508248,-0.153856,-0.980951,-0.438437,-0.73126,0.21074,0.162553,0.595039,0.302358,-0.472951,0.492909,-0.515026,0.330755,0.296006,-0.520092,0.204414
especi,-0.29733,-0.286805,-0.534337,0.033236,0.16308,-0.127073,-0.160366,0.778438,-0.061841,-0.147182,-0.243946,0.099523,0.148262,-0.511242,0.014284,-0.489884,0.154992,-0.039465,-0.502812,0.194683
hour,-0.948956,-0.606274,0.322606,-0.389426,-0.34619,-0.401843,-0.275771,0.507792,-0.133185,-0.688404,0.061656,-0.524977,-0.427643,-0.221955,-0.368947,1.270018,0.516176,-0.540532,0.263091,-0.159865
life,-0.968717,-0.946828,0.294501,-0.499485,-1.138553,-0.579855,-0.664028,-0.806092,-0.319884,-0.084048,0.272343,0.284828,0.123794,-1.242669,0.200309,-1.05049,0.403139,0.214646,0.15258,0.349781
replay,-0.817963,0.788658,0.612294,1.441465,-0.028307,0.1672,-0.260598,1.084077,-0.657034,-0.024467,-0.789415,0.834051,-0.748942,-0.857033,0.410059,-0.560622,-1.444244,-0.366161,0.978027,-0.513384
wait,-0.479767,0.083333,0.643142,-0.679156,-1.369865,-0.090144,-1.484326,1.297061,0.304208,-0.655666,0.395651,-0.321278,-0.336254,0.560062,-0.872334,1.563765,1.04931,0.361958,0.771828,-0.807701
choos,-1.660263,-0.357119,-0.710925,0.198548,0.080298,0.579359,0.23165,0.834037,-0.966605,-0.472579,-0.351527,0.043845,-0.467106,-0.652316,-0.310122,-0.131105,-0.267916,-0.911938,-0.100521,0.771362
present,-0.208996,0.169636,-0.209241,0.298179,0.261284,0.238729,-0.504657,0.288803,-0.074342,-0.156984,0.236271,0.017697,0.250148,-0.035808,0.048674,-0.381589,0.898709,0.792775,0.035058,0.648433
later,-0.650252,0.314112,0.078599,0.462959,-0.131406,0.348919,-0.203761,0.954606,-0.24836,-0.307357,0.116999,-1.023437,-0.648317,-0.722949,0.133611,0.834952,0.322385,-0.256617,1.02113,-0.254191
seminar,0.264168,-0.121938,-0.009382,-0.228873,0.220969,-0.489868,-0.325268,-0.482484,-0.773333,0.205019,-0.085185,0.160475,1.011418,-0.638453,1.01676,-0.668091,0.321977,0.460786,-0.697934,-0.556417
sinc,-0.210162,-0.187953,-0.000315,0.523675,0.324956,-0.042056,-0.286488,0.386567,-0.282487,-0.462342,-0.075244,0.135125,-0.084199,-0.975079,-0.065205,-0.256449,0.233618,0.104866,-0.012096,0.229742
import,0.629548,0.725825,0.545807,0.433827,0.116823,0.407305,-0.197063,0.403935,-0.601658,-0.137733,-0.269016,0.195957,0.044718,-0.379323,0.539209,-0.996971,-0.396758,0.404118,0.04473,-0.519069
instructor,0.304028,0.650092,0.378535,0.625038,-0.35431,-0.745299,-0.239696,-0.002551,-0.571602,-0.225485,0.452625,-0.731686,0.33705,0.022571,0.389238,-0.710392,1.073695,0.713118,0.180725,0.075806
visual,-0.509744,0.203931,0.188454,0.996822,0.898439,1.35139,-0.192422,0.503368,-0.427639,0.416727,-0.395825,0.553549,0.150582,1.271727,0.883037,-0.873602,-0.517037,0.145286,-0.616819,0.620056
close,0.192399,-1.052826,0.506441,-0.492004,-0.942588,-0.77461,-0.694463,-1.666311,-1.08159,-0.061154,0.59357,0.902371,0.649571,-0.180822,0.685552,-0.8278,0.337616,0.68958,-0.795935,-0.370267
point,0.07478,0.224523,0.395655,0.239364,-0.56224,-0.186416,-0.286642,0.605833,0.15525,0.303421,0.228662,-0.191115,-0.790223,-0.460862,0.084971,-0.008836,0.12556,0.317148,1.130418,-0.161207
product,-0.57026,-0.53776,-0.474765,0.349914,0.429085,0.013347,-0.496668,0.180769,-0.0314,-0.155482,-0.038936,0.875972,0.444074,-0.611597,-0.518509,0.198648,0.22556,-0.08081,-0.605502,0.420079
awkward,0.547955,0.076731,0.258863,0.538085,0.354032,-0.593326,-0.894018,0.25499,-0.078675,-0.606226,-0.880287,1.166536,0.76998,-0.917198,-0.82296,0.514053,0.36622,0.388442,-0.651773,-0.617351
procrastin,-0.053562,-0.124607,0.513342,1.04097,0.602469,0.098821,-0.42771,0.012106,-0.474146,-0.484719,0.122123,0.760847,0.084766,-1.221141,0.148764,0.646164,-0.186002,-0.281816,-0.001037,-0.246577
suit,-1.20655,-0.758143,-0.564494,-0.883593,-0.121416,0.972549,0.043853,1.468072,-0.930332,-0.589429,-0.266888,0.218406,-0.430836,-0.70882,-0.208665,-0.451208,-0.118981,-0.678892,-0.175979,0.352017
task,-0.996495,-0.129669,-1.227166,-0.42383,0.088755,0.674258,-0.156314,1.109873,0.023803,-0.130019,-0.124881,0.491303,-0.178997,0.176459,-0.408521,0.045885,0.607761,0.206553,-0.120307,0.43441
come,0.037853,0.194583,0.168399,-0.268086,-0.531623,0.133789,-0.950464,-0.063708,0.10504,0.061604,0.110975,-0.074577,0.186057,-1.249246,0.09009,0.137376,0.281338,0.584021,0.775759,-0.61932
group,0.413674,0.573144,-0.180362,-0.348702,0.103984,-1.001433,-0.313977,0.042794,-0.223772,-0.148617,-1.164726,-0.214386,0.856384,0.01365,-0.100851,-0.413231,0.571851,0.465392,-0.162848,-0.218877
session,-0.02735,0.221934,-0.415008,0.343163,0.374153,-0.850689,-0.252189,0.001766,-0.567076,-0.240761,-0.312447,-0.480818,0.616817,-1.304608,0.066069,0.475741,0.773674,0.081868,0.075326,-0.542459
tri,0.275338,0.079898,-0.136244,-0.206094,-0.33232,0.344313,-0.811182,1.046526,-0.325065,-0.175762,0.158476,0.375304,-0.078708,0.397664,-0.000306,0.104096,0.442791,0.658119,-0.496724,-0.204213
prerecord,-0.170528,-0.179604,-0.028154,0.357954,0.396474,0.381998,-0.356467,0.424305,-1.550186,-0.280086,0.236446,-0.379088,0.042763,-1.448225,0.945011,0.294062,0.14315,-0.207871,-0.154879,-0.670558
right,-0.055451,0.491092,0.599759,0.224773,-0.632477,-0.564155,-0.837496,0.620108,0.793884,0.51093,0.87795,0.263949,-0.599205,0.052378,-0.48231,0.320395,1.037957,1.070412,1.245866,-0.09695
straight,0.70557,0.566354,1.103821,0.062584,-1.088331,-1.093841,-0.777276,0.334538,0.970644,0.739897,1.324104,0.070026,-0.939995,0.267351,-0.092862,0.327629,1.155579,1.143525,1.713192,-0.267225
pay,1.052688,-0.230297,0.465451,1.10033,1.499366,-0.074764,0.236664,-0.399619,-0.15899,-0.878842,0.342489,0.825225,0.762407,-0.318474,-0.524503,-0.172002,0.365417,0.301689,-0.273768,0.942451
anxieti,0.46956,-0.093047,-0.104721,0.013926,0.769267,-0.580781,-0.369958,-0.688222,-0.227186,-0.57126,-0.893498,0.151535,0.86882,-0.489523,-0.614009,0.888813,0.48522,0.100488,-0.499827,-0.646658
effect,0.342331,-0.281897,-0.327114,-0.670168,0.195055,0.276798,0.251553,0.315689,-0.790797,-0.435483,-0.031607,0.827609,0.571997,0.257393,-0.550214,-0.826978,0.445623,0.139351,-0.602786,0.140331
opinion,0.809307,0.152968,0.112006,0.390782,-0.147351,-0.513933,0.181777,0.039412,-0.176722,0.331236,0.122829,-0.738117,-0.343972,0.379835,0.651285,-0.930598,0.790628,0.601323,0.207967,0.719171
plan,-1.463588,-0.448777,-0.703639,-0.177449,-0.093693,-0.067188,0.425516,0.295622,-0.935615,-1.132125,0.072484,-0.101732,-0.32997,-0.258811,-1.373537,0.508996,0.257013,-0.665326,0.105452,0.26899
powerpoint,0.40563,0.244604,0.131191,0.346145,-0.174961,1.106213,-0.519775,0.564964,-0.721615,0.227277,0.445875,-0.464339,-0.400426,0.542087,1.120592,0.489247,-0.282718,0.476656,-0.050007,-0.686576
sens,-1.292817,-0.227737,-0.511089,0.4648,-0.183611,-0.185877,0.291668,-1.10419,-0.956512,-0.734972,0.299104,0.498375,0.028886,0.089555,-0.777167,-0.851366,0.131454,0.258667,0.241121,0.27279
alon,-0.872971,0.093351,-0.708999,0.354438,-0.091445,0.275905,-0.814916,-0.008904,0.252539,0.086391,0.090441,1.39486,0.545489,0.233148,-0.666818,0.545341,0.458374,0.566103,-0.183934,0.251974
anytim,-0.947674,-0.088213,0.47847,0.641803,-0.04185,0.230109,-0.096112,0.791591,-0.909446,-0.840857,-0.469214,-0.135456,-1.191448,-1.220649,-0.21581,0.74254,-0.418732,-0.901464,0.435612,-0.066991
human,-0.063473,-0.315683,0.188921,0.654812,-0.283713,-0.445717,0.017355,-1.12105,-1.076045,-0.262847,0.340224,0.018634,0.411215,0.102122,0.1175,-0.642347,0.78575,0.334353,-0.486882,0.655875
requir,-0.286428,0.272395,-0.418267,0.429839,1.045797,-0.039552,0.220491,0.197963,-0.552411,-0.468516,0.033053,0.050254,0.747515,-0.468103,-0.170785,0.210559,0.628229,0.051654,0.22383,0.105927
you’r,-0.566608,0.50712,0.333427,0.432658,0.245018,0.02461,-0.310344,-0.199894,-0.192623,0.0729,-0.408264,0.434067,0.346565,-0.237501,0.188775,-1.015548,0.361971,0.235662,0.445272,0.863028
around,-0.907522,-0.502912,-1.150416,-0.118367,0.597174,0.152789,0.384248,0.706749,-0.507864,-0.291029,-0.39054,-0.13812,-0.014325,0.07543,-0.760076,-0.220939,0.196057,-0.615788,-0.330309,0.752078
form,0.235843,-0.039202,0.108881,-0.06185,-0.180286,-0.092227,0.291139,-0.311595,-1.087497,-0.284795,-0.018526,0.139399,0.413726,0.377705,0.353886,-1.073592,0.588852,0.356286,-0.369846,0.130098
may,-0.007941,0.30109,-0.241032,-0.092135,-0.025394,-0.550843,-0.255567,0.788123,0.530019,0.040193,-0.013749,-0.435898,-0.126603,-1.048018,-0.169691,-0.004933,0.38579,0.172567,0.471887,-0.109144
sure,-0.054395,0.682406,0.188455,1.18647,0.424315,0.410938,-0.262789,0.54856,-0.259026,-0.036392,-0.259769,0.987276,-0.176932,-0.03727,-0.188915,-0.587691,-0.64343,0.420505,0.711564,0.296166
doubt,1.118801,0.686503,0.640279,-0.056041,-0.663658,-0.705891,-0.279103,0.139036,0.540824,0.192524,0.589276,0.16163,-0.241852,0.338638,-0.420904,-0.500716,0.75744,1.042526,0.668614,0.09005
enjoy,-0.179547,0.294797,0.052223,0.324932,0.168233,0.112271,-0.490497,-0.010003,-0.971873,-0.381487,-0.503471,-0.243136,0.323006,0.0131,0.452148,-0.588073,0.691068,0.43334,-0.187152,0.148447
put,-0.367813,0.031237,0.04985,0.294154,0.038483,0.038525,-0.54256,0.20552,0.244986,-0.192329,-0.228077,0.648834,-0.04883,0.004289,-0.356343,0.432765,0.561111,0.401148,0.285987,0.065161
whilst,-0.858495,0.142448,-0.183213,0.224321,-0.142578,0.777351,-0.127731,0.658767,-0.238578,-0.275294,-0.0635,-0.069521,-0.502851,0.70777,-0.040032,-0.333384,0.762295,0.53962,0.475834,0.88824
comfort,-0.778118,0.010248,0.219693,0.691861,-0.16055,-0.029276,-0.808142,-0.115349,-0.052711,-0.224717,0.105564,0.815902,0.331547,-0.369184,-0.245624,0.181433,0.359563,0.346784,0.049466,0.159049
learner,-0.824794,0.27458,-0.306533,0.848171,1.034155,1.40066,-0.097196,0.441257,0.089196,0.627396,-0.247459,0.433662,0.301224,1.337754,0.56476,-0.54906,-0.433319,-0.093055,-0.62032,0.613725
quit,0.162498,-0.024387,-0.462814,0.2388,0.44253,0.190341,-0.510196,0.860325,0.318579,0.149191,-0.322633,1.082163,0.256391,-0.594316,-0.057234,-0.156338,-0.319713,0.249133,-0.457026,-0.440343
struggl,-0.217647,-0.113513,-0.400164,0.374519,0.671649,0.345265,-0.342324,0.968427,-0.007372,0.028764,-0.059431,0.411787,0.021461,-0.489861,0.058299,-0.269239,0.263994,0.271965,-0.194555,0.185401
therefor,-0.391219,-0.220412,0.069121,0.266609,0.022566,-0.050746,-0.265047,0.25458,-0.525613,-0.19012,0.042783,0.449549,0.252922,-0.408337,-0.023097,-0.562115,0.379545,0.097887,-0.177042,0.458239
creat,-1.394879,-0.422597,-0.73522,0.361415,0.484451,-0.115972,0.434216,-0.668509,-0.825301,-0.597233,0.323809,0.037511,0.348251,0.074921,-0.712863,-0.506919,0.355349,0.015016,0.00837,0.320549
interest,0.674217,0.231684,0.450052,0.667856,0.361845,-0.001211,-0.080442,-0.000555,-0.276533,-0.218959,0.223202,1.116061,0.359396,-0.44422,-0.286741,-0.672502,0.249446,0.397949,0.154092,0.220135
long,-0.540308,-0.30219,0.829512,-0.470635,-0.029806,-0.116307,-0.586444,1.065964,0.086169,-0.785864,-0.725814,0.32186,-0.676297,-0.273175,-0.224046,1.157649,-0.152656,-0.583708,0.205365,-0.324496
physic,0.252909,-0.522154,0.081065,-0.251094,-0.354803,-0.104424,-0.532719,-0.354391,-0.611948,0.27112,0.297039,0.341626,0.349156,-0.027119,1.079226,-1.052535,-0.000612,0.646304,-0.830354,-0.13859
univers,-0.845922,-0.692288,-0.309706,-0.211982,-0.252768,-0.283579,-0.377511,-0.785582,-0.782904,0.130456,0.051439,0.030561,0.52575,-0.704883,0.798611,-0.321593,0.048539,-0.078159,-0.779988,-0.16407
wherea,-0.179818,0.38933,-0.806072,0.273382,0.2679,0.300897,-0.692523,0.758554,-0.709578,-0.032392,0.531274,-0.003683,0.667652,-0.586887,0.388436,0.650386,0.689696,0.608567,-0.150079,-1.160979
due,-0.133684,-0.348618,-0.50183,0.068206,0.433078,-0.414856,0.37072,-0.065372,0.12743,-0.228776,-0.254123,-0.429888,0.447058,-0.891197,-0.566898,0.37787,0.513192,-0.321213,0.080699,-0.011306
forum,1.082711,1.070047,-0.280052,-0.171959,0.627219,-0.7049,-0.342083,0.344151,-0.868674,-0.218789,-0.556854,-0.71163,1.059923,-0.291613,0.481307,0.133645,0.857399,0.517604,-0.472595,-1.214604
instant,0.488124,-0.079866,0.271878,-0.092489,-0.675653,-1.096578,-0.734413,-0.531533,0.88897,0.269446,1.14454,-0.238294,-0.184914,0.4077,-0.868294,0.453157,2.020603,1.073376,0.882391,0.66722
issu,0.462333,-0.511318,0.412899,0.279547,-0.144924,-1.131694,-0.211224,-0.799712,0.535674,-0.218069,-0.51506,0.171826,0.311502,-0.800296,-0.831007,0.614235,0.775881,-0.086914,0.036683,-0.095369
can’t,-0.038787,-0.230716,0.09057,0.555134,-0.102942,0.118907,-0.633988,0.021377,0.44245,0.266347,0.100789,0.258817,-0.233778,-0.556567,0.261804,0.093209,0.552331,0.380091,0.415654,0.568361
cant,0.403944,0.081443,0.27296,0.346146,0.417469,-0.244077,-0.105524,0.392402,-0.31576,-0.388067,-0.16301,-0.054411,0.059851,-0.52876,-0.008887,-0.060186,0.323396,0.1419,0.215071,-0.196522
didn’t,0.473473,0.615919,0.151159,0.474078,-0.699068,0.008651,-0.565363,1.257646,0.578253,0.624209,-0.046059,0.514408,-0.363479,-1.021828,0.472157,-0.191128,-0.604603,0.473431,0.829947,-0.886588
easiest,0.908123,-0.408633,0.047505,-0.317616,0.038395,0.2337,0.299562,0.527968,-0.53428,-0.336772,0.335769,1.121963,0.073667,-0.123423,-0.638487,-1.302248,-0.007608,0.122128,-0.511374,0.277645
new,0.519893,0.62912,-0.744097,-0.040173,0.315326,0.685894,0.628516,0.982275,-0.49687,-0.01033,0.317886,-0.103034,0.191212,0.375659,-0.131679,-1.11351,0.537165,0.655081,0.197571,-0.03892
receiv,0.084508,0.141253,0.077767,0.06805,-0.629673,-0.502484,-0.401737,0.303362,0.084042,0.1205,0.861091,-0.24013,-0.498789,0.392097,-0.039017,-0.455489,1.423784,1.067825,0.560342,0.304243
enabl,0.095396,0.624884,-0.533381,0.021748,-0.158383,-0.049141,0.562348,0.502305,-0.682787,-0.063087,0.361933,-0.482145,0.00616,0.037092,0.245783,-0.727058,0.684973,0.399637,0.181234,0.054585
problem,0.464898,-0.165539,-0.056229,-0.06174,-0.17301,-0.76782,-0.18031,-0.015176,0.099105,-0.349713,-0.271807,-0.164843,0.371177,-0.13131,-0.445466,0.331732,0.84087,0.134658,-0.259131,0.028288
process,0.418306,0.418913,0.155247,0.061765,0.589166,1.007669,0.638858,1.235147,-0.500117,-0.673725,-0.182031,0.27096,-0.525896,0.117926,-0.323018,-0.491629,-0.028265,-0.065749,0.292046,0.294712
avail,-0.264052,0.227155,-0.023295,-0.01582,-0.53977,-0.574022,-0.246318,0.329603,-0.403089,-0.354762,0.006188,-0.790397,-0.314608,-0.913229,-0.03823,0.640699,0.674528,-0.197084,0.247642,-0.323149
great,-0.127911,-0.298834,0.166136,0.171506,-0.001011,-0.443784,-0.396502,-0.057533,-0.726063,-0.056823,-0.247292,-0.285255,0.09928,-0.957236,0.725118,-0.343561,0.34608,-0.021243,-0.369945,-0.165428
harder,0.790237,-0.385627,0.102427,0.523586,0.701034,-0.094518,-0.427652,0.524556,-0.098406,-0.368302,0.317295,1.028155,0.165111,-1.1436,-0.220547,-0.101603,0.107056,0.111693,-0.524861,-0.157717
level,0.421372,0.139313,-0.198861,0.139897,0.302161,-0.112895,0.3867,0.068156,-0.379166,-0.084527,0.083098,0.094268,0.067646,0.526444,-0.015267,-0.61942,0.365322,0.364262,-0.255261,0.074334
depth,0.532553,0.775996,-0.253479,0.192617,-0.388824,0.715458,0.14196,1.026077,-0.062785,0.122066,0.34945,-0.082226,-0.523179,0.512668,0.198829,-0.45954,0.213894,0.776705,0.807387,-0.283486
friend,0.091926,-0.217696,0.500564,0.680751,-0.891813,-0.532038,-0.335271,-0.356846,-0.676015,0.081187,0.102568,-0.78229,-0.379707,0.477913,0.665399,-0.569396,0.716361,0.315176,-0.385195,1.005454
practic,0.302775,-0.066207,-0.003139,-0.178067,0.218474,-0.072686,0.521605,0.415128,-0.01645,-0.320871,-0.08065,-0.126363,-0.256564,0.029361,-0.245412,-0.523096,-0.078337,-0.138706,-0.095409,0.37838
say,0.24502,0.283432,0.5204,0.344925,-0.459723,-0.116183,-0.652628,0.591245,-0.497059,-0.00156,-0.03602,-0.040322,-0.526792,0.092328,0.508542,0.055693,-0.096014,0.250997,-0.208409,-0.503736
sit,-0.791915,-0.646369,0.102187,-0.045675,0.114141,0.312848,-0.657888,0.160823,-0.445149,0.066747,0.203657,0.460987,0.449977,-0.640057,0.495607,0.156079,0.071914,-0.071409,-0.415633,0.205149
via,0.374987,0.679845,0.288792,-0.221789,-0.448983,-0.637503,-1.31994,0.693479,-0.402556,-0.451056,-0.401269,-0.80396,0.242686,0.038955,-0.184106,0.758245,1.065882,0.700912,-0.069599,-1.154833
room,0.332962,0.377585,-0.045331,-0.266325,0.048309,-0.659135,0.190159,-0.33227,-0.318398,-0.019928,-0.13877,-0.193213,0.651673,0.04248,0.040307,-0.756455,0.525343,0.435009,-0.12932,0.057328
clear,0.905532,0.33364,0.26916,-0.110788,-0.487442,-0.433097,-0.157347,0.178367,0.488814,0.175815,0.411597,0.039143,-0.328627,0.324006,-0.339844,-0.342916,0.611968,0.671726,0.441094,0.167412
compar,0.034427,-0.122443,-0.379902,-0.294284,0.017594,0.180257,-0.367512,0.174092,-0.947939,-0.04454,0.351362,-0.008495,0.620896,-0.733997,0.467913,0.093553,0.307976,0.182881,-0.280769,-0.826341
properli,0.363217,0.144529,-0.247903,0.058195,-0.44658,0.084672,-0.370172,0.859447,-0.132267,0.142702,0.20096,0.196487,-0.196054,0.198256,0.202744,-0.380041,0.567025,0.753995,0.15513,-0.178052
week,-0.981427,-0.275856,-0.659295,-0.554542,0.187481,-0.520757,-0.209746,0.208242,-0.183012,-0.682145,0.034847,-0.729745,0.198758,-0.227193,-0.849317,0.949816,0.772695,-0.238205,-0.042308,-0.210813
although,0.279964,-0.149171,-0.031352,-0.239116,-0.0252,-0.433643,-0.159686,-0.027799,-0.640992,-0.153002,-0.116096,-0.247646,0.341421,-0.695971,0.475225,-0.201183,0.459371,0.06473,-0.529838,-0.275315
first,-0.037116,0.338016,-0.266392,0.172669,-0.404142,0.161097,0.242257,1.423119,0.56657,0.420522,-0.109778,0.25118,-0.634794,-0.580457,-0.132131,-0.251193,-0.21995,0.154006,0.908616,0.023346
seem,-0.451934,-0.466381,0.050557,0.056975,-0.246317,0.079643,-0.528477,-0.308277,-0.584059,-0.154347,0.01546,0.646155,0.134365,-0.213657,0.139649,-0.342736,0.209961,0.309912,-0.168823,0.162459
spot,0.422887,0.503015,0.520707,-0.047347,-0.96882,-0.488203,-0.797646,0.423093,0.61408,0.1481,0.54772,0.200291,-0.386535,-0.071044,-0.191615,-0.254721,0.934344,1.0151,0.790863,-0.03297
wast,-0.513445,-0.457285,-0.052504,-0.480777,-0.344184,-0.207381,-0.641098,0.830289,-0.007915,-0.40423,-0.456016,0.963741,0.140109,-1.008138,-0.638824,0.554395,0.427498,-0.041328,0.007485,-0.354166
faster,0.12678,-0.214416,0.323285,-0.050762,-0.011005,0.721221,-0.033166,0.714613,-0.504915,-0.367166,-0.005968,0.527325,-0.332116,-0.254022,-0.167349,-0.716635,0.027993,0.060537,0.373442,0.371183
gain,0.742317,0.885574,-0.049946,0.570037,0.04966,0.100998,0.808247,1.017679,-0.342462,-0.20661,0.759154,-0.313613,-0.558777,0.157233,0.221253,-1.065316,0.50186,0.586668,0.596686,0.04605
involv,0.277507,0.631317,0.189639,0.407947,0.489659,-0.333602,-0.021253,-0.275599,-0.383479,-0.233748,-0.056976,0.241411,0.738528,0.356324,-0.03349,-0.448939,0.848062,0.58107,-0.018009,0.369731
organ,-0.77791,-0.117192,-0.502066,-0.322232,0.228319,0.069967,0.325723,0.430644,-0.824686,-0.569717,-0.280992,0.476732,0.196107,-0.569311,-0.834823,-0.364357,0.027646,-0.482366,-0.166612,0.108751
resembl,0.294092,-1.123269,0.200647,-1.063092,-0.795614,-1.082814,-0.89181,-1.196596,-0.621174,0.000353,0.195951,0.383528,0.933974,-0.715428,0.903451,-0.414841,0.11272,0.354643,-1.572505,-0.534225
least,-0.706307,0.137064,-0.080467,0.742597,0.085227,-0.423236,-0.117831,-0.828773,-0.502529,-0.267367,-0.105792,0.434886,0.65313,-0.451928,-0.127828,-0.256985,-0.007193,0.073398,-0.145436,0.058879
necessari,-0.117674,0.465493,0.340936,0.724849,0.14971,0.189626,-0.092772,0.559419,-0.387493,-0.259598,-0.148425,-0.443925,-0.689166,-0.493877,0.272895,-0.138034,0.11867,0.118527,0.771062,-0.104156
almost,-0.160062,-0.111459,0.424562,0.247874,-0.315067,-0.693519,-0.936203,-0.643161,-0.2024,-0.013979,0.154463,0.901477,0.494434,-0.427064,-0.003021,-0.295331,0.600323,0.649797,-0.209699,0.071342
doesn’t,-0.576963,0.009349,0.33543,0.539566,0.235788,-0.188722,-0.529282,-0.406353,-0.300659,-0.399991,-0.513027,0.596948,0.367441,-0.199674,-0.098264,0.143118,-0.125255,0.096484,-0.115417,-0.098954
fit,-1.305102,-0.776675,-1.241727,-0.132257,0.867652,0.74585,0.58537,0.753279,-1.246085,-0.67123,-0.064934,0.08105,-0.071024,-0.406685,-0.669747,-0.261343,-0.133266,-0.909193,-0.302643,0.500139
hold,0.064133,-0.125298,-0.91316,-0.35491,1.15772,-0.260111,0.28319,-0.343174,-0.315888,-0.265368,-0.008388,-0.065646,1.424157,-0.509304,-0.202144,-0.87851,0.987271,0.077716,-0.25744,0.651494
oppos,-0.196259,-0.126388,-0.547534,-0.239813,-0.009251,0.673678,-0.273507,0.817721,-0.442726,0.061172,0.437363,0.045952,-0.038746,-0.287198,0.18448,0.59143,0.349022,0.101584,-0.003477,-0.483528
slow,-0.337383,0.091586,0.827307,0.704094,0.010176,-0.193125,-0.405798,0.030284,-0.265137,0.041267,-1.339933,-0.226654,-0.644898,-0.794372,0.45049,0.435642,-0.308032,-0.491512,0.494325,-0.054951
amount,-1.079593,-0.367567,-0.671881,-0.505238,-0.123894,0.150484,0.08819,0.563863,0.033521,-0.196983,-0.188003,0.125161,-0.211823,-0.015464,-0.54014,0.30957,0.472168,-0.15603,0.046407,0.266756
break,-0.342037,0.180884,0.811277,0.405126,0.504123,-0.037885,0.010896,0.755506,-0.449898,-1.120756,-0.718624,0.318587,-0.791872,-0.459589,-0.296186,0.034588,-0.311213,-0.197718,0.4187,0.035616
far,0.574765,-0.064353,-0.080209,0.246903,0.418727,0.065519,-0.183782,-0.157633,-0.668657,-0.506491,0.559995,0.434167,0.710237,0.090196,-0.222938,-0.475682,0.74253,0.571439,-0.584208,0.192207
knowledg,0.381658,0.585585,-0.029275,-0.356995,-0.084703,0.089056,0.694491,0.271691,0.027403,0.09915,0.194397,-0.146112,-0.226271,0.850957,-0.112636,-0.639855,0.223935,0.1911,0.286228,0.124961
languag,-0.112449,-0.222171,-0.34745,-0.126382,-0.088274,0.217469,0.817101,0.190406,-0.082594,-0.125206,0.008545,-0.04699,-0.404372,-0.008959,-0.302096,-0.947767,-0.737798,-0.583948,-0.361355,0.40884
plu,-0.275858,-0.016503,0.212661,0.185036,-0.539993,-0.431639,-0.186694,0.314772,-0.444662,-0.188983,0.084527,-0.180511,-0.546103,-0.593264,0.071627,-0.323176,0.402751,0.143563,0.403898,0.194195
regular,-0.596963,-1.093309,0.007993,-0.704531,-0.261335,-0.391143,-0.60086,-0.886448,-0.698943,-0.555963,-0.082422,0.803979,0.592402,-0.572232,-0.177568,-0.362092,-0.135375,0.086413,-0.769889,-0.295069
slide,0.431307,0.081653,-0.140685,0.181045,-0.017952,0.92726,-0.098636,0.721305,-0.704563,0.311359,0.537666,-0.814768,-0.640501,-0.04564,1.562293,0.555043,-0.211432,0.114997,0.131234,-0.803393
zone,-0.530279,-0.346458,-0.383058,-0.146255,0.195577,-0.349588,0.412918,0.448441,0.084076,-0.064082,-0.179666,-0.129729,-0.16599,-1.197497,-0.352962,-0.155387,0.30064,-0.510855,0.260714,0.320927
confus,-0.243394,0.393283,0.164057,0.264667,-0.309415,0.107625,-0.528478,0.500613,0.408494,0.052793,-0.011237,0.23257,-0.355038,0.105535,-0.373646,0.45169,0.375809,0.383739,0.676547,0.12509
fast,-0.235162,0.367095,0.386701,0.319579,-0.108813,0.534546,-0.379464,0.412081,0.180559,0.048641,-0.897322,-0.201089,-0.72553,-0.196848,0.31763,0.430844,-0.142253,0.144281,1.188142,0.008751
happen,-0.015089,-0.429262,-0.076662,-0.098367,-0.264571,-0.797705,-0.247058,0.083986,-0.155747,-0.210877,0.114382,0.154315,0.311935,-1.324755,0.008663,-0.460222,0.202333,0.14417,-0.127908,-0.387203
repli,-0.122133,0.192679,0.473765,-0.58646,-0.770678,-0.372926,-0.931121,0.579485,0.519071,-0.37505,0.465963,-0.601686,-0.379005,0.612936,-0.805386,1.265147,0.949308,0.348498,0.813112,-0.571795
revis,-0.022011,0.422083,0.07296,0.371717,0.112657,0.425562,-0.385063,0.963181,0.080493,-0.259281,-0.366387,-0.220902,-0.564588,-0.71055,-0.032082,0.025285,-0.108521,0.150892,0.634024,-0.325925
share,0.920344,0.338116,0.445853,-0.022769,-0.158513,-1.056055,0.175949,-0.963943,0.398163,0.055087,0.142272,-0.722682,0.197492,0.364029,0.148506,-0.613911,0.849018,0.595497,0.335118,0.772965
skip,-0.388809,0.298427,0.109377,0.417409,0.176196,0.788275,0.176471,0.657247,0.132468,0.184228,-0.384327,0.448926,-0.441829,-0.874516,0.286806,0.18096,-1.137673,-0.320578,0.877822,-0.289723
stuff,-0.169889,0.444832,-0.2071,0.005525,-0.179852,0.332413,-0.509629,0.570318,0.236549,0.378722,-0.041469,0.11478,-0.126605,0.223513,0.084819,0.080908,0.132413,0.465722,0.302945,-0.217658
togeth,-0.424355,0.019566,-0.467674,-0.406402,-0.154289,0.001367,-0.429241,-0.044232,-0.545041,-0.149811,-0.209452,0.33992,0.62851,0.332568,-0.066466,-0.298274,0.727592,0.555697,-0.309492,0.136932
benefit,-0.297591,-0.065066,-0.071205,0.004525,-0.268566,0.040364,-0.234082,0.215587,-0.439514,0.049539,0.187921,-0.231039,0.04324,0.5501,0.226249,-0.500426,0.538548,0.384375,-0.255269,0.352697
decid,-1.317745,-0.375039,-0.359125,0.222067,0.200415,0.503949,0.256782,0.579477,-0.49275,-0.408904,-0.393828,0.222415,-0.586945,-0.682102,-0.443984,0.474281,-0.260571,-0.882569,0.183387,0.460683
exampl,0.259572,0.206843,-0.084295,-0.039338,-0.15242,-0.340247,-0.369796,0.41318,-0.198225,0.141657,0.075042,-0.154773,0.185341,-0.354111,0.350384,-0.281481,0.271513,0.436641,-0.155033,-0.437839
might,0.386864,0.122071,0.054825,-0.082986,-0.138786,-0.461474,-0.233704,0.493045,0.236164,-0.064541,0.031628,-0.263262,-0.043529,-0.791696,0.153568,-0.072348,0.474117,0.208505,0.291841,-0.287612
pre,-0.275512,-0.109192,0.010425,1.067978,0.324195,0.12954,-0.612281,-0.132999,-1.068656,0.116681,0.315429,-0.187428,0.408947,-1.345823,1.369302,0.516221,-0.18808,-0.048553,-0.310763,-0.759552
quickli,0.467862,0.22694,0.329183,0.086431,-0.169183,-0.112784,-0.534724,0.654359,0.56267,0.254894,0.302871,-0.050975,-0.631988,-0.194274,-0.123391,0.005431,0.544677,0.448704,0.433534,0.202535
repeat,-0.457019,0.563299,0.396158,0.528998,-0.475141,-0.004924,-0.19866,0.816949,-0.128881,0.100763,-0.205751,0.171848,-0.551234,-0.652947,0.35978,0.026457,-0.896585,-0.244149,0.783025,-0.515731
research,-0.402488,0.472785,-0.008395,0.181461,-0.212322,0.483141,0.008203,0.808864,0.074848,0.211187,-0.355128,0.180576,-0.820396,0.243112,-0.103244,-0.15841,-0.281873,0.066455,0.828857,0.127047
resourc,-0.369415,0.409912,-0.329741,-0.252232,-0.159654,0.530681,-0.686525,0.28798,-0.606288,-0.429708,-0.368419,-0.123672,-0.052812,-0.1266,-0.106048,0.803256,0.005909,-0.072505,-0.145166,-0.737965
contribut,0.157622,0.196227,-0.006015,-0.108894,0.080294,-0.426522,-0.067869,-0.187209,-0.224121,-0.095264,-0.256966,0.273301,0.703078,0.10609,-0.135528,-0.068517,0.570854,0.236928,-0.078379,0.031474
free,-1.460068,-0.176597,-0.279593,0.064708,-0.135798,0.276368,-0.030724,0.358625,-0.266494,-0.289116,-0.446031,0.641605,-0.333383,-0.622348,-0.538608,0.18982,-0.186912,-0.553984,0.200565,0.541576
info,0.336844,0.244938,0.419926,0.146227,0.243961,0.377606,0.027806,0.505676,0.065414,-0.245845,-0.029624,0.021966,-0.635525,-0.087758,-0.037944,0.219361,0.1156,0.04689,0.592277,0.039942
send,0.125173,0.899206,-0.139539,-0.24607,-0.564282,0.083052,-1.02752,0.827512,-0.236068,-0.219191,0.165168,-0.975484,-0.034813,0.540369,0.008078,0.802149,1.058953,0.691017,0.206578,-0.877749
type,0.009238,0.188784,0.060225,-0.212236,0.038598,0.116642,-0.148489,0.381668,-0.078436,-0.202203,0.02177,0.054655,0.24545,0.258614,-0.409658,-0.104454,0.423628,0.273514,0.209374,-9.3e-05
voic,0.217548,0.070837,0.342895,1.325669,-0.47787,0.050272,0.044301,0.135638,-0.638308,0.26059,0.520116,-0.986424,-0.769241,0.488654,1.216278,-0.32118,0.233776,0.362907,0.34395,0.489852
depend,-0.311543,-0.17896,-0.147863,-0.045646,-0.29024,-0.548409,0.079106,0.166139,-0.211304,-0.129781,-0.209916,-0.011559,0.140864,-0.208322,-0.315649,-0.200888,0.336019,-0.12642,-0.280739,0.195498
didnt,-0.157389,0.362958,0.046356,0.552762,-0.379474,0.246841,-0.362854,1.069188,0.370051,0.724666,0.11254,0.879018,-0.447601,-0.454149,0.376234,-0.290604,-0.758561,0.264789,0.597509,-0.431089
facetofac,0.24634,-0.684613,0.237121,-0.492006,-0.478655,-0.387991,-0.163117,-0.825087,-0.722652,0.127353,0.34095,0.192861,0.542491,-0.263072,0.549383,-0.437217,0.038419,0.18788,-0.502726,-0.472121
googl,-0.142306,0.071533,-0.570775,-1.435095,-0.133425,-0.185698,-1.547672,0.108243,0.196117,0.477593,-0.486078,0.195084,1.002266,-0.213741,-0.090705,0.072779,0.242109,0.425726,-0.9813,-1.069948
maintain,-0.753435,-0.279274,-0.574462,0.62317,0.444532,-0.445034,0.490626,-0.637494,-0.04018,-0.545724,0.126078,-0.133685,0.221412,0.087137,-0.829018,-0.522125,0.407092,0.154814,-0.05293,0.515927
review,-0.448104,0.48931,0.271784,0.378859,-0.001502,0.760174,-0.217735,0.934887,-0.420698,-0.095139,-0.362192,-0.635815,-0.848901,-0.482082,0.526691,0.381853,-0.016014,-0.114635,1.026386,-0.243823
self,-0.123131,-0.059901,-0.40423,0.278035,0.802344,0.356624,0.301766,-0.439868,-0.493961,-0.433333,0.214665,0.333553,0.550931,0.223664,-0.340744,0.166922,0.083076,-0.151445,-0.763147,0.44842
start,-0.776938,-0.064595,0.321372,0.286654,0.223745,-0.1929,-0.301241,0.070721,-0.211353,-0.564586,-0.499601,0.073418,-0.406867,-0.64627,-0.384233,0.688045,-0.280732,-0.524167,0.408715,0.127401
view,0.161412,-0.026844,-0.203639,-0.006194,-0.083775,0.153769,0.464796,0.7156,0.191782,0.320314,0.123994,-0.562931,-0.732965,-0.040603,0.347939,0.047576,0.118984,-0.102063,0.706876,0.152699
written,0.490943,0.133738,-0.079852,-0.058312,0.224874,0.93922,0.029152,0.7763,-0.546573,-0.024529,0.264386,0.167802,-0.366181,0.585751,0.407074,-0.116813,-0.156743,0.151189,-0.274212,-0.274443
year,-0.219718,-0.234023,-0.219451,0.491921,0.108871,0.121299,0.276156,-0.217387,-0.274197,0.602779,0.014118,-0.768077,0.055588,-0.765252,1.329026,0.346415,-0.3722,-0.403724,-0.031685,-0.514238
benefici,0.064567,0.031145,-0.300034,-0.051767,0.464699,0.189249,-0.199407,0.298569,-0.657501,-0.283999,-0.074402,-0.215546,0.329463,0.279569,0.191083,-0.4583,0.527362,0.208599,-0.683658,0.238442
catch,0.612911,0.334544,0.577263,0.296917,-0.211266,-0.24001,-0.262138,0.404287,0.279284,0.01429,-0.049277,-0.014587,-0.448058,-0.6185,0.206409,0.25555,-0.185545,0.142207,0.666859,-0.438082
hand,-0.07339,0.252433,-0.135219,-0.087,-0.236418,0.164275,-0.243999,0.629513,0.384059,0.072469,0.142796,-0.122228,-0.304418,-0.111364,-0.291259,0.485179,0.527176,0.230018,0.463391,-0.113726
inperson,0.306279,-1.134574,0.384135,-0.799519,-0.636638,-0.558877,-0.543802,-0.804681,-0.541621,0.137781,0.40493,0.595447,0.669201,-0.901931,0.93996,-0.957938,-0.177135,0.370308,-0.821893,-0.555546
love,-0.000891,0.10344,0.249318,0.0,-0.016826,-0.054539,-0.07359,-0.054891,-0.59577,-0.138177,-0.040833,-0.328258,0.06336,-0.084853,0.48232,-0.437441,0.371399,0.078718,-0.032399,0.248356
organis,-0.078493,-0.367638,-0.501496,0.008671,0.582977,0.179655,0.436888,0.292856,-0.091961,-0.5723,0.094571,0.307305,0.028422,-0.175603,-0.874098,-0.21533,0.14708,-0.191328,-0.098241,0.509098
place,0.063132,-0.099649,0.72549,-0.291187,0.313773,-0.512619,0.269201,0.79896,-0.130768,-0.762719,-0.829963,0.103842,-0.347144,-0.820084,0.069038,-0.199122,-0.106405,-0.432292,-0.0022,0.254328
replic,-0.135033,-0.718756,-0.08205,-0.583851,-0.229815,-0.498934,-0.215956,-0.878103,-0.275739,0.158167,0.382812,0.529336,1.16631,0.229155,0.220149,-1.3324,0.281478,0.350621,-1.281266,0.143078
tend,0.366018,0.039933,-0.02613,0.435573,0.52875,0.067904,-0.1713,0.323049,-0.304604,-0.075245,0.029352,-0.191499,-0.143101,-0.514656,0.315669,0.843854,0.251865,-0.146219,-0.189665,-0.243136
there’,-0.341682,-0.082608,0.185921,0.196823,-0.215755,-0.461068,-0.309747,-0.502941,0.043748,-0.238501,-0.011078,0.401398,0.302459,-0.165404,-0.407743,-0.091664,0.699958,0.326126,0.165619,0.270678
combin,0.187645,-0.014982,-0.591695,-0.11923,0.510873,0.044197,-0.555624,-0.141848,-0.982889,0.067739,-0.186026,-0.351446,0.997651,-0.473417,0.875407,0.42401,0.438342,0.176559,-1.045272,-0.920152
spend,-0.577476,-0.257672,0.015462,-0.074287,0.09847,0.148773,0.439897,0.682687,-0.232796,-0.697819,-0.315081,0.447371,-0.240451,-0.669476,-0.778258,0.135934,-0.321549,-0.725514,0.162002,0.221529
support,0.083873,-0.068245,-0.201396,-0.004402,-0.40217,-0.515956,-0.224963,-0.02998,0.106719,-0.101196,0.366156,-0.462877,-0.156747,0.19255,-0.299724,0.34627,1.068217,0.341237,0.005644,0.250467
timet,-0.754635,-0.544896,-0.810217,-0.133767,0.455394,0.182391,0.059006,0.109128,0.016741,-0.171691,0.204058,0.350011,0.292886,-0.09156,-0.649275,0.425305,0.287014,-0.274257,-0.244365,0.249425
tutori,0.423351,-0.092701,-0.164844,-0.462721,0.098532,-0.52078,-0.135037,-0.235215,-0.138496,0.065895,0.108779,-0.600269,0.489755,-0.375165,0.420255,0.207261,0.499434,0.179907,-0.294676,-0.530057
whole,0.337256,-0.137948,-0.069484,-0.275465,0.124303,-0.221052,-0.121474,0.277347,-0.294964,-0.176973,-0.045011,-0.079281,0.179385,-0.310104,0.198807,-0.263881,0.308878,0.228781,-0.163731,-0.195992
aspect,-0.346066,0.026862,0.289796,0.247282,-0.277577,-0.332427,-0.250621,-1.742479,-0.278325,0.24096,0.480352,-0.352805,0.601071,0.577343,0.353741,-0.281415,0.226018,0.34735,-0.155167,0.462147
base,0.598347,0.415387,-0.360736,-0.613996,0.523794,-0.22699,0.469322,0.179229,-0.389285,0.025113,-0.359729,-0.272638,0.667288,-0.001721,0.205489,-0.418546,0.299704,0.060307,-0.438579,-0.350538
educ,0.043175,-0.519828,0.168452,-0.424094,-0.491923,-0.370979,-0.228714,-0.700638,-0.140798,0.135431,0.242371,0.443558,0.089351,-0.364954,0.181597,-0.356202,-0.000719,0.11056,-0.185865,-0.246158
enough,-0.152484,-0.063047,-0.295849,0.282745,0.234657,-0.01572,0.345782,0.569858,-0.067919,-0.206591,-0.236164,-0.063523,-0.179493,-0.633063,-0.276961,-0.115536,0.075579,-0.19502,0.180713,0.250274
gener,0.679404,-0.338144,-0.158608,-0.028836,0.208598,0.118061,-0.107434,0.181635,0.103719,0.146604,0.219229,0.34041,-0.096828,-0.024381,0.06027,-0.314164,0.176667,0.288918,-0.424691,0.176393
quick,0.434741,0.247128,0.619586,-0.184282,-0.625013,-0.754045,-0.030799,-0.210713,0.597452,-0.488389,0.614178,-0.700092,-0.465271,0.075174,-0.598491,0.09671,1.432327,0.445514,1.168881,0.660823
refer,0.026779,0.44262,0.470942,0.273152,-0.195259,0.81464,-0.691104,0.275956,0.17576,0.200453,-0.322975,-0.581026,-0.183873,-1.551163,0.70474,0.634815,-0.525,-0.030682,1.277638,-0.729667
along,0.874647,-0.024375,0.266111,0.074391,0.604103,0.395258,0.256566,0.82135,0.11025,-0.803821,0.269276,0.585352,-0.524689,-0.614843,-1.165461,-0.198794,0.182619,-0.054343,0.761182,0.215309
anoth,0.141235,0.016884,0.111381,-0.360433,-0.585663,-0.748134,-0.076274,0.22373,-0.521147,-0.43522,-0.14903,-0.759301,0.087457,-0.847902,0.597388,-0.477731,0.445075,-0.164536,-0.791641,0.22198
behind,-0.287973,-0.544275,-0.292454,0.182073,0.054814,-0.005399,-0.004848,-0.540099,0.531008,0.549282,0.253082,0.289275,-0.028539,-0.086054,0.09243,0.68219,-0.103682,-0.11921,0.003182,0.22752
collabor,0.689403,0.671085,0.374109,0.183413,0.399549,-0.581449,0.141537,-0.044045,-0.288147,-0.215495,-0.075846,-0.302405,0.706789,0.11242,0.06956,-0.615581,0.159598,0.420416,-0.099492,-0.048083
els,0.625184,0.203605,-0.078446,-0.015116,-0.636419,0.371164,-0.052796,0.6343,0.099751,0.819968,-0.04985,-0.025431,-0.610724,0.772393,0.988057,-0.217292,-0.454619,0.323059,-0.190673,-0.114431
join,0.18498,0.086821,0.157255,0.037348,0.178217,-1.061081,-0.265536,0.009912,-0.066681,-0.13737,-0.745458,-0.404874,0.32344,-1.01158,0.038038,0.28997,0.461912,-0.083304,-0.02919,-0.315972
play,0.070431,0.467099,0.620053,0.957959,0.337025,0.562509,-0.239358,0.696002,-0.206807,-0.040904,-0.666384,0.013212,-0.885092,-0.506568,0.302143,-0.141684,-0.899866,-0.088719,0.872725,-0.21032
small,0.501237,0.134281,0.08337,-0.376117,0.217505,-0.720395,-0.097113,-0.464652,-0.172098,-0.088961,-0.523135,-0.371455,0.743332,-0.124991,0.228319,-0.084758,0.403098,0.252379,-0.34717,-0.258485
verbal,1.021798,0.621819,-0.06831,-0.008943,-0.54092,0.201658,0.436827,0.459309,-0.224911,0.186826,0.707509,-0.17466,-0.40645,0.891103,0.125201,-0.637373,0.499011,0.659289,0.363202,-0.019575
addit,0.030747,0.45573,0.119728,0.107334,-0.267456,-0.106677,-0.17027,0.365111,0.130043,-0.253342,0.110268,-0.418225,-0.370284,-0.135823,-0.029129,0.271563,0.291255,0.247168,0.471856,-0.273282
caus,0.295374,-0.078132,0.208317,0.137255,0.141691,-0.377665,-0.281946,0.10012,-0.164425,-0.375421,-0.526889,0.057303,0.143973,-0.609182,0.019508,0.094653,0.127296,-0.009847,-0.225568,-0.195928
clarif,0.283147,0.67702,0.395564,0.123034,-0.606893,-0.478575,-0.005789,0.541612,0.252158,-0.18115,0.361566,-0.283061,-0.298219,-0.038359,-0.408104,-0.350556,0.640935,0.580667,0.967839,0.012903
end,-0.013472,-0.024684,-0.100259,-0.330427,-0.153564,-0.286731,-0.234878,0.055932,-0.086456,-0.042288,-0.116399,-0.204645,0.267512,-0.158273,0.020116,0.011109,0.392458,0.114499,-0.088012,-0.191764
found,0.398218,-0.388362,-0.426727,-0.226616,0.573645,-0.337555,-0.137352,0.258366,-0.238515,-0.099698,-0.291807,0.289067,0.60741,-0.891784,0.333466,0.254289,-0.064407,-0.11141,-1.017867,-0.644431
made,0.004216,-0.276792,0.022771,0.184729,0.121084,-0.404377,0.128041,-0.152016,0.094873,-0.189276,0.130398,0.577245,0.197807,-0.317941,-0.446522,-0.05622,0.083352,-0.052516,-0.039949,0.221567
offer,0.119637,-0.13492,0.062662,0.086561,0.033355,-0.327331,-0.101611,-0.424328,-0.39266,-0.132676,-0.082665,-0.070011,0.474649,-0.344834,0.349193,-0.234973,-0.044526,-0.009333,-0.427969,-0.258726
sent,0.073056,0.573574,-1.24613,-0.472094,-0.163194,0.878807,-0.462964,1.008735,-0.56305,-0.149989,0.504703,-0.774206,0.050985,0.681341,-0.144006,0.77626,1.067298,0.598338,0.11943,-0.682931
stick,-0.498783,-0.586383,-0.623145,0.061758,0.505058,0.0395,0.299157,-0.179712,0.074278,-0.257552,0.42335,0.023079,0.147717,-0.105776,-0.75111,0.233617,0.367951,-0.083066,-0.100311,0.25876
case,0.181269,0.354264,0.169933,0.143057,-0.029195,-0.152751,-0.307699,0.22482,-0.1521,0.017665,0.110238,-0.574173,0.059867,-0.76846,0.489254,0.486323,0.160883,0.164529,0.509829,-0.720508
degre,-0.110836,-0.097012,-0.091434,0.362691,0.331063,-0.121541,0.292126,-0.085873,0.084376,0.003005,0.021733,0.106658,0.02373,-0.203347,-0.010719,0.030736,-0.04088,-0.166614,0.032648,0.19615
everi,-0.42825,-0.008412,0.179494,-0.064743,-0.156586,-0.53745,-0.180965,0.431931,-0.073062,-0.34436,-0.242214,-0.397039,-0.381103,-0.433911,-0.434565,0.280304,0.26775,-0.157866,0.462885,-0.033538
isol,-0.655154,-0.171763,0.162736,0.986856,-0.127999,-0.338368,-0.239454,-0.833404,0.341916,-0.314925,-0.214535,1.199413,0.399473,-0.421145,-0.776774,0.167391,0.114906,0.09851,0.145456,0.600951
thought,0.822071,0.033417,0.149549,-0.179969,-0.016827,-0.687867,0.111855,-0.367709,0.405492,0.096503,0.180359,-0.396343,0.063883,0.352823,0.088549,-0.123126,0.571333,0.367376,-0.030804,0.384192
your,-1.147074,-0.006937,0.134759,0.318111,-0.476969,0.001613,-0.692998,-0.831585,-0.199896,0.332825,-0.139162,0.301283,0.260205,0.199048,0.500821,-0.463794,0.245281,0.277204,-0.14183,0.650376
camera,-0.137308,-0.223914,0.013112,-0.154813,-0.260247,-0.539929,-0.128833,-0.541689,0.184348,0.24202,0.030762,-0.134163,0.452724,-0.133966,0.181504,-0.211242,-0.047517,-0.03479,-0.204259,-0.05014
colleg,-0.439074,-0.493929,0.003604,-0.199185,-0.127243,-0.080134,-0.667879,-0.517295,-0.134317,0.193119,-0.06324,0.639858,0.389331,-0.325716,0.329218,-0.032048,-0.157697,0.160684,-0.426436,-0.051275
fellow,0.263417,0.389277,0.346138,0.70928,-0.531883,-1.095214,0.388462,-0.496437,-0.64363,-0.274237,0.374553,-1.475141,0.144526,0.408029,0.108075,-1.015464,1.334259,0.348114,-4.9e-05,0.970872
let,-0.428392,0.512313,-0.65795,0.097959,-0.39016,0.50011,0.255613,0.585605,-0.191416,-0.074477,0.406021,-0.785466,-0.329616,0.602483,-0.075643,-0.390629,0.560776,0.470741,0.574127,0.033475
littl,-0.250902,-0.171515,-0.035664,0.133823,0.024003,-0.08004,-0.165186,-0.481435,-0.167668,-0.204656,-0.199114,1.106397,0.40771,-0.653126,-0.442845,-0.08946,-0.119483,0.076931,-0.03548,-0.018323
longer,0.078478,-0.165335,0.282635,-0.234351,0.527887,0.104971,0.146927,0.828736,-0.078993,-0.488285,-0.381261,0.579173,-0.567485,-0.028876,-0.292757,0.135383,0.130186,-0.165153,0.035198,0.072132
show,-0.170798,-0.300094,0.000822,-0.175147,-0.262481,-0.220137,-0.164609,-0.10679,-0.217341,-0.022531,0.006024,0.193408,0.234137,-0.472485,0.220072,-0.102976,-0.019543,0.048731,-0.124891,-0.180599
situat,-0.064082,-0.165946,0.08801,-0.222368,-0.227084,-0.183936,-0.241764,-0.384995,0.151289,0.162338,0.269436,0.310021,0.371508,0.301984,-0.055667,-0.514392,0.051153,0.285631,-0.354123,0.158812
understood,0.515915,0.716799,0.008144,0.467661,-0.253703,0.424927,-0.153197,0.74329,0.425355,0.631037,0.13754,0.287154,-0.444738,0.248206,0.328019,-0.12904,-0.64323,0.475156,0.9048,-0.314957
add,-0.288442,0.102849,0.051814,0.400243,0.042302,-0.238791,-0.043814,-0.364624,-0.15806,-0.214571,0.179895,-0.266871,-0.033407,-0.137476,-0.214729,-0.175891,0.195338,0.216962,0.262695,0.078948
audio,-0.177616,-0.003364,-0.053814,0.336217,0.601097,0.589882,0.327467,-0.030758,-0.33381,0.14826,-0.285141,-0.331204,0.102368,0.290762,0.7716,0.146976,-0.624776,-0.403324,-0.416563,-0.230503
conduct,0.162253,-0.154529,-0.337015,-0.323472,0.357921,-0.33228,0.107176,0.104122,-0.632297,-0.319431,-0.292624,-0.213892,0.501037,-0.546605,0.385641,-0.173645,0.210761,-0.002448,-0.549005,-0.350928
encourag,0.265404,0.240924,0.021827,-0.09957,0.677343,-0.115874,0.102853,-0.046946,-0.111611,-0.29373,0.108795,0.041909,0.710951,0.09866,-0.090894,-0.237629,0.645083,0.304359,-0.107188,0.377028
haven’t,-0.171527,-0.22563,-0.082341,-0.213571,-0.079902,-0.045394,-0.363804,-0.325733,-0.106797,0.195326,0.021205,0.244936,0.345141,-0.157538,0.410861,0.043714,-0.020898,0.02468,-0.368166,-0.118051
i’v,0.382867,0.172994,0.151231,-0.083104,-0.374758,-0.063931,-0.445193,0.086864,-0.206354,0.003542,-0.000733,0.008499,0.087265,-0.281757,0.337785,-0.343546,-0.090482,0.186956,-0.311846,-0.250074
instruct,0.572583,0.049008,-0.208444,-0.284691,-0.095958,0.105871,0.169666,0.032116,0.091057,0.316994,0.334102,0.015962,-0.054754,0.485454,0.081477,0.069504,0.114517,0.161289,-0.192814,-0.191277
never,-0.018936,-0.113192,-0.277458,-0.435397,-0.111407,-0.049982,-0.286701,0.222653,-0.055575,0.165712,-0.056382,-0.339707,0.051683,-0.20762,0.297201,0.45528,0.176527,-0.112773,-0.403659,-0.500365
passiv,-0.249391,-0.119627,0.092858,-0.057134,0.381176,1.082097,-0.210927,0.551173,-1.050032,-0.217131,0.272522,0.733241,0.493422,0.427289,0.153995,-0.266949,0.020297,0.091885,-0.280495,0.043443
rememb,0.585506,0.44715,-0.095816,0.240465,-0.155621,0.375913,-0.178123,0.384348,-0.252862,0.033179,0.406351,0.344172,-0.036021,0.366092,-0.002472,-1.096406,0.208623,0.926147,0.173498,0.056904
said,0.203703,0.517756,0.139762,0.221569,-0.23827,0.241563,0.140214,0.1539,0.304407,0.222217,0.119953,-0.438171,-0.389399,-0.039431,0.143729,-0.090791,-0.322157,0.126246,0.739146,-0.166696
whatev,-0.890359,-0.25,-0.251622,-0.201753,-0.083233,0.231349,0.171689,0.777203,-0.050076,-0.379269,-0.352657,-0.05021,-0.591855,-1.00792,-0.384494,0.361649,-0.049116,-0.688893,0.644293,0.179479
aren’t,0.220032,-0.196413,0.135994,0.029382,0.243321,-0.277423,-0.150892,-0.188312,-0.470469,-0.287381,-0.150391,-0.600059,0.35863,-0.934867,0.439017,0.330555,0.255605,-0.074733,-0.133136,-0.496748
check,-0.30554,0.379551,0.003657,0.303249,0.002743,0.581035,-0.096253,0.531971,0.283116,0.268361,-0.119222,-0.175864,-0.554347,-0.193952,0.270109,0.154584,-0.402028,-0.002865,0.891741,-0.135023
clarifi,0.744185,0.612631,0.766003,0.083987,-0.954884,-0.360688,-0.40222,0.373023,0.841761,0.367599,0.681137,0.388533,-0.646582,0.202063,-0.233132,-0.598291,0.235321,0.993708,1.057407,0.080886
debat,0.560625,0.205917,0.305876,0.03614,-0.139531,-0.950038,-0.005192,-0.54808,-0.053,-0.085897,0.011978,-0.439157,0.388061,-0.060882,0.08372,-0.522218,0.514563,0.326501,-0.152783,0.1369
experienc,0.423527,-0.323092,-0.14091,-0.534197,-0.102058,-0.020486,-0.079966,-0.374288,0.100706,0.215327,-0.169697,0.164472,0.29657,-0.105908,0.290237,0.17884,-0.42236,-0.266476,-0.654129,-0.24398
isn’t,0.349592,0.071994,0.078257,0.05849,0.125961,0.064219,0.134356,0.161206,-0.247543,0.124028,0.084832,0.055295,0.158757,-0.187691,0.239428,-0.161298,-0.075343,0.113478,0.012496,-0.446849
kind,-0.117614,-0.247445,-0.017981,0.281309,0.164232,-0.12382,0.022346,-0.737698,-0.307435,-0.103319,0.261773,-0.178072,0.460752,0.011449,0.072258,-0.211425,0.122163,-0.00416,-0.088374,0.239613
lack,0.132604,-0.285322,0.019272,0.261092,0.379749,-0.281444,0.17823,-0.3585,-0.064031,-0.060902,0.129013,-0.168513,0.407398,-0.756033,0.214081,0.005062,0.135183,-0.211287,-0.059023,0.153335
otherwis,-0.565974,-0.353033,-0.230236,-0.107358,-0.041138,0.101465,-0.143459,-0.390235,-0.228322,-0.282652,0.054846,0.085492,0.126554,0.089719,-0.253974,0.378946,0.121377,-0.182993,-0.320006,0.016926
revisit,-0.151343,0.395195,-0.266569,0.308618,0.061245,0.459065,0.176577,0.679079,-0.59164,-0.009151,-0.324705,-0.453164,-0.387108,-0.515067,0.376488,0.120042,-0.109179,-0.158798,0.47244,-0.510486
technic,0.042119,-0.509477,-0.111521,-0.267782,0.399762,-0.419303,0.302485,-0.675976,1.162384,-0.186524,-0.410286,0.268742,0.610671,-0.420238,-0.746883,1.17174,-0.024231,-0.570495,0.010151,-0.205155
bad,-0.007439,-0.09297,0.283492,0.509473,0.357054,-0.740812,-0.329351,-0.56975,0.342705,0.034517,-0.625433,-0.262142,0.385692,-0.374368,-0.234652,0.480534,0.254624,-0.16173,-0.282267,-0.027681
bore,0.108864,-0.651479,-0.061167,-0.240152,0.104333,-0.023416,-0.272783,-0.198473,-0.000723,-0.1965,0.167206,0.275124,-0.024282,-0.627903,-0.09285,0.631251,0.317377,-0.156338,-0.24155,0.029308
current,-0.416895,-0.214183,-0.171753,-0.409128,-0.161788,0.324612,-0.00759,0.198365,-0.064657,-0.07312,0.09033,0.088526,-0.100707,0.124719,-0.144448,0.092814,-0.108121,-0.133901,-0.030012,-0.04468
doesnt,-0.490657,0.022384,-0.321344,0.052633,0.034036,0.188857,0.048658,-0.018284,0.360538,0.009513,-0.092078,0.030605,-0.086493,-0.038524,-0.338166,0.300743,0.180902,-0.081948,0.374537,0.130003
ensur,-0.251893,0.224894,-0.574796,0.046579,0.226055,0.445777,0.121416,0.722261,0.221674,0.362034,0.146744,0.624235,0.084883,0.120545,-0.038573,-0.471808,0.018177,0.265785,0.167641,0.262025
fact,-0.288569,-0.04126,-0.001699,-0.059418,-0.117239,0.022432,0.03221,-0.552903,-0.237144,0.028697,0.275684,-0.090915,0.225703,-0.035429,0.15639,-0.101765,-0.113664,-0.139156,-0.156127,0.137498
instantli,0.383416,0.422163,0.60331,0.078886,-0.842041,-0.813206,-0.496067,-0.097819,0.383412,0.032925,0.439211,-0.243907,-0.303776,0.069678,-0.279798,0.123339,0.824433,0.586886,0.705213,-0.008066
isnt,-0.046528,-0.096332,-0.048786,-0.015855,-0.145784,0.159408,-0.258133,0.187475,-0.011882,-0.007687,0.02575,0.293225,0.160915,-0.359311,0.043694,0.129754,-0.205008,0.032206,-0.021997,-0.290898
last,-0.22236,-0.265314,-0.04545,0.289536,0.12138,-0.000594,0.318622,-0.389473,0.0879,0.559173,-0.067638,-0.836959,-0.088502,-1.016632,1.162282,0.915938,-0.526999,-0.642025,0.099309,-0.746435
mostli,0.08983,0.03978,-0.242159,-0.080965,0.059055,-0.152391,-0.440033,0.254286,0.093483,-0.116358,-0.290736,0.027298,0.058605,-0.022809,-0.214823,0.292707,0.522521,0.290816,-0.215078,-0.026418
move,-0.103319,0.265677,-0.23015,-0.067633,-0.117467,0.414377,0.098533,0.639335,0.156113,0.14531,-0.019017,0.029711,-0.49679,0.067845,-0.087585,-0.212746,0.121983,0.146143,0.547458,0.302325
reason,-0.021654,-0.151407,-0.128273,0.017741,-0.004098,0.069888,-0.090732,-0.10301,0.099959,-0.182394,0.17074,-0.166856,-0.024852,-0.514396,-0.28363,0.219758,0.327161,0.088481,0.372538,0.032673
retain,0.288906,0.264226,-0.24671,0.408627,0.498739,0.566583,0.376316,0.426047,-0.174654,-0.585953,0.444562,0.676938,-0.347519,0.22466,-0.713129,-0.567516,0.284816,0.441411,-0.009407,0.34273
screen,0.360726,-0.01828,0.447083,0.365653,-0.187072,-0.05339,-0.18685,-0.27819,-0.190034,0.098288,0.239117,-0.303939,-0.159499,0.116453,0.530166,0.187397,-0.049539,0.03795,-0.087177,0.186298
team,0.215903,0.078067,-0.240141,-0.807716,0.415579,-0.409226,-0.276207,-0.293891,0.449643,0.209287,-0.781697,-0.173655,0.535223,-0.101401,-0.295368,0.552825,-0.512516,-0.489761,-0.403839,-0.553067
text,0.328768,0.246049,-0.18153,-0.300542,-0.361916,0.574842,-0.036745,0.36879,0.005031,0.328533,0.552258,0.08174,-0.127904,0.732387,0.142645,0.039925,-0.080248,0.301296,-0.023439,-0.286547
there,-0.251663,-0.0232,0.159644,0.160278,-0.293956,-0.388476,-0.246081,-0.142257,0.304529,-0.031753,-0.031599,0.016939,0.02839,-0.491194,-0.21674,0.177003,0.097395,0.044838,0.243752,-0.237378
1,0.423808,-0.228972,-0.27137,-1.038881,-0.244783,-0.408399,0.211761,-0.592412,0.380905,0.081213,0.123655,-0.562037,0.592646,0.289543,-0.251103,0.482331,0.817481,0.00149,-0.457898,-0.246489
clearer,0.645218,0.556905,0.138361,0.252218,-0.127668,0.120876,0.321191,0.862147,0.011091,-0.244974,0.209444,0.261089,-0.599652,0.252948,-0.489079,-0.237062,-0.034763,0.251287,0.504988,-0.274021
exam,-0.105542,-0.113174,0.156048,-0.155694,-0.181596,0.028507,0.116281,-0.23903,0.281715,0.199766,0.147385,-0.057197,-0.01177,0.113768,0.112318,-0.009885,-0.289063,-0.054703,0.253072,0.172587
front,-0.186398,-0.244554,-0.109097,-0.232405,-0.317763,-0.07489,-0.119015,-0.216079,0.267424,0.230428,0.212981,-0.451461,0.126234,0.291123,0.142475,-0.180953,0.215822,0.180904,-0.184922,0.329486
grasp,0.901193,0.219359,-0.226597,0.156711,0.179526,0.120002,0.433074,0.789612,0.08593,0.043145,0.214824,0.0365,-0.372783,0.351443,-0.095983,-0.653019,0.1605,0.267377,-0.091085,0.07888
i’d,0.144532,-0.323728,-0.177299,-0.367767,0.183196,0.087992,-0.408227,0.365672,-0.509064,-0.064032,0.223023,0.098391,0.090287,-0.133082,0.343468,0.468825,0.452345,0.015535,-0.573771,-0.253698
individu,-0.250494,0.191221,-0.142547,0.175475,-0.021186,-0.026614,0.369645,0.313327,-0.270489,-0.3278,0.0206,-0.338553,-0.205639,0.188371,-0.390667,-0.386462,0.238312,-0.040461,0.273867,0.297269
order,0.122413,0.462396,-0.138041,0.236014,-0.081685,0.148487,0.161625,0.90424,0.294256,0.038835,0.133964,0.15589,-0.350909,-0.012722,-0.266254,-0.145694,-0.13274,0.086769,0.55035,-0.010079
wifi,0.075113,-0.399905,0.369448,0.258471,0.026074,-0.738266,0.014613,-0.822076,0.368653,0.178571,-0.313414,-0.355187,0.1972,-0.541276,-0.112432,0.549509,0.121698,-0.341201,-0.17582,-0.019495
cannot,0.174615,-0.170423,-0.05409,-0.090343,0.015001,-0.002696,-0.084209,0.138709,0.168977,0.025331,-0.112447,-0.069142,0.186922,-0.150622,0.079872,0.045801,0.097894,0.024731,-0.140721,-0.069812
eg,0.315306,0.271416,0.213018,-0.105451,0.012466,-0.333731,-0.338169,-0.148711,-0.276761,-0.09015,-0.265074,-0.351318,0.455513,-0.320061,0.296322,0.167952,0.212676,0.173219,0.072349,-0.533844
extra,-0.104045,0.087339,-0.090754,-0.264733,-0.192815,0.059551,0.036717,0.728041,0.320172,0.014034,-0.271613,-0.086667,-0.66164,0.026765,-0.265059,0.153652,0.19668,-0.020468,0.495758,0.174409
greater,-0.286528,0.645807,-0.403211,0.470902,0.035427,-0.027601,0.805414,-0.085141,-0.011753,-0.159016,0.464754,-0.227624,-0.058313,0.364172,-0.485819,-0.526075,0.240982,0.124472,0.683343,0.343565
increas,-0.239865,0.087778,-0.356173,0.729055,0.769475,0.052335,0.434855,-0.207177,0.042637,-0.187054,0.276232,0.034498,0.40715,-0.119859,-0.296783,-0.219781,0.22386,0.022161,0.190314,0.532889
mental,-0.222843,0.230321,-0.052327,0.375126,0.345671,-0.363946,0.366889,-0.461369,0.377513,0.209678,-0.22984,-0.845506,-0.017684,0.885524,-0.000293,-0.359039,0.204988,-0.070042,-0.396071,0.362057
multipl,-0.721943,-0.153048,-0.318555,0.159667,-0.059256,0.322268,0.327945,0.986215,0.112524,0.038679,-0.304289,0.113222,-0.616544,-0.882358,-0.193003,0.131625,-0.33947,-0.560831,0.539791,0.130867
platform,0.354186,-0.094295,-0.277451,-0.555645,0.094386,-0.277061,-0.550032,-0.122288,-0.688859,-0.206893,-0.47291,0.02895,0.656473,-0.294618,0.239162,0.051394,0.222197,0.182878,-0.823568,-0.732299
prepar,-0.144565,-0.452617,-0.442182,-0.429574,0.409547,-0.20661,-0.014992,0.139446,0.404754,-0.030785,-0.11399,0.048474,0.344255,-0.372956,-0.122,0.189683,0.50387,-0.031953,-0.400016,0.232249
quicker,0.409554,0.195665,-0.090264,-0.358407,-0.148062,-0.045225,-0.361911,0.695378,-0.027283,-0.340619,0.234759,0.040607,-0.162106,0.212485,-0.634676,0.277338,0.800765,0.386657,0.07572,-0.154357
sort,-0.388951,-0.383278,-0.072417,0.150478,-0.061686,-0.439463,0.110322,-1.020665,-0.392683,-0.15212,0.268256,-0.38667,0.288279,-0.103382,0.109383,-0.193765,0.282389,-0.084262,-0.068689,0.18608
alreadi,0.116171,0.232153,-0.167964,0.036444,-0.324346,-0.06107,-0.001159,0.292193,-0.015479,0.432357,0.135482,-0.064614,-0.119576,-0.087195,0.348947,-0.193087,0.020364,-0.00929,-0.077601,0.069117
ive,0.22864,0.268883,-0.174845,-0.325255,-0.112461,-0.064679,0.060202,0.014361,0.343336,0.018623,-0.031653,-0.569091,0.113966,-0.155741,0.047726,0.329528,-0.214701,-0.172127,-0.206343,-0.362495
lockdown,-0.442674,-0.310378,-0.259894,0.179565,0.02734,-0.131082,0.230269,-0.205936,0.081842,-0.205272,0.05372,0.348545,0.087904,-0.049182,-0.47434,-0.21513,-0.020303,-0.06539,-0.00976,0.246533
lost,-0.163084,-0.09973,0.233688,0.467027,-0.277241,-0.281084,-0.584791,0.02327,0.236869,0.118975,0.166387,0.639912,-0.207941,-0.321283,-0.227495,0.297576,0.521917,0.260379,0.328993,0.322868
mate,0.554885,-0.013593,0.006835,-0.281046,-0.203244,-0.781967,-0.046808,-0.203804,-0.452339,-0.024774,-0.05952,-0.779794,0.43016,-0.003009,0.711536,-0.311227,0.59562,0.234626,-0.626045,-0.029302
natur,-0.241104,-0.133895,-0.02252,0.143865,-0.109411,-0.493512,0.039835,-0.816389,-0.132788,-0.022683,0.376637,0.219019,0.715489,0.066927,-0.139326,-0.520515,0.300265,0.308755,-0.374154,0.347011
oblig,-0.48265,-0.328281,0.004225,0.384743,0.369167,-0.158837,-0.334308,-0.398041,-0.438945,-0.169359,-0.156869,0.566745,0.815644,-0.714914,0.261074,0.314798,0.146713,-0.171526,-0.304798,0.132546
realtim,0.17263,0.45667,0.073037,0.075041,-0.061792,-0.365353,0.300085,-0.216353,-0.398696,-0.546009,0.45882,-0.199882,0.343654,0.157309,-0.449417,-0.573015,1.016199,0.595915,0.333336,0.294747
simpli,0.416158,0.329498,-0.348545,-0.311078,-0.041353,0.819569,-0.281082,0.793561,-0.517896,0.104975,0.160994,0.029779,-0.070007,0.642965,0.092402,0.284675,-0.041388,0.273296,-0.369683,-0.656553
space,-0.816433,0.111916,-0.747203,0.200594,-0.007176,-0.120897,0.306766,-0.326887,-0.162421,-0.271081,0.329228,-0.433229,0.12375,-0.10324,-0.560985,-0.33653,0.611852,0.123751,0.46856,0.47809
board,0.854643,0.616727,-0.005161,-0.330679,0.462986,-0.692775,0.293501,0.079682,-0.563437,-0.192017,-0.402475,-0.744912,0.626405,-0.128688,0.446344,-0.318871,0.622698,0.185847,-0.214663,-0.375799
deeper,0.295956,1.001032,-0.388865,0.369563,-0.243942,0.199199,0.774067,0.986853,0.04194,0.218074,0.409782,-0.115356,-0.443003,0.614499,0.022174,-0.746697,0.003497,0.388585,0.516228,-0.204825
difficulti,0.061803,-0.447252,-0.163803,-0.263983,0.432149,-0.228181,0.342462,-0.364121,0.782063,-0.262526,-0.286678,0.008032,0.458047,-0.270268,-0.443815,0.647349,-0.0204,-0.380244,-0.070993,0.031257
document,0.301753,0.401543,-0.312435,-0.294377,0.073697,0.72052,-0.29652,0.462083,-0.234879,0.151043,0.203938,-0.385368,-0.162851,0.614511,0.165406,0.997452,-0.178354,0.072737,-0.189841,-0.724833
dynam,0.072283,-0.342612,0.149745,-0.042449,-0.179968,0.110096,-0.111269,-0.487051,-0.200942,-0.002991,0.245862,0.574848,0.206643,0.299258,0.024381,-0.721823,-0.259994,0.189551,-0.361493,0.251077
felt,-0.383283,-0.324791,-0.164993,-0.08626,-0.13603,0.019984,-0.737238,-0.480629,-0.179927,0.400347,0.077249,0.798203,0.529543,-0.272232,0.509941,-0.235651,-0.1444,0.389331,-0.564882,-0.054227
full,0.04963,0.103114,-0.477236,-0.22702,-0.090575,0.175031,0.537348,0.463842,-0.074428,-0.011336,0.258739,-0.09197,-0.265153,0.236576,-0.21175,-0.037391,0.356236,0.18342,0.319035,0.02624
havent,0.415569,0.29088,-0.222206,-0.210235,-0.090812,0.084869,-0.086887,0.220066,0.304245,0.467496,-0.09095,0.107176,0.162584,0.029253,0.284391,0.319803,-0.53429,-0.002481,0.093502,-0.611944
interrupt,0.132113,-0.192277,0.284182,-0.118448,-0.110517,-0.222349,-0.352942,-0.136867,0.205323,0.007927,-0.296189,0.308288,0.056166,-0.377755,-0.091759,0.5336,0.100827,-0.103676,-0.088614,-0.212316
math,-0.419321,-0.049151,-0.219021,0.035408,0.038017,-0.041867,-0.154653,0.012159,0.025239,0.094504,-0.118092,0.182811,0.265977,-0.160787,0.145286,-0.23926,-0.254443,-0.095081,-0.490145,0.031327
rush,-0.671109,0.313652,0.153858,0.086232,-0.188675,0.529921,-0.240361,0.607215,0.226115,-0.277543,-0.36677,0.578448,-0.420781,0.223677,-0.494785,0.65246,-0.423291,-0.113044,0.493201,-0.218484
textbook,0.410009,0.327168,-0.215251,-0.127042,0.239531,0.885393,0.174465,0.782152,-0.163125,0.058521,0.184232,-0.30561,-0.305942,0.404689,0.207482,0.60631,-0.160718,0.072225,0.208354,-0.433566
unlik,-0.024596,-0.047499,-0.021969,-0.185968,0.257857,-0.351113,-0.392285,0.157861,-0.137519,-0.231639,-0.552636,-0.24775,0.15453,-0.72027,0.064961,0.504574,0.019311,-0.2554,0.013743,-0.58129
absorb,0.465605,0.412964,-0.087816,0.173144,0.457553,0.83176,0.750611,1.117273,0.035672,-0.420997,0.104712,0.220697,-0.820622,0.181512,-0.420402,-0.176632,0.231781,0.00629,0.558,0.183094
anxiou,0.377878,-0.220415,0.508806,0.61746,0.760245,-0.435511,-0.533305,-0.358441,-0.281217,-0.315668,-0.412226,0.715303,0.407861,-0.583794,-0.149467,0.30433,-0.104519,0.09043,-0.110075,0.038202
anyway,-0.143835,-0.125549,-0.147764,-0.098489,0.180023,0.066896,-0.065188,-0.057923,-0.263127,-0.074703,-0.000878,-0.310172,0.192083,-0.37211,0.231336,0.416545,-0.109351,-0.225922,-0.186084,-0.448991
becom,-0.166236,-0.122219,-0.217869,-0.048866,0.229667,0.413236,-0.076135,0.298766,-0.064509,-0.114089,-0.22304,0.21497,-0.151432,-0.287897,-0.160305,0.374594,-0.249035,-0.287802,-0.0506,-0.135684
control,-0.663855,-0.149506,-0.234872,0.058436,0.253169,0.530349,0.062657,0.323466,-0.053802,-0.055757,-0.101841,0.445082,0.005921,0.272652,-0.209626,-0.17201,-0.001061,-0.056538,-0.014671,0.436291
forget,0.253741,0.318151,0.487074,0.054126,-0.43857,0.012616,-0.366578,0.302034,0.326827,0.304818,-0.135691,-0.116961,-0.376946,-0.434016,0.281212,0.254273,-0.433796,0.118376,0.629227,-0.571621
got,0.038701,-0.005042,-0.015787,-0.143798,-0.240459,-0.218167,-0.100106,-0.348129,0.067187,0.099992,0.159381,-0.134586,0.082348,-0.147608,0.095505,0.183533,0.050285,0.00463,0.034323,-0.168558
lose,0.236132,-0.150457,-0.168129,0.234824,0.563709,0.099668,-0.044004,0.345135,0.351706,0.009839,0.142139,0.296367,0.010503,-0.56248,-0.334406,-0.028397,0.056363,-0.045218,-0.014587,0.372563
mimic,-0.201941,-0.662854,0.201474,-0.589381,-0.726679,-0.535007,-0.294495,-1.048706,-0.275601,0.035924,0.605969,0.257771,0.623105,-0.046979,0.293777,-0.940343,0.248957,0.332556,-0.551939,0.194536
mind,0.240055,0.118496,0.153997,-0.331522,-0.479336,-0.133672,-0.64484,0.107551,0.500521,0.334717,0.251461,-0.108667,-0.061999,-0.388429,0.108564,0.78991,-0.037891,0.251079,0.436981,-0.837752
post,-0.095684,0.064955,-0.263953,0.038274,-0.057983,-0.023717,-0.088963,0.15311,-0.326401,0.181061,0.094225,-0.499541,0.059059,-0.185151,0.511186,0.273039,0.172621,0.070938,-0.065705,-0.486115
prof,-0.089127,0.300345,0.126599,0.298486,-0.180576,-0.019859,0.033972,-0.086529,-0.284518,-0.140269,0.274001,-0.448872,-0.013717,-0.16297,0.321944,-0.086061,0.227209,0.052214,0.303412,0.033138
proper,0.161447,0.261948,0.330473,0.159601,-0.061395,-0.104976,0.223148,-0.226699,-0.395964,-0.208739,0.092344,-0.016439,-0.035272,0.347921,0.211494,-0.358988,0.099806,0.244399,-0.074373,0.001696
turn,0.205337,-0.040238,0.106151,-0.142167,-0.003277,-0.465007,-0.029263,-0.270076,0.303087,0.018593,-0.042576,-0.262436,0.239492,-0.146255,0.011999,0.087627,-0.008516,-0.19955,-0.083062,0.002114
within,-0.588033,-0.158408,-0.187627,-0.292633,-0.176383,-0.067724,0.144124,-0.016101,-0.17186,-0.161592,-0.056643,-0.016974,0.045324,-0.04213,-0.161709,-0.145138,0.175612,-0.068671,0.00611,0.163827
worri,-0.385712,0.35276,0.41324,-0.079581,-0.805625,0.164825,-0.687935,0.654789,0.563418,0.222627,-0.222874,0.603816,-0.287783,-0.404908,-0.090536,0.548167,-0.406283,0.174661,0.912315,-0.605173
afterward,0.171782,0.32447,-0.189659,-0.118255,0.122453,0.037936,-0.260161,0.078901,-0.178267,0.062995,0.064871,-0.512406,0.239588,0.017183,0.263976,0.519518,0.435848,0.166147,0.114128,-0.546617
bounc,0.679439,0.52316,0.583057,0.036583,-0.416641,-0.928589,0.124816,-0.501365,0.202964,0.008963,0.03632,-0.588227,-0.02209,0.358118,0.052307,-1.099712,0.83344,0.458732,0.39654,0.912419
closer,-0.336024,-0.558726,0.218632,0.032878,-0.286581,-0.384293,-0.354777,-1.000722,0.005841,-0.007992,0.3651,0.743061,0.603127,-0.24971,0.014245,-0.350544,0.052063,0.236907,-0.446022,0.16086
held,0.266185,-0.25984,-0.304127,-0.316233,1.006696,-0.192086,0.218243,-0.864044,0.08942,-0.134274,-0.021316,0.164259,1.150281,-0.370653,-0.03385,-0.558591,0.253323,-0.271018,-0.100708,0.675085
ie,-0.16351,-0.173206,0.197002,-0.092313,0.021604,-0.012093,-0.099249,-0.202749,-0.461611,-0.142293,-0.229404,0.054999,0.101112,-0.212073,0.122108,-0.090115,0.009479,-0.07227,-0.041589,0.036524
lone,-0.629419,-0.32403,0.056987,0.826181,0.275962,-0.186307,-0.23659,-1.257306,0.573428,-0.272043,-0.245005,1.555302,0.788689,-0.309363,-0.867181,0.496167,-0.263872,0.059088,-0.150301,0.277717
open,0.475069,0.387137,-0.080708,-0.339271,0.141411,-0.645528,0.237997,-0.375334,-0.058123,-0.057972,0.002172,-0.578707,0.501661,0.018921,0.040973,-0.00536,0.46433,0.072641,-0.195846,-0.260591
somewhat,-0.46462,-0.151791,-0.095504,0.602212,0.25694,-0.386579,-0.153912,-1.047849,-0.444238,-0.276188,0.222974,0.413588,0.784493,-0.105622,-0.016892,-0.403058,0.285753,0.279813,-0.431884,0.231112
term,-0.328994,-0.121118,-0.311667,-0.280981,0.038154,0.30362,0.04638,0.358016,-0.014323,-0.103559,-0.033303,0.364229,-0.020835,0.305194,-0.446777,0.135186,0.061985,-0.091531,-0.037135,0.060715
they’r,0.781381,-0.089715,0.123083,0.10525,0.171574,-0.241545,0.193468,0.088758,0.001693,0.090795,0.171779,-0.052999,0.088926,-0.390829,0.283454,-0.028414,0.077118,0.000705,-0.006492,-0.300832
we’r,-0.293735,0.074982,0.271344,-0.075067,-0.317105,0.057755,-0.710831,-0.049207,-0.074749,0.195529,-0.151304,0.367916,0.214356,0.045751,0.394033,-0.333546,0.153574,0.377561,-0.094107,0.137236
basic,-0.226906,-0.202696,0.091472,0.043288,-0.158412,0.22363,-0.011243,-0.397715,-0.447428,-0.279598,0.070721,0.225969,0.00303,-0.217801,0.052828,-0.369873,-0.256736,-0.003011,-0.169038,-0.014783
date,-0.120165,-0.16479,-0.275796,0.040246,0.534486,-0.074448,0.661416,-0.015421,0.440214,0.025365,-0.218461,-0.751405,0.012347,-0.445817,-0.215348,0.708618,-0.004174,-0.670954,0.347836,-0.048965
