to 0.674852 -0.024429 0.054204 -0.088898 0.839383 1.244444 0.424096 1.216183 -0.251138 -0.740233 -0.789787 -0.589229 0.875883 1.629793 0.579723 1.013421 -0.820430 -0.402420 -0.549246 0.393578 0.192745 -0.697242 -0.507517 1.147230 0.502752 0.629666 0.422960 -0.928224 0.716213 0.106488 -0.426842 -1.744002 1.724724 0.267025 0.249605 -0.008059 -0.143388 0.767077 0.225953 0.768552 -0.770053 0.192064 1.692469 1.338702 0.387010 -0.563277 0.444578 -0.562582 1.089064 2.420381
and -0.625989 -0.341899 1.176807 1.728733 0.683168 0.559355 0.620863 0.236927 -0.625215 0.477388 -0.747204 0.677311 0.664767 -0.098811 -0.473059 0.799102 0.260221 -1.133828 -0.768122 0.495269 0.309049 -0.068712 0.138962 0.823507 -0.723481 1.201066 0.011139 -1.342360 0.825595 0.249901 0.031808 -1.707227 0.589181 -0.263302 -0.434165 -0.603501 -0.256187 0.628290 -0.571907 0.134282 -0.133079 0.519955 1.263877 0.900428 -0.321208 -0.307921 0.204481 -0.079709 0.485597 0.645118
the 0.169460 -2.105360 0.300937 0.372454 0.876726 0.658327 0.424334 -0.277491 -0.538213 0.528417 -0.283221 -0.416560 0.077494 -0.301783 0.567627 0.164975 -0.320987 -1.081348 -1.053297 0.729425 2.064266 -0.322107 -1.070760 0.728746 0.269649 0.510549 0.131880 -0.174006 0.284130 0.200541 -0.170010 -1.182362 -0.038237 -0.142247 -1.299759 -0.050199 0.564035 1.008017 -0.352596 -0.128300 0.225512 1.024665 0.734806 1.356353 -0.546747 -1.610262 0.538228 -0.167518 0.797082 0.365664
I 0.798491 0.464091 -0.211247 0.885211 0.306388 0.589719 -0.401417 -0.072066 -0.779645 -0.281115 -0.815688 0.646277 -0.890231 -0.051975 0.122329 1.065067 0.590478 -0.833297 -0.745864 0.249546 2.290759 -0.393638 -0.789111 -0.559064 0.917204 0.489513 -0.365804 -0.186653 0.434777 -0.287132 0.225943 -1.851823 1.242853 -0.003166 -0.242636 0.580348 -2.038665 -0.095102 -0.833379 -0.456955 -0.106763 0.709577 1.185364 0.965748 -0.261127 -0.635030 0.994628 1.132191 -0.582698 0.327330
can -0.069064 -0.039906 0.795766 0.654786 -0.191984 1.282413 0.636244 0.049802 -0.602089 0.519589 0.749240 -0.018744 0.362654 -0.187363 -1.063882 -0.107792 0.202034 -0.556750 -0.949746 1.417241 1.389796 -0.017115 -0.550491 -0.113907 0.309427 0.711544 0.378161 -0.729300 1.637164 0.810352 0.646033 -1.848625 0.923066 -0.326103 -0.387564 0.053260 -0.841436 -0.603296 -0.375639 -0.167355 0.374522 -0.595319 0.771997 1.389991 0.079327 -0.864963 0.611093 -0.059875 -0.249974 0.926570
a 0.267268 -0.725577 -0.831136 1.474886 -0.520424 -0.213011 0.265706 0.045291 0.536612 -0.497140 -0.542224 -0.104886 0.262087 0.163197 0.975963 -0.234047 1.024528 -0.677539 -0.835254 1.013976 0.929051 -1.116967 0.313707 -0.353261 0.485145 -0.256180 -0.623586 -0.596335 0.944844 0.522652 -0.205637 -2.351114 0.643158 0.039072 -1.646004 -0.634177 0.654724 1.318084 -0.880363 -1.215090 -0.791743 -0.340990 -0.158197 -0.111034 0.397951 -0.274789 -0.468350 -1.081097 0.859057 1.613153
it 1.248712 -0.344239 0.297266 0.939425 -0.230359 0.731548 0.897733 0.456167 -0.424761 -0.165032 0.234609 1.279495 0.344315 -0.594281 0.531949 1.065686 0.918702 -0.550566 -1.087097 0.483010 2.099326 0.936554 -0.490587 -0.222144 0.025885 0.194514 -0.907136 -0.629983 1.007814 0.469985 0.016818 -0.525429 1.129621 -0.275023 -0.314994 -0.541763 0.215123 0.723927 -0.537528 -0.255327 -0.060481 -0.230599 0.800882 0.928170 0.237099 -0.420579 0.731240 0.016269 0.520980 0.431057
my -0.274504 -0.123841 0.615068 -0.541741 0.017989 0.105328 0.200056 0.817093 0.148162 0.046423 -0.503292 0.796706 0.264846 0.653586 -0.293060 1.938718 -0.152656 -1.084663 -0.783109 0.127766 1.673438 -0.660240 -1.258566 -0.708930 -0.723802 -0.139618 0.109058 -1.155533 1.397877 -0.323496 -0.303980 -1.751849 0.778222 0.069551 -0.590163 0.257340 -0.374192 -0.546492 -1.222656 -0.350897 0.094803 0.892444 -0.015847 0.389424 0.498224 0.148945 -0.528724 0.498435 -0.059342 0.664981
in 0.154628 -0.191915 1.090719 0.205707 -0.693592 0.568989 0.348847 0.075888 0.455315 0.235097 0.029104 -0.061630 0.387741 -0.040579 0.524712 -0.311962 0.186837 -1.507576 -0.908064 -0.099054 1.137982 -0.587017 0.413367 0.687555 -1.107535 -1.127213 0.136465 -0.882857 1.344475 0.287785 -0.237227 -1.332447 -0.113753 0.251905 -0.615046 0.577201 -0.114834 -0.115882 0.094067 -0.764373 -0.007183 0.966586 0.265660 0.343957 -0.295883 -1.241360 0.119214 0.324813 -0.040268 2.148488
more 0.077791 -0.297791 0.964260 0.813834 -0.775805 -0.919426 0.544376 -0.306394 0.720519 0.787704 -1.327932 0.432562 0.906933 0.174861 0.046017 -0.941047 0.838363 -1.428582 -0.295179 0.060799 0.731804 -0.657527 0.921230 0.637985 -0.204566 1.732903 0.020047 -0.706396 1.273003 -0.763687 -0.675793 -1.459371 0.956282 -0.386899 -0.364380 0.065071 -0.599288 0.628397 0.463712 -0.875407 0.070969 0.265527 0.427070 0.849856 1.020956 -0.238928 1.384161 -0.666656 0.425302 0.284763
is 0.985313 -0.508372 0.075161 0.478629 1.135481 -0.187441 1.705910 -0.299261 0.284284 1.165683 0.223595 0.097428 0.140927 0.058818 0.185887 0.990922 0.314250 -0.447990 -0.634421 0.279413 1.229925 0.329108 0.628493 -0.106695 -0.713746 -0.075047 -0.685270 -0.256142 0.719770 0.122724 0.113109 -0.675666 1.114410 -1.203386 -0.758562 0.328003 0.341255 0.879622 -0.766471 -0.984484 0.354164 0.636201 0.826806 0.475941 0.358124 -0.608079 0.621056 0.185445 0.807728 1.166587
with -0.093315 -1.148421 0.657118 -0.453074 -0.095944 -0.351465 0.107609 -0.808897 -0.098930 1.100261 0.209039 -0.118540 0.549168 0.458089 -0.760949 1.211855 1.141368 -1.473774 -0.425610 0.351495 0.204200 -0.418483 -0.281482 -0.255952 0.671530 0.410863 0.822822 -1.552199 0.580358 0.027340 -0.063879 -2.423227 0.772281 -0.001544 -0.163382 -0.786913 -0.208737 0.343379 -0.288858 -0.463912 -0.053209 0.981495 -0.140732 0.658441 -0.749997 -0.681446 0.358992 0.498394 0.951817 0.675509
you -0.539088 -0.541589 0.224279 0.986625 -0.906904 0.699273 0.305020 0.009740 -1.036102 0.139851 -0.446664 -0.090799 1.078257 -0.032931 -0.401866 -0.658978 0.378471 0.798179 -1.041046 0.684273 0.959218 1.062794 0.336108 -0.132876 0.169706 -0.603046 -0.156364 -1.028748 1.601929 0.183037 0.175043 -1.280213 0.653421 -0.007896 -0.342337 -0.095498 0.075548 0.962302 -0.192346 1.306265 0.096774 -0.388186 0.355089 1.494907 -0.258904 -1.202131 1.555376 -0.753973 0.190878 0.704317
of -1.160863 -1.243208 -0.571509 1.200751 0.061560 0.171418 0.238643 0.229099 -0.556937 0.690085 -0.859201 -0.880601 0.946906 -0.109095 1.224424 0.269453 -0.263259 -0.959335 -0.816411 -0.137049 1.947160 -0.887905 -0.074736 -0.698428 0.547203 0.765136 0.030212 -0.006118 0.435632 0.106949 0.297689 -0.174766 0.494685 0.155279 -0.869760 -1.346053 0.883734 0.896125 -0.956002 -0.890332 -0.017386 1.111182 -0.943437 1.057715 -0.075410 0.152121 -0.144428 0.152219 -0.204176 2.023940
at 0.727064 -0.139916 0.405051 -0.330945 0.193305 0.696028 0.055409 0.282351 -0.068393 -0.011794 0.787116 0.732719 0.542186 0.296002 0.267180 0.246891 0.023351 -0.084451 -1.813875 1.103319 1.491482 -0.874281 -0.246089 0.567836 -1.084381 0.283824 0.042361 -1.037259 1.688993 0.222283 -0.043958 -0.426937 1.192403 0.379891 -2.094799 0.872297 0.023221 0.288928 -1.111653 0.426028 0.297431 0.421041 0.043508 0.702805 -0.332163 0.402486 -0.072430 -0.860931 -0.339506 0.954310
questions 0.766812 0.080867 0.693900 0.691558 0.675301 0.557545 0.437646 0.870436 0.367157 0.821314 -0.910411 -0.594460 0.572741 0.102626 -0.810987 0.385619 0.362069 -0.280756 -0.068622 0.794596 -0.013685 -0.349084 0.250437 0.489528 1.019125 -0.439630 0.414332 -0.401013 1.561282 1.006561 0.705808 -1.508590 0.115836 -0.127884 -0.800727 -0.470909 -0.611669 0.124853 -0.383155 0.274643 1.337410 1.046934 -0.098813 1.156924 -0.132420 -1.211587 0.771242 -0.986373 0.273476 0.855100
ask 0.778154 0.078808 0.568231 0.255170 0.431213 0.463614 0.493972 0.769906 0.055495 0.905247 -0.969074 -0.737833 0.375095 0.385797 -0.854566 0.346933 0.387879 -0.615625 0.160065 1.076391 0.001862 -0.169937 0.351840 0.287239 1.112817 -0.019632 0.642247 -0.427704 1.667958 0.607817 0.443733 -1.797035 0.036436 0.048750 -0.490684 -0.150062 -0.754268 0.415539 -0.204237 0.353854 1.378096 0.850234 0.150413 1.228214 0.162813 -1.424909 0.943780 -1.206735 0.448052 0.608047
time -0.069982 -0.601677 0.506527 0.287610 0.333169 0.633856 -0.300911 0.954343 0.056126 -0.278710 -0.270991 0.400261 0.731286 0.086941 -0.109942 0.562837 0.581988 0.224087 -2.023820 0.746591 0.868988 -0.740555 0.229680 0.181297 -0.035333 -0.538518 -0.004086 -0.393227 0.684769 0.289208 -0.848743 -0.943528 0.912099 -0.585067 -1.561860 0.549696 0.005430 0.137792 -1.105222 -0.046955 0.001033 0.212829 -0.283613 1.210411 0.449009 -0.088072 0.525199 -0.524688 -0.340387 1.138713
own -0.724946 0.005745 0.686515 -1.168661 -0.649741 1.347830 0.168677 0.430595 0.170921 -0.059381 -0.089359 1.167907 -0.004249 0.668444 0.083222 0.973476 0.144527 -0.127436 -1.660725 0.714578 1.801271 -0.693128 -0.558043 0.037625 -1.033554 0.083987 0.120778 -1.763011 1.429694 0.085663 -0.490126 -0.534775 0.628706 0.144364 -1.492287 0.556649 -0.147635 -0.782403 -1.349016 0.361869 0.390692 -0.008737 0.071724 0.874695 -0.059914 0.622272 -0.636657 -0.641616 -0.779259 0.525107
have 0.050990 0.029579 -0.882246 0.899823 -0.035423 0.420502 -0.523332 -0.939281 -0.109951 -0.377366 -0.268974 -0.413348 1.349997 0.069235 0.317403 0.961043 -0.279555 0.336351 -0.628600 0.643370 0.739209 -1.177315 0.338552 -0.481913 0.288251 0.089155 0.779114 -0.739423 1.366674 0.391376 -0.269835 -1.845123 0.633253 0.405064 -0.135178 0.144181 -1.236885 0.528305 -0.243591 0.115720 0.185609 0.087394 0.274325 0.650544 -0.144972 -0.671215 0.760423 0.371713 0.326551 1.162449
as 0.956326 -0.081491 -0.072403 1.363563 0.421498 -0.461950 0.820016 0.149375 0.024450 1.361484 -0.109355 0.050939 0.209956 -0.216006 -0.000457 -0.765884 -0.074760 -0.464551 -0.832446 -0.894363 0.158864 0.591818 -2.000177 1.170329 -0.513610 -0.362411 -0.953664 -0.457547 0.415339 -0.081238 -0.693448 -2.020536 1.739797 -0.616316 -1.041628 -0.819737 -1.007402 0.187711 -0.544923 -0.456073 -0.398470 0.183267 -0.332381 1.263318 0.232251 -0.578481 0.961508 -0.081997 0.065428 0.653032
It 0.648950 -0.443405 0.665342 0.383427 -0.260282 -0.365456 0.715076 0.345736 0.228798 -0.033454 -0.982268 1.286205 0.676344 -0.727519 0.273776 0.829670 0.027169 -0.541216 -0.101714 -0.066584 1.985859 0.658200 0.570280 0.712021 -0.613942 -0.044674 0.093240 -0.558455 1.193687 -0.268588 -0.304160 -0.254933 0.350360 0.008990 -0.372736 0.121254 0.423900 1.602365 -0.052416 -0.041369 0.320741 -0.108134 0.205968 0.936129 0.917732 -1.113328 0.397922 -1.219845 1.305357 -0.207255
me 0.126787 -0.816555 0.914504 -0.039295 -0.432967 0.094570 0.179207 0.600888 -0.104968 -0.398808 -1.300186 1.448500 0.613571 0.270272 0.227407 1.243066 0.545723 0.421658 -0.171126 -0.325089 2.021262 0.315045 -0.085436 0.998988 0.783919 0.169206 -0.421889 -1.170789 1.503909 -1.101737 -1.066809 -0.481300 0.438054 0.317643 -0.039731 -0.464920 0.533361 0.932624 -0.354482 0.362121 -0.659758 0.285985 0.481707 0.223240 0.408803 -0.203518 1.069079 -0.971375 0.859810 0.616033
for 0.272678 -0.688821 0.324421 0.536930 1.028131 -0.057747 -0.541422 -0.497205 0.357621 -0.073520 -0.120124 -0.110125 1.341788 0.449926 0.163006 1.082838 -0.143229 0.122588 -0.215671 0.198662 1.117539 0.639324 0.153795 -0.004470 0.206532 -0.553008 -0.318409 -0.391818 0.719094 -0.700688 -0.680504 -1.297006 0.800953 -0.966047 -0.902020 -0.575362 -0.197862 0.337117 0.399639 -0.382531 0.507423 1.210943 -0.366124 0.242072 0.641386 0.378632 0.871124 -1.375873 0.739552 1.129787
like 0.872323 -0.158338 0.198130 0.558697 -1.169454 -0.062907 0.287384 -0.330528 0.275243 0.814826 -1.389832 0.547704 0.310458 -0.080537 1.031458 -0.303774 0.556039 -1.461409 -0.712565 0.981586 0.691854 -0.306534 -0.508394 -0.056044 -0.250380 -0.413388 -0.159674 -0.055284 0.121105 -0.640349 0.950357 -1.126679 0.782255 0.590834 -0.062380 0.505322 -0.221758 0.802164 -0.179445 0.017496 -0.249739 0.568283 0.106454 1.491301 -0.731525 -0.521326 0.704695 0.194602 0.461212 0.532111
Because 0.156478 -0.464670 0.231836 0.633612 0.010550 0.148128 0.801068 0.269247 -0.150904 0.568253 0.102258 0.300537 0.303220 0.286228 -0.008389 0.407364 0.043178 -0.547241 -0.452685 1.283086 1.371768 0.653237 -0.231769 -0.710867 0.316848 0.618029 -0.071878 -0.621417 1.285422 -0.095316 0.578578 -1.292626 1.241427 0.264053 0.423840 0.116209 -0.047015 0.537005 -0.580680 -0.071063 0.505518 -0.533852 0.768896 1.354210 -0.159776 -0.898324 0.832601 -0.155058 0.509574 0.285241
work 0.162351 -0.692502 0.752614 -0.074434 0.029076 -0.132664 -0.265848 -0.130412 0.098695 -0.130664 0.125416 0.694292 -0.334268 0.615947 0.146749 0.941360 -0.129374 -0.078019 -1.162851 0.628776 1.206287 -0.393909 -0.320372 0.842515 -0.454604 0.149287 -0.028287 -1.269573 2.100837 -0.311085 -0.249118 -0.545575 1.507041 -0.482944 -0.817477 -0.321616 -0.374224 -0.121579 -0.307567 0.379968 -0.277173 0.329032 -0.710967 0.677572 -0.209008 0.435676 0.493231 0.425850 -0.541585 0.650708
be 1.675126 0.407155 0.586806 0.264734 0.121584 -0.057604 0.622458 0.209256 0.095200 -0.008047 0.841962 0.050463 0.357296 -0.440468 -0.550253 0.002472 0.503903 0.050843 -0.846002 0.047419 0.671226 -0.859743 1.066946 0.961839 -0.698167 0.678626 -0.262594 -0.513105 1.640450 0.991262 -0.326015 -0.428713 1.299384 0.340588 -0.516841 -0.098796 -1.361143 0.764368 0.020942 -0.316217 -0.090743 1.285536 0.142254 -0.334640 -0.073336 0.407711 1.204277 -0.185075 0.111712 1.308446
get -1.019279 -0.424906 0.024020 0.838666 -0.135368 0.312844 0.475714 0.132934 0.227366 0.583544 -0.679697 -0.057770 -0.200730 -0.629369 0.390292 0.209143 0.000246 -0.531467 0.127148 1.078857 0.203639 0.315493 -0.339475 0.961690 0.567683 -0.386776 0.119892 -1.543175 2.038728 1.427299 0.907119 -0.930032 1.122840 -0.168192 0.073624 -0.438373 -1.228035 0.335386 0.533944 -0.187986 0.515490 0.112248 0.279254 0.551024 0.623890 -0.522292 0.496716 0.700817 0.028786 0.790403
on -0.364496 -0.894286 0.345804 -0.156053 -0.137209 0.130875 0.232088 -0.841142 0.462801 -0.844614 -0.778649 -0.119935 0.052798 0.136500 0.481717 1.213735 0.498262 -0.259187 -0.572625 0.386539 0.844590 -0.006890 -0.015670 0.439376 -0.245418 0.344563 -0.588471 -1.213480 0.880049 0.474236 -0.287621 -0.958409 0.521246 -0.537315 -1.064531 -0.505115 0.720206 -0.953510 0.481120 -0.000490 -0.756434 1.445001 0.471567 0.992235 0.588996 -0.424759 0.093755 0.643202 -0.691858 0.413627
live 0.791460 -0.449680 -0.260030 0.165012 0.124047 0.041620 -0.391131 -0.236977 0.515324 0.684679 0.331308 -0.976932 0.273769 -0.611951 0.700706 0.100921 0.513418 0.061002 -0.239245 0.365771 0.833347 -0.051128 0.378744 -0.415454 0.777084 -0.004734 -1.249723 -1.259005 0.332340 0.316891 -0.014801 -1.370475 0.420377 0.266965 -0.107960 -0.464216 -0.114101 -0.105219 -0.442574 -0.152220 0.212957 1.586385 0.733752 1.381703 -0.143594 -0.645262 0.087505 0.272918 0.672914 1.061438
are -0.130019 0.183365 -0.006059 0.273634 0.136299 0.967093 0.478663 -0.778102 0.069568 1.762382 -0.136908 -1.015142 0.779617 -0.229714 -0.411738 -0.426542 0.174558 0.260151 -0.471618 -0.207005 -0.084327 -0.824154 0.213418 0.362570 -0.748729 0.268568 -1.376245 -1.314291 1.032634 -0.181019 0.248427 -0.515421 0.871826 0.240139 -0.152123 0.027126 0.671468 0.001462 -0.864453 0.144053 0.269484 1.664856 0.527763 0.311636 -0.123393 -0.551260 1.121872 0.121462 0.116006 1.005961
when 0.550572 -0.673199 0.418294 0.453964 0.036066 0.882996 0.600780 0.502896 -0.132166 0.291721 -0.113701 0.001318 -0.310378 1.200157 -0.118178 0.115116 0.704766 0.179203 -1.047750 0.853603 1.068942 0.511424 -0.391829 -0.306464 0.427774 -0.048718 -0.747272 -0.042668 1.220898 -0.485367 -0.003853 -0.872248 0.902128 -0.976779 -0.452755 -0.005076 -0.005553 -0.190711 -0.158872 -0.143299 -0.068845 0.049100 0.575155 0.513180 -0.123941 -0.302007 1.675678 0.005945 -0.684346 0.791557
do 0.145578 -0.730034 0.414541 -0.218301 -0.477493 0.581642 -0.854475 0.162631 -0.390307 -0.240094 0.067066 0.372886 0.267865 0.365693 0.215408 0.676748 0.334162 0.295417 -1.198895 0.923310 1.152693 0.232416 -0.126078 0.389324 0.104820 -0.016500 -0.327510 -0.712563 1.499588 -0.059979 -0.231524 -0.400290 1.471228 0.162278 -0.053740 0.116397 -0.332948 -0.118491 -0.359683 0.518465 -0.179639 0.377728 -0.084321 0.976317 -0.409694 -0.191341 1.125993 0.480017 -0.715192 0.674991
if 0.423167 0.599385 -0.662452 0.881401 -0.067141 0.462709 0.638630 -0.366084 -0.881790 0.221771 -0.333345 0.053914 0.190906 0.100716 -0.555953 -0.433853 0.169997 0.080641 -0.609392 0.646463 0.740908 0.733603 -0.503160 -0.685954 0.006121 -0.386053 -0.314917 -0.041049 0.937478 0.594528 0.566975 -1.776834 0.504427 -0.407520 -1.120945 0.289950 -0.672328 0.061612 -0.352123 0.382428 -0.227067 0.491122 0.921740 0.622569 0.161627 -0.519160 1.261735 -0.242389 -0.507883 0.137342
that 0.021528 -0.157304 -0.264907 0.803740 0.172718 0.395536 -0.255130 -0.541705 -0.293838 -0.119149 -0.212844 0.201351 0.377141 -0.693968 -0.338401 0.412714 0.145014 -0.328115 -1.216379 0.172585 1.864458 -0.818585 0.133289 -0.275790 0.035791 -0.023981 -0.232505 -0.176842 0.535636 0.186769 0.369018 -0.407344 0.465947 0.245779 -0.456252 0.676548 -0.066778 0.893884 -0.514571 -0.517391 0.192878 0.804615 0.279268 0.251988 0.039083 -0.841816 1.319310 -0.014842 0.382208 0.632985
your -0.965561 -0.551103 0.776585 -0.734326 -0.994130 0.699597 0.661914 0.220101 -0.247848 0.451965 0.017874 0.297277 0.721547 0.582930 -0.605738 0.624977 0.348432 -0.594026 -1.500087 1.016614 0.311886 0.127183 -0.183943 -0.307632 -1.001252 -0.655849 0.781282 -1.272372 1.270799 0.475148 0.209654 -1.200171 0.297722 -0.182409 -1.059798 0.018677 0.542163 -0.139032 -0.482894 0.734475 0.457489 0.260695 -0.372489 0.741217 -0.025862 -0.565363 -0.280816 -0.208117 -0.065256 0.778806
classes 0.693033 -0.063219 -0.115585 0.570060 0.228489 -0.008669 -0.854234 -0.060398 0.564449 0.625088 0.049184 -0.613637 0.411188 -0.507741 0.622678 0.024811 -0.311903 0.224675 -0.091883 -0.431606 0.977860 -0.235898 0.126228 0.218636 0.092259 -0.033876 -1.446275 -1.137993 0.810694 -0.459650 -0.034225 -0.808352 0.809562 0.616988 0.563422 0.180272 0.150962 0.096140 -0.659287 0.011080 0.208887 1.050011 0.409634 1.079185 0.108996 -0.384834 0.238606 0.198993 0.663733 0.912766
easier 0.117728 -0.033352 0.392420 -0.161607 -0.145969 0.801356 1.070272 0.602875 0.358121 0.874654 -0.629304 0.296243 0.310058 0.663218 0.102376 0.559117 0.579132 -0.239180 -0.350373 0.540520 0.768974 -0.024817 0.244714 0.149756 0.434217 0.568329 -0.104860 -0.979201 0.481119 0.182454 -0.750684 -1.401061 0.413425 -1.025371 0.695361 0.030928 -0.214459 0.202647 0.068985 -1.125578 0.202097 -0.113030 1.405445 0.352108 0.970462 -0.329520 0.986301 -0.776771 0.646521 0.291362
able 0.604015 0.384546 -0.080075 -0.698918 -0.230666 0.556786 1.093477 0.173768 0.023380 0.381216 -0.579185 0.098275 -0.123497 0.699048 -0.386948 0.634452 -0.058505 -0.848363 -0.219345 0.752218 0.159796 -0.993919 -0.560622 0.251009 0.339256 0.848446 0.374348 -0.212376 0.840404 0.083706 0.335742 -0.838348 0.998300 1.354654 -0.543504 0.077839 -0.840946 0.036279 -0.337400 0.428714 0.296876 1.159557 0.802131 0.495903 -0.448935 -0.670778 0.754934 -0.334250 -0.201782 0.928379
we 0.327123 -0.035848 -0.716039 1.249025 0.303759 0.312638 -0.510098 -1.170226 0.143953 0.422676 0.228788 -0.504585 0.146291 0.013886 -0.210112 0.149733 -0.611144 -0.389741 -0.418971 0.069809 0.879731 -0.813181 -0.888830 0.358891 -0.112488 -0.317215 -0.109494 -0.563037 1.524084 0.607389 0.803473 -1.338671 0.742451 0.072807 -0.135928 0.669999 -0.460161 0.183160 -0.116854 0.115354 0.312587 -0.033686 -0.037542 1.032895 -0.208730 -1.235304 1.147519 0.484368 0.109270 0.165890
teacher 0.727901 -0.497980 0.156358 0.125040 -0.088137 0.255340 1.337732 -0.319481 -0.130431 0.711872 -0.145638 -0.307195 -0.040131 0.476007 -0.461671 0.949678 0.558784 -0.570961 -0.597891 0.407577 0.591353 -0.256695 0.190844 -0.392097 0.353280 -0.056547 0.540704 -0.505965 1.410048 0.575819 0.506424 -1.268672 -0.351134 -0.638518 -0.565667 -0.733020 0.167741 0.556355 -0.104555 0.148529 0.374685 0.384519 -0.001805 0.365364 -0.123091 -1.226756 0.417319 0.112803 0.999193 0.904421
so 0.305409 -0.001175 -0.238685 0.923856 0.556429 0.031718 -0.015375 -0.566979 0.213497 0.633564 -0.191895 0.464505 0.453981 -0.149204 0.382344 0.695186 0.400233 0.075033 -0.671290 0.393811 0.150734 -0.372337 -0.042993 -0.064587 -0.503926 -0.265001 -0.599316 -0.480510 0.249607 -0.287507 -0.126818 -1.035648 0.990877 -0.288459 -0.473883 0.413832 -0.586201 -0.027387 -0.721864 -0.521210 -0.018690 0.393577 0.727265 0.197370 -0.177022 0.117785 0.670761 0.486475 -0.068018 0.600059
understand -0.274733 -0.175123 -0.326429 0.250308 0.330496 1.452903 0.639456 -0.369669 -0.950480 0.478012 -1.246291 0.435589 -0.701963 0.650629 -0.232398 0.236732 0.013105 0.195455 -1.154828 0.079597 1.408992 0.129794 -0.560728 0.216536 0.963674 -0.795304 0.071287 -0.341352 0.462323 0.259940 -0.394634 -0.924212 -0.481823 -0.693237 -0.650768 0.684313 -0.060694 0.348805 -0.063048 -0.120909 -0.667978 -0.001955 1.366375 0.357074 0.001092 -1.171071 2.017427 -0.562559 -0.156533 0.353496
than 0.878360 -0.766684 0.533553 0.614527 -0.621140 0.564873 0.654142 -0.379566 0.905686 0.687580 -0.678158 0.126212 1.074884 0.504353 0.909988 -0.711992 0.621426 -0.032088 -0.956045 1.178427 0.796191 -0.658886 0.332539 0.167154 -0.166024 0.809797 -0.296239 -0.652286 0.752308 -0.286604 0.019475 -0.860336 -0.661366 -1.851539 -0.385488 -1.041760 -0.012605 -0.389698 0.425078 -0.889846 -0.548202 1.160775 0.326481 0.351018 0.406332 1.315766 0.440647 -0.015127 0.432541 0.727016
also 0.337360 -0.032407 -0.138662 0.247006 -0.326132 0.513444 0.497587 0.119176 -0.126370 0.340751 -0.631924 0.559981 0.598848 -0.654653 0.406204 0.669609 0.420245 -0.156309 -0.210380 0.333645 1.314440 0.031002 0.004765 0.083640 0.014099 0.475077 -0.299572 -0.687477 0.806444 0.269788 -0.058687 -0.627784 0.667515 0.638509 -0.318348 -0.324032 -0.475926 0.836076 -0.546553 -0.101997 0.535955 0.431957 0.739860 0.538736 0.277197 -0.807243 0.321812 -0.591749 0.557113 0.120131
You -0.849273 -0.191749 0.479162 -0.323844 -0.758249 0.983161 0.449326 -0.060971 -0.471896 0.441484 -0.007067 -0.021264 0.324558 -0.236381 -0.254762 -0.256498 0.420701 -0.294675 -0.436897 1.576722 0.293367 0.310408 -0.334761 0.272071 0.531152 0.265179 0.718583 -0.980739 1.752630 0.766452 0.422275 -0.693358 0.377754 0.544421 -0.571464 -0.155809 -0.435452 -0.076690 -0.049052 0.835900 0.709087 -0.352620 0.336826 1.156569 -0.009505 -1.137678 0.294086 -0.516792 -0.387758 0.552091
class 0.716803 -0.702302 0.397596 0.626714 -0.176484 -0.657742 0.033996 -0.071950 0.373313 -0.219146 0.233800 -0.063542 0.939110 -0.119691 0.658171 0.238079 0.312687 -0.665852 -0.490595 0.609588 0.609796 0.083980 -0.325564 0.346030 -0.468581 -0.513731 0.361071 -0.214426 0.474408 0.278652 0.094719 -1.602276 0.438905 0.312808 -0.420500 -0.059469 -0.135360 0.432029 0.142645 -0.000862 -0.318152 0.591661 -0.136694 1.282079 -0.525950 -0.532850 -0.078684 -0.060817 0.832228 1.045979
not 0.246011 -0.194482 -0.930122 0.100967 0.308884 -0.100107 0.588717 -0.512482 -0.343136 0.506173 -0.517304 0.188428 0.209847 0.361506 0.193957 0.880104 0.080049 0.485982 -0.840484 0.572945 0.095299 -0.027999 -0.144018 -0.030818 -0.402964 -0.448652 -0.765938 -0.206466 0.618110 0.133942 0.118909 -0.850276 1.224356 0.363511 -0.546047 0.236788 -0.355780 0.658880 -0.579597 0.099183 -0.466105 1.280924 0.320615 -0.083074 -0.494431 0.018964 1.225529 0.020538 -0.209602 0.650142
lectures 0.752404 -0.229501 0.112541 0.392513 0.093053 0.814494 -0.724593 -0.366944 0.088624 0.241942 0.434299 0.061242 0.819577 -0.399369 0.351161 -0.666380 -0.162319 0.364777 -0.016286 0.009990 1.401595 -0.131355 -0.684753 0.261090 0.122235 0.390764 -1.086476 -1.078028 0.113590 -1.000141 0.095171 -0.848926 0.481695 0.670771 -0.194332 0.311151 -0.359300 -0.025957 -0.731489 0.103852 -0.058617 0.803304 0.918123 0.588170 -0.558510 0.177789 0.255421 -0.140359 0.471440 0.896915
More 0.003592 -0.521306 1.353956 -0.114250 0.182761 -0.877015 0.339977 0.216922 0.414339 1.403728 -0.741243 0.197489 0.980381 0.672208 -0.153891 -0.644622 0.428276 -1.140067 0.277529 0.945393 -0.196281 0.252628 1.708695 -0.463976 -0.050173 1.479764 0.802094 -0.264616 -0.238173 -1.015877 -0.285053 -0.525120 0.760550 -0.299972 0.789373 -0.204661 -0.981925 0.569783 0.429767 -0.462521 1.323013 0.139603 -0.250779 1.460775 0.296817 0.608691 0.821930 -1.143595 0.750656 0.125900
feel 0.514021 -0.213150 0.536790 0.621021 -1.100058 -0.622848 -0.108415 -0.156508 -0.159420 0.635076 -1.737096 1.261030 0.164091 -0.245523 0.312467 -0.050323 1.394743 -0.561944 -0.370769 0.058214 0.317566 0.369324 0.327417 0.403687 0.208210 -0.305652 -0.749285 -0.670400 0.694320 -0.686381 -0.192160 -1.250212 1.446388 0.712760 0.418797 0.514580 -0.855631 0.662206 -0.479320 0.091126 -0.599958 0.578971 0.133125 0.777898 -0.875405 -0.474072 1.155987 0.320538 -0.171412 -0.065664
or 0.222287 0.077200 -0.218969 0.764341 0.392091 0.796336 0.090873 -1.325367 -0.695115 -0.081388 -0.130394 0.329696 0.572361 -0.473731 -0.094123 0.449769 0.003397 0.035037 -0.990092 0.723275 0.308256 0.255025 -0.066241 0.037196 0.365256 -0.097951 -0.062701 -0.507393 -0.136883 0.521355 0.195046 -1.374637 -0.012793 -0.472444 -1.428859 -0.425462 -0.256864 -0.367176 -0.011303 0.326256 -0.932079 1.005785 0.978327 0.377530 -0.301150 0.359217 0.366520 0.254403 -0.175330 0.781323
pace -0.163651 0.195738 0.452773 -1.050229 -0.470470 0.999687 0.499435 0.233975 -0.175046 0.392742 -0.089563 1.471890 -0.388853 0.849409 0.049425 0.598032 0.125465 0.267693 -1.297871 0.771126 1.371851 -0.458877 -0.541493 0.114222 -0.697276 0.063373 0.107190 -1.286202 0.978063 -0.287748 -0.134817 0.075230 0.502429 0.033522 -1.306339 0.467685 -0.261220 -0.527245 -1.103184 0.585724 0.264347 -0.220874 -0.058354 0.533419 -0.451493 0.605605 -0.202897 -0.496748 -0.702125 0.120015
being 1.341825 -0.034336 0.045601 -0.506202 -0.243348 0.495570 1.448179 0.059560 0.676164 0.868434 -0.901273 0.071846 -0.272835 0.495102 1.193251 0.039111 0.188042 -0.109287 -0.445147 0.687366 0.361412 -0.609461 -0.321597 0.953884 -0.397642 -0.153187 -0.179557 -0.172336 0.636528 -0.122202 0.147110 -0.060323 0.508744 0.396878 -0.581842 0.017051 0.036035 0.404436 0.062100 0.229578 0.023015 1.254091 0.281772 0.467655 -0.666069 -0.454410 0.577399 -0.065181 -0.018040 0.883539
interactive 0.226268 -0.136290 0.546785 0.672938 0.380296 -0.517625 0.742425 0.512503 0.790606 1.218380 -0.630860 0.019966 0.505229 0.011602 0.261639 -0.559734 -0.135973 -0.990475 0.426040 0.497085 0.480938 -0.004394 0.830272 -0.083114 -0.377622 0.934870 -0.107686 -0.404919 0.164654 -0.472480 0.273347 -0.448801 0.728832 0.028879 0.999573 0.328734 -0.594216 0.911513 -0.035926 -0.718980 0.856560 0.090836 0.295845 1.005337 0.372408 0.162520 0.662998 -0.780768 0.836188 0.214657
go 0.106515 1.027174 -0.190173 0.009352 -0.263115 0.390693 1.204492 -0.495135 -0.744493 -0.141185 0.124445 0.694957 0.041998 0.282414 -0.320353 -0.067442 -0.406829 -0.060598 -0.368962 0.137443 1.580495 0.200334 -0.827801 0.274263 -0.178895 0.837703 0.170343 -1.070589 1.107653 0.215620 0.471064 -0.711963 0.105731 -0.061084 -1.792587 0.296151 -0.008342 -0.095999 -0.396044 0.746246 -0.558481 0.152172 1.130806 1.166450 0.365428 -0.161955 0.258944 -0.859087 -0.513502 0.382492
most 0.467490 -0.677908 0.541010 0.721464 0.450241 -0.631903 0.204737 0.470389 0.494913 0.791766 -0.646850 0.098264 -0.164637 -0.452084 0.662417 -0.545602 -0.203859 -1.586244 0.205510 0.340404 1.168625 0.181256 0.123741 0.542583 -0.619326 0.406755 -0.859873 0.000912 -0.038134 -0.477530 0.641507 -0.202692 1.258903 0.088507 0.840800 0.739194 0.122041 1.159739 0.032403 -0.664247 0.564049 0.470517 0.164023 1.249704 0.297041 -0.512968 0.684096 -0.013721 0.779166 0.137599
i 0.375974 -0.052808 -0.033948 0.680146 -0.238963 0.301111 -0.471290 0.225406 -0.544177 -0.157364 0.065781 0.555611 -0.289381 -0.347992 0.039436 0.203808 -0.053505 -0.393403 -0.968972 0.801017 1.709717 -0.159531 -0.715145 -0.764069 0.579384 0.278586 -0.141707 0.533740 0.762598 0.209876 0.096875 -0.653494 0.809142 0.729771 0.292737 0.484575 -1.052262 -0.107817 -0.446248 -0.748332 -0.309851 0.044033 0.810053 0.437840 -0.424832 -0.483915 1.601398 0.680602 -0.515517 0.378476
just 0.833628 -0.181485 -0.394443 0.999844 -0.375422 0.653937 0.700451 -0.659715 0.326199 0.402257 -0.772097 0.593133 0.752499 0.445670 1.012249 -0.293578 -0.182268 0.417409 -0.707275 1.344608 0.550954 -0.652736 -0.689655 0.432447 -0.263357 0.201716 -0.270892 -0.346196 0.898929 -0.076404 0.382063 -0.570043 0.333024 -0.859040 -0.298660 -0.654320 -0.240063 0.287387 0.162440 0.018749 -0.570024 0.699903 0.382626 -0.102132 -0.183374 0.703637 0.759519 0.616161 0.280640 0.321044
teachers 0.111582 -0.102284 0.237884 -0.148245 -0.008747 0.297249 0.437061 -0.214937 0.071736 1.148598 0.036300 -0.327277 0.360565 0.201099 -0.846437 1.023030 -0.030525 -0.613819 -0.133672 0.014229 0.163656 -0.506726 -0.522736 -0.048528 -0.032224 -0.157915 0.393622 -1.124829 1.263415 0.201081 0.415913 -1.167575 0.205286 -0.096420 0.257230 -0.685523 -0.450675 0.206267 -0.331478 0.220950 0.578823 0.732528 -0.202532 0.092008 -0.116567 -0.683494 0.389698 0.292273 0.871342 0.642711
watch 0.335004 0.017651 0.450365 0.156680 -0.386345 1.218660 -0.187966 0.509061 -0.580687 -0.494597 0.961177 0.435552 0.810624 -0.150556 0.176579 -0.778065 0.110126 0.545775 -0.486841 0.924270 1.464479 0.543074 -1.031250 0.142121 0.136573 0.878615 -0.772129 -0.174730 0.879597 -0.067798 0.000015 -0.148524 0.445414 0.492004 -0.971333 0.166911 -0.464420 -0.720564 -0.473960 0.292951 0.078074 -0.117792 1.106934 0.908190 -0.283185 0.126768 0.470281 -0.166559 -0.979699 0.476781
allows -0.147104 -0.371342 0.837809 0.264161 0.464890 0.146239 0.141269 0.168103 -0.083359 0.378030 -0.003621 0.498572 0.683337 -0.021778 -0.304239 0.783169 -0.335509 -0.548995 -0.110429 -0.353788 1.515769 0.404468 -0.107252 0.304532 -0.000240 0.130581 0.425419 -1.095805 0.758909 -0.629760 -0.358884 -0.884898 0.259204 -0.307968 -0.535480 -0.523622 -0.272087 0.530766 -0.382540 0.033081 0.662889 -0.007923 -0.129232 0.635986 0.547895 -0.295108 -0.034275 -1.110960 0.980885 0.409299
recorded 1.168174 -0.283821 -0.106724 0.301416 -0.102826 0.911053 -0.456118 -0.662813 0.097229 0.436587 0.414207 0.012107 0.729897 -0.191542 0.435634 -0.777121 0.301990 0.463503 0.102490 0.607578 1.312852 -0.484196 -0.585252 -0.242252 0.653431 0.718190 -1.178735 -0.840972 -0.348840 -0.957839 0.198300 -1.164709 -0.208634 0.688626 -0.545429 0.014931 -0.566216 0.173594 -0.901141 0.237244 0.032386 0.939191 1.062707 0.570814 -0.821694 0.243697 0.271979 -0.052687 0.603326 0.649337
but 0.810272 -0.475783 -0.820009 -0.117284 -0.215965 0.148196 0.329905 -0.559403 0.435240 0.930081 0.276673 0.451691 0.239514 -0.467704 0.848924 0.448471 0.273910 0.138334 -0.837573 0.811485 1.063477 -0.418455 -0.470381 -0.345448 -0.352602 -0.108337 -0.387332 -0.727447 0.450569 0.463105 0.006053 -0.710618 0.562611 0.097840 -0.686593 -0.303471 -0.828459 0.416092 -0.805129 -0.369611 0.621196 0.262629 -0.043532 0.613987 -0.222603 -0.146462 0.109736 0.014443 0.577893 -0.100662
an -0.237196 -0.438243 0.049014 0.970263 1.180060 -0.724847 0.419078 -0.280822 0.901733 -0.458307 -1.454766 0.058302 0.283118 0.162947 1.157110 0.542596 -0.928844 -0.542140 0.930308 1.272348 0.464010 0.788067 0.338308 0.136031 0.426509 -0.592502 0.557815 -0.401468 0.183903 -0.333118 0.816264 -1.035804 0.200499 -0.350594 -0.788444 0.277113 -0.735093 0.321080 0.954335 -0.272940 0.393496 0.475753 0.522900 0.793048 0.304065 0.180503 -0.075595 -0.190349 0.302283 1.400678
better -0.600013 -0.772574 0.389543 0.433280 0.050032 0.572805 0.562914 -0.107776 0.237398 1.118576 -0.766981 0.184112 -0.622346 0.892917 -0.161440 -0.068446 0.315366 -0.337005 -0.663202 -0.008387 1.182841 -0.746176 -0.398987 -0.033169 0.662319 0.375273 -0.045043 -0.852725 0.693405 -0.533093 -0.484531 -1.037964 -0.183249 -0.838236 0.082908 -0.478363 -0.144198 0.059223 -0.327225 -1.576000 -0.233176 -0.203191 0.151693 -0.289177 0.166978 0.093716 0.928088 -0.617298 0.127631 0.580769
interaction -0.218697 -0.625360 0.210366 0.054990 0.525599 -0.942812 0.181726 -0.373024 -0.231473 1.496160 -0.111518 -0.373683 0.969092 -0.441713 -0.284706 0.568421 0.141893 -1.032506 0.258665 -0.460797 0.387788 0.573392 0.933990 -1.046085 0.662431 0.273052 0.549936 -0.657606 -0.298491 -0.673672 -0.126486 -0.918673 0.597167 -0.557519 0.132790 -0.861702 -0.434565 1.019417 -0.195551 -0.542260 0.943488 0.127967 -0.644144 0.992309 0.322032 -0.353059 -0.012795 -0.387077 1.506158 0.810688
pause 0.188021 0.518571 0.292851 -0.340045 -0.091783 1.552312 0.500604 0.230158 -1.104566 0.088618 0.233380 0.646019 0.352352 -0.653283 -0.451814 -0.316455 0.030978 -0.097816 -0.969345 1.069708 0.847580 0.620597 -0.915194 0.079316 0.552298 0.696038 0.184922 0.020993 -0.163268 0.570008 -0.553890 -1.051625 0.365131 0.643253 -1.258176 0.314757 -0.506191 -0.491000 -0.686935 0.621611 -0.034209 -0.029550 1.681572 0.817340 -0.194960 -0.287330 0.306215 -1.152794 -0.465190 0.100099
which 0.338272 0.018798 0.422946 0.673737 0.395459 -0.092705 0.194123 -0.210349 -0.401580 0.081425 0.160572 0.639661 0.870138 -0.627249 -0.449902 0.692792 0.352971 -0.164102 -0.430831 -0.289735 1.046268 0.033384 0.302601 0.295508 -0.465352 -0.565831 -0.334403 -0.472077 0.602191 0.306158 -0.009966 -0.528357 0.310290 -0.285257 -0.866266 -0.012966 -0.016514 0.688140 -0.355159 -0.405894 -0.194285 0.306297 0.060058 0.055325 0.143720 -0.223731 0.445391 -0.199214 0.532084 0.745442
take -0.802240 0.340351 0.462533 -0.178354 -0.091010 0.930944 0.304337 0.577757 -0.228734 0.612110 -0.203726 0.601544 0.489995 -0.650773 0.021903 -0.310664 -0.386204 -0.208851 -1.093120 0.253297 0.798130 0.529723 -0.861445 0.208228 -0.110880 0.057483 0.040638 -0.156929 -0.081616 0.405322 -1.259846 -1.244648 0.593111 0.120185 -1.121927 0.382914 -0.581696 -0.702367 -0.655222 -0.305110 -0.288350 0.341967 1.217404 0.425820 0.662063 0.119354 0.453649 -0.793267 -0.661172 0.697272
because -0.000956 -0.381527 -0.261872 0.592505 0.103045 -0.010846 0.344167 -0.012723 -0.322424 0.649127 -0.076453 -0.171650 0.413174 0.142391 0.280052 0.089212 -0.369312 0.165175 -0.330573 0.301059 1.327801 0.209621 -0.063631 -0.618523 -0.323119 0.520559 -0.855004 -0.401928 0.924695 -0.096290 0.125601 -0.832224 0.884685 0.066112 0.628821 0.021151 -0.417008 0.181142 -0.725243 -0.433119 0.000934 0.999717 0.545261 0.353328 -0.393354 0.079328 0.826805 0.615328 0.058524 0.561096
would 1.568184 0.093291 -0.576967 0.462149 -0.834081 -0.117287 -0.614962 0.056057 0.579896 -0.105570 0.263078 -0.159025 0.049119 -0.395026 0.188405 -0.169322 0.073407 -0.213852 -0.544298 -0.368790 1.165357 -0.766661 -0.548332 0.555694 0.424031 0.017916 -0.498507 -0.229248 1.131130 0.373429 -0.072619 -0.846165 0.677774 0.694213 0.421802 -0.316268 -1.146674 0.473345 -0.022872 -0.464270 -0.410634 1.077416 0.138820 -0.115637 0.122988 -0.153540 1.216800 0.413534 0.679699 0.778900
it’s 0.165696 -0.277438 -0.459782 0.343688 0.121560 0.042911 0.752658 0.337500 0.461382 0.945032 0.108240 -0.242670 -0.042950 0.182565 0.580313 -0.287281 0.329020 -0.023343 -0.467154 1.283350 -0.021151 0.184472 0.096031 -0.528239 -0.286788 0.121361 -0.895389 -0.465636 0.423122 0.424796 0.274254 -1.093763 1.266528 0.075672 0.318722 0.464453 -0.205638 0.344821 -0.406469 -0.824131 0.360990 0.169247 0.928473 0.398139 0.339058 -0.270265 0.949611 -0.205064 0.216063 0.270519
learn -0.319286 -0.662536 0.513095 0.135008 0.092731 1.064501 0.245113 0.076534 0.118736 0.549307 -0.870783 1.112373 -0.602686 0.702558 -0.190316 0.411367 0.503389 -0.413014 -0.852795 0.583437 1.278716 -0.684431 -0.686667 0.454657 0.116128 0.305761 -0.065505 -0.731940 0.651199 -0.328175 0.160630 -0.319408 0.234812 -0.479615 0.245578 0.093705 -0.748548 0.379429 -0.437073 -0.776215 0.153684 -0.274966 0.337795 0.015499 -0.298255 -0.084161 1.142854 -0.166486 0.222294 -0.070060
other -0.097738 -0.643185 0.501719 0.349962 -0.206200 0.465696 -0.188762 -0.115101 -0.893383 0.616461 -0.709306 -0.354461 1.311189 -0.459541 -0.635590 0.887466 0.658119 -1.241013 -0.769137 0.012801 -0.113826 -0.963580 -0.383875 0.171329 0.012914 0.546898 0.546216 -0.076589 -0.153716 0.669312 0.741009 -0.499927 0.091990 -0.245800 0.557045 -1.274209 0.000565 0.386328 -0.217717 -0.118126 0.057547 1.663704 -0.543096 0.302061 -0.391305 -0.578175 0.341249 0.609269 0.670228 -0.104125
It’s 0.030447 -0.199443 -0.128054 -0.016022 0.514259 0.132328 0.961508 0.526135 0.739820 1.078614 -0.307180 -0.072944 0.264839 0.420220 0.402648 -0.484403 -0.436750 -0.305118 -0.272962 0.933848 0.248396 -0.083290 0.031228 0.338508 -0.440349 0.649167 -0.142546 -0.373176 0.150747 0.232707 -0.191062 -0.958193 0.963686 -0.521111 0.681237 0.536922 -0.354714 0.532763 0.062217 -0.941097 0.560182 -0.299206 0.768530 0.699773 0.929587 -0.273567 0.927504 -0.967132 0.867108 0.025875
learning -0.037605 -0.316030 0.534916 0.460318 0.442510 -0.418836 0.396328 -0.043317 0.201703 0.639043 -0.695959 0.409134 -0.251634 0.586555 0.395452 -0.014275 -0.296830 -1.037779 -0.275944 -0.466957 0.928844 -0.353502 0.147981 0.358146 -0.826840 -0.243433 0.290807 -0.344059 0.195400 -1.074421 0.109031 -0.533012 0.522013 -0.141544 -0.260945 0.375104 -0.622761 0.760108 -0.148433 -0.726166 -0.125452 0.429344 -0.224237 -0.007033 -0.410140 0.274620 0.338359 0.147589 -0.000655 1.166629
am 0.101360 0.206455 -0.060436 -0.047197 0.235701 -0.386521 0.621646 0.200976 0.376956 -0.223937 -1.143561 0.439001 -0.857326 0.536262 0.282871 0.668296 0.173574 -0.519412 0.096819 0.462645 0.495395 -0.450881 0.397491 -0.072135 0.143797 0.497659 -0.249632 0.049221 1.068632 -0.374815 0.124789 -0.343516 1.028478 0.886715 -0.358664 0.675788 -0.859861 -0.087117 -0.275443 -0.440248 -0.175625 1.250141 0.791881 -0.037494 -0.353325 0.041887 0.889767 0.355724 -1.093294 0.729551
real 0.733552 -0.254965 0.812511 0.261356 -0.252200 0.139124 0.135766 0.888395 1.098778 0.568921 -0.496995 -0.406067 0.136075 -0.289334 0.258862 -0.415386 0.355243 -1.398667 -0.238321 0.798822 -0.138325 -0.682787 0.566807 0.521614 -0.455385 -0.862441 0.190544 -0.198832 0.120095 0.479733 0.615941 -0.946818 -0.058415 0.447184 -0.235227 0.803976 0.039570 0.257542 -0.123630 -0.327593 0.879681 0.093500 -0.097650 1.269677 0.027541 -1.320003 -0.760264 -0.383789 0.919057 1.147861
from -0.957066 -0.822085 -0.079349 0.733885 0.150853 1.115159 -0.034207 0.042807 0.231437 0.929594 -1.128080 0.613509 0.260387 -0.800040 0.258956 0.412832 0.302654 -0.717462 -0.377756 0.337245 0.313245 -0.920944 -1.179275 0.815326 0.183851 -0.449660 -0.016511 -1.177877 0.285136 0.387301 0.861411 -0.169394 -0.037662 -0.347756 -0.482937 -1.197662 -0.401560 0.202693 -0.391106 -0.487739 0.154591 1.016058 -0.081911 -0.524064 0.280512 0.240267 0.026100 0.631156 0.859709 0.395119
interact 0.093126 -0.630449 0.566403 -0.755416 -0.619532 -0.235406 0.304976 0.457692 0.020223 0.573637 0.145898 -0.231462 0.280038 0.049068 -1.152823 0.680048 0.407939 -1.504678 0.381931 0.629427 -0.174363 -0.048044 -0.599559 0.014197 0.533166 0.135872 1.002220 -0.853741 1.258254 0.599980 0.624368 -1.632503 0.613263 0.673127 0.991629 -0.505651 -0.465022 0.556186 0.005502 0.391398 0.706981 0.344014 -0.143396 0.612199 -0.089315 -1.474209 0.123176 0.091889 1.411300 0.030533
back -0.008491 1.393335 -0.147408 0.257331 -0.015971 0.481150 1.225050 -0.222402 -0.871399 -0.897182 0.426158 0.407461 0.443729 0.023143 0.166190 -0.451975 -0.648342 0.300732 0.304249 0.282731 1.427414 0.851995 -0.877321 0.348020 -0.109332 1.008178 -0.155274 -0.639956 1.105771 0.351332 0.640894 -0.262995 0.210947 0.168983 -1.514141 0.365928 0.047030 -0.419845 0.382609 0.947597 -0.484215 0.182071 1.992794 1.236433 0.859857 -0.230625 0.250430 -0.810979 -0.684713 0.390971
any 0.596776 0.273768 -0.114322 0.683331 0.962947 0.809137 -0.854136 -0.047645 -0.441545 -0.415733 -0.156190 -0.227500 0.948911 -0.496510 -0.269303 0.628805 0.229326 0.221375 -0.714215 0.693032 0.787414 -1.014263 0.454960 0.304060 0.190056 0.360625 0.672507 0.246767 1.012030 0.914881 0.258819 -0.661314 0.212308 -0.331313 -1.485379 0.425724 -0.857003 0.014560 -0.798181 0.522388 0.948384 0.417102 -0.274413 1.132005 -0.252531 -0.084208 0.008688 -0.278263 -0.538060 0.191871
lecture 0.782654 -0.329932 0.261280 0.615692 0.133915 0.634913 0.342055 -0.177373 0.132486 -0.059611 0.292499 0.260436 0.395501 -0.218781 0.450550 -1.062269 0.003760 -0.395514 -0.550099 0.816158 1.112440 -0.172627 -0.530113 0.318614 0.220574 0.205831 -0.342500 -0.007697 -0.219757 -0.149727 0.147637 -0.911727 -0.344208 0.078621 -1.193877 0.297491 -0.233927 0.317748 -0.383411 -0.069174 -0.233714 0.409614 0.964432 0.737416 -0.489081 -0.056614 0.097842 -0.464269 0.442322 1.035956
material 0.643021 -0.443320 0.708290 0.138157 0.562681 0.641332 0.644308 -0.637383 -0.129928 0.817392 0.310983 0.446711 -0.461852 0.809927 0.001303 0.178765 -0.119675 0.014002 -0.722375 0.102838 1.278421 -0.508521 -0.448639 0.753351 -0.068795 0.419728 0.122132 -0.800375 0.696499 -0.597858 0.059804 -0.256952 -0.359394 -0.977061 -1.003429 -0.340791 -0.163779 0.144937 -0.351598 -0.008761 -0.226478 0.324504 0.254646 0.263422 -0.735948 0.237822 0.525786 0.044107 0.065183 0.477202
them 0.436836 0.019239 0.444179 0.938725 -0.243166 1.289554 -0.008851 1.018949 -0.388612 -0.057807 0.463544 0.038837 0.862764 -0.156918 0.035080 -0.121993 0.025610 0.239385 -0.325153 0.798124 0.879784 0.095465 -0.913412 0.023241 0.408932 0.457521 -0.208397 -0.085388 1.153297 0.323507 0.441213 -0.405771 0.186741 0.074663 -0.477426 -0.788775 -0.549144 -0.712329 -0.238532 0.098597 0.338159 0.316583 0.649587 0.561429 -0.125600 0.019152 0.249060 0.116787 -0.496573 0.785502
Can 0.107861 -0.000504 1.119006 -0.584108 -0.618951 0.755377 0.224630 0.964074 -0.403643 -0.676146 0.775102 0.646787 0.070528 -0.092207 -0.664055 0.229557 0.754412 -0.308908 -0.537823 0.978202 0.747272 0.204609 -0.174279 0.563333 0.286901 0.495933 0.650926 -0.619435 1.688026 0.848962 0.046837 -0.331777 0.208229 0.304974 -1.121010 -0.071670 -0.487288 -0.608117 0.004261 0.755454 0.459083 -0.197353 0.111316 0.952213 0.079653 -0.323550 -0.126309 -0.682379 -0.711372 0.344887
through 0.141435 0.112512 0.064229 0.131937 0.103529 0.599811 1.157111 -0.946116 -0.030958 0.283597 0.110430 0.536068 -0.528179 0.813088 0.103092 0.466593 -0.158260 0.079656 -0.360309 0.556287 1.033534 -0.713753 -0.515790 0.511148 -0.098769 0.428737 0.136383 -1.368575 0.995472 -0.089209 0.805148 -0.206435 -0.160252 -0.692723 -1.103385 -0.353457 0.395591 -0.072739 -0.087090 0.239851 -0.413806 0.118118 0.027407 0.346002 -0.529077 0.478733 -0.031770 -0.049050 -0.033305 0.613613
students 0.005471 -0.656496 0.640076 0.136999 -0.024330 0.179849 -0.212111 0.092695 -0.657466 0.570318 -0.260694 -0.095662 0.998073 -0.688070 -0.762047 1.006792 0.434408 -0.786046 -0.418323 -0.730487 0.417228 -0.077158 -0.201259 0.519753 0.037342 0.017162 0.331461 -0.635586 0.471551 0.089517 -0.192916 -0.806350 0.213986 0.137504 0.292386 -1.134616 -0.146714 0.859281 -0.351427 0.084529 0.204303 1.153557 -0.365247 0.176149 -0.312747 -0.887136 0.319531 -0.197596 1.170194 0.369920
actually 0.844465 -0.434744 0.217071 -0.335661 -1.170037 -0.006178 0.778384 -0.094659 -0.065877 -0.139972 0.098670 0.370818 0.056109 0.835617 0.470016 0.276043 0.144908 -0.107528 -0.255489 0.818238 0.855336 0.059277 -0.384416 0.433478 0.203612 0.278078 0.274688 -0.440308 1.438884 -0.373958 0.357029 -0.503186 0.764095 0.791640 0.819064 -0.120450 -0.284972 0.828032 0.558175 0.807609 -0.247499 0.180954 0.446921 0.352032 -0.778741 -0.706191 1.102745 0.346979 0.469104 0.667683
much 0.337476 -0.039150 -0.056194 0.421255 0.285828 0.053599 0.458860 0.149773 0.681627 1.237062 -0.713228 0.128048 0.017471 0.160180 0.467318 -0.153577 0.337673 0.184280 -0.613919 -0.057158 0.381199 -0.182696 0.047052 0.483338 0.109577 0.229068 -0.961724 -0.516814 -0.085450 -0.020826 -0.457451 -0.875612 1.058276 -0.890807 -0.111626 0.087415 -0.590033 -0.065366 -0.153076 -1.287889 -0.339259 0.048954 0.548674 0.666170 0.770148 0.050781 1.053499 -0.191116 0.213905 0.608481
having 0.816337 -0.312144 -0.179648 -0.127763 -0.206396 0.593541 0.244246 0.122572 0.152865 0.184736 -0.776450 0.067272 0.396209 0.461932 0.996824 0.457125 0.452113 0.353288 -0.530471 0.508148 0.432524 -0.344245 -0.196848 -0.089868 0.783848 -0.129924 0.178168 -0.377291 0.146971 -0.502867 -0.155497 -0.892404 0.198175 -0.254997 -0.377861 -0.695493 -0.602641 0.004466 -0.099477 0.090400 -0.183247 0.806933 -0.028505 0.533122 -0.727756 0.371248 -0.146301 0.149356 0.200232 1.470763
feels 1.173361 -0.045375 0.135064 0.761443 -0.685779 -0.819871 0.929893 0.057650 0.701514 0.671569 -1.108155 0.751560 0.548156 -0.200876 0.593767 -0.622609 0.362313 -1.234120 -0.036705 1.289764 0.092281 0.042593 0.354282 0.275279 -1.015392 0.106197 0.045867 0.167305 0.217317 -0.197704 0.784122 -0.777950 0.857557 0.053435 0.073432 0.427416 -0.107695 1.014887 -0.034049 -0.042182 0.337121 -0.238125 -0.152624 1.170511 0.002968 -0.279660 -0.067505 -0.424901 0.839894 -0.300544
way -0.479777 -0.785020 -0.041987 0.479060 0.906017 0.154823 0.188529 0.324812 0.397451 0.792210 0.098494 -0.218972 -0.206834 0.400528 -0.325875 -0.089049 -0.506079 -0.590122 -0.591264 -0.012251 1.213479 -0.795554 -0.256473 0.164654 -0.323561 0.422501 -0.415088 -0.205834 0.425367 0.299369 -0.254823 -0.761881 0.753431 -0.567359 0.746310 0.711490 -0.207013 0.610079 -0.428784 -1.366486 0.448232 -0.063293 -0.039104 0.116652 0.286934 -0.183588 1.075940 -0.366255 0.427809 0.319993
content 0.433773 0.001329 0.141766 -0.050616 0.342077 0.751700 1.261277 -0.197683 -0.264562 1.068967 -0.232392 0.236660 -0.625697 0.794552 -0.132774 -0.165288 -0.030170 -0.051343 -0.575242 -0.451443 1.242865 -0.732144 -0.551446 0.622738 0.287330 0.307721 0.351388 -0.552195 0.871188 -0.315128 -0.272611 -0.223268 -0.426153 -0.488500 -0.922586 -0.133866 -0.121748 0.604248 -0.330242 -0.182072 -0.151023 -0.177976 0.140243 0.206165 -0.506810 -0.148135 0.809542 -0.752705 -0.102728 0.683585
don’t -0.288191 0.785923 -0.646254 0.528476 -0.424201 0.826359 -0.442596 -0.785527 -0.883194 0.002446 -1.063831 0.146120 -0.032196 0.028818 0.102640 0.323959 0.221769 0.587187 -0.869818 0.180434 0.899803 -0.189537 -0.078442 -0.146123 0.452022 -0.640625 0.089135 -0.453954 0.688214 0.359643 0.394353 -0.946828 0.226657 0.087466 -0.089146 0.767492 -0.856240 0.105557 -0.180138 0.685445 -0.181421 0.308694 0.667718 0.856417 -0.452831 -0.655873 1.220890 0.091966 -0.543484 0.359308
this -0.004037 -0.628129 -0.185857 0.602003 0.598237 -0.022957 -0.509880 0.115683 0.366202 -0.069661 0.135583 0.278305 -0.029846 -0.237099 -0.039205 0.495811 -0.254216 -0.425401 -0.280036 -0.487426 2.058266 -0.672157 -0.159689 -0.205990 -0.050926 0.048466 -0.648854 -0.074200 0.465570 -0.013095 -0.230147 -0.364908 0.475097 0.280630 0.557517 0.679586 -0.338705 0.637677 -0.890996 -1.283004 0.223116 0.373800 -0.133913 0.183123 -0.097152 -0.335868 0.820800 0.484077 0.122961 0.300410
find 0.571424 -0.203996 0.101994 -0.003688 0.453198 0.408113 0.078957 -0.141213 0.064303 0.106740 0.069428 0.618514 -0.268607 -0.040854 0.563483 0.869976 0.647330 -0.492149 -0.596224 0.303235 1.159614 -0.303788 0.136613 -0.219068 0.282198 0.769400 -0.851396 -0.469803 -0.101240 0.488052 -0.429730 -0.355160 0.953462 -0.445583 0.474879 -0.161715 -0.533376 0.048228 -0.173198 -1.246242 -0.382080 0.619923 1.281360 0.131492 0.185795 0.152264 0.599561 0.402008 0.295962 0.507091
they 0.643418 0.331453 -0.267242 0.650634 -0.332372 0.798050 -0.175425 0.050840 -0.161061 0.529386 0.284341 -0.713070 0.122062 -0.120739 -0.706948 -0.408689 -0.015931 0.452337 -0.510140 -0.762798 0.720282 -0.709901 -0.689878 0.492870 0.243867 -0.425257 -0.926366 -0.562183 1.147695 0.228943 0.123699 -0.685570 0.244317 0.346436 0.031795 -0.058639 -0.299374 -0.161308 -0.416461 0.431164 0.173253 1.199016 0.101385 0.146314 0.169366 -0.718458 1.194179 0.042871 -0.136477 0.635487
want 0.293222 -0.348905 0.641448 0.682981 -0.293851 0.867265 -0.853231 0.687238 -0.739201 -0.433260 0.280129 0.268631 0.087822 0.246244 -0.069602 -0.118059 0.115610 0.168015 -1.214638 0.545653 0.664934 0.635663 -0.893819 0.164407 0.458494 -0.036812 -0.306942 0.333070 0.554584 -0.060711 -0.228547 -0.829874 1.158477 0.006563 -0.112789 0.155650 -0.698572 -0.733915 -0.237029 0.539889 -0.222639 -0.452755 0.601182 1.359720 -0.565105 -0.449519 1.064625 0.719518 -1.033607 0.293070
need 0.042668 0.265176 -0.191308 0.608211 0.181421 0.634386 -0.304202 0.080040 -0.816490 -0.347628 -0.197892 -0.261825 0.275942 0.055512 -0.267693 0.135231 -0.162850 0.332738 -0.875285 0.057221 0.425707 0.462442 -0.359837 -0.109510 0.680241 -0.136271 0.230245 0.163859 0.573117 0.282712 -0.128388 -0.950499 0.625339 -0.321447 -0.713483 0.114930 -0.641038 -0.487021 0.077047 0.518753 -0.266609 -0.056664 0.616124 1.057340 0.124502 -0.568305 1.104067 0.210384 -0.749481 0.433080
online 0.472519 -0.429165 -0.062924 0.245479 0.608075 -0.138244 -0.643654 -0.484847 0.377066 0.215596 0.533963 -0.498654 0.398810 -0.307190 0.781946 0.371925 -0.602571 -0.371879 -0.226775 0.037189 1.000380 -0.186500 0.032150 -0.324178 -0.219190 -0.425478 -0.799208 -0.596239 0.176818 -0.044533 0.469010 -0.404219 0.578882 0.177228 0.198220 0.346101 -0.269134 -0.103293 -0.231025 -0.369895 -0.088522 1.287687 0.221459 0.843822 -0.612649 0.044483 0.017297 0.974296 0.195820 1.311916
notes -0.753786 0.460472 0.417279 -0.302758 -0.526456 1.071144 0.470926 0.235861 -0.038629 0.388418 -0.499104 1.128469 0.618047 -0.372496 -0.007891 -0.468087 -0.096963 -0.346978 -1.019761 0.655514 0.415984 -0.147014 -1.103987 0.159332 0.162163 0.534807 0.083248 0.122972 -0.774647 0.218825 -0.960343 -1.047576 0.034546 0.121525 -1.095076 0.102142 -0.148109 -0.680496 -0.669797 -0.367669 -0.352571 0.371701 1.342279 -0.228546 0.758082 0.593772 0.130604 -0.854751 -0.196843 0.235687
still 0.116397 -0.064820 -0.445481 -0.353039 -0.886222 -0.145923 1.131864 -0.011600 -0.136691 1.072764 -0.620882 0.370483 0.196705 -0.032444 0.531505 0.218395 -0.008143 -0.289746 -0.233189 0.551711 0.391466 -0.175979 -0.134886 -0.350297 -0.081438 -0.000642 0.698790 -0.696175 1.123750 -0.165494 0.487458 -0.072491 0.726317 0.868127 -0.233502 -0.229299 -0.631763 0.905695 -0.541586 0.609306 0.912195 -0.219420 -0.422233 0.555638 -0.522503 -0.567825 -0.177447 -0.240792 0.452548 0.419673
face 0.732149 -0.034274 -0.140420 0.233979 0.229871 -0.087106 0.512983 0.407240 -0.056522 0.383324 0.022752 -0.257165 0.154164 0.809958 0.017183 0.325396 -0.298827 -1.079457 -0.243722 -0.419390 -0.163325 -0.165709 -0.105176 -0.066541 -0.033155 -0.742470 0.741953 -0.046238 -0.753149 -0.836734 0.677565 -0.526535 0.965938 0.006678 0.499771 -0.400833 -0.697613 0.960264 -0.073031 0.221738 0.232413 -0.579564 -0.277302 0.655385 -0.177984 -0.162153 -0.496450 -0.154674 1.442751 1.899475
gives -0.175739 -0.939394 0.306230 0.196355 -0.257312 -0.147400 0.026003 0.596094 -0.167844 -0.291789 -0.984082 0.317250 0.870903 -0.180696 0.711484 0.460512 -0.010520 -0.336800 -0.084044 -0.078430 1.489443 0.216018 0.269333 -0.047676 0.363353 0.309198 0.298968 -0.593826 0.944130 -0.578210 -0.567273 -0.327546 0.188989 0.565574 -0.426611 -0.391724 0.592902 1.232151 -0.146806 0.528545 0.550238 -0.220227 -0.271200 0.932489 0.408097 -0.648715 -0.155108 -1.121097 0.673100 0.336699
engaging 0.154839 -0.322231 0.315301 0.361780 -0.048156 -0.361328 0.827004 0.044167 0.400811 1.288695 -0.855298 0.401146 0.603301 0.097348 0.460977 -0.367892 0.439405 -0.682461 0.066797 0.634438 0.113933 0.093301 0.664430 -0.213692 -0.458381 1.178630 -0.266802 -0.536021 -0.221436 -0.641310 0.078744 -0.534723 0.330972 -0.367910 0.694283 -0.339327 -0.358291 0.777696 -0.109590 -0.801290 0.359082 0.556433 0.606451 0.546173 0.096690 0.471942 0.540811 -0.362956 0.856856 -0.030312
normal 1.234841 -0.327043 -0.179016 0.644903 -0.615752 -0.400778 -0.370476 0.489794 1.214044 0.556524 -0.000356 -0.064937 0.457638 -0.210960 0.765904 -1.155163 -0.326993 -1.304396 -0.307172 0.754874 0.206282 -0.492552 -0.599034 0.327202 -1.044705 -0.462960 -0.453182 -0.127948 0.022573 -0.147284 0.722421 -1.250753 0.883794 0.663670 0.432333 0.713737 -0.018285 0.879852 -0.197884 -0.147116 0.090344 -0.336876 -0.420987 1.275305 0.025768 -0.369847 -0.695851 -0.265708 1.321744 0.347352
video 0.644215 -0.047495 -0.061784 0.070522 -0.294582 0.686097 -0.142486 -0.610192 -0.418825 0.178763 0.286835 -0.011812 0.141773 -0.646731 0.149157 -0.454369 0.616918 -0.414923 -0.868015 0.627775 0.345052 0.524616 -0.665593 -0.236198 0.324378 0.424566 -0.476147 -0.077814 -0.526341 0.398233 -0.402208 -1.247121 0.054426 0.250564 -1.186186 -0.337849 0.059191 -0.672689 -0.527338 0.112076 -1.010719 0.614518 1.239379 0.756619 -0.260335 -0.127276 0.056494 0.178970 -0.174387 0.189449
there 0.907685 0.155932 0.002755 0.902345 0.274918 0.229335 0.673421 -0.276407 -0.039838 0.733100 -0.024182 -0.375078 0.697923 -0.183136 -0.052889 0.172550 0.486295 0.610048 -0.341562 0.288433 0.196736 -0.109096 1.126686 -0.347954 -0.096878 0.054033 -0.369122 -0.249624 1.034782 0.197792 0.602057 -0.302469 0.370399 -0.313093 -0.227136 -0.065448 -0.223973 0.125985 -0.567417 0.338932 0.562400 0.585757 -0.107320 0.854702 -0.637409 -0.198566 0.546868 0.603110 -0.171061 0.523652
what 0.219092 0.213079 -0.511187 0.646291 0.092698 0.505630 0.946564 -0.045394 -0.125779 -0.087970 -0.448533 0.071077 -0.337208 0.354849 -0.059410 0.300352 -0.630103 -0.755978 -1.074566 0.118702 0.662260 -0.301623 -0.786794 0.271142 -0.958389 -0.427782 0.150200 0.501461 0.727407 0.198541 0.486944 -0.113593 0.693789 0.010511 -0.052728 0.569606 0.650039 0.445539 0.242150 0.320493 -0.496758 0.618273 0.568998 0.146285 0.253005 -0.692109 1.270703 0.413729 0.027603 0.560902
I’m 0.319986 -0.079003 -0.190267 -0.087849 -0.686753 -0.656698 1.040179 -0.318513 0.070711 0.349158 -1.331127 0.682944 -0.488073 0.531447 0.835406 0.103772 0.575465 -0.771494 -0.377246 0.915191 0.109739 0.027584 0.133012 -0.173790 -0.610581 0.030277 -0.218912 0.267034 0.469530 -0.702865 0.303749 -0.348560 1.276883 0.741381 -0.173815 0.599399 -0.335220 0.476777 -0.198657 -0.014694 -0.394749 1.074211 0.386027 0.001722 -0.912609 0.163324 0.837371 0.577636 -0.578959 0.462286
makes 0.086071 -0.225994 0.457156 0.110778 -0.369777 -0.024349 0.238037 0.111007 -0.218563 0.704533 -0.878779 0.817486 0.495713 -0.154680 -0.048339 0.517793 0.602736 -0.389018 -0.263477 -0.207512 0.958447 0.451760 0.469290 -0.061735 0.146914 -0.188361 -0.460378 -0.426854 0.181935 -0.557267 -0.297741 -0.466864 0.616811 -0.056053 0.406644 0.257301 0.400650 0.804623 -0.393950 -0.410555 -0.150619 0.379034 0.385354 0.124714 0.048316 -0.278786 0.708625 -0.419360 0.558812 0.271704
up -0.638588 -0.363926 -0.071915 -0.535382 -0.002243 0.159238 0.046965 -0.642268 -0.119527 -1.344952 0.712759 0.091021 0.489435 -0.145175 0.260978 1.119216 0.050364 0.519123 -0.495535 0.613700 0.646725 -0.064332 -0.141729 0.059305 0.590424 0.691248 0.521985 -0.858078 -0.095271 0.415295 -0.712640 -0.923832 0.479713 0.500479 -0.721526 -0.305013 0.397069 -0.140858 0.169114 0.220477 -0.879366 0.348381 0.647558 0.189645 0.042246 0.339279 -0.014272 -0.375149 -0.065788 1.037957
by 0.766365 -0.313807 0.254329 -0.010803 0.152440 0.707676 0.707168 -0.087320 0.256444 0.639719 -0.489128 0.402188 -0.516623 0.670737 0.348669 1.048683 0.493348 0.480957 -0.803414 0.368685 0.596970 -0.554374 -0.586293 0.600866 0.258945 -0.521007 0.076395 -0.291301 0.681107 -0.188165 0.180646 -0.096533 -0.016060 -1.296925 0.006804 -0.952574 -0.469032 0.013279 -0.056646 -0.003443 0.338180 0.542532 -0.488725 -0.344633 -0.685383 0.503700 0.424027 0.493963 0.024739 0.350049
rather 1.364126 -0.474672 0.435942 0.176286 -0.682002 0.422769 0.637497 0.153754 0.814191 -0.008798 -0.386622 0.373134 0.327743 0.558484 0.610910 -0.134076 0.485787 0.250907 -0.632624 1.114314 0.657381 -0.479404 -0.051226 0.302017 0.312612 -0.147343 0.241660 -0.283297 1.171039 -0.001423 0.206747 -0.289573 -0.880598 -1.327425 -0.417349 -0.936674 -0.387957 -0.280343 0.494487 -0.152337 -0.221202 0.635214 -0.037070 0.029951 -0.134659 0.853744 0.420061 0.126391 0.318954 0.640998
whenever 0.172086 -0.407795 1.000788 0.717836 -0.451263 0.815682 -0.896758 0.684229 -0.870967 -0.599883 0.657718 0.706499 0.304680 -0.266164 -0.081696 -0.402545 0.144175 0.119285 -0.827868 0.932209 0.958823 1.102850 -0.852952 0.110545 0.530650 0.686470 -0.072565 0.323358 0.818074 -0.059616 -0.055716 -0.263154 0.882475 0.347578 -0.333312 -0.048345 -0.693972 -0.743919 -0.439586 0.731409 -0.044537 -0.631073 0.708087 1.336340 -0.643147 -0.268147 0.852391 0.510122 -1.115129 -0.174696
similar 0.610326 -0.310338 -0.087405 0.313437 0.270565 -0.408768 0.462898 0.730425 1.156733 0.222327 -0.150228 -0.343253 -0.064640 0.063142 0.966117 -0.380253 -0.791890 -1.202542 0.244458 0.274820 0.385103 -0.390469 -0.291286 0.442743 -0.995074 -0.342630 -0.683064 -0.247367 -0.263105 -0.097012 0.474991 -0.432605 1.034955 0.772277 0.843923 0.970546 0.903218 1.113587 -0.113769 -0.428373 0.136111 -0.224462 0.395698 0.999467 0.447878 -0.856519 -0.418921 -0.322982 1.510269 0.771183
see -0.087311 -0.157119 -0.190517 0.001310 -0.745746 0.340790 1.274501 0.760180 -0.766496 0.388524 -0.370057 0.084081 0.807979 0.114364 -0.492161 0.862022 0.257212 -0.965086 -0.595043 0.839780 -0.630801 -0.046155 -0.934457 -0.187734 -0.910433 0.011337 0.693302 0.229909 0.892170 0.858723 1.033151 -0.450153 0.910204 0.368073 0.905485 -0.825892 -0.109705 0.686136 0.119007 0.464308 0.019893 0.714704 -0.019739 -0.300488 0.038053 -0.759076 0.559664 0.685146 0.661904 0.118524
engage 0.334826 -0.758492 1.093823 -0.728637 -0.186353 0.217265 0.446682 0.291858 -0.014019 0.689326 0.024906 -0.110568 -0.366389 0.499240 -0.420383 0.170881 0.531062 -0.757785 -0.023500 0.000018 -0.006410 -0.109520 -0.152826 0.907349 0.644930 -0.071194 0.657053 -0.653045 0.912774 -0.019723 -0.379492 -0.778027 -0.029955 0.186205 0.620834 -0.270875 -0.447478 0.394827 0.344333 -0.022693 -0.027410 0.294906 0.087564 0.294259 -0.734121 -1.006469 0.703905 -0.336841 0.748891 0.515355
things 0.202423 0.452490 0.012886 -0.143024 -0.413772 1.423528 0.577755 -0.451456 -0.481559 0.257505 -0.377360 0.373747 -0.233358 0.425171 -0.120686 0.573817 0.298637 0.145830 -0.553609 0.010437 1.080591 -0.294515 -0.527851 0.428774 0.530042 0.052481 -0.245252 -0.849265 0.777231 0.142436 0.131929 -0.177722 0.113715 -0.204387 -0.073418 -0.215971 0.102154 -0.248610 0.078539 -0.049531 -0.359521 0.172350 0.590588 -0.108397 -0.173878 -0.219596 0.797059 -0.384757 -0.212942 0.438870
our -0.246822 -0.221700 -0.042837 0.038049 0.193082 0.408136 -0.412512 -0.087981 0.755154 0.780275 0.414838 -0.140083 0.003510 0.465131 -0.570797 0.676257 -0.392039 -0.391089 -0.254679 -0.076073 0.134843 -0.719454 -1.030417 0.478599 -0.697175 -0.633851 -0.143394 -1.381747 1.296706 0.164447 0.696598 -0.860778 0.487969 -0.058652 -0.009392 0.129054 -0.005393 -0.308293 -0.745546 0.383398 0.762612 -0.047564 -0.827459 0.439315 0.053055 -0.560523 -0.306284 0.306513 0.564512 -0.172818
less 0.229140 -0.215449 0.642236 0.239173 -0.384271 -0.644797 0.326892 0.461691 0.048544 0.715982 -1.435491 0.651319 0.644330 -0.391142 0.720645 -0.359790 1.320549 0.060682 -0.371523 0.406426 -0.413015 0.460464 1.625368 0.559100 -0.532766 0.782928 -0.876727 -0.278255 0.178947 0.066945 -0.294452 0.147372 1.278254 -0.334053 -0.001972 0.056955 -0.311345 0.353701 -0.374186 -0.235240 -0.100113 0.926394 0.245159 0.808979 0.180581 0.658897 0.506918 -0.155225 -0.507519 -0.575157
about 0.101614 -0.338927 -0.310902 0.586577 -0.100346 0.556118 0.289142 -0.393054 0.034179 -0.242918 -1.455594 -0.336909 -0.179372 0.485389 0.014080 0.616095 0.660136 -0.072121 -0.743280 -0.119059 0.054845 -0.982450 0.326927 0.457762 0.266986 -0.180527 0.175819 0.360547 0.561705 0.300028 0.059782 -0.448828 -0.918735 0.064692 -1.122024 0.217732 0.467635 -0.106092 0.187311 0.395354 0.031829 1.018599 -0.320975 0.012703 -0.364918 -0.785570 1.035255 0.143737 -0.602802 0.330159
all -0.395520 -0.312069 -0.199620 0.283212 0.096234 0.250831 -0.018340 -0.083735 -0.173161 0.437374 0.106400 -0.156129 0.391187 -0.229414 0.274215 0.196265 -0.621616 -0.166283 -0.500768 -0.001143 0.751688 -0.201035 -0.608941 0.481386 -0.561164 0.000681 -0.142113 -0.392332 0.852750 0.260602 0.192638 -0.165653 0.819747 0.037097 0.052318 0.023536 -0.061345 0.349337 -0.173190 0.034402 0.256732 0.508304 -0.069869 0.149236 0.188399 -0.366983 0.550139 0.390487 -0.044820 0.071953
discussion 0.448131 -0.114648 0.137656 0.495613 0.425828 -0.516890 -0.742986 -1.202366 0.469288 0.132510 0.142415 -0.324501 0.590646 -0.332118 -0.172751 0.849303 0.276654 -0.078285 0.076451 -0.209471 -0.079033 -0.120296 1.227311 -0.133528 -0.080918 -0.085451 -0.192862 -0.828259 -0.194900 -0.281946 -0.272795 -1.198047 -0.399856 0.068217 -0.471925 -0.414458 0.099882 0.039692 0.098688 -0.186580 -0.116940 0.873485 0.133552 0.266959 -0.110886 0.041521 -0.229502 -0.407027 0.809717 0.494453
information -0.361875 -0.115647 -0.295742 0.396208 0.824227 0.692627 0.568855 0.212835 -0.194589 0.345695 -0.329189 0.090394 -0.022848 -0.129158 0.651000 -0.273474 -0.618954 0.193294 -0.455256 0.065993 1.217102 -0.426397 -0.486557 1.054972 0.233577 0.154128 0.207135 -0.030044 0.378738 0.324312 -0.144033 0.379270 0.083474 -0.733334 -0.732072 0.142455 -0.115690 0.603975 -0.061906 -0.461375 0.298631 -0.280131 0.359712 0.003055 0.459521 -0.044809 0.383814 -0.234642 -0.149070 0.317053
really 0.603377 0.390345 -0.571478 -0.070549 0.210435 -0.324546 0.198857 -0.591326 -0.167923 0.239467 -0.208452 0.565137 0.160712 -0.290832 -0.100983 1.055139 0.347694 0.202473 -0.157195 -0.302606 0.541633 0.224843 0.043438 0.029339 -0.179260 -0.404693 -0.345160 -0.281511 0.328567 0.300838 -0.494262 -0.610861 0.973676 0.218146 0.165870 0.298371 -0.698032 0.648294 -0.179452 -0.311504 -0.293231 0.420958 0.483022 -0.308427 0.010139 -0.411045 1.094218 0.085544 0.469933 -0.076574
something 0.295822 0.794844 -0.677410 0.694993 -0.047522 0.574776 0.939685 -1.011204 -0.922393 -0.262235 -0.713643 0.393963 -0.202784 0.203671 0.090717 0.100347 0.324493 0.410314 -0.586389 0.439976 0.951706 0.325465 0.222668 -0.529752 0.401583 -0.398217 0.092641 0.176404 0.427380 0.393473 0.513681 -0.641899 -0.358790 -0.597358 -0.900493 0.438464 -0.159559 0.347936 0.206290 0.345635 -0.746088 0.057046 1.062002 0.204408 -0.135756 -0.299381 1.074075 -0.137365 -0.271457 0.368500
prefer 0.749161 -0.057552 0.061527 0.119979 -0.171209 -0.151564 -0.343098 -0.350210 0.133007 0.493429 0.044062 0.333707 -0.387130 0.188885 0.661447 0.095453 0.177512 0.152074 -0.108822 -0.014186 1.084756 -0.276984 -0.489834 -0.141147 0.205631 0.595997 -0.670381 -0.530045 0.275284 -0.901356 0.076263 -0.382466 0.522237 0.309762 0.364520 -0.479724 -1.227622 -0.324173 -0.483176 -0.174114 -0.173182 1.281308 0.185838 0.217883 -0.770059 0.758314 0.344928 1.012099 0.001089 0.640033
helps -0.366463 -0.625315 0.179492 -0.190368 -0.174133 -0.065265 0.565492 0.129642 -0.171438 -0.004938 -0.884091 0.764576 0.186503 0.402180 -0.137438 1.233891 0.709901 -0.101390 -0.295273 -0.603143 0.705858 -0.425980 -0.228171 0.378586 0.261993 -0.221808 0.160216 -0.556451 0.228030 -0.232538 -0.942958 -0.520564 0.113719 0.079904 0.296635 -0.351761 0.410288 0.898727 -0.120802 -0.455729 -0.718630 -0.236843 0.018620 -0.481810 -0.051652 -0.611719 0.631939 -0.323040 0.671250 0.297890
without 0.311330 -0.430971 -0.038893 -0.196893 0.159922 0.636052 0.382238 0.278751 0.269181 0.597704 -0.917345 -0.009663 0.142124 0.262898 1.238666 0.615632 0.352263 0.271495 -0.985066 0.522379 0.330087 -0.674099 -0.190917 0.501446 0.287659 -0.187161 0.212434 -0.104834 -0.337128 0.549726 -0.023748 0.091512 -0.023364 -0.352764 -1.356065 -0.607631 0.032384 -0.235199 -0.275483 -0.044083 0.209463 0.742182 -0.648855 1.028153 -0.431936 0.394257 -0.451037 0.007739 -0.391301 0.679148
zoom 1.221793 -0.384493 -0.388521 -0.052810 -0.361579 -0.241662 -0.961537 -0.916587 0.592079 -0.334217 0.890457 -0.170080 0.357475 -0.771035 0.414353 -0.044356 0.923567 -0.023288 -0.546427 0.293474 0.545003 -0.222168 0.093769 -0.444297 0.123618 0.059351 -1.316934 -0.626605 -0.213678 0.713772 -0.163972 -0.881506 0.187576 0.366723 -0.763387 -0.236011 0.115075 -0.484250 -0.343540 -0.448966 -0.659208 1.183572 0.271421 0.409986 0.056912 0.114592 -0.053901 0.430336 0.287763 0.245103
very 0.413000 0.465297 -0.350877 0.100507 0.897666 -0.207998 0.472786 -0.181528 0.300435 0.522121 0.314044 0.371941 0.115383 -0.373397 0.219502 0.191037 0.086709 0.084715 0.143796 0.084818 0.099770 0.153159 0.521245 0.389972 -0.689038 0.003494 -1.512734 -0.841054 0.124549 0.570540 -0.198312 -0.118261 1.570272 0.099739 0.326028 0.672529 -0.087694 0.483838 -0.491327 -0.899376 -0.176870 0.784529 1.186325 -0.371323 0.529084 0.119356 0.582562 0.044981 0.528641 0.416335
it's 0.378248 -0.079066 -0.780835 0.057495 0.089192 0.023481 0.891930 -0.013144 0.355203 0.861873 0.040384 0.172766 0.070718 0.218770 0.613189 -0.036197 -0.040573 0.568317 -0.089191 0.925032 0.393039 0.417936 0.051824 -0.532374 -0.079360 0.235317 -0.835243 -0.494504 0.178317 0.045690 0.033538 -0.739832 1.144956 -0.007338 0.835313 0.303820 -0.235351 0.492250 -0.274920 -0.617904 0.312453 0.018169 1.016526 0.266872 0.391225 -0.053520 0.987782 -0.182498 0.517870 -0.042426
The 0.317332 -0.298956 0.391513 -0.295225 0.897704 0.141655 0.475329 -0.221910 -0.054133 1.123055 0.627812 -0.825209 -0.197125 0.071100 -0.641024 0.031391 -0.700767 -0.660185 0.229534 -0.217501 0.933742 -0.420486 -0.139812 -0.296968 0.364344 0.698379 0.023795 -0.465975 0.054808 -0.353991 0.162367 -0.508120 -0.364768 -0.213650 0.119590 0.043057 0.260789 0.034795 -0.543977 -0.241002 0.644874 0.107735 0.193985 0.695945 0.084050 -0.660441 0.028550 -0.207816 0.872505 0.436700
some -0.939388 -0.002831 -0.800068 0.441322 -0.121750 -0.023650 -0.075229 -0.471298 -0.715196 0.443441 -0.370262 -0.337044 1.096240 -0.541891 0.847482 0.573249 -0.726410 0.079423 -0.101581 -0.681668 1.187651 -0.010174 0.137073 -0.986916 0.661452 0.188207 0.545018 -0.592220 0.504226 -0.371300 -0.288043 -0.140945 0.609377 0.321942 -0.240296 -0.652879 -0.133373 0.684139 -0.507174 0.041621 0.398449 0.077790 -0.454177 0.443334 0.221184 -0.007834 -0.266115 0.076591 -0.003888 1.161388
think 0.428622 -0.260033 -0.386834 0.484878 0.123451 0.272063 -0.084434 0.041301 0.110868 0.394207 -0.194186 -0.053523 -0.226574 -0.440572 -0.022975 0.474979 0.590338 -0.159484 -0.628703 0.020209 0.755249 -0.397297 0.103323 -0.483376 0.178245 0.241873 -0.513808 0.065725 0.400092 0.353956 -0.191625 -0.643534 0.311636 0.360699 0.018510 0.185863 -0.139911 0.456703 -0.451704 -0.421830 0.346994 0.859191 0.324805 -0.006835 -0.164920 -0.478864 1.007871 -0.003495 0.091831 0.062198
Easier -0.491242 -0.104480 0.771329 -0.559943 0.383160 0.388420 0.209571 0.639269 -0.230582 0.083150 -0.358941 -0.066517 -0.413431 0.928640 -0.515343 0.584049 -0.172981 -0.298593 -0.100563 -0.080909 -0.185362 0.158433 -0.403604 0.835620 0.554436 0.144479 0.548481 -0.635001 0.386190 0.113614 -0.600966 -0.800687 0.406517 -0.261933 0.260134 -0.101277 -0.218168 -0.257025 0.348223 0.264591 -0.099713 0.017232 0.459182 0.407876 0.332129 -0.620685 0.325204 -0.621422 0.083102 0.362887
classroom 0.776920 -0.392377 0.118847 0.579796 -0.291554 -0.926131 0.257391 -0.046295 0.907264 0.040750 -0.781403 0.412711 -0.570335 0.103398 1.015039 -0.961692 0.193132 -0.997058 0.066365 0.315097 0.061494 -0.317180 -0.086345 0.778072 -0.616235 -1.108141 -0.012415 -0.047478 -0.089924 -0.195366 0.606830 -0.392391 -0.269801 0.260901 -0.469787 0.363121 0.274434 0.655983 0.428400 -0.503415 -0.500901 -0.428142 -0.892058 0.428478 -0.400886 -0.236508 -0.384535 -0.347894 0.774535 0.350529
time. -0.048823 -0.035080 0.154746 -0.356184 -0.382585 0.416727 -0.485071 0.554191 0.264182 -0.376153 0.089829 -0.055991 -0.254822 -0.349174 0.180554 -0.273018 0.345164 -0.273254 -0.526663 0.510822 1.131273 -0.742619 0.302251 -0.145224 -0.118597 -0.427275 -0.490607 -0.330338 0.734523 0.336733 -0.110850 -0.307394 0.036485 0.494119 -1.139741 1.325521 0.023304 -0.401706 -0.890310 -0.297823 0.644838 -0.008293 -0.327386 0.829844 0.483584 -0.589467 -0.278488 -0.371736 -0.883505 0.351876
one 0.352598 -0.512236 -0.527259 -0.045048 0.443390 -0.936439 0.365950 -0.918052 0.443794 -0.290825 0.167134 -0.682252 0.313243 -0.183635 0.051513 1.136888 -0.301376 -0.365668 -0.311469 0.613522 0.754278 -0.377629 0.030304 -0.412470 -0.416321 0.323918 0.456853 0.300775 -0.069333 0.485959 0.108194 -0.803276 0.016326 -0.506432 0.183242 0.578291 0.549710 -0.105008 0.261268 -0.516468 -0.009427 0.337243 -0.017397 1.083281 0.584362 -0.978456 0.432186 1.002926 0.503094 -0.245238
only 0.289730 -0.567711 -1.078120 0.047274 0.916505 -0.312814 0.135886 -1.023588 0.535858 0.058074 0.409961 -0.546886 0.391168 0.269525 0.270213 0.946251 -1.357053 0.132835 -0.136074 0.678043 1.321397 -0.626893 -0.333520 -0.397590 -0.254506 0.273267 0.154423 0.186750 0.288856 -0.018778 0.203720 -0.444516 0.097328 -0.320563 0.438577 0.673825 0.110161 0.185578 -0.063950 -0.545933 0.390220 0.362782 -0.042915 0.217674 0.235137 -0.277728 0.555040 0.782777 0.649269 -0.176157
make -0.555207 0.582464 0.306079 -0.106310 -0.150684 0.690153 -0.181657 0.233429 -0.358199 0.521903 -0.724289 0.346975 0.280049 -0.655914 -0.455122 0.134006 -0.239361 -0.529812 -0.687407 -0.256158 0.466773 0.220487 -0.568560 0.216661 0.234989 0.221821 -0.293289 -0.257559 -0.303505 0.288904 -0.557162 -0.854551 0.520045 0.377157 -0.416574 0.446003 -0.221567 -0.442493 -0.659628 0.061218 0.057528 0.689641 0.959561 0.287060 0.701906 -0.021423 0.338322 -0.557197 -0.410609 0.104490
then 0.743651 0.101126 0.169683 0.809465 0.250578 0.211974 0.515007 -0.280010 0.063986 0.305507 0.097472 0.163194 0.305917 0.044174 -0.311643 0.070394 0.251978 0.487762 -0.393736 1.029429 0.427990 -0.178748 0.330316 -0.240416 0.164752 0.289043 -0.052080 -0.191582 1.022687 0.313142 0.643912 -0.659592 0.017486 -0.547109 -0.416565 -0.176961 -0.372139 -0.189854 -0.487111 0.254229 0.346904 0.339156 0.104308 0.679420 -0.690063 0.347733 0.394849 0.351812 -0.172839 0.111402
school 0.489039 -0.233146 -0.094020 0.291484 -0.275252 -0.491642 -0.508486 0.267627 0.791628 -0.057683 -0.108912 0.336511 0.362165 0.065050 0.678725 0.014577 -0.707152 -0.931010 -0.359467 0.184570 0.638476 -0.450188 -0.635399 0.126605 -1.278612 -0.727095 -0.048687 -0.325877 0.588971 -0.449904 0.360367 -0.549864 0.718063 0.480471 0.172647 0.576650 -0.028854 0.380103 -0.467706 0.181570 0.003972 0.063790 -0.829038 0.566765 -0.057620 0.181705 -0.399340 0.403986 0.544122 0.443462
It's 0.198512 0.077789 -0.531841 -0.051761 0.741764 -0.254792 1.017819 -0.006881 0.473809 0.610184 -0.349933 -0.160826 0.068732 0.352824 0.322307 -0.186237 -0.438196 -0.051474 0.221666 0.853003 0.103284 0.126718 0.416343 0.042416 -0.202681 0.642389 -0.272391 -0.138060 -0.277373 0.226625 -0.072613 -0.579338 0.614653 -0.271576 0.586718 0.883482 0.222002 0.636033 0.121406 -0.764415 0.111390 -0.211003 1.102884 0.322161 0.826811 -0.344018 0.607649 -0.966845 0.775860 -0.149322
people -0.161932 -0.399839 -0.066903 0.183901 -0.612020 0.211435 0.242009 0.159431 -0.801310 0.265172 -0.229268 -0.655811 1.100267 -0.100571 -0.562937 0.601071 0.741363 -0.504176 -0.771410 -0.381411 -0.549489 0.021247 -0.268171 -0.320579 -0.419846 -0.183033 0.084780 0.134517 0.315900 0.322259 0.355504 -0.531833 0.744248 0.075660 0.676838 -0.728158 0.206331 0.382454 0.047363 0.134860 -0.147963 0.962086 -0.104653 0.099836 -0.304458 -0.868709 0.753288 0.784843 0.375438 0.619752
schedule -0.347386 -0.219495 0.629473 -0.119391 -0.400665 -0.261393 -0.482740 0.631815 0.393160 -1.024094 0.184138 0.758361 0.103045 0.366636 -0.116479 0.390056 0.211840 -0.330329 -0.882319 0.194390 0.592032 -0.286609 -0.260493 0.031369 -0.672273 0.043906 0.031201 -0.514326 0.349704 -0.249222 -1.089548 -1.006687 0.922096 -0.021128 -0.305193 0.475010 -0.014840 -0.236462 -0.433326 -0.277605 -0.276953 -0.972855 -0.286524 0.198321 0.573432 0.290914 -0.506930 -0.475701 -0.128628 0.256555
teaching 0.738586 -0.594371 -0.016766 0.175694 0.260544 0.040085 0.358664 0.094187 0.429285 0.513790 0.485692 -0.426806 0.094691 0.590200 0.458041 -0.104865 -0.652784 -0.357823 -0.306374 -0.216538 0.881057 -0.211766 -0.416608 0.177483 -0.524267 -0.615853 -0.170915 0.012083 -0.102510 -0.616180 0.452102 0.079231 0.180753 -0.447926 0.637625 -0.295718 0.223615 0.721890 0.087519 -0.008065 0.039080 0.108673 -0.411033 0.678793 -0.133004 -0.091764 0.127011 0.040994 0.978628 1.082635
study 0.013753 -0.214223 0.636668 -0.020437 0.296989 0.137480 -0.695160 0.294378 -0.007045 -0.343029 0.368937 0.604386 -0.243204 0.627545 -0.026789 0.554856 0.010679 0.196385 -0.698413 0.155468 0.961967 -0.241074 -0.036396 0.324997 -0.209557 0.272584 0.089651 -0.252165 0.230791 -0.779245 -0.629005 -0.064167 0.776217 -0.384848 -0.287063 0.582341 -0.321589 -0.288003 -0.445036 0.055508 -0.086441 -0.607849 0.088129 0.405948 -0.214036 0.306269 0.296677 -0.013214 -0.535914 0.261925
lessons 0.688380 0.130027 0.170546 0.241619 -0.133263 0.076030 -0.555553 0.046516 0.423683 0.394511 0.288471 -0.312914 0.409198 -0.550022 0.197697 -0.699628 -0.342537 -0.154584 -0.023045 0.062043 0.771706 -0.347938 -0.021908 0.204299 -0.195381 0.098310 -0.771973 -0.504718 0.428847 -0.155484 0.151847 -0.489943 0.263482 0.713946 -0.021516 0.465472 0.005229 0.045553 -0.575794 0.109797 0.259354 0.629114 0.345360 0.879726 0.029492 -0.391883 0.182553 -0.088360 0.372747 0.589250
lesson 0.616291 -0.469134 0.276411 0.554314 -0.283066 -0.026981 0.220693 0.161910 0.742986 -0.011876 -0.315439 0.225418 0.052904 -0.009608 0.644072 -0.567665 0.083243 -0.560397 -0.369681 0.880370 0.628061 -0.106913 -0.380986 0.162026 -0.018511 -0.522672 0.094064 -0.179655 0.221540 -0.130297 0.261314 -0.905955 -0.118228 0.049228 -0.592249 0.285715 -0.232820 0.321314 0.050096 -0.277745 0.056307 -0.232600 -0.088672 0.954427 -0.183659 -0.117207 -0.181073 -0.342224 0.436866 0.625836
closest 0.654334 -0.462377 -0.262348 0.196192 0.752120 -0.228078 0.774532 0.293759 0.845887 0.167315 0.108406 -0.710124 -0.420017 0.199761 1.071541 -0.588219 -1.375400 -0.887354 0.550473 0.878047 0.424584 -0.042671 -0.260529 0.625103 -0.655664 -0.453506 -0.163242 0.030599 -0.180607 -0.004808 0.751390 -0.119583 0.470416 0.454806 0.667217 1.406621 0.699359 1.081382 0.388343 -0.596882 0.334588 -0.898129 0.650091 1.171833 0.455165 -1.638946 -0.200409 -0.088669 1.322691 0.443889
was 0.933779 0.210583 -0.449503 0.339688 -0.001057 -0.563124 0.212124 -0.595180 0.206315 -0.548503 0.295129 0.324763 0.201200 0.029224 0.227894 0.415237 -0.179459 -0.266518 -0.054146 -0.051443 1.012936 -0.159167 -0.180934 -0.290208 -0.634944 0.063555 -0.561391 0.072401 0.477751 -0.122231 0.329452 -0.230634 0.639936 0.307175 -0.203322 0.533516 0.202559 0.587818 -0.010411 -0.167137 -0.439106 0.535201 0.378791 -0.057283 0.013392 -0.070612 0.570363 0.274410 0.291096 0.236624
during 0.260423 -0.527078 0.593027 -0.075685 0.308389 -0.164204 -0.818591 0.375993 0.447430 -0.344547 0.450827 -0.635603 -0.026140 -0.174040 0.064009 0.038936 0.267308 -0.204500 -0.030815 0.275503 0.527582 -0.250169 0.190280 -0.027498 0.448854 -0.199654 -0.405663 -0.226472 0.185047 0.248160 -0.415546 -0.935631 0.053737 0.462922 -0.008039 0.338280 -0.145869 -0.363567 -0.202797 -0.370827 0.091994 0.951041 0.161903 0.531129 -0.323260 -0.580114 0.008881 0.270246 0.069837 0.857231
easily -0.096345 0.371937 0.677916 -0.141705 0.005623 0.051035 0.786526 0.152337 -0.217195 0.473045 -0.023458 0.366975 -0.419627 -0.073781 -0.825511 0.137579 0.613271 -0.395035 0.106289 0.688095 -0.100100 0.233028 0.027754 0.565736 0.628541 0.424212 0.453399 -0.534841 1.339300 0.961245 0.129790 -0.766136 0.124834 -0.407865 -0.340811 -0.136620 -0.896180 -0.378162 0.212013 -0.090070 0.402664 0.247821 0.459750 0.130198 0.425999 -0.381347 0.463258 -0.230305 -0.271123 -0.042425
don't -0.272156 0.512124 -0.666311 0.548208 -0.383319 0.405833 -0.465175 -0.637439 -0.516954 -0.188711 -0.865215 0.114055 -0.144050 0.145089 -0.072478 0.274907 0.045088 0.475290 -0.570226 0.479659 0.393341 0.134370 -0.377560 -0.402311 0.452763 -0.693943 -0.037318 -0.238279 0.451882 0.040514 0.263483 -1.206978 0.399603 0.121124 0.061907 0.685954 -0.536999 0.035876 -0.274649 0.594463 -0.435147 -0.297110 0.439725 0.458085 -0.419207 -0.644423 0.980925 0.377055 -0.315140 0.008642
out -0.566682 -0.015288 -0.168625 0.458832 0.089326 0.196773 -0.172632 0.218455 -0.215760 -0.561012 -0.909685 -0.177046 -0.292788 -0.045181 0.699533 0.378472 -0.266697 -0.231595 -0.032338 -0.017460 0.675052 -0.423510 -0.111189 0.448876 -0.025979 -0.155160 -0.224552 -0.072952 0.810290 0.182119 0.434888 0.257466 0.369500 -0.366577 -0.098669 -0.121919 0.103174 -0.032474 0.087762 0.316986 -0.028915 0.775750 -0.265153 0.190258 0.525744 0.297703 -0.061520 0.867196 -0.819659 0.517312
help -0.222011 -0.120412 0.048753 0.476945 0.268369 0.554322 -0.545694 -0.127088 -0.408242 0.318729 -0.401962 -0.107579 0.324224 -0.100099 -0.791395 0.574431 0.190483 0.331527 -0.210553 -0.070717 0.038224 0.343755 -0.265060 0.365734 0.938001 -0.492310 0.227471 -0.602385 0.976655 0.235174 0.043370 -0.901464 0.230272 -0.552168 -0.347693 -0.752294 -0.731734 -0.043091 0.186437 0.213738 0.288062 0.730798 0.051853 -0.236938 0.310997 -0.057928 0.882925 -0.247283 0.331174 0.365231
us 0.412693 -0.408097 0.494427 0.249377 -0.420715 0.410591 -0.315926 0.091303 0.113812 0.086203 0.034151 0.269541 0.574480 0.219967 -0.319444 0.294623 -0.279032 0.459140 0.057857 -0.402285 0.866621 0.224262 -0.387035 0.901858 0.674499 -0.557681 0.204714 -0.882964 1.633500 -0.366802 -0.131459 -0.052516 -0.413469 -0.062992 -0.121043 -0.947250 0.441512 0.714041 0.134364 1.044169 0.247629 0.036180 -0.527117 0.003145 0.117700 -0.463397 0.400101 -0.957068 1.035275 0.093095
best -0.147074 -0.997174 0.569881 0.186186 0.759157 0.449906 -0.589212 0.389709 0.427241 0.224068 0.067921 0.282169 -0.597589 0.475207 0.038046 -0.074346 -0.260197 -0.136313 -0.319348 -0.151572 1.839942 -0.249680 -0.617269 0.478688 0.211825 -0.158384 -0.489982 -0.326392 0.241102 -0.893791 -0.303908 0.208277 0.102042 -0.494287 0.468118 0.509154 0.047929 0.274005 -0.126997 -1.029809 0.479628 -0.218435 -0.215345 0.061688 -0.121227 -0.103131 1.067756 -0.227224 0.298761 0.033078
lot -0.309945 -0.076749 -0.147515 0.143112 -0.346818 -0.027882 0.308301 0.218084 0.443940 0.805560 -0.639099 -0.302724 0.245465 0.099128 0.373170 -0.067151 0.646532 0.105042 -0.310272 -0.131215 0.356005 -0.525000 0.717695 -0.380604 0.487760 0.563985 -0.630511 -0.407136 0.536004 0.219275 -0.408197 -0.532484 0.669979 -0.291728 -0.007675 -0.127381 0.415154 0.482569 -0.504647 -1.122595 -0.182511 0.163629 0.095483 0.005200 0.828551 -0.045558 0.328452 -0.648560 0.223946 0.299500
materials 0.390017 -0.318158 0.060646 0.179448 0.076379 0.253978 0.192955 -1.294788 -0.247505 0.752437 0.492056 0.653692 0.554487 0.511402 0.197052 -0.055376 -0.746264 0.396955 -0.584078 0.330847 0.886821 -0.303605 -0.499064 0.302374 -0.504141 0.462911 -0.032259 -1.009576 0.568302 -0.774424 0.160678 -0.120235 0.104280 -0.611712 0.068248 -0.530816 -0.195187 0.081333 -0.170481 0.521937 -0.549469 0.582498 0.045871 -0.069598 -0.762146 1.102598 0.463801 0.749747 0.497371 0.138911
actual 0.515951 -0.780334 0.263132 0.510426 0.397321 -0.401947 -0.131323 -0.309170 1.153779 0.028552 -0.679654 -0.084708 0.412183 -0.290810 1.256581 -0.285940 -0.363408 -1.077531 0.545272 0.809199 0.468808 0.179291 -0.036937 0.191432 -0.442259 -1.207804 0.144985 -0.177516 -0.348328 -0.539719 0.825672 -0.696108 -0.152628 0.108143 -0.350392 0.773866 -0.258749 0.322177 0.557577 -0.392285 0.520436 0.364682 -0.149402 1.213582 -0.241352 -0.386461 -0.487675 0.331577 0.905384 1.090751
explain 0.528371 0.185483 0.137395 -0.306181 0.015452 1.023231 1.083240 -0.286352 -0.212131 0.880244 0.219387 -0.467135 -0.595936 0.810641 -0.759816 0.273471 0.015855 0.006212 -0.168951 -0.499550 0.616388 -0.522494 -0.390905 0.059726 0.448146 -0.206907 0.314642 -0.270175 0.926256 0.008303 0.101094 -0.365269 -0.908016 -0.798724 0.083833 -0.530139 0.142014 -0.013146 0.168641 -0.261850 0.180033 -0.054831 0.085874 -0.624949 -0.088948 -0.844023 0.818095 -0.231179 0.323212 0.501934
understanding -1.146528 -0.630692 -0.467136 0.333219 0.308080 0.290500 0.628381 -0.290660 -0.051434 0.326540 -0.895559 -0.299753 -0.615059 0.655833 -0.095238 0.430483 -0.045636 0.034828 -0.245520 -0.518194 0.403600 -0.676257 0.027755 -0.032176 0.605178 -0.359807 0.120782 -0.311834 0.498278 0.011955 -0.410463 -0.529955 -0.720185 -0.603484 -0.633430 -0.625560 0.779501 0.214955 -0.020298 -0.909913 -0.289206 -0.134584 -0.596378 -0.729733 0.590602 -0.129841 0.297311 -0.668046 -0.170816 0.668973
over 0.007737 0.755168 -0.208707 0.188596 -0.041980 0.281415 0.675981 -0.708066 -0.785578 -0.302004 0.506568 -0.179871 0.244249 0.018698 -0.236839 -0.188558 -0.164326 -0.108522 -0.287623 -0.224850 1.158812 0.191242 -0.449644 -0.320153 -0.212721 1.092731 -0.018467 -0.421908 0.093164 0.300931 0.651044 0.051464 -0.458656 -0.339283 -0.960643 -0.244959 0.286727 -0.296848 0.111682 0.435197 -0.722546 0.585449 1.089791 0.850495 0.257010 0.051491 0.149757 -0.083018 -0.252080 0.343410
classmates -0.775092 -0.157314 0.141386 -0.053565 -0.465238 -0.115015 0.752840 0.290825 -0.601476 0.860602 -0.664350 0.136088 0.456126 -0.170935 -0.999079 1.152016 0.461273 -1.240413 -0.237417 -0.364634 -0.541528 -0.091924 -0.660717 -0.227695 -0.550951 -0.413246 0.632469 -0.758030 0.560421 0.389157 0.501933 -1.030339 0.344229 0.309599 0.140666 -0.635413 0.141471 0.453034 -0.379111 0.416759 0.137268 0.589803 -0.561402 -0.152801 -0.075076 -0.965291 -0.291937 0.467259 0.726567 0.166154
uploaded 0.822161 -0.489385 0.139094 0.218913 0.174808 0.120234 0.182723 -1.569107 -0.038650 1.094586 0.792833 0.382851 0.318845 0.279036 0.330481 -0.470579 -0.579488 0.366573 -0.485532 0.414919 0.770810 -0.534859 -0.466186 0.164208 -0.277806 1.022859 -0.179579 -0.729833 -0.083859 -0.748709 0.081007 -0.354884 -0.191078 -0.627055 -0.055485 -0.512581 -0.291308 -0.044032 -0.325248 0.147914 -0.453125 0.619153 0.144919 0.143188 -0.965793 1.033720 0.242007 0.831740 0.503741 -0.128834
Live 0.327982 -0.112528 0.462567 -0.088768 -0.019620 -0.049062 -0.792642 -0.188357 0.257982 0.992733 0.177474 -0.594016 0.217044 -0.569228 -0.151965 -0.505150 0.025110 0.067365 0.804431 -0.619960 0.298764 0.173491 0.367091 0.120265 0.602698 0.500597 -1.006824 -0.988922 0.054800 -0.658070 -0.247185 -0.211937 -0.050349 0.714546 0.504484 -0.119066 0.057012 -0.375806 -0.383855 0.346985 0.383503 1.001196 0.537096 0.758725 0.153946 -0.380846 -0.001566 -0.192802 0.457080 0.102711
listen 0.424698 0.402118 0.115821 0.544169 -0.452828 0.991611 0.441552 0.254378 -0.685765 -0.556589 0.205996 0.298089 0.570621 0.267237 0.206978 -0.246693 0.013520 0.353991 -0.130987 0.880805 0.530216 0.488497 -0.929339 -0.025124 0.455962 0.860225 0.028879 -0.072851 0.560284 0.065741 0.500897 -0.451012 0.049496 0.115821 -0.136865 -0.384336 -0.567195 -0.229082 0.110258 0.749436 -0.405159 0.022962 1.448526 0.519665 -0.256670 -0.053387 0.499528 0.148453 -0.152043 0.312447
professor 0.489774 -0.318667 0.333782 -0.083492 -0.106348 0.116840 0.870444 -0.036312 -0.259702 0.516673 -0.030409 -0.038837 0.211021 0.060209 -0.759255 0.552876 0.573198 -0.909831 -0.377745 0.372559 0.066859 -0.090313 -0.114547 -0.295496 -0.013241 -0.015356 0.661498 0.001742 0.306002 0.384311 0.409864 -0.734348 -0.534595 -0.392053 -0.377074 -0.477558 0.322739 0.389251 -0.060623 0.153494 0.151113 0.579981 -0.008758 -0.027355 -0.165424 -0.830702 0.102494 -0.026586 0.870672 0.098694
Allows -0.190496 -0.417069 1.027729 -0.499192 0.037613 -0.315493 -0.296070 0.181249 -0.117660 0.202820 0.048263 0.072802 0.590291 0.387754 -0.400482 0.177041 0.051799 -0.245605 -0.070731 -0.455467 0.523809 0.395190 0.576440 0.132909 0.080257 0.108291 0.663034 -0.856260 0.403406 -0.727185 -0.871822 -0.553581 -0.079432 -0.371824 -0.446217 -0.190884 0.149582 0.432901 0.128394 0.190777 0.289591 -0.058497 -0.534704 0.426940 0.336483 -0.007106 -0.089744 -1.383728 0.651940 0.490754
easy -0.137299 0.248652 0.099279 -0.176586 0.694903 0.015303 1.177967 0.043611 -0.002899 0.465262 0.232242 0.420016 0.065037 0.260946 -0.016285 0.175889 -0.210304 0.132038 0.110996 0.946826 -0.490760 0.628460 0.275334 0.418095 -0.449783 0.698614 -0.165165 -0.828255 0.063549 0.380386 -0.041454 -0.295871 1.030370 -0.384159 0.107027 0.501377 0.012228 0.352403 0.074894 -0.046835 0.042150 -0.429281 1.251658 0.257003 0.556507 0.018907 0.203727 -0.830109 0.553470 -0.145986
doing -0.020651 -0.544012 -0.007123 -0.025712 -0.489698 -0.150356 0.116469 -0.219980 0.264122 0.034645 -0.606195 0.547820 -0.147885 0.391761 0.551527 0.144946 0.180404 -0.085327 -0.644525 0.815457 0.298998 0.033439 -0.346297 -0.038318 -0.469860 -0.302681 -0.228604 0.092407 0.590464 -0.441528 0.228586 0.016912 0.666364 -0.153232 -0.317495 0.088525 0.063889 0.002647 0.032632 0.134359 -0.237060 0.746765 -0.255536 -0.024227 -0.322190 0.377194 0.842519 0.616592 -0.519752 0.050127
email 0.610919 0.520046 -0.306686 0.425330 0.516464 0.334507 0.252153 -0.344681 0.279340 -0.192941 -0.059491 -0.117554 0.990899 -0.110859 -0.235400 0.930689 -0.124255 0.395622 0.550834 0.600640 -0.027705 0.302792 -0.289652 -0.266296 0.589578 -0.618149 0.337671 -0.261779 0.764759 0.405999 0.875584 -1.110216 -0.550482 -1.136064 -0.999256 -0.847160 -0.651758 -0.590606 0.204994 0.453430 0.219235 0.807273 0.052428 0.183220 -0.125693 0.415954 -0.539801 0.120291 0.308923 0.697052
time, 0.439857 -0.050370 0.637113 -0.240656 -0.111916 0.449220 -0.179662 0.740295 0.006648 0.098319 0.377159 0.572789 0.375973 -0.366116 0.000734 -0.158014 0.558023 -0.543267 -0.811961 0.641847 0.689516 -0.408389 0.386240 0.122357 -0.562720 -0.189555 0.080975 -0.246201 0.598073 0.591187 -0.015923 -0.078356 0.379608 0.049937 -1.036045 0.778623 -0.470650 -0.051507 -0.804273 -0.134091 0.717240 -0.039175 -0.319257 0.804780 -0.029531 0.165454 -0.382407 -0.081318 -0.449502 0.411731
- 0.253688 -0.023141 0.218902 0.164364 0.015456 0.079813 0.126521 0.163512 0.311432 0.999786 -0.556949 0.188825 0.359298 0.265820 -0.167352 -0.224396 0.259441 -0.423015 -0.568075 0.420804 -0.193780 -0.284416 0.048186 -0.206232 -0.534612 0.045436 -0.079318 -0.278887 -0.136393 -0.181506 -0.128679 -0.936686 0.399084 -0.279649 -0.164844 0.178327 -0.559467 0.066580 -0.439058 -0.227710 0.583923 -0.000949 -0.133882 0.635382 -0.066186 0.165932 0.424550 -0.591642 0.156992 -0.000942
set 0.418871 -0.253398 0.050923 0.262112 0.100881 -0.371404 -0.481391 -0.455736 0.324179 -0.266756 0.231036 0.023037 0.544573 0.019718 0.329592 0.260997 0.043048 0.675065 -0.905478 0.374251 0.253768 -0.879308 0.299131 0.321895 -0.512521 -0.109608 0.027926 -0.291158 0.703157 -0.239709 -0.596251 -0.393285 0.771656 -0.359672 -0.961724 0.087955 -0.157593 0.058305 -0.347644 0.019647 -0.210470 0.116068 -0.820970 0.168269 -0.135989 0.394285 0.124132 0.258810 -0.273422 0.310949
discuss 0.083811 -0.043793 0.399945 0.018092 0.133410 0.679616 0.601092 -0.318670 -0.332791 0.402933 0.061280 -0.730701 -0.322996 0.500793 -0.676833 0.249172 0.251003 -0.682381 -0.207965 -0.099200 -0.565727 -0.541997 -0.309996 0.754221 0.396859 0.222887 0.606090 -0.259040 0.414129 0.807451 0.271455 -0.722958 -0.320130 0.106286 -0.186113 -0.471284 0.151030 -0.047406 0.398996 0.247712 0.029372 0.145202 0.202566 0.095298 -0.410251 -1.026711 0.426857 -0.286926 0.266984 0.025127
no 0.251858 -0.408151 -0.258028 0.263134 0.479800 -0.322850 0.124936 -0.378977 0.287217 0.284871 0.078973 -0.514097 0.767142 0.032613 0.072758 0.481676 0.190435 0.566029 -1.104656 0.162110 -0.451733 -0.611187 0.950024 -0.382348 -0.533321 0.211613 0.184518 -0.087201 -0.040053 0.168713 -0.342367 -0.251512 0.761324 -0.777952 -0.539394 -0.011874 0.002767 -0.045232 -0.530939 -0.066659 -0.013120 -0.114902 -0.750345 0.748598 0.130259 0.294758 -0.003446 0.524172 0.061511 0.309089
structure -0.626761 -0.608400 0.521529 -0.103206 -0.815430 -0.509425 -0.439142 1.251734 0.093731 -0.319692 -0.623056 0.217374 0.755358 -0.184762 0.723803 0.006656 -0.136855 -0.432693 -0.219775 -0.620864 0.941085 0.042805 0.073117 -0.297084 -0.272369 0.309372 0.021793 -0.549338 0.345959 -0.951493 -1.049640 -0.197379 0.326296 0.338128 0.186523 -0.086961 0.562397 0.409221 -0.425808 0.040611 0.205733 -0.583897 -0.546025 0.686115 0.728093 -0.250274 -0.945156 -0.487115 0.027201 0.462366
explained 0.682293 0.308153 -0.044650 0.090857 0.093625 1.083229 1.444493 -0.182781 0.148145 1.168146 -0.230909 -0.001641 -0.863562 0.682273 -0.290288 -0.056219 0.187122 0.344253 -0.495745 -0.332856 0.202777 -0.776767 -0.021573 0.578655 0.227694 -0.522864 0.085853 -0.148192 0.773768 0.314294 -0.151003 0.072750 -0.457759 -0.870223 0.101072 -0.396484 -0.321279 0.351516 -0.103304 -0.567134 0.103701 -0.228339 0.118086 -0.765638 -0.533310 -0.490925 1.201871 -0.248989 -0.047955 0.590532
instead -0.076713 -0.656983 0.410108 0.394324 -0.255205 0.666822 0.269865 0.344171 0.124353 0.140311 -0.664929 -0.217035 0.482380 0.646384 0.860621 -0.086225 -0.194413 0.005957 -0.455973 0.607767 0.786221 -0.331706 -0.345293 -0.025336 0.527282 -0.217861 0.382993 0.099286 0.657878 -0.333810 0.346246 0.029779 -0.452130 -0.456072 -0.425042 -1.005910 0.136736 -0.293755 0.160021 0.041148 0.015317 0.818597 -0.510911 0.303577 -0.480883 0.510502 0.076845 0.341536 -0.445146 1.214650
keep -0.544246 -0.583193 0.266853 -0.380000 -0.418734 -0.219909 -0.083172 -0.087573 -0.027546 -1.014997 0.479809 0.173876 0.278141 0.103765 -0.182108 0.716795 0.508793 0.233366 -0.091142 -0.150039 0.472689 0.117505 0.345412 0.154134 0.549102 0.585826 -0.019778 -1.094250 0.033673 -0.078309 -1.032801 -0.882571 0.756018 0.581954 0.240752 -0.218053 0.473326 0.162182 0.214984 -0.024341 -0.897097 -0.171034 0.491706 -0.009893 0.334973 -0.071705 0.153767 -0.326087 0.300443 0.496933
while 0.156407 -0.127299 0.211739 -0.403601 -0.638441 0.457056 0.932113 0.105933 0.132898 0.645405 -0.450999 0.325374 -0.127830 0.049441 0.183052 0.055341 0.659118 -0.282346 -0.261889 0.721574 -0.058448 -0.414893 -0.212036 -0.153780 0.023422 0.024382 0.189947 -0.135032 0.211771 -0.050573 0.081163 -0.340716 -0.167486 0.384705 -0.872771 -0.363584 0.000029 0.007506 -0.527197 0.240007 0.266575 0.804080 0.205660 -0.186002 -0.386742 -0.095318 -0.349392 -0.258189 0.023809 0.428044
follow 0.122272 -0.171440 0.453876 -0.679541 0.392103 0.235866 0.000582 0.435216 0.297730 -0.328239 0.844165 0.095784 0.035848 0.728060 -0.102317 0.261187 -0.105032 0.357960 -0.497884 0.563996 -0.234523 0.015008 0.091360 0.380967 0.020495 0.588518 0.119923 -0.950990 -0.122429 0.198335 -0.892421 -1.024484 0.848929 0.020685 0.323807 0.453822 -0.111184 -0.220803 -0.015595 0.067955 -0.184452 -0.325521 0.894645 0.466509 0.452961 0.192279 0.146072 -0.732542 0.313701 0.383144
We 0.062701 0.338831 -0.415687 0.002124 -0.517547 -0.058252 -0.576405 -0.435973 0.281454 0.013430 0.410502 -0.471024 0.058372 -0.133671 -0.436613 -0.045162 -0.527467 -0.160633 0.515237 0.328904 0.116395 -0.734221 -0.297143 0.125982 0.085923 0.289055 0.318699 -0.386591 1.309872 0.245658 0.670593 -0.576777 0.401567 1.069307 0.469458 0.513306 -0.664471 -0.105425 -0.141379 0.393209 0.903445 -0.104124 -0.280672 0.375780 -0.037667 -0.888649 0.148154 0.324277 0.078432 -0.220017
day -0.516174 -0.622806 0.567186 0.091175 -0.536913 -0.035506 -0.792937 1.337302 -0.094619 -0.721557 -0.120342 0.197444 0.433657 0.221224 0.327377 0.011980 -0.193816 -0.424251 -0.980566 -0.362786 0.959259 -0.173454 -0.588048 -0.088980 -0.387099 -0.158277 0.036643 -0.048185 0.324678 -0.626635 -1.009875 -0.583505 0.551212 0.133403 -0.090266 0.319957 0.505717 -0.179353 -0.497828 -0.013694 -0.027755 -0.811387 -0.638667 0.690466 0.596823 -0.139937 -0.547820 -0.122104 -0.523591 0.564942
has 0.735556 0.078294 -0.642550 0.155696 0.040661 -0.757319 0.452893 -0.684523 -0.052424 -0.540656 0.351532 0.397342 0.804252 -0.144498 -0.225872 0.958836 -0.456696 -0.147611 -0.501835 -0.214063 0.524918 -0.703929 -0.160672 -0.003107 -0.947879 -0.146801 0.422262 0.176121 0.677282 0.162452 0.000740 -0.195963 0.218268 0.011360 -0.523810 0.246000 0.415096 0.959854 0.017242 0.325932 -0.394909 0.150080 -0.454544 -0.412220 0.092853 -0.368826 0.309651 0.117561 0.755789 -0.013072
myself 0.549544 -0.392033 0.457959 -0.163386 -0.296644 0.725550 0.011454 0.405058 -0.088794 -0.362858 -0.093386 0.664831 -0.613995 0.823373 0.558997 0.594145 0.147409 0.000871 -0.905728 0.555928 0.980804 -0.180756 -0.871107 0.222626 0.265932 0.186479 0.041601 0.141133 0.062528 -0.372374 -0.374658 0.095464 0.473318 -0.786270 0.882974 -0.508914 -0.262726 -0.056452 0.288111 -0.023153 -0.518664 -0.162869 0.300662 0.041544 -0.366817 0.550064 0.432567 0.672293 -0.038017 0.324045
rewatch -0.338315 0.612012 -0.064311 0.178044 0.017759 1.117606 0.422568 0.101630 -1.204645 -0.092490 0.477731 0.201955 0.004684 -0.473917 -0.616764 -0.526184 -0.020166 0.038287 -0.403102 0.572824 0.535773 0.377565 -0.836497 -0.260274 0.538320 0.688403 0.093186 0.111424 0.166521 0.774402 0.327257 -0.359824 -0.063291 0.383481 -0.800029 0.223355 -0.418340 -0.638726 -0.502559 0.308096 0.118241 -0.280353 1.208366 0.424459 -0.038253 -0.456317 0.165739 -0.425203 -0.747062 -0.087544
had 0.663553 0.133524 -0.959046 0.755017 0.256583 -0.307927 -0.917536 -1.306957 0.348464 -0.338897 0.261294 -0.612202 0.491513 -0.239539 0.129956 0.355263 -0.750451 0.042681 0.082158 -0.133622 0.580268 -1.081440 -0.321749 -0.107775 -0.176164 0.041119 0.020588 0.024002 0.607590 0.113126 0.573487 -0.623697 0.049925 0.328490 -0.109844 0.652328 -0.280764 0.072825 -0.141030 0.257361 0.057303 0.439417 -0.286445 0.583057 -0.233753 -0.692582 0.410308 0.995365 0.094768 -0.011040
discussions 0.045631 0.067816 0.109793 0.385802 0.263517 -0.384689 -0.633993 -0.443427 0.191439 -0.144517 0.017872 -0.540551 0.799040 -0.383718 -0.099045 0.536251 0.091243 -0.107861 0.295870 -0.175590 -0.154077 0.045792 0.244373 -0.133498 0.174663 -0.372101 0.430565 -0.089668 0.063953 0.276775 -0.279244 -1.318429 -0.440228 0.462011 -0.070409 0.078159 -0.392552 -0.111712 0.202256 0.074728 0.191059 0.587343 0.012601 0.369042 -0.155711 -0.496295 -0.134848 -0.133333 0.566397 0.627859
talk 0.365903 -0.011368 -0.177395 -0.175179 -0.219551 0.256813 0.765217 -0.315718 0.035839 0.106694 -0.094542 -0.415588 -0.270892 0.579139 -0.548153 0.687280 0.168969 -0.239271 -0.048534 0.435689 -0.428552 -0.396272 -0.294404 0.264164 0.172609 0.033100 0.704850 -0.349291 0.876494 0.500106 0.663674 -0.713550 -0.049606 0.080742 0.100942 -0.362053 -0.012679 0.227489 0.258129 0.659899 -0.042095 0.146041 -0.131137 0.120557 -0.447946 -0.765954 0.172507 0.192333 0.571785 0.346392
same -0.291111 -0.718514 -0.477331 0.462020 0.100987 -0.081405 -0.245769 0.076334 0.065946 0.400473 -0.071723 -0.156773 0.165718 -0.408580 0.637443 -0.460596 -0.661411 -0.334277 -0.806792 -0.205226 0.968368 -0.608093 -0.697863 0.464245 -0.431127 -0.631954 0.086852 -0.011604 0.189860 0.348167 -0.006278 -0.116721 0.115508 0.000379 -0.765417 0.426612 0.345898 0.772028 -0.474320 -0.395924 0.333128 -0.278887 -0.868559 0.513669 0.078178 -0.706901 0.013460 -0.114179 -0.034730 0.198750
well 0.334681 0.017639 0.186687 0.379763 0.267811 0.095418 0.179617 -0.086615 -0.081533 0.831326 0.342604 0.056498 -0.179417 0.075333 -0.476660 0.166729 -0.097250 0.094560 -0.316882 -0.960536 0.105307 -0.018151 -0.900519 0.974402 -0.199074 -0.745657 -0.254483 -0.493696 0.458049 -0.029105 -0.459841 -0.516086 0.407278 -0.252442 -0.132738 -0.596741 -0.579182 0.225090 -0.215204 -0.273970 -0.069923 0.149454 -0.485865 -0.299820 -0.471367 -0.326329 0.848711 -0.104527 0.152904 0.233250
focus 0.011809 -0.430633 0.310256 -0.329765 0.349564 0.011308 0.028335 0.259216 0.100735 -0.551974 -0.073956 -0.088984 -0.520504 0.549025 0.133039 0.635767 0.291352 0.363630 -0.008467 0.098236 0.475411 0.174059 0.258239 0.173271 0.487418 0.371835 -0.722375 -0.502647 0.534203 0.039191 -0.522496 -0.176194 0.637854 -0.083637 0.377800 0.049851 0.044273 -0.425892 0.137462 -0.277075 -0.481630 0.453200 0.717844 0.079393 0.471385 -0.222310 0.547769 0.284184 -0.423686 0.286805
Also 0.132031 0.038963 -0.258944 -0.176561 -0.720921 0.070481 0.041401 0.387903 -0.277260 -0.003220 -0.513575 -0.003129 0.178078 -0.226644 -0.087353 -0.155810 0.545839 -0.111650 -0.223085 0.384375 0.484799 0.172618 0.121772 -0.735541 0.087348 0.022543 -0.194770 0.376624 0.358292 0.195347 0.080387 -0.222986 0.178555 0.558348 0.062583 0.190825 0.051522 0.344558 -0.336281 0.134818 0.364774 0.123853 0.065106 0.315142 0.256410 -0.623964 0.293497 -0.451568 0.016273 -0.196278
feedback -0.967545 -0.468105 0.547121 0.481232 0.417597 -0.055488 -0.198469 0.104271 0.629119 0.415283 -0.569003 -0.195751 -0.232945 -0.837451 -0.093562 0.671082 0.031292 -0.316447 0.727581 0.401931 -0.587955 0.211003 0.193572 0.809732 0.584225 -0.348904 -0.013128 -0.960506 0.914370 0.804993 0.595307 -0.154674 -0.129922 -0.411019 -0.081858 -0.892307 -0.415717 -0.288143 0.495896 -0.043905 1.069750 0.329436 -0.221658 0.360690 0.855361 -0.482036 -0.735850 0.433681 0.544900 0.167652
could 0.179171 0.131404 -0.063402 0.139538 -0.176815 0.205933 -0.132948 -0.251137 -0.250467 -0.059398 0.391715 0.098434 0.078821 -0.222330 -0.561907 0.221188 -0.126574 -0.166715 -0.248193 0.133048 0.633511 -0.166897 -0.782687 0.110926 0.270502 0.102135 -0.028857 -0.337330 0.827863 0.508077 0.205011 -0.756588 0.408389 0.202147 0.006216 0.018582 -0.478174 -0.140722 -0.028624 0.154158 0.029096 0.281497 0.246828 0.279423 0.048885 -0.425891 0.366311 0.258844 0.139491 0.049974
directly 0.241720 0.104155 0.440002 -0.187979 0.073824 0.694714 0.908687 0.502484 0.033495 0.566708 0.003066 -0.424629 -0.318259 0.468875 -1.168599 0.406015 0.241707 -0.529402 -0.038020 0.444986 -0.520371 -0.137444 -0.319198 0.154570 0.492994 -0.280783 0.870948 -0.277350 0.978471 0.782702 0.523220 -1.023383 -0.432561 -0.147289 0.047348 -0.518467 -0.533577 -0.050216 0.108322 0.435481 0.612419 0.140664 0.176260 0.026536 -0.153952 -0.826276 0.228238 -0.256427 0.530470 0.430246
I'm -0.015751 0.058187 -0.311707 0.101917 -0.511661 -0.419322 0.436113 0.141864 0.166973 0.009021 -0.955135 0.389749 -0.349600 0.536949 0.523293 -0.329459 0.393730 -0.295021 -0.289320 0.462535 0.160258 -0.285495 0.321332 -0.231967 -0.206726 0.176597 -0.302878 0.297017 0.583736 -0.512608 0.050305 -0.055571 0.965164 0.732805 0.131329 0.808894 -0.250479 0.362672 -0.221011 -0.295998 -0.324872 0.373866 0.213090 -0.214096 -0.410095 0.126964 0.938226 0.143895 -0.735742 0.359922
always 0.469196 1.029369 -0.766460 0.014657 0.353877 -0.032803 0.732936 -0.348736 -0.184379 -0.061437 0.873452 -0.121037 0.524460 -0.401408 -0.555647 0.236185 -0.245187 0.789497 0.659807 0.268794 0.351828 0.747796 0.042072 -0.491589 0.007443 0.393064 -0.641864 -0.324681 0.919244 0.143326 0.820126 -0.280120 0.590983 0.016941 -0.276184 0.301313 -0.399642 -0.185601 -0.197297 0.596438 0.325165 0.513906 0.803507 0.163583 0.298288 -0.004836 0.326291 -0.300737 0.048145 -0.171531
contact -0.007376 -0.715579 0.035205 -0.195707 -0.125532 -0.781426 -0.084237 -0.016258 0.148978 0.624122 -0.196865 -0.436132 0.427709 0.056045 -0.270470 0.543993 0.303974 -0.857948 0.146426 -0.225074 -0.479397 -0.282675 0.270970 -0.632230 0.321840 -0.280651 1.048556 -0.407623 -0.342391 -0.466742 -0.042206 -1.032912 0.116118 0.335491 0.380075 -0.463335 -0.395662 0.773773 0.118906 -0.025653 0.730389 -0.345586 -0.854824 0.258386 -0.145231 -0.520113 -0.685761 -0.045471 1.207379 0.611946
videos 0.395767 -0.022062 -0.047058 0.164042 -0.213275 0.822023 -0.059908 -0.499662 -0.257927 0.527713 0.562361 0.051149 0.483864 -0.333625 -0.103769 -0.754873 0.086730 0.384847 -0.259365 0.403342 0.323253 -0.205216 -0.757222 -0.078862 0.160414 0.631695 -0.649422 -0.303974 -0.422599 -0.349051 0.077693 -0.688082 -0.247382 0.432912 -0.358845 -0.199795 -0.257312 -0.522543 -0.646708 0.180838 -0.304098 0.687675 1.002399 -0.051644 -0.610501 0.261390 0.171802 0.044852 0.036806 0.151780
