would -0.515581 -1.042518 0.404750 -1.322519 -1.372605 0.970350 -0.632748 -1.319744 -0.453786 -0.534456 -0.017396 0.398780 0.104039 -0.054030 0.695322 -0.813107 0.601677 1.127139 0.774085 -0.473810 0.372105
lectur -0.682653 -0.291289 0.529319 -0.915608 -1.588348 1.118953 -0.281975 -0.291741 0.002061 -0.064997 -0.385528 -0.130701 1.027814 1.061900 -0.682884 -1.402433 0.779745 0.307179 0.603982 0.185642 0.600039
class -0.929334 -1.493475 -0.370083 -0.844651 -1.496611 0.143157 0.053536 -0.657043 -0.501330 -0.274272 0.158098 0.391789 0.826050 0.535014 -0.149285 -0.737245 0.387741 0.229805 0.561033 1.052472 0.543103
live -0.561603 -0.830814 0.724715 -0.404023 -0.756363 0.870687 0.253331 -0.909960 0.494968 -0.290095 -0.355004 0.382288 0.422142 0.515700 0.246912 -0.936035 0.710703 0.599760 0.867147 -0.882032 0.050867
onlin -1.134427 -0.434302 -0.030005 -0.239082 -0.724324 -0.608243 -0.444382 -0.303821 0.494948 0.195712 -0.222739 0.543062 -0.003526 0.913496 0.807444 -1.000264 0.361131 0.621903 0.933294 -0.411350 0.367951
interact 0.019807 -0.576575 0.004728 -0.439744 -0.554352 0.113310 -1.076810 -0.475365 0.318737 -0.167666 -0.246253 -0.342311 0.472694 -0.441789 -0.345076 -0.919844 -0.442618 0.730819 1.207120 -0.225868 -0.041571
make -0.317887 -1.534058 -0.614525 -0.250825 -0.861774 -0.091709 0.819431 -0.959973 -0.318124 -0.361065 -0.732628 0.420880 0.506448 0.551776 0.036434 -0.926813 0.314148 -0.354723 0.833152 -0.637037 0.060304
like 0.325948 -0.798345 0.520873 -1.057997 -1.203835 -0.614646 -0.372847 -0.665672 -0.319692 -0.051036 -0.229711 0.735800 0.195319 0.382752 -0.509886 -0.715187 -0.077712 -0.154282 0.286023 -0.424948 0.187274
student -0.289421 -0.313497 -0.170716 -1.176683 -0.811890 0.279981 -1.073036 -0.755834 0.013900 -0.070850 -0.385352 0.122672 0.520641 -0.394009 -0.283754 -0.215648 -0.274534 0.030373 0.852316 0.211625 0.297930
engag -0.115394 -0.637094 -0.226624 -0.401092 -0.921085 0.503276 -0.283501 -0.596696 -0.012562 -0.213053 -0.302478 0.045163 0.454992 -0.158637 -0.387277 -1.204406 -0.484764 0.713114 0.645959 -0.562230 -0.045221
time -0.564687 0.259211 -0.329095 -0.673175 -0.337649 0.176590 -1.210340 -0.910673 0.450237 0.754772 0.823834 0.362075 0.993184 0.246194 0.340833 -1.252347 0.878722 -0.433269 0.368224 -0.507071 0.317307
record -0.012682 -0.026302 0.144778 -0.314263 -0.819280 0.793278 -0.126904 -0.503810 0.721005 -0.249696 -0.187455 0.212413 0.288555 1.100002 -0.258451 -1.165808 1.064612 0.305148 0.473517 0.123092 -0.087759
discuss -0.267305 -1.441044 -0.050542 0.010952 -0.500758 0.583497 0.179920 -0.168554 0.324337 0.402646 -0.146950 -0.305167 0.496999 -0.324449 -0.227599 -0.386827 -0.256042 0.927077 1.171376 0.275585 0.176975
learn -0.067699 -0.172979 -0.065602 -0.686099 -1.039581 -0.268873 -0.473956 0.075184 -0.418080 -0.196895 -0.008718 0.502950 -0.033350 0.131241 -0.111150 -1.415148 -0.686865 0.669674 0.547368 -0.084778 0.174777
question 0.003197 -0.342884 -0.209351 -0.224982 -0.664960 0.569540 -0.645751 -0.199231 0.652398 0.004230 -0.049750 0.065245 0.711973 0.249234 0.008494 0.148744 -0.060002 -0.354345 1.413877 -0.394215 0.102883
work -0.392844 -0.106488 -0.496728 -0.441211 -0.604757 0.074637 -0.296936 -0.342638 -0.157886 0.870920 0.196234 0.985335 0.701686 0.077654 0.556060 -0.805984 0.011729 0.708771 0.644105 0.244137 0.241105
group -0.265703 -1.282809 -0.077517 -0.459104 -0.032214 -0.424378 -0.234725 -0.758408 0.498718 1.216732 -0.139736 -0.120983 0.569495 -0.392655 -0.212693 -0.333396 0.044132 0.372943 1.075593 0.419706 -0.003268
feel 0.570265 -0.490050 -0.277721 -0.067305 -0.649052 -0.472691 -0.445224 -0.906141 -0.308395 0.192704 -0.778781 0.733957 0.446474 -0.340891 0.224908 -0.420026 0.569404 0.008990 0.326343 -0.232434 0.128452
use 0.163281 -0.874967 0.599198 -0.242217 -0.539428 -0.072062 -0.445015 -0.345580 0.570442 0.091010 0.500400 0.131951 -1.009599 -0.072227 -0.368073 -0.955771 -0.027956 0.055114 0.662357 0.121679 0.104077
zoom 0.170305 -0.677581 0.769330 0.263599 -0.272700 -0.165490 -0.001616 -0.526374 0.842573 0.284031 0.330914 0.437542 -0.067126 -0.059325 0.073365 -0.449961 0.869307 0.894065 0.904660 -0.241494 -0.016422
one -0.359021 -0.852435 0.266846 -0.521962 -0.941312 0.612572 0.072292 -0.410595 0.837333 0.551546 0.380637 0.016489 -0.119630 0.002640 -0.065559 -0.325395 0.265566 -0.204759 0.192143 0.112619 0.119448
get 0.539676 -0.303037 -0.991900 0.015908 -0.830346 0.268474 -0.405729 -0.207433 -0.177550 -0.003837 0.058127 0.323343 0.635141 0.515823 0.299270 -0.572313 -0.113936 0.101441 0.827367 -0.332631 0.148322
professor -0.247093 0.057826 0.158029 -1.020064 -0.813006 0.402510 -0.634869 0.152074 0.140901 -0.190742 0.053932 0.531350 0.159910 -0.008327 -0.067616 -0.239440 0.632496 -0.014628 0.858821 -0.555944 0.084441
way -0.843438 -0.528261 -0.432841 0.074465 -0.870818 -0.161904 -0.363806 -0.312104 0.175776 -0.047800 0.043791 0.157902 -0.108475 -0.160984 0.283436 -0.666240 0.689576 -0.017488 0.655743 -0.330415 -0.028342
ask 0.659032 -0.786560 -0.145963 0.135092 -0.780606 0.512356 -0.540621 0.003687 0.301172 -0.245598 0.264659 0.003468 0.429469 0.034723 -0.342763 -0.032845 -0.051745 -0.151566 1.371923 -0.718671 -0.007247
chang 0.157041 -0.372257 -0.362447 -0.972703 -1.144331 -0.150836 0.128702 0.289678 0.242505 -0.135808 0.068320 1.055511 -0.828150 0.324795 0.130578 -0.086475 0.285598 0.058764 0.158598 -0.830989 -0.083650
teacher -0.128426 -0.187295 -0.032435 -0.829912 -0.745646 0.388853 -0.727808 0.140793 0.153492 -0.223589 0.064427 0.101646 0.112014 -0.245708 0.007537 -0.193508 0.774081 -0.136073 0.738618 -0.546547 -0.135696
assign -0.609552 -0.477007 -0.123495 -0.660822 -0.133279 0.018768 -0.467469 -0.474354 0.009506 0.538410 -0.337010 0.967362 0.432376 0.125057 0.245082 -0.202602 0.276573 -0.333094 0.277593 -0.031846 0.127149
less 0.472332 -0.641937 0.090634 0.260022 -0.108842 0.124392 -0.330838 -0.415127 -0.291376 0.411492 -0.410588 0.796543 0.861567 -0.273325 0.119560 -0.708818 0.186753 0.232825 -0.086246 -0.279539 0.019839
video 0.106752 -0.073008 0.878675 0.275673 -0.487535 0.357798 -0.485688 -0.633806 0.425982 -0.268520 0.214193 0.342668 0.181558 -0.125016 -0.281378 -0.524726 1.086503 0.180009 0.449571 -0.154392 -0.107255
materi -0.728622 -0.271450 -0.261607 -0.554606 -0.237310 0.407949 -0.506056 -0.241758 0.180491 0.096896 -0.319219 0.627445 -0.123765 -0.166760 -0.415538 -0.771881 0.762037 -0.027500 -0.103594 -0.564123 -0.034853
think -0.076561 -0.190845 -0.462424 -0.495593 -1.407252 -0.338589 -0.251163 0.327325 0.161322 0.140917 -0.186234 0.647024 -0.174223 0.185986 0.243107 -0.165283 0.346400 0.253901 0.439537 -0.104377 -0.032566
us -0.632185 -0.333594 -0.203346 -0.860173 -0.747301 0.850167 -1.036277 0.004210 0.133460 -0.261920 -0.012692 0.716761 0.247796 -0.402881 -0.096682 0.234356 -0.021617 -0.102337 0.524264 -0.239623 0.041865
rather -0.193142 -0.719132 0.389961 -0.220957 -0.300354 0.509873 -0.078369 -0.082984 0.559653 0.264933 -0.461539 0.553595 0.262560 0.438521 -0.860686 -0.456850 0.424707 -0.000239 0.289974 0.168215 -0.068598
it’ 0.022818 -0.237835 -0.717631 0.068759 -1.164160 0.108055 0.052880 -0.538385 0.244589 0.289670 -0.056132 0.127615 0.312488 0.535697 0.228935 -0.567354 0.059664 -0.162616 0.406169 -0.072332 0.113986
content -0.748316 -0.155486 -0.269473 -0.030285 -0.584485 0.271372 -0.183138 -0.249784 0.401656 -0.048949 -0.536426 0.079055 -0.211508 0.178809 -0.649769 -0.928349 0.469206 -0.207163 0.143258 -0.107651 -0.036602
better -0.008910 -0.241066 -0.218472 -0.620417 0.004241 0.160115 -0.231089 0.385254 0.303805 -0.194306 0.564390 0.298056 -0.149093 -0.166694 -0.409136 -1.011680 0.432667 0.358084 0.536878 -0.885527 -0.042771
peopl 0.093230 -0.236117 0.177998 -0.647996 -1.091889 -0.490946 -0.120890 -1.092116 0.168761 0.392378 -0.027377 0.229043 0.640942 -0.231131 0.200922 0.344752 0.172103 -0.457774 0.601258 0.229098 0.065833
realli 0.000428 -0.134118 -0.725038 -0.179076 -1.253793 0.024552 -0.526756 0.272558 -0.003857 0.544970 -0.022401 0.205044 0.168574 0.115557 0.042055 -0.050830 0.088448 0.472489 0.395196 -0.219479 -0.053512
cours -0.382987 -0.624317 -0.231171 -0.639207 -0.598419 -0.142019 -0.263947 -0.249742 0.115452 0.142227 0.142879 0.527425 -0.066582 -0.079126 -0.128660 -0.668933 0.048101 0.214910 -0.205354 0.212028 -0.059845
don’t 0.315113 -0.489912 -0.031964 -0.255721 -1.408685 0.039204 -0.363562 -0.449015 0.094459 0.633991 0.125603 0.203435 -0.106729 -0.023682 0.020777 0.158240 0.177649 0.028504 0.120914 -0.777857 -0.101045
teach -0.292800 -0.678147 -0.023040 -0.295477 -0.622572 0.021636 -0.214086 0.413173 0.235323 -0.390511 0.282017 0.452162 -0.304627 -0.022882 -0.405832 -0.654774 -0.352267 0.542244 0.209939 0.255415 -0.075338
much -0.068456 -0.227013 -0.333079 0.057028 -0.685448 -0.426428 -0.678786 -0.122951 -0.116104 -0.045828 -0.126767 0.393132 0.432618 -0.024617 0.344221 -0.660458 0.240796 0.259665 0.266381 -0.139885 -0.058790
upload 0.105365 -0.694149 0.272515 0.007779 -0.307680 0.465019 -0.579963 -0.014228 0.242907 -0.519004 -0.065889 0.614008 -0.323549 0.727163 -0.118260 -0.812811 0.228237 0.211815 -0.265378 -0.056155 -0.172564
motiv -0.173746 -0.205723 -0.482910 -0.308224 -0.683664 -0.123595 -0.300788 -0.750970 -0.201603 -0.072860 -0.290258 0.628910 0.708111 -0.432883 -0.313462 -0.601810 -0.141830 0.132554 -0.309885 -0.588203 -0.270865
instead -0.285020 -0.647752 0.506551 -0.167499 -0.129676 0.606635 -0.408580 0.061403 0.879567 0.022053 -0.143130 0.420041 0.026907 0.055059 -0.483338 -0.392396 0.301957 0.150360 0.321788 0.199517 -0.146089
hour -0.090654 0.309084 0.210556 0.296324 -0.264505 -0.118062 -0.746830 -0.390516 0.780459 0.108538 0.752332 0.937088 1.154303 0.435035 0.031224 0.332264 0.890433 -0.094840 -0.324413 0.308676 0.161948
help -0.151499 0.005977 -0.320707 -0.076547 -0.598884 0.227684 -0.070361 0.023836 0.073825 0.130710 -0.098592 0.673520 0.168269 -0.274815 -0.497564 -0.816641 -0.271225 -0.138152 0.356022 -0.624846 -0.169556
actual 0.004984 -0.493512 0.028809 -0.270812 -0.362085 -0.025576 -0.530372 -0.334812 0.175745 -0.031459 -0.484448 0.492950 0.050700 -0.260911 -0.037953 -0.430364 0.269157 0.357142 0.350973 -0.570434 -0.110296
smaller 0.137186 -0.624802 0.170984 -0.348031 -0.093646 -0.257040 0.278041 -0.464184 0.549299 0.419590 0.332092 0.212451 0.801015 -0.679225 0.014896 -0.067472 -0.627585 0.555779 0.893552 0.056988 -0.539301
also 0.107200 -0.399935 -0.163146 -0.200898 -0.703732 0.241641 -0.200134 -0.329855 0.056433 0.269717 -0.058814 0.548452 0.415115 -0.185038 -0.007536 -0.697028 0.303241 0.169568 0.303935 -0.170965 -0.152080
could -0.300868 -0.283256 0.278923 -0.123151 -0.827641 0.072318 -0.284655 -0.322853 0.349524 0.079530 0.277908 0.354249 -0.137090 -0.298258 -0.184833 -0.124718 0.092342 0.244527 0.585652 -0.301787 -0.248364
meet 0.118885 -0.682199 0.499085 -0.169209 -0.477497 -0.436658 0.215753 -0.369423 0.236194 -0.003306 0.453349 0.328891 0.498235 0.406272 -0.190977 -0.445841 0.039473 0.273741 0.718961 0.410233 -0.274074
dont 0.113904 -0.404999 -0.069518 -0.333564 -1.184390 0.206004 -0.478446 -0.044966 0.082496 0.704405 0.018465 0.381182 -0.156071 0.080419 -0.011769 0.195212 0.148842 0.211112 0.184848 -0.532062 -0.265825
session 0.088072 -0.584389 0.446030 -0.031882 -0.246845 0.395233 0.351324 -0.521072 0.329666 0.003260 0.083368 0.519165 0.528667 -0.170523 -0.465988 -0.085509 0.036653 -0.011140 0.386165 0.404052 -0.171480
need -0.290753 -0.359248 0.024782 0.081918 -0.666887 0.055905 -0.510960 0.043916 0.138164 0.130994 -0.289321 0.260234 -0.101189 -0.145202 -0.081083 -0.484070 -0.178070 -0.288443 0.084953 -0.457178 -0.043773
exam -0.369993 -0.621503 0.052001 -0.504608 -0.539374 0.175309 -0.061917 0.260318 0.342398 0.310943 0.376910 0.308871 0.250674 0.138724 0.177816 -0.370809 0.312866 0.078572 -0.585322 0.025795 0.196446
lot 0.154849 -0.461040 -0.117572 0.121839 -0.733041 -0.068264 -0.692595 -0.277853 0.009045 0.418931 -0.103217 0.023776 0.459672 0.115854 0.168427 -0.712988 0.286461 -0.013641 0.266781 -0.116408 -0.224158
prefer -0.166443 -0.629503 0.527520 -0.051776 -0.418382 -0.305130 0.098239 -0.049926 0.366735 -0.465852 -0.182825 0.778131 -0.000049 0.143446 -0.365880 -0.547097 0.192404 -0.053933 0.388739 -0.129288 -0.488628
want 0.440322 -0.402076 -0.007969 -0.312506 -0.676448 -0.088562 -0.395832 0.174625 0.313966 0.086897 -0.264775 0.441415 -0.053007 -0.188733 -0.374308 -0.048989 0.173093 -0.168559 0.489553 -0.173122 -0.226354
thing -0.274994 -0.085763 -0.179325 -0.392587 -0.857178 -0.149173 -0.284236 -0.100965 0.297516 0.370041 -0.196437 0.079960 -0.040709 -0.163594 -0.182735 -0.209936 0.588701 0.028095 0.337087 -0.166847 -0.156889
go 0.198196 -0.423226 -0.224726 0.101458 -0.549981 0.400797 -0.422062 0.219778 0.387891 0.228444 0.140578 -0.087048 -0.021695 0.119187 -0.056704 -0.751332 0.060240 0.216374 0.220025 -0.322782 -0.081740
person 0.076664 -0.079596 0.542383 -0.208854 -0.938837 -0.157810 -0.051732 -0.134790 0.282338 0.049613 -0.105087 0.189032 0.277898 -0.042682 0.038026 -0.096128 0.187499 0.177845 0.572901 -0.486899 -0.177893
know 0.615039 -0.031801 -0.784593 -0.251051 -1.063236 -0.250108 -0.497678 0.238230 0.155765 0.824724 -0.042723 0.274178 -0.216241 0.261535 -0.106646 0.018615 0.370601 -0.197738 0.237503 -0.046480 -0.201367
read 0.075682 -0.609555 -0.354956 0.022306 0.336324 0.078230 -0.644276 0.118717 -0.011359 -0.083528 -0.325975 0.700402 0.042891 0.645148 -0.131329 -0.484768 0.111470 0.376361 0.348272 -0.106234 0.030130
understand -0.062543 -0.445994 -0.890525 0.459534 -0.687857 0.280114 -0.323482 0.039598 -0.305608 -0.376109 0.033664 0.428730 -0.305640 -0.153127 0.075617 -0.758580 -0.185427 0.266548 0.368117 -0.300627 -0.197567
hard -0.547651 0.138308 -0.627273 0.121684 -1.128725 0.366948 -0.033295 -0.410637 0.604181 0.114590 0.439679 -0.129436 0.465836 -0.406239 -0.303340 -0.316576 -0.302667 0.099538 -0.147700 -0.463862 -0.275287
differ -0.316631 -0.608593 0.176928 -0.648572 -0.206476 0.147777 -0.288124 0.047442 0.838302 -0.267084 0.587891 -0.024252 -0.535357 -0.541706 0.587533 -0.683688 -0.299295 -0.083662 0.174948 -0.036427 0.008570
talk 0.368322 -0.573720 -0.002352 0.191030 -0.759967 0.305485 -0.669177 -0.135163 0.361745 0.400930 -0.068526 -0.147470 0.179388 0.031969 -0.157988 -0.125110 0.007442 -0.278111 0.583267 0.020827 -0.129352
wish 0.155408 -0.474315 0.062916 -0.215640 -0.303081 0.101461 -0.260806 0.226916 0.261530 -0.023989 -0.047470 0.655339 -0.157360 -0.203500 -0.226699 -0.390175 0.126165 0.095857 0.354420 -0.117242 -0.402050
structur -0.283609 -0.315195 -0.089980 -0.357317 -0.231902 -0.127998 -0.187808 -0.254905 0.147882 -0.203691 0.221877 0.508449 0.288030 -0.168888 0.400859 -0.476638 0.618530 0.165660 -0.095327 -0.055772 -0.194867
noth -0.065240 -0.130438 -0.617396 -0.163679 -0.846050 -0.496520 0.038165 -0.012691 0.052066 0.333091 -0.035035 0.057340 -0.360482 0.104704 0.110053 -0.072869 0.048187 0.269711 -0.468768 -0.084930 -0.131908
see 0.668559 -0.381510 -0.146044 0.094540 -0.731126 -0.058050 -0.639124 0.434751 0.145117 -0.256614 -0.131515 -0.397054 -0.099548 -0.247519 -0.037026 -0.195267 0.285058 -0.041195 0.892374 -0.073589 -0.106876
activ -0.335833 -0.788920 0.032758 -0.346368 -0.206333 -0.113530 -0.021696 -0.237960 0.254963 0.148744 -0.869492 0.102986 0.498395 -0.686334 -0.254102 -0.095889 -0.417502 0.299170 0.682486 -0.105809 -0.235683
studi -0.143699 -0.285958 -0.250564 -0.356686 -0.262123 0.102306 -0.119849 -0.015101 -0.312816 -0.164343 0.250455 0.618086 -0.022767 -0.123402 0.473809 -1.026105 -0.173270 0.186058 0.113978 -0.313986 -0.158847
abl -0.121374 -0.053015 0.594871 -0.111741 -0.810199 0.236150 -0.242776 -0.369775 0.306160 -0.178644 -0.131706 0.392742 0.201897 -0.256795 -0.258294 0.171716 0.111672 -0.128394 0.602381 -0.319912 -0.333377
take -0.343070 -0.286207 -0.105574 0.104709 -0.148793 0.182462 -0.397970 0.326930 0.482040 0.567569 0.213793 0.268939 0.876533 0.265380 0.159028 -0.720351 0.054675 0.040580 -0.122825 -0.314280 -0.021380
particip 0.585230 -0.469830 -0.154845 -0.513769 -0.231080 -0.048981 -0.056830 -0.442018 -0.045606 -0.111051 -0.336429 -0.124095 0.362337 -0.719062 -0.090055 -0.276263 -0.254982 0.259730 0.432864 -0.214880 -0.261241
keep 0.171129 -0.296916 -0.861322 -0.035320 -0.194455 0.389347 -0.122262 0.108889 -0.056708 0.023899 -0.446428 0.618297 0.338178 -0.264109 0.248748 -0.445237 -0.169282 0.171414 0.329817 -0.316465 -0.172359
easier -0.074667 0.105395 -0.456279 0.416843 -0.868203 -0.045147 0.216207 -0.318133 0.357647 -0.407257 0.333226 -0.066014 0.761976 -0.728880 -0.750630 -0.417247 -0.120044 0.015112 0.632273 -0.366713 -0.388909
everyon 0.277565 -0.363573 -0.051913 -0.277339 -0.775561 -0.389110 0.050432 -0.783672 0.011414 -0.304206 -0.044030 0.029409 0.124840 -0.518132 0.113335 0.171712 0.187219 -0.186625 0.673644 -0.270000 -0.234145
present 0.190038 -0.501315 -0.232510 -0.074878 -0.032125 0.260172 -0.518568 0.225595 0.390699 -0.266778 -0.350939 0.125376 -0.039215 0.210566 -0.396579 -0.722285 0.088030 0.407013 0.272551 -0.070184 -0.156282
year 0.153910 0.131110 0.481494 0.133923 -0.449679 0.481159 0.364613 0.049052 0.615821 0.125508 -0.229017 0.037783 -0.279130 0.854764 -1.002398 -1.145225 0.197180 0.292947 -0.492741 -0.154845 -0.267214
difficult -0.552801 -0.055611 -0.537820 0.436071 -0.824977 0.025911 0.138835 -0.175740 0.370981 -0.049283 0.415179 0.196006 0.631505 -0.370232 -0.273769 -0.263920 -0.088592 0.387043 -0.085816 -0.226550 -0.269487
answer -0.092218 -0.644783 -0.039410 0.276496 -0.322361 0.298088 -0.360042 -0.074105 0.162793 0.169122 0.497890 0.398944 0.556467 0.058535 -0.268920 0.314430 0.281723 -0.354541 0.576905 -0.393105 -0.167256
chat 0.246520 -0.537486 0.536598 0.228344 -0.233283 -0.030055 0.134128 -0.094505 0.594651 -0.508897 0.364339 -0.056262 0.213719 0.007627 -0.563072 -0.122637 0.134531 0.076505 1.046944 0.223038 -0.293335
give 0.148937 -0.688531 -0.212778 -0.042028 -0.220193 0.227439 -0.600451 0.398051 0.139742 0.080633 0.247874 0.421789 -0.077140 -0.119520 -0.113710 -0.380458 -0.126724 -0.386365 0.359812 -0.413839 -0.306845
platform -0.426217 -0.493769 -0.002325 -0.624681 -0.359166 -0.383971 -0.190066 -0.365628 0.745198 -0.033573 0.745969 0.043337 -0.692406 -0.099061 0.030581 -0.487322 0.466789 0.225630 0.369375 0.377252 -0.327324
powerpoint -0.429083 0.022396 0.046125 0.113274 -0.217842 0.483718 -0.397661 -0.141509 0.404096 -0.222461 -0.409044 0.300925 -0.123928 0.513724 -0.697915 -0.717971 0.808754 0.062159 -0.229410 0.599193 -0.062316
week -0.128072 -0.718108 0.019601 -0.538265 -0.039101 -0.015566 -0.120316 -0.167418 0.502229 0.037875 0.384454 0.185133 0.667350 0.405139 0.140253 -0.066839 0.453261 -0.301786 -0.451436 0.454953 -0.050482
even 0.330657 -0.429429 -0.104028 -0.064830 -0.591862 0.144208 -0.460925 0.021654 -0.033737 -0.091109 -0.234080 0.272897 0.368811 -0.247907 -0.108147 -0.162910 0.250061 0.362422 0.262175 -0.029303 -0.083922
seminar 0.026322 -0.640489 0.356492 -0.218703 -0.314181 -0.123262 0.122454 -0.485706 0.429678 0.074008 -0.003056 0.320193 0.368713 0.101109 -0.277725 -0.378485 0.012919 0.349035 0.313845 0.169424 -0.345250
email 0.211489 -0.652236 0.097453 0.247382 0.114665 0.406245 -0.514152 -0.030293 0.441484 -0.222196 0.467458 0.279620 0.073471 0.421047 -0.370233 0.204452 0.229070 -0.019977 0.684619 -0.255456 -0.127087
well 0.287616 -0.380026 -0.074867 -0.034648 -0.728188 -0.329895 -0.352808 0.110961 0.107416 0.466945 0.001576 0.431750 0.074197 -0.013659 -0.278384 -0.257279 -0.083495 0.054028 -0.161343 -0.293178 -0.253678
mayb -0.181157 -0.708468 0.332271 -0.163956 -0.158821 0.156673 -0.016042 -0.174031 0.088380 -0.230072 -0.242261 0.348082 0.275328 -0.315109 -0.046225 -0.170821 0.068054 0.089323 0.406799 0.103031 -0.215724
normal -0.059005 -0.333403 -0.200769 -0.051160 -0.400950 -0.199913 -0.205927 0.061977 0.151655 -0.227377 -0.376929 0.510391 0.319785 0.038026 0.375939 -0.263661 0.272540 0.129194 -0.090364 -0.180039 -0.207803
day 0.100853 -0.454509 0.118110 -0.254720 -0.079707 0.098913 -0.436987 -0.149143 0.605299 -0.121766 0.438288 0.146095 0.704589 0.269548 0.293986 -0.211781 0.447353 -0.254098 -0.568106 0.402046 -0.157984
attend 0.496782 -0.181391 -0.060936 0.175067 -0.431815 0.086816 0.347926 -0.573727 0.087937 -0.055825 -0.427921 0.362931 0.290935 -0.058061 0.334570 -0.531253 0.132547 0.274018 0.218682 -0.117627 -0.219423
often 0.334001 -0.224622 0.007454 0.296002 -0.462355 0.150365 -0.202300 -0.192127 0.305141 0.290284 -0.058717 0.148483 0.297878 -0.064583 -0.218798 -0.194627 -0.045154 0.250003 0.328452 -0.277071 -0.193823
face -0.066909 -0.092466 0.850627 0.216582 -0.607371 -0.789072 -0.593762 0.275999 0.302155 -0.617444 -0.591790 -0.159886 0.318047 -0.142815 0.111111 0.346175 0.314994 0.127328 0.203592 -0.140499 0.043093
camera 0.934567 -0.360163 0.264794 -0.261666 -0.286164 -0.453756 -0.212319 -0.639373 0.050610 -0.428481 0.039336 -0.340771 -0.072502 -0.830614 -0.304863 -0.191232 0.497049 -0.712292 0.510179 -0.443296 -0.155130
distract 0.454537 0.315543 -0.849525 0.270254 -0.610409 -0.164987 0.089201 -0.802508 -0.039479 -0.070041 -0.105943 0.524045 0.803961 0.020597 0.000422 -0.186128 -0.354327 -0.117180 0.223467 -0.107316 -0.264362
small -0.057090 -0.635525 0.485453 -0.595603 0.209502 -0.301880 0.073459 -0.124553 0.407965 0.287857 -0.058665 0.360687 0.423045 -0.369895 0.015079 0.005724 -0.344023 0.441122 0.743895 -0.002121 -0.464853
etc 0.331885 -0.564711 0.278367 -0.225269 0.041265 0.065278 0.052356 0.078366 0.181535 0.267847 0.005198 0.466105 0.024385 0.263868 -0.248762 -0.255625 0.002256 0.164294 0.240332 -0.180473 -0.283434
sometim 0.180344 -0.134999 -0.377955 0.198902 -0.762265 0.029277 -0.114435 -0.252264 0.192178 -0.013190 0.372238 0.245738 0.068285 0.296158 0.135557 -0.352337 0.307648 0.011287 -0.068879 -0.332574 -0.281687
inform -0.037563 0.058193 -0.192049 0.003581 -0.129968 0.229115 -0.617719 -0.038567 0.335429 0.118186 -0.196050 0.174157 0.023926 0.049452 -0.326178 -0.469975 0.045460 0.028921 -0.106904 -0.108879 -0.049758
long 0.101183 0.058237 -0.186786 -0.093794 -0.560846 0.083715 -0.587845 0.058927 0.525430 -0.184527 0.056570 0.164394 0.574909 0.140677 0.363651 -0.058916 0.276159 -0.183572 -0.464924 0.182657 -0.020034
sinc 0.043310 -0.290687 -0.148891 0.143089 -0.588146 -0.164407 -0.251645 -0.101490 0.190325 0.146363 0.137291 0.441418 0.197441 0.105399 -0.024666 -0.296391 0.077038 0.089915 -0.003834 0.035936 -0.185438
sure 0.525026 -0.054263 -0.358414 0.123200 -0.895612 -0.224752 -0.298475 -0.312408 -0.053177 -0.456744 -0.075671 0.137478 0.208031 -0.775738 -0.389282 -0.280068 -0.163491 -0.129055 -0.553932 -0.186687 -0.340646
univers -0.081530 0.020489 -0.019580 -0.619912 -0.322309 -0.136636 -0.091052 0.318332 0.313137 0.126097 -0.219098 0.209556 -0.219403 0.086017 0.125484 -0.507522 0.263956 0.164289 -0.014991 -0.110668 -0.201652
someth -0.057232 -0.151181 -0.210959 -0.137372 -0.738022 -0.019391 -0.208004 -0.061608 -0.009603 0.056006 -0.177496 0.109192 -0.188954 -0.322644 -0.181547 -0.064930 0.311829 0.268372 0.396985 -0.167254 -0.344868
lesson -0.109698 -0.103441 0.275012 -0.170878 -0.389934 -0.005181 0.254651 0.086802 0.014186 -0.255905 0.116707 0.700117 0.236468 0.075930 -0.206805 -0.561555 0.146248 0.078447 -0.021710 0.192961 -0.170801
mani 0.230593 -0.743851 0.011634 -0.170554 -0.405650 0.077317 -0.265898 0.094005 0.200298 0.689195 0.475875 0.068809 0.133715 -0.333357 0.336518 -0.003124 -0.144657 -0.168518 0.323427 -0.356482 -0.285960
anyth -0.116936 0.000982 -0.418900 -0.238802 -1.211536 -0.722826 0.055430 0.348533 0.238105 0.354863 -0.226404 -0.038103 -0.909649 0.012464 -0.096573 -0.017273 0.634788 0.160929 0.032366 -0.466005 -0.401072
miss -0.038089 -0.267248 0.327489 -0.013069 -0.540568 -0.224194 -0.183991 -0.007161 0.130810 0.453303 -0.386789 0.249228 0.304765 -0.017077 -0.245237 -0.314653 -0.189372 -0.124199 -0.010747 -0.332435 -0.160019
quizz 0.135247 -0.613389 0.404755 -0.186153 0.157439 -0.004086 -0.162976 0.088111 0.190804 0.094844 -0.464760 0.211102 -0.011011 -0.392781 -0.032505 -0.043574 -0.037223 0.583127 0.515835 -0.044304 -0.153394
turn 1.018907 -0.691873 0.317352 0.096183 -0.448921 -0.170276 -0.141375 -0.466181 -0.044422 -0.319803 0.123481 -0.197353 -0.109013 -0.819884 -0.072190 -0.145479 0.372429 -0.770260 0.280261 -0.473354 -0.214795
i’d 0.042801 -0.255088 0.353555 -0.385710 -0.998341 0.348959 -0.199204 -0.471942 0.010437 -0.406530 -0.401201 -0.057125 -0.155530 -0.190413 0.364820 -0.188986 0.541271 0.889329 0.441055 -0.011044 -0.757654
find -0.012002 -0.193635 -0.861552 0.040544 -0.540786 0.019903 0.306735 -0.498433 0.132625 -0.021541 -0.180766 0.241595 0.139409 0.192302 -0.019650 -0.578321 -0.039002 0.272503 0.462964 -0.417160 -0.499297
tutori 0.049927 -0.608746 0.085511 -0.279536 -0.167343 0.072163 0.186112 -0.290558 0.432793 -0.041958 0.367728 0.354128 0.335057 0.148987 -0.144646 0.090828 -0.034145 0.206355 0.439614 0.281747 -0.315506
uni 0.222500 -0.049373 -0.017654 -0.338503 -0.499520 -0.452112 0.064346 0.048855 0.139978 0.238848 -0.208462 0.343579 -0.032165 0.094302 0.073624 -0.212175 0.223337 0.187221 -0.069070 -0.324771 -0.248000
without -0.261323 -0.208106 0.228452 0.260423 -0.178581 0.209345 -0.433793 -0.033140 0.292485 0.207409 -0.516407 0.210969 0.359945 -0.027181 -0.243615 0.057443 0.132189 -0.113465 0.173809 -0.396827 -0.199994
call 0.591989 -0.583293 0.613898 -0.072371 -0.202483 -0.165024 0.281901 -0.293866 0.393174 -0.174629 0.317570 0.095732 0.162386 0.318672 -0.276159 -0.429726 0.281472 -0.240189 0.731416 0.040178 -0.370576
allow 0.033625 -0.611787 -0.020470 0.106213 -0.294610 0.139668 -0.171685 0.361749 0.304269 0.090717 0.190205 0.351936 0.180797 -0.262569 -0.235500 -0.237437 -0.048988 -0.262051 0.713356 -0.310161 -0.426378
given -0.109410 -0.411149 -0.077241 0.021971 -0.102940 -0.017881 -0.381808 0.208902 0.036871 0.022132 0.037756 0.819865 -0.075673 0.381859 0.357153 -0.514556 -0.102354 0.305437 0.054199 -0.242625 -0.245786
schedul -0.002011 -0.244058 0.040815 -0.353173 -0.149140 0.082708 -0.066145 -0.022255 0.408731 -0.300288 -0.013999 0.313109 0.206182 -0.232684 0.254131 -0.308540 0.321418 0.174700 -0.472127 0.137279 -0.033648
shorter 0.239922 0.007145 0.097524 -0.040965 -0.152712 0.109777 -0.030888 -0.347854 0.477569 -0.471974 -0.067120 0.159217 0.507173 -0.305882 0.155031 -0.379661 0.319416 0.123890 -0.052222 0.129304 -0.210093
usual 0.147422 -0.260094 -0.088944 0.058919 -0.322137 -0.068754 -0.408745 -0.090148 0.431835 0.304814 0.034209 0.361452 0.347568 -0.004762 0.064568 -0.156184 0.354107 -0.186851 -0.129463 -0.001215 -0.239332
watch 0.235176 -0.315036 0.279702 0.338512 -0.144454 0.391557 -0.370132 0.081528 0.130632 -0.268121 -0.221435 0.223129 0.208500 0.072322 0.179711 -0.700035 0.237579 -0.334393 0.148300 0.125775 -0.317898
prerecord 0.309982 -0.125182 0.217982 -0.079905 -0.341044 0.271992 -0.136538 -0.502785 0.527785 -0.221013 -0.352621 0.458157 0.043974 0.562787 -0.277462 -0.360364 0.277670 0.207506 0.147916 0.111821 -0.531289
tutor -0.020216 -0.498756 0.297485 -0.214782 -0.167383 0.350736 -0.102877 0.106174 0.226932 0.026352 -0.061107 0.177777 0.423075 -0.064418 -0.160107 0.113099 -0.025126 -0.165624 0.525787 -0.199867 -0.377893
contact 0.152047 -0.586104 0.128916 0.181976 -0.319071 0.056842 -0.699856 -0.034274 -0.043011 -0.167593 -0.011396 -0.023876 0.700285 -0.091363 0.225639 -0.149820 0.068088 -0.263576 0.281412 0.128521 -0.076863
current 0.110758 -0.176409 0.111074 -0.117821 -0.465329 -0.159627 -0.046499 0.007119 0.322762 0.169413 -0.430141 0.288031 -0.203304 -0.002402 0.173692 -0.305598 0.094157 0.090938 -0.177211 -0.055906 -0.237684
i’m -0.247545 -0.122580 -0.331981 -0.073166 -0.575420 -0.241390 -0.059326 -0.301076 -0.313022 -0.009254 -0.527650 0.284367 -0.013416 0.041370 0.241443 -0.296167 0.341484 0.228965 -0.041843 -0.517845 -0.318057
instructor 0.123924 -0.321461 -0.039144 -0.270553 -0.277857 0.222303 -0.163941 0.321921 0.296391 -0.229808 0.127703 0.062532 -0.328977 -0.306776 -0.057996 -0.116740 0.418287 0.142688 0.473673 -0.381122 -0.170457
subject -0.307960 -0.091137 -0.322215 -0.447692 -0.314068 -0.099662 -0.269255 -0.149742 0.490024 0.038122 0.355376 0.056052 -0.178914 -0.186770 -0.113170 -0.264650 0.262259 -0.467335 -0.056744 -0.002372 -0.126562
everyth -0.210953 -0.038719 -0.235815 -0.091755 -0.461606 -0.231626 -0.176135 0.038025 0.139805 0.059479 -0.145895 0.211586 -0.109184 -0.076633 -0.112717 -0.071154 0.092219 0.113064 -0.156578 -0.134531 -0.172236
topic -0.318921 -0.014937 -0.141452 -0.012897 -0.023780 -0.011793 -0.055885 0.051667 0.407247 0.075559 -0.156811 0.153411 0.169934 -0.062420 -0.540934 -0.299304 0.260456 -0.243779 0.557986 -0.307234 -0.227605
opportun -0.101189 -0.276827 0.156816 -0.142627 -0.335264 0.229583 -0.089426 -0.197731 0.335038 -0.129469 -0.246906 0.330724 0.250064 -0.253600 -0.428880 0.447489 0.142533 -0.186456 0.932785 -0.168018 -0.593928
speak 0.569309 -0.296543 -0.041800 0.007459 -0.480220 0.145080 -0.060231 -0.074520 0.387417 0.286259 0.060573 -0.126843 0.012797 -0.194795 -0.033543 0.133429 -0.182081 -0.452691 0.212678 -0.173329 -0.062909
tri -0.177769 0.191988 -0.432201 -0.223567 -0.597702 0.004632 -0.247624 -0.014939 0.119503 -0.346251 -0.109323 0.086668 0.151078 -0.771905 -0.093394 -0.331598 0.177762 0.081872 -0.015372 -0.343630 -0.216869
break 0.102129 -0.368765 0.010512 -0.091997 0.153046 0.044978 -0.148477 0.252318 0.390972 0.088148 -0.046444 -0.057105 0.702823 -0.162745 0.205801 0.045301 -0.159058 0.165208 0.363040 0.408168 -0.085699
practic -0.163093 -0.114855 -0.077709 -0.225708 -0.200943 -0.338675 -0.196720 0.067558 0.243124 0.104504 -0.232279 0.237780 0.166333 -0.208541 -0.027301 -0.004611 -0.185790 0.250534 -0.207700 -0.341891 -0.086873
commun -0.013105 -0.439626 -0.362542 -0.163188 -0.170776 0.255355 -0.545841 -0.240528 -0.132204 -0.006645 -0.037203 0.157794 -0.215854 -0.401720 -0.218214 -0.536019 -0.126697 -0.133797 0.330426 0.005581 -0.281287
access 0.205505 -0.078408 -0.179531 0.147601 -0.190414 0.170507 0.000731 -0.154691 0.143755 -0.242969 -0.009258 0.328877 0.005621 -0.042239 -0.153909 -0.335178 -0.208082 0.245425 0.002813 -0.128343 -0.214367
done 0.087977 -0.201538 -0.028647 -0.271161 -0.337313 -0.224521 -0.077821 0.210216 0.306130 0.318244 0.164280 0.357143 0.017970 -0.000550 0.007315 -0.115892 -0.192559 0.224654 0.032700 -0.053906 -0.195814
last 0.169966 0.007772 0.473371 -0.025965 -0.258861 0.320468 -0.050673 0.212122 0.831724 -0.041439 -0.634186 0.309984 -0.327269 0.453843 -0.255971 -0.399637 0.465606 -0.111161 -0.567671 0.524506 -0.468716
add 0.075625 -0.364588 0.290250 -0.401105 -0.026834 -0.137728 0.390807 0.136527 0.029872 -0.173779 -0.191793 0.336274 0.265869 -0.287855 -0.290701 -0.282945 -0.054879 -0.057274 0.387502 0.065866 -0.466283
method -0.743019 -0.292091 -0.145493 -0.506357 0.073384 -0.121764 -0.121347 -0.131259 0.899730 -0.338966 0.031527 -0.030625 -0.805569 -0.197293 0.226747 -0.172937 0.212918 0.013743 0.246248 -0.100403 -0.225746
everi -0.169465 -0.477779 0.168594 -0.210529 0.171286 0.324398 -0.475314 0.009615 0.720319 -0.119422 0.252428 0.325370 0.069022 -0.201533 0.176289 -0.378327 0.059372 -0.368178 -0.168215 0.150992 -0.288044
still -0.104698 -0.326590 -0.000529 -0.114360 -0.518224 -0.151975 -0.102304 0.123054 -0.055013 -0.064290 0.138321 0.466467 0.010607 0.028541 0.052335 -0.049582 0.174002 0.094897 0.004419 -0.282621 -0.290515
amount 0.092394 -0.569778 -0.228032 -0.170513 -0.507407 -0.365119 -0.358916 0.349146 0.004838 0.008507 0.068545 0.320354 -0.113160 -0.091719 0.302961 -0.330105 0.186968 0.337906 -0.538584 -0.119172 -0.281564
forum -0.059562 -0.263809 0.262386 0.011716 -0.058104 -0.090658 0.130981 -0.050525 0.386542 0.129957 0.092638 0.306480 0.282558 -0.027369 -0.525042 0.046785 0.105862 0.130592 0.625529 -0.031295 -0.231680
good 0.086225 0.094614 -0.405957 -0.012090 -0.373610 -0.172261 0.215306 0.472453 0.285415 0.091758 0.037567 0.193784 -0.238910 -0.337243 -0.230128 -0.509288 -0.126865 0.027690 -0.052995 -0.460125 -0.126507
post 0.120281 -0.535935 0.334990 0.032616 -0.053031 0.386685 -0.358036 0.119428 0.268421 0.045025 -0.026495 0.653248 -0.160567 0.308604 -0.283750 -0.050849 0.060498 0.095630 0.198264 -0.033862 -0.362511
set -0.135321 -0.427474 0.145680 -0.059449 -0.242341 -0.103728 -0.131213 0.207506 0.324130 0.347080 0.291904 0.424857 0.529669 0.178246 0.244610 -0.184521 0.030404 0.016026 0.018205 -0.020936 -0.382475
stay -0.106316 0.000612 -1.166322 0.152844 -0.172010 0.182138 0.265581 -0.057788 -0.019417 -0.283157 -0.535928 0.343952 0.506552 -0.348169 0.642429 -0.457816 -0.271109 0.306339 0.185665 -0.425471 -0.367916
lack -0.123285 -0.062599 -0.303216 -0.175329 -0.040227 0.025040 0.035417 0.143931 -0.157101 0.094559 -0.368563 0.354217 0.053351 -0.449304 -0.141289 -0.251544 -0.215458 0.299287 0.180452 -0.412549 -0.224820
possibl 0.273947 0.056334 -0.024855 -0.152635 -0.409717 0.040255 0.050514 0.042714 0.155976 -0.340770 -0.219493 0.210525 0.281654 -0.386970 -0.250230 -0.250634 -0.074683 0.083293 0.258406 -0.145235 -0.295636
due -0.039121 -0.270243 0.041664 -0.051116 -0.140221 0.178945 -0.064019 0.462167 -0.043299 0.484023 -0.040009 0.570777 0.099878 0.249095 0.315373 -0.224868 -0.017329 -0.103547 -0.283817 -0.109687 -0.142202
eg -0.012033 -0.518006 0.150019 -0.182295 0.312971 -0.050631 -0.223618 0.008042 0.309266 0.011565 -0.272699 0.433017 0.223680 0.133648 -0.358577 -0.227349 -0.243968 0.352907 0.169080 0.064206 -0.185024
slide 0.123389 -0.149550 0.052028 0.263687 -0.100405 0.379126 -0.363191 -0.005793 0.493115 -0.277094 -0.287829 0.168807 -0.038273 0.396106 -0.377926 -0.530390 0.495747 0.159502 -0.174259 0.151258 -0.290193
explain 0.136559 -0.379727 -0.124065 0.236211 -0.433996 0.314519 -0.530803 0.335205 -0.005553 -0.231197 0.046430 0.171911 -0.367515 0.295832 -0.377794 -0.443305 -0.072803 -0.062900 0.320956 0.057000 -0.301353
home -0.111811 -0.094980 -0.169288 -0.243736 -0.082456 -0.359537 -0.140078 0.034062 -0.067059 0.322042 -0.212519 0.245921 0.462468 0.045631 0.140416 -0.400945 -0.110950 0.109481 -0.298397 -0.194132 -0.246393
listen 0.084841 -0.325802 0.031775 0.008550 -0.179912 0.378385 -0.616071 -0.081907 0.305845 -0.106880 -0.565126 0.072113 0.322387 0.140739 -0.346449 -0.147802 -0.175404 -0.097460 0.165029 0.205775 -0.250473
test 0.016697 -0.475464 0.056941 -0.402342 -0.218918 -0.098548 0.088958 0.155010 -0.091579 0.028913 -0.085749 0.009929 -0.007371 -0.070669 0.016826 -0.123147 -0.229667 0.049210 0.346286 0.108272 0.138528
attent 0.182026 -0.028262 -0.621069 0.406963 -0.330396 -0.135165 0.456497 -0.151309 0.076182 -0.153678 0.154837 0.300129 0.310967 -0.464317 -0.188247 -0.037747 -0.040964 0.506626 -0.138895 -0.244777 -0.186541
provid 0.031148 -0.143157 0.051469 -0.045266 -0.147552 0.162253 -0.125339 0.405791 0.206491 -0.132634 -0.238058 0.539930 -0.462133 0.143184 -0.155814 -0.513846 0.060474 -0.028853 -0.023158 -0.263867 -0.340958
connect 0.028960 -0.025797 -0.020247 0.092132 -0.112321 -0.069955 0.284069 -0.077068 -0.041406 0.118435 -0.013818 0.103444 0.372304 -0.132312 0.238124 -0.402955 0.036448 -0.186427 0.025890 0.062970 0.042351
note 0.109978 0.035973 0.044867 0.137467 -0.014619 0.279420 -0.769251 -0.212776 0.520619 -0.034125 -0.129000 -0.031984 0.342659 -0.114979 0.036498 -0.344771 0.299384 -0.027844 -0.237488 0.142193 -0.084040
can’t -0.068338 -0.072587 0.162650 0.024916 -1.002252 0.144732 -0.152542 -0.148842 0.178619 0.011840 -0.186833 0.126996 -0.082434 -0.192486 -0.134617 0.277470 0.109127 -0.081338 0.047922 -0.301255 -0.403898
end 0.178079 -0.347182 -0.088299 0.105717 -0.163916 0.090713 -0.097996 -0.136340 0.545778 0.046405 0.198239 0.271368 0.430490 -0.072961 0.079123 0.062802 0.065907 -0.199265 0.028448 -0.118133 -0.373390
interest 0.090746 -0.007945 -0.375874 -0.149468 -0.171606 0.019390 -0.034319 -0.454243 0.185718 -0.102835 -0.578151 0.141806 0.457684 -0.495366 -0.164056 -0.421425 0.070771 0.442361 0.408481 -0.200716 -0.633671
pay 0.090506 -0.101252 -1.066267 0.034490 -0.183167 -0.200376 0.565700 -0.359836 -0.161125 -0.204525 0.073506 0.164073 0.275793 -0.130383 0.214952 -0.310228 0.137172 0.312273 0.185247 -0.147165 -0.267253
requir -0.099782 -0.613915 0.195304 -0.141926 -0.117746 -0.036130 0.083787 -0.276814 0.212421 -0.014837 -0.156302 0.293014 0.092088 -0.335625 -0.085262 -0.257894 0.056198 0.004098 0.164413 -0.263545 -0.347801
classmat 0.072605 -0.158474 0.187174 -0.164175 -0.243208 -0.067487 -0.051593 -0.114969 0.005102 0.239064 -0.229537 0.279597 0.157149 -0.460505 -0.212145 0.050011 -0.032450 0.276762 0.520392 -0.239160 -0.374677
format -0.152870 -0.229776 0.031275 -0.212803 -0.232555 -0.173140 0.009004 -0.131277 0.533557 -0.346635 0.148130 0.171303 -0.141791 -0.045103 0.020267 -0.318106 0.251743 0.316095 -0.244331 0.167355 -0.333318
id 0.162934 -0.107526 0.048538 -0.322424 -0.641308 0.145879 -0.203446 -0.357118 -0.045077 -0.112120 -0.390175 -0.057294 -0.122977 -0.334902 0.422402 -0.215864 0.572076 0.855939 0.187946 -0.182291 -0.818927
focu 0.291187 -0.186720 -0.533293 0.120980 -0.452256 -0.128226 0.154007 0.100673 -0.020348 0.069187 -0.134671 0.238476 0.337043 -0.122059 0.122356 -0.139102 -0.014815 -0.080596 0.216893 -0.098386 -0.318426
im 0.094960 -0.059420 -0.449532 -0.062491 -0.542378 -0.285577 0.028271 -0.144735 -0.374789 0.175680 -0.291847 0.229226 -0.050781 -0.044833 0.211855 0.001664 0.322038 0.053627 -0.132394 -0.399385 -0.331800
love 0.261891 -0.350772 0.129000 -0.244145 -0.265207 -0.269734 0.061765 0.183612 0.325853 -0.206393 -0.176598 0.563540 0.041285 -0.185805 -0.358587 -0.332854 0.189593 -0.099102 0.115853 -0.140766 -0.830932
modul -0.552572 -0.229253 0.046849 -0.453861 -0.020317 0.147764 -0.143267 -0.084293 0.556612 -0.251567 -0.034973 0.111011 -0.343561 0.098584 0.004531 -0.229580 0.027654 -0.043190 -0.111664 0.262001 -0.339569
new -0.248744 -0.202858 0.046809 -0.010161 -0.441442 0.114337 -0.245565 0.026670 0.287868 -0.010690 -0.265278 0.276027 -0.700818 0.306603 -0.166301 -0.414396 0.267780 0.208990 -0.138237 -0.073440 -0.487889
resourc -0.369031 -0.221481 -0.056680 -0.311977 -0.154323 0.044713 0.014171 0.256962 0.065939 -0.015984 0.015629 0.430098 0.070949 0.012129 -0.095730 -0.180774 0.037394 0.239958 -0.265895 0.028509 -0.337042
alway 0.322245 0.019360 -0.096816 0.229589 -0.592155 0.043769 -0.147364 -0.010903 0.162040 0.201665 -0.146196 0.122535 0.087411 0.250718 -0.080952 0.114809 0.134385 -0.122592 0.155218 -0.105431 -0.212882
back -0.191799 0.290466 -0.114106 0.007878 -0.230392 0.451164 -0.450428 -0.047890 0.445340 -0.026790 0.150855 0.159867 0.137359 0.029541 -0.006499 -0.065590 0.209788 -0.461781 0.097095 0.242432 0.063484
especi 0.045975 -0.271704 0.206834 0.023903 -0.036566 0.029949 -0.019430 0.060264 0.198297 0.015580 -0.018185 0.235115 0.068781 -0.237670 -0.076353 -0.404084 -0.198135 0.014914 -0.003847 -0.065556 -0.295526
exampl -0.005049 -0.279226 0.155544 -0.131950 0.028853 -0.050849 0.196991 -0.026049 0.189241 0.055007 0.021992 0.228914 -0.000942 -0.042013 -0.305884 -0.227138 -0.016357 0.237366 0.485562 0.057383 -0.278874
follow 0.132941 -0.223710 -0.667739 0.227984 -0.302223 0.173096 0.119359 -0.169123 0.315431 -0.155806 0.056376 0.099618 0.108925 0.196969 0.258892 -0.429853 -0.168236 0.153040 0.069399 -0.130816 -0.301176
harder -0.604556 0.341384 -0.355507 0.322556 -0.658322 0.006736 -0.275463 -0.080947 0.098291 0.015784 0.276362 0.098028 0.481749 -0.202901 -0.206996 -0.475237 0.080657 0.083536 0.022630 -0.440099 -0.573699
put 0.095409 -0.250838 -0.186174 -0.050620 -0.137423 -0.058994 -0.240991 0.350051 0.043323 -0.115604 0.050022 0.506300 -0.034423 0.009990 -0.060203 -0.356207 0.003803 0.049880 0.118294 -0.351770 -0.428993
qa 0.114575 -0.379075 0.608309 0.159597 0.161319 0.317127 0.258619 -0.056583 0.526909 -0.199120 0.016062 0.449968 0.323165 0.206171 -0.284842 -0.172495 0.070659 0.130321 0.447334 0.207962 -0.228679
qualiti -0.090831 -0.004513 0.222586 0.214756 0.031158 0.149676 -0.385921 -0.264393 0.092919 -0.243559 -0.060853 0.033387 -0.405074 -0.146881 -0.228958 -0.656156 0.245525 -0.181253 -0.234033 0.403483 -0.167562
screen 0.088927 0.192231 0.231135 0.094783 -0.204016 -0.111008 0.095845 0.178180 0.492910 -0.364727 0.164467 -0.170404 0.249230 -0.211624 0.101728 0.250118 0.478972 -0.065225 0.075617 0.113656 0.092898
whole 0.041463 -0.294114 0.163498 -0.277835 0.005513 -0.101976 0.047453 -0.059136 0.519973 0.090640 -0.001894 0.224493 0.355939 -0.051372 0.314338 -0.020677 -0.197839 0.249760 0.295646 0.073097 -0.384608
consist -0.115816 -0.187437 0.247240 -0.251731 -0.032770 0.325836 -0.154255 0.025005 0.510164 -0.325552 0.059514 0.102128 -0.310098 -0.215628 0.009080 -0.323107 0.209334 0.042616 -0.235322 0.160597 -0.339510
littl 0.236033 -0.270566 0.153371 -0.052422 -0.287118 -0.116353 0.069769 0.049656 0.014086 0.165370 -0.067698 0.284972 0.349831 -0.237721 0.216292 -0.123945 -0.101573 -0.020581 0.306009 -0.077032 -0.363232
quit 0.398221 0.084317 -0.055876 0.184595 -0.423272 -0.159663 -0.039153 -0.307167 0.109934 0.267659 -0.215243 0.202341 0.200094 0.233595 0.080113 -0.192072 0.014141 0.101885 -0.340120 -0.350906 -0.308675
cant -0.049917 0.075624 -0.212762 -0.019448 -0.935217 -0.160458 -0.020520 0.111347 0.178112 0.355878 0.045979 -0.006652 -0.398738 -0.167261 -0.030857 0.168626 -0.086113 -0.143031 -0.034325 -0.579208 -0.245840
includ 0.262131 -0.290681 0.220375 -0.197153 -0.056432 -0.189258 0.197896 0.029285 0.341168 -0.171776 -0.211581 0.462802 0.206383 -0.253478 -0.452286 -0.207770 -0.041944 0.049798 0.132919 0.024698 -0.442907
longer 0.110959 0.107904 -0.013945 -0.057971 -0.056150 0.020339 -0.402233 -0.373642 0.372396 -0.107834 0.056645 -0.021947 0.688864 0.007712 -0.080699 -0.718233 0.149723 -0.152867 -0.028482 0.030483 -0.179635
pre 0.127627 -0.221467 0.616875 0.060989 0.013107 0.491392 -0.173136 -0.167620 0.385058 -0.035696 -0.334516 0.620622 -0.046646 0.365994 -0.217215 -0.509164 0.256948 0.275095 -0.247604 0.275897 -0.643682
room 0.196780 -0.415855 0.186485 -0.115730 0.571862 0.065687 0.188891 -0.274962 0.380218 0.178145 0.083629 -0.181154 0.294517 -0.117624 -0.532297 -0.071730 -0.143630 0.382149 0.774486 0.157899 -0.398594
via -0.083066 -0.473176 0.444481 -0.098181 0.071837 0.124950 0.117701 -0.148795 0.518694 -0.212885 0.319548 0.276842 0.075394 0.200131 -0.208053 -0.264965 0.204086 -0.213919 0.505411 0.198394 -0.354911
best -0.111501 -0.074547 -0.371307 -0.163895 -0.498456 -0.282757 -0.296066 0.348763 -0.065566 0.067094 -0.172946 0.388156 -0.351175 -0.141821 0.393973 -0.136749 0.066223 0.376069 -0.090508 -0.358866 -0.401937
point 0.148190 -0.178180 -0.077247 -0.078458 0.363297 0.241809 -0.220653 0.096209 0.331657 0.064269 -0.291480 0.158586 -0.045285 0.057159 -0.348472 -0.157401 0.382013 0.183603 -0.012710 0.168283 -0.185247
problem 0.024335 0.043468 -0.053549 0.051221 -0.094755 -0.185461 0.117886 0.320065 0.129439 0.120174 0.167642 0.122877 0.102798 -0.356114 0.124959 0.104342 -0.133663 -0.085295 -0.182290 -0.152571 -0.022448
account 0.001663 -0.106584 -0.303142 -0.243275 -0.157178 -0.010540 -0.117648 -0.407339 -0.082581 -0.024649 -0.085382 0.107396 0.304024 -0.103307 -0.133746 -0.251324 -0.345029 0.366636 -0.114493 -0.282919 -0.370078
mean 0.380933 -0.070736 -0.194619 -0.024108 -0.412298 -0.321912 -0.112378 -0.014029 0.404548 0.241043 0.039135 0.024900 0.086941 0.000951 0.022790 0.096479 0.245807 -0.187644 0.036422 -0.155146 -0.275785
real 0.058108 -0.481282 0.507891 0.163507 -0.258239 -0.105478 -0.126399 0.347335 -0.062257 -0.000602 -0.326669 0.148611 0.249861 -0.072049 0.373774 -0.151254 0.269123 0.076571 0.102478 -0.156587 -0.151460
semest -0.196421 -0.088503 0.043676 -0.025164 -0.197529 -0.181166 0.026334 0.210638 0.420975 0.157200 0.175430 0.150880 0.084070 0.084380 0.040121 -0.196899 0.148548 -0.155598 -0.413042 0.213707 -0.233073
support -0.108625 -0.086689 -0.104521 -0.078394 -0.035770 0.014007 -0.077453 -0.086817 -0.124007 -0.023078 -0.132417 0.264982 0.131445 -0.123056 -0.132047 -0.155783 -0.044841 -0.123068 0.124215 -0.150283 -0.235504
avail 0.006456 -0.148844 0.115126 0.028818 -0.246163 0.103725 -0.094670 0.077921 0.289304 -0.215669 0.067271 0.146770 -0.009312 -0.107730 0.077578 -0.312640 -0.167660 0.126729 -0.137775 0.045366 -0.136202
bit 0.028982 0.124297 -0.122197 -0.135948 -0.190673 -0.310429 0.017661 -0.037605 0.050606 -0.075515 0.055831 0.124912 0.242215 -0.095656 0.166975 -0.101855 0.066839 -0.202821 0.098565 -0.230029 -0.132725
made -0.071395 -0.108526 -0.157880 -0.100899 -0.210796 -0.242805 -0.090028 0.226720 0.103548 -0.013001 -0.287867 0.607778 -0.079045 0.160348 -0.045798 -0.298019 0.039756 0.034477 -0.112697 -0.079385 -0.436502
prepar -0.228483 -0.340455 -0.043011 -0.057590 -0.185609 0.076327 -0.364083 0.052979 0.282124 -0.053126 0.287354 0.253426 0.097107 -0.036502 0.170108 -0.488763 -0.006995 -0.054145 0.004396 -0.133497 -0.505163
situat -0.333154 -0.056935 -0.077270 -0.255239 -0.227353 -0.174634 -0.023857 0.250087 -0.257091 0.285631 -0.190867 0.348824 0.059004 0.112603 0.142808 -0.228018 0.226321 0.009737 -0.387036 -0.263431 -0.310616
team 0.235830 -0.261878 0.614652 -0.055717 0.301610 -0.439892 0.425196 -0.019345 0.572584 0.318942 0.773642 0.248215 -0.331289 0.050330 0.232313 0.192855 0.334836 0.513972 0.339131 0.049571 -0.128683
option -0.074563 -0.113373 -0.042351 -0.012072 -0.006681 0.031308 0.102794 -0.168305 0.395114 -0.135267 -0.107733 0.251276 0.218533 -0.045603 -0.194535 -0.026998 0.053498 -0.077174 0.445990 -0.175324 -0.424157
concentr 0.061044 -0.110230 -0.752302 0.276333 -0.387966 0.130385 0.114982 -0.153413 -0.019589 0.091303 0.222298 0.102361 0.364705 0.023335 0.297107 -0.200157 -0.115415 0.024821 0.019502 -0.040178 -0.281096
design -0.190701 -0.199143 -0.111877 -0.392642 -0.267302 -0.183523 0.205128 0.194243 0.217860 -0.135846 0.137057 0.268912 -0.332657 -0.232369 0.242545 -0.013733 0.176000 0.342245 -0.112136 -0.273173 -0.351325
great 0.110138 -0.179073 0.027121 -0.199455 -0.136416 -0.422740 0.186357 0.474377 0.356439 -0.037605 0.016677 0.327648 -0.263997 -0.321615 -0.376420 -0.201201 0.114275 -0.087539 0.218665 -0.068826 -0.453840
right 0.203143 -0.097991 -0.119485 0.100731 -0.350757 -0.088269 0.108600 0.140229 0.253930 0.071459 -0.001123 0.148507 0.084490 -0.190834 0.106617 -0.064146 0.086364 -0.136041 0.012152 -0.167954 -0.375449
2 -0.112353 -0.411758 0.118899 -0.058629 0.154366 0.176218 -0.375190 -0.125558 0.581892 -0.068613 0.064872 -0.012918 0.687702 0.077846 0.354755 -0.066316 0.239190 -0.218510 -0.372774 0.544772 -0.291077
bore 0.164938 0.285247 -0.526829 0.334887 -0.551633 0.113028 -0.103487 -0.475429 0.009550 0.041879 -0.153517 0.097723 0.470041 -0.125771 -0.022303 -0.082566 -0.060856 -0.028783 -0.078057 -0.147440 -0.371763
experi -0.496143 -0.157800 0.123464 0.053370 -0.047058 -0.489835 -0.263030 0.058789 -0.074327 -0.120876 -0.467179 0.116281 -0.081838 -0.343047 -0.110514 -0.143053 -0.100221 0.279052 0.024418 -0.242542 -0.337253
organis -0.117472 -0.131176 -0.064743 -0.211712 -0.116232 -0.129176 -0.156001 -0.304507 0.040482 -0.039843 0.129438 -0.035565 -0.060735 -0.392228 0.047883 -0.380206 0.124992 0.150278 0.036557 0.148230 -0.464984
school -0.032877 -0.147762 0.136828 -0.194672 -0.314380 -0.231570 0.051770 0.318854 0.066705 0.197172 0.051453 0.193375 0.051924 -0.100535 0.202399 0.020348 0.002500 0.303193 -0.181730 0.122819 -0.211157
classroom 0.032093 -0.284885 0.068850 -0.173388 -0.043384 -0.325171 -0.089863 0.106949 -0.131141 0.034402 -0.233318 0.290355 0.268550 -0.239842 -0.051468 -0.148607 0.276705 0.112598 0.151775 0.035120 -0.316427
easi -0.012184 0.251572 -0.455219 0.362383 -0.586822 -0.127801 0.010882 -0.029426 0.241682 0.015418 0.203681 -0.143505 0.256656 -0.173720 -0.218593 -0.151843 0.050982 0.024657 -0.010262 -0.192517 -0.265407
enough -0.024912 -0.208403 -0.103859 0.135116 -0.205799 -0.030796 -0.262863 0.399948 0.110230 -0.003344 -0.080792 0.079780 0.298282 -0.231168 0.252843 -0.075310 0.020074 -0.193711 0.087963 -0.134599 -0.359770
forc 0.251124 -0.429920 -0.132055 -0.027189 -0.217003 -0.268633 0.133016 -0.300530 -0.014785 -0.181664 -0.278990 -0.076559 0.294629 -0.812958 -0.215074 -0.047187 -0.130804 -0.099467 0.477158 -0.260515 -0.501587
minut 0.260468 -0.000610 0.262965 0.127030 0.162838 0.140734 0.006001 0.227986 0.607828 -0.145286 -0.011017 0.075928 0.118062 0.217671 -0.037610 0.096197 0.077116 -0.296792 -0.315546 0.275855 -0.014235
previou 0.195243 0.001473 0.244433 -0.057568 -0.134581 0.320030 0.045841 -0.238116 0.788929 -0.057830 -0.594004 0.183032 -0.581922 0.770972 -0.402837 -0.580912 0.390825 0.075218 -0.333077 0.460563 -0.703918
confus 0.135957 0.096632 -0.212270 0.053548 -0.380934 -0.031822 -0.092323 -0.124050 0.130094 0.159776 0.305998 0.003550 0.078171 -0.109452 0.027236 -0.243967 0.128337 -0.140266 0.073900 -0.238625 -0.245123
howev -0.284400 -0.193076 -0.092669 -0.250851 -0.323833 -0.087121 0.091922 -0.243899 0.130047 0.245142 -0.006222 0.397124 0.168010 0.118024 0.065195 -0.316270 0.064556 0.133327 0.029090 -0.085079 -0.468582
instruct 0.088118 -0.206947 0.012642 -0.205474 0.269337 -0.002443 -0.053475 -0.097741 -0.068628 -0.104255 0.008301 0.583245 0.050283 -0.262916 -0.049269 -0.247016 -0.014564 0.097880 -0.070415 0.270718 -0.214399
internet 0.229998 0.088062 0.188246 0.121452 0.109546 0.145233 -0.076885 -0.069862 -0.226373 0.094163 -0.110731 -0.077285 0.238906 -0.291652 0.065980 -0.404736 0.114492 0.202887 -0.464223 0.058920 0.097467
involv 0.122775 -0.125852 -0.016703 -0.073566 -0.220651 -0.103852 -0.053846 -0.341813 -0.059187 0.095345 -0.195044 0.225721 0.241519 -0.211622 -0.361064 -0.126080 -0.077598 0.010670 0.337317 -0.322623 -0.515083
seem 0.265449 -0.091246 -0.172435 -0.100213 -0.253297 -0.071328 -0.336072 0.157717 0.079541 0.393714 -0.071025 0.225788 -0.084157 -0.197091 0.382079 0.045851 0.258213 0.220744 0.055526 -0.145319 -0.353809
two 0.165470 -0.417698 0.126582 -0.353470 0.099319 0.133237 -0.240569 0.051283 0.841053 0.262018 0.427318 0.175646 0.328191 0.140639 0.202382 0.026727 0.381537 -0.300062 -0.226142 0.281038 -0.539563
compulsori 0.239839 0.099744 -0.047043 -0.135827 -0.206583 -0.053216 0.148346 -0.669733 0.127970 -0.205568 0.057800 -0.127955 0.417997 -0.465356 -0.138499 -0.307312 0.091870 0.332904 -0.001878 -0.090631 -0.458835
conduct -0.017704 -0.255888 -0.057973 -0.479049 -0.245344 0.003337 0.011358 -0.037722 0.534259 -0.476303 0.176743 0.457926 -0.254144 0.040442 0.080680 -0.309984 -0.022859 0.363976 -0.160343 -0.029675 -0.491830
encourag 0.116348 -0.409256 -0.207534 -0.235228 -0.083845 -0.066813 -0.030668 -0.016551 -0.003436 -0.074212 -0.580536 0.253006 0.195630 -0.490016 -0.285947 -0.321484 -0.297189 -0.085048 0.387916 -0.225642 -0.559904
say 0.242826 -0.034749 -0.043936 -0.106470 -0.582867 -0.005788 -0.031328 0.302668 0.208560 0.094941 -0.031338 0.166014 -0.180716 0.017879 -0.314079 -0.000084 0.148039 -0.101231 0.144990 -0.124409 -0.433019
specif -0.212455 -0.305913 0.251547 0.058212 -0.459277 0.205054 -0.019778 0.105978 0.324475 -0.071433 0.271884 0.228655 0.154101 0.066717 0.378457 -0.105531 0.043792 -0.141870 -0.034208 -0.102556 -0.483492
assess -0.050080 -0.141906 -0.065258 -0.216214 -0.293264 -0.320854 0.298827 0.113265 0.007908 -0.087177 0.009621 -0.044845 -0.332644 -0.157485 0.041753 0.100537 0.076287 0.267685 -0.074302 -0.055620 -0.167444
base -0.007422 -0.329919 0.103439 -0.171707 0.138982 -0.081403 0.113637 -0.017552 0.202870 0.051478 -0.132611 0.209044 -0.203538 0.027549 0.010600 -0.044311 0.149573 0.201952 0.155794 -0.059235 -0.274054
collabor 0.256538 -0.212081 0.382080 -0.070806 0.452670 0.175756 0.276684 -0.036293 0.172055 -0.187644 -0.079148 0.104404 0.060000 -0.123597 -0.107509 -0.212401 -0.236543 0.316206 0.441584 -0.124891 -0.189917
come 0.070236 -0.326246 -0.113592 -0.052995 -0.238482 -0.088221 -0.119534 0.124495 0.241390 0.102160 0.080872 0.176704 0.136306 -0.084066 0.097431 0.081514 -0.139974 -0.035280 -0.012401 -0.222999 -0.335135
didn’t 0.007138 -0.064978 -0.139106 -0.052139 -0.556541 -0.050654 -0.093005 0.100953 0.160786 0.158213 0.025347 0.218003 -0.206165 -0.042927 -0.032743 -0.120935 -0.003649 0.115544 -0.151439 -0.199674 -0.259781
easili 0.451804 0.135536 -0.660395 0.476181 -0.466810 0.231615 0.048206 -0.127576 -0.199835 -0.097273 -0.113152 0.310197 0.710868 0.185362 -0.069067 -0.128570 -0.193295 -0.268849 0.404015 -0.384717 -0.522202
feedback 0.076890 0.000078 -0.239758 -0.035520 -0.155035 0.035321 -0.196740 -0.050073 -0.191745 0.158766 0.170374 0.362897 0.311812 -0.202876 -0.127579 0.020948 -0.130364 -0.182233 0.138850 -0.246002 -0.349450
part -0.040801 -0.195972 0.065093 -0.234199 0.066259 -0.149615 -0.277449 0.030504 0.335927 0.254502 -0.018388 0.080441 0.250331 -0.200624 0.046544 -0.198300 -0.104684 0.110221 -0.217974 0.072044 -0.291548
size -0.117485 -0.438561 -0.057075 -0.298211 -0.013421 -0.309187 0.410535 -0.106267 0.643688 0.157145 0.183860 -0.250967 0.533770 -0.201992 0.334427 0.233672 -0.073640 0.542485 0.259435 0.273409 -0.550079
increas 0.083941 -0.138717 -0.207260 -0.325545 -0.136562 -0.167402 0.224677 0.129324 -0.155364 0.015544 -0.335121 0.431546 0.053391 -0.249595 0.192152 -0.169006 0.088753 -0.070645 0.238903 -0.220018 -0.322966
issu 0.023853 0.074898 -0.100703 0.086891 0.060804 0.003789 -0.141028 0.237920 0.147587 -0.005062 -0.106340 0.136251 0.061849 -0.306671 -0.004269 -0.109088 -0.275094 -0.047190 -0.191070 -0.088710 -0.260623
stress 0.048345 0.190127 -0.184688 0.082983 -0.289065 -0.098674 -0.079718 -0.193255 -0.048621 0.165241 0.191732 0.118025 0.216691 -0.208112 0.088074 -0.139034 -0.125117 -0.065886 -0.137670 -0.249291 -0.322611
complet -0.084487 -0.201224 -0.174195 -0.116910 0.145276 -0.130279 -0.079523 0.294601 0.147426 0.320060 0.316302 0.355373 0.173769 -0.031053 0.397589 -0.101357 -0.046667 0.057979 -0.127900 -0.008048 -0.252728
nice 0.234499 -0.200456 -0.008518 -0.031018 -0.123417 -0.230627 0.240020 0.345784 0.306597 -0.151454 -0.043159 0.285561 0.068081 -0.229444 -0.372116 -0.119246 0.166019 -0.378627 0.341077 -0.016569 -0.615281
other -0.089386 -0.091512 -0.029378 -0.240123 -0.076917 -0.003931 0.030099 -0.099026 0.209170 -0.047930 0.084787 0.189269 0.005144 -0.138000 -0.138242 -0.080494 0.007196 0.097439 0.259261 -0.015380 -0.332139
per 0.008096 -0.207267 -0.025299 -0.329992 0.117611 0.113260 0.047472 -0.098725 0.672195 0.170122 0.367477 0.116601 0.448665 0.063431 0.539745 0.038893 0.147576 -0.201498 -0.372043 0.225489 -0.407065
taught -0.121478 -0.268009 0.139787 -0.030636 -0.353626 -0.039238 0.003312 0.241672 0.217978 -0.393594 -0.122659 0.389095 -0.359581 0.011512 -0.159603 -0.326827 0.043638 0.510978 -0.156896 -0.066006 -0.442096
term -0.137304 -0.023811 0.201444 0.055515 -0.247974 -0.003953 -0.018594 0.196718 0.285531 -0.010859 0.046545 0.166323 -0.141531 0.408420 -0.153249 -0.373419 0.412975 0.057366 -0.303894 0.001850 -0.345037
though -0.191948 -0.154296 0.005885 -0.371568 -0.392979 -0.139089 0.179768 -0.236780 0.145801 -0.032719 -0.255331 0.215657 0.238266 0.444354 -0.087114 -0.018040 -0.002510 0.060770 -0.131643 -0.406962 -0.612079
aren’t 0.006560 -0.164475 -0.019088 -0.035834 -0.049815 0.018543 -0.111137 -0.127893 0.379230 0.105841 -0.300932 0.215048 0.045297 -0.020570 0.054468 -0.041248 0.026244 0.155554 0.057600 -0.106424 -0.459798
contribut 0.443393 -0.288298 -0.105046 -0.151683 -0.096557 -0.083769 -0.037339 -0.204633 -0.062451 0.060095 0.156528 -0.214913 0.198093 -0.385891 -0.020848 0.141737 -0.096971 -0.082239 0.378685 -0.391144 -0.216646
fact 0.051989 -0.127247 -0.251894 0.048296 -0.476472 -0.170616 -0.224255 0.148593 0.118485 0.029634 0.074722 0.203686 -0.427045 -0.038392 -0.082696 -0.082873 0.433950 -0.012763 -0.233164 0.010788 -0.499243
isn’t -0.070473 -0.031181 -0.246511 -0.015790 -0.166424 -0.001763 0.079859 -0.095697 -0.116289 -0.097390 -0.247077 0.143581 -0.103254 0.126669 -0.039515 -0.108608 -0.057566 0.077940 -0.147808 -0.228212 -0.197081
kind 0.034832 -0.192400 -0.045289 -0.244280 -0.096384 0.132677 -0.010911 0.085425 0.109279 -0.157042 0.015480 0.247168 -0.168252 0.023732 0.030954 -0.227311 0.037291 0.134915 0.183156 -0.110748 -0.306878
prof 0.103439 -0.019792 0.057694 -0.168543 -0.086951 0.030543 -0.078373 0.210672 0.268259 -0.026124 -0.052084 0.030544 0.046600 -0.150816 -0.096206 0.152356 0.111173 -0.053037 0.160005 -0.064157 -0.264644
awkward 0.139546 0.236980 -0.039505 -0.017268 -0.168393 -0.193992 0.210269 -0.391228 0.169658 0.068126 0.155677 -0.187938 0.384743 -0.015861 -0.174167 -0.048249 0.031008 0.001584 0.106584 -0.021138 -0.244826
expect 0.014091 -0.233808 -0.318876 0.052552 -0.204862 -0.086243 -0.403095 0.158292 -0.114567 0.160776 -0.075928 0.257397 -0.034797 -0.273028 0.012663 -0.039656 -0.002078 -0.171465 -0.070002 -0.416543 -0.468868
import 0.108134 -0.032427 -0.037042 0.105837 -0.190238 0.004225 -0.118188 0.129602 0.069455 0.184691 -0.154852 0.101342 0.048956 -0.133327 -0.227387 -0.299202 0.011241 0.010961 0.165012 -0.210363 -0.355605
place -0.270376 -0.069202 -0.070076 -0.184286 0.071489 0.015549 -0.341912 -0.096410 0.298794 0.193305 0.127639 -0.083248 0.421545 -0.001989 0.135647 -0.192171 -0.052010 0.211310 -0.204443 0.175744 -0.440131
task -0.107074 -0.185402 -0.060936 -0.114590 0.094762 -0.240472 0.010026 0.084808 -0.126116 0.224052 0.062676 0.265831 0.068267 -0.053428 -0.000869 -0.004240 0.012233 0.359791 0.010878 0.026703 -0.139445
3 -0.126331 -0.313591 0.070834 0.090261 -0.025684 0.089676 -0.277972 0.088036 0.490532 0.163532 0.050546 -0.136036 0.695726 0.134479 0.488647 0.106345 0.369553 -0.097714 -0.451316 0.178166 -0.510522
adapt -0.184166 -0.050869 -0.147796 -0.172848 -0.278337 -0.150920 -0.039377 0.071265 0.069160 0.012755 -0.049888 0.500801 -0.136018 0.102613 0.119047 -0.294931 -0.285696 0.356420 -0.472113 -0.083316 -0.245610
debat -0.082092 -0.276723 0.119977 -0.166768 0.177414 -0.008997 0.183632 -0.042345 -0.029140 0.074297 -0.087108 0.084902 0.323075 -0.200180 -0.431694 -0.012333 -0.221061 0.063796 0.492038 -0.012865 -0.439080
environ -0.413807 -0.136864 -0.148383 0.119380 -0.069888 -0.460685 -0.280678 -0.094350 -0.033162 0.055128 -0.439420 0.234144 0.023446 -0.247180 -0.102957 -0.249191 -0.090214 0.135452 -0.289248 -0.258084 -0.515532
focus -0.165225 0.315207 -0.435822 0.083109 -0.195355 -0.030479 0.160235 -0.041937 -0.133792 0.010283 -0.091437 0.138521 0.494974 -0.302748 -0.314851 -0.227407 -0.306140 -0.007142 -0.274133 -0.136165 -0.130314
order 0.080236 0.019159 -0.095970 0.052085 -0.025075 0.155921 -0.117403 -0.191553 0.299900 -0.143657 -0.268173 0.131635 0.028962 -0.387566 -0.236032 -0.317545 -0.160732 0.117206 0.111295 -0.108385 -0.363144
regular 0.139922 -0.137277 0.174754 -0.080659 0.005287 -0.213003 0.234259 -0.002756 0.592906 0.070499 0.070323 0.160311 0.210043 0.018730 0.360692 -0.047273 0.167557 0.163458 -0.101479 -0.013510 -0.379673
send 0.009116 -0.472524 -0.059836 -0.117948 0.160066 0.369314 -0.444941 0.306203 0.110875 -0.012876 0.157281 0.410524 0.032226 0.012167 -0.223956 0.101312 0.020134 -0.195274 0.306343 0.029846 -0.516907
show 0.220371 -0.165936 0.345768 0.066705 -0.376122 -0.301979 -0.385722 0.155587 0.105981 -0.163836 -0.184853 -0.066498 0.146112 0.038390 -0.001396 -0.150997 0.037662 0.061909 0.227105 -0.148588 -0.371759
wouldn’t 0.033219 -0.105568 -0.207668 -0.164265 -0.843946 -0.445486 0.010269 0.139610 0.035127 0.065075 0.155287 -0.107645 -0.587264 0.063522 0.157212 0.232112 0.215402 0.297160 -0.254697 -0.293683 -0.500719
doesn’t 0.152066 -0.123588 -0.163849 -0.132620 -0.216182 -0.195067 -0.340356 0.075572 0.345561 0.417292 0.024125 0.213246 0.107288 -0.021515 0.074511 0.158675 -0.333349 0.280994 -0.031978 -0.134200 -0.400751
effect -0.364839 -0.054792 -0.096670 -0.250644 -0.223168 -0.302332 -0.078597 -0.019998 0.130085 -0.255189 -0.128309 0.077158 -0.158377 -0.163832 -0.136785 -0.274389 -0.057333 0.278321 0.120726 -0.147727 -0.511220
frequent 0.112776 -0.079753 -0.016778 -0.088276 -0.037119 -0.068414 0.179722 -0.102372 0.104684 0.046415 0.003760 0.092905 0.155007 -0.140574 0.059602 -0.021094 0.043736 0.186326 0.211087 -0.170114 -0.412412
grade 0.127316 -0.135072 0.229704 -0.100272 0.071129 0.005122 0.231700 0.271543 0.144737 0.069704 -0.165732 0.207666 -0.152085 0.060702 -0.015656 0.066831 -0.001973 0.043567 -0.410739 -0.014495 0.038531
happen 0.040215 -0.058727 -0.027339 -0.129579 -0.111921 -0.103085 0.055600 -0.048109 0.435365 0.204750 0.025493 0.282927 -0.004225 0.064787 0.042008 0.012549 0.051628 0.035652 -0.165243 -0.002973 -0.505410
ie 0.127445 -0.121591 -0.022136 -0.014933 -0.097923 -0.114681 -0.046147 0.091630 0.319354 -0.091025 -0.084026 0.031580 0.050633 -0.145629 0.018258 -0.161403 -0.065456 0.119948 0.159297 0.018700 -0.334074
inperson -0.015117 -0.141982 0.126962 -0.142351 -0.010040 -0.059279 -0.015558 0.094576 0.540811 -0.055537 0.015949 0.188916 0.035268 -0.057863 0.201606 -0.236634 0.134969 0.483804 -0.283028 0.004328 -0.429977
later -0.038316 -0.075376 0.260173 0.034294 0.171692 0.270691 -0.106059 -0.022010 0.318987 -0.051743 0.071267 0.070992 0.152674 0.130858 0.195430 -0.028137 0.307702 -0.124759 -0.137959 0.259752 -0.161547
plan -0.014629 -0.168925 0.043995 -0.036329 -0.063334 0.050136 -0.341022 -0.184667 0.120689 -0.010898 0.028082 0.040171 -0.110487 -0.003813 0.101156 -0.350293 0.074729 -0.021886 -0.051369 0.233555 -0.262815
timet 0.164160 -0.054577 0.078181 -0.032757 -0.173576 0.082069 -0.060764 -0.065008 0.227639 -0.142314 -0.141942 0.174481 -0.008946 0.048387 0.171008 -0.204088 0.169009 0.165102 -0.221434 0.066530 -0.338069
becom 0.486115 0.054001 -0.251658 0.169076 -0.078684 -0.104333 0.091005 -0.152704 0.102005 0.167656 -0.135101 0.119252 0.343803 0.003090 0.104598 0.021377 -0.008644 -0.148028 0.103970 -0.166831 -0.381874
board 0.040403 -0.072855 0.259438 -0.060800 0.332754 -0.200234 0.133009 -0.165136 0.195802 0.118260 -0.156607 0.168699 0.164178 -0.022112 -0.557733 0.212570 -0.025632 0.139624 0.633746 0.019509 -0.313808
knowledg 0.110198 -0.101272 0.179984 -0.007949 0.227081 -0.145943 -0.027255 0.273431 0.131437 0.013071 -0.044015 -0.051074 -0.110709 -0.107087 -0.129380 0.086319 -0.159020 0.030774 0.161840 0.011076 -0.184146
least 0.225585 -0.015711 0.215241 0.012538 -0.154618 0.045796 0.102167 0.015589 0.272480 -0.104251 -0.354218 0.227187 -0.153013 -0.132156 -0.182526 -0.175761 0.294382 0.168536 0.049089 0.114478 -0.351968
left -0.076191 -0.099270 0.017259 0.029570 0.122953 -0.020099 -0.159776 0.187283 0.215660 0.087241 -0.035199 0.176696 0.025522 -0.022425 0.054330 0.105764 -0.004460 -0.014258 -0.100028 -0.152586 -0.298189
moment 0.194231 -0.000030 -0.037333 -0.083168 -0.190324 -0.067616 -0.092191 0.057558 0.225071 0.207475 0.054001 -0.007556 -0.032125 0.127065 -0.045955 0.079191 0.113607 -0.031523 0.064729 -0.022350 -0.404627
peer -0.263490 -0.056936 0.032587 -0.175664 0.045333 -0.115875 -0.053872 0.009215 0.057328 0.053256 -0.378759 0.215411 -0.065281 -0.179471 -0.250787 -0.041780 -0.023222 0.077830 0.473469 -0.190892 -0.334830
share 0.406181 -0.167275 -0.012453 -0.058074 -0.004608 0.033440 0.101299 0.228110 0.037004 -0.128893 0.083731 0.051453 -0.163237 0.078195 0.090788 -0.005877 -0.096776 0.122810 0.348216 -0.043263 -0.267013
simpli 0.019486 -0.124719 0.341366 -0.054862 -0.054184 0.358667 -0.246869 -0.062898 0.325088 -0.234745 -0.173722 0.195495 -0.152576 0.187592 -0.157597 -0.045007 0.333587 -0.099903 0.065726 0.096260 -0.507440
workload 0.017809 0.174882 -0.172892 -0.165287 -0.208529 -0.157397 -0.039691 0.027298 -0.295571 -0.162409 -0.088338 -0.050638 0.069523 -0.267828 0.130828 -0.040860 -0.012880 0.080034 -0.078915 -0.115090 -0.021489
around 0.160534 -0.138256 0.155619 0.024307 0.134682 -0.009972 -0.002075 0.288383 0.467035 -0.010562 0.000077 0.156176 0.062379 0.023360 0.085719 0.033202 -0.016512 0.083769 -0.270087 0.023922 -0.149538
breakout 0.058011 -0.398467 0.355903 -0.233989 0.608937 -0.051860 0.332897 -0.078315 0.450162 0.105914 0.209183 0.033962 0.251775 -0.292607 -0.340994 0.199841 -0.213626 0.543430 0.933673 0.102099 -0.514513
certain -0.039595 -0.272917 -0.009600 -0.030708 -0.405650 -0.088051 0.013363 0.347459 0.139549 0.024110 0.206235 0.036548 0.018343 -0.201724 0.234650 0.005718 -0.061396 -0.070187 -0.146302 -0.126372 -0.356980
creat 0.128786 -0.226271 -0.004743 -0.137168 0.232778 -0.069033 0.087832 0.078859 0.092682 -0.179343 -0.225656 0.230438 0.136606 -0.340711 -0.191977 -0.092956 -0.139585 0.008421 0.318762 -0.116008 -0.528160
explan 0.134767 -0.087114 -0.019530 0.105091 0.030943 0.220621 -0.173219 0.090825 -0.012518 0.018360 0.103331 0.248987 0.168088 0.153827 0.060557 -0.121687 0.107756 -0.086632 0.008080 0.140893 -0.192803
final -0.049573 -0.078421 0.188965 -0.261421 0.080769 0.067253 0.125932 -0.086648 0.323148 0.069976 -0.363727 0.252408 -0.349186 0.509275 -0.002030 0.050311 0.187203 -0.222016 -0.532391 0.370786 -0.116382
level -0.102704 -0.002874 -0.262273 -0.085093 -0.059031 -0.043411 0.084541 -0.086875 -0.102167 -0.087748 -0.364022 0.176158 -0.113861 -0.319672 -0.132317 -0.161717 0.107691 0.066207 0.295804 -0.215560 -0.424563
multipl 0.069654 -0.186334 0.276462 -0.009415 0.180461 0.049510 -0.023466 0.238080 0.404499 -0.215546 0.126988 -0.007118 -0.143154 0.072954 0.054786 -0.283707 0.150283 -0.179453 -0.002708 0.094322 -0.152933
probabl 0.351356 0.017193 -0.060951 -0.223894 -0.187483 -0.397777 0.256687 0.319571 0.181075 -0.153372 -0.049396 0.292495 -0.097243 -0.434652 -0.271342 -0.135701 0.101069 -0.193300 -0.066212 -0.094914 -0.464281
start 0.001599 -0.211158 -0.082145 -0.163293 -0.389862 -0.047694 -0.066065 -0.017572 0.310020 0.063377 0.050906 0.133487 0.058216 0.068994 0.124183 0.045217 0.064725 0.009220 -0.178380 0.091801 -0.422072
1 0.095222 -0.260215 0.106702 0.320681 0.064645 0.263466 -0.325959 0.145210 0.409098 -0.000768 0.051512 -0.020063 0.575684 0.154646 0.366497 0.085683 0.164182 -0.277998 -0.186353 0.307566 -0.329596
check -0.043063 -0.189025 -0.097529 -0.158099 -0.043481 -0.041410 -0.028339 0.283985 0.010104 0.039023 0.051422 0.069222 0.058060 0.007628 -0.013568 0.098619 -0.093257 -0.024367 0.129965 -0.018498 -0.222786
educ -0.005464 -0.011066 0.063662 -0.245828 -0.360147 -0.098415 0.033667 -0.039441 -0.186969 -0.022434 0.046811 0.126366 -0.077476 0.085571 -0.088351 -0.156720 -0.003088 0.178127 -0.183813 -0.136741 -0.400572
improv -0.053264 0.027243 -0.177400 -0.173422 -0.149151 -0.132056 -0.004340 0.070063 0.049750 -0.025899 -0.153413 0.099625 -0.115843 -0.115072 -0.112272 -0.157531 0.012785 0.080847 0.065665 -0.133574 -0.334014
individu -0.166438 -0.215974 0.075635 -0.034811 -0.074836 -0.018069 -0.130586 -0.049835 0.069663 0.134731 0.172203 0.108391 0.337949 -0.204510 0.048688 0.187486 -0.076664 -0.028970 0.199936 -0.069786 -0.405142
look 0.321828 0.033231 -0.091355 0.236728 0.101181 0.172815 -0.101709 0.185534 0.240037 -0.083370 -0.076509 0.083303 -0.130834 0.154553 0.090940 -0.167955 0.080499 0.036544 -0.123746 0.065799 -0.271103
offic 0.080510 -0.520906 0.331233 0.235429 -0.007303 0.442778 -0.326080 0.134329 0.282790 -0.227026 -0.017983 -0.108640 0.636217 0.132450 0.304744 0.180573 0.468575 -0.251187 -0.084148 0.414644 -0.482612
project -0.039586 -0.429890 0.211191 -0.445948 0.125406 -0.102797 0.209430 -0.012754 0.267301 0.136595 0.084263 0.075937 0.303705 -0.162772 -0.102602 0.085769 -0.348865 0.246521 0.511929 0.221527 -0.513136
sit 0.024513 -0.072005 0.091801 0.126046 0.077833 0.275794 -0.179106 0.097059 0.252315 -0.053156 -0.394027 -0.111446 0.333317 0.031238 -0.101642 -0.074362 0.042622 -0.102765 0.052176 0.126805 -0.215713
style -0.101442 -0.268710 0.071580 -0.073422 -0.019426 -0.041265 -0.046282 0.032939 0.426620 0.044985 -0.209914 0.230968 0.018804 -0.029639 -0.040432 -0.065943 -0.028523 0.036249 0.062235 -0.102511 -0.462518
they’r -0.113261 -0.020986 0.125952 -0.019271 -0.177301 -0.058819 0.150868 0.103794 0.100641 -0.160566 -0.142898 0.159736 -0.107476 -0.077092 -0.168779 -0.025320 0.101952 0.128075 0.017013 0.012316 -0.097789
write -0.002811 -0.150572 0.001841 0.109953 0.066452 0.063176 -0.150132 0.204373 -0.118532 0.062364 0.046352 0.060841 0.054406 0.269258 -0.062574 -0.088140 0.133571 -0.233668 0.175532 -0.168772 -0.178481
chanc -0.025188 -0.143733 -0.009557 -0.170441 -0.156285 0.006483 -0.165458 -0.030598 -0.176489 0.099977 -0.114804 0.251407 0.202749 -0.344369 -0.088686 -0.019569 -0.103193 0.036794 0.498007 -0.177960 -0.531723
continu -0.247800 -0.018253 -0.129269 -0.132710 -0.226718 -0.056646 -0.148918 0.040425 0.056158 -0.091472 -0.221712 0.239394 -0.115790 0.023529 0.065165 -0.300838 -0.040691 0.183234 -0.378571 -0.185971 -0.352558
deadlin -0.075623 -0.179288 0.004928 -0.062780 0.070462 0.181992 -0.193705 0.158514 0.075428 0.052983 0.045457 0.382511 0.064495 -0.012203 -0.023072 -0.108828 0.040398 -0.141127 -0.090754 0.013065 -0.281962
either 0.200202 -0.093686 0.102541 -0.019133 -0.151643 0.175188 -0.046077 0.019756 0.249111 -0.094360 0.114408 0.325059 -0.203067 -0.022008 -0.195661 -0.176465 0.072042 -0.067270 -0.084417 0.097572 -0.433814
exercis 0.096455 -0.002599 0.060967 -0.022501 0.206600 -0.045516 0.050671 0.228563 -0.015525 0.012991 -0.140733 0.228784 -0.078566 -0.056906 -0.026666 -0.191923 -0.038133 -0.024946 -0.162342 0.028931 -0.167037
found -0.160581 -0.262188 -0.109153 -0.016863 -0.415017 -0.018090 0.131136 0.199143 0.144601 0.072523 0.071432 0.265912 0.090496 0.005536 0.036551 -0.085502 -0.163302 -0.062619 -0.154911 0.029759 -0.433641
hear 0.275531 0.001283 -0.247459 0.356444 -0.196267 0.177072 -0.117642 -0.116366 0.203181 -0.012799 -0.085391 0.080888 0.104992 -0.008053 -0.028244 0.028383 -0.029542 -0.147080 0.126957 -0.094184 -0.347302
homework 0.191579 -0.094475 -0.299169 0.046891 -0.017228 -0.053458 -0.100710 0.094634 -0.100161 0.195224 0.207479 0.330577 0.197897 -0.039429 0.078179 0.091242 -0.050703 -0.156617 0.054687 -0.023355 -0.129662
physic 0.040918 0.004893 -0.044701 -0.145064 -0.036128 -0.314564 0.131928 0.177858 0.302216 -0.003938 -0.127015 0.090302 -0.059857 -0.070841 0.101612 -0.044972 0.118308 0.125850 -0.013384 -0.064359 -0.489249
respons 0.037427 0.047664 -0.003605 0.277748 -0.033086 0.187388 -0.214114 0.041566 0.186518 -0.035466 0.062327 -0.067433 0.147567 -0.179500 -0.118250 0.177951 -0.102520 -0.357476 0.097163 -0.049964 -0.208093
big 0.099443 -0.431467 0.124696 -0.243841 -0.185762 0.026398 0.187793 -0.062575 0.232894 0.429080 0.305302 0.100269 0.208723 0.057946 -0.039825 0.060263 -0.221703 0.032657 0.307555 0.019188 -0.536000
enjoy -0.047335 -0.060408 -0.070363 0.004799 -0.481121 -0.189124 0.213228 0.179923 0.146514 0.141828 -0.117837 0.260933 -0.092099 -0.183763 -0.258083 -0.162894 -0.096078 -0.056359 0.174565 -0.151263 -0.643333
extra 0.117635 -0.088145 -0.017632 -0.195073 0.110816 -0.007712 -0.210595 0.033888 -0.061465 0.215686 -0.091282 0.385067 0.294461 0.114176 0.120271 -0.178719 -0.055877 0.207288 -0.126401 0.122841 -0.310951
length -0.008402 -0.173205 -0.223534 -0.021470 -0.332117 0.024245 -0.104593 0.006189 0.264657 0.045636 0.051539 0.074955 -0.067078 0.109391 0.372253 -0.108448 0.236195 0.156657 -0.159517 -0.020150 -0.418122
open 0.320748 -0.198740 0.151272 0.054349 0.077980 -0.052606 0.115962 0.225956 0.241469 0.039125 0.106892 0.140471 -0.043375 -0.096450 0.184600 0.163633 0.096509 -0.232247 -0.147771 -0.083537 -0.112180
opinion -0.158995 -0.133580 0.039503 0.069179 -0.096204 -0.251908 -0.070919 0.212969 0.019025 0.147209 -0.107092 0.096628 0.037222 -0.198287 -0.143118 -0.019741 -0.023524 0.058342 -0.024032 -0.092520 -0.426220
sort 0.088204 -0.075782 0.147574 -0.020028 0.020257 0.003961 0.061167 -0.031521 0.035896 -0.233593 -0.120202 0.191068 0.028456 -0.164694 -0.080172 -0.169619 0.205347 0.128291 0.052465 -0.022835 -0.441423
switch 0.153150 -0.287428 0.201053 0.047741 -0.185261 -0.071766 -0.072726 0.050734 0.088422 -0.282163 -0.026588 0.289780 -0.097379 -0.174467 -0.238162 -0.099502 0.147317 -0.160406 -0.006915 -0.023982 -0.319593
system -0.378621 -0.220834 0.091032 -0.261661 0.180722 -0.239434 -0.029317 0.056202 0.163478 0.016873 0.122335 0.037739 -0.065121 -0.085115 -0.063834 -0.081752 0.096909 -0.057867 -0.009397 0.086941 -0.274559
voic 0.319325 0.051429 0.461427 0.341094 0.193717 0.381964 -0.135504 0.063339 0.181480 -0.219594 -0.215536 0.202342 -0.186803 0.231228 -0.354736 -0.330281 0.162638 0.045700 -0.360398 0.193612 -0.305939
anoth 0.233286 -0.269997 0.164177 -0.437513 -0.089161 0.108433 0.054653 0.129624 0.520121 0.228061 0.364995 -0.047546 -0.094263 0.217380 -0.027642 0.009436 0.218720 -0.275377 0.257253 0.139418 -0.622918
audio 0.097113 -0.043244 0.154148 0.166341 0.105630 0.296831 -0.182416 -0.076307 0.135417 -0.238208 -0.220319 0.140948 -0.259258 0.328874 -0.186689 -0.449217 0.279396 0.103969 -0.196207 0.069424 -0.457472
comfort 0.393751 -0.246963 -0.002955 -0.186505 -0.441425 -0.337604 -0.008948 -0.356034 -0.246186 0.225002 -0.012466 -0.175797 0.378353 0.007399 -0.281086 0.110930 -0.138523 -0.204533 0.534622 -0.529475 -0.682351
date -0.170182 0.155587 -0.044159 -0.003227 -0.003651 -0.051144 -0.023907 -0.268617 0.187427 0.408740 -0.223974 0.392569 -0.053204 0.351300 0.004980 0.014242 0.041864 -0.077405 -0.569953 0.035637 -0.209629
doesnt 0.241614 -0.015141 0.011581 0.036642 -0.209455 -0.339315 -0.163017 -0.054378 -0.067582 0.360381 0.007383 0.113210 0.153734 -0.050177 0.159098 0.007838 -0.026799 0.219577 -0.268555 -0.395347 -0.419682
effort -0.187872 0.178677 0.040240 -0.351248 -0.195940 0.063085 -0.320900 -0.095643 0.134054 -0.145808 -0.100992 0.150185 0.237586 -0.239475 0.262865 -0.474149 0.064569 0.228182 -0.188453 -0.199489 -0.458815
ensur 0.071173 -0.266254 -0.205549 0.120253 -0.039132 0.020345 -0.122903 0.019281 0.147852 -0.058637 -0.131399 0.245017 0.111751 -0.136736 -0.134580 -0.208374 -0.055887 -0.069395 -0.000620 -0.139695 -0.543594
isol 0.104281 0.124453 0.088676 -0.220576 -0.194241 -0.436737 -0.071940 -0.580553 -0.450700 0.284283 -0.042401 -0.072700 0.229911 0.111145 -0.127041 -0.102653 0.002396 0.033219 -0.077485 -0.409911 -0.485327
might -0.149736 -0.091609 -0.050385 -0.166399 -0.089485 0.065551 -0.212468 0.049590 -0.172907 0.162206 -0.070762 -0.020474 0.145404 -0.251115 0.135016 -0.095485 -0.087657 0.167162 0.125361 -0.266613 -0.525228
old 0.160473 -0.146148 0.431327 0.024166 -0.008847 0.397024 -0.073862 -0.035821 0.619559 -0.030003 -0.141352 0.209556 -0.505613 0.500301 -0.315396 -0.245026 0.374238 -0.174321 -0.149090 0.358736 -0.711789
technic -0.112823 0.257516 -0.137585 -0.176132 0.160707 -0.288021 0.138912 0.161910 -0.158348 0.054514 -0.056024 0.112448 -0.008446 -0.072778 0.043782 0.164442 -0.276835 -0.089892 -0.157313 0.113615 0.241710
blackboard 0.264901 -0.048648 0.217184 -0.000646 0.279714 0.176820 0.281054 -0.229090 0.383327 -0.009726 -0.165444 0.050869 -0.266761 -0.173240 -0.023928 0.048083 0.242450 0.135109 0.023935 0.251468 -0.057022
degre -0.078901 -0.014468 -0.143697 -0.011003 0.000964 -0.172741 0.062011 0.070196 0.012568 0.173606 0.082570 0.008607 0.011525 -0.050372 -0.006853 -0.013474 -0.181974 -0.134467 -0.095064 -0.009718 -0.253614
flexibl 0.024113 -0.290784 0.215842 0.049514 -0.160590 0.030611 -0.155727 0.165150 0.060027 -0.000461 0.192693 0.081692 0.140033 -0.232955 0.270695 -0.154034 0.012348 -0.087730 0.092967 -0.024699 -0.414259
mandatori 0.101854 -0.056433 0.136275 -0.133704 -0.184687 -0.082280 0.140736 -0.223975 -0.021326 -0.353768 -0.275973 0.022662 0.139578 -0.500492 -0.174910 -0.064928 0.142887 -0.020999 0.045470 -0.060041 -0.356513
move -0.244125 -0.186037 0.021876 -0.169737 -0.403439 -0.154729 0.166605 0.189236 0.182842 0.001862 0.174873 0.230744 0.092330 0.103384 -0.135862 -0.033517 -0.141246 0.221908 -0.288849 0.097155 -0.500044
next -0.085356 -0.000939 0.114410 0.141713 0.039517 0.138636 -0.020863 -0.016710 0.465610 -0.097085 -0.305115 0.056915 -0.042964 0.263097 0.058894 0.007317 0.141315 -0.202261 -0.335469 0.332466 -0.281953
short 0.024088 0.082927 -0.061206 -0.083598 0.021238 -0.020387 -0.107306 0.063178 0.243416 -0.098854 0.011446 0.138851 -0.075192 0.058091 0.143139 -0.011549 -0.017397 0.008727 -0.116374 -0.038543 -0.308331
similar 0.086053 0.008092 -0.049049 -0.233133 -0.204339 -0.170604 0.164266 -0.017433 0.310959 -0.144597 0.046956 0.093130 0.044243 -0.090904 0.007193 -0.242138 0.055356 0.303587 0.001134 -0.060773 -0.558052
stop -0.117428 -0.194861 0.058321 -0.121837 -0.122744 -0.020691 0.038909 0.054763 0.216257 -0.048097 -0.045925 0.198035 0.017446 -0.008769 -0.097171 -0.169394 0.029492 0.087392 0.063700 -0.009647 -0.401168
therefor 0.368764 -0.130545 -0.179907 0.154174 -0.385650 -0.129575 -0.060211 0.140992 0.308554 0.099094 -0.030683 0.139498 0.060359 -0.013581 -0.162024 0.349665 0.064009 -0.252132 0.257607 -0.215752 -0.450157
togeth 0.210125 -0.041092 -0.237780 0.071534 -0.218697 -0.106401 -0.012916 -0.028780 0.057778 0.221305 0.046812 0.160874 0.243236 -0.056722 -0.128555 0.058042 -0.180672 0.196911 0.109141 -0.162319 -0.255005
abil 0.024074 0.064579 0.035363 0.072089 -0.101616 0.030685 -0.001878 -0.015745 0.052095 -0.046554 -0.044403 0.075379 0.192496 -0.160969 -0.174212 0.273032 -0.139318 -0.104229 0.325823 -0.180505 -0.334668
arent -0.036443 -0.235125 -0.040896 0.039311 -0.106650 0.004257 -0.137776 0.073689 0.158194 0.096682 0.114497 0.180456 -0.250809 0.018109 -0.065365 -0.135239 -0.085893 -0.068460 -0.010295 -0.133289 -0.410126
book -0.118513 -0.255052 0.060138 -0.112306 0.221867 0.055466 0.064735 0.092861 -0.033948 0.160309 -0.014851 0.024668 -0.052165 0.203444 0.069602 0.056466 0.269294 -0.077624 -0.290798 0.085550 -0.146802
clear 0.093145 -0.022321 -0.024805 0.081187 -0.021710 0.024863 0.128151 0.002556 -0.036103 -0.005488 0.014977 0.048991 0.051202 -0.049221 0.034099 0.109851 -0.082991 -0.075184 -0.023204 -0.174527 -0.217193
comput 0.195529 -0.035072 0.201009 0.166959 0.168534 0.175583 -0.171927 0.133305 0.045708 -0.095069 0.101547 -0.129295 -0.033220 0.142077 0.182494 0.115273 0.012082 -0.149803 -0.001794 0.114179 -0.096951
felt 0.330817 -0.144812 0.046938 0.063789 -0.052816 0.023921 -0.170872 -0.069822 0.016221 0.105555 -0.262488 0.022125 0.138407 -0.271981 0.322598 0.009291 0.324852 0.108685 -0.021020 -0.027244 -0.415351
gener 0.064707 0.060957 0.053459 -0.115263 -0.127751 -0.099667 0.133004 0.131100 0.310159 -0.046954 -0.007040 0.137361 0.034779 -0.155307 0.036082 -0.067436 0.091915 0.148058 -0.081310 -0.176718 -0.456142
honestli 0.193167 -0.003592 -0.282851 -0.132399 -0.583732 -0.231103 -0.011522 0.083531 -0.185083 0.259371 0.079055 -0.063106 -0.116100 0.179012 0.053802 0.242960 0.065325 -0.115291 -0.006161 -0.121930 -0.760216
idea 0.018592 0.015173 0.067529 -0.061216 0.108601 -0.107489 0.126474 -0.038487 -0.010165 0.148592 0.007093 -0.158765 0.059100 -0.197846 -0.014989 0.088224 0.191076 0.098556 0.272996 -0.039756 -0.178693
isnt 0.055141 -0.073503 -0.038421 -0.004364 -0.120785 0.119510 -0.164555 0.011472 -0.082126 -0.062259 -0.096082 0.033310 -0.066160 -0.110967 0.100899 -0.071178 -0.014575 0.045722 0.088015 -0.233367 -0.315350
languag -0.198976 0.048204 0.151668 -0.271511 0.004994 -0.222310 0.080719 -0.061115 0.343398 0.043282 0.001514 0.120223 -0.008592 -0.028410 0.218551 -0.157456 0.151796 0.272229 -0.292317 -0.193442 -0.237475
life -0.045004 0.073375 0.105835 -0.251052 0.069334 0.091277 -0.130575 -0.047767 0.155558 0.213421 -0.239001 -0.003421 0.200324 0.056381 -0.000833 -0.085325 -0.011702 -0.243359 -0.107950 -0.050445 -0.259491
reduc 0.060282 -0.134633 -0.081395 -0.123809 0.124671 -0.188987 0.048490 0.277473 0.057573 -0.123662 -0.064231 0.174031 0.008435 -0.171641 0.171082 -0.013935 0.047291 -0.055499 -0.057478 -0.085250 -0.129726
space -0.170731 -0.130957 0.086795 -0.229951 0.197475 -0.148054 -0.199370 0.009172 0.090754 0.124926 -0.151879 0.116033 0.102950 -0.137590 -0.047735 -0.014982 -0.011750 0.276676 0.118536 -0.058199 -0.463486
struggl 0.014454 0.046405 -0.484494 0.062566 -0.277670 0.036936 -0.013546 -0.131338 -0.074792 0.081320 -0.060329 0.193070 0.185027 -0.185731 -0.033813 -0.015219 -0.255706 0.083029 -0.161871 -0.240838 -0.491669
there 0.018055 0.046889 -0.220766 -0.148384 -0.149503 -0.054100 -0.055407 -0.019700 0.039055 0.153802 0.099085 0.158175 0.070964 0.050386 0.225024 -0.088247 -0.038218 0.023995 -0.196067 -0.144923 -0.187907
type -0.022176 -0.164024 0.369979 0.043012 0.041739 0.122634 0.000864 -0.211111 0.297623 -0.143409 -0.121388 -0.037773 0.062303 0.067640 -0.054482 -0.049131 0.273505 0.295200 0.300589 0.042330 -0.516342
consid -0.013871 0.027566 -0.271970 0.107408 -0.134417 0.028525 -0.081626 0.064880 -0.063537 -0.051197 0.004013 -0.054030 0.027575 -0.187507 0.098399 0.009243 -0.090163 -0.078965 -0.091327 -0.212017 -0.337999
cover 0.132922 -0.207863 0.116171 0.303392 -0.390224 0.134677 -0.174262 0.273166 -0.062907 -0.233487 -0.038747 0.110303 -0.348150 0.250038 -0.208053 -0.311402 -0.132259 0.017706 -0.072206 0.059244 -0.296141
form -0.057061 -0.105061 0.177392 -0.280229 0.052197 -0.093586 0.145270 0.131488 0.198581 -0.029792 -0.175780 0.358960 -0.120643 -0.080414 -0.123631 -0.076513 0.035964 0.131860 0.033942 0.044003 -0.531443
lab -0.206517 -0.200085 -0.130236 -0.221633 -0.475429 -0.364016 0.017471 0.257631 -0.080635 0.076553 0.025791 0.281896 -0.014165 -0.026998 0.196069 0.195965 -0.033030 0.143873 -0.165546 -0.125654 -0.244695
let -0.031115 -0.128759 -0.247973 0.145020 -0.167480 0.258174 -0.352737 0.061222 -0.074552 0.093793 0.061922 0.171956 0.035484 -0.100075 -0.251257 0.038826 -0.051411 -0.238544 0.391469 -0.305822 -0.512530
mostli 0.140448 -0.022519 0.185411 0.032238 0.144274 0.005510 0.010443 0.115366 0.336524 -0.028398 -0.081419 0.226907 -0.134879 0.018100 0.091167 -0.112501 0.125011 -0.099975 -0.119943 0.063490 -0.312636
otherwis 0.001284 0.063323 -0.297979 0.174481 -0.261564 -0.083250 0.094812 0.112882 -0.138617 0.023808 0.000164 0.164639 0.201852 -0.028960 0.124648 -0.048038 0.001178 0.021626 0.031912 -0.055837 -0.493031
period -0.168173 -0.370638 0.217163 0.136964 -0.176695 -0.017005 -0.063594 0.176297 0.092008 0.019220 0.219449 0.023006 0.265965 -0.074617 0.524623 -0.189404 0.084050 -0.238067 -0.045280 0.034161 -0.511406
there’ 0.026104 0.091774 -0.255192 -0.116148 -0.392256 -0.129873 -0.037153 -0.059782 -0.027864 0.136955 -0.020463 0.080503 -0.065484 0.045419 0.017340 -0.162846 -0.109210 0.128930 0.016829 -0.258075 -0.674827
wouldnt -0.110336 0.012190 -0.298789 -0.175403 -0.613996 -0.188125 -0.058779 -0.055624 0.026739 0.077073 0.020097 -0.210204 -0.550681 0.056662 0.173011 0.113195 0.204119 0.282966 -0.091268 -0.038869 -0.499802
written 0.130714 -0.060387 0.077529 0.153816 0.100014 0.082591 -0.047131 0.004868 0.160255 0.026510 -0.027572 0.145249 -0.156381 0.175926 -0.078594 0.015065 -0.086086 0.046045 -0.037702 0.011541 -0.267259
almost -0.070992 0.071229 0.020809 0.153215 -0.015657 -0.088639 0.048011 0.039057 0.364570 -0.131004 -0.029195 0.046504 0.209619 0.025530 0.108249 0.092208 0.174804 -0.037145 -0.286388 -0.028235 -0.302258
caus 0.143875 0.061964 -0.137071 -0.047490 -0.148156 -0.082687 -0.058269 -0.079658 0.150353 0.157054 -0.014198 0.023383 0.249708 -0.068190 0.113461 0.009227 -0.159495 -0.217241 -0.017004 -0.083822 -0.525548
clearer 0.088218 0.105545 -0.031790 -0.249249 0.215119 -0.012267 0.244862 -0.115184 -0.145943 -0.127874 -0.036648 0.168561 0.061733 -0.202201 -0.125650 -0.156026 0.053244 0.112289 -0.041354 -0.154246 -0.256405
didnt 0.050207 -0.141615 -0.220918 0.061059 -0.346462 0.047444 -0.285734 0.095494 0.043587 0.183154 -0.179239 0.147736 0.044706 -0.050328 0.121658 0.033712 0.098903 0.041783 0.052744 -0.236420 -0.449122
els 0.205147 -0.051487 -0.141041 -0.031940 -0.179601 -0.160579 -0.004667 0.053936 -0.008930 0.152514 0.199829 -0.149213 -0.086890 -0.058432 -0.097393 0.089235 -0.056536 -0.134728 -0.015353 -0.109402 -0.296481
limit -0.020202 -0.149333 0.005968 0.030427 -0.322682 -0.098257 -0.015382 0.193918 0.095869 0.105946 0.208369 0.061771 0.202172 0.100620 0.239744 -0.029588 0.059502 -0.187968 0.018603 -0.113813 -0.532208
never 0.052610 -0.195493 0.074872 0.025055 -0.157377 -0.147652 -0.029427 0.164704 0.207490 -0.009676 0.026112 0.239034 -0.034619 -0.142810 -0.068338 -0.030839 -0.184752 0.000266 -0.031721 -0.031007 -0.324739
pace -0.197374 0.007938 0.009257 0.014904 -0.221426 0.016105 -0.246266 0.000301 0.222506 -0.003154 -0.032930 0.143494 0.046274 -0.016669 0.074067 -0.062561 0.055736 0.015403 -0.030255 0.104040 -0.321060
passiv -0.105518 0.085506 0.121585 0.125716 -0.107385 -0.033637 -0.086103 -0.176333 0.017922 0.048811 -0.251720 -0.019655 0.059135 0.148424 -0.232351 -0.186796 0.029784 0.044518 -0.111160 -0.038784 -0.393180
pdf -0.166571 -0.079701 0.179653 -0.120693 0.095894 0.157382 -0.159205 0.086408 0.230895 -0.292785 0.056860 0.179861 -0.249902 0.191680 -0.293721 -0.273704 0.237844 0.015169 -0.022435 0.167648 -0.408500
perhap -0.022346 -0.016665 0.028872 0.003619 -0.068857 -0.088851 0.035671 -0.136919 0.039841 -0.133431 -0.082989 0.110329 0.078810 -0.040280 -0.136269 -0.269730 -0.030604 0.025015 0.027451 -0.042568 -0.459740
pretti -0.006035 0.191960 -0.107132 -0.174388 -0.010818 -0.152426 0.063318 0.051954 -0.141844 0.157807 0.062951 -0.015477 -0.099410 0.004456 0.112560 -0.062981 -0.090828 0.279870 -0.061788 -0.079548 -0.343487
quiz 0.233327 -0.001920 0.016793 0.017128 0.001064 -0.019500 -0.044352 0.034543 0.044512 -0.012106 -0.082579 -0.053116 0.109726 -0.151946 -0.108311 0.058658 -0.064701 0.029451 0.178482 -0.027777 -0.267197
routin -0.033007 0.108407 -0.117117 0.006869 0.071693 0.056542 -0.001020 -0.053062 -0.128646 -0.079633 0.066425 -0.010514 0.069710 -0.009206 0.093174 -0.062061 -0.000546 0.020267 -0.132676 0.094742 -0.250268
that’ 0.139394 -0.017054 0.038250 0.076007 -0.148519 0.014191 -0.113985 0.135424 0.174732 0.057634 -0.116748 -0.007095 0.054020 -0.084065 0.027362 -0.005743 0.112390 -0.056977 -0.058472 -0.058064 -0.402865
virtual 0.142314 -0.036623 0.232202 0.053469 0.020634 -0.182826 0.153456 -0.078600 0.289790 -0.041928 0.020638 0.010815 0.110731 0.113124 -0.046050 0.073168 0.142019 0.152484 0.323291 -0.084258 -0.361391
ad 0.029335 -0.094789 0.017189 -0.059958 -0.193231 0.006350 -0.035249 0.121883 -0.122486 -0.076950 -0.046579 0.116259 -0.004482 -0.047306 -0.047363 -0.161577 0.091631 -0.119547 0.083573 -0.098122 -0.213777
behind 0.204632 0.236393 -0.017076 0.296187 0.087539 -0.083225 0.009608 0.032116 0.161112 -0.039416 0.057262 -0.025626 -0.006645 -0.011319 -0.103277 0.116257 -0.119837 -0.143356 -0.259036 0.050634 -0.090185
first -0.054958 0.118095 0.014617 -0.117401 -0.119681 0.165273 0.076991 0.054929 0.312138 -0.005584 -0.174806 0.108823 -0.123231 0.170189 0.049244 -0.111671 0.109668 0.059168 -0.213294 0.238347 -0.348629
got 0.097308 0.092950 -0.199441 -0.101618 -0.247402 -0.031383 0.034582 -0.018200 -0.019674 -0.019356 0.097645 -0.065660 -0.072320 -0.013008 -0.021688 0.054028 0.012246 -0.042341 -0.083311 -0.023254 -0.310604
guidanc -0.154630 -0.124711 -0.036460 -0.191793 0.088964 0.192742 -0.252772 0.026361 -0.224470 0.023869 0.133180 -0.026583 0.210087 -0.125666 0.046656 -0.075766 0.028982 -0.107311 0.366185 -0.003861 -0.439069
imposs 0.027505 0.052379 -0.041230 0.156776 -0.165400 -0.101862 -0.001580 0.005213 0.063252 -0.073628 0.067878 -0.112782 0.236007 -0.010158 -0.134789 -0.018310 -0.080388 0.003515 -0.146389 -0.029595 -0.410447
lose 0.228699 0.191655 -0.602478 0.130411 -0.364125 -0.114158 0.223866 -0.137805 -0.282199 0.077092 -0.018149 -0.048075 0.311307 -0.110909 0.231957 -0.061814 -0.190351 0.054692 -0.033513 -0.127790 -0.434129
microsoft 0.141811 -0.040657 0.393832 0.043593 0.421624 -0.562384 0.421830 -0.103345 0.362244 -0.199832 0.689961 -0.104254 -0.297864 0.095157 0.023847 0.140083 0.110805 0.412032 0.302212 0.264968 -0.218284
moodl -0.073665 0.102313 0.288123 0.033666 0.081191 0.173785 0.141366 0.022822 0.300300 -0.260245 -0.055991 0.093626 -0.189841 0.278850 -0.274950 -0.360826 0.313676 0.023201 -0.173214 0.222697 -0.391800
organ -0.106947 0.155179 -0.220023 -0.198244 -0.195086 -0.154467 0.027548 -0.104763 -0.240901 0.131860 -0.088862 -0.057115 -0.063419 -0.089434 0.133356 0.053023 0.128104 0.283722 0.093462 -0.123925 -0.269243
social -0.047522 -0.010821 0.046185 -0.046452 -0.077658 -0.016822 0.046377 0.203452 -0.211753 0.013097 -0.111395 -0.009048 0.046160 -0.235809 0.132453 -0.124200 -0.178227 -0.016793 0.134246 -0.073941 -0.159429
technolog 0.011929 -0.009618 -0.014742 -0.021492 0.085098 0.027919 -0.077633 -0.000919 -0.091679 0.004665 0.178514 -0.082727 -0.210313 -0.123213 -0.025569 -0.014987 -0.025700 0.010501 0.020100 0.022834 -0.160873
wait 0.061923 -0.076144 0.192402 0.178952 0.093159 0.357426 -0.156637 -0.099802 0.340433 -0.173008 0.078628 0.222999 0.127661 0.249161 -0.097183 0.132760 0.177190 -0.318076 -0.087200 0.204313 -0.278084
zone -0.237229 -0.372051 -0.001435 -0.027247 -0.403894 -0.002877 -0.211723 0.076700 0.046953 0.055799 0.371578 -0.017405 0.050415 -0.007012 0.552385 -0.288995 -0.008292 -0.533051 -0.061546 -0.063167 -0.563370
across -0.342404 -0.105818 0.073674 -0.261923 0.264778 0.034965 0.183208 0.074284 0.361884 -0.093987 0.069068 0.059791 -0.394277 0.034434 0.157023 -0.009266 -0.023052 0.008055 -0.108069 0.007696 0.005775
addit -0.062201 -0.226007 -0.019196 -0.052453 0.141904 -0.016374 -0.064329 0.179110 -0.068531 -0.074332 -0.257801 0.305367 -0.064352 -0.133687 -0.196962 -0.217721 0.086510 0.052647 0.083112 -0.069542 -0.488380
anonym 0.026598 -0.274371 0.206314 0.253963 -0.021286 0.397869 -0.070706 -0.001510 0.156768 -0.169561 0.383989 -0.063766 0.286573 -0.036725 -0.177179 0.221639 -0.016971 -0.158654 0.609352 -0.165716 -0.520210
away 0.186858 0.160166 0.032310 0.233927 0.074452 0.005379 -0.013682 -0.014667 0.309123 0.006499 0.077601 0.126544 0.261741 0.046458 -0.041001 0.319444 -0.039836 -0.217438 -0.049795 0.063853 -0.287476
basic -0.040294 0.068606 0.005498 -0.016179 0.087484 0.020173 0.013842 -0.003723 0.333495 0.112799 -0.050878 0.144736 -0.045329 -0.050750 0.090644 0.002826 0.002477 -0.047378 -0.222466 -0.116032 -0.346438
concept -0.145401 0.271921 -0.236387 0.118179 -0.086888 -0.062863 0.006038 0.165252 0.175424 -0.019233 -0.021152 -0.038868 -0.107204 -0.264647 -0.086080 0.006082 0.057937 -0.126137 -0.187783 -0.298397 -0.254028
detail 0.068194 -0.110224 0.197837 0.083800 0.095520 0.099775 0.028283 0.120835 0.080196 -0.182824 -0.053924 0.045705 -0.116512 0.112751 -0.123074 -0.091823 0.086863 -0.159738 -0.010823 0.055826 -0.212070
direct 0.010821 -0.031046 0.004610 0.068769 -0.050739 0.068705 0.031887 0.176189 0.037850 -0.061608 -0.025271 0.017950 0.043478 -0.113101 -0.044519 0.188998 0.007019 -0.158584 0.233565 -0.138395 -0.390998
finish 0.001529 0.020650 -0.031927 0.109637 -0.080255 -0.016871 -0.072010 0.141658 0.056352 0.062952 0.023579 0.093355 -0.034582 0.158424 0.122442 -0.034192 -0.123641 -0.097214 -0.256639 -0.017161 -0.383026
independ -0.174624 0.020313 -0.219639 -0.141222 0.007092 -0.489282 -0.291934 -0.052113 -0.214110 0.193940 -0.168931 0.268237 0.232257 -0.132646 -0.021738 -0.195279 -0.053136 0.021816 -0.316948 -0.142297 -0.321047
info 0.079877 0.018396 0.051858 -0.018950 0.038135 -0.007145 -0.136196 0.172855 0.120333 -0.071449 -0.088041 0.205450 0.068848 -0.112156 -0.013397 -0.160784 0.073856 -0.123486 -0.037682 -0.064662 -0.392017
leav 0.210266 -0.171935 -0.025912 0.114872 0.106733 -0.002136 -0.056557 0.132653 0.062039 0.120965 0.050720 0.134485 0.203478 -0.069570 -0.002505 -0.012162 -0.021710 -0.031330 0.104289 -0.042274 -0.452815
main -0.086730 0.114569 -0.030960 -0.118983 -0.039609 0.014844 0.021043 0.224093 0.027648 -0.123332 0.005278 0.044329 -0.461935 0.177620 0.071620 -0.080090 -0.010857 -0.059030 -0.122426 -0.151492 -0.172971
may 0.040034 -0.205768 -0.018957 0.123524 -0.177382 0.302203 -0.221449 -0.066692 -0.066593 0.097450 -0.052829 -0.107022 0.119621 -0.174623 -0.099145 -0.128083 -0.073326 -0.125714 0.279420 -0.208765 -0.515804
number 0.199745 -0.316503 0.001992 -0.108088 0.177649 -0.000608 -0.033656 0.187091 0.050070 0.144119 0.017360 0.204334 0.089267 -0.233564 0.110306 -0.049912 -0.064121 -0.137675 0.024268 0.003499 -0.295578
outsid 0.012851 -0.187147 -0.100646 -0.171420 -0.003607 -0.183421 -0.059930 0.086304 0.252755 0.118329 0.083463 0.210917 0.370083 -0.057040 0.174951 -0.033367 -0.033375 0.241140 -0.028173 -0.008042 -0.734678
poor -0.000411 0.126043 0.122768 0.180679 0.327930 0.319768 -0.034585 0.214775 -0.084043 -0.150126 -0.034870 -0.093875 -0.050294 -0.101826 -0.102436 -0.217143 -0.012173 0.032352 -0.143960 -0.097407 0.189979
pressur 0.014119 0.068356 -0.111790 -0.088619 0.079325 0.004739 -0.057426 -0.163970 -0.280238 0.156961 0.027940 0.100788 0.334238 0.010764 0.262664 -0.094935 -0.133479 -0.017965 -0.132824 0.006518 -0.427993
relev -0.000043 0.131574 -0.005381 0.081094 -0.117986 0.219254 0.023342 -0.140586 0.169670 0.038392 -0.310561 0.020644 -0.137077 0.378138 -0.107884 -0.124945 0.023719 0.032607 -0.236462 0.140309 -0.245436
sent 0.034876 -0.167458 -0.063953 0.220678 0.188828 0.260971 -0.414268 0.132753 -0.006773 -0.107843 0.032101 0.240772 -0.087673 0.016148 -0.137276 -0.190399 -0.077582 -0.130224 -0.083888 -0.015513 -0.330250
someon -0.001542 0.143766 0.088424 0.006489 -0.216160 0.002305 0.033404 0.011816 0.049881 -0.017164 0.112357 -0.213560 0.004251 -0.087224 0.038272 0.306281 0.057262 -0.134512 0.021946 0.019897 -0.440671
tool -0.189970 -0.050056 0.123771 -0.187891 0.055857 -0.326541 0.047564 0.148444 0.279161 -0.215274 0.056600 0.159302 -0.367337 -0.053055 -0.242663 -0.214389 0.260660 0.114554 0.148389 0.057606 -0.442435
wast 0.032297 -0.245413 0.097213 0.187480 -0.425084 -0.206317 -0.025078 0.240341 -0.114155 0.040431 0.255443 -0.106465 0.228493 -0.196171 0.648888 -0.144605 0.159713 -0.196123 -0.103564 -0.123759 -0.508911
weekli 0.011102 -0.214574 0.332650 -0.203786 0.053541 0.056701 -0.035154 -0.123775 0.357532 -0.017636 -0.085181 0.177590 0.035456 0.144651 -0.153314 -0.146206 0.279858 0.188634 0.053966 0.250794 -0.538428
whiteboard -0.065438 -0.103448 0.223796 -0.201084 0.117297 -0.195369 -0.018569 0.003540 0.279419 -0.087926 0.304714 0.006905 -0.410603 0.061997 -0.162089 -0.113530 0.236808 0.169464 0.255758 0.125293 -0.397836
alreadi 0.029685 0.079849 -0.094662 -0.212160 -0.177392 -0.141280 0.086984 0.237513 0.004633 0.135485 0.000816 0.032064 -0.128987 0.088806 0.141531 0.183011 0.021438 0.099328 -0.224784 -0.059065 -0.284921
aspect -0.043392 0.083508 0.028948 -0.031046 -0.166617 -0.119434 0.121689 0.126894 -0.123953 0.030362 -0.149011 0.028065 -0.062159 -0.251626 -0.048765 0.042482 -0.039923 0.048383 0.003430 -0.146860 -0.225666
bad 0.209434 0.104369 0.045263 0.045952 0.142641 -0.144833 0.153924 0.084135 -0.071848 0.148504 0.120121 -0.089213 -0.057761 0.073897 0.019328 0.065423 -0.069651 -0.150562 -0.099765 -0.037976 -0.001083
benefici 0.107411 -0.048218 -0.109790 -0.189947 -0.272394 -0.376540 0.106151 0.345553 0.174716 -0.058748 0.027677 0.275086 -0.092299 -0.219491 -0.029368 -0.165616 0.074439 -0.246685 0.027116 -0.102168 -0.616554
cannot 0.030311 0.110100 0.047750 0.002331 -0.401398 -0.085266 0.058519 -0.231518 0.023523 -0.279357 0.081165 -0.087441 -0.166451 -0.203435 -0.078444 0.111778 -0.003524 0.055807 0.256737 -0.194797 -0.333196
circumst -0.176033 0.219263 -0.194071 0.105606 -0.033072 -0.069144 -0.047442 0.074945 -0.212864 0.019991 0.059125 -0.108340 -0.034870 0.087204 0.038438 0.026931 -0.041071 -0.029608 -0.251478 0.007175 -0.190272
close 0.094885 -0.066923 0.122029 -0.060560 0.074182 -0.021613 0.152280 -0.028947 0.260315 -0.062155 -0.153551 0.124192 0.114770 -0.038198 -0.031072 -0.024971 -0.038178 0.054918 -0.010524 0.038708 -0.312724
convers 0.057512 0.043448 -0.001855 0.020105 0.044033 -0.075404 0.064997 -0.012388 0.004032 0.083482 0.092732 -0.079829 0.071712 -0.147203 0.002972 0.087588 -0.040537 -0.116826 0.096879 -0.022259 -0.268744
effici -0.026337 0.036360 -0.202625 -0.034583 -0.082916 -0.005916 0.005013 -0.080352 -0.015961 -0.156059 0.023669 0.048952 0.012731 -0.100972 -0.010314 -0.024866 -0.029688 0.095615 0.141648 -0.084911 -0.447382
entir 0.026210 -0.058402 -0.159676 -0.005933 -0.164992 -0.078979 -0.004561 0.048953 0.186735 -0.012761 0.029648 0.174373 0.124868 0.023608 0.304914 0.038642 0.073842 -0.007260 -0.133766 -0.107378 -0.488948
far -0.060524 0.086694 -0.235853 -0.108528 0.035500 -0.182825 0.103512 -0.078955 0.016179 0.002164 -0.273272 0.142070 0.178371 -0.228983 -0.139124 -0.076574 -0.013487 0.100455 0.218933 -0.015033 -0.510017
full 0.118385 0.087577 -0.107878 0.142357 0.152058 -0.011648 0.036578 0.025001 0.122921 -0.078410 0.012975 0.032109 0.072106 0.135138 0.219848 0.031653 -0.034507 0.074909 -0.256274 0.087313 -0.259464
half 0.116487 -0.097609 0.214575 0.023188 -0.111167 0.062602 0.003572 0.083895 0.382857 -0.057856 0.130657 -0.015922 0.185137 0.149137 0.143241 0.024974 0.158334 -0.107387 -0.254453 0.088885 -0.420025
manag 0.054471 -0.122937 0.001939 0.107171 -0.280877 -0.228587 0.010204 0.297012 -0.067371 -0.033599 0.224133 0.008852 0.164778 -0.119019 0.373797 -0.073932 -0.055004 -0.340397 -0.172836 -0.035361 -0.351505
math 0.111941 -0.029486 0.118603 -0.186114 -0.009164 0.039632 0.151670 0.004942 0.203125 0.061416 0.096857 0.019590 -0.147094 -0.019396 0.153453 -0.027028 0.107917 0.094936 0.038177 -0.059820 -0.233307
mental 0.257375 0.422532 -0.014039 0.126710 0.315900 0.128601 0.085079 0.234826 0.182994 -0.150854 -0.227961 -0.024027 -0.070211 -0.219412 -0.069191 -0.056348 -0.149059 -0.205765 -0.232640 0.049945 0.041100
pandem 0.234947 0.021023 0.000444 0.033460 0.086588 -0.036531 0.032601 -0.041227 0.178982 -0.104022 -0.049423 0.120854 -0.057708 -0.002447 -0.004005 -0.022942 0.076000 0.095790 0.046418 0.043382 -0.301578
power 0.064135 -0.033665 -0.019240 -0.039676 0.449084 0.158704 -0.032652 0.126629 0.112648 -0.273748 -0.247437 -0.110403 -0.109194 0.431781 -0.149860 0.007610 0.096528 -0.052547 -0.177013 0.361891 0.034409
process -0.210779 0.055737 -0.143646 0.001929 -0.157277 -0.287602 -0.115949 -0.092511 -0.033261 -0.065314 -0.189912 -0.038492 0.085390 -0.443821 -0.260670 -0.218937 -0.053810 0.080607 -0.050934 -0.204823 -0.520082
rest -0.013467 -0.050003 0.037911 -0.059768 0.159209 0.099364 0.087035 0.050231 0.395542 -0.084679 0.102895 0.007506 0.013132 -0.008564 0.140389 -0.178411 0.030262 0.008845 -0.202894 0.011868 -0.330705
throughout -0.049707 -0.083185 0.078717 -0.059995 0.058606 -0.054884 0.075007 0.024397 0.256586 -0.098542 0.058083 0.054326 0.037865 -0.015115 0.094155 0.068284 0.053317 -0.102449 -0.159924 0.114500 -0.340015
toward 0.076555 0.058975 0.099389 0.010589 0.226225 -0.100722 0.131886 0.213507 0.097475 0.053709 -0.177567 0.125385 -0.075336 -0.115062 -0.089471 0.048920 -0.022439 0.059962 -0.329737 -0.031329 -0.050104
we’r 0.145099 0.080683 0.089911 0.094798 0.049672 0.102007 -0.178622 -0.024858 0.166061 -0.033731 -0.102866 0.036508 0.149802 0.017734 0.156987 0.102894 0.052746 -0.034004 -0.067340 0.032523 -0.088827
bare 0.100826 0.014505 0.137514 0.160156 0.060911 0.040843 0.139846 0.153408 0.036015 -0.064445 -0.163787 -0.048466 -0.019616 -0.129480 0.057260 0.183413 -0.087854 -0.071880 0.046432 -0.025732 -0.151431
care 0.024769 -0.027110 -0.130545 -0.122577 -0.117300 -0.036543 -0.360457 -0.031281 -0.083145 0.053892 0.034581 -0.004505 0.117427 -0.081437 0.059602 -0.071722 -0.045650 0.026860 0.014010 -0.004407 -0.190028
catch 0.189660 0.059253 0.037615 0.202479 0.092167 0.148633 -0.145071 -0.112881 0.302312 0.076144 -0.043661 0.067876 0.125310 0.137562 0.073902 -0.011141 -0.024190 -0.109412 -0.053313 0.016619 -0.513813
essay -0.143740 -0.097799 0.037090 -0.074528 0.151878 -0.001421 -0.055671 0.142565 -0.120097 0.261981 0.134934 0.088888 -0.044137 0.081468 0.176280 0.223909 0.020384 -0.165904 -0.098954 -0.010476 -0.246384
fulli -0.233420 -0.072514 -0.085343 -0.113155 -0.197860 0.020145 0.064449 0.005049 0.111307 -0.091620 -0.130530 0.143949 0.055169 -0.079398 -0.155007 -0.000344 -0.119655 0.084354 0.061214 -0.099033 -0.543430
haven’t 0.000527 0.023330 0.023207 0.093057 -0.004684 0.098137 -0.146455 -0.075510 0.177379 0.032862 -0.133591 0.204787 0.060143 0.146666 0.037301 -0.104225 0.010763 0.023746 -0.030778 0.007554 -0.439947
load -0.099894 -0.154610 -0.166626 -0.110676 -0.042628 -0.152167 -0.248228 0.166558 -0.157279 0.267105 0.029683 0.177215 0.155280 0.012347 0.229097 -0.031891 -0.198695 0.129670 -0.106228 -0.097212 -0.369840
