time 0.186877 -0.120760 -0.521830 -1.252827 -0.074981 0.268413 -0.450786 0.064289 -0.779496 0.434682 1.268368 0.721106 0.228207 0.189839 1.229581 0.259213 0.214136 -0.057840 0.835216 -0.894251 0.390481
onlin -0.308049 0.383932 -0.392724 -0.083549 -0.287208 0.246213 0.343095 -0.123064 -0.427273 -0.125411 0.822268 -0.260452 0.072387 -0.557933 1.075099 0.577188 -0.069307 -0.052072 1.465486 -0.248495 0.253167
class 0.121918 0.730010 -0.389215 -0.505164 0.084375 0.421740 0.258679 -0.080372 -0.633529 0.235083 0.731482 -0.314463 -0.109369 -0.259751 0.361614 0.222244 -0.028240 0.418998 0.948705 0.118525 0.168810
work 0.220453 -0.010647 -0.961725 -0.385271 0.193584 0.699099 0.178749 0.017407 -0.302401 0.086451 0.513628 -0.055515 -0.015616 -0.533966 0.551915 0.471322 -0.186482 -0.085725 0.323132 0.142566 0.298702
lectur 0.352960 0.583040 -0.262953 -0.429704 -0.127902 0.070888 0.032432 0.245274 -0.483093 0.098481 0.929670 0.012295 0.016753 -0.164157 -0.144269 0.666360 0.269437 0.742543 0.942327 0.511066 0.303708
cours -0.096070 0.729530 -0.455904 -0.283508 0.170662 0.309343 0.376397 0.153531 -0.490129 -0.045090 0.340014 -0.579945 0.263371 -0.471525 0.399508 0.109539 -0.333895 0.278478 1.007760 -0.184911 -0.002488
like 0.120801 -0.084879 -0.488364 -0.226141 0.138088 0.432610 0.200985 -0.058356 -0.453973 0.268615 0.293161 -0.208505 -0.267884 -0.344687 0.671282 0.385938 -0.065893 0.121569 0.976619 -0.014733 0.000476
feel 0.404490 -0.540705 -0.585432 0.494119 0.359028 -0.071460 -0.006106 0.163746 -0.435326 -0.049949 0.213030 -0.129781 -0.244313 -0.789865 0.957602 -0.032784 0.058861 0.591329 0.827530 -0.329228 -0.027758
prefer 0.083720 0.443824 -0.632402 -0.352982 0.033585 0.128947 0.262695 0.267935 -0.645237 -0.029458 0.160113 -0.584034 0.161955 -0.315839 0.309678 0.145271 -0.442842 0.218475 0.943506 0.024981 -0.433068
learn 0.060430 -0.086382 -0.730302 -0.048593 0.164272 0.441350 0.257499 0.082426 -0.342443 0.040688 0.220631 -0.236180 -0.089512 -0.444339 0.483072 0.265685 -0.060970 -0.207544 0.515914 0.147145 0.059184
get 0.128362 0.021395 -0.611282 -0.155219 -0.068616 0.143775 -0.023246 0.204965 -0.538724 0.219647 0.110517 -0.105525 -0.310051 -0.072362 0.517260 0.320784 0.201327 0.015712 0.411886 -0.419628 0.145740
person -0.135221 0.384918 -0.132787 -0.071670 -0.008072 0.145697 0.288119 -0.001995 -0.378429 0.128172 0.440821 -0.424749 -0.066430 -0.350065 0.448060 0.262145 -0.153891 0.151322 0.828204 -0.107190 -0.045381
home 0.331216 0.056367 -0.665672 -0.378540 0.299867 0.121053 0.055096 -0.121835 -0.419150 -0.098677 0.118710 -0.250970 -0.010775 -0.327776 0.719139 0.041026 0.209882 -0.044469 0.634089 -0.245723 -0.127494
pace 0.308015 0.055500 -0.667851 -0.512715 0.119768 0.129405 0.049422 0.032790 -0.571551 0.062415 0.035932 -0.068690 0.130529 -0.047641 0.199259 0.075705 -0.080916 0.062502 0.655249 0.010707 -0.224606
less 0.100890 -0.285894 -0.507730 0.182898 0.318007 0.194708 -0.071107 0.243543 -0.386382 0.037281 -0.154771 -0.071727 -0.569028 -0.232610 0.793769 0.232383 0.392080 0.286601 0.400984 -0.365108 0.008532
studi 0.204049 -0.036634 -0.719539 -0.322311 0.164354 0.420989 0.011201 0.303648 -0.260518 0.157946 0.359062 -0.080500 -0.077574 -0.344156 0.224168 0.312980 0.134324 0.127101 0.290881 -0.036298 -0.037092
also 0.135904 0.055227 -0.464283 -0.105741 -0.107503 0.134392 0.100264 0.101843 -0.389950 0.000115 0.478432 0.096124 -0.047125 -0.307761 0.487391 0.213749 0.196897 0.260762 0.583437 -0.288637 -0.086880
better 0.086181 0.170533 -0.545882 -0.240760 0.196016 0.225316 0.064757 0.087373 -0.390196 0.171038 0.061659 -0.128688 -0.042736 -0.127612 0.339454 0.147564 -0.140685 0.122766 0.363332 -0.421589 0.099799
much -0.019570 0.197676 -0.437829 -0.197713 -0.014631 0.035324 0.060685 0.201954 -0.488243 0.120568 0.329737 -0.095350 -0.064971 -0.321486 0.335495 0.208245 -0.083328 0.254581 0.597993 -0.224729 -0.081318
go 0.195342 0.102882 -0.527012 -0.154718 -0.275751 0.350908 0.015431 0.374451 -0.333621 0.114281 0.502935 -0.114843 -0.074410 -0.310811 -0.026697 0.435081 0.032129 0.010510 0.406498 0.000661 -0.081448
take 0.306503 -0.048075 -0.559572 -0.016123 -0.107704 0.201515 0.083243 0.261852 -0.293019 0.049594 0.654633 0.031053 -0.138518 -0.082276 0.178010 0.533546 0.429430 0.129318 0.258109 -0.125078 -0.058096
inperson -0.103833 0.282557 -0.292428 -0.096208 -0.195531 0.067979 0.245874 0.290706 -0.332306 -0.066744 0.328203 -0.463561 0.094703 -0.312932 0.410056 0.428081 -0.187178 0.130663 0.849164 -0.162552 -0.243536
easier -0.010882 0.239989 -0.282619 -0.003434 0.061370 0.111568 0.137974 0.121290 -0.266283 0.223453 0.314673 -0.166682 -0.099379 -0.205060 0.477687 0.145681 -0.068826 0.116287 0.632104 0.112139 -0.049890
comfort 0.349294 -0.441297 -0.602077 0.158406 0.235616 0.321861 0.230948 0.068479 -0.293276 0.066087 -0.026803 -0.241950 -0.359808 -0.355632 0.686939 0.204142 -0.117038 -0.193887 0.663253 0.535225 -0.153543
abl 0.164451 0.205042 -0.333583 -0.190712 0.083636 0.127577 0.110181 0.000097 -0.420165 0.008660 0.155140 -0.260712 -0.078627 -0.314685 0.298264 0.132825 -0.023538 0.228159 0.448535 -0.154399 -0.102984
dont 0.116849 -0.122169 -0.512625 -0.298653 -0.052540 0.145918 -0.213788 -0.010744 -0.376696 0.149152 0.407213 0.195512 -0.077164 0.076633 0.362156 0.273266 0.205437 0.129816 0.169419 -0.380325 -0.213784
uni 0.147498 0.096892 -0.455000 -0.444984 -0.085848 0.230569 -0.064801 0.046135 -0.504466 0.141251 0.352887 0.100732 -0.053410 -0.035125 0.028076 0.305192 0.000533 0.164536 0.251532 -0.216267 -0.198585
would 0.031652 0.339780 -0.296614 -0.106252 0.050755 0.146910 0.297343 0.135775 -0.376611 0.125045 0.333925 -0.209881 0.121426 -0.219385 0.166148 0.322811 0.026508 0.269410 0.485398 -0.266607 -0.143563
day 0.099993 -0.085652 -0.554133 -0.246189 -0.062607 0.117513 -0.150122 0.112735 -0.309609 0.078560 0.271534 0.257098 -0.169166 -0.026554 0.135910 0.265978 0.150454 -0.099328 -0.150063 -0.542185 0.051223
don’t 0.123477 -0.234871 -0.428300 -0.170218 -0.017031 0.193784 -0.129973 0.074675 -0.402677 0.170132 0.189990 0.176820 -0.242726 0.119019 0.416757 0.220693 0.167519 -0.027921 0.190397 -0.456416 -0.048760
flexibl 0.109436 0.126658 -0.452627 -0.190935 0.097381 0.188188 0.159909 0.145432 -0.343085 -0.011113 0.221821 -0.142240 -0.028132 -0.271678 0.332390 0.156586 -0.078592 0.176722 0.513735 -0.153364 -0.394646
hour 0.110597 0.037758 -0.410866 -0.473248 -0.160057 0.152748 -0.482830 -0.068384 -0.328909 -0.103443 0.578252 0.325565 -0.096509 0.276209 -0.002950 0.290630 0.078535 0.002302 -0.346268 -0.587703 0.139703
make -0.030987 0.012026 -0.387753 -0.045854 0.058315 0.281465 0.071710 0.105850 -0.415026 0.161414 0.147342 -0.243518 -0.192859 -0.340093 0.402660 0.333642 -0.044077 0.142424 0.463339 -0.164640 -0.325527
way 0.142190 0.107984 -0.519597 -0.180192 0.032394 0.168623 0.135514 0.063788 -0.366863 0.011871 0.224240 -0.159854 -0.056291 -0.188464 0.326536 0.101774 -0.074187 -0.018234 0.328543 -0.197643 -0.244115
want 0.003065 0.096801 -0.455004 -0.372882 0.029390 0.209201 0.372538 0.080413 -0.233077 -0.008654 -0.039662 -0.093075 0.074598 0.079796 0.010722 0.283236 -0.193035 -0.155659 0.063240 -0.182488 0.042672
commut 0.155095 -0.172090 -0.473854 -0.280082 -0.106220 0.111803 -0.249968 0.163558 -0.413316 0.199455 0.335744 0.194424 -0.124640 -0.090145 0.065684 0.306400 0.329964 -0.070834 -0.048997 -0.440121 -0.264288
i’m 0.158431 -0.086270 -0.216503 -0.009361 0.130811 0.167648 0.137329 0.073052 -0.212486 0.003880 0.108480 -0.185775 -0.034691 -0.340247 0.372236 0.099085 -0.014007 0.267568 0.493318 0.059087 -0.226576
peopl 0.018805 0.102540 -0.201640 -0.031046 0.059171 0.138017 0.184001 0.087949 -0.198764 0.083900 0.043777 -0.116498 -0.118472 -0.143013 0.148408 0.168600 0.011069 0.125549 0.270734 -0.126834 -0.017737
engag 0.015397 0.124899 -0.160546 0.001259 0.021802 0.204230 0.189130 0.086800 -0.240068 0.050104 0.124582 -0.388286 -0.097915 -0.213723 0.293328 0.100099 -0.096423 0.015950 0.548125 0.036442 -0.203714
travel 0.070294 -0.101686 -0.553895 -0.231868 -0.076787 0.033896 -0.235144 0.244227 -0.300679 0.229134 0.376793 0.458253 -0.141349 -0.007493 0.043235 0.341500 0.335252 -0.028588 -0.247050 -0.579331 -0.021050
need 0.094939 0.061678 -0.406228 -0.258005 0.011415 0.125685 -0.061353 0.241071 -0.340107 0.280754 0.139972 0.080242 -0.037206 -0.064686 -0.053860 0.272564 0.119722 0.128516 0.315700 -0.261429 -0.206987
thing 0.160884 -0.022363 -0.592093 -0.121138 0.121150 0.219256 0.087885 0.116184 -0.283155 0.032087 0.238979 0.062493 -0.154690 -0.215980 0.140796 0.320807 0.062310 0.063856 0.280017 -0.097671 -0.291974
allow 0.044629 0.172798 -0.580711 -0.362365 0.074909 0.243056 0.097187 0.113255 -0.472181 0.028888 0.028562 -0.346219 0.030788 -0.263824 0.390673 0.197252 -0.250359 0.119286 0.599111 -0.069339 -0.479417
it’ 0.088735 -0.136369 -0.236673 0.087005 0.120600 -0.002627 0.248445 0.053576 -0.149940 -0.052319 -0.071099 -0.353678 0.053769 -0.318601 0.310177 -0.114107 0.032605 0.003194 0.247899 0.030744 -0.029227
anxieti 0.099030 -0.014408 -0.105053 0.072593 0.212436 0.102816 0.096837 -0.114008 -0.025681 0.336637 0.056418 0.128786 -0.158416 -0.121474 0.068531 0.014710 0.027870 0.404257 0.131989 0.127620 -0.037192
distract 0.063762 -0.341094 -0.326229 0.022538 -0.023514 0.218436 -0.037431 -0.022187 -0.283780 0.052213 0.252495 0.082963 -0.137049 -0.257191 0.611062 0.115216 0.106598 0.125005 0.508027 -0.034969 -0.303555
question 0.233163 0.114861 -0.071597 0.312233 0.318784 0.010997 -0.147807 -0.193683 -0.038669 -0.037625 0.080643 -0.220066 -0.392721 -0.188368 0.077780 -0.253781 -0.112125 0.030011 0.364323 0.105536 0.016840
univers 0.067082 0.076161 -0.354477 -0.274581 -0.054449 0.151416 -0.035364 0.126206 -0.298224 -0.023738 0.277928 -0.036726 -0.002487 -0.088618 0.078493 0.117583 -0.002177 0.067766 0.178848 -0.132809 -0.103842
im 0.132371 -0.186247 -0.384173 -0.040550 0.158100 0.265035 0.106766 0.070136 -0.158828 0.036727 0.067924 -0.113816 -0.147704 -0.213718 0.368879 0.210302 0.018005 0.111391 0.339326 0.017134 -0.277911
live 0.098836 0.171716 -0.306786 -0.153338 -0.063873 0.169683 0.000451 0.271294 -0.354865 -0.024429 0.335660 -0.114760 0.009044 -0.207708 0.094110 0.210350 0.093425 0.168900 0.353295 -0.179999 -0.222617
lot 0.088139 -0.178768 -0.496295 -0.133514 -0.042114 0.094274 -0.064681 0.329532 -0.370147 0.176524 0.260131 0.210228 -0.021720 -0.122523 0.162783 0.287560 0.302105 0.139812 0.063214 -0.273166 -0.160702
schedul -0.047938 0.043096 -0.281920 -0.237129 0.086864 0.108577 -0.010650 0.022546 -0.317835 0.173352 0.238304 0.079458 -0.059180 -0.167810 0.378814 0.142717 -0.028179 0.108899 0.295967 -0.265840 -0.175272
social 0.066419 0.188037 0.014469 -0.130497 0.109225 0.001315 0.173357 -0.168986 0.095435 0.066002 0.139326 -0.143591 -0.132837 -0.119231 -0.125231 0.099432 0.104372 0.071375 0.206085 0.155010 0.008274
give 0.081033 0.077712 -0.391737 -0.158508 0.034919 0.085065 0.069932 0.189664 -0.219547 0.134477 0.155551 0.006570 0.070995 -0.137389 0.248405 0.072106 -0.027944 0.083872 0.260320 -0.037829 -0.175742
record 0.083067 0.205691 -0.176373 -0.079782 -0.179214 0.034266 0.015123 0.301803 -0.445036 0.009991 0.482209 0.102464 0.022776 -0.137686 -0.255935 0.423191 0.187935 0.407843 0.509731 -0.022226 -0.349234
use 0.100852 -0.071836 -0.392350 -0.197856 -0.024036 0.024027 -0.127309 0.178019 -0.251453 0.100548 0.251147 0.185616 -0.070175 -0.056391 0.061627 0.280006 0.244265 0.056179 0.051498 -0.248098 -0.192091
wast 0.117436 -0.194454 -0.454533 -0.061810 0.062206 0.074135 -0.186827 0.180620 -0.357443 0.249651 0.317041 0.468708 -0.164457 -0.087944 -0.023014 0.392039 0.448318 0.260533 -0.033727 -0.526771 -0.275840
miss 0.082538 0.145793 -0.232072 -0.003854 0.024409 0.088757 0.190428 0.069588 -0.193590 0.182603 0.113121 -0.077673 -0.055115 -0.111916 -0.002375 0.123297 0.007259 0.260253 0.190913 0.029829 -0.164102
motiv 0.028553 -0.059484 -0.307787 -0.051020 0.203435 0.247294 0.150572 -0.063827 -0.325756 -0.031767 -0.189845 -0.281141 -0.245206 -0.119639 0.442306 0.103948 -0.051750 -0.128260 0.459217 -0.076624 -0.304897
student 0.047633 0.192969 -0.047951 0.036697 0.048345 0.100719 0.105425 0.117321 -0.126747 -0.047099 0.141735 -0.191158 -0.014714 -0.121758 0.122665 0.095362 -0.077811 0.108901 0.339348 -0.049236 -0.109295
freedom 0.021775 0.116259 -0.309200 -0.277688 0.074172 0.111381 0.141819 0.045690 -0.306260 0.046635 0.059067 -0.040874 0.079490 0.080777 0.108207 -0.017587 0.110183 0.008943 0.150902 -0.110507 -0.104224
interact -0.049861 0.318171 -0.132984 -0.004908 0.033657 0.071925 0.080330 0.066443 -0.154843 0.008415 0.150653 -0.200550 0.067941 -0.144822 0.123759 0.102457 -0.146653 0.153360 0.314042 -0.024429 -0.335804
realli 0.099883 0.020072 -0.280308 -0.122141 0.035674 0.076859 0.198055 0.124856 -0.335260 0.051207 0.202702 -0.224193 -0.028690 -0.155849 0.144992 0.182188 0.038809 0.222802 0.378613 -0.097550 -0.380420
save 0.120508 -0.073087 -0.460985 -0.163958 0.038290 0.128453 -0.115602 0.216208 -0.335567 0.180806 0.195997 0.340099 -0.090888 -0.035101 0.041151 0.338913 0.278434 0.164238 0.025581 -0.332431 -0.356617
ask 0.006347 -0.335685 0.294908 0.308703 -0.068686 -0.119411 -0.011452 0.248325 -0.179791 0.049010 0.068701 -0.144657 -0.181099 -0.282047 0.308038 0.164306 -0.018005 0.068928 0.354440 -0.051825 -0.123889
find 0.124827 0.048088 -0.274749 -0.025609 0.066112 0.188561 0.041579 0.110190 -0.200405 0.034260 0.080525 -0.295891 0.037326 -0.306586 0.264628 0.036070 -0.119922 0.152897 0.361922 0.045950 -0.395200
materi 0.031120 0.150568 -0.135694 -0.072649 -0.071694 0.001253 -0.012777 0.164128 -0.103649 -0.004901 0.180843 0.004576 0.095793 -0.037718 -0.047825 0.183426 0.095973 0.156289 0.212268 -0.015391 -0.189151
attend 0.032948 0.223015 -0.186763 -0.023282 -0.104014 0.124396 0.208443 0.144575 -0.249242 0.016725 0.193525 -0.292635 -0.024060 -0.268798 0.149130 0.335955 -0.133615 0.172928 0.395330 0.057113 -0.423380
manag 0.102437 -0.135527 -0.534355 -0.164556 0.035858 0.139292 -0.060532 0.216144 -0.328995 0.203593 0.122539 0.175080 -0.098025 -0.153425 0.049054 0.338369 0.247504 0.244138 0.070626 -0.298481 -0.478539
watch 0.061356 0.111658 -0.234470 -0.043815 -0.142922 0.102925 0.012187 0.326730 -0.261568 0.013411 0.413247 0.046340 0.048069 -0.157143 -0.223821 0.222185 0.265511 0.367979 0.383999 -0.005895 -0.207120
enjoy 0.111999 0.125335 -0.322920 -0.167731 0.073573 0.117192 0.073887 0.124812 -0.320530 0.074547 0.258162 -0.081352 -0.019620 -0.145644 0.124777 0.228192 -0.013121 0.186845 0.382041 -0.050916 -0.481299
one 0.021354 0.178597 -0.147176 -0.125021 0.021232 0.090536 0.053136 0.031591 -0.184363 0.013203 0.164256 -0.098806 -0.014789 -0.058412 -0.014273 0.114953 -0.003658 0.062515 0.098310 -0.076182 -0.182907
sinc 0.048223 -0.009396 -0.192446 -0.071508 0.043146 0.093440 -0.019012 0.059247 -0.183453 0.104233 0.080109 -0.036288 -0.083655 -0.145485 0.117755 0.118948 0.021055 0.124416 0.251586 -0.152622 -0.393076
spend 0.101352 -0.219496 -0.527102 -0.210957 -0.038918 0.115755 -0.166955 0.206322 -0.337460 0.235250 0.303710 0.463619 -0.104286 -0.044789 0.126512 0.335568 0.363981 0.125972 -0.080242 -0.419848 -0.429156
think -0.041451 0.185150 -0.277716 -0.060033 0.034067 0.087783 0.159848 0.141424 -0.217801 0.038062 0.100708 -0.351597 0.073426 -0.257154 0.122334 0.117010 -0.207364 0.243755 0.484127 0.003990 -0.594300
howev 0.036327 0.237514 -0.236802 -0.110661 0.077578 0.097877 0.200541 0.110923 -0.284923 0.031058 0.128588 -0.299744 0.080916 -0.196007 0.100415 0.094435 -0.160562 0.157955 0.439435 -0.085732 -0.467565
rather 0.048851 0.085874 -0.132908 -0.021472 -0.061336 -0.016138 0.048935 0.145767 -0.169714 0.068997 0.113537 -0.063766 -0.066313 -0.032772 0.000483 0.149970 0.022817 0.113332 0.098299 -0.080670 -0.229177
school 0.000965 -0.034869 -0.144608 -0.081789 -0.068931 0.060677 -0.124397 -0.014662 -0.117429 0.008572 0.039120 0.114990 -0.115221 0.042640 0.064919 -0.010269 -0.009157 0.041792 -0.138062 -0.200484 -0.157380
stress 0.078169 -0.448688 -0.221978 0.036731 -0.023189 0.058055 -0.127790 -0.136988 -0.028272 -0.015170 0.153492 0.299540 -0.078856 -0.173971 0.588190 0.003194 0.130343 0.059659 0.315336 -0.070501 -0.366185
help 0.088418 -0.069561 -0.166908 -0.158069 0.046578 0.132082 0.021358 -0.000318 -0.117261 0.025261 0.076350 -0.068445 -0.038137 -0.079869 0.137989 0.095756 0.083099 0.010719 0.150765 0.091924 -0.242477
back 0.107552 0.084105 -0.174959 -0.050782 -0.043175 0.081977 -0.045610 0.039362 -0.165430 -0.056561 0.045968 -0.016096 -0.001732 0.034563 -0.062884 0.170078 -0.110087 0.123540 0.173017 0.082588 -0.223352
focu 0.025714 -0.022901 -0.188970 -0.207847 -0.012819 0.083229 -0.027203 0.025189 -0.168275 0.116693 0.146772 0.058056 -0.018091 -0.082899 0.122840 0.105435 0.118013 -0.001976 0.162039 -0.150427 -0.321096
friend 0.068396 0.043027 -0.205775 -0.117346 0.031490 0.083225 0.065436 0.172812 -0.171098 0.095999 0.172027 -0.046499 -0.076037 -0.098535 0.168882 0.131743 0.120706 0.154828 0.142017 -0.051030 -0.350470
product 0.043946 0.004370 -0.281093 -0.136188 0.065765 0.175648 0.067008 0.080917 -0.298817 0.047746 0.084467 -0.079262 -0.099594 -0.100697 0.153000 0.220312 0.039184 0.048361 0.274999 -0.180943 -0.487467
understand 0.071654 -0.015112 -0.200362 -0.140603 -0.053933 -0.022786 -0.050945 0.095402 -0.002305 0.140050 0.120450 0.161617 -0.030174 -0.049751 -0.045983 0.116974 0.103639 0.039196 0.004530 -0.027175 0.007503
best 0.037351 0.006801 -0.316615 -0.143676 0.068093 0.074695 0.087019 0.074674 -0.271235 -0.006174 -0.020694 -0.113197 0.014741 -0.044525 0.136525 -0.022466 -0.053308 -0.055180 0.221484 -0.142752 -0.329060
actual 0.003941 0.083244 -0.179768 0.022927 0.049232 0.122308 0.113973 0.091272 -0.118333 0.015428 0.090131 -0.230864 -0.052350 -0.145598 0.143478 0.055351 -0.111501 0.101742 0.282833 -0.033655 -0.202268
etc 0.057649 0.088304 -0.047810 -0.013474 0.019826 0.035721 0.048934 0.056739 -0.027222 -0.029644 0.022240 -0.088829 0.026096 -0.014524 -0.013767 0.045075 -0.022252 0.018232 0.019544 0.040067 -0.260491
environ 0.132698 -0.155785 -0.217217 0.153304 0.191714 -0.042762 0.135186 -0.086014 -0.096392 -0.097079 -0.047178 -0.166700 0.078513 -0.241146 0.325119 -0.087805 0.051543 -0.042532 0.272986 -0.011765 -0.290291
place 0.009277 0.066638 -0.167479 -0.117976 -0.006393 0.049553 0.064560 0.016349 -0.155226 0.124517 0.133959 -0.036578 0.003043 -0.091082 0.076530 0.158364 0.039097 0.070172 0.231404 -0.124294 -0.353357
pressur 0.094782 -0.411859 -0.207376 0.106873 0.098857 0.182994 0.006152 -0.150905 -0.149246 0.015622 -0.002256 0.155340 -0.282056 -0.107189 0.511618 0.076938 0.149075 -0.125605 0.264276 -0.063568 -0.414063
space 0.065186 -0.081270 -0.196677 0.017998 0.133158 0.066948 0.090171 -0.034660 -0.109741 -0.010726 -0.024397 -0.082560 -0.020083 -0.122259 0.284412 -0.008579 0.096697 0.027713 0.189008 -0.033463 -0.197149
still -0.016293 0.129080 -0.135058 -0.031894 -0.046813 0.040114 0.104751 0.098333 -0.152880 0.018495 0.068143 -0.091480 -0.023463 -0.133379 0.109357 0.121339 -0.061529 0.115477 0.160893 -0.007367 -0.332806
well 0.058189 0.063655 -0.162270 -0.070290 0.093673 0.071127 0.067505 0.036735 -0.199180 -0.004653 -0.007774 -0.173684 -0.017065 -0.086739 0.090282 0.024818 -0.036892 0.013287 0.208751 -0.038816 -0.409393
assign 0.013970 0.059384 -0.200984 -0.078905 0.003809 0.089513 0.078801 0.098756 -0.204274 0.038648 0.007268 -0.049373 -0.058411 -0.062079 0.022926 0.095729 0.007042 0.056867 0.086535 -0.055170 -0.358833
note 0.008182 0.096799 0.103767 -0.243716 -0.141795 -0.037790 -0.024137 -0.012652 -0.066387 0.319326 0.279408 0.014457 -0.046556 0.074987 0.000323 0.212211 0.108698 0.172911 0.165472 0.027620 -0.149626
paus 0.017345 0.053438 -0.034824 -0.038883 -0.108372 0.046362 -0.014932 0.170283 -0.109413 0.131441 0.294202 0.001311 -0.002159 -0.087372 -0.095145 0.176818 0.165623 0.182203 0.247546 -0.066484 -0.304161
sometim 0.039431 0.001698 -0.054176 -0.091677 -0.020780 0.030486 0.057326 0.000581 -0.113449 0.015745 0.070117 -0.080700 -0.043236 -0.050852 0.030115 0.094446 0.043300 0.006817 0.125834 -0.005662 -0.353949
complet 0.029344 0.071189 -0.179636 -0.074770 0.014038 0.028951 0.031609 0.067120 -0.141399 0.043713 -0.014578 -0.001202 -0.038099 -0.086546 -0.044255 0.102958 0.021839 0.114977 0.059127 -0.074649 -0.265866
concentr -0.042980 0.000826 -0.000963 -0.001641 -0.027464 0.027988 0.041847 -0.005966 -0.084907 0.040363 -0.023256 -0.137303 -0.050011 -0.064133 0.087198 0.031338 -0.058926 -0.054036 0.120188 -0.008758 -0.191194
could 0.025404 0.090583 -0.163292 0.011717 0.043952 0.002639 0.046856 0.112130 -0.111610 -0.012963 0.027310 -0.124291 0.005220 -0.158495 0.058034 0.084580 -0.107145 0.088018 0.241457 -0.019800 -0.423957
good -0.020348 0.031087 -0.073599 0.016958 0.014754 0.026659 0.025251 0.076492 -0.043273 0.035488 -0.014204 -0.119105 0.005554 -0.028763 0.033049 0.051353 -0.018556 0.021988 0.086347 0.034161 -0.207075
suit 0.027802 -0.065998 -0.295089 -0.041037 0.048056 0.079661 0.010791 0.009131 -0.211998 0.040712 0.006389 0.049473 -0.073768 -0.092205 0.108637 0.095804 0.043918 0.027583 0.053574 -0.128943 -0.311091
teacher -0.001479 0.126601 0.045838 -0.009337 0.049529 -0.002353 0.028557 0.010836 0.002073 -0.041939 -0.040177 -0.051685 0.049168 -0.014742 -0.050510 -0.005194 -0.005183 -0.069714 -0.039052 0.007847 -0.081751
whenev 0.088517 0.053464 -0.175280 -0.243341 0.042659 0.151196 0.210392 -0.076300 -0.104692 -0.102598 0.131592 0.046049 0.115865 0.107110 0.086152 -0.002237 -0.135330 -0.062182 -0.051027 -0.060897 0.153219
conveni 0.024117 -0.117894 -0.135855 0.017654 0.059287 0.011841 0.041154 0.053327 0.014383 -0.033355 -0.098579 -0.023430 -0.042823 -0.064826 0.048757 -0.021177 -0.025963 -0.012361 -0.067589 0.062315 -0.020519
even -0.082744 0.138983 -0.006650 -0.026093 -0.031457 0.008634 0.093311 -0.003184 -0.070467 -0.015635 0.048633 -0.228543 -0.013968 -0.105221 -0.015299 0.037013 -0.111536 0.123180 0.244728 0.101280 -0.339416
move 0.036519 0.002354 -0.206389 -0.024978 0.027130 0.132542 0.010929 0.079489 -0.023087 0.019216 0.125516 -0.001110 -0.045760 -0.162993 0.035578 0.096817 0.005977 0.004209 0.053900 0.065573 -0.149647
often -0.033024 0.047677 0.002359 0.030686 -0.007625 0.004195 0.002171 0.020328 0.001424 -0.008180 0.034804 -0.045184 -0.003683 -0.013319 -0.049723 0.029952 0.000666 0.041104 0.057528 0.011061 -0.378269
particip 0.041785 -0.067826 -0.061279 0.053279 -0.016587 0.057857 0.040516 0.036631 -0.142324 -0.024894 0.014192 -0.066579 -0.138748 -0.133473 0.201564 0.079448 -0.054388 -0.007312 0.232496 0.010682 -0.245244
professor 0.012024 0.090140 0.019685 0.015606 -0.000900 0.052939 0.071369 0.025003 -0.065207 0.046803 0.040904 -0.097388 0.021903 -0.051722 0.054084 0.068442 -0.026778 0.075160 0.094338 -0.043248 -0.378469
see 0.042915 0.109390 0.027129 -0.018460 -0.073814 0.015643 0.071220 0.068416 -0.113220 0.026331 0.150476 -0.046569 -0.003940 -0.083269 0.014224 0.128154 0.030276 0.120560 0.212574 -0.031831 -0.321451
someth 0.053660 0.025542 -0.155387 -0.050058 -0.002004 -0.042873 -0.016205 0.040999 -0.088283 0.016685 0.051005 0.059845 -0.051113 0.002628 0.086197 0.065540 0.073812 -0.118028 0.027485 -0.030488 -0.351869
stay 0.143313 -0.155233 -0.240480 0.042985 0.115963 0.159927 0.054145 0.116196 -0.068399 -0.002399 0.000358 -0.112813 -0.026895 -0.215932 0.235958 0.101404 -0.079185 0.128032 0.204852 0.085576 -0.443022
struggl -0.038511 0.055112 0.054924 0.008292 0.024107 -0.045832 0.010911 -0.006648 0.067895 0.005445 -0.070642 -0.084545 0.025288 -0.054368 -0.081045 -0.049460 -0.060311 0.037873 -0.031547 0.026100 -0.097928
talk -0.007477 0.081374 -0.035958 0.020063 0.009573 0.014436 0.001209 0.058632 -0.061484 0.017103 0.068455 -0.077331 -0.004088 -0.088159 -0.024051 0.051180 0.068548 0.105437 0.166521 -0.027016 -0.322005
2 0.010921 0.026442 -0.069364 -0.220820 -0.118292 -0.100051 -0.216358 -0.013765 0.010514 0.072217 0.156106 0.277046 -0.040567 0.121634 -0.190731 0.074027 0.173478 -0.196783 -0.354550 -0.262513 -0.130047
abil 0.041415 0.048681 -0.119519 -0.111717 -0.024724 0.010081 -0.024659 -0.021827 -0.097087 0.007111 -0.002975 -0.042435 0.027228 -0.008213 0.001698 0.007282 -0.031523 -0.005989 0.069486 -0.031137 -0.246396
activ 0.007599 -0.020551 -0.114306 -0.064791 0.000101 0.004301 -0.046279 0.023420 -0.067474 -0.006294 -0.063560 0.039310 0.014937 0.000287 0.014904 0.002606 0.032368 0.025197 -0.033533 -0.060547 -0.272315
answer -0.057773 -0.084191 0.298820 0.136738 -0.112398 -0.156257 -0.019518 0.089521 0.016444 0.020396 -0.052550 -0.042554 -0.020973 0.007806 -0.078362 0.012143 -0.057501 0.015285 -0.043217 0.041076 -0.213887
choos 0.062884 0.056027 -0.241034 -0.040905 0.017971 0.075901 0.061325 0.106193 -0.180115 0.036628 0.071068 0.013800 -0.002183 -0.073795 0.001483 0.124155 0.027758 0.161664 0.102061 -0.038961 -0.509271
done -0.013846 0.027802 -0.198138 -0.082086 0.005698 0.071136 0.011397 0.081863 -0.118521 0.013332 0.090058 -0.065781 0.012482 -0.050842 0.071754 0.081898 0.001541 0.047251 0.091716 -0.095704 -0.464134
famili 0.104237 -0.134224 -0.271722 -0.155079 0.026356 0.049210 -0.083002 0.077414 -0.225291 0.180027 0.112982 0.249828 -0.046193 -0.022243 0.035823 0.266664 0.226185 0.084872 -0.044732 -0.201275 -0.449097
focus 0.054804 -0.009033 -0.201658 -0.079965 0.065129 0.057481 0.011965 0.016817 -0.137733 0.012587 -0.034707 0.003370 -0.071440 -0.058519 0.097924 0.055930 0.048664 0.044066 0.041072 -0.114474 -0.443592
follow -0.068697 0.082692 -0.023923 -0.023350 -0.119114 0.058783 0.079534 0.070440 -0.067025 -0.011426 0.057297 -0.186180 0.040437 -0.151410 0.168680 0.101824 -0.118157 -0.010278 0.208210 -0.036229 -0.260222
group 0.032025 -0.006136 -0.088290 -0.057638 0.045399 0.027372 0.086575 -0.006599 -0.104515 -0.060602 -0.158238 -0.100462 0.058114 0.023440 0.019169 -0.103392 -0.124705 -0.027869 0.034667 -0.013317 -0.094551
instead -0.001369 0.021745 -0.064557 0.056028 -0.021930 0.006523 0.008945 0.072442 -0.079820 0.022687 -0.004271 -0.030486 -0.064016 -0.048946 0.049700 0.094346 -0.013978 0.095311 0.025650 -0.006028 -0.378689
love 0.047839 0.023092 -0.198270 -0.064780 -0.019991 0.072897 0.035480 0.059343 -0.147111 0.044215 0.104881 -0.018229 -0.043944 -0.072165 0.090072 0.131169 -0.004891 0.024575 0.159836 -0.028649 -0.286871
possibl 0.066985 0.085580 -0.118199 -0.099740 0.022464 0.003724 0.105403 0.049991 -0.102949 -0.020930 0.078161 -0.122047 0.045567 -0.071234 -0.010392 0.024354 -0.049871 0.118294 0.135722 0.018517 -0.387232
teach -0.028286 0.047995 -0.035892 -0.026310 0.002288 -0.013893 -0.000971 -0.009073 -0.052019 0.037493 -0.033630 -0.033862 0.048701 0.004096 -0.004466 -0.036984 -0.068068 -0.025681 0.014700 -0.007195 -0.330203
content 0.011158 0.135073 -0.086366 0.025053 0.016309 0.043056 0.078544 0.112429 -0.171855 -0.000788 0.034139 -0.185004 0.002952 -0.091547 0.092684 -0.003964 -0.048393 0.085305 0.268045 0.009602 -0.371583
control 0.095797 -0.031512 -0.202177 -0.066019 0.074755 0.070039 0.023375 0.009892 -0.095236 0.018948 0.025871 -0.030612 -0.071349 -0.066264 0.139884 0.020344 -0.052221 -0.063515 0.131273 -0.029468 -0.210940
differ -0.098234 0.093049 -0.044558 0.018977 -0.029767 0.035390 0.027863 0.008383 -0.049416 -0.011716 0.020948 -0.067374 0.041751 -0.073458 0.039411 0.036970 -0.032097 0.054614 0.187792 -0.023166 -0.246061
far 0.002019 0.103959 -0.095800 -0.021957 -0.049332 0.057176 0.044096 -0.002459 -0.071988 0.025582 0.083997 -0.025007 -0.055505 -0.019986 0.100979 0.019867 -0.016471 -0.016137 0.010325 -0.003469 -0.365805
inform -0.008007 -0.016788 -0.178037 -0.029253 0.023835 -0.021264 -0.060503 0.104276 -0.078684 0.054172 0.027576 0.036775 -0.029244 -0.045972 -0.015580 0.099626 0.075623 0.063398 0.024422 -0.120385 -0.140658
introvert -0.020151 0.132473 -0.033973 0.010588 -0.000985 -0.014640 0.009111 -0.049920 -0.033969 -0.008519 0.051072 -0.117570 0.032789 -0.071848 0.048281 0.005934 -0.099924 0.102730 0.151610 -0.012205 -0.448165
keep -0.007369 0.062604 0.047280 -0.025964 -0.009166 -0.006268 -0.004535 -0.005072 -0.065538 0.012248 0.032023 -0.069164 0.050684 -0.055635 0.037662 0.020917 -0.065550 0.014572 0.119698 0.009992 -0.232739
life -0.020944 0.039092 0.037268 -0.027817 0.010863 -0.034229 0.042992 0.023796 -0.020038 -0.022639 -0.028150 -0.022572 0.028710 0.013212 0.000175 -0.019838 -0.036046 -0.027385 -0.030799 -0.006055 -0.227267
meet 0.079977 0.092031 -0.170546 -0.030275 0.074122 0.058376 0.088605 0.039340 -0.151454 0.018388 0.105299 -0.117841 -0.013756 -0.170852 0.136113 0.106082 -0.018887 0.141899 0.252293 -0.018851 -0.418443
read 0.020907 0.004124 0.032971 0.070692 -0.045200 -0.076980 -0.021040 0.049434 0.073210 0.000760 0.019586 0.072035 0.018625 0.054828 -0.183791 0.010995 0.087532 0.054118 -0.118943 0.023619 -0.353107
us 0.012379 0.057677 -0.027146 -0.060558 -0.019467 0.055457 0.006106 -0.033093 -0.012949 -0.029642 -0.038972 -0.055486 0.007654 -0.036770 0.059158 -0.004490 -0.045024 -0.060384 0.044791 0.007696 -0.142392
around 0.028892 -0.028915 -0.033403 -0.102824 0.045964 -0.021610 -0.023498 -0.023391 -0.027110 -0.024941 -0.025767 0.079693 -0.008191 0.055511 0.002670 -0.044272 0.015645 -0.011633 0.009374 -0.055112 -0.180329
effici 0.003639 0.015058 -0.164256 -0.023268 0.042149 0.011940 0.009178 0.051630 -0.116822 0.027731 -0.057943 -0.028744 -0.033615 -0.005963 0.021767 -0.021157 -0.023058 -0.043162 0.063714 -0.073420 -0.397875
everyth 0.019961 0.001812 -0.124068 -0.044433 0.024501 0.067318 0.005418 0.023741 0.013059 0.085720 0.043028 0.068772 -0.017185 0.003557 -0.026988 0.114942 0.057318 -0.054507 -0.020566 -0.023295 -0.275708
independ -0.009379 -0.021465 0.019417 0.014045 0.022900 -0.005038 0.051400 -0.017405 0.031499 -0.054395 -0.097989 -0.050916 0.019552 -0.034932 -0.002166 -0.029566 -0.053227 -0.006416 0.018028 0.030257 -0.026086
option -0.045590 0.167693 -0.012725 -0.057085 -0.006530 0.023358 0.102229 0.026775 -0.031712 0.006524 0.037532 -0.138018 0.061293 -0.014768 0.016246 -0.020034 -0.107278 0.066023 0.135358 0.040664 -0.289527
organis -0.001099 -0.046454 -0.168933 -0.064694 0.002096 0.036269 -0.052951 0.039844 -0.106515 0.102507 0.089201 0.105126 -0.066675 -0.087829 0.102307 0.117204 0.079571 0.019346 0.060148 -0.091897 -0.424836
room -0.026264 0.054210 0.102953 0.009724 -0.089212 -0.040445 -0.000435 0.076852 0.024509 -0.018668 0.013410 -0.059282 0.101596 -0.019776 -0.109846 -0.016854 -0.011705 0.031324 0.041568 0.036672 -0.224796
structur 0.051351 0.068640 -0.150786 -0.127956 -0.079072 0.072405 -0.024030 0.018720 -0.133291 -0.019171 0.201067 -0.024815 0.021981 -0.068064 0.137350 0.111035 -0.022644 0.088544 0.112974 -0.100018 -0.479780
without 0.043970 -0.008152 -0.090208 -0.010045 0.002869 0.067179 -0.001313 0.052884 -0.006502 0.044251 0.011092 0.058024 -0.029319 -0.022053 -0.007290 0.018458 0.019366 0.010525 -0.052574 0.059651 -0.249840
zoom 0.011347 0.065817 0.005719 0.002734 0.004665 0.046933 0.043340 0.112593 -0.067957 0.020112 0.053346 -0.064770 0.033979 -0.038590 -0.020440 0.030509 0.019643 0.090924 0.101846 0.016763 -0.345167
bit -0.001826 0.040065 0.013928 -0.037659 0.036524 -0.021677 0.056115 0.066914 -0.019508 0.001144 -0.081572 -0.122004 0.070802 -0.028610 0.008984 -0.032679 -0.100942 0.016910 0.079490 0.028635 -0.272956
campu -0.004626 -0.018323 -0.025628 0.036362 -0.018462 -0.009804 -0.057068 -0.016025 0.015486 0.021176 -0.002862 0.105395 -0.000459 0.037277 -0.060916 -0.012603 0.021044 0.009663 -0.141768 -0.060589 -0.366552
classmat -0.079940 0.044066 0.093252 0.001193 -0.006904 0.007512 0.045494 -0.026493 0.033072 0.041954 -0.056302 -0.054567 0.001238 -0.020283 -0.017639 -0.045613 -0.061359 -0.020986 0.023595 -0.001939 -0.271988
colleg 0.030782 -0.013018 0.087853 0.004217 0.009561 -0.022602 -0.051436 -0.018718 0.062588 -0.006794 -0.002828 0.008913 -0.008002 0.060611 -0.077976 -0.043291 -0.013659 -0.047436 -0.063102 0.008829 -0.238408
due 0.004490 0.051218 -0.171103 0.003765 0.028070 0.027792 0.050043 0.060551 -0.131893 0.032013 0.006507 -0.002340 0.015376 -0.066214 0.024858 0.079118 -0.039504 0.059221 0.038006 -0.089431 -0.463684
free 0.050953 -0.039062 -0.248415 -0.104828 0.034319 0.044649 -0.001899 0.086927 -0.138391 0.125226 0.027647 0.105032 -0.072179 -0.015274 0.017432 0.188927 0.137297 0.033339 -0.014855 -0.116138 -0.498548
health -0.139354 0.062851 0.263069 0.147358 0.065367 -0.132398 0.039910 0.006304 0.120712 -0.017404 -0.113936 -0.084736 -0.024817 -0.045759 -0.172597 -0.148610 -0.051892 -0.108394 -0.051522 0.022490 -0.007004
know 0.032109 -0.060119 -0.114869 0.033904 0.040966 0.078518 0.046991 -0.023872 -0.035924 0.032746 -0.002485 -0.054908 -0.029041 -0.070796 0.127005 -0.014898 0.024077 0.029472 0.093809 -0.006785 -0.477807
lesson 0.007424 0.099678 0.044045 -0.013238 0.016840 0.007795 0.070431 -0.027332 -0.015826 -0.063703 -0.053864 -0.121591 0.059468 -0.049230 -0.027034 -0.070956 -0.075883 0.060743 0.103550 0.100985 -0.259050
mani -0.018331 0.080616 -0.007243 -0.010444 -0.013746 -0.040205 0.031680 -0.012396 0.034180 -0.014348 0.007534 -0.054716 -0.016435 -0.011339 -0.013613 0.002610 -0.035413 0.013982 0.025876 0.016741 -0.279878
mean 0.029764 0.100780 -0.097408 -0.049078 0.040050 0.039923 0.046316 0.095519 -0.139497 0.024969 0.000719 -0.137001 0.050894 -0.101586 -0.000791 -0.029374 -0.099601 0.101148 0.126598 -0.020226 -0.364278
mental -0.061202 0.050675 0.185596 0.112687 0.059220 -0.089642 0.001819 -0.059648 0.119379 -0.088900 -0.184613 -0.072406 0.087771 0.134225 -0.063908 -0.119367 -0.154186 0.024260 -0.018898 -0.023743 -0.165845
opportun -0.005679 0.078821 -0.038006 -0.072199 -0.012810 0.016853 0.088963 0.027351 -0.038029 -0.047226 0.039962 -0.115139 0.092123 0.044790 0.080239 -0.071119 0.010425 -0.052557 0.105170 0.055333 -0.204841
plan 0.036136 -0.035581 -0.047913 -0.027936 -0.053525 0.029145 -0.103756 -0.038309 -0.027011 -0.041730 0.094681 0.070346 0.002381 -0.014834 0.008174 0.012196 0.053292 0.003427 -0.037021 -0.107445 -0.328505
relax 0.025977 -0.057215 -0.125467 0.049218 0.033778 0.064003 0.099301 0.009977 -0.094117 -0.019784 -0.025034 -0.102439 -0.104740 -0.036597 0.140448 0.063616 -0.008671 -0.049129 0.159307 0.023644 -0.429833
set 0.050026 -0.029822 -0.129109 -0.015006 0.021581 0.002588 0.002621 0.044302 -0.047162 0.021560 -0.017748 0.017497 -0.030975 -0.060824 0.025334 -0.010954 0.048025 -0.005381 -0.002496 -0.081948 -0.487584
speed 0.030486 0.051114 0.040658 0.024021 0.004885 -0.036705 -0.018420 0.000378 -0.017771 -0.030237 0.003829 -0.023245 0.029555 0.016932 -0.060906 0.031756 -0.000713 0.059653 0.081377 0.065853 -0.299878
subject -0.057475 -0.001391 -0.061088 -0.004190 -0.023670 -0.031007 -0.035263 0.049608 0.025021 0.024033 0.026294 0.103807 -0.018644 0.026307 -0.082400 0.090259 0.059164 0.001725 -0.145796 -0.045443 -0.248455
though -0.032399 0.198659 0.011490 0.010990 0.002262 -0.007626 0.087064 0.049307 -0.071866 0.014349 0.045570 -0.187601 0.052639 -0.142814 -0.018369 0.052038 -0.103820 0.104730 0.239529 -0.012871 -0.292293
transport 0.061930 -0.125005 -0.114664 -0.015443 -0.021565 -0.003717 -0.121232 0.124460 -0.028102 0.085189 -0.044906 0.162683 -0.044278 0.110274 -0.041199 0.011319 0.125898 -0.053749 -0.241064 -0.092721 -0.291872
usual 0.049444 0.055455 -0.079822 -0.054415 -0.018989 0.027579 0.049831 0.033398 -0.066165 -0.005467 -0.001316 -0.066609 0.025295 0.004352 0.062224 0.033826 -0.064383 0.007565 0.136861 -0.012709 -0.401436
video 0.037968 0.089363 0.022285 -0.032819 -0.078539 -0.002812 -0.014602 0.101271 -0.005740 0.015766 0.126777 0.032812 0.072521 0.024299 -0.147219 -0.025529 0.107223 0.166728 0.109387 0.105537 -0.200083
access 0.008117 -0.037191 0.056848 0.030066 -0.013725 0.010200 0.035253 -0.008666 0.074849 -0.031286 -0.027461 0.004155 0.026645 0.017439 0.012141 0.014204 0.006054 0.007839 -0.008092 0.010091 -0.327497
aspect 0.020966 0.116787 0.093385 0.103174 0.080912 0.004356 0.138902 -0.077327 0.053733 0.213811 -0.033622 0.009830 -0.049044 0.044788 -0.186844 -0.077971 0.008379 0.187136 -0.098406 0.125185 -0.161673
break 0.005945 0.033799 0.041930 -0.140438 -0.056127 0.008314 0.045559 -0.008398 -0.018746 0.144761 0.115162 -0.002816 -0.049740 0.008025 0.042201 0.107818 0.040104 0.026347 0.129902 -0.026853 -0.435817
chat -0.022091 0.037549 0.171553 0.072148 0.008937 -0.045706 0.005597 0.004848 0.037162 -0.030754 -0.013034 -0.000858 0.010620 0.005524 -0.046433 -0.042268 0.019682 0.019814 -0.071228 0.061699 -0.169167
come 0.044829 0.029101 -0.074831 -0.019231 0.025855 0.041091 0.021612 0.009114 -0.036256 -0.010987 -0.049833 -0.032205 0.013871 -0.017863 0.061410 0.025898 -0.046876 0.040492 0.048904 0.049189 -0.491679
confid 0.075469 -0.097264 -0.054472 0.077610 0.100329 0.124218 0.027630 -0.081768 -0.075527 0.001048 -0.050476 -0.131726 -0.172390 -0.043440 0.237175 0.010423 -0.031025 -0.089567 0.211684 0.073476 -0.298050
contact -0.013413 0.080255 -0.003167 0.017630 0.020264 0.024607 -0.031109 -0.007917 0.049053 0.016272 0.032406 0.012678 0.022619 0.007200 -0.062964 0.010001 0.014121 0.057208 -0.109702 0.004405 -0.298679
difficult 0.032048 0.028498 0.006895 0.058384 0.017248 0.004508 0.009974 -0.018228 0.000450 -0.033043 -0.052257 -0.097391 0.006167 -0.006256 0.029142 -0.093653 -0.085684 -0.026841 0.040188 0.023593 -0.409585
easili -0.009470 -0.014821 0.020233 -0.005563 0.010096 -0.029354 -0.048048 0.029127 0.039889 -0.012645 -0.012525 -0.014119 0.008685 -0.010627 0.047619 0.007088 0.003779 0.016027 0.008535 0.005166 -0.489538
everyday 0.028499 -0.017303 -0.107131 -0.055275 -0.057175 0.025277 -0.091169 0.040239 -0.030077 0.069025 -0.011337 0.113194 0.018590 0.033637 -0.056966 0.072343 0.026822 0.003835 -0.111367 -0.070875 -0.378733
i’v 0.011274 0.073470 0.018565 0.025027 0.024679 0.020014 0.055460 0.022004 0.008529 0.015671 0.007532 -0.144351 0.057526 -0.085361 0.008129 -0.025463 -0.078233 0.070403 0.130763 0.092264 -0.093369
instructor -0.042119 0.027483 0.048235 0.000580 -0.021468 -0.053012 -0.041896 0.111190 -0.021625 0.052499 -0.000021 0.123837 -0.015140 -0.003352 -0.083016 0.096657 0.062331 0.041524 -0.135385 -0.053405 -0.193798
listen -0.019254 -0.053314 -0.004008 0.050308 -0.052402 0.040471 0.007946 0.054913 -0.007523 0.017547 0.060123 0.069350 0.003054 -0.028940 -0.062526 0.076166 0.083855 0.039307 0.042282 -0.002433 -0.076110
organ 0.038668 -0.070115 -0.343317 -0.122420 0.034600 0.059642 -0.041309 0.046726 -0.230199 0.120239 0.172489 0.102954 -0.102370 -0.139616 0.107416 0.203725 0.125451 0.093715 0.070558 -0.219328 -0.626101
reason -0.045247 0.068729 0.005104 -0.004461 0.022945 0.053587 0.071158 0.057711 -0.015032 -0.036230 -0.002097 -0.104919 0.031081 -0.059130 -0.020882 -0.007382 -0.086827 0.037578 0.073233 0.014858 -0.279676
rewatch 0.000918 0.069862 -0.018040 0.003637 -0.043972 0.046369 0.005646 0.104717 -0.074664 -0.017661 0.112555 -0.068045 0.026491 -0.070686 -0.070609 0.037882 0.033221 0.108375 0.162720 0.043352 -0.238722
stuff -0.020893 0.017504 -0.044133 -0.013037 -0.001491 0.044913 0.020778 0.012103 -0.042886 -0.038377 0.017735 -0.083839 0.002348 0.001440 -0.015957 -0.014784 -0.066073 -0.004552 0.052148 0.019638 -0.405493
term 0.058350 -0.017970 -0.071300 -0.000604 0.075855 0.042429 0.024917 0.005110 0.005203 0.003192 -0.047475 -0.017603 -0.012924 -0.042831 0.003111 -0.047676 -0.090928 -0.105297 0.026980 0.051352 -0.096976
topic -0.010486 -0.112565 0.046776 0.045987 0.034632 -0.021356 0.014640 -0.017803 0.007729 0.017408 -0.058767 0.033496 -0.023148 0.010730 -0.004315 -0.045506 0.054795 -0.030646 -0.025379 -0.029020 -0.367913
week 0.027203 -0.023155 0.101231 -0.000852 -0.029701 -0.051013 -0.023765 -0.010068 0.058742 -0.027805 -0.076929 0.068367 0.011458 0.113915 -0.180675 0.000105 0.006609 0.016712 -0.086417 0.020863 -0.246494
wherea 0.000896 0.089205 0.049363 -0.007819 -0.041547 -0.048244 0.016806 0.074342 -0.047745 0.019428 0.070000 -0.083638 0.081398 -0.008874 -0.068123 0.037015 -0.002442 0.052972 0.107223 0.013501 -0.493633
although 0.061242 0.094147 -0.108422 -0.080965 0.073170 0.063036 0.080435 0.040583 -0.149489 0.006018 -0.037341 -0.191411 0.001328 -0.073114 0.019412 -0.013346 -0.089165 0.132725 0.208056 -0.030748 -0.450850
anxiou 0.036043 -0.042232 -0.073793 0.009090 0.023449 0.096725 0.006157 -0.044305 -0.087172 0.024488 0.073656 0.002799 -0.072297 -0.094390 0.179055 0.054470 0.001849 0.071337 0.145091 -0.017941 -0.576146
away 0.036080 0.066895 -0.144369 -0.184804 -0.082885 -0.023883 -0.113283 0.008055 -0.068425 0.163730 0.136487 0.170494 -0.081486 0.094372 0.035707 0.188153 0.125921 -0.019472 -0.068228 -0.136110 -0.526462
benefit -0.020212 0.026494 -0.011546 0.037896 0.000050 -0.015624 0.051467 0.010769 -0.010258 0.001602 -0.028237 -0.064998 0.010193 0.012490 -0.053851 -0.024729 -0.036789 0.003101 0.044059 0.125454 -0.486333
current 0.008841 0.024741 -0.007085 0.036870 -0.018128 -0.009842 0.014285 0.074437 -0.013204 -0.012253 -0.012090 -0.055129 -0.003794 -0.029787 -0.046612 -0.036359 0.005796 0.035076 0.028380 -0.000976 -0.422920
deal 0.006493 -0.050161 0.101795 0.112579 0.011950 -0.076708 0.003624 -0.007037 0.056295 -0.012041 -0.073098 0.069243 -0.019360 0.018010 -0.150400 -0.043691 0.061762 -0.019203 -0.197541 -0.028886 -0.294956
degre -0.006987 0.011011 0.045717 0.010186 0.022926 -0.029446 0.036053 -0.003551 0.022378 -0.015262 -0.070959 -0.019273 -0.002652 -0.000990 -0.066198 0.006298 -0.070320 0.041008 0.015967 0.049465 -0.338508
discuss -0.023999 0.062133 0.028251 0.040725 0.028654 0.031416 0.078457 0.061293 -0.027616 0.007248 0.010163 -0.112530 0.000867 -0.057245 0.002861 -0.004724 -0.074242 0.058826 0.078381 0.072763 -0.336974
earli -0.027565 -0.040054 0.129749 0.068625 0.031509 -0.021216 0.016301 -0.016452 0.147715 -0.054722 -0.088624 0.010282 0.000672 0.059369 -0.093271 -0.056933 0.002502 -0.022457 -0.105085 0.093719 -0.085947
eg 0.016597 -0.017508 -0.013132 0.002700 -0.029895 -0.009004 0.029696 0.028417 0.020118 0.053021 -0.008525 0.061585 -0.016642 0.022394 -0.022676 0.064510 0.042672 0.022074 -0.078477 -0.049297 -0.478194
everi -0.009378 0.028129 0.019165 -0.056096 -0.069821 -0.003984 -0.101897 -0.061588 0.020084 -0.049992 0.057580 0.071609 0.014336 0.055422 -0.076074 0.008186 -0.030822 -0.046411 -0.167050 -0.028473 -0.315425
experi 0.025385 0.044261 -0.075213 0.027546 0.050912 -0.038383 0.016931 0.040350 -0.052421 0.013548 -0.034476 -0.114240 -0.015072 -0.011413 -0.014951 -0.024553 -0.079731 -0.005606 0.109430 0.003988 -0.371690
fast 0.041260 0.017779 0.042086 -0.026288 0.009168 0.042717 0.051974 -0.046602 0.032751 -0.066491 0.021879 0.006947 0.045621 0.005784 -0.008949 -0.035001 -0.037721 -0.033174 -0.041348 0.039830 -0.342043
normal -0.046789 -0.027966 0.014063 -0.038203 -0.049975 -0.046134 -0.021935 0.040777 -0.037381 -0.015252 0.067068 0.060788 0.064908 -0.004595 -0.063174 0.037564 0.021049 -0.037282 -0.011523 -0.118161 -0.416596
part -0.009951 0.014021 -0.009368 -0.002747 -0.061298 -0.024202 -0.019804 0.033545 0.013211 0.006116 -0.041994 0.023629 0.024664 -0.005789 -0.040509 0.021550 -0.016180 -0.018575 -0.107538 -0.021467 -0.472541
practic -0.035819 0.004333 0.079246 0.058659 0.017407 -0.036190 0.016025 -0.014859 0.075934 0.025547 -0.037684 0.030629 -0.006147 0.020597 -0.125308 -0.036404 -0.018765 0.019583 -0.098397 0.042754 -0.276590
present 0.000544 0.054242 0.000212 0.003187 -0.014324 -0.029585 0.045299 0.051833 0.002480 0.000567 -0.027043 -0.044085 0.023548 -0.030512 -0.060011 -0.016166 0.021156 0.076198 -0.001965 -0.013931 -0.445359
speak 0.010778 0.096280 -0.020327 -0.037936 0.016660 0.046485 0.015296 0.036596 -0.010658 -0.028756 0.009303 -0.073935 -0.032251 -0.043479 0.000020 0.033200 -0.061559 0.034647 0.119625 -0.036086 -0.362288
start -0.001198 -0.016905 0.002502 0.052118 -0.001874 0.024789 0.029279 -0.013989 -0.020523 -0.001223 -0.067948 -0.017740 -0.026216 -0.011105 -0.009558 0.000770 -0.022258 -0.056010 -0.001784 0.022506 -0.462362
tutori 0.012530 0.110245 -0.140612 -0.019699 0.001564 0.040242 0.074592 0.123244 -0.204787 0.016061 0.133429 -0.168444 0.031138 -0.106403 0.020787 0.043842 0.012277 0.136372 0.308066 -0.030021 -0.500090
worri -0.013981 0.003357 0.006474 0.014683 0.000277 -0.048386 -0.069648 -0.035992 0.013803 0.034956 0.046839 0.122373 -0.008495 -0.010731 -0.095659 0.056616 0.101984 0.059996 -0.029334 -0.064207 -0.259746
amount 0.034641 -0.089612 -0.196941 -0.051978 -0.023927 0.004126 -0.041299 0.070519 -0.093535 0.070760 -0.005677 0.143588 -0.052231 0.011163 0.058162 0.097195 0.132213 0.059467 -0.062446 -0.171247 -0.494748
attent -0.001283 0.042085 0.208284 0.060699 0.024389 -0.023946 -0.045947 -0.022912 0.143259 -0.058268 -0.115345 0.025073 0.037934 0.108817 -0.154787 -0.032572 0.002741 -0.084936 -0.154976 0.035854 -0.130728
bore -0.022011 -0.042327 -0.013253 0.026893 0.004333 -0.010011 0.006011 0.023089 0.004782 0.020608 -0.018958 -0.070382 -0.017205 0.007219 -0.012482 0.009268 0.008913 -0.011886 -0.003028 0.014383 -0.442034
can’t -0.057916 0.059822 0.043444 0.008980 -0.051522 -0.019743 0.033074 0.017547 -0.043661 0.043780 0.059469 0.002199 -0.002618 -0.009195 0.018242 0.026048 0.004670 0.022782 0.013068 0.006432 -0.209841
certain 0.003395 -0.051558 -0.021675 0.015634 0.025598 -0.056838 -0.021273 0.053443 0.031749 0.032392 0.031903 0.107690 0.004320 0.015313 -0.057858 0.027628 0.102854 0.070700 -0.095281 -0.018516 0.063820
classroom -0.035613 -0.031591 0.136728 0.086548 0.000331 -0.083687 0.000879 -0.075964 0.160581 -0.085353 -0.144064 -0.012505 -0.006518 0.090163 -0.099741 -0.117253 -0.019370 -0.077458 -0.121313 0.055217 -0.244937
easi -0.026493 0.089695 0.024491 -0.004458 -0.023185 -0.002809 0.041455 -0.008434 -0.036928 -0.016886 0.020458 -0.040078 -0.007045 -0.037972 0.004932 0.011510 -0.058438 0.016805 0.107427 0.013046 -0.378696
educ -0.019122 -0.025885 -0.000483 0.038754 0.002398 0.025651 -0.004243 0.014227 0.002310 -0.021221 -0.047650 -0.016821 -0.003843 0.019006 -0.009140 -0.008392 -0.039209 -0.034102 0.001939 0.048734 -0.348425
ever 0.004963 0.043836 -0.037108 -0.087306 0.001300 0.046283 0.011248 -0.010774 -0.014805 -0.015063 0.056021 -0.041703 0.049816 0.016660 0.119699 0.043322 -0.040694 0.003048 0.063381 -0.069195 -0.488736
fact -0.069494 0.035044 -0.045057 0.010125 -0.050060 -0.014911 -0.009714 0.028844 -0.042731 -0.054883 -0.009353 -0.089218 0.100318 -0.054233 0.110842 0.003852 -0.105137 0.000166 0.118396 -0.057618 -0.587260
found -0.001543 0.097496 -0.024223 0.022933 0.000446 0.043475 0.069993 0.004416 -0.033919 -0.011614 0.012082 -0.122575 -0.019051 -0.048327 -0.008490 -0.002903 -0.049941 0.025308 0.123981 0.063893 -0.571243
hard -0.032293 -0.049203 -0.043363 0.025464 -0.024750 -0.002294 0.021688 0.012355 0.044878 0.058736 -0.069020 -0.010446 0.023803 0.021679 -0.000166 -0.014558 -0.021882 -0.026325 -0.048005 0.041587 -0.288196
level 0.005650 -0.039281 0.105149 0.061024 0.022929 -0.037011 -0.054507 -0.053769 0.084469 -0.018535 -0.117727 0.117619 0.000417 0.072477 -0.152965 -0.067285 0.039344 -0.007754 -0.223128 0.016618 -0.173757
librari -0.012687 0.039090 0.006810 -0.040412 0.000146 -0.002957 0.030005 0.007283 -0.057650 0.027672 0.008224 0.014844 -0.008664 -0.012825 0.001336 0.010000 0.026393 0.041232 0.059975 0.016148 -0.683265
littl 0.012791 -0.056084 -0.042367 0.074154 0.055654 -0.015853 0.034745 -0.010374 0.003107 -0.023641 -0.057830 0.014214 0.009167 -0.056320 0.059630 -0.038420 0.012097 0.011641 -0.025372 0.010707 -0.420511
new -0.049599 -0.031798 0.093539 0.012633 -0.056686 -0.040391 -0.009415 -0.021110 0.122689 -0.037416 -0.026386 0.018960 -0.005068 0.070095 -0.043940 -0.079091 -0.043877 -0.089112 -0.083095 0.050490 -0.441476
prepar 0.051345 0.003871 -0.167532 -0.084419 0.005427 0.059281 0.054835 0.067415 -0.156003 0.036177 0.015706 -0.081401 -0.052080 -0.066255 0.010075 0.101906 0.017607 0.090236 0.081021 -0.042828 -0.530190
put -0.028729 0.068512 0.087337 0.053229 -0.024201 -0.030045 -0.004918 0.065155 0.013161 0.039756 -0.010796 -0.077055 0.002334 -0.022143 -0.123839 0.000736 -0.054024 0.057465 -0.032924 0.020325 -0.288691
say 0.009840 0.072520 0.025277 -0.048509 -0.005098 -0.030103 0.076292 0.041773 0.004821 -0.036744 0.052021 -0.089834 0.036074 -0.029551 0.019688 -0.016629 -0.081815 0.018889 0.070551 0.004129 -0.483514
self 0.003727 -0.074502 0.044863 0.059045 -0.001473 -0.041531 -0.010570 0.024027 0.021940 0.032453 -0.033995 0.093723 -0.005691 0.050858 -0.062080 0.026740 0.026643 0.009703 -0.128435 0.004894 -0.328751
session 0.061227 0.010043 -0.086841 0.002668 0.013842 0.019273 0.013538 0.025872 -0.080145 0.038701 -0.007448 -0.012038 -0.028734 -0.033910 0.007660 0.041260 0.044849 0.049604 -0.027446 -0.006066 -0.514712
sleep -0.015219 -0.051219 0.013288 0.011001 -0.030286 0.015874 -0.019939 -0.016114 0.005924 0.035463 0.009706 0.033591 -0.026450 0.044817 0.007536 0.008249 0.038669 -0.027177 -0.063826 -0.043936 -0.424340
technolog -0.040941 -0.075104 0.087365 0.079571 -0.028711 -0.006665 0.013138 -0.032933 0.096709 -0.008364 -0.065178 0.049258 0.006423 0.013145 -0.035173 -0.077850 0.023521 -0.047931 -0.095766 0.108289 -0.259812
u 0.017028 -0.027281 -0.031809 -0.035635 0.054078 0.023664 -0.032001 -0.013496 0.006487 -0.030643 -0.022784 0.015361 0.036123 0.002315 0.026426 -0.056097 -0.038552 -0.042672 -0.037059 0.016311 0.157900
wake -0.053192 -0.057354 0.107296 0.054596 -0.019451 -0.049115 -0.047620 -0.074306 0.125154 -0.054460 -0.154541 0.038141 0.001510 0.058017 -0.095639 -0.085194 -0.045674 -0.011498 -0.167381 0.047187 -0.204419
3 -0.029993 -0.003852 0.048224 -0.129967 -0.093824 -0.067715 -0.168234 -0.074078 0.089650 -0.013290 0.018683 0.203651 -0.011651 0.149040 -0.160948 -0.035745 0.068411 -0.152125 -0.346740 -0.148132 -0.191634
alway -0.005708 0.077949 0.058164 -0.009870 -0.003049 -0.035171 0.039195 -0.031584 0.055446 -0.018258 -0.053213 -0.042288 0.011168 0.044737 -0.038006 -0.036094 -0.053839 -0.025243 -0.055697 0.013404 -0.505642
bad 0.008770 -0.032603 0.072028 0.015555 -0.027125 -0.009460 -0.039159 -0.013925 0.062912 -0.047594 -0.025925 0.030523 -0.007099 0.051483 -0.089640 -0.013320 0.051776 -0.025433 -0.138094 0.012813 -0.286758
base -0.023692 -0.030996 0.231763 0.066548 -0.033666 -0.072404 -0.075298 -0.074501 0.166269 -0.066088 -0.145903 0.031333 0.016491 0.115328 -0.157161 -0.134726 -0.060789 -0.041574 -0.208793 0.069018 -0.166007
bu 0.028950 -0.001117 0.006241 -0.057544 -0.036503 -0.053020 -0.030880 0.035126 0.025753 -0.004481 -0.016883 0.050799 -0.005753 0.081390 -0.122193 -0.015179 0.045787 -0.053563 -0.152148 -0.043534 -0.294310
chanc -0.031396 0.010567 -0.091170 -0.105066 0.016747 0.020474 -0.003975 -0.023775 -0.065530 -0.013095 0.014695 0.000294 0.006175 0.026083 0.041037 -0.015814 -0.015505 -0.027805 0.010002 -0.002570 -0.432015
chang -0.004633 0.008447 0.023608 0.063342 0.003660 -0.027972 -0.010444 0.029302 0.063347 -0.010413 -0.014761 -0.049738 0.006992 -0.026360 -0.008219 -0.009822 -0.029602 0.003162 -0.004089 -0.002991 -0.532218
drive 0.005247 -0.036461 -0.079438 -0.027273 0.008883 0.006325 -0.025371 0.043886 -0.080021 0.069196 0.101341 0.031847 -0.078340 -0.014474 0.055593 0.137513 0.064558 0.030443 0.023892 -0.061255 -0.601114
effect 0.004071 -0.086892 -0.069128 -0.027853 0.002279 0.012900 -0.008646 0.008395 -0.037040 0.038696 0.014672 0.073370 -0.052129 0.003451 0.017994 0.053554 0.071450 0.017810 -0.050224 -0.021586 -0.401663
email -0.032844 -0.033824 0.158605 0.063215 -0.046652 -0.073190 -0.040713 0.004210 0.066740 -0.035297 -0.032536 0.054332 0.006958 0.056131 -0.018054 -0.011609 -0.025534 0.000436 -0.090405 -0.006744 -0.380952
energi 0.004180 -0.093235 -0.024463 0.018957 0.012567 0.008137 -0.022896 0.045398 0.010088 0.047498 0.008190 0.071971 0.010309 0.023599 -0.004809 -0.012533 0.105107 0.045299 -0.113910 -0.039891 -0.453043
especi -0.009219 0.042993 0.040647 0.013486 -0.022545 0.009644 0.015429 0.045598 0.002125 -0.025080 -0.024578 -0.083248 -0.004632 -0.007130 -0.006279 -0.050367 -0.015025 0.025825 0.073533 0.013901 -0.388181
extra 0.006407 -0.015516 -0.129053 -0.057337 -0.023072 -0.007909 -0.050901 0.063960 -0.069963 0.040031 0.029061 0.056496 -0.014202 -0.006509 -0.041279 0.100354 0.067096 0.013645 -0.039678 -0.057459 -0.461931
face -0.023740 0.048279 0.056708 0.059690 0.019103 0.003729 0.000005 0.053455 0.028820 -0.007206 0.014562 -0.013824 0.062986 -0.075491 -0.018226 0.008145 0.028012 0.044149 0.044689 0.029137 -0.101205
harder -0.036441 0.070354 -0.004791 0.009671 0.059577 0.035689 0.061523 -0.040091 0.034439 -0.014035 -0.024968 -0.069416 -0.019624 -0.004605 -0.001466 -0.012876 -0.028744 0.011751 0.072900 0.022345 -0.563195
high -0.061719 -0.004395 0.171087 0.056628 -0.023780 -0.039876 -0.042218 0.008682 0.082766 -0.015588 -0.070232 0.000594 0.007732 0.097662 -0.136895 -0.102223 -0.014248 -0.033256 -0.160287 0.059241 -0.235750
huge -0.013587 -0.066073 -0.000910 -0.005781 0.031370 -0.061164 -0.051998 0.016477 0.023516 0.014003 -0.031592 0.101093 0.006235 0.022475 -0.007938 -0.036836 0.047587 0.020046 -0.144477 -0.039926 -0.323360
id -0.000423 0.035868 0.014405 -0.017797 0.018707 0.028577 0.058351 0.000711 0.012532 -0.024678 0.025140 -0.077622 0.036652 -0.046271 0.042716 0.011275 -0.007181 0.000058 0.107581 -0.014628 -0.378386
learner 0.002556 0.033183 0.018575 -0.066132 -0.024942 0.002235 0.044038 0.061830 -0.056214 -0.004837 -0.011208 -0.046436 0.033699 -0.001460 -0.017012 -0.034681 0.000594 0.070267 0.080823 0.038254 -0.376773
least -0.014514 -0.019473 -0.068288 -0.074491 -0.014447 0.023202 -0.048646 0.010462 0.033406 -0.054361 0.047197 0.032951 0.039010 0.019374 0.035175 -0.012328 -0.023533 -0.042082 0.005397 -0.025958 -0.345141
long 0.024066 -0.041561 -0.042801 -0.042331 -0.027474 -0.001643 -0.078900 -0.010975 -0.000689 0.016757 -0.039552 0.113470 -0.038777 0.082379 0.001596 -0.043997 0.039291 -0.017301 -0.172037 -0.156932 -0.164724
made -0.055386 0.007257 0.158983 0.055935 -0.008165 -0.032216 -0.036204 -0.034232 0.120597 -0.024202 -0.132368 0.004966 0.014720 0.084858 -0.093558 -0.094361 -0.055158 -0.062646 -0.158892 0.084205 -0.236065
nice -0.017090 0.114177 0.022060 0.035298 0.001388 -0.024487 0.075899 0.007304 -0.049646 -0.003089 0.023211 -0.096957 0.003117 -0.051541 -0.034397 0.014070 -0.058940 0.036952 0.099434 0.075902 -0.562459
outsid 0.017343 0.024701 -0.114657 -0.044028 -0.018210 0.015619 0.004462 0.058289 -0.126991 0.021132 0.056188 -0.007721 -0.045063 -0.021127 0.044547 0.117630 0.069932 0.038626 0.048097 -0.124223 -0.571526
pay -0.043864 0.002641 0.205628 0.078882 -0.016457 -0.092010 0.008211 -0.041087 0.133928 -0.042598 -0.142980 0.084776 0.014012 0.138460 -0.139994 -0.113505 0.053893 -0.130870 -0.191764 0.002137 -0.227614
properli -0.013878 -0.028467 0.071373 0.037832 -0.014012 -0.003968 -0.008456 -0.002102 0.027915 -0.001638 -0.055029 0.016776 -0.054921 0.020382 -0.023541 0.013459 0.009070 -0.032658 -0.064933 0.002168 -0.354984
shi -0.000791 -0.008779 0.037158 0.043264 0.001274 -0.057764 -0.038262 -0.049065 0.071142 0.007069 -0.003993 -0.004418 0.014201 -0.013816 -0.046128 -0.042063 0.017586 0.010881 -0.052523 0.030864 -0.342902
therefor 0.002569 -0.004117 -0.010709 0.026342 0.019320 0.014177 0.029775 -0.001753 0.001177 -0.003932 -0.008695 -0.067604 -0.002045 -0.021316 0.006601 -0.006516 -0.027267 0.059717 0.069033 0.016426 -0.526746
timet -0.004966 0.031675 0.053351 0.012915 -0.017242 -0.026577 0.026529 -0.003544 0.023833 -0.033397 -0.016518 -0.046336 -0.032790 0.012117 0.003962 -0.044482 -0.019753 -0.006991 -0.017208 0.000232 -0.359859
two 0.025202 0.057080 0.058062 0.004814 0.005204 -0.005771 -0.022922 -0.058952 0.057311 -0.004344 -0.003753 0.010018 0.034158 0.005592 -0.071423 -0.002376 -0.021954 0.006755 -0.063525 0.024360 -0.179880
upload -0.000890 0.012388 0.055505 0.017090 -0.052276 0.000135 -0.010317 0.075299 -0.032028 0.005908 0.035723 0.013208 0.009039 0.022246 -0.066382 0.035683 0.040626 0.048494 0.019577 0.043436 -0.336527
write 0.013525 -0.052362 0.063191 0.053008 -0.013972 -0.011083 -0.031564 0.005639 0.051201 -0.024776 -0.035881 -0.038196 -0.025679 0.008159 -0.040400 0.000933 0.025144 -0.032858 -0.047411 0.067654 -0.378759
year -0.025894 -0.029079 0.087311 0.070988 -0.035993 -0.073887 0.017693 0.020054 0.065032 -0.036391 -0.062812 0.011348 0.047330 0.023223 0.004860 -0.057166 -0.037250 -0.090024 -0.061133 0.052136 -0.125338
almost -0.062367 -0.041644 0.173173 0.054438 0.004093 -0.076349 -0.051940 -0.051266 0.156102 -0.028293 -0.128175 0.069188 0.040852 0.097933 -0.107083 -0.111386 -0.053862 -0.092181 -0.193970 0.007958 -0.434324
anywher -0.031739 -0.030114 0.027434 0.006094 -0.019260 -0.036673 -0.024414 0.015846 0.006459 -0.018784 -0.038876 0.040826 -0.021505 0.021363 -0.085435 -0.019880 0.007781 0.003956 -0.076432 0.022711 -0.357444
avail 0.016045 -0.006559 -0.130947 0.016990 0.003089 0.036609 -0.001700 0.096604 -0.044921 0.031832 0.000126 0.070127 -0.027925 -0.038348 -0.029815 0.070820 0.077486 0.049494 -0.015346 -0.061217 -0.620719
awkward -0.005865 -0.066478 0.028236 0.050957 0.040959 -0.003559 -0.018541 -0.031829 0.030996 0.009258 0.000341 0.032967 -0.032493 -0.031015 0.071237 -0.066352 -0.035092 0.005582 0.040959 0.065596 -0.241997
behind -0.003000 -0.027370 0.131088 0.064047 0.000153 -0.087595 -0.054737 -0.061522 0.120132 -0.009421 -0.102589 0.036060 0.016554 0.075696 -0.095929 -0.040982 0.026894 -0.043487 -0.199905 0.057299 -0.189403
case 0.013344 0.089469 0.023831 0.001068 0.012242 0.017281 0.027253 0.005182 0.009688 -0.000582 0.019394 -0.025691 0.015074 -0.040152 -0.018076 0.002569 0.001792 0.051351 0.065202 0.044331 -0.487823
commun -0.033056 0.003489 0.101682 0.043692 0.008957 -0.046674 -0.019647 -0.027507 0.104176 -0.059958 -0.106454 -0.022944 0.008814 0.073011 -0.041961 -0.073475 -0.014552 -0.060419 -0.088301 0.083037 -0.349495
compar -0.024001 -0.005659 0.017710 0.013532 0.039249 -0.026323 0.001025 -0.019492 0.017616 0.009129 -0.048860 0.065580 -0.034474 0.042000 -0.038140 0.015749 0.036670 0.003834 -0.035102 -0.006551 -0.310180
contribut -0.015732 0.021340 0.036727 0.036519 0.026691 0.011187 0.042127 0.027413 0.028473 -0.022219 0.012072 -0.027230 -0.011335 -0.017502 -0.002643 0.015040 0.006176 0.030729 0.006755 -0.028054 -0.344436
creativ 0.002140 -0.025652 -0.056906 -0.008030 0.038824 0.066715 0.022202 -0.046301 -0.012165 0.033333 0.001103 0.047073 -0.003296 0.012413 0.030757 0.070786 0.036210 -0.050719 0.075071 -0.023979 -0.089054
disciplin -0.004043 0.014946 0.116757 0.019194 0.019139 0.002051 -0.013131 -0.022413 0.089649 -0.001265 -0.049373 -0.013636 0.022704 0.051376 0.035386 -0.049463 -0.023567 -0.021839 -0.013814 0.048659 -0.212768
effort -0.038534 0.114496 0.051891 -0.038761 0.019296 -0.006448 0.017325 -0.050346 0.057204 0.036368 0.022516 -0.023032 0.028778 0.023342 -0.002532 0.014597 -0.036689 -0.058316 -0.013292 -0.006784 -0.233182
end -0.023922 0.001516 0.003697 -0.023100 -0.015470 -0.008581 0.011404 -0.022103 0.053048 0.004009 -0.045873 0.049908 0.006984 0.020690 -0.026348 0.002434 0.000951 -0.015060 -0.086074 0.022825 -0.576563
exam -0.025274 0.005652 0.079429 0.066141 -0.040712 -0.048016 0.021789 0.007754 0.016354 -0.015624 -0.039205 -0.023113 -0.013745 0.042473 -0.082175 -0.007374 0.010723 -0.026891 -0.054143 0.014572 0.019937
first -0.004089 0.004782 -0.098264 -0.022961 0.012454 0.038612 0.001464 0.042525 -0.088455 0.034096 -0.005639 -0.038754 -0.001366 -0.046639 0.008017 0.050495 0.008140 0.043032 0.111852 -0.019221 -0.426918
fit 0.020568 -0.009512 0.019630 0.020590 -0.001668 0.005335 -0.012816 -0.035856 0.013392 -0.005886 -0.015315 0.005789 0.001106 0.026477 0.022411 -0.016377 -0.028627 -0.050101 -0.019512 0.020235 -0.484007
fulli -0.023077 -0.007838 0.144702 -0.004019 -0.001861 -0.058117 -0.048695 -0.049350 0.120557 0.001324 -0.065340 0.041217 0.034180 0.088854 -0.080692 -0.055914 0.032811 -0.009687 -0.110828 0.021803 -0.331254
grade -0.066964 -0.033770 0.082594 0.011195 -0.026541 -0.044735 -0.021457 -0.079856 0.074519 -0.015614 -0.064554 -0.007165 -0.000028 0.020630 -0.052684 -0.062141 -0.049337 -0.088457 -0.047745 0.043562 -0.450036
hand 0.008231 0.033688 0.021392 -0.014399 -0.001755 -0.052108 0.023154 -0.021859 -0.003045 -0.019519 -0.065342 -0.014885 -0.005469 0.062419 -0.025928 -0.037003 -0.033403 -0.047511 -0.041804 0.062578 -0.451573
ideal -0.010086 0.046375 -0.012581 -0.030356 0.003761 -0.010981 0.041423 -0.001873 -0.015878 -0.032707 0.022089 -0.057015 0.073217 -0.008806 -0.072860 -0.043588 -0.075130 0.071656 0.063301 0.050648 -0.343092
ill -0.000971 0.071221 0.095415 0.022089 0.025020 -0.035744 0.011763 0.059732 0.056763 -0.003699 -0.083673 -0.090864 0.052322 -0.046127 -0.067241 -0.070998 -0.055079 0.009176 0.075519 0.086988 -0.452869
isnt 0.010619 -0.067896 0.074493 0.026818 -0.013610 -0.036980 -0.053630 0.035090 0.066731 -0.003180 -0.075868 0.068771 -0.001570 0.088452 -0.067663 -0.008974 0.021202 -0.067409 -0.143378 -0.003315 -0.417766
ive -0.057366 0.075038 0.017130 0.054447 -0.003737 0.007719 0.044530 0.010996 0.015486 -0.015309 0.005939 -0.074089 -0.006535 -0.017036 -0.017065 0.062531 -0.002615 0.002469 0.052068 0.008623 -0.387134
kind 0.006267 -0.039912 -0.031490 0.006642 -0.042702 0.004128 -0.007510 0.021058 0.010690 -0.013637 0.010426 0.001581 -0.009267 -0.005167 -0.041879 -0.028394 0.011632 -0.024568 -0.035082 -0.031612 -0.354301
lab 0.012459 -0.001912 0.009533 -0.011754 -0.013603 -0.030720 -0.003399 0.009316 0.023344 -0.013710 -0.001312 0.007204 0.023462 -0.011161 0.009640 -0.031399 -0.034292 0.026457 -0.000598 0.015613 -0.454508
larg -0.044646 -0.000420 0.091172 0.024607 -0.049122 -0.032846 0.015516 0.050070 0.058425 -0.038925 -0.013649 0.023696 0.053118 0.053804 -0.051564 -0.013540 0.033337 0.010956 -0.066058 0.033504 -0.343690
locat -0.000466 -0.049590 0.026686 -0.004856 -0.004299 -0.005003 0.008173 -0.057814 0.020502 -0.002782 -0.008236 0.027727 0.014563 0.026973 0.001787 -0.030399 0.010199 -0.052588 -0.060412 -0.013306 -0.347058
look -0.032594 0.014310 0.120560 0.067340 -0.021088 -0.062528 -0.050867 -0.073272 0.165998 -0.041116 -0.155051 0.073042 0.022024 0.125450 -0.112775 -0.085024 0.015176 -0.049711 -0.166775 0.067766 -0.306808
other -0.042587 0.011064 0.068922 -0.008248 0.007047 -0.011581 -0.013785 -0.042901 0.046357 -0.003063 -0.077089 -0.024912 0.030272 0.053215 -0.059597 -0.057763 -0.037139 -0.020474 -0.077653 0.031736 -0.451397
overwhelm -0.020782 -0.001708 0.081177 0.052521 -0.014817 -0.014667 0.001023 -0.024686 0.057324 -0.027948 0.006103 0.023407 0.015140 0.003767 -0.050655 -0.035387 0.002876 -0.019381 -0.072546 0.027989 -0.500689
physic 0.004925 0.006125 0.048679 0.028717 -0.013743 -0.017513 0.015078 -0.011999 0.046999 -0.025873 -0.026242 0.004545 0.001637 0.039760 -0.012624 -0.032224 -0.013083 -0.011927 -0.035082 -0.002810 -0.319995
point 0.009289 -0.066686 0.049709 0.069199 -0.004101 -0.023608 -0.006277 -0.021855 0.109364 -0.009492 -0.078587 0.058726 0.014803 0.066861 -0.099845 -0.093126 0.014715 -0.034658 -0.169720 0.070904 -0.513304
process -0.041801 0.009297 0.095802 -0.026044 -0.007124 -0.023038 -0.000635 -0.061366 0.078460 0.001525 -0.014252 -0.013546 0.006848 0.069657 -0.052849 -0.043258 -0.041944 -0.080802 -0.037200 0.029696 -0.329445
qualiti -0.037828 -0.024879 0.079553 0.068038 -0.011994 -0.018729 -0.015484 -0.039712 0.096343 -0.015615 -0.112645 0.013576 0.030592 0.054260 -0.088132 -0.075248 -0.010150 -0.043437 -0.114635 0.039451 -0.239488
quit -0.027304 0.038113 0.141956 0.067644 -0.004910 -0.015943 0.004818 -0.010951 0.116262 -0.015538 -0.052587 0.019114 -0.001647 0.051956 -0.075909 -0.084696 -0.043933 -0.036731 -0.132835 0.080288 -0.377417
requir -0.002819 0.002475 0.013826 0.030047 0.025246 -0.007276 0.019374 -0.075494 0.075842 0.008175 -0.041314 0.030954 -0.013691 0.044567 -0.011084 -0.038536 0.004869 -0.055597 -0.069198 0.045338 -0.367626
right -0.012903 0.014759 0.092381 0.035683 0.018532 -0.025372 -0.004841 -0.055654 0.039956 -0.018729 -0.027967 0.001869 0.032022 0.021383 -0.087801 -0.062437 0.022006 -0.034200 -0.063783 0.032601 -0.298184
said -0.033178 0.003735 0.042915 -0.016362 -0.034739 -0.043112 0.010965 0.010556 0.031085 -0.026157 -0.024133 0.006762 0.010091 0.023684 -0.082043 -0.046716 -0.001304 -0.006973 -0.064409 -0.043390 -0.632465
seem -0.029264 -0.011049 0.079083 0.067259 -0.023159 -0.049539 -0.030721 -0.050719 0.067051 0.022197 -0.062170 0.035171 -0.001268 0.059236 -0.018742 -0.059426 -0.011038 -0.028836 -0.066059 0.052583 -0.409512
seminar -0.001687 0.079390 -0.014218 -0.050373 0.025212 0.036690 0.037269 0.044573 -0.028865 0.006357 0.048743 -0.154218 0.034473 -0.067527 0.045569 -0.022619 -0.067568 0.038264 0.163679 0.029429 -0.323962
sit -0.014444 0.003198 0.100238 0.048788 -0.017081 -0.050587 0.007851 -0.013938 0.073430 -0.059410 -0.036284 -0.031144 0.040259 0.010043 -0.009650 -0.033228 -0.034259 -0.052313 -0.003647 0.035389 -0.420190
there’ 0.015045 -0.104698 -0.003307 -0.000261 0.008902 -0.036894 -0.050264 -0.015653 0.000721 -0.009284 0.002127 0.035219 0.008933 -0.041630 0.063689 -0.007873 0.035562 -0.014234 -0.008365 -0.026328 -0.573781
tire 0.008015 -0.010635 0.082190 0.015685 0.010398 -0.015202 -0.028376 -0.014926 0.048430 0.006434 -0.051662 0.009893 0.002164 0.055748 -0.058956 -0.027962 0.000332 -0.003564 -0.075918 0.060969 -0.540377
wait -0.056153 0.003786 0.156436 0.053678 -0.046866 -0.084616 -0.037546 -0.015267 0.142341 -0.020335 -0.066545 0.028372 0.012545 0.091545 -0.119414 -0.067497 -0.014293 -0.083192 -0.191777 0.039775 -0.326826
whilst -0.004446 0.045638 -0.032122 -0.022405 0.030314 -0.004068 -0.030969 0.005791 -0.008071 -0.033400 0.023012 -0.021907 0.027723 0.003132 -0.033477 -0.014841 -0.012347 -0.027048 0.004471 0.045224 -0.308149
1 -0.047795 0.033668 0.079860 -0.003806 -0.036057 -0.048559 -0.009987 -0.023705 0.067636 -0.033760 -0.002432 -0.003852 -0.016302 0.045855 -0.096135 -0.062355 -0.010049 -0.048087 -0.118944 -0.033057 -0.298800
4 -0.035711 -0.001735 0.050066 -0.001175 -0.016900 -0.029265 -0.000479 -0.027794 0.064579 -0.004169 -0.041383 0.023575 0.013907 0.045139 -0.079388 -0.017742 -0.027562 -0.088422 -0.088196 0.039103 -0.267724
7 -0.022868 0.002115 0.098470 0.009802 -0.014894 -0.043231 -0.030082 -0.067474 0.139605 -0.015104 -0.068356 0.043767 0.038370 0.071927 -0.070186 -0.075121 0.019159 -0.072632 -0.167331 0.008360 -0.287237
alon 0.017621 -0.097814 -0.008462 0.008511 0.014897 0.004333 0.003974 -0.036564 0.007385 0.000194 -0.016444 0.026293 -0.039150 -0.005847 0.063077 -0.005573 0.022696 -0.023756 0.023732 -0.026557 -0.559454
arrang -0.007408 -0.001321 0.111553 0.005386 0.023655 -0.038466 -0.019822 -0.063211 0.108831 -0.008873 -0.065769 0.006028 0.018625 0.091309 -0.043046 -0.080390 -0.035383 -0.088380 -0.127120 0.037547 -0.353393
balanc 0.013277 0.020665 -0.025177 -0.021461 0.005459 -0.018146 0.036043 0.000505 0.004381 0.011438 -0.025251 -0.018534 0.010339 -0.002171 -0.025116 0.008978 -0.003937 -0.004273 -0.008564 0.027080 -0.442087
believ -0.012225 0.039085 0.022135 -0.011932 -0.022028 -0.003182 0.003105 0.018917 0.005645 0.049509 -0.038710 0.021113 0.000767 0.037284 -0.007416 -0.014276 -0.006250 0.023581 -0.045478 0.042295 -0.596548
benefici -0.015937 0.098050 0.023415 -0.024206 -0.044776 -0.011203 0.055432 0.030925 -0.024187 -0.005249 0.070568 -0.078840 0.022406 -0.056872 -0.059459 0.024426 -0.044160 0.039623 0.039373 0.006794 -0.408792
cant -0.010941 0.011126 0.062261 -0.005451 0.003140 -0.028821 -0.017700 -0.028557 0.073972 -0.006535 -0.063113 -0.015367 0.012475 0.045762 -0.011879 -0.015309 0.000399 -0.036745 -0.061352 0.042000 -0.598753
citi -0.022720 -0.013293 0.069203 0.054018 0.017329 -0.011921 -0.001414 -0.050041 0.064916 -0.017128 -0.065150 0.026044 -0.005345 0.009381 -0.058127 -0.041725 -0.047883 -0.027736 -0.043587 0.078309 -0.536436
collabor -0.024601 -0.026320 0.149807 0.073199 -0.045278 -0.067728 -0.022903 -0.033241 0.117598 -0.048587 -0.090729 -0.004878 0.050135 0.055690 -0.073710 -0.088796 -0.030878 -0.057291 -0.100190 0.064274 -0.252631
comput 0.010821 -0.038773 0.094468 0.021113 -0.001206 -0.010886 -0.018767 -0.016613 0.059558 -0.031831 -0.030505 0.040114 -0.005735 0.041907 -0.013507 -0.021273 0.023461 -0.032064 -0.053938 0.040914 -0.453514
consid -0.042007 -0.029716 0.098807 0.031670 -0.020871 -0.020880 -0.016413 -0.019094 0.091837 -0.005898 -0.053445 0.020114 0.030861 0.042211 -0.109841 -0.038676 -0.033927 -0.020505 -0.084205 0.016551 -0.614595
consum 0.063633 -0.071380 -0.166000 -0.018015 -0.024335 0.004404 -0.045284 0.068760 -0.099949 0.059903 0.072768 0.132316 -0.028791 -0.069591 0.092810 0.121800 0.119432 0.072155 0.038594 -0.122527 -0.357679
countri -0.004487 -0.002012 0.000680 0.005624 -0.004729 -0.005326 -0.034405 -0.000796 0.020713 0.021072 -0.020005 0.047771 0.004270 0.038699 0.013994 -0.026826 -0.006071 0.016595 -0.050891 0.008296 -0.195042
crowd -0.025792 -0.024314 0.014636 -0.008905 0.018248 -0.032404 0.017426 -0.028394 0.040410 -0.013540 -0.007354 0.022232 0.017725 0.018235 -0.039996 -0.010389 0.043948 0.021807 -0.028875 0.008065 -0.571858
decid -0.002904 -0.006054 0.058422 -0.030809 0.021677 -0.012514 0.022932 -0.013033 0.038603 -0.025799 -0.060096 -0.014886 0.009382 0.038382 -0.048370 -0.042434 -0.060585 -0.012733 -0.075290 0.037385 -0.458092
depend -0.023930 -0.031433 0.140470 0.053946 -0.021542 -0.045432 -0.000042 -0.043948 0.123778 -0.046417 -0.048059 0.046379 0.037603 0.058379 -0.090299 -0.067428 -0.014077 -0.050214 -0.100433 0.078308 -0.484242
desk 0.003658 -0.078365 0.016966 0.076005 0.043836 0.012375 0.024122 -0.041464 0.055749 -0.031800 -0.098244 -0.025957 0.005336 -0.007824 0.000332 -0.041138 -0.041978 -0.061655 -0.059233 0.123734 -0.524806
didn’t -0.023730 -0.045574 0.099103 0.007717 -0.030954 -0.023819 -0.039595 -0.039736 0.072362 0.000461 -0.085913 0.061606 0.026778 0.017325 0.009624 -0.040262 0.012076 -0.061907 -0.090830 -0.004183 -0.268196
disabl -0.003462 0.016198 0.003037 0.025660 -0.005848 -0.020369 0.021814 0.016148 0.045635 -0.029627 0.005884 -0.025231 -0.008734 -0.018336 -0.071545 -0.019126 -0.010580 -0.017949 -0.041821 0.016624 -0.510548
eat -0.003137 -0.010843 0.060170 0.027169 0.002280 -0.043929 -0.010971 -0.042101 0.065561 -0.042554 -0.074174 -0.021799 0.042676 0.011709 0.006144 -0.114804 -0.010967 -0.061529 -0.021785 0.078743 -0.411889
either -0.025454 0.015966 0.027703 -0.003236 0.007671 -0.010029 0.022904 0.014454 0.033477 -0.040128 -0.018726 -0.036407 -0.022838 0.003132 -0.018151 -0.025068 -0.023780 -0.033356 0.010831 0.050723 -0.333209
everyon -0.030123 -0.023585 0.072828 0.039326 -0.007940 -0.044291 -0.007524 0.016306 0.071449 -0.009720 -0.059997 0.025029 0.016176 0.063001 -0.072552 -0.030719 -0.017358 0.000879 -0.094011 0.016092 -0.445272
explan -0.003874 -0.010209 0.088723 0.062211 0.002583 -0.035760 -0.000395 -0.046422 0.084309 -0.016504 -0.030924 0.031839 0.001738 0.054792 -0.048396 -0.044679 -0.007023 -0.045697 -0.122039 0.005075 -0.501994
faster -0.045123 0.029851 0.073011 0.020360 0.025524 -0.046406 -0.011590 -0.059028 0.060966 -0.037806 -0.098183 -0.017218 0.019609 0.096899 -0.044160 -0.095889 -0.008081 -0.059526 -0.090762 0.059384 -0.334537
full -0.035300 0.007588 0.092442 0.009843 -0.042457 -0.017117 -0.037406 -0.030596 0.093873 -0.002152 -0.028441 0.041592 0.022130 0.049540 -0.072769 -0.037422 0.029794 0.013276 -0.097051 -0.015568 -0.550790
got -0.013895 0.002139 0.026643 -0.006896 -0.000990 0.003637 0.014951 0.023962 -0.006978 0.013824 -0.004709 -0.079390 0.000793 -0.034597 0.018391 -0.001523 -0.062025 0.040574 0.053630 0.009680 -0.476505
hall 0.010564 0.002959 0.022582 0.026896 -0.057306 0.006604 0.012368 0.075506 -0.049353 0.018107 0.130931 0.047119 0.021209 -0.017104 -0.143912 0.053642 0.102646 0.114191 0.029767 -0.040259 -0.570838
hobbi 0.009776 -0.017459 0.033140 0.011148 0.013334 -0.019433 -0.039620 0.031447 0.037370 -0.009415 -0.011966 0.054809 0.029411 0.056894 -0.081819 0.005783 0.036955 0.009671 -0.139276 0.015082 -0.125135
i’d 0.007607 0.047848 -0.079487 0.029651 0.028210 0.043196 0.077030 -0.017337 -0.012233 -0.012449 0.035631 -0.131947 0.018220 -0.107777 0.115693 0.017757 -0.044542 0.020887 0.128142 -0.007889 -0.661605
idea -0.013518 -0.021122 0.013176 0.009852 0.006221 0.007373 0.001588 0.018133 0.025592 -0.045153 -0.016627 -0.038327 0.009271 -0.029021 -0.016188 -0.043141 -0.027290 -0.007483 -0.005105 0.004505 -0.540435
import -0.016546 -0.055648 0.047515 0.047314 -0.018261 -0.033406 -0.035488 -0.035290 0.068022 -0.015520 -0.062014 0.051544 -0.005465 0.052261 -0.064676 -0.030343 0.010865 -0.035376 -0.097938 0.022110 -0.424345
individu -0.028057 0.018605 0.036222 -0.005256 0.033719 -0.029752 0.026395 -0.041154 0.077127 -0.049281 -0.097558 -0.006209 0.036652 0.044812 0.004825 -0.052979 -0.043305 -0.060161 -0.079941 0.011101 -0.303110
involv 0.001530 -0.046450 0.020593 0.017493 0.014750 -0.033206 -0.029958 0.019482 -0.036664 0.006767 -0.013985 0.039185 -0.044999 -0.008454 0.034375 0.024426 0.016713 -0.059808 0.007561 0.033975 -0.464872
leav 0.025126 -0.032661 0.053796 0.024438 -0.012297 0.003956 -0.030630 0.009664 0.037259 0.012125 -0.001339 0.040874 -0.015091 0.033279 -0.093078 -0.022351 0.064248 -0.003981 -0.067989 -0.008867 -0.473228
loos -0.002089 -0.028690 -0.086597 -0.045307 0.020262 0.025355 -0.001501 0.040779 -0.084688 0.048932 0.031109 0.082398 -0.012991 0.007668 -0.040353 0.046628 0.020085 0.011257 -0.009402 -0.060018 -0.345745
medicin 0.003823 -0.042112 0.081608 0.039743 -0.003153 -0.038846 0.008256 -0.007950 0.079711 -0.035618 -0.046490 0.023454 0.004604 0.010825 -0.028170 -0.055065 -0.015087 -0.052145 -0.069966 0.023667 -0.598155
method 0.024744 0.013184 -0.024224 -0.048622 -0.025449 0.005715 0.011378 0.022450 -0.023424 -0.000409 0.032802 0.016675 0.045493 0.001284 -0.028626 -0.031641 -0.008251 -0.035635 0.031411 -0.011080 -0.412781
mixtur -0.016206 0.008277 0.067794 -0.005100 0.028090 -0.030832 0.034112 0.007481 0.010904 -0.020696 -0.023054 -0.060551 0.017538 0.003374 -0.048886 -0.059180 -0.043044 0.007348 0.032085 0.059215 -0.370193
moment -0.054966 0.010775 0.129839 0.013706 -0.025275 -0.030924 -0.014985 -0.057079 0.083235 -0.042732 -0.061482 -0.005845 0.062773 0.024116 -0.034550 -0.011865 -0.036206 -0.033997 -0.082466 0.049214 -0.475953
mood -0.005003 -0.050827 0.035754 0.058267 0.014577 -0.022525 -0.025310 -0.040921 0.028193 -0.029830 -0.064183 -0.052887 -0.013277 -0.030571 0.065006 -0.066051 -0.033680 -0.001156 0.015791 0.016373 -0.256950
morn -0.048302 0.000865 0.084162 0.051915 -0.039907 -0.071671 -0.011295 -0.052089 0.121188 -0.058774 -0.115321 0.001328 0.001708 0.024629 -0.070415 -0.046016 -0.058523 -0.010116 -0.085452 0.073603 -0.292657
mostli -0.000327 0.004698 0.064349 -0.009788 0.021898 -0.025371 -0.020830 0.023026 0.026949 -0.017868 -0.028878 -0.004344 0.022243 0.013915 0.002364 -0.034569 -0.011745 0.011379 0.019412 -0.010884 -0.260712
next -0.040085 -0.060726 0.103093 0.037559 -0.033160 -0.070201 -0.032638 -0.054578 0.083291 0.000315 -0.112749 0.054525 0.028801 0.093220 -0.081037 -0.077126 0.022487 -0.039685 -0.193310 0.037760 -0.374294
order -0.052714 -0.006714 0.109733 0.073459 -0.002716 -0.055453 0.009066 -0.044050 0.079812 -0.027593 -0.012731 0.041128 0.041381 0.080364 -0.052302 -0.112052 0.016577 -0.044479 -0.130976 -0.006477 -0.341630
peer 0.022569 -0.009664 0.020881 -0.015820 -0.024088 -0.008246 -0.001460 -0.032990 0.055569 -0.029574 -0.004707 0.005075 0.016784 -0.025488 -0.034260 0.018359 -0.032313 0.009337 0.001631 0.038590 -0.265473
powerpoint -0.057740 -0.022312 0.150818 0.072140 0.005554 -0.060663 -0.049862 -0.026527 0.138457 -0.054087 -0.104688 0.027815 -0.014707 0.084368 -0.099598 -0.097714 -0.040156 -0.047287 -0.201888 0.063429 -0.365916
pre 0.007980 0.070392 0.002636 0.003974 -0.039785 0.047300 0.020509 0.069403 -0.078010 0.000725 0.141656 0.006565 -0.000847 -0.032909 -0.030406 0.034749 0.097926 0.134047 0.184461 -0.008336 -0.431898
problem -0.023394 -0.058951 0.109074 0.068695 -0.003973 -0.058466 -0.044769 -0.046160 0.082409 -0.041818 -0.092199 0.055270 0.022049 0.030751 -0.054432 -0.102053 -0.009077 -0.015695 -0.142864 0.011174 -0.421110
provid -0.009887 0.024889 -0.043631 -0.034265 0.008533 0.020159 0.027333 0.056658 -0.039426 -0.005209 0.055350 -0.043957 0.037407 -0.026231 0.035797 0.055848 -0.029091 0.055740 0.053577 -0.024038 -0.761600
public -0.020262 -0.104181 0.112900 0.025558 -0.027010 -0.045487 -0.037377 -0.021671 0.068127 -0.023718 -0.037744 0.138321 -0.018474 0.077101 -0.136755 -0.017401 0.060805 0.007183 -0.154815 -0.009303 -0.306993
reach -0.049391 0.019019 0.042358 0.009135 -0.035457 0.000828 -0.024631 -0.031814 0.062153 0.018066 -0.003344 -0.015462 0.000020 0.038170 -0.015798 -0.035516 0.015958 -0.033286 -0.025189 0.010079 -0.452497
rush 0.003194 -0.054455 0.103387 0.002282 0.008483 -0.001385 -0.036695 -0.030712 0.092522 -0.005690 -0.028634 0.060113 -0.018404 0.074365 -0.083336 -0.052603 0.007214 -0.039659 -0.113108 0.024194 -0.200456
small 0.016469 -0.021045 0.000788 -0.009052 0.001375 -0.016465 0.003977 -0.035221 0.011810 -0.050825 -0.119631 -0.035447 -0.000626 0.019132 0.001466 -0.070545 -0.067087 -0.077530 -0.025851 0.023564 -0.445954
smaller -0.017504 0.015825 0.028764 0.000993 -0.026919 -0.014737 0.009588 0.017892 0.058493 0.002956 -0.039987 0.013092 0.029355 0.044533 -0.021111 -0.026957 0.011866 -0.016888 -0.078131 0.032295 -0.394313
somehow 0.006711 -0.012279 -0.057539 0.029491 0.013387 0.004811 0.053229 0.036978 -0.011349 -0.006001 0.032475 -0.028936 -0.032147 -0.043431 0.062272 0.062873 -0.014505 0.040795 0.009497 -0.059695 -0.488043
spent 0.028581 -0.078098 -0.113295 0.004571 0.039370 0.027569 -0.011986 0.028797 -0.086009 0.038478 -0.020314 0.080713 -0.045522 -0.029176 -0.018810 0.077879 0.111114 0.070258 -0.027759 -0.097245 -0.630059
suffer 0.012166 -0.027352 0.137742 0.041664 0.037887 -0.049480 -0.003929 -0.062612 0.110541 0.035924 -0.064521 0.043367 -0.027804 0.091303 -0.129156 -0.062735 -0.023000 -0.036391 -0.167039 0.034241 -0.473720
that -0.022184 -0.037401 0.094427 0.009166 -0.005281 -0.039194 -0.045833 -0.013646 0.074974 0.003942 -0.058862 0.010707 0.023760 0.049443 -0.003936 -0.041328 -0.025401 -0.025322 -0.067035 0.015256 -0.370285
thought -0.048049 -0.013746 0.113493 0.031781 -0.032501 -0.023280 -0.034567 -0.031855 0.085290 -0.000451 -0.052073 0.014776 0.025234 0.038683 -0.073025 -0.074535 -0.021003 -0.052730 -0.117526 -0.009576 -0.375256
train -0.001391 -0.021549 0.044051 0.052262 0.030987 -0.041503 -0.023884 -0.057513 0.049792 -0.019104 -0.087160 0.043876 -0.017127 0.092627 -0.066793 -0.039358 0.009781 -0.029391 -0.126197 0.028419 -0.371134
tri -0.035733 0.087301 0.056278 0.010825 0.018339 0.015538 0.027084 0.018874 0.027510 -0.037564 0.002518 -0.033987 0.011491 0.033502 -0.029442 -0.056685 -0.029500 -0.013986 -0.015901 0.006702 -0.583623
wherev 0.001297 0.036473 -0.019803 -0.050667 0.003887 0.030281 0.027619 -0.035597 -0.042271 -0.043340 -0.022302 0.012825 -0.011866 -0.007387 0.004710 -0.007683 -0.028281 -0.021014 0.007942 -0.018633 -0.257130
absolut -0.035422 -0.012819 0.065392 0.046365 0.001974 -0.011103 0.012217 -0.044922 0.043051 -0.029035 -0.030587 -0.006864 0.022978 0.017935 -0.031900 -0.027376 -0.037131 -0.040342 -0.073968 0.046028 -0.396109
adapt 0.012603 -0.001295 0.001236 -0.024454 -0.002041 -0.018924 -0.013939 -0.001289 -0.010311 0.016721 0.015771 0.031407 0.017139 -0.020420 -0.001223 0.016747 0.028964 0.007442 0.000945 0.004289 -0.045181
adjust 0.011095 -0.007999 0.066719 0.037095 0.010609 -0.008179 0.009173 -0.043799 0.034619 0.011536 -0.024525 0.017690 0.005017 0.048269 -0.030105 -0.075023 0.015575 0.000781 -0.061951 0.047748 -0.653195
advanc -0.030336 -0.047420 0.140826 0.060501 -0.000023 -0.065093 -0.011758 -0.047593 0.130926 -0.037663 -0.109261 0.003389 -0.009445 0.045411 -0.080236 -0.059758 -0.032245 -0.027997 -0.114022 0.054751 -0.318496
advantag 0.015770 -0.012684 -0.049228 -0.031965 0.014443 0.002295 0.013504 -0.024516 -0.004624 0.057142 0.011903 0.051035 -0.041405 0.000649 -0.008957 0.029281 0.016063 0.039272 0.003955 -0.001781 -0.598817
alongsid 0.001707 -0.034133 0.080729 -0.019515 0.023078 -0.009804 0.010883 -0.015908 0.071274 0.000446 -0.058626 0.018235 0.015780 0.043515 -0.043391 -0.082642 -0.014856 -0.054821 -0.100963 0.032431 -0.526040
alreadi -0.027898 -0.040711 0.173194 0.100416 0.014159 -0.088839 -0.013315 -0.084222 0.109731 -0.049031 -0.121838 0.032638 0.033546 0.051206 -0.051184 -0.099889 -0.043808 -0.058580 -0.164843 0.065391 -0.103247
anyth -0.036711 -0.023298 0.069226 0.027771 -0.043186 -0.040947 -0.025171 -0.040300 0.107888 -0.008212 -0.054873 0.005337 0.010779 0.047709 -0.054498 -0.035442 -0.013359 -0.033455 -0.124147 0.019970 -0.522099
bodi -0.026818 -0.043110 0.124377 0.033598 -0.016993 -0.017675 -0.018980 -0.025590 0.102407 -0.037385 -0.091522 0.017638 -0.028853 0.067062 -0.056833 -0.045883 -0.010947 -0.071294 -0.094612 0.028804 -0.171731
build 0.002433 -0.011902 0.024839 0.006655 -0.020574 -0.030982 -0.012527 -0.002632 0.015936 0.009469 -0.011861 0.030075 0.031111 0.005922 -0.025454 -0.045937 -0.002927 0.004642 -0.064320 -0.021877 -0.434495
call -0.050685 0.013461 0.115073 0.036766 -0.009694 -0.036091 -0.003676 -0.008766 0.054960 -0.000412 -0.026083 0.010867 0.010575 0.066873 -0.096050 -0.039428 -0.034109 0.010710 -0.091696 0.041120 -0.256323
calm 0.030081 -0.034563 -0.011912 0.024482 0.004318 0.017621 0.019038 -0.017023 0.021771 0.001027 -0.014446 -0.017401 -0.049092 -0.001674 0.073953 -0.001593 -0.006960 -0.002102 0.022305 0.027833 -0.533878
care -0.043828 0.012117 0.072354 -0.025763 0.003550 -0.013746 -0.040500 -0.028580 0.062276 -0.015525 -0.016460 0.022634 0.006117 0.031978 -0.063221 -0.033150 -0.026352 -0.020723 -0.085729 0.026255 -0.549900
catch -0.039066 -0.027410 0.073267 0.003530 -0.010266 -0.046244 -0.027861 -0.054987 0.054867 -0.025400 -0.075567 0.020940 0.028720 0.043712 -0.031663 -0.057812 0.013322 -0.064316 -0.095130 0.016732 -0.295590
caus 0.011333 -0.015555 -0.004863 -0.011378 0.001507 -0.013237 -0.020101 -0.024789 0.017828 -0.019884 -0.023854 0.033325 0.026690 -0.001582 -0.026405 -0.011903 0.030395 -0.048340 -0.033118 0.007266 -0.572910
challeng -0.009797 -0.009846 0.110047 0.042532 0.028855 -0.009758 0.014646 -0.021134 0.039292 -0.056240 -0.072748 0.010792 0.051923 0.030182 -0.049351 -0.048877 -0.010274 0.021742 -0.049116 0.046516 -0.417479
clean -0.040083 -0.022105 0.103261 0.033294 0.002524 -0.032649 0.009274 -0.035465 0.070887 -0.018437 -0.110839 0.027335 0.014205 0.083625 -0.086542 -0.076503 -0.017736 -0.047427 -0.147193 0.020306 -0.392532
close -0.018340 -0.057284 0.045749 0.011022 -0.014213 0.002447 0.002191 -0.012735 0.038768 0.002267 -0.039814 0.057894 -0.008929 0.047406 -0.026683 -0.008920 0.026237 -0.007119 -0.059454 0.038614 -0.371171
club -0.018276 -0.069572 0.034783 0.035852 0.016550 -0.040260 0.004733 -0.020953 0.061751 -0.024643 -0.057638 -0.008025 -0.013690 0.036616 -0.043255 -0.034391 0.005223 0.005161 -0.088882 0.041813 -0.662534
comparison 0.007288 0.039202 0.044202 0.026602 0.024202 -0.001401 0.016795 -0.009420 0.017891 -0.026931 -0.011393 -0.050738 0.010048 -0.006283 -0.004805 -0.035479 -0.070662 -0.006065 -0.005790 0.061315 -0.388866
connect -0.050073 -0.022130 0.100240 0.024477 -0.031752 -0.021611 0.009088 -0.037304 0.117794 -0.026417 -0.095715 0.045848 0.039477 0.067656 -0.089094 -0.050371 0.015759 -0.045952 -0.156487 0.059306 -0.582742
continu -0.001747 0.033674 0.059487 0.013807 -0.006649 -0.000110 0.005769 -0.019100 0.055661 -0.022817 -0.011871 -0.039826 0.044360 0.017240 -0.027300 -0.043648 -0.039894 0.002461 -0.043076 0.007197 -0.495276
cook -0.032329 -0.022143 0.015125 0.019234 -0.020124 -0.058512 -0.011181 0.026028 0.075487 -0.028431 -0.092963 0.045975 0.021220 0.012576 -0.109280 0.007314 0.025329 -0.035419 -0.173716 -0.016796 -0.582997
cost 0.019162 -0.061791 0.010428 0.005794 0.003305 -0.001201 -0.037978 -0.011802 0.005923 -0.005089 0.017915 0.081826 -0.019553 0.027146 -0.071324 -0.000523 0.042742 -0.023910 -0.082788 -0.063735 -0.284030
covid -0.012948 -0.049488 0.062371 0.011180 -0.018395 -0.028518 -0.002115 -0.002680 0.070502 -0.021762 -0.056911 0.048117 -0.010065 0.064355 -0.055763 -0.039968 0.037234 -0.036038 -0.082418 0.006402 -0.537483
creat -0.016490 -0.016423 0.077687 0.059701 0.018060 -0.031453 -0.032000 -0.056393 0.085695 0.009642 -0.096220 0.027443 0.020614 0.052320 -0.053314 -0.068231 -0.017259 -0.022551 -0.106048 0.056454 -0.454419
daili -0.039029 -0.023544 0.126811 0.075634 -0.027087 -0.024315 -0.007895 -0.040912 0.104435 -0.047077 -0.098794 0.031494 0.006390 0.040348 -0.013745 -0.091129 0.001378 -0.042007 -0.112978 0.029579 -0.468655
despit -0.025825 -0.030652 0.021833 0.004321 0.008913 -0.004466 -0.027641 -0.022013 0.041456 -0.038992 -0.000963 0.021844 0.030463 -0.007004 -0.031771 -0.030924 -0.010974 -0.027700 -0.024449 0.042479 -0.770348
disadvantag -0.026403 -0.049459 0.034166 0.019321 0.006442 0.006740 -0.016959 -0.011187 0.060982 -0.000188 -0.052574 0.036589 -0.013105 0.052748 0.022672 -0.000521 0.017502 -0.002507 -0.078572 0.025414 -0.522437
dislik 0.013875 -0.026194 0.004437 0.016864 -0.017419 0.026283 -0.024107 -0.014139 -0.012050 -0.031764 -0.032578 0.015769 0.027189 0.040394 -0.035230 -0.022059 0.035002 0.025368 -0.041653 0.043905 -0.469739
dorm 0.026006 -0.014019 0.030460 0.058255 0.033814 0.002480 -0.006956 0.009213 0.067900 -0.020695 -0.045694 0.028957 0.023675 -0.009195 -0.016474 -0.046036 0.007500 -0.030181 -0.046689 0.047879 -0.421051
doubl 0.005445 0.031778 0.078646 -0.037216 0.014661 -0.014838 -0.018293 -0.016936 0.056391 -0.015867 -0.024700 0.023232 0.047841 0.040944 -0.085106 0.005636 -0.012635 0.018764 -0.048445 0.082105 -0.242931
eas 0.033870 -0.025570 0.014691 -0.005405 0.026159 0.051816 0.039266 -0.011092 -0.011277 -0.004799 0.001533 -0.035966 -0.004302 -0.015038 0.048623 -0.019663 -0.013886 0.018295 0.060700 0.070295 -0.375091
encourag 0.007548 -0.011722 0.044933 0.018631 0.007827 -0.035454 -0.042023 0.001249 0.073217 0.024638 -0.020674 0.016331 -0.012148 0.028494 -0.015270 -0.001287 0.017671 -0.032332 -0.058737 0.030059 -0.377552
enough 0.022567 -0.010894 0.060552 0.048367 0.004598 -0.003952 -0.032654 -0.003014 0.086117 -0.012384 -0.064050 0.005792 -0.009800 0.010416 -0.006875 -0.039738 -0.055987 -0.017266 -0.032977 0.072839 -0.388510
event -0.008866 0.041691 -0.027265 -0.049616 0.027356 0.040251 -0.007881 0.006851 -0.018013 -0.015952 0.020627 0.006182 0.010579 -0.010621 0.026547 0.031331 0.016404 0.013895 0.012024 0.017262 -0.640438
exhaust -0.003246 -0.035813 0.070655 0.046677 0.000150 -0.004157 -0.013097 -0.060399 0.058578 -0.046594 -0.032597 -0.008478 0.000963 0.050353 0.011083 -0.060150 -0.021811 -0.028526 -0.037982 0.059444 -0.596690
expens -0.006627 -0.000190 0.076577 -0.014897 -0.032653 -0.004296 -0.025426 -0.000103 0.065119 -0.022176 0.005155 0.008960 0.009467 0.001075 -0.011156 -0.049314 -0.030955 -0.034603 -0.080128 -0.010210 -0.631678
facil -0.005546 -0.058046 0.067671 0.102578 0.003597 -0.039050 -0.028386 -0.028640 0.084110 -0.010122 -0.043268 0.043943 0.029280 0.035992 -0.062480 -0.026207 0.012296 0.030601 -0.049789 -0.012507 -0.698506
fall -0.032127 0.001515 0.161669 0.032789 0.004958 -0.051263 -0.022399 -0.054180 0.115466 -0.041243 -0.062891 0.015627 0.050540 0.036187 -0.097344 -0.058936 -0.050208 -0.047289 -0.132368 0.049856 -0.192441
felt 0.011162 -0.056175 0.067512 0.071015 -0.008435 -0.017358 -0.002446 -0.054552 0.092113 -0.036503 -0.041567 0.014558 -0.004396 0.026112 -0.023685 -0.035736 0.027408 -0.018056 -0.060988 0.012414 -0.590469
final -0.020144 -0.030642 0.109557 0.064375 -0.013505 -0.048012 -0.025262 -0.056145 0.128893 -0.036016 -0.095643 0.052100 -0.004040 0.076969 -0.052282 -0.047625 0.038258 -0.060038 -0.174469 0.041825 -0.424792
finish -0.012884 -0.000533 0.116976 0.071229 -0.018338 -0.022645 0.014456 -0.012686 0.042462 -0.013410 -0.058498 0.016332 -0.012270 0.019022 -0.031494 0.000253 0.004754 0.001211 -0.014123 0.016073 -0.465601
forum -0.006776 0.018850 0.056994 0.038709 0.019114 -0.028541 0.021227 -0.015796 0.027633 -0.044423 -0.035757 -0.071053 0.039831 -0.012726 -0.100849 -0.093954 -0.062769 0.017864 0.001976 0.025702 -0.557268
foster -0.025194 -0.060414 0.049561 0.036574 -0.016067 -0.045425 -0.048106 -0.005822 0.054447 -0.041862 -0.071947 0.012961 -0.006590 0.065517 -0.055695 -0.065772 -0.019373 -0.051820 -0.109641 0.045412 -0.403509
freeli 0.004155 -0.052802 0.062685 -0.009745 -0.003674 -0.017852 -0.021430 -0.037595 0.054443 -0.007891 -0.064902 0.059844 -0.000390 0.059312 -0.033575 -0.050871 0.025628 -0.021094 -0.071340 -0.014110 -0.285200
futur -0.006749 0.025123 0.018507 0.003511 0.011541 -0.006741 0.013002 0.033867 -0.005397 0.018296 0.011972 -0.038411 0.054412 -0.021037 0.003388 0.004472 -0.027844 0.010725 0.111901 0.006928 -0.588972
given -0.007658 0.056858 0.033439 0.008944 -0.004925 0.015467 0.036872 0.017856 0.013807 -0.030232 -0.037485 -0.032081 0.004463 -0.005858 -0.002676 -0.061504 -0.047879 0.041087 0.024676 0.002446 -0.737926
global 0.013575 -0.051244 0.120884 0.039467 -0.010080 -0.036207 -0.016588 -0.034310 0.067704 -0.015722 -0.030773 0.017960 -0.006578 0.015100 -0.057143 -0.054829 0.018075 -0.015019 -0.080234 0.040936 -0.433908
great -0.042069 0.030220 0.024897 0.001133 -0.009811 -0.011632 -0.002984 -0.021427 0.046906 -0.028717 -0.037980 -0.033236 0.038340 -0.017588 -0.008115 0.012840 -0.024310 0.019699 -0.013748 0.017894 -0.677118
guess -0.010014 -0.005995 0.033919 0.035208 0.005336 0.006332 0.007839 -0.008105 0.006519 -0.028509 -0.032800 -0.005698 -0.002231 -0.013960 -0.021184 -0.009991 -0.021604 -0.017027 -0.058837 -0.004391 -0.503542
half -0.019023 0.008655 0.026044 -0.028952 0.006085 0.007769 -0.069540 0.007931 0.060066 0.014940 -0.012554 0.041371 0.013343 0.014978 -0.089552 -0.023958 0.060528 -0.087776 -0.137484 -0.042440 -0.370630
happen 0.010531 -0.005466 0.120985 0.029953 -0.030185 -0.025785 -0.037610 -0.035207 0.109737 -0.010206 -0.049082 -0.000883 0.027076 0.037500 -0.044894 -0.028222 -0.007374 -0.010465 -0.079626 0.059826 -0.484324
homework -0.014894 -0.020070 0.156468 0.066905 -0.009017 -0.085001 -0.008100 -0.063260 0.157885 -0.054343 -0.123962 -0.002635 0.022033 0.079890 -0.121926 -0.075599 -0.042568 -0.058987 -0.163588 0.048833 -0.339282
honestli -0.028679 0.034051 0.081008 0.004277 0.013439 -0.026629 -0.008572 -0.031762 0.057999 0.003333 -0.053846 -0.022873 0.002513 0.016612 -0.047892 -0.033366 -0.004065 -0.026463 -0.041130 0.046471 -0.594302
hous -0.009215 -0.029328 0.099241 0.033581 0.000914 0.011748 0.008042 -0.026890 0.069286 -0.046220 -0.040800 -0.000957 0.060349 0.008016 0.010508 -0.046980 0.006703 -0.011901 -0.060137 0.015813 -0.579603
improv -0.009758 -0.034500 0.086118 0.055753 0.014457 -0.019891 -0.023815 -0.043697 0.028976 -0.000001 -0.067042 0.002697 -0.005637 0.017826 -0.066167 -0.074758 -0.008208 -0.051100 -0.076144 0.041549 -0.581501
interest -0.004269 -0.020866 0.084884 0.046331 0.025606 -0.056551 -0.008058 -0.057200 0.098235 0.000574 -0.060531 0.015738 0.012442 0.049064 -0.025253 -0.051795 -0.016603 -0.061855 -0.104615 0.029507 -0.405714
intimid -0.003123 -0.018814 0.035945 0.025835 -0.005451 -0.009295 -0.036035 -0.028637 0.026774 0.012374 -0.038413 0.045808 -0.005967 0.028506 0.013595 -0.036318 0.008968 -0.015899 -0.066380 0.037191 -0.252393
isn’t -0.005471 -0.033596 0.090875 0.053329 -0.002277 -0.069471 -0.009585 -0.044446 0.088481 -0.008062 -0.057663 0.070696 -0.004005 0.066366 -0.079187 -0.041638 0.015263 -0.042579 -0.107433 0.010445 -0.424525
issu -0.030779 0.011595 0.142243 0.079006 -0.019636 -0.073119 -0.017139 -0.055223 0.110620 -0.031580 -0.067059 0.035970 0.004968 0.052564 -0.080229 -0.090797 -0.042210 -0.052523 -0.133703 0.052000 -0.311137
lack -0.025574 -0.043139 0.147052 0.091509 0.007568 -0.032878 -0.008892 -0.040096 0.095016 -0.022589 -0.137777 0.039018 -0.012984 0.072962 -0.075400 -0.047840 -0.016299 -0.054368 -0.120733 0.053017 -0.539061
later -0.010217 0.004387 0.143729 0.051764 0.026747 -0.052248 -0.003087 -0.042246 0.130157 -0.055040 -0.061004 0.014625 -0.004666 0.042137 -0.053607 -0.048829 -0.007989 -0.023053 -0.104667 0.058738 -0.369603
lol -0.009866 -0.031352 0.113131 0.034381 -0.004842 -0.058814 -0.033773 -0.012880 0.068331 -0.037207 -0.024483 0.056025 0.011096 0.032756 -0.041844 -0.058980 0.010497 -0.032678 -0.071531 0.001674 -0.268917
lose -0.039863 -0.016267 0.096833 0.064304 0.025156 -0.045318 -0.005553 -0.069088 0.106511 -0.037255 -0.031646 0.005797 0.021929 0.035363 -0.022662 -0.039731 -0.021416 -0.011451 -0.070570 0.049521 -0.630075
loud -0.009219 -0.035156 0.149575 0.020597 0.007065 -0.068217 -0.056714 -0.015748 0.107231 -0.010736 -0.071163 0.089309 0.015070 0.093808 -0.131319 -0.066505 0.030126 -0.062960 -0.190749 0.022597 -0.500864
major -0.021302 0.053042 0.045431 -0.009820 -0.020138 -0.020124 0.037557 -0.030567 0.028681 -0.031877 -0.022644 -0.068221 0.026907 -0.028330 -0.018345 -0.041196 -0.037302 0.005352 0.037087 0.024802 -0.511514
matter -0.022677 -0.006541 0.111743 0.052518 -0.033338 -0.060994 -0.002444 -0.038745 0.051188 -0.003243 -0.047693 0.020766 0.002178 0.039944 -0.052647 -0.005652 0.021341 -0.021409 -0.083728 0.000526 -0.182324
may -0.025815 -0.016562 0.117761 0.024903 0.000275 -0.076051 -0.069822 -0.043622 0.098876 -0.001569 -0.079638 0.065894 0.017993 0.082402 -0.129662 -0.080966 0.011098 -0.036808 -0.168885 0.001220 -0.497700
mayb -0.004042 -0.032863 0.089462 -0.017162 0.001532 -0.009046 0.000509 -0.048385 0.041946 -0.011600 -0.050678 -0.001905 0.002049 0.044217 -0.058612 -0.041347 -0.005821 -0.047184 -0.046377 0.057205 -0.498154
met -0.016837 -0.036950 0.112759 0.047102 0.000214 -0.011407 -0.018928 -0.078009 0.140079 -0.025111 -0.068934 0.028708 -0.016810 0.020687 -0.037170 -0.024048 -0.007463 -0.029723 -0.102395 0.052211 -0.238880
minerva -0.020004 -0.042752 0.009601 0.024041 0.019604 -0.000552 0.013735 -0.028440 0.013344 -0.002243 -0.044096 0.040040 0.010155 0.026188 -0.008676 0.007635 0.000742 -0.024085 -0.070602 0.009140 -0.584330
money -0.017694 -0.036869 0.141160 -0.007275 -0.050196 -0.076345 -0.069248 -0.018429 0.116400 -0.001044 -0.004808 0.099227 0.051913 0.060639 -0.042832 -0.063982 0.016160 -0.068564 -0.142082 -0.022417 -0.182725
moreov 0.032488 -0.000018 -0.080212 -0.033213 0.017650 0.017474 0.001223 0.052003 -0.032174 0.001819 0.032503 -0.032148 0.018756 -0.065290 0.020620 0.042120 -0.027228 0.018861 0.098618 0.013296 -0.861910
natur 0.015078 -0.017571 0.005311 0.023667 -0.017351 0.003121 -0.008180 -0.029825 0.001145 -0.006034 -0.025811 0.005973 -0.050707 0.007297 -0.010788 0.005364 0.006401 -0.000790 -0.018144 -0.017578 -0.524828
necessari -0.045454 0.003216 0.031654 0.018005 -0.033965 -0.041430 -0.013293 -0.027453 0.063402 0.014439 -0.021238 0.015741 0.021586 0.040192 -0.021727 -0.056924 -0.011967 -0.057604 -0.071643 -0.018442 -0.502758
nois -0.022659 0.007960 0.028432 0.015166 0.000881 -0.036544 0.001638 0.001630 0.077847 -0.041608 -0.007378 0.005675 0.025924 0.037664 -0.005081 -0.023321 -0.013651 -0.030623 -0.053704 -0.009342 -0.303853
offic -0.005619 0.001181 -0.042553 -0.060185 -0.027565 -0.005177 -0.046089 -0.015986 0.005537 0.029738 0.054610 0.079944 0.011249 0.004111 -0.030786 0.046290 0.024110 -0.049439 -0.074310 -0.071118 -0.439979
onlineclass -0.047918 -0.028405 0.086153 0.026906 -0.009881 0.001506 -0.023108 -0.053252 0.101683 0.001755 -0.019658 0.046669 -0.005570 0.036024 -0.048531 -0.047291 0.033180 -0.032800 -0.100199 0.036804 -0.464731
overal -0.010074 -0.005094 0.071389 0.071908 -0.025234 -0.048602 -0.003286 -0.019691 0.067324 -0.027872 -0.029745 0.008034 -0.000843 0.058179 -0.080041 -0.075136 -0.005185 -0.034897 -0.111150 0.021956 -0.707656
pick -0.014814 0.068964 0.001602 -0.001013 0.002787 0.025950 0.007480 -0.019336 -0.000145 0.006066 0.009410 -0.085789 0.022213 -0.046602 -0.014932 -0.026642 -0.047324 0.032156 0.053113 -0.005161 -0.536769
post 0.027978 0.093210 -0.053705 -0.023175 -0.060300 0.029273 0.009826 0.118694 -0.095146 0.007841 0.153243 -0.041058 0.011772 -0.095676 -0.000659 0.054497 0.060605 0.151547 0.202290 0.021277 -0.638574
previous -0.004322 -0.037397 0.082999 0.044828 0.010817 -0.062317 0.012116 -0.026909 0.064768 -0.016181 -0.034305 0.015767 -0.016732 0.048446 -0.042367 -0.032771 0.022312 -0.008638 -0.063392 0.032426 -0.282962
project 0.021339 0.019129 -0.037839 -0.011655 -0.011301 0.038909 0.030958 -0.002517 -0.014685 0.025063 -0.005244 0.011525 0.013609 -0.023588 0.032118 -0.002700 0.008372 0.041853 0.052009 -0.021242 -0.557182
proper 0.013139 0.003121 0.061621 -0.001177 -0.022286 -0.021169 -0.027858 0.006107 0.039948 0.019658 -0.060539 0.023646 0.011545 0.047465 -0.071014 -0.011476 -0.000001 -0.016753 -0.086632 0.026588 -0.101201
receiv -0.021291 -0.017400 0.049266 0.036563 0.013542 -0.005943 0.009243 -0.028718 0.014777 -0.025145 -0.016122 0.030110 0.034584 0.009767 -0.057610 -0.059584 -0.027882 0.009512 -0.048754 0.034402 -0.639237
reduc -0.021642 -0.021293 0.003370 0.005146 -0.042853 -0.012648 -0.041924 -0.001526 0.037624 0.011675 -0.000519 0.068164 -0.008785 0.061692 -0.019100 0.013482 0.019317 -0.035398 -0.089928 -0.012936 -0.597696
repeat -0.012532 0.020110 0.082904 0.020175 -0.003341 -0.033699 0.058871 -0.021530 0.067327 -0.014718 -0.015770 -0.039463 0.017098 0.027974 -0.071967 -0.074063 -0.019236 -0.016297 -0.004403 0.034248 -0.616649
research -0.000424 0.012363 0.074092 0.071101 -0.033076 -0.030258 -0.006882 -0.023417 0.090676 0.005950 -0.008225 -0.007769 -0.002575 0.065832 -0.065936 -0.029414 0.003325 0.021808 -0.069311 0.044878 -0.580423
resourc 0.027130 -0.007520 0.030438 0.030013 -0.001554 -0.038636 0.028351 -0.020641 0.032044 -0.008022 -0.031020 -0.013562 -0.001276 0.028890 -0.036698 0.005359 -0.034042 0.029997 0.015814 0.041930 -0.588911
revis -0.019632 0.020338 0.011916 -0.004661 -0.023329 -0.031197 0.024884 0.015855 -0.025021 0.024665 0.013725 -0.023451 0.017384 0.011973 -0.047013 -0.020694 -0.012024 -0.013679 0.013224 0.058266 -0.540658
routin -0.025767 -0.032336 0.103329 0.017138 0.001522 -0.019429 -0.033622 -0.055564 0.047000 -0.016571 -0.042431 0.041779 0.019086 0.021571 -0.048952 -0.047509 -0.030976 -0.004055 -0.107897 0.020155 -0.487311
run -0.009411 0.024916 0.114762 0.028407 -0.026378 -0.039468 0.000162 -0.019405 0.113666 0.003802 -0.082625 -0.014087 0.025018 0.075207 -0.101321 -0.051815 -0.020944 -0.037985 -0.101189 0.034195 -0.467288
screen -0.038113 -0.041037 0.101213 0.010127 -0.029140 -0.065228 -0.024030 -0.057753 0.099102 -0.023378 -0.047076 0.065449 0.015197 0.057346 -0.073929 -0.031141 -0.012424 -0.058891 -0.138381 0.027925 -0.257810
sens -0.041394 0.011002 0.098900 0.032335 0.003477 -0.047958 0.005144 -0.000719 0.078995 -0.034802 -0.048339 -0.008943 0.057107 0.020264 -0.037840 -0.078437 -0.016761 -0.028537 -0.112221 0.046706 -0.407652
sever -0.030278 0.032788 0.035800 0.051519 0.007349 -0.026676 0.004811 0.012748 0.041534 0.008546 0.002163 -0.026556 0.026292 -0.000872 -0.023036 -0.041663 -0.021197 -0.021105 -0.001701 0.010597 -0.393289
share -0.021207 -0.030557 0.092107 0.039087 -0.004880 -0.053738 -0.035585 -0.019615 0.046489 -0.054866 -0.051772 -0.002348 0.004731 0.017434 -0.033242 -0.074644 -0.050637 -0.024480 -0.052185 0.063746 -0.400040
show -0.003200 -0.044963 0.056416 0.031565 -0.011765 -0.043798 -0.007712 -0.029252 0.064937 0.013780 -0.030766 0.024790 0.026526 0.044099 -0.026127 -0.042271 -0.020257 0.011028 -0.072271 0.018780 -0.732049
side -0.007102 -0.006042 0.008782 0.021543 0.021918 0.008605 -0.019799 -0.015751 0.048302 0.053825 -0.063078 0.007750 -0.021338 0.039582 -0.009760 -0.047267 0.028270 0.040895 -0.050627 0.029957 -0.542429
situat -0.013525 0.000948 0.050202 -0.018832 -0.009820 0.003754 -0.024907 -0.028808 0.023282 -0.045425 -0.031899 0.036017 0.032055 0.028881 -0.079708 -0.030756 0.012415 -0.049336 -0.108408 0.017220 -0.530984
skill -0.038527 -0.026043 0.121790 0.043382 -0.002726 -0.056711 -0.017833 -0.010540 0.099265 -0.038976 -0.065102 0.051767 0.018172 0.055813 -0.083181 -0.074360 -0.007253 -0.020049 -0.148260 0.038224 -0.468944
skip 0.000242 0.020641 0.055150 -0.027951 0.001929 0.005102 -0.040173 -0.007368 0.007116 0.033403 0.012957 0.023170 -0.013283 -0.009796 -0.060125 0.004614 0.010157 -0.011159 -0.031961 -0.003636 -0.587039
