lectur 0.401857 -0.349170 -0.385905 0.399653 -0.474662 -0.185762 0.836115 0.025779 0.328597 0.209295 -1.444634 -1.076731 1.614470 -1.183717 0.006843 -0.583913 -1.801520 0.527655 0.734389 0.057637 0.589477
class -0.542981 -0.162181 -0.274858 0.004661 -0.853074 -0.145935 1.125984 0.506022 1.515707 -0.623169 -0.921191 -0.072052 1.316821 -0.557694 -0.239208 -1.258073 -0.161792 0.908264 0.777804 -1.572263 0.412877
would -0.842396 0.800529 -0.538811 -0.779380 -0.341964 0.116589 0.420245 0.293360 0.358350 -0.524347 -0.921674 0.479938 0.848662 -0.286450 -0.803010 -1.270704 -1.175417 1.065551 0.500873 -0.223779 0.157852
group 0.415858 0.622466 0.191644 0.146773 -0.257407 -0.485439 0.000970 -0.265872 1.613051 -0.081205 -0.103250 0.339833 0.620394 -0.633078 0.154316 -0.823245 -1.062041 0.208056 -0.691875 -0.904301 -0.102583
like -0.010133 0.536992 -0.280001 -0.389370 -0.345241 -0.279128 -0.519905 0.452719 0.797756 0.129427 -1.043728 -0.829483 0.692727 0.018453 0.041235 -0.950426 -0.315673 -0.040855 -0.073549 -0.372370 0.115189
smaller 0.026146 0.715859 0.080537 -0.653841 -0.331695 -0.376789 0.270057 -0.401513 0.859756 0.167573 -0.087732 -0.117011 0.253911 -0.542123 -0.846318 -0.883185 -0.778876 -0.295546 -0.749274 -0.203033 -0.463444
make -0.040726 0.463092 -0.679632 -0.194762 -0.376964 -0.178432 0.171859 -1.013681 0.777822 0.174927 -1.046080 -0.203955 0.908658 -0.547286 -0.128854 -0.189232 -0.658013 0.429479 -0.555992 0.341670 0.038170
time -0.321632 0.272620 -0.255395 -0.154216 -0.684714 0.194499 0.129052 0.681717 0.488944 -0.255477 -1.015502 -0.142364 -0.180657 -0.885764 0.272554 -0.502660 -0.756310 0.111009 -0.457764 -0.036640 0.235936
discuss -0.315924 0.559394 -0.679230 -0.492621 -0.270439 -0.901593 0.118291 -0.459884 0.390691 -0.071221 0.016652 0.056683 0.217937 -0.840564 -0.061072 -0.784332 -0.589750 0.085350 0.002264 -0.526014 0.144751
student -0.120182 0.542340 0.160060 0.098971 0.001996 -0.705224 0.381435 0.307390 0.899351 0.148489 -0.601397 0.443939 0.352141 -0.853483 0.515207 -1.037758 -0.203883 0.084645 0.549501 0.520736 0.192554
engag -0.303528 0.725571 -0.550013 -0.123670 0.186531 -0.381672 0.273019 -0.121828 0.642633 -0.220300 -0.326487 -0.187789 0.559163 -0.501872 0.026092 -0.588242 -0.254070 0.254964 -0.377611 0.409129 -0.112971
question -0.617668 0.305918 0.807385 -0.470435 -0.471105 -1.053350 -0.277736 -0.019672 0.426528 -0.309122 -0.198943 -0.710553 0.601401 -0.470146 0.109420 -0.586535 0.178999 0.285565 -0.606458 0.241198 0.058203
peopl 0.000712 0.799182 0.896312 0.030744 -0.751420 0.043349 0.609420 0.141592 0.786403 0.312900 -0.060304 -0.216883 0.301726 -0.570658 -0.420005 -0.839353 -0.533417 -0.217902 0.421381 0.538035 0.244853
interact -0.489552 0.752227 -0.498314 -0.186194 0.057544 -0.490486 0.021298 -0.182670 0.271394 -0.261391 -0.220710 0.076182 0.622528 -0.415090 0.148657 -0.836866 -0.437978 0.014391 -0.266456 0.211830 -0.062201
learn -0.968139 0.569462 -0.918056 0.083564 0.537788 -0.842150 0.035859 0.091774 0.538066 0.024165 0.045020 -0.835652 0.777495 0.515922 -0.159803 -0.574124 -0.372173 0.248893 -0.192604 -0.429824 0.162378
hour 0.035867 0.603034 0.161210 0.270415 0.330426 0.619038 0.583435 0.346799 0.706540 -0.355970 -1.276623 -0.170898 0.463270 -1.447675 -0.948666 0.599685 0.588120 -0.580042 0.625522 -0.001908 0.170144
noth -0.528284 0.280613 0.133063 -0.488504 0.123717 0.364707 0.190894 -0.227895 -0.067586 0.427902 -0.884236 0.076411 0.281430 0.576516 0.087233 -0.545567 0.312095 -0.048097 0.175939 0.035010 -0.244108
less -0.250579 0.769206 -0.049627 -0.016429 0.078269 -0.611170 -0.064010 -0.182921 0.472268 -0.055019 0.068992 -0.048394 0.770298 -0.935405 0.211164 -0.000942 -0.392221 -0.068030 -0.215878 -0.082395 0.000915
chang -0.848542 0.326149 -0.203354 -1.173883 -0.557791 0.175447 -0.548206 -0.654539 0.149550 0.232088 -1.124029 0.462666 0.565453 0.808949 -0.248706 -0.623808 -0.185086 -0.451827 0.455400 -0.135963 -0.291399
ask -0.487642 0.446196 0.502555 -0.491923 -0.656327 -0.766785 -0.238794 -0.418080 0.249093 0.112490 -0.002374 -0.459798 0.533612 -0.306307 0.279569 -0.756382 0.053259 0.267819 -0.740660 0.670249 -0.206220
onlin 0.227193 0.210019 -0.395093 -0.689109 -0.366574 -0.601222 0.559429 0.223984 0.106327 -0.459606 -0.900986 -0.379947 0.548009 0.484048 -0.039968 -0.522427 -0.426385 0.176290 -0.068489 -0.098224 0.092867
work -0.492442 0.500318 0.091282 -0.188377 0.185699 -0.870689 -0.139587 0.149910 0.163311 0.120680 -0.145749 -0.280368 0.031615 -0.324055 -0.433140 -0.556716 -0.555648 -0.057192 -0.041933 -0.701078 0.059903
record 0.369952 0.249261 -0.303615 -0.654657 -0.582779 -0.185923 0.735051 0.371114 -0.076913 -0.354848 -0.459245 -0.178312 1.114334 0.265935 0.002237 -0.011633 -0.618392 0.122185 0.433749 0.231535 -0.010479
person -0.277118 0.574321 0.145706 -0.541867 -0.342867 -0.288716 0.114584 0.153421 0.247095 0.185473 -0.685560 -0.022609 0.665097 0.151996 -0.090319 -0.536290 -0.123324 0.154580 -0.174389 -0.180526 -0.211938
professor -0.129059 0.623291 -0.260149 0.077497 -0.053395 -0.492643 0.036623 -0.163145 0.089375 0.241609 -0.900162 -0.224229 0.749317 -0.367969 0.384972 -0.449695 0.037270 0.460341 -0.093759 0.262583 -0.156058
think -0.843441 0.628692 0.254333 -0.634247 0.089568 -0.073679 0.229010 0.005583 0.368419 0.098549 -0.615163 0.199732 0.620093 0.405735 -0.069385 -0.575377 -0.006094 0.247476 0.151746 0.125233 -0.176105
get -0.821853 0.673177 0.131567 0.001079 -0.366524 -0.384001 0.127458 -0.407222 -0.116795 0.090527 -0.339491 -0.231253 0.411368 -0.558124 0.040186 0.060650 -0.134891 -0.082616 -0.235323 -0.111798 0.003962
realli -0.761905 0.690374 0.281397 -0.352135 -0.012986 -0.012986 0.407579 -0.144406 0.168243 0.516246 -0.739260 0.027130 0.764707 0.568279 0.250681 -0.214175 0.169434 0.325724 0.254416 0.167249 -0.029978
one -0.506847 0.389792 0.186812 -0.090469 -0.707054 0.200669 0.205813 -0.013966 0.557818 0.314874 -0.325196 0.002467 0.566799 -0.677463 -0.258234 -0.199748 -0.455817 -0.394433 0.216361 -0.643757 -0.103043
feel -0.501341 0.975211 0.709790 -0.026027 -0.558906 -0.415536 0.134125 -0.092310 0.182805 0.025109 -0.419004 -0.272210 0.521745 -0.273445 -0.054662 -0.378886 -0.502635 0.269887 -0.263918 0.249854 -0.046051
seminar 0.027633 0.266765 0.002302 -0.031342 -0.364115 -0.186742 -0.231367 0.141689 0.590351 -0.272316 -0.206396 -0.118070 0.409349 -0.608371 -0.550249 -0.440930 -0.774550 -0.200395 -0.092190 -0.179834 -0.119056
sometim -0.374207 0.199666 -0.121021 -0.168182 -0.189444 -0.019507 0.103106 0.061632 -0.047695 0.090272 -0.679240 -0.795974 0.682678 -0.763736 -0.148584 -0.219297 -0.096785 -0.114166 -0.070519 0.138332 -0.211750
way -0.346096 0.723498 0.126205 -0.140085 0.495118 -0.328041 0.140275 0.349773 0.041437 0.165621 -0.549229 -0.037263 0.445153 0.301932 0.326822 -0.601238 -0.087197 0.067287 -0.268795 -0.157452 -0.068480
use 0.092901 0.320136 -0.302785 -0.005027 -0.010937 -0.520133 0.053486 0.175300 0.186758 -0.622484 -0.295635 -0.427501 0.625925 0.347397 0.176113 -0.102535 -0.402900 -0.175598 -0.035042 0.069301 0.026879
materi -0.062573 0.484921 -0.228558 -0.363786 0.417035 -0.686790 0.295275 0.478596 -0.024607 -0.220402 -0.640502 -0.235923 0.377366 0.203089 0.287135 0.015187 -0.407463 0.270479 0.185794 0.007709 -0.141377
teacher -0.324273 0.674574 -0.430520 0.164259 0.310480 -0.407872 0.075699 0.054395 0.239628 0.178477 -0.611565 -0.138058 0.411028 -0.370493 0.200542 -0.473517 -0.095189 0.380584 -0.062879 0.198052 -0.112394
teach -0.290148 0.731295 -0.366656 -0.219318 0.236339 -0.825071 -0.401262 -0.254476 0.076566 -0.037571 0.025129 -0.521619 0.359202 0.167776 0.013096 -0.778686 -0.347702 -0.069134 0.181758 0.019073 0.036755
cours -0.250491 0.358063 0.067702 -0.300788 -0.056109 -0.293003 0.105884 0.109769 0.303597 -0.045146 -0.309121 -0.128801 0.476282 -0.003152 -0.119918 -0.620594 -0.203859 0.171733 -0.109942 -0.115798 0.059184
content -0.203631 0.467857 -0.285700 -0.088209 0.419522 -0.257103 0.195688 0.366178 0.365888 -0.083821 -0.385505 -0.427753 0.247557 -0.462685 0.207172 0.054561 -0.258813 0.030015 -0.001545 0.206051 -0.109707
could 0.065067 0.423089 -0.287920 -0.477412 -0.127876 -0.160478 0.040951 0.221282 0.290204 -0.017727 -0.655370 -0.008385 0.756787 0.008121 0.260060 -0.450303 -0.229338 -0.050259 0.342294 -0.019160 -0.119284
rather 0.290076 0.531846 -0.262746 0.064048 0.084471 -0.623202 -0.332726 0.292388 0.335682 -0.210696 -0.133536 -0.105934 0.458031 -0.627563 0.174286 -0.043438 -0.428028 -0.290630 -0.027527 -0.194007 -0.089099
read 0.341432 0.534012 -0.595646 0.270541 0.142609 -0.310390 0.344013 -0.011124 0.636976 -0.391559 -0.251321 -0.138827 0.721129 -0.384339 0.577704 0.258970 -0.729488 0.032987 0.107945 0.245573 0.071863
better -0.166800 0.444376 -0.436112 -0.080341 0.328275 -0.525112 0.161278 0.206082 0.059800 -0.223555 -0.543679 -0.247942 0.329992 0.068644 0.078460 -0.332316 -0.630404 -0.066502 -0.122574 -0.067629 -0.262376
don’t -0.282470 0.469243 0.158440 -0.280219 -0.256875 -0.135926 0.136463 -0.047805 -0.252329 0.099636 -0.862370 -0.393115 0.641993 -0.049963 0.472018 -0.751876 -0.118091 0.231926 0.004255 -0.066695 -0.176170
much -0.486689 0.426845 0.050203 -0.507535 0.116225 -0.106327 0.112457 0.086293 -0.037803 0.033742 -0.622533 -0.109784 0.422182 -0.176198 0.124398 -0.414334 -0.326638 -0.047285 -0.062710 -0.085697 -0.196822
mayb -0.317503 0.234868 -0.169723 -0.261852 -0.295407 0.064188 -0.220868 0.227666 0.512453 -0.018756 -0.509242 0.109195 0.421515 -0.417368 -0.334326 -0.471600 -0.327771 -0.052007 -0.151447 0.170933 -0.338646
often -0.325730 0.534467 0.075671 -0.185076 -0.172751 -0.056794 -0.062880 0.483850 0.050036 0.007756 -0.179758 -0.254955 0.472252 -0.555430 0.267794 -0.299692 0.106954 0.021533 -0.160632 0.036623 -0.203043
small 0.326710 0.653143 0.040285 -0.309046 0.214739 -0.713876 -0.264899 0.051337 0.648870 0.128710 0.240285 -0.219692 0.016509 -0.252096 -0.493452 -0.518111 -0.755911 -0.394621 -0.347344 -0.346963 -0.492685
inperson -0.296401 0.494167 -0.254284 -0.699118 -0.116025 -0.109910 0.466610 0.198673 0.058501 0.204929 -0.673682 0.156734 0.467019 0.250881 -0.319998 -0.244226 0.191482 -0.019907 -0.113857 -0.181804 -0.443291
anyth -0.580421 0.032383 -0.088305 -0.489600 -0.045575 0.361361 -0.162010 -0.449661 0.068918 0.351888 -1.224167 0.443301 0.337874 0.887668 -0.190945 -0.508127 0.045047 -0.239146 0.232804 0.153472 -0.425884
help -0.355801 0.367032 -0.240749 -0.399592 0.194199 -0.239292 -0.132323 -0.207949 0.233891 0.277882 -0.695214 -0.202302 0.312329 -0.153961 0.440772 -0.416134 -0.000911 -0.073784 -0.344808 0.011582 -0.292745
understand -0.290239 0.387233 -0.118217 -0.418770 0.242363 -0.050892 0.315147 -0.188222 0.099735 -0.114315 -0.386592 -0.282502 0.532077 0.035741 0.278999 -0.189682 0.025799 0.273419 -0.176630 0.212687 0.055436
go 0.288026 0.312293 0.027101 -0.325440 -0.342320 -0.505824 0.210658 0.411908 0.044943 0.068528 -0.174303 -0.094453 0.796741 -0.033031 0.474471 0.048622 -0.325617 0.009632 0.515325 0.080873 -0.152347
tutori 0.095882 0.422587 0.004469 -0.228653 -0.228182 -0.368306 -0.066208 -0.043457 0.460378 -0.056558 0.134946 0.086280 0.226533 -0.371719 -0.348649 -0.519966 -0.706414 -0.366054 0.038030 -0.280288 -0.401895
it’ -0.541209 0.046266 0.171504 -0.238907 -0.400585 -0.176034 -0.003887 -0.492330 -0.081520 0.037071 -0.710207 -0.524298 0.542020 -0.420176 -0.079446 -0.029281 0.118310 -0.062384 -0.372795 0.432219 -0.150456
talk -0.379132 0.445996 -0.328243 -0.052059 -0.274269 -0.182562 0.094295 0.119187 0.197688 0.001224 -0.137155 -0.237813 0.512445 -0.636687 0.233990 -0.250121 0.046459 0.136642 -0.075260 0.335298 -0.219747
activ -0.089767 0.491417 -0.098136 -0.150517 0.442164 -0.817663 -0.004502 0.103319 0.182822 -0.227465 -0.039942 0.005137 0.215189 -0.272678 -0.002961 -0.379602 -0.490551 -0.129308 -0.152012 -0.233077 -0.259615
take -0.286924 0.399952 -0.355278 -0.108600 -0.336074 0.013834 0.228794 0.029186 -0.442963 -0.096489 -0.479532 -0.120179 0.524568 -0.232580 -0.121438 0.127584 -0.497854 0.099467 -0.071841 0.046594 -0.153875
size 0.016298 0.429620 -0.039648 -0.435390 -0.364115 -0.346585 0.266608 0.123420 0.674298 0.361421 -0.024899 0.076654 0.086081 -0.392400 -0.602768 -0.562533 -0.366845 -0.288442 -0.286157 -0.280558 -0.623980
thing -0.498046 0.220664 0.028649 -0.333540 0.166425 0.031043 -0.240879 0.213029 0.217964 -0.000629 -0.982711 0.014077 0.294336 0.114297 -0.081991 -0.195235 -0.242532 -0.239486 0.228446 0.038886 -0.377492
need -0.247818 0.362465 -0.213218 -0.273310 0.003202 0.044470 0.252476 0.235810 -0.139404 0.033019 -0.544586 -0.026797 0.545205 -0.306353 0.244943 -0.268077 0.048964 0.240133 -0.020131 0.051458 -0.227923
shorter -0.340976 0.172383 -0.072798 -0.183283 -0.269934 0.238771 0.032480 0.325072 -0.026007 -0.253460 -0.162137 -0.039934 0.417971 -0.606203 -0.309979 0.046645 -0.046590 -0.427244 -0.238194 0.280622 -0.008785
also -0.174491 0.246616 -0.069901 -0.273193 -0.153972 -0.462925 -0.181687 0.220663 0.144650 -0.015698 -0.649599 -0.096832 0.483950 0.161192 -0.009521 -0.417274 -0.186376 0.068800 -0.056508 -0.265297 -0.286067
inform -0.148750 0.290609 -0.002575 -0.145430 0.067551 -0.262732 0.117690 0.380683 0.030425 -0.167902 -0.330950 -0.049682 0.194501 -0.345721 0.317024 0.068942 -0.389258 -0.105474 0.092811 0.212150 -0.044579
particip -0.254895 0.592734 -0.176231 -0.275193 0.095442 -0.343851 0.141062 -0.107727 0.468727 0.085832 0.228258 0.170912 0.019928 -0.624725 -0.105463 -0.331296 0.101249 0.154977 -0.529698 0.090286 -0.249559
dont -0.478112 0.432766 0.252509 -0.339405 0.004412 -0.006633 -0.010874 -0.106546 -0.286429 0.162477 -0.732605 -0.188509 0.400581 0.154288 0.426831 -0.550522 0.061440 0.044435 -0.097173 0.075836 -0.389603
us -0.329621 0.504399 0.157129 -0.052369 0.461372 -0.301721 -0.043933 0.220355 0.254117 -0.013208 -0.513663 -0.149944 0.155638 -0.300550 0.485860 -0.525675 -0.087701 0.370279 0.005656 0.361654 -0.234359
long -0.145716 0.084605 -0.115473 0.065445 -0.521928 0.398618 0.024582 0.347749 -0.075878 0.012955 -0.656384 -0.254954 0.467768 -0.627534 -0.142458 0.218174 -0.080579 -0.447451 -0.137891 -0.061623 -0.056494
lot -0.371558 0.325674 -0.141979 -0.260056 -0.094433 -0.193425 -0.013954 0.268160 0.115627 0.055802 -0.316654 -0.168054 0.448719 -0.441983 0.101624 -0.309245 0.090891 0.184706 -0.125694 0.155247 -0.272131
present 0.012149 0.596848 -0.478631 0.024387 0.249579 -0.487979 0.125502 0.006609 0.132094 -0.423169 0.018045 -0.075233 0.410289 -0.126767 0.377624 0.001468 -0.286770 0.169617 0.111908 0.227448 -0.330867
answer -0.161776 0.250550 0.311868 -0.293176 -0.418085 -0.286326 -0.264682 0.026300 0.141945 0.168030 -0.061196 -0.227559 0.249541 -0.320902 0.236944 -0.338291 -0.019160 0.357114 -0.534322 0.242811 -0.166290
topic -0.039338 0.216733 -0.277376 -0.361151 0.271160 -0.444463 -0.194146 0.187106 0.261352 0.063812 -0.302907 -0.035390 0.142629 -0.485692 0.126860 -0.035231 0.158086 0.153473 -0.029908 0.062230 -0.101789
know -0.403665 0.638912 0.554641 -0.276423 0.111141 0.122998 0.416086 0.315263 0.300032 0.234107 -0.286073 -0.279903 0.384270 0.275933 0.415216 -0.477594 0.080498 0.134315 0.153399 0.252156 -0.342615
practic -0.096208 0.403139 0.057186 -0.124714 0.084194 -0.516898 -0.116958 0.091980 0.206215 0.188589 -0.122525 0.068878 -0.005934 0.034267 0.064780 -0.247190 -0.359796 -0.186010 -0.529183 -0.344280 -0.123601
assign -0.075075 0.404346 -0.062836 -0.024240 0.330217 -0.596416 0.081646 0.080499 0.286319 0.101944 -0.097801 0.051858 -0.039763 -0.103966 -0.154441 -0.082836 -0.277419 -0.102713 -0.125285 -0.390536 -0.116152
hard -0.465921 0.187724 0.304754 0.109579 -0.024801 0.533485 0.261194 0.361570 0.154273 -0.413948 -0.618284 -0.734131 0.414688 -0.714528 0.420987 -0.468579 0.248565 -0.304817 -0.374171 0.557164 -0.276639
week 0.124002 0.025568 0.029158 0.320538 -0.641684 0.330016 0.046577 0.193152 0.246200 0.283293 -0.287656 0.114042 0.316950 -0.788126 -0.437780 0.394382 -0.235618 -0.543628 0.257106 -0.312019 -0.087974
break -0.145407 0.128435 -0.102651 0.016384 -0.341091 0.309001 0.172369 0.338711 0.002432 -0.188228 -0.466823 0.012487 0.299783 -0.493576 -0.185555 0.362214 -0.177734 -0.313304 -0.026764 0.016609 0.074179
contact -0.189906 -0.148794 -0.259220 0.392721 -0.750817 0.103795 -0.155541 0.503164 -0.118822 0.043847 -0.503599 -0.008227 0.414737 -0.446364 -0.400235 0.153145 -0.171733 -0.285638 0.215245 -0.386038 -0.245539
wish 0.133018 0.368891 -0.150879 -0.296023 -0.313723 -0.245904 -0.060171 0.210722 0.261242 0.024017 -0.301366 0.010461 0.447157 0.049909 0.206722 -0.122083 -0.149793 -0.223122 0.032526 0.251851 -0.558064
wouldn’t -0.425435 0.153952 -0.040110 -0.566769 0.104163 0.643016 -0.008708 -0.068111 -0.095548 0.309636 -0.875307 0.628140 0.260079 0.679732 -0.190058 -0.223201 0.289033 0.019534 0.355755 0.368534 -0.307158
attend -0.211005 0.143421 0.069956 -0.503681 -0.097025 0.164255 0.030209 -0.102826 0.250874 -0.116885 -0.261153 0.220028 0.559773 0.084280 -0.204247 -0.291624 0.016075 -0.077228 -0.183263 0.169563 -0.150291
someth -0.402242 0.045533 0.088175 -0.283301 0.214144 -0.214911 0.137405 0.209653 -0.117538 0.156033 -0.817345 -0.084526 0.362042 0.209443 0.185637 -0.192606 -0.252534 0.093896 0.053928 0.082346 -0.213434
want -0.198736 0.385205 0.187206 -0.349579 0.126052 -0.198481 -0.107424 -0.048750 0.128640 0.196110 -0.470254 0.120139 0.291981 0.136853 0.011936 -0.308120 -0.116264 -0.073626 -0.033177 0.161515 -0.368423
actual -0.173900 0.460898 -0.019063 -0.331700 0.211228 -0.204165 0.024391 0.067343 0.151667 -0.016272 -0.275706 -0.009617 0.357356 -0.253990 0.422271 -0.216560 -0.123163 0.100521 -0.169014 0.130635 -0.189937
studi -0.106784 0.104247 -0.237560 -0.100726 0.026601 -0.042722 0.097375 0.034908 -0.099371 -0.104968 -0.263732 0.062071 0.255893 0.224846 -0.199107 -0.243001 -0.271157 -0.005802 0.017730 -0.117531 -0.192624
bit -0.225335 0.399980 -0.042169 -0.115271 0.140410 -0.039742 -0.011234 -0.103648 0.286351 0.008081 -0.427579 0.077642 0.316301 -0.213253 -0.073705 -0.254463 -0.011532 -0.057989 -0.182662 0.271879 -0.068695
love -0.358309 0.289718 -0.192903 -0.452616 -0.046852 -0.173939 -0.030165 -0.261352 0.369498 0.363675 -0.672631 0.116946 0.264252 0.471487 -0.155702 -0.305403 -0.043077 -0.227814 -0.008708 -0.328682 -0.489759
note 0.050280 -0.092168 -0.306046 -0.102733 0.061233 -0.003648 0.189522 0.797573 -0.103391 -0.529429 -0.454142 -0.024987 0.293304 -0.195098 0.026225 0.214300 -0.320485 -0.042171 -0.283173 0.269454 -0.179195
prefer -0.094987 0.272966 -0.044823 -0.109481 -0.336372 -0.324175 -0.299802 -0.012552 0.709609 0.064275 -0.644723 0.016326 0.452663 -0.173540 -0.227615 -0.323654 -0.477979 -0.327176 -0.068163 -0.299855 -0.719706
subject -0.193858 0.355156 -0.104485 -0.117293 0.050157 -0.270828 0.036234 0.080178 -0.214221 0.157155 -0.302478 -0.021453 0.297531 0.232607 0.202714 -0.169221 -0.061523 0.013577 -0.007289 0.102219 -0.158136
back 0.725409 -0.056464 -0.300945 -0.259180 -0.648714 -0.195643 0.569574 0.526806 0.057584 0.096632 0.307916 -0.089424 0.613871 -0.237040 0.366963 0.316024 -0.198301 -0.134392 0.669271 -0.104578 -0.191251
find -0.292752 0.322230 -0.077645 -0.195621 -0.108744 -0.125474 0.155041 -0.112291 0.111338 0.021696 -0.559356 -0.341309 0.461545 -0.474124 0.146454 -0.179813 -0.187291 -0.076512 -0.034410 0.199734 -0.367715
instead 0.065336 0.352507 -0.501042 0.007078 0.022750 -0.284862 -0.175577 0.391381 0.290542 -0.308114 -0.071996 0.220119 0.257999 -0.396310 0.016009 0.420018 -0.089894 -0.231311 0.137516 -0.246261 -0.175179
session 0.171520 0.163011 0.159483 0.175953 -0.215757 -0.444653 -0.182213 -0.019837 0.298503 -0.067801 0.059514 -0.291989 0.085008 -0.404020 -0.282915 -0.360909 -0.588574 -0.221627 -0.115193 -0.230896 -0.204626
slide 0.235250 0.384278 -0.480280 0.237983 0.079069 -0.253098 0.073793 0.170304 0.098952 -0.602420 0.078036 0.078122 0.587382 -0.492115 0.519811 0.379117 -0.521345 0.072529 0.177455 0.270797 -0.287591
speak -0.318440 0.450107 0.465285 -0.259515 -0.366783 -0.058466 -0.225584 -0.111566 0.177250 0.016955 0.040454 -0.027803 0.262425 -0.355882 -0.027665 -0.117845 0.116235 0.040214 -0.342870 0.290990 -0.212339
uni -0.085403 0.344438 0.052077 -0.148049 -0.065983 -0.177096 0.159299 0.138960 0.314098 0.177520 -0.191655 0.108016 0.149311 -0.011534 0.140153 -0.193771 -0.023153 -0.188685 -0.071550 -0.282483 -0.133743
difficult -0.479185 0.208916 0.090165 0.091095 0.186263 0.230207 0.154941 0.348801 -0.022330 -0.339683 -0.435323 -0.411641 0.260480 -0.571881 0.170584 -0.444460 0.063866 -0.260118 -0.251101 0.429160 -0.384581
even -0.164049 0.388732 0.097028 -0.312090 -0.060337 -0.119645 0.171903 0.020158 0.152675 0.128174 -0.224977 -0.135121 0.229335 -0.111363 0.024971 -0.193535 0.113820 -0.236249 -0.229160 0.049073 -0.240331
day -0.017802 0.160638 -0.073365 0.090300 -0.247516 -0.145921 0.041724 0.249639 0.120728 0.059942 -0.136818 0.115627 0.335538 -0.556562 -0.073442 0.271373 -0.171585 -0.397625 0.205327 -0.392736 -0.221601
easier -0.400134 0.310771 0.248165 -0.142713 -0.122216 -0.225242 -0.125557 0.331230 0.425567 -0.129258 -0.304415 -0.528784 0.205257 -0.463771 -0.126100 -0.991195 -0.096204 -0.124759 -0.557354 0.370772 -0.535724
2 -0.075275 -0.065807 -0.319826 0.302598 -0.742865 0.323558 -0.017277 0.425143 -0.169786 -0.159124 -0.681604 -0.035206 0.638207 -0.492675 -0.492530 0.399403 -0.218269 -0.445353 0.061566 -0.104054 -0.348727
give -0.303342 0.440461 0.065846 -0.456543 -0.020909 -0.419495 -0.310139 -0.202410 0.024323 -0.097004 -0.277408 -0.160501 0.237866 -0.104800 0.318543 -0.058923 -0.002364 0.127074 -0.399598 0.406948 -0.142825
abl -0.239299 0.378456 0.048707 -0.276612 -0.198262 -0.228906 0.058571 0.150162 0.101054 0.253929 -0.199182 -0.038606 0.207036 -0.182177 -0.127315 -0.234920 -0.068182 -0.073066 -0.308201 -0.187088 -0.234766
allow 0.129364 0.282825 -0.113754 -0.356101 -0.074860 -0.573539 -0.351874 0.179183 0.238474 -0.055927 0.033888 -0.106537 0.112071 -0.486909 -0.064027 -0.302878 -0.282693 -0.095895 -0.175701 -0.125526 -0.471915
exam 0.032744 0.073758 -0.124481 0.043052 0.035062 -0.105070 0.212333 0.161745 -0.095784 0.011703 -0.185864 -0.052761 0.045171 -0.018616 0.089915 0.050472 -0.028658 -0.017600 -0.036208 -0.148012 0.199833
listen 0.052685 0.110909 -0.517249 0.128942 -0.108732 -0.207565 0.093249 0.100565 0.207082 -0.215107 -0.270133 -0.251675 0.440834 -0.633391 0.004384 0.059229 -0.019552 -0.082576 0.118592 0.085585 -0.360563
quizz 0.068281 0.225413 0.120032 -0.181533 -0.171464 -0.413154 0.126349 0.010119 -0.083022 -0.014425 -0.095041 -0.199258 0.192342 0.060026 -0.234927 -0.076403 -0.394044 -0.042432 -0.116680 -0.326568 -0.122727
debat 0.037611 0.160465 -0.297622 -0.076343 0.006682 -0.450975 -0.213686 0.029681 0.533091 0.051629 -0.071862 -0.022049 0.060829 -0.457852 -0.040725 -0.276347 0.002387 0.222114 -0.229646 -0.192071 -0.320695
miss 0.161170 0.159544 -0.171808 -0.394200 -0.351219 0.204788 0.216715 0.038919 -0.004840 -0.035135 -0.186208 0.068017 0.471297 0.158051 0.184074 0.253901 0.003470 -0.293191 0.130599 0.182709 -0.042897
powerpoint 0.258970 0.306340 -0.289432 0.262402 0.318574 -0.305802 0.092747 0.142498 0.037625 -0.567869 0.047489 0.108865 0.285917 -0.226692 0.465343 0.287289 -0.384672 0.093910 0.194158 0.442928 -0.103062
structur 0.011661 0.204842 -0.141830 -0.270343 0.152620 -0.193935 -0.057559 -0.083920 0.262221 0.008836 -0.196225 0.062394 0.095044 -0.023626 -0.099190 -0.206749 -0.255642 0.030544 -0.187678 -0.016671 -0.202451
mani -0.270317 0.167027 0.135801 -0.278517 -0.526629 0.017393 -0.155924 -0.077376 0.233094 0.077996 -0.130580 0.035382 0.506517 -0.514091 -0.133785 0.033588 0.037756 0.047438 -0.502232 -0.155365 -0.462915
room 0.019149 0.210579 0.119984 -0.217139 -0.374512 -0.070287 -0.153385 0.087844 0.371115 -0.058272 0.011761 0.009215 0.238843 -0.484307 -0.035006 -0.017478 -0.232750 -0.234461 -0.168546 -0.095812 -0.211112
everyon -0.196196 0.355160 0.283291 -0.048765 -0.220214 -0.123892 -0.174143 -0.077284 0.419302 0.197970 -0.174406 -0.013566 0.132541 -0.385455 -0.020088 -0.535371 -0.104571 0.082619 -0.172497 -0.010914 -0.218308
focu -0.065251 0.164629 -0.005463 -0.102797 -0.146785 -0.107991 0.202150 0.128229 -0.023990 0.027943 -0.141009 -0.094590 0.229499 -0.202785 -0.125874 0.006130 -0.151142 -0.130560 -0.148280 0.050668 -0.259983
amount -0.363705 0.181400 0.180008 -0.271548 -0.200731 0.008204 -0.205810 -0.105689 0.141749 0.189310 -0.220284 0.240162 0.276156 -0.573768 -0.169117 0.037957 0.110214 -0.020494 -0.159528 -0.202789 -0.064194
etc 0.125993 0.352221 0.129668 -0.068867 0.009262 -0.339650 -0.276549 0.128008 -0.001503 -0.088341 0.028578 -0.248936 0.059309 -0.127338 0.110356 -0.162217 -0.107667 0.077172 -0.256700 -0.014484 -0.158308
lesson -0.214907 -0.006432 -0.052394 -0.147135 -0.058557 0.048267 -0.000345 0.168720 0.100301 -0.067075 -0.272883 -0.048572 0.087060 0.002052 -0.087689 -0.208360 -0.056680 0.089907 0.061968 0.037407 -0.133045
sure -0.545320 0.216996 -0.041673 -0.138767 0.151576 0.252609 0.043107 0.113756 0.037711 -0.232915 -0.264778 0.099024 0.345867 -0.218553 0.021632 -0.539173 0.019458 -0.081685 -0.160183 0.416915 -0.613008
base 0.392874 0.228628 -0.250001 -0.298744 0.320890 -0.576198 -0.118434 0.429886 0.394925 -0.037874 0.109664 0.069247 0.036661 -0.180916 0.036094 -0.015591 -0.142739 -0.215211 -0.351268 -0.285726 -0.285743
differ -0.094676 0.287784 -0.306043 -0.211103 0.192306 -0.415621 -0.061530 0.070719 0.235056 0.025100 -0.023669 -0.206227 0.085330 0.056850 0.097306 -0.307508 -0.107372 0.048121 -0.203657 -0.137225 -0.194053
everi -0.111943 0.218969 -0.229724 -0.140393 -0.139066 0.068849 0.173914 0.062825 0.114398 0.079796 -0.035001 0.118666 0.255449 -0.509723 -0.106223 0.262646 -0.030903 -0.227694 -0.071878 -0.126157 -0.267796
i’d -0.332021 0.317399 0.163573 -0.268818 0.022831 -0.131770 0.093695 0.137458 -0.144682 0.107301 -0.373825 0.152447 0.158958 0.090438 -0.373151 -0.297115 -0.281745 0.010922 0.026103 -0.005954 -0.488494
longer -0.266991 0.157362 -0.050265 -0.162878 -0.249814 0.040085 -0.076115 0.192641 0.041275 -0.013351 -0.161463 0.060753 0.163888 -0.415992 -0.270562 -0.039812 -0.037158 -0.264806 -0.272000 0.031741 -0.246147
opportun -0.026010 0.301829 0.315165 -0.118986 -0.092468 -0.508249 -0.285796 -0.015134 0.252564 0.008174 -0.203626 -0.272272 0.163359 -0.283186 0.276952 -0.485051 -0.170532 0.420888 -0.304796 0.220627 -0.462427
tutor -0.062200 0.333953 0.034982 -0.208935 0.064109 -0.322969 0.033427 0.007130 0.087828 0.093320 0.016765 -0.115842 0.052495 -0.133950 -0.087871 -0.193133 -0.220319 -0.102255 -0.084139 -0.053107 -0.139307
encourag -0.062629 0.356847 -0.086434 -0.230799 -0.066482 -0.398014 -0.137150 -0.139206 0.463095 0.201458 -0.007160 0.171651 0.117756 -0.575282 -0.066661 -0.312968 -0.028376 0.169995 -0.443745 -0.176036 -0.499569
instructor -0.120378 0.409870 -0.037274 -0.080862 -0.014397 -0.277157 0.056097 -0.041475 0.259198 0.068287 -0.313962 -0.119471 0.190402 -0.074961 0.194835 -0.287954 -0.084044 0.240920 -0.165039 0.217975 -0.365403
well -0.121643 0.260113 -0.168043 -0.202365 0.097115 -0.279617 0.126431 0.064011 0.012258 0.070435 -0.379543 0.068398 0.189260 0.320036 0.092668 -0.229048 -0.063512 -0.000599 -0.063873 -0.162381 -0.301695
larg 0.259454 0.301741 0.018418 -0.250709 -0.178832 -0.393352 -0.048845 0.121703 0.215990 -0.103643 0.195002 -0.316379 0.248851 -0.530461 -0.306224 -0.072890 -0.559478 -0.273914 -0.158137 0.146652 -0.379518
say -0.169713 0.241187 -0.236025 -0.365151 -0.049401 0.075443 0.108259 -0.182448 0.139146 0.125758 -0.513815 0.228235 0.287935 0.181474 0.012979 -0.078728 -0.031264 -0.080879 0.059009 0.164890 -0.456502
enjoy -0.404958 0.384659 0.019987 -0.416291 0.116770 -0.094034 0.176535 -0.106911 0.170158 0.337471 -0.647330 0.108956 0.137372 0.365201 0.099926 -0.507910 -0.010001 -0.067204 0.028993 -0.284238 -0.476483
alway 0.023090 0.245501 -0.086092 -0.180981 -0.121785 -0.196761 0.029365 0.110580 0.125654 0.071210 -0.280756 -0.112563 0.383597 0.089572 -0.003101 -0.255826 -0.200689 -0.103124 -0.067387 0.066603 -0.584698
end 0.107861 0.127418 0.162387 -0.183836 -0.347019 -0.195808 -0.114672 0.196597 0.040173 0.012616 0.069473 -0.155279 0.212630 -0.393896 0.041875 -0.045948 -0.067732 -0.220678 -0.290944 -0.026092 -0.083782
good -0.280761 0.373643 -0.175651 -0.209441 0.145894 -0.122380 -0.133997 -0.043457 0.092934 0.167179 -0.459639 0.071677 0.113076 0.181500 0.132809 -0.256156 0.071936 -0.237763 -0.026170 0.031899 -0.413810
without 0.073874 0.286541 0.036047 -0.204749 -0.127353 -0.263939 0.020309 0.065939 0.023683 0.149091 0.125145 -0.113291 0.026696 -0.337422 0.116850 -0.170655 0.099729 0.047487 -0.309093 0.093669 -0.272774
concentr -0.224210 -0.121257 -0.078531 0.049351 -0.336629 0.256566 0.091109 -0.025532 -0.367344 -0.031060 -0.557451 -0.356484 0.452400 -0.371988 -0.190080 0.578829 0.347364 -0.377824 -0.166529 0.352233 -0.093463
especi 0.105771 0.254691 -0.128380 -0.070778 -0.080867 -0.217483 -0.067897 0.107930 0.110962 0.023224 -0.058670 0.076239 0.270603 -0.112787 -0.096636 0.080901 -0.144051 -0.324375 0.011146 -0.121371 -0.223631
i’m -0.235573 0.187689 -0.007731 -0.275282 0.074797 0.201690 -0.018583 -0.199135 0.044133 0.192455 -0.336248 0.044347 0.022541 0.073098 0.049485 0.000879 0.197837 -0.064982 -0.090804 0.213075 -0.099504
live 0.226289 0.146702 -0.215320 -0.409641 -0.242753 -0.102557 0.049302 0.189113 0.168588 0.045400 -0.104843 0.093334 0.255406 -0.067565 -0.092559 0.101270 -0.113470 -0.249797 -0.033192 -0.010114 -0.328546
year -0.077909 -0.056735 -0.088760 -0.046749 -0.273059 -0.018129 0.214209 0.022553 0.054083 0.089439 -0.032399 0.054559 -0.255132 -0.038385 -0.160992 0.192488 0.101138 -0.223709 -0.162227 -0.116598 0.142164
around 0.005027 0.160448 0.261627 -0.313733 -0.364331 -0.076069 -0.148163 -0.080682 0.322631 0.187021 0.269749 0.072704 0.199791 -0.390976 -0.173880 -0.007091 -0.025898 -0.033864 -0.287777 -0.097438 -0.166462
classroom -0.097142 0.032918 0.078498 -0.069630 -0.238481 -0.062380 -0.105585 -0.092003 0.334783 0.018643 0.109868 0.073725 0.080866 -0.312106 -0.191166 -0.139862 -0.095700 -0.159791 -0.189758 -0.124524 -0.252296
enough -0.159435 0.213205 0.079731 -0.098640 -0.066330 -0.163680 -0.014480 0.185602 -0.123205 0.058028 -0.105023 -0.157517 0.121766 -0.387933 0.151811 -0.091298 0.044353 0.011382 -0.061544 -0.027188 -0.170956
univers -0.058217 0.122243 -0.035265 -0.414733 -0.127633 0.086388 0.178731 0.042194 0.025223 0.099158 -0.272589 0.207195 0.134527 0.094965 -0.039760 0.061655 0.099733 -0.225551 0.022630 -0.096000 -0.293607
attent 0.146371 0.247334 -0.215715 -0.175801 0.243552 0.062852 0.281239 0.016558 -0.079722 0.239788 0.248670 0.170908 -0.048588 -0.028662 0.085978 0.152338 0.495870 -0.319379 -0.268831 0.180760 0.311419
nice -0.026946 0.230473 -0.122827 -0.350467 -0.138577 -0.137339 -0.377008 0.049082 0.315705 0.077197 -0.686903 0.079622 0.260536 0.237315 -0.027243 -0.142841 -0.194792 -0.292754 -0.093784 -0.029948 -0.475664
quit -0.165080 0.151083 0.019713 -0.041058 0.084654 -0.016599 0.075175 -0.005594 -0.119598 -0.069152 -0.181037 -0.050798 0.203849 -0.072838 0.090071 0.007247 -0.041899 -0.131937 -0.052963 0.051916 -0.291750
big 0.141872 0.319946 -0.010359 -0.224259 -0.208421 -0.263799 0.155378 0.119096 0.207044 0.025686 0.240468 0.021368 0.040103 -0.293999 -0.363475 -0.053619 -0.348813 -0.332497 -0.105960 -0.068931 -0.504582
bore -0.208759 0.379866 0.072025 0.060472 -0.030787 0.116791 0.174556 0.381403 0.134482 -0.100490 -0.009612 -0.144770 0.068231 -0.335210 0.019337 -0.163952 -0.048367 -0.158202 -0.041924 0.179488 -0.253719
possibl 0.019900 0.262111 0.042980 -0.209186 -0.212859 -0.273679 -0.053982 0.067750 0.321212 -0.003379 0.024630 -0.035948 0.104532 -0.218041 0.090165 -0.365828 -0.141423 -0.067438 -0.262182 0.087429 -0.337094
revis 0.218150 0.000200 -0.086377 -0.175970 -0.109850 -0.156163 0.144062 0.197653 0.033655 -0.169527 -0.008080 0.043733 0.443804 -0.000608 0.053722 0.152243 -0.026753 -0.197880 0.098556 0.189229 0.056474
exampl 0.076441 0.250909 -0.126304 -0.124622 -0.073295 -0.330975 -0.014696 0.047902 0.047847 -0.068913 0.105827 0.028087 0.179425 -0.138244 0.119990 0.127870 -0.040757 -0.076980 -0.071538 0.048112 -0.266135
explain -0.289306 0.117261 -0.134891 -0.196880 0.020344 0.010699 -0.034672 -0.237141 -0.011057 -0.007971 -0.213590 -0.107121 0.236738 0.151081 0.228512 -0.329041 0.007370 0.116583 0.140743 0.199329 -0.289153
keep -0.167750 0.124943 -0.162495 -0.245471 0.039360 -0.122673 0.081529 -0.107023 0.044517 0.072860 -0.250134 -0.179444 0.274681 -0.253098 0.159164 -0.034363 0.088571 -0.015968 -0.335638 0.250743 -0.406200
per -0.065536 0.155737 -0.256082 -0.069914 -0.320044 0.235995 0.136150 0.180122 0.136644 0.127456 -0.019335 0.264735 0.229933 -0.585923 -0.299269 0.528199 -0.030129 -0.272540 -0.029730 -0.190559 -0.222825
im -0.253845 0.158002 -0.033286 -0.146412 -0.143237 0.108433 0.172107 0.015591 0.082171 0.209498 -0.228945 0.052056 0.017314 0.031797 -0.041233 -0.052830 0.057487 -0.110951 -0.092417 -0.115699 -0.136125
great -0.096139 0.261215 -0.104806 -0.321511 0.032790 -0.189294 -0.186990 -0.052858 0.263592 0.191006 -0.399924 0.154638 0.037197 0.096441 -0.041812 -0.107967 -0.048855 -0.201309 -0.197387 -0.175683 -0.530468
id -0.327008 0.355977 0.051697 -0.184384 0.110175 -0.060332 -0.012169 -0.011835 0.029112 0.147011 -0.514035 0.194256 0.195443 0.278285 -0.289399 -0.351319 -0.211513 0.053369 0.027227 0.010589 -0.537577
interest -0.100460 0.173720 -0.093334 -0.173980 0.112772 0.047416 -0.036354 -0.068610 0.201795 0.034024 -0.204530 0.009018 0.144089 -0.030964 0.044157 -0.079554 -0.008965 -0.002709 0.076414 0.148055 -0.298649
modul 0.106910 0.170665 -0.140053 0.091942 -0.126948 0.073451 -0.047413 0.089208 0.217162 0.017948 -0.174179 0.193902 0.187206 -0.311981 -0.170982 0.378073 -0.181233 -0.444299 0.059893 -0.176581 -0.015871
whole -0.000883 0.298627 -0.082181 -0.324978 -0.127151 -0.201463 0.069487 0.150139 -0.010217 0.058229 0.105423 0.054949 0.118083 -0.465602 0.021080 0.031831 0.102955 -0.249304 -0.063513 0.023299 -0.319411
case 0.187324 0.098717 -0.129801 -0.200878 0.035064 -0.170459 0.109271 0.166773 0.109138 -0.004201 -0.071922 -0.023687 0.196457 0.066052 -0.036171 0.109471 -0.104019 -0.193291 0.036129 0.008435 -0.218635
current 0.017585 0.112233 0.017355 -0.127051 -0.136748 0.068868 0.092346 0.212918 -0.103767 0.018635 -0.046414 0.033957 0.059097 -0.075135 -0.194868 0.308268 0.075847 -0.391273 -0.058927 -0.070855 -0.158624
everyth -0.137200 0.044343 -0.002028 -0.144138 -0.022305 -0.055422 -0.078830 0.200206 -0.195864 0.054402 -0.294826 -0.107524 0.148829 -0.108083 0.035386 -0.082253 -0.045321 0.071795 0.008517 0.088393 -0.179224
given 0.158673 0.073065 -0.114299 -0.173015 -0.121399 -0.032340 -0.127331 0.189211 -0.018627 -0.210727 0.038876 -0.014171 0.236020 -0.195411 0.073299 0.215997 -0.081897 -0.146117 -0.056505 0.074879 -0.212456
littl -0.288112 0.202792 -0.016432 -0.227674 0.057238 0.008173 -0.117552 -0.171995 0.072104 0.016482 -0.226389 0.021227 0.254701 -0.121919 -0.066506 -0.212490 -0.087983 0.041734 -0.084637 0.073757 -0.277406
motiv -0.264248 0.312174 -0.124464 -0.115355 0.350719 -0.302779 0.158610 -0.138977 0.136491 0.094910 -0.199854 0.026018 0.143490 -0.091611 0.189155 -0.295952 0.031285 0.127757 -0.311689 0.006467 -0.389767
point 0.096862 0.060141 0.079171 0.020931 0.159776 0.047106 0.057132 0.133872 0.024500 -0.180696 0.057192 0.017243 0.012839 -0.147098 0.176667 0.150077 0.054255 -0.165026 -0.074025 0.076452 -0.209534
set 0.075455 0.261598 0.065990 -0.181349 -0.186406 -0.342138 -0.040834 0.014798 0.232537 0.107528 0.160721 0.031150 -0.018333 -0.172477 0.055421 -0.175472 -0.185314 -0.032971 -0.298167 -0.078388 -0.276027
sit 0.031305 0.229011 -0.354366 0.197303 0.058765 -0.089929 0.006530 0.284776 0.129375 -0.202394 -0.071449 0.114385 0.175876 -0.185259 0.132802 0.187501 -0.057144 -0.160524 0.130077 0.263330 -0.186708
focus 0.129041 0.173341 -0.239103 -0.228060 0.026467 -0.108391 0.096365 -0.004974 0.077903 0.051728 0.009555 0.052712 0.116481 -0.229749 0.079026 0.102810 0.037856 -0.072079 -0.139235 0.015366 -0.356265
follow -0.266777 0.084992 -0.126236 -0.344998 -0.128093 -0.123075 0.198673 -0.097189 -0.108019 0.110643 -0.323434 -0.171845 0.167924 -0.064406 -0.038303 0.096474 0.115257 -0.154287 -0.144072 0.184996 -0.147526
knowledg -0.018722 0.010930 0.056038 -0.058310 -0.051680 0.072209 0.025235 0.143959 -0.050603 -0.053652 0.150606 0.025265 -0.134121 -0.015190 -0.079743 0.134604 0.180539 -0.102880 -0.107643 -0.093405 0.050627
minut 0.149499 0.016421 0.044207 -0.002020 -0.183814 0.336477 0.164848 0.173905 -0.148258 0.065359 -0.032100 0.128574 0.085670 -0.332332 -0.104065 0.270339 0.109999 -0.374453 -0.067766 -0.006264 -0.048101
start 0.069805 0.158612 0.035408 -0.152699 -0.104330 -0.021723 -0.008286 0.037221 0.063050 0.083107 -0.046586 0.004482 0.172472 -0.238698 0.012342 0.032102 -0.147177 -0.182493 0.030144 0.072111 -0.289011
style 0.199252 0.340890 0.010817 -0.205166 0.109260 -0.396323 0.003605 0.021045 0.243313 -0.037104 0.097812 0.161038 0.029926 -0.142191 0.129660 -0.113559 -0.251185 -0.112088 -0.289091 -0.067235 -0.504723
3 0.008644 -0.055779 -0.270181 0.183378 -0.484731 0.166652 -0.036231 0.393304 -0.112315 0.070375 -0.284574 0.124311 0.153213 -0.308326 -0.523836 0.457458 -0.082970 -0.613176 0.061144 -0.301937 -0.366392
depend -0.086099 0.233902 -0.042863 -0.160653 -0.015967 0.036773 0.100999 0.111674 0.061904 0.147300 -0.192602 -0.136172 0.128928 -0.080523 0.174966 -0.199360 0.155990 -0.089154 0.104189 0.026401 -0.270719
design -0.193432 0.216948 -0.035606 -0.317145 0.020577 0.041257 0.098568 -0.078129 0.085240 0.145514 -0.269923 0.057803 0.038379 0.084211 -0.168265 -0.146610 0.072149 -0.149487 -0.137166 -0.037728 -0.304973
provid 0.080500 0.231597 -0.077084 -0.176654 0.099913 -0.147527 0.009900 0.191981 0.008816 -0.224095 -0.072532 -0.002028 0.231928 0.161303 0.173606 0.121820 -0.031178 -0.085364 -0.029167 0.136639 -0.130371
resourc 0.054553 0.157810 -0.203459 -0.208791 0.047647 -0.218463 0.193100 0.234918 -0.072926 -0.222630 -0.220061 -0.025012 0.220477 0.252908 -0.050759 0.048475 -0.160705 -0.085778 -0.029556 -0.165301 -0.228912
usual 0.100123 0.179145 -0.085382 -0.114559 -0.260280 0.087907 0.262999 0.142713 -0.007124 0.064559 0.078512 0.020726 0.114111 -0.353265 -0.184516 0.236988 0.031622 -0.244508 -0.149570 -0.013536 -0.230982
write 0.251600 0.183956 -0.145268 -0.045493 -0.054103 0.010153 -0.011840 0.197963 -0.132777 -0.209562 0.094382 0.015168 0.173459 -0.017925 0.035051 0.329760 -0.151663 -0.199164 -0.035633 0.219083 -0.090478
avail 0.187173 0.037021 -0.244350 -0.131505 -0.057268 -0.091645 0.156610 0.448116 0.045527 -0.319215 -0.233546 -0.155289 0.543842 0.161112 0.075275 0.101367 -0.086564 -0.016297 0.091998 0.147452 -0.339979
distract -0.283382 0.279372 0.258035 -0.046468 -0.214052 0.214751 0.040872 0.240852 0.245585 0.024952 -0.104299 -0.134119 0.134805 -0.538892 0.183827 -0.085720 0.007192 -0.112676 -0.034106 -0.050769 -0.338836
hand 0.025690 0.144257 0.196298 -0.157621 -0.139574 -0.188395 -0.255666 0.017706 -0.015374 -0.113158 -0.021139 -0.117650 0.091212 0.000988 0.144174 -0.070350 -0.029930 -0.122109 -0.345708 0.198965 -0.164733
later 0.427411 0.060909 -0.094273 -0.154734 -0.199825 -0.231859 0.188507 0.275662 -0.030483 0.020636 0.231869 0.008220 0.250903 -0.119120 0.175146 0.252790 -0.063920 -0.230854 0.176586 0.089885 -0.148388
option -0.049143 0.159650 -0.110885 -0.257263 -0.092511 -0.174002 0.099387 0.110032 0.100130 0.031690 -0.242220 0.064782 0.281522 0.113361 -0.066513 -0.093952 -0.003291 -0.000228 -0.009135 -0.092306 -0.497021
prepar 0.024515 0.290552 -0.189357 -0.195894 -0.027140 -0.204804 0.048205 0.044667 0.358960 0.061882 -0.032047 0.049591 0.152267 -0.221994 -0.028588 -0.041920 -0.054420 0.000129 -0.249908 -0.142106 -0.428842
wouldnt -0.350497 0.026061 0.026926 -0.286693 0.178754 0.490662 0.022010 -0.092356 -0.018209 0.316603 -0.738098 0.394063 -0.004489 0.557382 -0.228098 -0.334523 0.235474 0.101489 0.239266 0.234171 -0.600611
chanc -0.123778 0.276076 0.324090 0.027064 -0.271814 -0.207094 -0.198694 0.017775 0.369851 0.004383 -0.050116 -0.340396 0.014855 -0.344020 -0.045067 -0.616297 -0.215062 0.145904 -0.183201 0.046067 -0.537804
come -0.093357 0.237247 -0.064492 -0.185910 0.085344 -0.085293 -0.029478 0.007851 0.055378 -0.037197 -0.108194 0.086374 0.138809 0.029875 0.175052 0.029182 0.082869 -0.030967 -0.087329 -0.046637 -0.304135
home -0.066678 0.215970 0.060038 -0.098604 -0.056530 -0.159209 0.146119 0.077371 0.020602 0.140834 -0.056014 0.009906 0.039524 0.147305 -0.100820 -0.074117 -0.114585 -0.044222 -0.011862 -0.250456 -0.191126
idea 0.084783 0.141817 0.111346 -0.105602 0.046703 -0.250975 -0.071191 0.118876 0.176746 0.042589 0.143266 -0.078648 -0.110250 -0.154510 -0.053041 -0.189976 -0.004687 -0.082222 -0.228569 -0.087099 -0.225332
open 0.049763 0.229703 -0.197254 -0.202681 0.082925 -0.322026 -0.429940 0.225549 0.549028 -0.002495 -0.314219 0.022920 -0.054121 -0.323478 -0.171534 -0.108553 -0.054471 0.024425 -0.173557 -0.214746 -0.587682
pressur 0.113422 0.118676 -0.079105 0.091755 -0.030564 -0.106410 0.311430 0.168787 0.179201 -0.041188 0.225090 0.028817 0.057681 -0.269857 0.110504 -0.053697 -0.254872 0.192103 -0.100834 0.160114 -0.223654
short -0.088412 0.003365 -0.128911 0.122156 0.040601 0.212702 -0.050496 0.336667 -0.135814 -0.112735 -0.153103 0.164769 0.080742 -0.032627 -0.086127 0.129133 -0.066673 -0.181555 -0.062841 -0.007009 -0.150351
still -0.003245 0.186098 -0.142349 -0.189150 -0.057359 -0.134684 0.014738 0.040336 0.171671 -0.042847 -0.351640 -0.056321 0.356307 0.130017 0.107172 -0.163077 -0.055736 -0.068994 0.053310 0.071481 -0.579711
test 0.067084 0.024364 -0.068678 -0.139628 -0.038480 -0.032838 0.138264 0.051515 -0.076631 0.211397 0.107387 -0.071112 -0.060508 -0.112676 -0.099854 0.163505 0.081094 -0.256035 -0.124462 -0.149910 0.140440
hall 0.288323 0.229091 0.009583 -0.217060 -0.157926 -0.044871 -0.067695 0.232531 0.230153 -0.213030 0.133185 0.077742 0.429229 -0.326888 0.115125 0.245635 -0.201751 -0.250326 -0.140822 0.150738 -0.382566
pace 0.073144 0.185080 0.026463 -0.085895 0.052719 -0.030806 0.060465 0.054201 0.101835 0.006326 0.073860 0.138657 0.049814 -0.036207 0.034993 0.111996 -0.163202 -0.208680 -0.113692 -0.043642 0.027303
project 0.073978 0.195658 0.043950 -0.036551 0.154759 -0.494834 -0.259700 -0.094423 0.187782 0.155986 0.145849 -0.138796 -0.230229 -0.182944 -0.431970 -0.222496 -0.389439 -0.278022 -0.059754 -0.249338 -0.384727
tri -0.024657 0.299043 -0.067872 -0.209649 0.182792 0.009130 -0.128947 0.059943 0.128871 -0.028230 -0.128916 0.116188 0.162155 -0.069206 0.055988 -0.052212 -0.000613 -0.263132 -0.123896 0.143802 -0.506822
add -0.017605 0.149827 -0.132121 -0.101884 0.009686 -0.146233 -0.266010 -0.008571 0.200487 0.067290 -0.464691 0.106913 0.152994 0.124966 -0.122597 0.149156 -0.155801 -0.249486 -0.095932 -0.122688 -0.438798
contribut -0.153932 0.136508 0.218247 -0.066240 -0.184120 -0.034982 -0.179475 -0.071066 0.116460 0.059458 -0.041134 -0.027574 0.183020 -0.204189 -0.183379 -0.134400 0.031463 0.102415 -0.202057 -0.066929 -0.163323
eg 0.204282 0.120254 -0.154623 -0.089500 0.115618 -0.151413 0.009416 0.052952 0.004584 -0.042772 0.074377 0.042078 0.063883 0.195052 -0.045148 0.243708 -0.030182 -0.231553 -0.122647 -0.023251 -0.248258
howev -0.134965 0.315182 -0.141200 -0.215507 0.077929 -0.164099 -0.088860 -0.064942 0.223852 0.223852 -0.558256 0.166216 0.168162 0.050985 -0.064095 -0.107189 -0.087206 -0.163983 -0.165214 -0.156972 -0.629224
isn’t -0.061867 0.162769 0.004217 -0.094674 -0.106330 0.094006 -0.094853 0.071586 -0.086256 0.078297 -0.039339 0.012881 0.008583 0.012769 -0.010691 0.187545 0.002109 -0.200141 -0.090492 -0.038867 -0.153798
put -0.115185 0.195578 -0.158402 -0.147921 -0.001590 -0.234989 -0.034597 0.149392 0.231997 -0.113041 -0.432745 -0.055757 0.342760 0.351211 0.026979 -0.091125 -0.092054 -0.033374 -0.004602 -0.224984 -0.605359
upload 0.397984 0.145963 -0.282058 -0.178636 -0.060524 -0.082670 0.107912 0.333686 -0.029494 -0.259363 -0.177830 -0.015347 0.402732 0.223356 0.104481 0.166660 -0.261801 -0.152326 0.211379 0.015344 -0.193906
watch 0.336058 0.069061 -0.137526 -0.161478 -0.291928 -0.264541 0.194320 0.369202 0.093686 -0.145541 0.060825 -0.050013 0.501374 -0.085943 0.155598 0.278949 -0.161602 -0.099777 0.384075 -0.018215 -0.337374
access 0.034057 0.086011 -0.156969 -0.185845 -0.114694 -0.168728 0.181664 0.264430 0.043941 -0.141780 -0.076883 -0.145055 0.272699 0.149956 -0.103802 0.079677 0.000872 -0.021615 -0.036419 -0.134224 -0.481075
experi -0.061442 0.159873 0.136250 0.076545 0.160303 -0.324944 0.047958 0.047619 0.067167 0.043255 -0.002250 -0.000494 -0.075681 0.140677 0.055104 -0.110933 -0.125743 -0.009366 -0.180351 -0.282851 -0.339519
first -0.032535 -0.119402 0.074354 -0.062642 -0.117019 -0.045284 -0.032052 0.058168 -0.168709 0.134739 0.066859 0.120441 -0.111667 -0.157940 -0.030592 -0.016411 0.087479 -0.181066 -0.109299 -0.219841 -0.110930
grade -0.060813 -0.013222 0.009087 0.006515 0.042161 0.063220 -0.179837 -0.064734 0.018358 0.172882 -0.165784 0.216248 -0.142951 0.231190 -0.080932 0.017199 0.047766 -0.150184 -0.086457 -0.047605 -0.012930
happen -0.096048 0.209891 0.043477 -0.247261 0.027231 -0.123064 -0.070102 0.136053 -0.041669 -0.028693 -0.012026 0.005612 0.105018 -0.112923 0.019043 0.036847 0.083676 -0.106584 -0.072564 0.047836 -0.324195
mean -0.176432 0.217855 0.003291 -0.118494 -0.125067 -0.087220 -0.126187 0.019662 0.122410 0.170272 -0.195773 0.010433 0.173896 -0.135551 0.007613 0.022905 -0.011442 -0.152213 -0.138927 -0.179844 -0.485947
method 0.193600 0.411572 0.145939 0.108293 0.340260 -0.391672 0.033988 0.159137 0.144754 -0.082813 -0.060971 0.024789 0.083606 0.298130 0.368901 -0.268457 -0.200176 0.129616 0.084660 -0.006219 -0.375337
part -0.066179 0.035370 -0.144423 -0.208562 -0.013565 -0.059723 -0.025622 0.162393 0.048342 0.033878 -0.110978 0.132256 0.095517 -0.006966 -0.091132 0.153823 -0.019662 -0.199879 -0.084478 -0.125415 -0.210877
problem 0.040614 0.149788 0.046423 -0.167861 0.005727 -0.124715 0.033741 -0.067210 -0.021115 0.128256 0.089212 0.111785 -0.102584 0.164335 -0.170544 0.059813 0.083303 -0.085988 -0.105798 -0.108282 -0.202518
school -0.048659 0.278444 -0.018875 -0.084860 0.099011 -0.222744 0.034411 0.035165 -0.084454 0.109056 -0.106586 0.077155 0.059660 0.018435 -0.133074 -0.008221 -0.110911 -0.099050 -0.069501 -0.047631 -0.304656
see -0.243041 0.143513 0.287638 -0.147771 -0.071405 -0.070714 -0.071841 -0.024128 0.023259 0.050339 -0.041485 -0.033913 0.118793 -0.091183 0.000504 -0.175315 0.058577 0.054835 -0.110722 0.069271 -0.405696
task 0.149017 0.085380 0.005069 -0.069547 0.056033 -0.355606 -0.009559 -0.061660 0.165795 -0.011996 0.376574 -0.054832 -0.048994 -0.120754 -0.213966 -0.156052 -0.203430 -0.113549 -0.081722 -0.177820 -0.149625
taught 0.051691 0.256216 -0.174746 -0.138282 0.201182 -0.192101 0.025661 -0.016882 0.077200 -0.011473 0.090796 -0.119487 0.041368 0.043645 0.080462 -0.063433 -0.124456 -0.136117 -0.052191 -0.024563 -0.337023
video 0.166075 0.201264 0.002074 -0.177532 -0.105602 -0.067617 -0.039726 0.302448 -0.148979 -0.196277 -0.073965 0.001894 0.307947 0.045763 0.030476 0.242134 -0.115784 -0.246533 0.074959 0.075968 -0.397886
can’t -0.136486 -0.019053 -0.044757 -0.289873 -0.054726 0.139697 0.023071 -0.242682 -0.105629 0.210327 -0.413420 0.181071 0.137387 0.316532 0.043308 -0.153978 0.192484 -0.078517 0.011795 -0.016363 -0.373307
certain -0.090733 0.185045 -0.031766 -0.206336 -0.041914 -0.029194 -0.114776 -0.109248 -0.045804 0.138780 -0.069008 0.116780 -0.028813 -0.001885 0.011443 0.009206 0.038005 -0.098512 -0.139663 -0.030957 -0.361361
fast 0.159319 0.054718 -0.088072 -0.137241 -0.064299 0.054615 0.136619 0.119176 -0.065796 -0.198745 -0.111862 -0.106760 0.286527 -0.213481 0.147826 0.132991 -0.058675 -0.051952 0.037356 0.186043 -0.250768
real 0.081879 0.050561 -0.024253 -0.059865 -0.080200 -0.067787 -0.311242 0.092405 -0.121118 -0.180123 0.075755 0.011267 -0.130257 0.170663 -0.031763 0.101732 0.098305 -0.071442 0.023177 0.046142 0.047592
reduc 0.011663 0.090109 0.004671 -0.147399 -0.219149 0.003166 0.108640 0.037649 0.064992 0.064784 0.098754 0.190895 -0.038754 -0.061492 -0.154585 0.174743 -0.042771 -0.286733 -0.051478 -0.086419 -0.166368
right -0.032450 0.260932 0.037767 -0.198887 0.033642 -0.043873 0.053688 0.085517 0.046408 -0.018654 -0.145291 0.144976 0.160406 0.038848 0.007284 0.029259 -0.024676 -0.205081 0.010020 0.032320 -0.337935
appli 0.015994 -0.042964 -0.111966 -0.023869 -0.005318 -0.029112 0.011414 -0.016767 -0.010670 0.027817 0.020389 -0.061350 0.041104 -0.002359 -0.022200 0.048778 0.023521 -0.051383 -0.000880 -0.095023 -0.244938
cant -0.138475 0.064717 0.067741 -0.209313 0.036736 -0.063493 -0.000991 -0.252830 0.035107 0.083692 -0.242375 0.055212 0.139793 0.173775 0.086913 -0.261537 0.029530 0.157480 -0.029956 -0.002909 -0.435004
comfort -0.170608 0.183540 0.265550 -0.042123 -0.113376 -0.042014 -0.206469 0.160287 0.098132 -0.045018 -0.050700 -0.469547 0.162481 -0.364484 0.042840 -0.567554 0.049746 0.204615 -0.418602 0.245095 -0.421502
degre 0.098046 0.015436 -0.042440 -0.098459 -0.080674 -0.046977 0.030836 0.035631 0.017564 0.001721 0.066223 0.049161 -0.068522 0.065367 -0.097868 0.019956 -0.033982 -0.035584 -0.019578 -0.067761 -0.242064
due 0.081739 -0.033287 0.018441 -0.066159 -0.055143 0.103884 0.097595 -0.000465 -0.060789 -0.021870 -0.108443 0.031138 0.077184 -0.025103 0.023216 0.047578 0.020522 -0.003836 0.041085 0.107744 -0.285787
length -0.085161 0.080919 -0.054717 -0.076520 -0.200508 0.269256 0.024629 0.129640 -0.002679 -0.034821 -0.465998 0.067312 0.291959 -0.233335 -0.287197 0.167314 0.032805 -0.230486 0.135931 0.034299 -0.371946
mandatori -0.128204 0.178480 -0.008065 -0.227249 -0.110844 0.067505 0.169960 -0.164801 0.115430 0.023942 -0.220325 0.087127 0.193767 -0.003365 -0.286836 -0.303597 -0.046516 -0.007964 -0.015234 0.061385 -0.164949
new -0.121912 0.091428 0.099139 -0.056896 0.009457 -0.248219 -0.106512 -0.167809 0.121143 -0.011093 0.090022 -0.018516 0.160622 -0.028236 0.027903 -0.127620 -0.273382 0.101704 0.001038 -0.056237 -0.147965
opinion -0.086513 -0.003354 0.091603 -0.143970 -0.050071 0.014659 -0.026948 0.000824 -0.053005 0.105632 -0.056219 -0.021664 -0.088073 -0.093389 0.127057 -0.104283 0.133292 0.163966 -0.145704 0.131146 -0.186773
other -0.207400 0.158413 -0.080654 -0.077672 0.131273 -0.054149 -0.016976 -0.104200 0.054187 0.094887 -0.125596 0.153149 -0.038099 0.048218 -0.023667 -0.106552 0.090887 0.036229 -0.035394 0.017675 -0.420083
post 0.102349 0.137912 -0.176063 -0.251136 -0.215209 -0.144582 -0.059875 0.331567 0.081011 -0.212260 -0.369670 -0.149358 0.538711 0.319834 -0.019400 0.078142 -0.136177 -0.084595 0.131168 -0.089541 -0.457167
sinc 0.067925 0.175853 -0.213908 -0.081282 0.049778 -0.102216 0.054759 0.024999 0.116613 0.043325 -0.059504 0.072532 0.044713 -0.081460 0.044672 0.012348 -0.060746 -0.145308 -0.113669 0.019461 -0.350492
space 0.077336 0.128344 -0.068266 -0.087749 0.085342 -0.179583 -0.091330 0.098014 0.074726 -0.055720 0.073148 -0.015819 -0.089084 -0.253029 0.139480 -0.055856 0.003074 0.086958 -0.160469 0.017092 -0.101339
type 0.046443 0.177227 -0.091558 -0.077618 -0.058614 -0.243472 -0.134086 0.066898 -0.048707 -0.104857 -0.101090 -0.043778 0.131744 0.010355 0.115503 -0.108630 -0.219787 -0.086675 -0.124368 0.024496 -0.415204
flexibl -0.101378 0.071238 -0.071057 -0.102577 -0.028694 -0.038533 0.093837 0.166292 0.016925 -0.033034 -0.074519 -0.035371 0.140927 0.013152 -0.031140 -0.040115 0.070532 0.030229 -0.001232 0.038246 -0.400777
frequent 0.040237 -0.019936 -0.048524 -0.000967 -0.155025 0.031783 0.062936 0.018349 0.101342 0.072932 -0.026197 0.004985 0.065839 -0.070011 -0.193293 -0.077253 -0.046799 -0.073516 -0.015176 -0.085140 -0.309811
gener -0.024552 0.135550 0.025743 -0.163902 -0.060679 -0.006977 -0.062727 -0.048468 0.023572 0.062932 -0.111238 0.036237 0.164311 -0.027840 0.043363 -0.028796 0.033002 -0.106631 0.000447 0.048520 -0.186951
lack -0.047269 0.034706 0.051472 -0.088763 -0.018466 0.047413 0.091462 -0.074060 0.033691 -0.025482 0.009793 0.075089 0.038918 -0.060193 0.048777 0.068763 0.138346 -0.060315 -0.058105 0.096548 -0.379548
made 0.092621 0.125916 -0.046512 -0.149784 -0.057104 -0.115695 0.078755 0.049537 0.043965 -0.123415 0.044483 -0.114164 0.102486 0.097104 -0.064659 -0.022942 -0.144528 0.007079 -0.018209 0.059848 -0.492833
outsid 0.057717 0.242671 -0.159614 -0.173710 -0.046048 -0.174488 0.132295 0.105643 0.235473 0.110726 0.061975 0.117538 -0.065375 -0.123313 -0.011895 0.014221 -0.018986 -0.168065 -0.204295 -0.236093 -0.329245
complet 0.033201 0.087564 -0.050039 -0.128579 0.116664 -0.266379 0.042143 0.125690 0.150381 0.060198 -0.009548 0.053512 -0.031902 -0.073827 0.024526 -0.016091 -0.080059 -0.038256 -0.139302 -0.259389 -0.268098
earli 0.074416 0.048642 -0.154117 -0.168303 -0.054918 -0.136317 0.248774 0.081195 0.048445 0.149839 0.201806 0.073684 -0.180752 -0.080647 -0.064116 0.023159 0.085672 -0.094457 -0.167545 -0.189824 0.001126
educ -0.104403 0.028948 0.029640 -0.081435 -0.014963 0.148764 0.037260 -0.058411 -0.073174 0.198097 -0.120590 0.100628 -0.051135 0.276927 -0.085736 -0.031542 0.105263 -0.111716 0.135786 -0.010815 -0.203648
half -0.095343 0.095956 -0.249412 -0.027010 -0.163628 -0.107523 -0.008421 0.223452 -0.101776 -0.081291 -0.214619 -0.060245 0.278627 0.072604 -0.076350 0.069028 -0.054217 -0.158650 0.014953 -0.046176 -0.426179
includ -0.089675 0.164707 -0.088827 -0.171798 0.022248 -0.135243 -0.216400 0.031053 0.163214 0.017499 -0.260136 0.106710 0.077064 0.160528 -0.093388 0.017940 -0.003727 -0.112987 -0.088706 -0.133663 -0.337119
order 0.118371 0.229956 -0.159136 -0.187850 0.083704 -0.265977 -0.021688 0.107023 0.228939 0.085210 0.033646 0.034397 0.038761 -0.154606 -0.122928 -0.115236 -0.045448 -0.065942 -0.094197 -0.033779 -0.421724
peer -0.024663 0.265155 -0.097710 0.035704 0.361779 -0.410474 -0.053523 0.120167 0.152552 -0.014082 -0.075376 0.106723 0.041713 -0.073391 0.141046 -0.184466 -0.109009 0.044880 -0.084236 -0.144397 -0.508357
probabl -0.326333 0.198121 -0.106343 -0.222185 0.122303 0.064713 -0.168727 0.000453 0.195224 0.084195 -0.370481 0.203597 0.125879 0.171823 -0.140484 -0.295577 0.051402 -0.132777 -0.050964 0.112434 -0.576931
schedul -0.108699 0.032122 0.068033 -0.138499 -0.030379 -0.068592 -0.151376 0.029832 -0.020699 0.027023 -0.171812 -0.003586 0.099227 -0.102685 -0.013701 -0.045667 -0.011416 -0.060553 0.020046 0.024062 -0.454299
seem -0.174255 0.324502 0.063361 -0.008227 0.061858 -0.006225 0.159476 0.032498 -0.065846 0.092786 -0.088313 0.000323 0.059662 -0.008580 -0.037174 -0.079528 0.033972 0.039196 0.091050 0.051715 -0.378955
spend -0.155309 0.053586 0.076176 -0.109328 -0.443968 -0.048314 -0.114750 0.211138 -0.289594 0.051730 -0.121461 -0.030644 0.253036 -0.519095 -0.197124 0.299040 0.076996 -0.317109 0.019900 -0.109097 -0.522376
struggl -0.051343 -0.056840 -0.163157 -0.025671 0.055705 0.030420 0.028492 0.152445 -0.043011 -0.070655 -0.140866 -0.015692 0.182936 -0.216257 0.036366 0.034457 0.018235 -0.125343 -0.026028 0.033455 -0.252436
throughout 0.286868 0.131302 -0.092838 -0.192181 -0.172467 0.021482 -0.005096 0.239511 -0.056320 -0.094495 0.083409 0.003277 0.196814 -0.161527 -0.003086 0.346493 -0.046558 -0.336941 -0.030099 0.008724 -0.263376
1 -0.012930 -0.063001 -0.285198 0.225154 -0.444035 0.127157 -0.093168 0.359987 -0.164389 -0.063686 -0.302404 -0.027143 0.362989 -0.170113 -0.272417 0.294763 -0.117125 -0.388380 0.091724 -0.189770 -0.442727
abil -0.039401 0.104023 0.139332 -0.075404 -0.145548 -0.167893 -0.104036 0.025342 0.026444 -0.042749 -0.070015 -0.152658 0.120545 0.060790 0.044668 -0.177595 0.036822 0.116358 -0.183127 0.090685 -0.435480
becom -0.068143 0.031965 0.028519 -0.103551 0.007390 -0.055504 0.018056 -0.133640 0.027249 0.132311 -0.108802 0.032847 -0.000992 -0.033682 -0.031179 0.124805 0.023372 -0.103554 -0.138606 0.059655 -0.445808
chat 0.060701 0.044717 -0.046054 -0.141634 -0.051000 -0.297254 -0.222897 0.021611 0.214916 -0.005129 -0.074884 -0.129018 0.005297 0.088621 0.007399 -0.197154 -0.107384 0.030361 -0.172969 -0.068975 -0.272647
easi -0.060233 0.181575 0.157050 -0.052172 -0.053850 0.253819 0.133450 0.255670 0.054878 -0.129869 -0.180180 -0.129280 0.156519 -0.176466 0.116535 -0.027756 0.035455 -0.233690 0.049451 0.084270 -0.398331
environ -0.205402 0.168641 0.061452 0.076675 0.301188 -0.146139 0.055582 0.126326 -0.030253 -0.148989 -0.009007 0.082238 0.015773 -0.019996 0.061414 -0.337111 -0.082908 -0.008671 -0.167683 0.041858 -0.263514
extra 0.107679 0.165313 -0.124813 0.038388 0.063789 -0.204451 0.005517 0.079188 0.099458 -0.155540 0.081229 0.037843 0.048285 0.018264 0.177059 0.081997 -0.230650 0.015580 0.030982 -0.140685 -0.393065
fact 0.015358 0.140232 -0.058781 -0.181564 0.043587 0.038079 -0.029085 0.038099 0.023133 0.005726 -0.247002 0.071562 0.143925 0.000376 -0.089094 0.032658 -0.055639 -0.131287 0.024499 0.148001 -0.533116
feedback -0.112942 0.145383 -0.014595 0.000470 -0.043717 -0.019888 0.175004 -0.045653 0.030905 0.032771 -0.005334 -0.044156 -0.003181 -0.185503 0.075967 -0.096056 0.065892 0.092732 -0.037929 -0.027732 -0.179576
full 0.065721 0.021878 -0.012437 0.009935 -0.116452 -0.045476 0.060281 0.140503 0.033366 0.005656 0.093279 0.012084 0.144992 -0.300243 -0.020740 0.249818 -0.057518 -0.192537 -0.026783 -0.094510 -0.273104
import -0.015371 0.022541 -0.055201 -0.027674 0.054286 0.037806 0.049294 0.027275 -0.028718 0.053806 -0.112810 0.057599 -0.010386 0.008850 0.064013 0.025282 0.008918 -0.076700 -0.001500 -0.127125 -0.243174
increas -0.050386 0.251800 -0.066728 -0.045766 0.111678 -0.238508 0.005809 -0.138668 0.274152 0.104739 -0.109442 0.017316 0.037194 0.017384 -0.071180 -0.154293 -0.143204 0.048473 -0.055199 -0.155708 -0.429154
period -0.103245 -0.058887 0.186660 -0.110221 -0.301625 -0.040090 -0.136137 0.086300 -0.136781 0.039113 -0.086314 -0.097152 0.212026 -0.521840 -0.104198 0.004706 -0.049188 -0.019381 0.031794 -0.125824 -0.180825
plan -0.125194 0.068793 -0.076763 -0.186319 0.059991 -0.045438 -0.083812 -0.138994 -0.039074 0.051877 -0.095887 0.150480 0.068060 0.171246 0.016114 -0.010071 0.039322 -0.056846 -0.115992 0.115901 -0.284705
qa -0.067997 0.068694 0.049129 -0.047420 -0.152011 -0.004906 0.088115 0.129613 -0.091063 -0.017006 0.014936 -0.046853 0.138741 -0.157382 -0.017049 0.135717 -0.022151 -0.077934 -0.001989 -0.105754 0.010975
specif 0.020964 0.027319 -0.085167 -0.157391 0.040048 -0.022192 -0.106861 -0.016140 -0.069101 0.043068 -0.003097 0.014635 -0.042505 0.142881 -0.010469 0.055043 0.122732 0.008735 -0.026608 0.030266 -0.127148
workshop 0.212837 0.251093 0.010894 -0.144208 -0.099975 -0.218104 -0.016420 0.062402 0.217633 -0.009798 0.075705 -0.062224 0.126408 -0.140328 -0.156221 0.035289 -0.248610 -0.279495 -0.133562 -0.001095 -0.503316
approach -0.077123 0.002035 -0.041406 -0.002605 0.059390 0.029152 -0.010196 -0.077820 0.015175 0.004284 -0.115699 0.049431 0.046313 0.233329 0.063661 -0.019801 0.035267 -0.008115 0.019535 0.062958 -0.285356
classmat 0.012481 0.198500 -0.096900 0.024064 0.105889 -0.157148 -0.012490 0.079485 0.032381 0.028415 0.019428 0.009274 0.010633 -0.029991 0.113653 -0.097615 -0.002276 -0.010214 0.000808 0.030583 -0.462685
concept -0.087038 0.080658 0.007756 -0.135792 0.244387 -0.255869 0.059807 -0.076068 -0.071877 0.121190 -0.045516 0.034804 -0.083952 0.055051 0.102840 -0.190399 0.080062 0.075294 -0.182406 -0.028688 -0.429628
confid -0.091052 0.047890 0.223107 0.011367 -0.166852 -0.074158 -0.246911 0.013062 0.064175 0.071371 -0.148608 -0.269891 0.072124 -0.040645 0.015935 -0.300648 0.016188 0.190161 -0.164993 -0.028671 -0.350272
convers -0.049148 0.060519 -0.075265 -0.066549 0.049134 -0.093854 -0.027067 -0.063190 0.115415 -0.032617 0.039321 -0.101771 0.012854 -0.091612 -0.120841 -0.170505 -0.115036 0.045246 -0.076451 0.048188 -0.417364
cover 0.016175 0.142338 -0.105167 -0.083069 0.109914 -0.009215 0.131127 -0.016450 -0.037079 -0.182597 -0.008583 -0.110112 0.115399 -0.113598 0.186671 0.058703 0.007892 -0.009453 0.059138 0.124236 -0.353041
format -0.008311 0.151819 0.009130 -0.160722 0.076134 0.075208 -0.075640 0.113483 0.035495 0.010626 -0.083496 0.059235 0.110698 0.097978 -0.048355 0.040974 -0.014297 -0.161367 -0.003921 0.149142 -0.370538
front -0.046718 0.003133 0.301161 -0.136851 -0.382442 0.020486 0.037799 0.043220 0.049215 0.184551 0.104044 -0.102282 0.088658 -0.194494 -0.106100 -0.071482 0.114914 0.068685 -0.161090 0.098809 -0.149678
fun 0.048644 0.141144 -0.112132 -0.084074 0.038243 -0.078236 0.052277 0.024827 0.029391 -0.013420 0.069458 0.013456 0.105381 0.072264 -0.038564 0.027926 -0.052434 -0.105042 -0.107931 -0.059844 -0.292914
individu 0.103614 -0.062741 0.027321 -0.063033 0.001176 0.022398 -0.005161 0.007994 -0.048443 -0.023664 0.195918 0.105513 -0.112924 -0.052311 -0.009763 0.102656 0.067047 -0.017712 -0.045271 0.014093 -0.081914
involv -0.089777 0.271443 -0.181012 -0.088069 0.164914 -0.085197 0.192292 -0.034750 0.076001 0.122962 0.186416 0.033790 -0.077248 -0.276475 0.088707 -0.051920 0.171278 0.150201 -0.198292 -0.003541 -0.297497
last 0.115410 0.017088 -0.115731 -0.145841 -0.047074 0.104125 0.059076 0.096390 -0.200839 0.056677 0.059622 0.127629 0.016616 0.003013 -0.142441 0.313194 0.166976 -0.325997 -0.035896 0.015568 -0.262785
lose -0.092976 -0.152543 -0.081921 0.037073 -0.116234 0.312195 0.119631 0.086426 -0.114328 -0.058931 -0.206145 -0.163228 0.222364 -0.185590 0.004548 0.098495 0.101611 -0.181011 -0.009528 0.133454 0.043385
prof 0.049475 0.014485 0.000772 0.082370 0.038767 0.037262 0.096750 -0.026298 -0.094876 0.110232 -0.002534 -0.003177 -0.021135 -0.017408 0.040543 0.017301 0.075159 0.056255 0.013865 0.028796 -0.207822
quiz 0.075935 0.097793 0.020892 -0.070043 -0.048706 -0.104437 -0.076489 0.090801 0.011995 -0.063374 -0.031155 -0.073253 0.110881 0.071036 0.009087 0.040824 -0.073350 -0.019266 -0.061767 0.084890 -0.129219
support 0.038109 0.023638 -0.077120 -0.006680 0.283449 -0.139799 -0.001394 0.096722 -0.032417 -0.164932 -0.093114 -0.015149 0.038515 0.264568 0.102670 -0.063322 -0.124530 0.053453 0.003992 -0.077145 -0.443235
system -0.034255 0.056982 0.031926 -0.085959 0.129464 0.095050 -0.039643 -0.005745 0.020608 0.068394 -0.126008 0.214803 -0.045805 0.257157 0.013966 -0.032065 0.095972 -0.176763 -0.045719 0.022404 -0.106472
timet -0.001079 -0.001229 0.067279 0.033318 -0.028183 0.054088 0.086659 0.020491 0.038550 -0.029744 0.036926 -0.003428 -0.016651 0.030456 0.034123 -0.046764 -0.044879 0.059895 0.004271 0.088415 -0.263178
tire -0.023534 0.052976 0.031203 -0.068474 -0.047243 -0.007415 -0.042729 0.154609 -0.126939 -0.055472 0.025925 -0.053061 0.086187 -0.149689 -0.001807 -0.008163 0.100611 -0.125365 -0.076346 0.098699 -0.258905
we’r 0.030518 0.163155 -0.046146 0.040254 0.095035 -0.154971 0.146694 0.023898 -0.043498 0.043865 -0.030331 -0.017079 -0.007689 -0.079563 0.011233 -0.025018 -0.099231 -0.031403 -0.052769 -0.054077 -0.394205
anxieti 0.031055 -0.074819 0.034650 0.040203 -0.044106 0.042841 0.028380 0.019578 -0.034413 0.033806 0.199993 0.188821 -0.202007 0.045363 -0.073874 0.120312 0.123206 -0.046572 -0.049519 -0.061002 -0.029049
commun 0.042374 0.131259 -0.153500 -0.055977 0.186814 -0.093190 0.016507 0.019545 0.025889 -0.115767 -0.016580 0.048344 0.105177 0.047945 0.163127 0.105360 -0.048763 -0.055594 -0.168138 -0.059242 -0.340558
done -0.091476 0.124039 -0.083322 -0.152802 -0.130271 -0.080986 0.097395 0.089070 0.066444 0.020795 -0.121447 0.001770 0.135123 0.015069 -0.038951 0.053610 -0.010403 -0.117411 0.011867 -0.068283 -0.531257
ie 0.110904 0.084262 -0.043317 -0.168572 0.011828 -0.166716 0.084480 0.100908 0.028085 -0.001767 0.097967 0.002270 0.040439 0.043956 -0.030939 0.117934 -0.029600 -0.133184 -0.034940 -0.109223 -0.285953
instruct 0.040876 -0.115959 -0.018947 0.065752 -0.018187 0.039362 0.011769 -0.052818 -0.096046 0.059477 0.095581 0.058398 -0.148799 0.072934 -0.072462 0.141286 0.092829 -0.002378 0.045670 -0.036261 0.102606
lab 0.066063 0.050333 -0.013343 -0.018472 -0.044907 -0.086308 -0.065956 0.020403 0.116569 -0.013617 0.129938 -0.021529 0.136512 -0.147081 -0.162636 -0.038176 -0.174441 -0.103503 0.030211 -0.151443 -0.337130
larger -0.029387 0.291203 -0.069410 -0.236596 -0.098009 -0.193762 0.005078 0.027721 0.058183 0.089438 0.068256 0.001107 0.054290 -0.178367 -0.192410 -0.064233 -0.147248 -0.243527 -0.125424 -0.058253 -0.457483
life 0.116866 -0.257537 -0.059124 0.087656 0.067484 0.048867 -0.081018 -0.134121 -0.086135 -0.137420 0.117513 0.089695 -0.173181 0.228558 0.060428 0.020817 0.090657 0.058215 -0.005440 0.102844 -0.027613
morn 0.043900 -0.016955 -0.041787 -0.200799 -0.099630 0.068890 0.185524 0.036509 0.019279 0.182633 0.327933 0.172189 -0.050903 -0.009923 -0.127627 0.151361 -0.024093 -0.085565 -0.066753 -0.105127 0.090173
normal -0.057368 0.114168 -0.052325 -0.183022 -0.104436 -0.032864 0.083024 0.046065 0.014700 0.071803 0.008449 0.085427 0.079059 -0.102342 -0.014620 0.095348 0.079473 -0.081019 -0.139023 0.064601 -0.202827
number -0.028834 0.017359 0.038052 -0.115481 -0.026277 0.012853 0.051573 -0.103437 0.143971 0.087785 0.084399 0.061479 0.163286 -0.330427 0.014521 0.064214 0.117456 0.170400 -0.215717 -0.064887 -0.049858
place -0.089553 -0.028197 -0.060937 -0.053521 0.000278 -0.002174 0.044228 0.238880 -0.001458 -0.044008 -0.260929 0.059410 -0.011781 0.031684 -0.002073 0.055643 -0.044066 -0.010029 -0.044773 0.033567 -0.358492
qualiti 0.113244 -0.018870 0.018917 0.097319 0.052178 -0.008168 0.001946 0.065683 -0.047569 -0.025772 0.149108 0.052856 -0.070212 -0.035417 0.127042 0.145106 0.019373 -0.098227 0.023808 0.021786 -0.244454
run -0.077475 0.158206 -0.106955 -0.114850 -0.052504 -0.057946 -0.010717 -0.013191 0.109024 0.096858 -0.230229 0.091827 0.116088 0.053324 -0.153221 -0.048165 -0.034293 -0.145954 -0.000325 -0.055982 -0.445541
semest -0.058956 -0.140618 0.055183 0.067528 -0.114701 0.087475 0.153464 0.020076 -0.074265 0.082872 0.009703 0.023597 -0.107093 -0.065262 0.034757 0.027092 0.156102 0.019778 0.066618 -0.066823 -0.286226
social -0.015873 -0.062864 -0.092397 -0.020302 0.124788 -0.043772 0.040308 -0.067601 -0.021670 0.079746 0.130257 0.052581 -0.128491 0.060073 -0.183673 0.155831 0.173882 -0.130100 -0.151029 -0.117029 -0.146549
stop -0.032921 0.202416 -0.094763 -0.068535 0.061390 -0.093489 0.005541 -0.055104 0.105105 -0.002365 -0.114334 0.142894 0.106077 -0.041718 0.126486 0.111338 -0.031057 -0.045987 -0.032985 0.046052 -0.396419
stress -0.084112 0.110061 0.006492 -0.054144 0.150717 -0.072921 0.043241 0.047268 -0.076468 0.032134 0.079815 -0.030238 -0.158424 0.065458 0.088265 -0.025730 0.000316 -0.005157 -0.080203 0.062309 -0.125712
applic 0.067064 0.061222 -0.047054 0.004765 0.217262 -0.063712 -0.015674 0.033581 -0.084099 -0.112097 -0.029038 -0.051137 0.061033 0.068351 0.124069 -0.037175 -0.067415 -0.038085 0.007880 -0.030540 -0.326968
aren’t 0.067569 0.090273 -0.072411 -0.187602 -0.040788 0.078422 0.071809 0.096420 -0.100213 -0.044149 -0.040365 0.089530 0.084906 0.064052 0.018965 0.181538 0.051064 -0.230973 0.022456 0.051124 -0.302074
catch 0.114309 -0.081977 0.013629 -0.132205 -0.084213 0.034229 0.204117 0.077675 -0.021233 -0.034517 -0.024096 -0.015577 0.137024 -0.065603 0.078489 0.116902 -0.110452 -0.058963 0.052422 0.077133 -0.176074
didn’t -0.244211 0.096668 0.044721 -0.020756 0.193626 -0.063853 0.037093 -0.045093 -0.027242 0.043947 -0.145745 -0.112214 0.058983 0.142195 0.083261 -0.183849 0.035776 0.087556 0.046599 0.055429 -0.256918
explan 0.029473 -0.029479 -0.056993 0.067727 0.067300 -0.067138 0.023875 -0.108953 0.049315 -0.019075 0.070875 -0.096092 -0.090421 -0.066324 0.002362 0.037410 -0.053839 0.101994 -0.069756 -0.003927 -0.109037
fewer 0.087648 0.211636 0.057913 -0.268686 -0.178081 -0.069077 -0.093703 0.069858 0.171421 -0.106368 0.137754 0.038006 0.359351 -0.279384 0.012073 0.246131 -0.028601 -0.172479 -0.200435 0.048854 -0.724187
forum 0.057754 0.130486 -0.094239 -0.182130 -0.044755 -0.324087 -0.149798 0.170243 0.345146 -0.165622 -0.129155 -0.172487 0.115868 -0.123771 0.050815 -0.278617 -0.145503 0.148553 -0.154730 -0.073239 -0.585569
honestli -0.197992 0.042767 -0.049292 -0.219488 -0.039074 0.037883 -0.011162 -0.157883 -0.036319 0.115124 -0.360946 0.126819 0.104379 0.270748 -0.070211 -0.135198 -0.011711 0.001111 0.099753 0.025579 -0.691626
issu -0.043583 0.053887 0.021875 -0.176219 0.004049 0.115214 0.120114 0.118677 -0.117042 0.006184 -0.103874 0.024818 0.010919 0.072764 -0.045110 0.104381 0.128406 -0.143649 -0.014204 -0.011675 -0.349065
least 0.017979 0.107341 0.035344 -0.058462 -0.029421 -0.005873 0.107913 0.057665 0.060284 0.021826 -0.037412 0.097809 0.030019 -0.048060 -0.118173 0.070465 0.029587 -0.126527 0.015108 -0.081619 -0.313317
meet -0.024549 0.160582 0.052657 -0.090421 -0.219890 -0.212274 -0.078202 0.018539 0.176073 -0.004299 0.094494 -0.085329 0.041536 -0.255047 -0.300052 -0.078101 -0.313178 -0.289289 -0.020610 -0.095213 -0.252620
move -0.009968 0.176821 -0.058222 -0.243231 0.094926 -0.119122 0.042202 0.136665 0.030040 -0.027252 -0.139483 -0.030980 0.180681 0.177817 0.034157 0.085312 -0.012530 -0.133167 -0.056687 0.098091 -0.510689
na 0.009363 -0.071579 0.011261 0.077339 0.019112 0.038777 -0.034990 -0.036096 -0.016075 -0.043448 0.058983 -0.021660 -0.073065 0.029651 0.014375 0.033429 0.012316 0.062937 0.050761 0.002236 -0.069075
prior 0.011319 0.182126 -0.138502 -0.194039 -0.025994 -0.114543 0.081195 0.105609 0.004303 0.037945 0.024016 0.094142 -0.007502 -0.076936 -0.065335 0.047803 -0.018100 -0.093761 -0.052328 -0.054986 -0.317687
relat 0.031528 0.037393 0.011964 -0.080195 0.130808 0.015837 -0.024365 0.094017 -0.022380 -0.067270 0.014032 0.082723 0.000209 0.072008 0.068231 0.132176 0.036762 -0.077942 0.024484 0.063587 -0.290196
share 0.002449 -0.013736 0.122013 -0.069893 -0.014481 -0.184794 -0.095642 -0.090924 -0.008016 -0.038088 0.208314 -0.029088 -0.027875 -0.078102 0.025130 0.038877 0.089942 0.059895 -0.139971 -0.030143 -0.245436
stuff -0.006325 0.017699 -0.008172 -0.085936 -0.029499 -0.052202 -0.046986 0.013801 0.051082 -0.024157 -0.009393 -0.012168 0.038423 -0.108814 0.013250 -0.030677 -0.025059 -0.006050 -0.009214 0.015220 -0.207323
they’r 0.005437 -0.137737 -0.019831 -0.036699 0.027100 0.166370 -0.051632 -0.080009 -0.133661 0.053468 0.131712 0.048912 -0.114973 0.300302 0.075207 0.124236 0.190134 0.014808 0.095323 0.056179 -0.054506
though 0.039552 0.174301 0.035995 -0.086282 0.030047 -0.022293 -0.024820 0.040384 0.072364 -0.038989 -0.106321 -0.141924 0.122102 -0.094216 0.035078 -0.071104 -0.067978 -0.004358 -0.005421 -0.012637 -0.433900
200 0.020395 0.014371 0.187355 -0.170306 -0.310806 0.001141 -0.068774 -0.076555 0.220963 -0.049315 0.187602 0.011492 0.364377 -0.450857 0.007848 0.104959 -0.090884 0.123408 -0.231780 0.019594 -0.424470
4 0.028483 -0.149163 -0.137819 0.141891 -0.454717 0.104776 0.002544 0.244187 -0.231435 0.071567 0.009136 0.055799 0.116803 -0.138593 -0.264035 0.310032 -0.072505 -0.291023 0.103553 -0.201715 -0.361994
academ 0.065087 -0.114687 0.099726 0.088414 0.020915 0.059628 -0.066460 -0.048035 -0.115265 -0.064384 0.219611 0.043205 -0.182578 -0.033729 0.021205 0.111766 0.055008 0.009599 0.035541 0.003192 -0.026344
anonym 0.011830 0.009939 0.216752 0.003381 -0.352755 -0.174436 -0.227416 0.052111 0.006361 -0.004837 -0.020782 -0.318836 0.087689 -0.051828 0.075404 -0.355144 -0.097334 0.153867 -0.186375 0.166392 -0.402276
cannot -0.018076 -0.010458 0.080031 -0.058076 -0.031357 0.090548 0.030456 -0.087380 0.016481 0.033250 -0.111854 0.063361 0.017996 0.097714 -0.008943 -0.099027 0.100319 -0.006971 0.045319 0.031429 -0.473999
check -0.155820 -0.115627 0.085780 -0.005094 0.097582 -0.021106 0.002855 0.003651 -0.126439 0.096984 -0.139972 -0.174296 0.029357 0.063553 0.101699 -0.093730 -0.046711 0.013946 -0.087660 0.079980 -0.234146
clear 0.033283 -0.029186 0.022885 0.034278 0.069006 0.095680 -0.029811 -0.046168 -0.067692 0.034508 0.098753 0.071849 -0.162723 0.104944 -0.003903 0.013559 0.049763 -0.021703 -0.021553 -0.033976 -0.206593
colleg 0.047677 -0.016422 -0.014841 -0.047776 0.039164 0.012299 0.114664 -0.042083 0.017725 0.040040 0.068733 0.004285 -0.102257 0.069876 0.011280 0.033238 0.102003 -0.007613 -0.088280 -0.049318 -0.241959
commut -0.040678 -0.044365 -0.002556 0.007938 -0.099566 -0.030193 0.143329 0.039966 0.007019 -0.024082 -0.056628 -0.076860 0.046720 -0.152645 -0.048529 0.017157 0.027422 0.075774 0.014552 -0.041310 -0.298170
compulsori 0.077479 0.044723 -0.047115 -0.051839 -0.028373 -0.013304 0.006410 -0.050381 0.169344 0.046642 0.008472 0.095411 -0.006391 0.036678 -0.158522 -0.003852 -0.078130 -0.014143 0.005117 -0.038840 -0.243508
effect -0.038969 0.112379 -0.082506 -0.101523 0.144684 -0.228255 -0.078909 -0.016078 0.030073 0.057840 -0.181130 0.082538 -0.022375 0.153667 0.059526 -0.053426 -0.029443 -0.125585 -0.044142 -0.046823 -0.516616
essay 0.216958 -0.203302 -0.056928 0.194176 0.047023 -0.043129 -0.089762 0.015763 -0.063037 -0.061610 0.199890 -0.089355 -0.140450 -0.011875 0.018818 0.127159 -0.112999 0.002770 0.005343 0.023401 -0.116195
expect 0.047532 0.188870 -0.049263 -0.149667 0.091753 -0.125956 -0.068117 -0.057800 0.043585 -0.073293 -0.065003 -0.015332 0.112498 -0.057863 0.135125 0.065420 -0.044598 -0.016895 -0.060314 0.142669 -0.418492
face 0.126699 -0.218479 0.049623 0.131923 0.058691 0.091656 -0.027311 0.066228 -0.211650 -0.048661 0.410971 0.031785 -0.261761 0.081192 0.058609 0.354932 0.151301 -0.012797 -0.043877 0.021413 0.582766
form 0.071250 0.123322 0.006825 -0.056882 0.096021 -0.184507 0.066516 0.103198 -0.035361 -0.042078 -0.015828 -0.011192 0.072764 0.141821 0.053863 0.058618 -0.091479 0.040597 0.035904 -0.107196 -0.374771
i’v -0.020782 -0.001597 0.055635 -0.040521 0.059408 0.162908 0.069587 -0.020050 -0.162963 0.088172 -0.011066 0.028732 -0.083821 0.211661 0.036422 0.024203 0.133265 -0.036164 0.070883 -0.032770 -0.299186
lead -0.058801 0.111925 -0.106300 0.024104 0.055504 -0.116795 -0.039487 -0.122403 0.109936 0.119649 -0.214364 -0.001836 0.128205 -0.097557 -0.028263 -0.003407 0.018276 0.009504 -0.146079 -0.005404 -0.460510
pretti -0.019579 -0.016595 -0.012357 -0.035684 0.018740 0.091001 0.019961 -0.117996 -0.146904 0.097052 0.039094 0.064210 -0.041699 0.266472 -0.042189 0.016052 0.120704 0.072022 0.006265 -0.036683 -0.181780
regular -0.034926 0.204888 -0.028843 -0.126199 -0.078261 -0.072943 0.067072 0.004163 0.131282 0.113713 -0.055186 0.082892 0.069713 -0.040628 -0.159153 -0.039588 -0.054330 -0.121860 -0.095706 -0.091290 -0.716066
research 0.085831 0.057854 0.053618 0.002195 0.068451 -0.055210 -0.000190 0.009727 0.076874 -0.071268 0.100564 -0.012582 -0.042146 -0.096960 0.028146 -0.031950 -0.039106 0.020075 -0.041533 -0.031762 -0.166647
show 0.005869 0.039363 -0.036005 -0.134710 0.055139 -0.000978 0.078245 -0.084785 -0.004865 0.068615 -0.048914 -0.086174 0.041306 0.172573 0.083402 -0.105728 0.039666 0.045803 0.010485 0.092701 -0.369477
skill -0.096757 -0.093732 0.058766 0.037597 -0.010227 0.062977 -0.024702 0.067460 -0.042092 0.000143 0.101357 -0.036582 -0.034522 0.119175 -0.008003 0.038041 0.095475 0.019995 0.017228 -0.042362 0.004680
speed 0.118363 0.074281 -0.008073 -0.139541 0.028166 0.062717 -0.011129 0.087075 -0.024584 -0.072188 0.002772 0.098692 0.020871 0.010590 0.046055 0.164277 0.056232 -0.166881 0.009859 0.058451 -0.328738
theori 0.003089 0.029570 0.011185 0.068813 0.187169 -0.148310 -0.000319 0.075162 0.025051 -0.051838 0.102884 0.048958 -0.084535 0.066015 0.082145 -0.016256 -0.049995 0.036816 -0.052494 -0.157171 -0.047548
there -0.134545 0.215241 -0.089353 -0.244666 0.029022 -0.020017 0.000014 -0.065781 0.043553 0.052898 -0.112486 0.028699 0.150239 0.191496 0.117857 -0.022683 0.134225 -0.054666 0.015444 0.141655 -0.374215
thought 0.127574 -0.065909 0.139515 -0.073210 -0.088438 0.030730 -0.084601 0.100646 -0.076515 -0.065150 0.222635 0.004708 -0.125053 -0.078643 0.087481 0.062778 0.127583 -0.026156 -0.047961 0.060815 -0.070124
two -0.185439 0.085546 -0.016607 0.021253 -0.300850 0.218260 0.030412 0.034359 0.109854 0.154933 -0.343222 0.143812 0.100554 -0.184817 -0.227082 0.141807 -0.069380 -0.262256 0.148886 -0.121702 -0.492556
wast -0.280247 0.148712 0.281539 -0.130596 -0.302572 -0.240077 -0.096157 0.133204 -0.144455 0.008022 -0.101078 -0.177969 0.196425 -0.423544 -0.034074 -0.227276 -0.102277 0.124929 0.030371 -0.050919 -0.620150
10 0.038823 -0.003601 -0.017049 -0.017478 -0.161042 -0.021935 0.042153 -0.036087 0.011766 0.141686 0.121707 0.029869 0.001110 -0.231545 -0.158443 0.138803 -0.081234 -0.052747 -0.040695 -0.111421 -0.430881
5 0.095867 -0.058891 -0.111544 0.092706 -0.153346 0.013617 -0.010255 0.178199 -0.076165 0.003422 0.083462 0.051977 0.042898 -0.174848 -0.192948 0.311126 -0.069436 -0.246934 0.106072 -0.148997 -0.310661
anoth 0.016589 0.107431 -0.027009 -0.133764 -0.073830 -0.057886 0.025660 0.138908 -0.059791 0.000208 0.031343 0.014684 0.062976 -0.196883 -0.029286 0.174187 0.077824 -0.177123 0.007418 -0.007227 -0.396911
board 0.073906 -0.008388 -0.081490 -0.007310 0.019275 -0.069818 -0.157037 0.073880 0.160565 0.016998 -0.057503 -0.048758 -0.082946 -0.101109 -0.083435 -0.063330 -0.032361 0.170868 -0.025326 -0.016636 -0.225115
book 0.042470 0.006828 -0.003123 -0.019025 0.055357 -0.004087 -0.024983 0.021999 -0.159872 0.026452 0.017847 0.057741 -0.090917 0.147756 0.015567 0.073465 0.027642 -0.018429 0.006003 0.061441 -0.039769
caus 0.017485 0.061873 0.017311 0.010187 0.024504 0.058149 0.031351 0.033207 0.057769 -0.122825 -0.048377 -0.078621 0.111498 -0.043467 0.121054 -0.005681 -0.023996 -0.036141 -0.003129 0.159721 -0.390085
collabor 0.012976 0.073968 -0.028343 -0.012797 0.104488 -0.131969 0.015158 -0.079407 0.138528 0.135950 0.082923 0.085096 -0.115101 -0.004939 -0.115331 -0.085101 -0.091079 -0.067121 -0.034225 -0.156936 -0.390127
comment -0.142340 0.076101 0.128819 -0.099303 -0.095203 -0.079241 -0.042073 -0.103111 -0.027688 0.085809 -0.065258 -0.048520 0.005537 0.064307 0.054884 -0.198850 0.032926 0.101802 -0.167985 0.046662 -0.428813
creat -0.069445 0.117869 0.009956 -0.109568 0.039908 -0.169359 -0.160158 -0.093129 0.068320 0.081283 -0.050504 0.046676 -0.078909 -0.006336 -0.131122 -0.103100 -0.125375 -0.149673 -0.069944 -0.015469 -0.559704
creativ 0.045285 -0.024472 -0.013609 0.056403 0.104964 -0.066931 -0.054664 0.038922 -0.022788 -0.054332 0.082684 0.042872 -0.021332 0.066028 0.094267 0.061618 0.024665 -0.015354 0.006803 0.021687 -0.105166
detail -0.036495 0.061461 0.036349 0.012753 0.069783 0.000248 -0.077797 -0.017464 -0.007435 0.018430 -0.056209 -0.030275 -0.139485 0.102643 0.007752 -0.019769 0.028311 -0.078562 -0.024009 -0.031150 -0.257653
doesn’t -0.071302 0.021615 -0.021454 -0.054185 -0.120587 -0.033319 0.048244 -0.022218 -0.020635 0.092169 -0.042613 -0.053480 -0.021504 -0.054208 -0.026436 -0.077951 -0.028530 -0.066956 -0.051852 -0.064305 -0.414947
easili -0.009166 0.118020 0.045205 -0.053610 -0.025293 0.014167 0.067803 0.043760 -0.032054 -0.036095 0.072385 -0.048686 0.003515 0.002857 0.124460 -0.003715 0.071075 -0.023857 -0.027548 0.055974 -0.409941
far 0.041726 -0.019415 0.050110 -0.042703 0.004257 -0.089132 -0.094077 -0.029823 -0.093599 -0.012680 0.144723 -0.011522 -0.087632 0.040724 0.078396 0.129724 0.067775 -0.023525 -0.153672 0.010971 -0.265366
forc -0.063231 0.131409 -0.096857 -0.028533 0.155207 -0.121323 -0.137231 -0.094019 0.083191 0.040012 -0.170226 0.032915 0.000151 0.024824 0.045801 -0.018832 0.017688 0.025465 -0.088577 0.051043 -0.437650
ill 0.252793 -0.130706 0.032757 0.015980 -0.076374 0.097452 0.074373 0.185510 -0.111383 -0.049852 0.074925 0.044400 0.140434 0.088595 0.114648 0.217678 -0.011761 -0.118349 0.135344 0.086779 -0.127436
leav -0.127691 0.112656 0.077434 -0.114955 -0.201948 -0.059285 -0.029423 0.016074 0.004402 0.165276 -0.009109 -0.018542 -0.021371 -0.303009 -0.096303 -0.064668 0.019385 -0.140823 -0.134412 -0.000066 -0.294225
look 0.333595 0.027777 -0.123547 -0.136433 -0.171483 -0.088301 0.219924 0.276332 0.029758 -0.027360 0.173101 0.077911 0.278425 -0.130217 0.152878 0.293916 -0.037746 -0.117032 0.250777 0.028984 -0.415888
mostli 0.048749 0.169957 0.035987 -0.088984 -0.017857 -0.062884 -0.000404 0.048515 0.043069 0.013175 0.113956 -0.005628 0.056972 -0.115299 0.024555 0.008865 -0.015963 -0.051125 -0.073960 0.030703 -0.397283
organis 0.024374 0.003405 -0.056569 0.002291 0.027861 -0.078514 -0.026890 -0.011606 0.055377 0.019026 -0.064556 0.036827 -0.001691 0.100218 0.012468 0.022112 -0.025044 -0.065485 -0.037990 -0.069825 -0.364848
requir -0.043308 0.033755 -0.098543 -0.072313 -0.023016 0.009876 -0.016462 -0.058903 0.062701 0.132052 -0.124564 0.137836 -0.041825 0.065805 -0.136420 0.039330 0.054309 -0.097659 -0.065891 -0.048277 -0.355991
rewatch 0.269800 -0.081653 -0.040843 0.008625 -0.078619 -0.018956 0.098536 0.167594 -0.009933 -0.033642 -0.093745 0.040418 0.227514 0.128825 0.169835 0.068354 -0.162693 -0.005222 0.166151 0.094519 -0.308058
rush 0.047998 0.055806 0.025172 -0.003103 -0.062025 0.035075 0.055973 0.147241 -0.085300 -0.158474 -0.091368 -0.145682 0.123963 -0.053648 0.025650 -0.032668 -0.044968 0.008306 -0.038751 0.043172 -0.237002
shi -0.172533 -0.005556 -0.046886 0.057957 -0.028080 0.036151 0.041335 -0.157719 -0.003813 0.053923 -0.007060 -0.065032 0.024157 -0.120467 0.059379 -0.047044 0.118928 0.205479 -0.128890 0.014491 -0.242446
slightli -0.059905 0.098308 -0.020042 -0.077886 0.029884 -0.043334 0.047386 -0.000692 0.221582 -0.093896 0.007648 0.050696 0.126954 -0.137690 -0.043117 -0.263898 -0.102096 0.049908 -0.041943 0.068825 -0.522437
slow 0.137773 0.060586 -0.056091 -0.087527 -0.016195 -0.018203 -0.114862 0.028077 -0.039915 0.041690 -0.029005 0.098632 0.032470 0.017174 -0.038655 0.103272 -0.026289 -0.125120 -0.071691 -0.001137 -0.301957
stay -0.064433 0.084957 0.043672 -0.046297 -0.071156 -0.050847 0.067623 -0.055758 0.104927 0.063764 -0.092685 -0.000893 0.086533 -0.035534 -0.153658 -0.000536 -0.084889 -0.117988 -0.032198 -0.062392 -0.644168
technolog 0.121439 0.037437 -0.119968 0.032288 0.056306 -0.207013 -0.004960 0.045454 -0.153022 -0.062113 -0.021415 0.036875 -0.011426 0.223840 0.010563 0.031168 -0.077181 -0.014572 0.197248 -0.068992 -0.217593
tend 0.108111 0.121019 -0.029830 -0.169091 0.059718 -0.049491 0.008926 0.035890 0.046862 0.023784 0.153320 0.084086 0.005950 -0.076685 0.042686 0.069631 0.079142 -0.062874 -0.085658 0.075593 -0.429245
term 0.063713 -0.021771 -0.049387 0.034735 0.097595 -0.095900 0.007165 -0.077954 -0.059603 -0.017313 0.129863 -0.037155 -0.103901 0.068880 0.032522 0.045034 -0.050892 0.047107 0.041800 -0.025145 -0.235877
there’ -0.185745 0.136757 -0.027436 -0.141018 0.002381 -0.116442 -0.026793 -0.044874 -0.015580 0.074318 -0.140409 0.021324 0.064857 0.001747 0.006429 -0.098753 -0.093859 0.084991 0.026222 -0.027605 -0.497665
three -0.009287 -0.052411 -0.151661 0.175142 -0.394791 0.093591 -0.067617 0.271624 -0.075785 0.037451 -0.143284 0.044546 0.225910 -0.166423 -0.227405 0.209586 -0.122869 -0.318606 -0.012763 -0.203635 -0.501092
6 0.008623 -0.181716 -0.201161 0.267896 -0.402747 0.189321 -0.103406 0.264449 -0.171902 0.030323 -0.033381 0.045852 0.118627 -0.185936 -0.351202 0.345164 -0.011824 -0.296134 0.014724 -0.226792 -0.516955
addit 0.086886 -0.061027 -0.045798 -0.006924 0.026014 0.061336 0.007532 -0.035791 0.023709 -0.013850 0.020544 0.015454 -0.006402 0.150394 0.005796 0.086256 -0.046299 -0.091722 0.033493 -0.028335 -0.358141
afterward 0.101455 -0.018647 0.000543 -0.056442 -0.030774 -0.052428 0.011503 0.146191 -0.060086 -0.053625 -0.002769 -0.004863 0.025537 0.163798 -0.031160 0.061111 -0.005216 -0.090559 0.058098 -0.014600 -0.191265
alreadi -0.018536 0.028168 -0.009009 -0.092998 -0.035885 -0.069224 -0.037407 0.030244 -0.033731 0.042110 0.046245 0.021475 -0.051553 -0.136189 -0.011694 0.037574 0.057212 -0.022132 -0.043003 0.019339 -0.444613
assess 0.149937 -0.148207 0.052669 0.130704 0.036059 -0.060547 -0.132554 -0.110308 0.118218 0.002393 0.198726 0.053396 -0.175727 0.061544 -0.002483 -0.118007 -0.088690 0.079893 0.029745 -0.098356 -0.068907
bigger 0.057041 0.154737 0.038612 -0.098110 0.043266 -0.076579 -0.072562 -0.066390 0.014376 0.004368 -0.015404 0.021162 0.010628 -0.012330 -0.194099 0.020995 -0.155104 -0.199542 -0.021263 -0.001789 -0.439430
conduct -0.004425 0.121188 -0.101276 -0.220818 -0.094594 0.003748 0.215735 0.098412 0.062902 0.106107 -0.127633 0.029955 0.078244 0.023402 -0.048948 -0.049440 0.075132 -0.116576 0.029771 -0.029238 -0.543501
connect -0.088854 0.087004 -0.038198 -0.051861 0.018434 -0.060133 -0.033686 -0.045408 0.093926 0.031686 -0.161295 -0.091062 0.111541 0.026093 -0.008404 -0.186628 0.010792 0.086235 -0.116555 -0.080523 -0.408533
fulli 0.084375 0.082048 -0.080102 -0.154873 0.115950 -0.008922 -0.019161 0.009264 -0.038622 -0.051321 0.061101 0.033783 -0.032614 -0.000049 0.113021 0.143046 0.051661 -0.072305 -0.052754 0.135997 -0.264122
improv -0.064967 0.075349 0.018225 -0.128682 -0.042869 -0.005993 -0.122721 0.076783 -0.028546 0.022737 -0.159079 0.062397 0.033060 0.112157 -0.098011 0.020594 0.047458 -0.178679 -0.025210 -0.050551 -0.450382
intimid 0.028536 0.073351 0.112881 0.095631 -0.096237 -0.071855 -0.045640 0.047016 0.052321 -0.011481 0.027561 -0.258587 -0.010711 -0.133191 0.045805 -0.220277 -0.039501 0.119609 -0.164351 0.113465 -0.263430
kahoot 0.094763 0.102954 0.010557 -0.000263 -0.002268 -0.268518 -0.089788 0.101830 -0.072644 -0.163759 -0.037402 -0.203262 0.103665 0.141952 0.057769 -0.183860 -0.157405 0.215733 -0.046381 -0.025809 -0.291887
mark 0.046517 0.078209 -0.015452 0.141605 0.072234 -0.051807 0.056688 -0.137720 0.133681 0.064134 0.138680 0.161635 -0.132485 -0.210253 0.020888 -0.103507 0.021153 0.182804 -0.078220 -0.066074 -0.129513
never -0.024983 0.165072 0.069244 -0.026635 0.087343 -0.040888 -0.002214 -0.018431 0.042570 0.085489 -0.017067 0.004326 -0.079422 -0.000223 -0.003062 -0.065690 -0.005933 -0.087189 -0.067115 -0.018026 -0.396617
offic -0.095563 -0.198618 -0.160210 0.325549 -0.425547 0.204532 -0.197377 0.172494 -0.208385 0.031635 -0.113038 -0.027734 0.120167 -0.170547 -0.357628 0.159406 -0.100798 -0.200513 0.029178 -0.238811 -0.229658
physic -0.005732 0.113202 -0.092979 -0.219350 -0.052637 -0.051576 0.114390 -0.009050 -0.020080 0.068151 -0.033185 0.056214 -0.005579 0.077223 -0.063685 0.006090 0.042500 -0.068428 -0.069549 -0.034867 -0.523080
quickli 0.133994 -0.043434 -0.073932 0.011944 0.044892 0.051890 0.082649 0.009931 -0.036766 -0.162754 -0.001124 -0.084353 0.123094 0.086398 0.100375 0.093496 -0.066245 0.010263 0.093135 0.098142 -0.235713
satisfi -0.073701 0.014428 0.044018 0.022227 -0.061008 0.034661 0.111118 -0.061614 0.035614 -0.038917 -0.098706 -0.018084 0.080085 0.128683 -0.005745 -0.076435 -0.008905 0.021357 0.055010 -0.024591 -0.046930
split 0.041076 0.069021 -0.074777 -0.076222 -0.067278 -0.036099 -0.045903 0.049698 0.077908 -0.077128 -0.121909 0.035473 0.128326 -0.003289 -0.006846 0.066888 -0.095881 -0.136985 -0.000332 -0.023357 -0.458416
tradit 0.046941 -0.023546 -0.013749 -0.042854 0.086445 0.158373 -0.053604 -0.022786 -0.043664 0.000922 -0.061842 0.103991 -0.022015 0.217802 0.012675 0.036485 0.034565 -0.097711 0.091399 0.159491 -0.186785
turn -0.039418 -0.002184 0.137068 -0.041135 -0.054792 0.012529 -0.180492 -0.165507 -0.012631 0.106131 0.242150 0.061816 -0.131586 -0.062248 -0.128614 0.055353 0.036613 -0.064454 -0.060123 -0.006739 -0.102706
within 0.093359 0.070168 -0.050312 -0.054155 0.023467 -0.019610 -0.007389 -0.016176 0.025057 0.048618 0.152648 0.071270 -0.084509 -0.021080 -0.115059 0.072754 0.020394 -0.144860 -0.158169 -0.132753 -0.264436
you’r 0.100438 -0.046226 -0.000260 -0.094626 0.134112 0.070629 -0.061167 -0.037166 -0.102414 -0.005551 0.128081 0.072321 -0.097960 0.158302 0.090684 0.186057 0.136975 -0.068095 -0.020698 0.060087 0.067003
100 -0.029223 0.064105 0.031192 -0.128943 -0.182618 0.044051 0.105756 0.023802 0.035607 -0.081334 0.002711 -0.026702 0.186644 -0.076828 -0.034088 0.107552 -0.071247 -0.098657 -0.049253 0.043893 -0.530401
23 -0.084506 -0.026972 -0.116811 0.068064 -0.402265 0.079766 -0.041256 0.172283 -0.135854 0.143033 -0.159039 0.021369 0.142564 -0.159632 -0.206039 0.153620 -0.003328 -0.270798 -0.021165 -0.181317 -0.523794
300 0.022307 0.158166 -0.086800 -0.069356 0.001571 -0.154724 0.030505 -0.122065 0.214389 0.034027 0.080618 0.047587 0.252236 -0.326936 0.086732 -0.044289 -0.063972 0.196023 -0.230111 -0.014150 -0.393036
believ -0.060816 0.131149 -0.155310 -0.108296 -0.011145 -0.025898 0.025506 -0.073589 0.105922 0.194202 -0.133533 0.128778 0.051052 -0.061170 -0.041023 0.061196 0.143339 -0.086945 -0.114566 -0.036832 -0.458409
benefici -0.109212 0.195023 -0.044688 -0.244932 0.050678 -0.099115 -0.173022 -0.038163 0.123569 0.090971 -0.256413 0.079579 0.037533 0.109389 -0.021961 -0.098319 0.036900 -0.117713 -0.123142 -0.001207 -0.837051
best 0.032914 0.065941 -0.030763 -0.014821 0.204875 -0.093333 -0.105888 -0.045320 -0.028526 -0.013779 -0.053333 0.035727 -0.035401 0.181572 0.143650 -0.059216 0.013434 -0.022387 0.024009 -0.052481 -0.362685
campu 0.038180 -0.028822 0.065715 0.002618 -0.153180 0.063821 0.017975 0.029924 -0.100092 0.084821 0.090625 0.016326 -0.029688 -0.085106 -0.058172 0.141195 0.053917 -0.105333 0.075580 -0.064157 -0.303115
care -0.026090 0.093289 0.046618 -0.008640 0.168899 -0.037660 0.111008 -0.083179 0.030536 0.107388 0.035735 -0.096994 0.001777 0.036275 0.151177 -0.086836 0.096255 0.121246 -0.039617 0.147838 -0.452635
copi -0.010126 -0.018241 0.044673 0.040322 0.133044 -0.016314 0.015840 -0.040142 -0.068499 -0.043493 0.112001 -0.022098 -0.064035 0.031907 -0.021189 0.066573 0.030787 0.016094 -0.025646 0.125691 -0.421555
definit -0.013336 0.044457 -0.100430 -0.020868 -0.011736 -0.195256 -0.043755 -0.018628 0.047180 0.034056 -0.080667 0.022764 0.017377 0.068798 -0.014321 -0.003219 -0.112146 -0.056805 -0.050636 -0.084512 -0.545017
depth -0.035423 0.088232 -0.046903 -0.159838 -0.017911 -0.173772 -0.035417 0.092844 0.085690 0.086152 0.023212 -0.027732 -0.052713 -0.099311 -0.107203 -0.094084 0.005224 -0.050704 -0.067913 -0.088417 -0.467460
didnt -0.086308 0.039489 0.041563 -0.001126 -0.002090 0.048074 0.029946 -0.051801 -0.055237 0.034471 -0.091043 -0.104880 0.069857 -0.049231 0.083791 -0.143905 0.026169 0.062384 0.039223 0.004829 -0.632928
ensur -0.140222 0.139061 -0.047058 -0.119664 0.070999 -0.049202 0.044867 -0.023681 -0.021008 0.093071 -0.078566 -0.017164 0.076074 -0.150485 0.083324 -0.067623 0.093129 0.024399 -0.179678 0.044926 -0.557016
exercis 0.054374 0.130813 -0.020885 -0.117370 -0.097220 -0.130025 0.004440 0.030510 0.069966 0.031882 0.108723 0.044556 -0.000859 -0.069686 -0.116613 -0.019376 -0.030079 -0.118481 -0.067569 -0.066812 -0.529032
final 0.091001 -0.125178 0.057126 0.025992 0.057079 0.052682 -0.098839 -0.058009 -0.117728 0.067529 0.125032 0.095504 -0.199706 0.202667 0.031652 0.078730 0.095188 -0.014338 -0.033606 -0.015500 -0.187434
level 0.005891 -0.029559 0.028815 0.011432 0.105763 0.046547 -0.030673 0.037671 -0.072452 0.012324 0.053241 0.013232 -0.073246 0.032018 0.006105 0.038679 0.122356 -0.005663 -0.070720 0.012834 -0.386045
limit -0.085033 0.025172 0.103013 0.010249 -0.177378 0.082620 -0.104146 0.131785 -0.030183 -0.061316 -0.144864 -0.021826 0.096703 -0.237811 -0.093185 0.140791 -0.025035 -0.239354 0.062221 -0.004948 -0.547262
mainli 0.171759 0.109997 -0.037293 -0.099211 -0.022552 -0.061438 -0.038080 0.171054 0.025946 -0.161993 0.082050 0.013354 0.160049 -0.123500 0.007119 0.169886 -0.042911 -0.182524 0.016631 0.034576 -0.444216
math 0.089509 0.025401 0.026098 -0.084171 -0.024196 0.117693 0.017495 0.128981 -0.114154 -0.068766 0.093014 0.063682 0.041398 -0.038650 0.066520 0.270925 0.069473 -0.181810 -0.011799 0.082676 -0.327252
matter 0.132200 -0.184277 -0.031443 0.094051 0.105332 0.147716 -0.025797 -0.012103 -0.185146 0.002607 0.150063 0.127057 -0.184387 0.236595 0.041219 0.185201 0.139571 -0.002291 0.049394 0.030653 -0.048807
none -0.010079 -0.109944 0.032256 0.073257 -0.010769 0.080369 -0.033905 -0.022734 -0.062766 -0.016508 0.055667 -0.008364 -0.046526 0.067062 0.003770 0.045739 0.056284 0.023469 0.048988 0.008850 -0.275413
oppos 0.117143 -0.032453 0.012154 0.001877 -0.014686 0.005472 0.026244 0.041637 -0.115176 0.123579 0.171672 0.095705 -0.124198 0.099971 -0.071978 0.175882 0.085930 -0.157460 -0.030676 -0.033796 0.062837
perhap 0.024715 -0.025889 -0.082368 0.034173 0.127540 -0.002578 0.001214 -0.056419 -0.015173 0.049560 0.029848 0.090182 -0.057906 0.029065 -0.025001 0.063023 0.049278 0.031758 -0.049930 -0.026447 -0.335426
pick -0.118633 0.022027 0.269529 -0.073608 -0.169426 -0.001423 -0.042644 -0.007144 0.083437 -0.002033 0.078016 -0.083920 0.104561 -0.195471 -0.016141 -0.008887 0.046897 0.096186 -0.070747 0.077002 -0.119188
quick 0.119933 0.101574 -0.058725 -0.060448 0.036694 -0.025172 0.047353 0.081872 0.002364 -0.115968 0.035537 -0.010424 0.056400 0.006733 0.012668 0.068833 -0.092400 -0.041959 0.015210 -0.016564 -0.315632
relev 0.064856 -0.027427 -0.016675 -0.049814 0.059548 -0.055917 0.031801 -0.061650 -0.004676 0.050381 -0.010405 -0.088723 -0.105923 -0.022146 -0.009935 -0.013269 0.066769 0.073335 -0.067011 -0.031586 -0.256886
scari -0.114376 0.089961 0.101295 0.027272 -0.077373 -0.027727 -0.005537 -0.015132 0.174052 -0.028586 -0.013617 -0.098313 0.149797 -0.266000 -0.000393 -0.270913 -0.100562 0.168517 -0.135394 0.094212 -0.678255
sick -0.032325 0.020778 -0.001521 -0.077344 -0.036185 -0.001385 0.128193 -0.009570 0.004347 0.108021 0.025180 0.056416 -0.095245 -0.044431 -0.060766 -0.008858 0.103864 -0.080841 -0.093720 -0.057837 -0.251319
simpli -0.002830 0.149456 -0.060703 -0.104894 -0.078819 -0.049763 0.002346 -0.024262 0.007806 0.026513 -0.047665 0.009890 0.112409 -0.101364 0.075535 0.090176 0.014666 -0.095933 -0.069612 0.093025 -0.714997
slower 0.098209 -0.025568 0.014182 0.026548 0.059322 0.037684 -0.118441 -0.065476 -0.106173 0.009784 0.071945 0.019930 -0.012494 -0.018098 -0.010974 0.021844 0.014441 -0.047323 0.033566 0.082978 -0.090523
span 0.217179 -0.276062 0.027632 0.138016 0.025449 0.212034 0.032810 0.044061 -0.241442 -0.058436 0.236752 0.269791 -0.275690 0.128343 -0.044724 0.170853 0.019777 0.095346 0.091687 0.086635 0.148263
straight 0.000963 -0.039632 -0.172370 0.174946 -0.235772 0.101438 -0.030826 0.199358 -0.137458 -0.031894 -0.140790 -0.016249 0.229768 -0.130673 -0.161915 0.282582 0.018529 -0.188340 0.068313 -0.097817 -0.421830
that -0.041985 -0.061316 -0.004145 0.019749 -0.081549 -0.024831 -0.038179 0.066678 -0.078428 0.006344 -0.034956 -0.050441 0.037241 0.073017 -0.030036 -0.042284 -0.012514 0.000280 0.105749 -0.101916 -0.337810
theatr 0.162752 0.137699 -0.049433 -0.116725 -0.088722 -0.074667 -0.044824 0.130471 0.063832 -0.150692 -0.009926 0.004347 0.305013 -0.116218 0.108973 0.141217 -0.146064 -0.181167 -0.009629 0.054130 -0.441847
togeth 0.108711 0.009567 -0.002017 0.088165 0.096265 -0.041592 0.063045 -0.080223 0.035742 -0.010307 0.168305 0.113106 -0.179047 0.117022 0.037942 0.042744 0.000096 0.031191 0.013635 -0.068563 -0.227187
vari -0.005391 0.089944 -0.024919 -0.105711 0.008237 -0.083752 0.103079 -0.073473 0.084226 0.102509 -0.059515 -0.039074 0.043765 -0.001434 0.021062 -0.105185 0.032980 0.075362 -0.060295 -0.015105 -0.542017
400 0.039743 0.020042 0.128347 -0.155552 -0.192866 0.045444 -0.024767 0.026580 0.136269 -0.064471 0.171554 0.036135 0.243913 -0.299278 -0.005824 0.123295 -0.037212 0.078888 -0.138010 -0.053799 -0.341916
ad -0.075518 0.152301 -0.002579 -0.151196 -0.027102 -0.109321 -0.094820 -0.074492 0.097571 0.052172 -0.162849 0.037175 0.109018 -0.006697 -0.002462 -0.058221 -0.064875 -0.084090 -0.074619 0.040682 -0.514852
bare 0.004211 -0.079617 0.034565 0.013908 0.040022 0.069765 0.006864 -0.168057 -0.004779 0.046010 0.073070 -0.021897 -0.102137 0.028455 0.018153 0.013920 0.041263 0.042486 -0.028060 0.098760 -0.176928
behind -0.024681 -0.000181 -0.006573 0.030917 0.058406 0.083532 0.005987 0.083496 -0.040224 -0.002020 0.148421 0.047134 -0.099851 -0.050631 -0.054527 0.078055 0.090247 -0.029177 -0.056601 0.010050 -0.322470
choos -0.015072 -0.007688 0.058426 -0.004102 -0.028160 -0.079668 -0.105946 -0.039891 -0.045201 0.098888 -0.024601 -0.007913 -0.081259 -0.022064 -0.104078 -0.020379 -0.002658 -0.069816 0.024590 -0.069560 -0.340720
consist 0.157090 -0.058231 0.040889 0.047488 0.013513 0.052996 -0.025902 0.036890 -0.078326 -0.003258 0.107792 0.062118 -0.046818 0.018481 -0.016539 0.155451 0.012719 -0.056789 0.012826 -0.019824 -0.133582
continu 0.089661 0.044723 -0.053639 -0.028960 0.043395 -0.021907 0.017387 -0.011247 -0.043085 -0.027768 0.041113 0.058365 -0.003534 0.051274 0.021138 0.148568 0.020943 -0.107027 0.013360 -0.041104 -0.225602
critic -0.211315 -0.013400 -0.021342 -0.100437 0.029924 0.013244 -0.015259 -0.153986 -0.071437 -0.061478 -0.335038 0.064907 0.118932 0.147955 0.074930 -0.227200 0.079800 0.025855 -0.036175 0.030252 -0.372706
deliveri 0.071041 -0.028586 -0.038119 0.060071 0.074838 0.031596 0.035005 -0.029009 -0.074816 -0.073437 0.108110 -0.027086 -0.064850 0.061161 0.028374 0.167188 0.032586 -0.029361 0.079121 0.008560 -0.230112
directli 0.027799 0.095383 -0.153661 0.030381 0.093047 -0.070491 0.007074 -0.043680 0.010592 -0.044849 0.066879 -0.019203 0.001782 -0.121515 0.165942 0.032286 0.036510 0.117337 -0.070726 0.082177 -0.425864
effort -0.145674 0.101831 -0.001558 -0.015023 0.118633 0.018941 0.087093 -0.036555 0.112104 -0.097372 -0.067416 -0.031537 0.132119 -0.108761 0.019899 -0.205646 -0.018766 0.076181 -0.059632 0.225864 -0.395102
either 0.063001 0.035271 -0.043403 -0.076982 0.033997 -0.022722 0.003870 0.096182 0.023976 -0.126378 -0.002292 -0.006643 0.155929 0.067156 0.096118 0.036167 -0.016784 -0.053402 0.038398 -0.026608 -0.577180
futur 0.108086 -0.135620 -0.021694 0.045136 -0.022127 0.139143 0.060793 -0.055378 -0.166277 0.093176 0.103135 0.062137 -0.153394 0.114091 -0.007143 0.131971 0.040162 -0.000052 0.070677 -0.006151 -0.017422
happi -0.027790 -0.209894 0.021025 0.016552 0.010656 0.258687 0.135369 -0.007421 -0.108196 -0.016879 -0.040684 0.049357 -0.050551 0.201745 -0.044231 0.001889 0.169518 0.059764 0.174115 -0.041632 0.085552
harder -0.216017 0.186016 -0.076710 -0.128008 0.072118 -0.019222 0.016157 0.121662 0.162590 -0.087523 -0.098520 -0.018580 0.124321 -0.246522 -0.080550 -0.230168 -0.104256 -0.069463 -0.155400 0.134017 -0.811652
mental 0.104337 -0.179205 -0.027810 0.088998 0.174266 0.195932 -0.127192 -0.092707 -0.240215 0.074525 0.208340 0.098933 -0.391247 0.236431 0.063988 0.205746 0.213046 -0.109895 0.037070 0.039541 -0.094848
might -0.054490 -0.065586 0.100149 0.006049 -0.073847 0.090225 -0.012087 -0.070235 -0.014567 -0.044272 0.099956 0.020433 0.032944 -0.077685 -0.040371 0.015746 0.033392 0.079339 -0.076702 0.003042 -0.367053
min 0.144802 0.033552 -0.053377 -0.031120 -0.007647 0.045962 0.021411 0.059236 -0.027131 -0.049735 0.101871 0.080100 -0.013238 -0.060267 0.007501 0.248834 0.068663 -0.122939 -0.062984 0.035447 -0.415168
necessari -0.068002 0.039883 -0.143022 -0.089815 -0.126389 -0.018361 0.018822 0.022848 -0.075383 0.045267 -0.179913 0.056971 0.121100 0.004496 -0.097591 -0.003431 0.028734 -0.101339 -0.040714 -0.052331 -0.529804
passiv -0.009137 0.186653 -0.031528 0.037714 0.210503 -0.260108 -0.067413 0.098787 0.140055 -0.076451 -0.033040 -0.052494 0.127990 0.051188 0.122973 -0.201488 -0.169174 0.025622 -0.127987 -0.099889 -0.522662
pre 0.049985 0.109788 -0.075076 0.036917 -0.001644 -0.049329 0.056716 0.021686 0.052727 -0.017955 0.100676 0.083967 -0.020004 -0.069882 0.046967 0.095037 -0.118336 0.011680 0.019332 -0.086120 -0.226298
process -0.117509 0.056502 0.013139 0.047111 0.137684 -0.116420 0.030527 0.049656 0.037418 -0.078258 0.008212 0.053439 0.062759 -0.126377 0.039348 -0.101535 -0.045052 0.057789 -0.063482 -0.005017 -0.360102
properli -0.018430 0.059254 0.029201 -0.071304 -0.004406 -0.053429 0.037778 -0.010634 0.000372 0.060444 -0.000573 -0.002227 -0.010241 0.010882 -0.009672 -0.083938 0.008610 -0.000623 -0.065657 -0.035914 -0.418194
purpos 0.243485 -0.159431 -0.054431 0.090925 0.023924 0.077834 0.042789 0.005195 -0.108045 -0.079415 0.156552 0.022872 -0.044432 -0.007895 0.083357 0.075452 0.026524 -0.055201 -0.020763 0.095715 -0.223351
