lectur -0.872221 -0.766364 0.721838 0.143525 -0.064843 -0.230329 -0.572839 0.345484 -0.463765 -0.155085 -0.189893 -0.931121 0.073383 -0.359539 -0.626898 1.161393 -0.301437 -1.216956 1.158594 0.969441 0.717241
time -0.732189 0.305310 1.219376 -0.454289 -0.134080 0.225912 -1.392745 0.854821 0.512778 -0.810729 0.754346 -0.165847 -0.333271 0.272566 0.095599 0.629883 -1.276783 -2.104839 0.360405 -0.277706 0.504478
interact -0.422239 -0.567218 0.933663 0.967672 -0.111134 -0.888364 -0.063991 -0.233044 -0.281780 0.977012 -0.261575 0.380091 0.025710 0.329689 -1.198202 0.089944 -0.710055 -0.500529 0.814860 -0.806145 0.187103
class -0.664026 -1.084909 0.311766 0.439087 -0.339301 -0.268072 -0.840499 -0.065796 -0.426762 -0.081344 0.146915 -0.757089 -0.504523 -0.302750 -0.870951 0.984667 -0.541600 -1.089138 1.000284 0.214343 0.517767
question -0.510712 0.092100 0.059829 0.428281 0.411767 -0.560854 -0.172795 -0.419337 0.156777 0.836144 -0.781243 0.303857 0.531450 -0.681619 0.194450 0.330225 -0.795836 -1.671848 0.785357 -0.357690 0.269510
ask -0.090843 -0.201095 0.769727 0.560846 0.452085 -0.724512 0.209036 -0.444886 -0.134705 0.700699 -0.782057 0.265129 0.842216 -0.678158 -0.230204 0.335898 -0.827790 -1.194235 0.868322 -0.574156 -0.022615
live -0.634530 -0.168173 0.972432 0.021827 -0.739656 0.872034 -0.696355 0.212538 -0.277785 -0.231971 -0.695634 -0.262338 -0.330810 -0.460695 -0.457412 0.330053 -0.724367 -1.247875 0.704770 0.217860 0.230989
like -0.877280 -0.113251 0.177033 0.137323 -0.144964 0.423725 -0.669463 -0.140655 -0.433503 -0.076068 0.093082 -0.871695 0.352154 0.170297 -0.498985 0.906072 -0.942215 -0.131983 0.899601 -0.551634 0.232454
get 0.319540 -0.194770 0.010725 0.438675 0.109261 0.263079 -0.683138 0.306665 -0.428874 0.072958 -1.029869 -0.371644 0.592891 -0.562591 0.068846 0.903421 -0.630324 -0.249005 1.027171 -0.901422 0.296287
engag -0.425955 -0.525570 0.308762 0.727374 0.205103 0.138937 -0.408569 0.116876 -0.435565 1.086228 -0.053979 0.268906 0.264008 0.294050 -0.642837 0.015925 -0.660501 -0.625399 0.472109 -0.916652 -0.009878
feel -0.533280 -0.313538 -0.148779 -0.534824 0.260475 0.199072 -0.501150 -0.372066 -0.563297 -0.001960 0.114429 -0.159269 0.102010 0.349798 -0.654312 1.022691 -0.761752 -0.218239 1.267982 -0.581788 0.210052
record -0.418908 -0.177156 1.289521 -0.328665 -0.386778 0.343919 -0.101655 0.197619 -0.667049 -0.281247 -0.324531 -0.713747 -0.055249 -0.060474 -0.509787 0.382970 -0.043380 -0.931119 0.931428 0.302228 0.100490
learn -0.289701 -0.657982 0.369802 0.064678 0.625303 -0.262798 0.027729 0.359973 -0.497071 0.666939 0.371202 -0.583103 0.244861 0.131388 -0.919812 0.426225 -0.892081 -0.581134 0.071319 -0.486075 0.239977
work 0.269904 -0.450036 0.308856 -0.236573 -0.357953 0.174670 -0.853741 -0.046260 0.607970 0.273125 0.387293 -1.008553 0.439362 0.248868 -0.606296 0.289674 -0.783520 -1.063985 -0.107633 -0.835070 0.194765
watch -0.314930 -0.039193 0.270347 -0.357405 0.214560 0.270969 0.127789 0.093964 0.281997 0.175825 0.652002 -0.884765 0.448089 0.454113 -0.161303 0.737432 0.243369 -1.085956 0.973163 -0.227773 0.056408
also -0.244617 -0.253891 0.755965 0.062453 -0.054508 -0.005169 -0.618473 0.477093 -0.192970 -0.053103 -0.297805 -0.113113 0.356860 0.055093 -0.411182 0.617609 -0.321527 -0.887762 0.753679 -0.266879 0.220383
easier -1.078015 0.463627 -0.158522 -0.162257 -0.668930 0.321607 -0.459497 0.848956 -0.833297 0.487872 0.371093 0.375567 0.520408 -0.001265 -0.722065 0.252025 -0.295464 -0.458682 0.363177 -0.494836 0.076046
abl -0.978464 -0.194287 -0.175552 -0.231239 0.078952 -0.164882 -0.800119 0.924206 -0.296030 -0.022140 -0.510838 -0.673697 0.184534 0.382357 -0.137623 0.200452 -0.356710 -0.433683 0.601658 -0.361688 0.053308
allow -0.331144 -0.633909 0.105456 -0.259407 -0.340781 -0.500731 -0.444117 0.987597 -0.483110 0.132468 0.158392 -0.306219 0.218761 0.542482 0.114069 -0.079777 -0.643368 -0.742677 0.508141 -0.940266 0.014282
it’ -0.040572 -0.281251 -0.084962 0.372344 0.461417 0.295429 -0.159325 0.266945 -0.594903 0.066021 -0.016459 -0.429927 0.382726 -0.184416 -0.545506 0.551715 -0.758794 -0.711583 1.035585 0.245539 0.012077
understand -0.353202 -0.035673 0.875201 0.222370 0.826077 -0.022321 -0.411564 0.503852 -1.025820 0.222969 -0.796463 -0.108915 0.682873 0.033896 0.257626 1.077733 0.385346 -0.928546 -0.592977 -1.109392 0.112817
paus -0.427528 0.874531 0.499121 0.115069 0.226850 -0.443565 0.182980 0.712633 -0.094301 0.705304 -0.094508 -0.512887 0.445236 0.595137 -0.671955 0.598867 1.092634 -0.712142 0.600978 -0.083279 -0.065199
make 0.230627 -0.055679 0.363516 0.022467 0.117928 0.597810 -0.582890 0.582686 -0.489577 0.110639 -0.121266 -0.338517 1.181733 0.089524 -0.561628 -0.060307 -0.367273 -0.280582 0.968416 -0.331149 0.046568
materi 0.195271 0.189988 0.256380 -1.003810 -0.185607 -0.354150 -0.186957 0.133741 -0.834956 0.643764 -0.279388 -0.557864 0.478556 -0.120145 0.197294 0.205587 -0.316624 -1.331218 0.014702 0.007396 0.082393
go -0.175545 0.019680 0.802247 0.081131 0.262559 -0.217603 -0.472163 0.034710 -0.183708 0.123405 -0.050277 -0.716168 0.728488 0.249937 0.126426 0.419128 0.449223 -0.944587 0.331236 -0.873893 -0.116765
discuss -0.568451 -0.265094 0.795349 -0.249626 -0.355681 0.065707 -0.308869 -0.866331 -0.616480 0.576483 -0.588056 -0.122176 0.206779 -0.812347 -0.722314 0.040180 -0.539609 -0.824819 -0.250506 -0.435687 0.137694
pace -0.374641 0.189996 0.423399 -0.495029 0.063028 0.220844 -0.268842 1.123995 -0.162619 0.732444 -0.196317 -0.686337 -0.077454 0.796701 0.013474 0.500034 0.012276 -0.666911 -0.311089 -0.751399 -0.213669
student -0.716644 -0.923243 0.584465 -0.169113 -0.591123 -0.322633 -0.163871 0.024663 -0.129848 0.440036 -0.555379 0.337657 0.273342 0.108194 -0.453282 -0.102913 -0.689631 -0.572252 0.063659 -0.259274 0.140507
actual -0.557834 -0.145719 -0.128063 0.098728 0.063341 0.005296 -0.274535 -0.057156 -0.714058 0.097855 -0.507560 -0.475866 -0.157580 0.517066 -0.668756 0.255900 -0.940339 -0.436505 0.361823 -0.112609 -0.104864
take -0.176834 0.365866 0.606991 -0.101280 0.584722 0.721842 -0.010957 0.713693 -0.030950 0.141160 -0.026448 -0.226508 0.615256 0.182049 -0.406902 0.157050 0.358322 -0.800263 0.803380 -0.532726 -0.158362
professor -0.517607 -0.478723 0.098889 -0.417479 0.203850 -0.275179 -0.491795 -0.054793 -0.487615 0.007689 -0.463232 0.250813 0.641800 -0.174548 -0.165587 0.086121 -0.240089 -0.715130 0.843416 -0.045675 -0.146706
back -0.371946 0.763718 0.798417 0.063163 0.010250 -0.131156 -0.258398 0.243904 -0.006876 0.128402 -1.022879 -0.752418 0.113333 0.310039 0.152732 0.278801 1.150551 -0.800167 -0.091529 -0.745820 -0.123202
better -0.216187 0.202350 0.091107 -0.409383 -0.080056 0.075246 0.030471 0.344724 -1.044107 0.128968 -0.009334 0.010425 0.732833 0.058502 -0.555206 0.041227 -0.496262 -0.765215 0.003121 -0.171157 -0.133131
note -0.412238 0.462293 0.426842 -0.145206 0.230670 -0.042063 0.050268 0.943615 -0.374506 0.632435 -0.159309 -0.722150 0.217697 0.153608 -0.407356 0.088141 0.448743 -0.548578 0.516614 0.223167 -0.228053
need -0.544404 0.093805 0.365441 -0.275772 0.128706 0.175959 -0.065141 0.550338 -0.066261 0.010539 -0.257237 -0.113379 0.576664 -0.097793 0.135191 0.560178 0.421685 -0.750630 0.531573 -0.417743 -0.085877
video -0.499200 0.443511 0.622302 -0.193222 -0.158631 0.123029 -0.315827 0.355051 -0.508805 0.017941 0.008782 -0.779478 0.119369 0.026720 -0.257864 0.352265 0.419180 -0.765998 0.448808 -0.000239 -0.070605
give 0.335584 -0.709365 0.173452 0.669615 -0.387429 -0.159225 0.064760 0.378640 -0.119061 -0.192319 0.392164 0.562253 0.702094 0.359000 0.075042 0.224486 -0.421224 -0.729063 0.378391 -0.903723 -0.079300
want -0.494985 0.261236 0.016837 -0.788375 -0.047582 0.238274 -0.091904 0.465641 0.211243 -0.042845 0.411870 -0.399667 0.289503 0.697572 -0.080397 0.980641 0.391183 -0.835572 0.476469 -0.172393 -0.145170
real -0.616797 -0.415606 -0.626431 -0.107512 0.026920 0.199638 0.253269 -0.398227 0.247790 -0.504137 -1.171200 -0.434869 0.271877 -0.008369 -0.602821 0.402862 -0.983692 -0.210783 0.380597 -0.485259 -0.232410
zoom -0.442498 -0.040524 0.280709 0.068711 -0.512619 0.822123 -0.270158 -0.430746 -0.451966 0.092877 -0.352231 -0.596490 -0.325844 -0.311752 -0.458875 -0.185700 -0.173095 -1.058778 -0.017224 0.131428 -0.113654
teacher -0.298149 -0.413995 0.215535 -0.144674 0.132914 -0.301915 -0.581177 0.139027 -0.345325 0.322045 -0.830386 0.632017 0.488534 -0.169378 -0.144725 -0.070760 -0.194958 -0.580795 0.933606 0.058194 -0.156834
way -0.364519 -0.069355 0.213710 0.034618 0.079689 0.227835 0.045518 0.411922 -0.329484 0.485476 -0.005383 -0.251590 0.447710 0.044505 -0.271267 0.163618 -0.824378 -0.556948 0.198249 -0.078348 0.028595
schedul 0.140810 -0.137322 0.215124 -0.097704 -0.655821 0.259861 -0.101204 0.425790 0.155760 0.397364 0.390352 0.145700 -0.136711 0.816136 -0.205886 0.550081 -0.295682 -0.606007 0.286521 -0.401186 0.115201
would -0.241959 -0.338466 0.202293 0.237549 -0.029445 0.169403 0.006197 -0.174535 -0.212216 0.274698 0.000836 -0.519444 -0.012352 -0.004862 -0.325849 0.251463 -0.862698 -0.756087 0.707802 0.176648 -0.177160
help -0.368062 -0.125864 -0.031704 -0.006139 -0.559375 -0.031073 -0.187811 0.259295 -0.799450 0.372767 0.201117 0.423326 0.821362 0.309717 -0.295906 -0.106676 -0.134017 -0.472865 0.289537 -0.678327 -0.010682
studi 0.081255 -0.543969 -0.051987 -0.008113 0.066678 0.180882 -0.056954 0.146308 0.327319 0.440225 0.526740 -0.502246 0.362061 0.620280 -0.356810 0.188677 -0.118438 -0.655455 0.160831 -0.471539 0.044676
face -0.994173 -0.585173 0.069854 0.082199 0.205416 -0.142285 0.501507 -0.460863 -0.000139 -0.189336 -0.534310 -0.180668 0.033625 0.441736 -0.419429 -0.223037 -0.965441 0.519666 0.177739 -0.140724 0.202107
onlin -0.453997 0.003317 0.392122 -0.007000 -0.166791 0.473909 0.171369 -0.281847 -0.590186 0.171423 -0.255785 -0.355787 -0.233692 0.216051 -0.246758 -0.190041 -0.590407 -0.659982 0.053866 -0.161254 -0.089947
much -0.129683 0.045500 0.302592 0.057493 -0.039381 0.391209 0.018775 0.343161 -0.519689 0.275471 -0.027276 -0.026707 0.452750 0.122122 -0.462131 0.189821 -0.352146 -0.598823 0.468322 -0.055784 -0.086917
someth -0.378668 0.546770 0.191231 -0.031558 0.060308 -0.550862 0.025896 0.082211 -0.683191 -0.456566 -0.480329 -0.461669 0.731504 0.262473 0.044639 0.290308 0.532671 -0.684068 0.209223 -0.272762 -0.005709
content -0.076807 0.174455 0.010761 -0.551211 -0.032512 -0.511213 -0.147509 0.313633 -0.526803 0.420200 -0.117685 -0.250842 0.537824 0.116907 -0.219839 -0.021777 -0.072285 -0.671013 0.211177 -0.454845 -0.182324
thing -0.204158 0.138259 -0.207583 0.194350 0.528822 -0.633352 -0.450485 -0.264528 -0.423866 -0.191464 -0.260146 -0.892712 0.380090 0.345511 -0.017042 0.543554 -0.431752 -0.807123 0.328693 -0.440465 -0.166918
person -0.676204 -0.101590 -0.095527 -0.118242 0.223301 0.401374 0.102757 -0.212236 -0.261197 0.091929 -0.274730 -0.109205 0.194722 0.360938 -0.401064 0.033996 -0.934784 -0.153885 0.457829 -0.016456 -0.112185
don’t -0.455758 0.339972 0.097991 0.159114 0.117874 -0.368785 -0.114571 0.105795 -0.486950 -0.583784 -0.165330 -0.483233 0.477924 -0.047824 -0.385679 0.261234 0.127858 -0.699095 0.440591 -0.397957 -0.063228
motiv -0.179638 -0.138390 -0.017663 0.211346 -0.704994 0.396332 -0.371037 0.262581 -0.279806 0.488773 -0.052864 0.166975 -0.013788 0.681405 -0.274333 0.777233 -0.478076 -0.239601 0.543675 -0.064651 -0.164326
whenev -0.148356 0.715521 0.483494 -0.293336 0.077967 0.108067 0.140338 0.796217 0.112365 -0.423681 0.342840 -0.262391 0.057398 0.935088 0.163658 0.482736 0.108576 -0.864817 0.477652 -0.055665 -0.392996
normal -0.355071 -0.523613 -0.236740 0.230923 -0.227837 0.306011 0.110886 -0.472067 -0.061540 -0.473186 -0.221187 -0.326128 -0.006097 0.792062 -0.238029 0.374052 -1.107636 -0.125239 0.509144 -0.072950 -0.252651
find 0.171909 -0.498013 0.215374 0.101593 -0.007095 0.805723 -0.108064 0.382916 -0.708411 0.450566 0.016483 -0.179532 0.375286 -0.309182 -0.357661 0.080966 -0.102014 -0.489283 0.655638 0.056119 -0.190738
keep 0.624983 -0.615737 0.332812 0.026352 -0.340365 0.545775 -0.441019 0.560837 -0.380607 0.447326 -0.054288 0.253728 0.172787 0.323850 -0.332284 0.137140 -0.297327 -0.338026 0.451746 -0.222449 -0.258162
listen -0.324840 -0.006813 0.354712 -0.113480 0.204368 0.059582 0.172668 0.194720 -0.236411 0.419146 0.170385 -0.502071 0.356735 0.081091 0.266710 0.358002 0.213392 -0.674903 0.555506 -0.234992 -0.197148
inform -0.070944 0.480792 0.323683 0.027825 0.018489 -0.436229 0.406018 0.587246 -0.065392 -0.058454 -0.283372 -0.123943 0.141703 0.210207 -0.199935 0.271258 -0.148944 -0.693713 -0.146830 0.131992 0.130435
less -0.222589 0.105002 -0.540009 -0.137195 -0.388034 0.661403 -0.024595 0.312988 0.001181 -0.123139 -0.211328 -0.441001 0.150226 0.176627 -0.570581 0.406221 -0.307755 -0.142817 0.607365 0.221652 -0.045470
see -0.665827 -0.250582 0.641785 0.259255 0.333554 -0.791097 0.014468 -0.062430 -0.005663 0.237768 -0.780312 0.247569 0.509557 0.471649 -0.107610 -0.523881 -0.541366 -0.154308 0.656117 -0.114315 -0.064481
still -0.184828 -0.185701 0.082454 -0.097762 -0.076853 -0.167282 -0.163168 -0.128322 -0.047522 -0.098993 -0.512641 0.015970 0.573032 0.286718 -0.595841 0.165713 -0.449370 -0.371728 0.345904 -0.237114 -0.117851
prefer -0.470602 -0.391690 0.003490 -0.053457 -0.259465 0.383033 0.171518 0.036845 -0.624128 0.311819 0.057002 -0.776146 -0.201014 0.056486 -0.024101 0.172254 -0.513657 -0.522295 0.520966 -0.115503 -0.287417
teach -0.571913 -0.711918 0.088356 0.581354 -0.117453 -0.282392 0.210824 -0.093852 -0.180760 0.174110 0.107775 -0.688534 -0.221174 -0.118937 -0.213372 0.169607 -0.776223 -0.243448 0.230158 -0.289385 -0.128876
answer -0.411553 0.305574 -0.207143 0.389075 -0.186547 -0.325711 0.170346 -0.183243 0.204553 0.123658 -0.673580 0.227821 0.579196 -0.776368 0.074596 0.227594 -0.270573 -0.499997 0.403036 -0.596305 -0.294861
day 0.416922 -0.219314 0.142752 0.158367 -0.760929 -0.056993 -0.152283 0.149795 0.506799 -0.349168 0.464903 0.108082 0.002748 0.817821 0.066536 0.527663 -0.228217 -0.817888 0.235048 -0.317930 -0.094501
i’m -0.342900 0.248066 -0.113707 -0.157101 0.253388 0.138711 -0.151941 -0.148923 -0.335524 0.176397 -0.233115 -0.420048 0.193821 0.711402 -0.616350 0.454922 -0.442473 -0.100335 0.554178 0.018212 -0.071913
use -0.254719 -0.209172 -0.048185 0.092655 -0.130498 0.294659 0.092007 -0.150432 -0.397039 0.059090 0.063778 -0.507798 -0.009182 -0.103617 -0.354702 -0.055338 -0.368796 -0.402425 0.125534 -0.324550 -0.151924
peopl -0.789950 -0.213551 -0.014827 -0.450963 -0.159768 -0.009753 -0.345752 -0.114668 -0.100845 0.190848 -0.650466 0.178932 0.056366 -0.107307 -0.336236 -0.035169 -0.249353 -0.059270 0.533179 -0.073536 -0.067017
think -0.390119 -0.353338 -0.025916 -0.072492 0.118423 0.107943 0.234545 0.138285 -0.268405 0.412524 -0.284654 -0.219977 0.063292 -0.186959 -0.230027 0.175537 -0.319495 -0.340111 0.277133 -0.169164 -0.191879
access 0.221317 -0.272867 0.186865 -0.261358 0.101848 0.337601 0.198629 0.258242 0.831665 0.261217 -0.191384 -0.281208 0.103382 -0.082188 0.028938 0.049366 0.405025 -0.745875 0.582703 -0.155119 -0.111875
dont -0.437440 0.417469 -0.072048 -0.006835 0.104644 -0.140510 0.139370 -0.119808 -0.229890 -0.483427 -0.076732 -0.248747 0.655481 0.082681 -0.356331 0.231453 -0.133478 -0.620530 0.273318 -0.174567 -0.136246
realli -0.330827 -0.129674 0.066820 -0.112537 0.054000 0.006276 -0.185474 0.039738 -0.526020 0.133345 -0.300340 -0.034210 0.036665 0.150660 -0.283636 -0.017547 -0.120997 -0.531294 -0.002175 -0.205979 -0.122954
closest -0.764319 0.175032 0.158473 0.279788 0.089917 0.146155 0.054114 -0.886956 -0.161261 -0.074258 -0.371242 -0.407731 -0.383542 0.146918 -0.171029 0.630078 -0.880100 0.450623 0.311486 -0.728711 -0.296863
cours -0.335274 -0.331214 0.202542 -0.211146 -0.097075 0.017478 -0.119681 -0.027267 -0.525657 0.298634 0.000490 -0.183635 0.189022 0.021700 -0.307421 -0.319134 -0.271789 -0.347554 0.003963 -0.387983 0.004907
attend 0.340873 -0.395817 0.143495 0.137261 -0.224071 0.644351 -0.091700 -0.366117 -0.101513 0.376169 0.138658 -0.134809 -0.367530 0.578918 -0.246978 0.082450 -0.502509 -0.518370 0.829292 -0.290492 -0.363713
similar -0.476800 0.024499 0.184117 0.344170 -0.115104 0.154311 0.176314 -0.842549 -0.330207 0.166836 0.097665 -0.299630 -0.168757 0.167602 -0.174616 0.241486 -0.849830 0.244014 0.557087 -0.122628 -0.265225
miss -0.052907 0.102967 0.513252 0.411995 0.507146 0.037146 0.121202 -0.215631 -0.526243 -0.526928 -0.348176 -0.606373 -0.112434 0.197528 0.333625 0.158247 0.801402 -0.463562 0.287454 -0.408964 -0.044031
email -0.460076 0.142344 0.239605 -0.127049 0.020857 -0.053601 0.138063 0.026071 0.214367 0.330144 -0.375285 -0.378814 0.282353 -0.779380 0.479962 -0.203754 -0.111948 -0.684737 0.175526 -0.722606 -0.165178
explain -0.508656 -0.239788 0.589715 0.156635 0.478393 -0.111483 0.320506 0.077404 -0.587183 0.143620 -0.367280 -0.312987 0.551563 -0.220423 0.138914 0.042220 -0.183472 -0.402993 -0.454429 -0.772613 -0.132722
best -0.251111 0.075671 -0.126213 -0.432124 -0.197371 0.258360 0.394721 0.319716 -0.249998 0.453807 0.234813 -0.111121 -0.144214 0.334109 -0.347922 0.076593 -0.797578 -0.445547 -0.235903 -0.166302 -0.084144
flexibl 0.121517 -0.225966 0.462632 -0.309735 -0.405533 0.190976 -0.145316 0.258999 0.320558 0.460252 0.128969 -0.117366 0.088539 0.571731 -0.288981 0.453108 -0.000125 -0.505601 0.003103 -0.299614 -0.316364
structur 0.527810 -0.536336 0.154511 0.036717 -0.817952 0.071197 -0.150902 0.002246 0.083847 0.026336 -0.055108 0.430693 -0.119459 0.466080 0.270396 0.788847 -0.411729 -0.460612 0.255287 -0.082598 -0.176235
forc 0.173831 -0.442678 -0.370023 -0.040107 -0.661173 0.423508 -0.099722 0.052115 -0.430052 0.338620 -0.094526 0.377264 -0.139682 0.282243 -0.204323 0.202654 -0.442525 -0.127019 0.523822 -0.155034 -0.136562
one -0.219964 -0.141962 0.067005 -0.146937 -0.195101 0.163514 -0.040728 -0.160084 -0.218095 -0.027346 -0.272512 -0.338844 -0.342344 -0.087820 0.072199 0.005534 -0.169328 -0.375033 0.462260 -0.113430 -0.135780
easi -0.769809 0.381590 0.046639 -0.200346 -0.302501 -0.083427 -0.289551 0.920439 0.048685 -0.003485 0.066675 0.293579 -0.159757 0.150846 -0.000663 0.242069 0.005983 -0.317344 0.497508 -0.348564 -0.387113
rather -0.318603 -0.130243 0.024737 -0.163501 -0.073512 0.199551 0.247631 0.186551 -0.282931 0.214545 -0.154943 -0.467826 0.248309 -0.367524 0.274430 0.273701 -0.224896 -0.485980 0.381727 -0.055330 -0.146446
upload -0.257472 -0.056092 0.366105 -0.022636 -0.070356 0.759827 0.312112 0.101668 -0.436376 0.667712 0.059457 -0.903669 0.068266 -0.289098 0.038589 -0.112931 0.095645 -0.505572 0.035085 -0.121640 -0.166359
lot 0.051791 -0.126928 -0.033868 -0.032665 -0.129400 0.120250 -0.055995 0.229006 -0.297847 0.136307 -0.138217 -0.055805 0.114053 0.242857 -0.344572 0.015449 -0.198064 -0.470770 0.298965 -0.165284 -0.127116
read -0.146661 0.076263 0.338791 -0.171087 0.362286 0.334743 0.032602 0.097575 -0.269623 0.234314 0.070560 -0.533921 0.422164 -0.202545 -0.086404 0.109706 -0.114383 -0.679856 -0.308064 -0.015919 -0.088116
talk -0.472863 -0.017964 0.496255 0.182980 0.062555 -0.253749 -0.083844 -0.381522 -0.063666 0.234014 -0.328304 0.012204 0.387554 -0.033809 0.010335 -0.388372 -0.140627 -0.286593 0.377165 -0.403992 -0.212970
follow 0.346697 0.066484 0.445412 0.059036 0.177110 0.419321 0.142990 0.332342 0.340615 0.458226 -0.130958 -0.197135 0.620222 0.001665 0.025308 -0.207348 -0.227559 -0.574469 0.461415 -0.298079 -0.194646
speed -0.361572 0.500417 0.232341 -0.086215 0.030052 0.044653 0.455426 0.552654 -0.098316 0.256452 0.178114 -0.397808 0.283474 0.632439 -0.067395 -0.023895 0.378738 -0.167956 0.027969 -0.412372 -0.061192
connect -0.163941 -0.153176 0.019186 0.185895 -0.689523 -0.353527 -0.086006 -0.219493 0.287480 0.079643 -0.250947 0.375655 -0.227743 0.317993 -0.369331 -0.272436 -0.092578 -0.144229 0.579568 0.253825 -0.007999
possibl -0.605105 -0.220680 -0.023607 -0.106272 -0.167943 -0.119060 -0.148812 0.129309 -0.270741 -0.152267 -0.230860 0.013644 0.097236 -0.042557 -0.128999 0.274458 -0.405572 -0.171109 0.821352 -0.177855 -0.539993
activ -0.306438 -0.314888 0.109607 -0.449029 -0.037438 0.185070 -0.105329 0.326260 -0.413241 0.755528 -0.042322 0.344432 -0.041707 0.243494 -0.280407 0.132464 -0.817697 -0.160657 0.251255 0.012149 -0.322322
opportun -0.319187 -0.455257 -0.040232 -0.131177 -0.279075 -0.811995 -0.346279 0.411049 -0.210420 0.087243 -0.327070 0.386916 -0.059543 -0.013400 0.377958 0.349264 -0.448853 -0.482504 0.410379 -0.292364 -0.429837
particip -0.174532 -0.454349 -0.145896 0.089438 0.024758 -0.181913 -0.303476 -0.166481 -0.037030 0.401316 -0.148746 0.140114 -0.115364 0.399556 -0.233963 -0.188721 -0.601221 -0.314896 0.559740 -0.260707 -0.339141
topic -0.253927 0.003969 -0.174944 -0.173902 0.075882 -0.538946 -0.052169 0.208716 -0.556829 -0.313206 -0.045296 -0.170064 0.400945 0.063554 -0.125715 -0.511049 -0.109993 -0.714410 -0.141837 -0.391746 -0.227042
rewatch -0.315971 0.424888 0.454273 0.033558 0.227589 0.057790 0.337450 0.216730 -0.018392 -0.009203 0.202346 -0.797671 0.302781 0.142876 -0.020551 0.141323 0.672348 -0.557599 0.307796 -0.218404 -0.423068
rewind -0.224987 0.659389 0.639079 -0.033163 0.391402 -0.238833 -0.052831 0.521788 0.085902 0.063803 0.129813 -0.503358 0.441827 0.230537 -0.076641 0.237823 0.632481 -0.372362 0.205742 -0.249160 -0.432273
part -0.413905 0.321393 0.057725 0.089006 0.126579 -0.305827 -0.122484 0.084298 -0.272260 -0.653258 0.153927 -0.482142 0.233679 1.056485 -0.280927 0.265711 0.345629 -0.192380 0.344002 -0.137358 -0.228959
account -0.059042 -0.487449 -0.352264 -0.076748 -0.428074 0.258644 0.054153 0.225950 -0.368087 0.748281 0.195584 0.674664 -0.507375 0.708301 -0.085559 0.253258 -0.425812 -0.040289 0.538618 -0.349225 -0.237282
without -0.182963 0.204145 -0.235497 -0.143660 -0.239985 0.172575 0.079208 0.215486 -0.061316 -0.004003 -0.203071 -0.454960 0.113420 -0.301182 -0.262426 -0.013161 -0.032139 -0.408428 0.056017 -0.255821 -0.109392
im -0.236451 0.223226 0.150431 -0.111403 0.347010 0.085801 -0.074005 -0.239711 -0.161705 0.231537 0.018504 -0.409293 0.338429 0.804259 -0.420780 0.323899 -0.230245 -0.053745 0.205115 -0.134267 -0.136369
us -0.155243 -0.489439 0.423499 -0.073735 -0.490976 -0.603103 -0.196124 0.424374 0.154603 0.439164 -0.330425 0.382188 0.195021 -0.010008 0.153075 0.334776 -0.111779 -0.481071 -0.037817 -0.514480 -0.349396
easili -0.329808 0.329908 -0.010823 -0.141352 -0.206053 -0.006529 -0.469134 0.723449 0.172370 -0.112578 -0.583879 -0.072472 0.158514 -0.174344 0.182872 0.458125 -0.091880 -0.231896 0.527228 -0.597569 -0.479057
etc -0.599021 0.277027 0.043018 -0.121049 -0.090589 0.083119 -0.179326 0.436092 -0.268442 -0.173833 -0.159838 -0.072139 0.178719 -0.165938 -0.059209 -0.128473 0.029132 -0.122034 0.657358 -0.238583 -0.459395
feedback 0.129561 0.128743 -0.490282 0.404726 -0.733930 -0.402015 -0.121441 0.053368 0.270295 0.344825 -0.705732 0.572536 0.109767 -0.363299 0.158604 0.108423 -0.532671 -0.521836 0.287115 -0.557187 -0.352996
abil -0.577290 -0.071230 0.031447 -0.241547 0.007001 -0.323417 -0.292663 0.825757 -0.165856 0.052268 -0.190997 0.113505 0.341262 -0.156290 0.106677 0.192214 -0.164006 -0.281953 0.379552 -0.574327 -0.710643
classmat -0.726783 -0.437235 0.369722 -0.088022 -0.155582 -0.514533 -0.056353 -0.144993 -0.106790 0.373378 -0.722115 0.465244 0.566153 -0.001064 -0.248372 -0.253600 -0.522041 -0.068844 0.083421 -0.330772 -0.446934
good -0.510843 0.070396 -0.077243 0.080370 -0.103625 0.203923 0.100400 0.256249 -0.243076 0.143701 -0.151072 -0.290720 -0.030518 0.094705 -0.135841 0.021690 -0.069802 -0.234368 0.512530 0.039987 -0.210306
focu 0.469417 -0.193272 0.233601 0.282281 0.081206 0.422950 -0.013189 0.105588 -0.388226 0.370221 -0.163511 -0.012578 0.346303 0.139388 -0.094940 0.009923 -0.111769 -0.446991 0.213552 -0.162463 -0.156888
well -0.182929 -0.050664 -0.080302 -0.133864 -0.292825 0.163084 -0.039781 0.277160 -0.355434 0.343603 -0.080784 -0.207388 0.034850 0.083333 0.269647 0.042287 -0.347137 -0.575841 -0.059586 -0.158835 -0.339946
seminar -0.371465 -0.279853 -0.181965 0.204775 -0.167255 -0.074277 0.127178 -0.512649 -0.463148 0.205842 -0.126147 -0.481869 -0.180864 0.002885 -0.150035 -0.086666 -0.567064 -0.090941 0.140647 0.006569 -0.188408
uni -0.214908 -0.139516 -0.123237 0.105733 -0.150788 0.180078 -0.021862 -0.252652 0.005477 -0.005318 -0.137651 -0.404635 -0.060120 0.744721 -0.079237 0.441142 -1.014417 -0.128669 0.085801 -0.162317 -0.434482
lesson -0.335398 -0.434861 -0.014546 0.178696 -0.313453 -0.060676 -0.063778 -0.026118 -0.126557 0.164487 0.134040 -0.200971 -0.160515 -0.319505 -0.081379 0.175104 0.010528 -0.359991 0.647391 -0.022806 -0.360955
call -0.172391 0.226672 0.158735 0.123857 -0.503201 0.235284 0.123499 -0.298299 -0.397566 -0.273672 0.081622 -0.442218 -0.108187 -0.489476 -0.416233 -0.007432 0.261363 -0.506459 0.225757 -0.010955 -0.278929
hear -0.705353 -0.321641 -0.052020 -0.018452 0.210126 -0.341229 0.006322 -0.299632 -0.127654 0.459512 -0.645215 0.101869 0.606878 0.179823 -0.205584 -0.309165 -0.025610 -0.056029 0.182012 -0.228254 -0.128780
instead -0.219840 0.209109 -0.039835 -0.163183 -0.191070 0.112906 0.342748 0.247673 0.018801 0.112036 -0.110455 -0.138730 0.049698 -0.097455 0.119383 0.117684 0.030970 -0.388694 0.512877 -0.086498 -0.059478
commun -0.011372 -0.145442 0.368556 0.287116 0.250058 0.007116 -0.108876 0.086280 0.058823 0.450822 -0.254701 0.377338 0.475859 0.030921 -0.119494 -0.163842 -0.359553 -0.291944 0.423534 -0.054609 -0.218591
distract 0.153266 0.605327 0.160746 0.636272 -0.252826 -0.137209 -0.326311 0.220416 0.427231 0.017456 -0.471269 -0.086547 -0.030035 -0.125439 -0.241488 0.188641 -0.177236 -0.607672 0.570293 -0.356713 -0.278236
immedi -0.034446 0.306815 -0.152281 0.340666 -0.462257 -0.335643 -0.106006 0.169376 0.385938 -0.127474 -0.939192 0.444769 0.381934 -0.890577 0.221382 0.032063 -0.565936 -0.401485 0.351846 -0.476080 -0.612674
mean -0.311376 0.165039 -0.032410 -0.029520 -0.221932 0.099715 0.071092 0.426296 0.090121 0.048675 -0.256135 -0.216225 0.181799 0.304160 0.001631 0.343865 0.073897 -0.426416 0.259550 -0.275655 -0.332163
even -0.210247 -0.276804 0.019842 0.018776 0.036330 0.049238 -0.001090 -0.039543 -0.182808 -0.242043 -0.016340 -0.155553 -0.224021 0.016800 -0.249495 0.214666 -0.368858 -0.116366 0.392377 -0.086681 -0.255306
set 0.006600 -0.281678 -0.321816 -0.187534 -0.407906 0.357448 0.121953 0.085132 0.120568 -0.103521 -0.103368 0.231684 0.159358 0.260254 -0.277057 0.358642 -0.320069 -0.412904 0.071264 -0.382346 -0.323648
alway -0.270125 0.165990 0.186033 0.053206 -0.267866 -0.032712 0.192835 0.190618 -0.160867 -0.134355 -0.312427 -0.248487 -0.206459 -0.128439 0.447282 0.091218 0.496086 -0.419010 0.200402 -0.237399 -0.231035
hard -0.300117 0.210975 -0.274009 0.154612 -0.557836 0.554830 0.005337 0.214241 -0.526488 0.549262 0.174083 0.019687 -0.431965 0.015038 -0.407305 -0.208937 -0.222443 -0.408987 -0.086086 -0.200159 -0.260101
provid 0.196451 -0.479195 -0.098011 0.284075 -0.361914 0.063311 -0.046531 0.031380 -0.145559 0.135001 0.180590 0.262073 0.191945 0.142989 -0.074339 0.066170 -0.279336 -0.303318 0.253015 -0.339734 -0.313658
respons -0.152984 0.293196 -0.518336 0.352047 -0.472633 -0.363613 0.119986 0.003109 0.566713 0.042062 -0.497090 0.338919 0.305324 -0.690332 0.012764 -0.030056 -0.274190 -0.266836 0.486970 -0.443195 -0.222498
certain 0.053488 0.144106 0.062992 -0.302096 0.031112 0.221998 0.225488 0.007520 -0.172478 -0.393381 -0.124519 -0.007030 0.269224 0.382979 -0.034452 0.505502 0.438163 -0.677168 0.059763 -0.434115 -0.284699
complet 0.235343 -0.092157 -0.135219 -0.285399 -0.270308 0.189003 0.163299 0.369094 0.031622 0.394873 -0.028595 -0.248593 0.150334 0.523726 -0.141456 0.185580 -0.151229 -0.660150 -0.278495 -0.382169 -0.472381
contact -0.378606 -0.287882 0.148044 0.388570 -0.332860 -0.393813 0.180951 -0.168769 0.218644 0.123482 -0.335349 0.196227 0.231571 0.170519 -0.122358 -0.170744 -0.521474 0.021244 0.182230 -0.425136 -0.235836
internet 0.092655 0.104380 0.048405 -0.236732 -0.697248 0.181745 0.074472 0.285212 -0.002708 -0.296054 -0.220558 0.474545 -0.735878 -0.059786 0.022877 -0.108217 0.058050 0.006177 0.476233 0.044523 0.137577
attent -0.008299 0.136632 -0.183157 0.026712 -0.531968 0.423443 -0.166850 0.238112 -0.432766 0.682040 -0.053094 0.572990 -0.057489 0.254195 -0.326854 -0.115858 0.184536 -0.124122 0.165294 0.204964 -0.131700
directli -0.713093 -0.066188 0.046895 0.122658 -0.074442 -0.384515 -0.014435 0.075968 0.010542 0.010679 -0.579013 0.137262 0.401499 -0.317358 0.114177 -0.019108 -0.343496 -0.147529 0.460654 -0.536657 -0.613620
meet 0.166450 -0.139545 0.108598 0.149583 -0.682200 0.251308 -0.034248 -0.334446 -0.504149 -0.111265 0.072725 -0.302300 -0.108536 -0.600405 -0.272632 0.028615 -0.127442 -0.455272 0.448733 0.111337 -0.407702
pressur 0.327837 -0.011629 -0.021062 0.146901 -0.101224 0.412500 -0.392111 -0.021606 -0.070523 0.026367 -0.155451 -0.245898 -0.271403 -0.025868 -0.240473 0.343047 0.013220 -0.525830 0.364651 -0.178348 -0.187136
routin 0.437494 -0.293011 -0.207975 0.151626 -0.586217 0.086603 0.032083 -0.016233 0.185801 0.059176 -0.023344 0.425832 -0.131804 0.648737 0.046639 0.150187 -0.106762 -0.088013 0.040777 -0.225550 0.061947
write -0.434731 0.540874 0.452718 -0.048341 0.332142 0.219300 0.068707 0.620157 0.027781 0.128450 -0.039205 -0.335514 0.394359 0.065910 -0.009558 -0.107028 0.381698 -0.133671 0.169340 -0.124299 -0.384070
conveni -0.032567 0.072707 0.054881 -0.207451 -0.267631 0.316721 0.246278 0.196663 0.061162 -0.109159 0.065394 -0.229314 -0.030095 0.273662 -0.153988 0.286121 0.084268 -0.507645 0.204523 -0.201939 -0.416611
specif -0.037599 -0.255378 -0.108011 -0.114829 -0.362494 0.295834 0.228571 0.206743 0.278949 -0.182789 -0.381400 0.040705 0.240220 -0.297179 -0.091528 0.289001 0.063756 -0.356751 0.118743 -0.465979 -0.227688
classroom -0.205262 -0.220772 -0.278192 0.063097 0.344925 -0.004195 -0.036197 -0.570212 -0.264208 -0.041023 0.040873 -0.216664 0.046301 0.520215 -0.261843 0.269048 -0.871500 0.204823 0.258189 0.096498 -0.208346
univers -0.144965 -0.394227 -0.137993 0.038845 -0.196685 0.060115 0.355838 -0.470725 -0.098689 -0.143815 -0.053864 -0.294268 -0.245871 0.489281 -0.324970 0.122696 -0.358252 -0.055555 0.338165 0.178262 -0.308418
chat -0.320344 -0.047034 -0.290779 0.006514 -0.216870 -0.402160 0.007212 -0.102482 -0.383911 -0.042781 -0.165880 -0.090277 -0.042177 -0.532736 -0.231981 -0.319950 -0.070963 -0.558829 0.306922 -0.165611 -0.458638
could -0.339925 0.004866 0.133681 -0.034326 -0.105777 -0.083145 0.073027 0.145727 -0.404556 0.029675 -0.076591 -0.218653 -0.011184 0.097740 -0.057072 0.087214 -0.092669 -0.431155 0.266361 -0.142432 -0.465320
bit -0.044005 -0.056832 -0.009749 0.279072 -0.079042 -0.128308 -0.059574 -0.255067 -0.185638 -0.158441 0.007832 -0.091161 0.335137 0.509848 -0.167212 0.290001 -0.092107 0.035716 0.562219 0.008862 -0.198861
everyth -0.041248 0.243584 -0.083695 -0.215544 0.152411 -0.025003 0.224050 0.332921 -0.323533 -0.022526 0.019900 -0.317423 0.395373 0.217025 -0.228975 -0.121476 0.415585 -0.391729 0.105566 0.101394 -0.278472
peer -0.533754 -0.445241 0.111072 -0.083124 0.016476 -0.268415 0.300305 0.028802 -0.427779 0.278480 -0.474045 0.258338 0.267638 -0.124572 -0.021065 -0.364149 -0.400403 -0.160343 -0.054621 -0.062391 -0.364028
stop -0.192023 0.212485 0.399081 -0.067181 0.198276 -0.214631 0.088830 0.366865 0.050002 0.240020 0.118866 -0.577163 0.075643 0.130226 -0.152964 0.410968 0.522838 -0.645001 0.414416 -0.109835 -0.524811
home 0.379413 -0.154515 -0.005693 -0.134015 -0.182914 0.420058 0.014423 0.113352 0.213035 0.084669 -0.157415 -0.061367 -0.047731 0.341125 -0.065333 0.244266 -0.286385 -0.155469 -0.013262 -0.043385 -0.161368
know -0.223602 -0.004860 0.003641 0.170650 -0.011355 0.043056 0.054707 -0.104188 0.001510 0.069160 -0.183924 -0.236394 0.084964 0.128223 -0.361327 0.177404 -0.287045 -0.114765 0.103221 -0.136477 -0.277425
tutor -0.155016 -0.443170 0.119807 -0.049935 0.037346 -0.220254 -0.086026 -0.055679 -0.239906 0.285730 -0.413807 0.407025 0.282933 -0.176285 -0.129631 -0.041970 -0.389856 -0.125519 0.414925 -0.107833 -0.405333
differ 0.217036 -0.507407 -0.188766 -0.289378 -0.319072 0.096491 0.112657 0.136169 0.170841 -0.280794 0.065471 0.321397 0.009555 0.180906 -0.123264 -0.015880 -0.055788 -0.548690 0.153301 -0.048209 -0.187962
difficult -0.186827 0.238954 -0.008724 0.017387 -0.214503 0.462562 0.070652 0.027616 -0.343308 0.071015 0.004131 0.030002 -0.294686 0.113564 -0.340233 0.029925 -0.012058 -0.503998 0.064223 -0.232664 -0.367143
look 0.016707 0.093354 0.294274 0.017843 0.253629 -0.034183 0.079820 -0.014165 0.021032 0.044010 0.018480 -0.427660 0.475617 -0.237318 0.338992 0.329571 0.622940 -0.525800 0.159046 -0.274497 -0.454083
method -0.219928 -0.129334 0.039637 -0.000436 -0.244107 0.243726 0.096250 -0.214302 -0.297611 0.128763 -0.107236 -0.025145 -0.169701 0.020120 -0.285846 0.035851 -0.509306 -0.116447 0.087614 -0.021303 -0.395619
session 0.008803 -0.307098 -0.093588 0.221816 -0.566581 -0.038592 -0.037063 -0.129804 -0.316326 0.018766 -0.022351 -0.197671 -0.276513 -0.288217 -0.114920 0.133350 0.053673 -0.575487 0.520814 -0.071147 -0.360876
experi -0.156061 -0.158512 -0.046630 0.116015 0.167256 0.189776 0.012060 -0.444334 -0.289213 -0.012094 -0.066747 -0.186789 -0.062614 0.399022 -0.098831 0.053941 -0.735279 0.160550 0.150318 0.040822 -0.293633
idea -0.431776 -0.046424 -0.366215 -0.097687 0.209993 -0.212716 -0.112409 -0.306862 -0.102955 0.200153 -0.406423 0.235107 0.097635 -0.080767 0.333527 -0.314482 -0.337395 0.029857 0.228223 -0.073283 -0.089489
concept -0.068377 0.330076 -0.147207 -0.158220 0.117381 -0.105634 0.124779 0.302816 -0.373058 -0.089987 0.026629 -0.007518 0.407266 -0.121610 -0.108166 -0.299409 0.031423 -0.474992 0.024033 0.022517 -0.354270
mode -0.299511 -0.149003 0.313994 0.012047 -0.047518 0.222407 0.146166 -0.402135 -0.229077 0.254645 -0.139316 -0.277701 -0.160738 -0.035608 -0.369082 -0.149078 -0.875737 0.033431 -0.178673 0.209535 -0.261964
option -0.143182 0.054726 0.246693 0.160290 0.020529 0.005734 -0.058265 0.091642 -0.173336 0.083127 0.023381 -0.081523 0.009219 0.140285 -0.018204 0.271438 -0.110323 -0.247409 0.518882 -0.125362 -0.366872
replay -0.307561 0.421859 0.397882 -0.165658 0.492800 -0.079566 -0.032229 0.237490 -0.118939 -0.358252 0.251859 -0.428649 0.255034 0.455112 -0.178512 0.218755 0.494184 -0.176470 0.110105 -0.409602 -0.512906
sinc -0.088994 0.040415 0.162157 0.060558 -0.205726 0.282632 0.138172 0.128411 -0.111966 0.039560 -0.113076 0.021958 0.086109 0.185115 -0.001286 -0.021382 -0.107214 -0.195526 0.317411 -0.242137 -0.359904
often 0.007523 0.120908 0.078299 -0.020174 -0.349061 0.303416 0.284906 -0.128935 -0.287612 -0.035444 -0.031914 -0.344441 -0.128025 0.084349 -0.074682 -0.140249 0.140793 -0.398363 -0.044162 -0.013440 -0.343095
prerecord -0.274686 -0.016509 0.240284 -0.037518 -0.189015 0.260181 0.401054 0.102578 -0.430367 0.168189 -0.050895 -0.468011 -0.061130 0.230075 0.054038 0.220453 0.003898 -0.371327 0.339001 0.112209 -0.579762
sometim -0.079278 0.156258 0.099995 0.179078 -0.405293 0.099852 0.133642 -0.015950 -0.185307 0.001866 -0.174684 -0.221427 -0.164846 0.030204 -0.168310 0.024731 0.066564 -0.211474 0.543333 0.175477 -0.273300
speak -0.250252 -0.147807 0.237874 0.141893 0.053094 -0.065890 0.275716 -0.116602 -0.088553 0.028958 -0.219794 -0.154046 0.037347 -0.069029 0.120654 -0.199533 -0.100804 -0.132591 -0.049548 -0.014217 -0.171172
stay 0.634980 -0.420956 -0.005510 0.340833 0.054554 0.492324 -0.244582 0.200450 -0.267753 0.463611 0.011795 0.591331 0.364039 0.136246 -0.056281 -0.256528 -0.022486 -0.117450 0.044215 0.213834 -0.002167
away -0.304388 0.503727 -0.257167 0.350211 0.115071 -0.838356 -0.004990 -0.081357 0.443002 -0.021546 -0.586454 0.343011 0.609670 -0.650440 0.384329 0.104434 0.117232 -0.086720 0.239986 -0.233653 -0.055439
everyon -0.361295 -0.290994 0.027263 -0.258298 -0.141343 -0.040150 -0.204318 0.090851 0.066767 0.122851 -0.503678 0.194312 0.122204 0.048991 -0.224951 0.028787 0.004393 0.070239 0.261154 0.079022 -0.199223
mani -0.112961 -0.105098 0.049816 -0.033640 -0.112428 0.063103 0.314143 0.375277 0.013318 -0.237676 -0.016839 -0.277082 0.109218 0.042109 -0.179691 0.182989 0.310515 -0.517464 0.365402 -0.146848 -0.643592
nice -0.490538 0.065348 0.238439 -0.055383 -0.071024 -0.096272 -0.212320 -0.043622 0.081191 0.529336 -0.339337 0.023810 0.357828 0.196710 -0.242052 0.156644 -0.155809 0.049016 0.510109 -0.290818 -0.452711
done 0.187688 0.140666 -0.143745 0.013166 -0.469723 0.073544 0.238730 0.089898 0.388582 0.078987 -0.294730 0.017676 -0.004763 0.055094 -0.041088 0.232837 -0.026845 -0.542137 0.019606 -0.462575 -0.433702
group -0.248566 -0.156209 -0.359253 -0.154966 -0.127388 -0.122270 -0.064379 -0.047666 -0.512664 -0.099026 -0.139364 -0.042621 -0.067616 0.024543 -0.031071 -0.307035 -0.289208 -0.270644 -0.236406 -0.002173 -0.146292
moment -0.493112 0.271538 -0.132587 -0.100962 0.022606 -0.264010 0.059146 0.306902 0.241121 -0.146227 -0.307000 0.059289 0.313729 -0.336494 0.237974 -0.098527 -0.089203 -0.027732 0.304842 -0.356044 -0.294397
other -0.209530 -0.095046 -0.149546 -0.265576 -0.159856 -0.035789 -0.120711 0.187044 -0.304203 0.049202 -0.300085 0.364226 0.313303 -0.095881 0.071843 0.096857 -0.451020 -0.141868 0.245255 -0.010684 -0.369409
anytim -0.183879 0.356684 0.301561 -0.258717 -0.045002 0.128144 0.076304 0.599022 0.063681 -0.266832 0.363489 -0.177068 -0.054432 0.382303 0.216370 0.280122 0.306062 -0.360793 0.334161 0.016576 -0.411404
concentr 0.207661 -0.165047 0.142165 0.257115 -0.209592 0.472659 0.120077 0.212479 -0.277570 0.436193 0.051097 0.162889 0.062002 -0.049462 -0.125664 -0.034301 -0.151560 -0.297963 0.308830 0.085961 -0.183239
hour 0.091656 0.141434 -0.040586 -0.082169 -0.170619 0.199072 0.250499 0.147167 0.195453 -0.219751 -0.124689 0.064157 -0.037239 0.246052 0.205074 0.126152 0.072637 -0.248083 0.181673 0.139015 -0.105655
import -0.269200 -0.010891 0.117209 -0.095271 0.016880 0.178645 -0.012199 -0.030063 -0.353825 0.158361 -0.074599 -0.094166 0.061636 0.001752 -0.162729 -0.044328 -0.220381 -0.219322 -0.095289 0.057423 -0.276272
procrastin -0.199507 0.200979 0.091295 0.029030 0.024755 0.256626 0.135721 0.136693 -0.217852 0.060486 0.066170 -0.215966 -0.047781 0.181519 -0.137517 0.289002 0.258951 -0.175352 0.554712 0.079041 -0.247141
chanc -0.094823 -0.319727 -0.127069 -0.152112 -0.339383 -0.453391 -0.262330 0.294331 -0.041142 0.171646 -0.214032 0.411808 0.183482 0.055339 0.058561 0.328446 -0.357579 -0.340345 0.171652 -0.180473 -0.485721
close -0.318991 0.028610 0.116529 0.363446 -0.013077 0.145016 0.024379 -0.474685 -0.100919 -0.087883 -0.265738 -0.109348 0.050433 0.318201 -0.240826 -0.059868 -0.669848 0.319908 0.302881 0.147072 -0.357533
detail -0.297550 0.330512 0.195824 -0.164878 0.232213 0.132877 0.154344 0.251866 -0.180287 0.039749 -0.007184 -0.320794 0.199834 0.022226 0.055501 -0.115024 -0.022107 -0.069935 0.079672 0.085196 -0.227952
subject -0.103473 0.061445 -0.235027 -0.240530 0.132867 -0.165864 0.064520 0.142940 -0.291165 -0.050258 -0.084074 -0.013731 0.287199 0.151568 -0.154480 -0.189137 -0.177679 -0.290382 -0.037555 -0.104643 -0.222101
usual -0.385274 -0.053577 -0.060181 0.190661 0.109844 0.121600 0.400849 -0.208679 -0.072633 -0.032658 -0.231898 -0.335684 -0.082233 0.030563 0.009087 -0.063597 -0.254155 -0.127552 0.096357 0.002997 -0.122793
anyth -0.450489 0.233056 0.237910 0.032191 0.179687 -0.351413 0.147658 -0.115189 -0.372643 -0.420195 -0.211964 -0.381457 0.075005 0.225932 0.147900 -0.052344 0.319359 -0.059694 -0.051469 0.000884 -0.285020
choos 0.342353 -0.017140 0.215575 -0.134784 -0.148524 0.260345 0.087550 0.505367 0.297620 0.101022 0.287551 -0.219090 0.095777 0.479617 -0.108292 0.420887 0.082787 -0.442831 -0.102366 -0.142239 -0.341117
later -0.227066 0.123847 0.132884 -0.037007 -0.147344 -0.118527 0.240039 0.146301 0.115029 -0.133311 -0.146343 -0.248823 0.067848 -0.201931 0.171122 0.239811 0.332140 -0.324522 0.263706 -0.140868 -0.446321
anxieti 0.200043 -0.107266 -0.014747 0.187558 -0.404049 0.213869 -0.005775 -0.266470 -0.086834 -0.050518 0.065660 -0.088597 -0.509821 -0.034012 0.098446 0.171913 0.099209 -0.100061 0.129343 0.076179 0.067577
life -0.216588 -0.024464 -0.074953 0.252880 0.124218 -0.062769 -0.040361 -0.704988 0.144403 -0.132150 0.094716 0.056834 -0.033739 -0.057685 0.077869 0.244630 -0.571780 -0.122718 0.498180 -0.239600 -0.414578
pay 0.368665 -0.426749 0.377868 0.301438 -0.121525 0.507320 -0.306516 0.257144 -0.230118 0.422520 0.141126 0.463112 0.217736 0.090074 -0.222908 -0.400990 -0.029073 0.077149 0.263603 0.206618 -0.275413
point -0.195512 0.296819 0.006130 0.156848 -0.004765 -0.403013 0.172002 -0.027839 0.216213 -0.256512 -0.137279 -0.153759 0.214185 -0.185081 0.081513 -0.007364 0.453957 -0.363728 0.087062 -0.041314 -0.123102
social -0.190621 -0.037942 -0.258895 0.113245 -0.055723 -0.306111 -0.150739 -0.199479 -0.066232 -0.016012 -0.551505 0.509029 0.167054 -0.145393 -0.199099 -0.149173 -0.370973 0.418352 0.160437 0.061000 -0.052757
instructor -0.149951 -0.395299 0.060283 -0.151360 -0.035225 -0.361084 -0.195406 0.181499 -0.163068 0.133814 -0.440304 0.518663 0.304299 -0.166466 -0.094950 -0.042257 -0.261227 -0.106552 0.284375 -0.038110 -0.520352
practic 0.258399 0.003358 -0.051471 -0.040797 -0.091266 0.158075 0.056465 0.079504 -0.084479 0.134444 0.006254 0.156423 -0.072381 0.227289 0.003945 -0.059586 -0.019342 0.010535 -0.078107 -0.143552 0.081180
requir 0.152387 -0.313525 -0.168997 -0.088136 -0.330712 0.168193 -0.018165 0.157752 -0.213140 0.209003 0.138939 0.198531 -0.071785 0.189893 -0.029448 0.143545 -0.141643 -0.007617 0.205469 0.091623 -0.290948
though -0.038738 -0.046644 -0.160529 0.266413 0.028825 0.109747 0.035151 -0.534902 -0.159972 -0.005159 -0.060775 -0.083845 0.213743 0.341800 -0.188173 -0.102867 -0.323797 0.061990 0.298991 0.318278 -0.293696
focus 0.085278 -0.088697 -0.157532 0.041670 -0.379277 0.437975 0.081245 0.254712 -0.066055 0.480323 0.239705 0.316807 0.124551 0.257458 0.061459 -0.081347 -0.148734 0.130197 -0.100721 -0.062680 -0.147251
forum -0.244553 -0.271813 -0.235664 -0.140035 -0.040052 -0.197464 -0.090097 -0.123824 -0.567191 0.142433 -0.178262 -0.287625 -0.274738 -0.290812 0.041068 -0.361545 -0.310657 -0.485593 -0.196380 -0.125037 -0.518516
present -0.112645 -0.224686 -0.144868 -0.022008 -0.022946 0.139475 0.066722 -0.178033 0.001966 0.197478 -0.132086 -0.034241 0.077219 0.176202 -0.233562 -0.058336 -0.233467 -0.178216 0.154191 -0.100709 -0.338790
sens 0.080846 -0.272320 -0.034896 0.052888 -0.388905 -0.042265 -0.084321 -0.103857 0.025927 0.070675 0.143594 0.250105 -0.094890 0.457650 0.030999 0.502683 -0.336429 0.008410 0.171821 -0.005159 -0.146619
come 0.044200 -0.181675 -0.115651 0.019199 0.128075 -0.160697 -0.197359 -0.098257 -0.252273 -0.352466 -0.084921 -0.277578 0.150448 -0.169860 0.344478 0.118379 0.252783 -0.300827 0.178193 -0.200691 -0.293690
explan 0.058940 0.074310 0.181245 0.075620 -0.038341 -0.151011 0.063700 0.109011 0.020557 0.150325 -0.175277 -0.030651 0.183421 -0.281818 -0.055712 0.031707 0.019965 -0.268178 -0.289503 -0.132045 -0.342631
howev -0.207076 -0.149621 -0.101776 -0.072058 -0.107359 0.140282 0.267234 -0.085848 -0.176469 0.032301 -0.141575 -0.382670 -0.029714 0.291150 -0.097498 0.166150 0.038826 -0.396944 0.188798 -0.067493 -0.459258
someon -0.205549 0.020172 -0.066849 -0.186537 0.369780 -0.252116 -0.137849 -0.070162 -0.543537 0.036930 -0.184250 0.020369 0.316936 -0.096153 -0.013935 -0.269416 -0.076987 -0.247603 0.165603 0.171401 -0.214432
didn’t -0.035393 0.319763 0.014612 0.007610 0.104479 -0.378346 0.012306 -0.169632 -0.425976 -0.517213 -0.156379 -0.114873 0.327411 0.053946 -0.059839 -0.072271 0.389181 -0.543530 0.049388 -0.386016 -0.385535
especi -0.045965 -0.252676 0.023878 0.007782 -0.238775 0.249501 0.242928 0.005782 0.142545 -0.125278 -0.049604 -0.140259 -0.194772 0.173482 -0.099499 0.038784 -0.007245 -0.105560 0.126471 -0.094748 -0.334277
harder -0.070822 0.220843 -0.158397 0.217129 -0.299982 0.374048 -0.042806 0.008090 -0.190095 0.200445 0.084370 0.008544 -0.052110 0.098760 -0.443499 0.130610 -0.182118 -0.217934 0.346005 -0.063910 -0.537212
put 0.034212 0.001700 -0.153041 -0.037416 -0.066925 0.183092 0.004012 0.053145 0.040064 0.105255 -0.119626 -0.023788 0.035497 0.134860 -0.073142 0.122145 -0.134965 -0.162453 -0.062989 -0.200792 -0.257850
slide -0.156085 0.250769 0.115859 -0.051576 0.127620 0.160169 0.556186 -0.037435 -0.123768 0.157898 0.010850 -0.726585 0.085457 0.029366 0.289951 -0.054361 0.173184 -0.132430 -0.060678 0.251505 -0.194377
assign -0.004143 -0.110909 0.037939 -0.236913 -0.044107 0.179937 0.116919 0.203054 -0.018483 -0.017203 0.016777 -0.069714 0.027731 0.197871 -0.088011 0.056526 0.137477 -0.220929 -0.101201 -0.154401 -0.305926
convers -0.153276 -0.077210 -0.080548 -0.092250 0.189270 -0.182127 -0.124786 -0.058441 -0.163146 0.132892 -0.151995 0.121410 0.096885 -0.000081 -0.025236 -0.083436 -0.234601 0.085731 -0.074269 -0.119180 -0.228200
manag 0.359840 -0.272596 -0.115553 -0.230402 -0.140975 0.316921 0.379456 0.299063 0.301372 0.108372 -0.102323 0.109220 0.228601 0.068954 -0.169330 0.196428 0.190687 -0.473814 -0.213879 -0.175592 -0.397076
pre -0.392485 -0.165132 -0.068500 0.080412 -0.179895 0.288454 0.277818 -0.198479 -0.196145 0.235163 0.004706 -0.625980 -0.118503 0.013504 0.025036 0.165133 0.062501 -0.376051 0.404107 0.121723 -0.495348
stress 0.247321 0.023290 0.118105 0.127259 -0.100471 0.455670 -0.253680 -0.149584 -0.200111 -0.062168 0.005592 -0.263389 -0.424256 -0.045450 -0.086456 0.256668 0.092143 -0.275623 0.319636 -0.218056 -0.188991
freedom 0.243194 -0.073597 0.079564 -0.211382 -0.198206 -0.181041 -0.126486 0.279758 0.243657 0.147501 0.028460 0.087069 -0.039823 0.570351 0.234958 0.444086 -0.096125 -0.284672 -0.175454 -0.006572 -0.250385
given -0.090195 -0.033082 0.015836 -0.094751 0.003924 0.170081 0.369282 0.250722 0.131086 -0.004078 -0.004737 -0.037829 0.306400 -0.133934 -0.065320 0.000516 0.201094 -0.141206 0.015638 -0.053737 -0.312587
straight -0.426680 0.219718 -0.129975 0.350850 -0.019626 -0.421061 0.247179 -0.132467 0.346668 -0.174812 -0.672805 0.147543 0.184211 -0.716559 0.382746 -0.096914 0.141794 0.113925 0.186764 -0.350504 -0.237695
cant -0.126671 0.045405 0.138979 0.083297 -0.042892 0.018274 -0.131283 0.244152 -0.152877 0.097354 -0.018088 -0.068041 0.062374 -0.123227 0.017161 -0.016845 0.000045 -0.201648 0.237579 -0.173072 -0.397379
direct 0.164848 -0.121481 -0.022470 0.019336 -0.247204 -0.015944 -0.087084 0.096543 0.289311 0.136206 -0.473366 0.274546 0.033023 -0.117020 -0.037910 0.073446 -0.463194 -0.083629 -0.208416 -0.097758 -0.333975
first -0.035723 0.068994 -0.239661 -0.367800 -0.077547 -0.250518 0.227438 0.300575 -0.070871 -0.266506 -0.325362 0.038646 0.538346 -0.214038 -0.163837 0.002499 0.450924 -0.500604 -0.154321 -0.328544 -0.461184
fulli 0.051839 0.246139 -0.118676 -0.231932 0.057263 -0.287745 0.023052 0.274929 -0.402419 -0.062755 -0.066706 0.121499 0.534404 0.069785 -0.346824 -0.178540 0.168999 -0.441821 -0.043887 -0.279248 -0.424004
great -0.246111 -0.006304 0.080041 0.135479 -0.273119 -0.031636 0.131490 -0.056017 -0.140736 0.017641 0.025281 -0.192705 -0.160368 0.098006 0.069595 -0.039349 -0.095456 -0.237206 0.198408 -0.150354 -0.305933
might -0.177008 0.023212 -0.077847 0.008713 -0.092029 -0.067529 0.186676 -0.012623 0.052198 -0.084209 -0.339250 -0.047084 0.032650 -0.101796 -0.014736 0.002783 -0.002848 -0.235736 0.123384 -0.189202 -0.241036
powerpoint -0.044642 0.241785 0.136116 -0.180181 0.074855 0.134916 0.417690 0.028063 -0.210107 0.075976 0.089492 -0.536734 0.013892 0.022699 0.282338 0.058740 0.245179 0.043868 -0.127037 0.327097 -0.183676
suit 0.192593 -0.384171 -0.052279 -0.183532 -0.077838 0.164328 0.301113 0.192620 0.354999 0.094937 0.128374 -0.141330 0.103927 0.067742 -0.267963 0.313603 -0.127666 -0.399180 -0.163026 -0.073901 -0.346382
sure -0.590184 0.341046 -0.054065 -0.300033 0.001595 -0.335027 -0.254514 0.223010 -0.182270 0.280565 0.150199 -0.112742 0.029260 0.310478 -0.511137 0.269341 0.261534 -0.005882 0.147576 -0.138368 -0.377315
tutori -0.177628 -0.143034 -0.138448 0.106321 -0.355012 -0.032862 0.128328 -0.306839 -0.285858 -0.037297 -0.055768 -0.003307 -0.203563 -0.126751 0.139758 -0.240409 -0.241934 -0.103881 0.062047 0.004238 -0.134970
avail -0.058215 -0.108284 0.045446 -0.085974 -0.065315 0.012132 0.124390 0.174865 0.200379 -0.028821 -0.067109 -0.234755 -0.052988 -0.124628 0.080569 0.253957 0.257962 -0.320662 0.196925 -0.013645 -0.190200
hold 0.207661 -0.497025 0.125146 -0.131478 -0.066883 0.321592 -0.166724 0.023735 -0.233748 0.322510 -0.021894 0.223077 -0.174350 0.327661 -0.292906 0.019318 -0.749532 -0.032477 -0.010564 -0.084799 -0.553748
issu 0.022244 -0.068857 -0.215845 0.022743 -0.278460 0.105602 0.025516 -0.121976 0.114233 -0.096540 -0.088747 0.135841 -0.329047 -0.167690 0.012580 -0.215137 0.063133 0.023464 0.202422 0.057403 -0.217213
opinion -0.255126 -0.105058 -0.029865 0.018782 0.007629 -0.293222 -0.031770 -0.156946 0.087842 0.113133 -0.218185 0.266564 0.198506 -0.125601 0.183401 -0.144790 -0.007582 0.074578 0.105822 -0.147696 -0.105116
plan 0.592429 -0.165920 -0.062511 -0.178573 -0.328804 0.260559 0.152968 0.275496 0.392529 -0.101947 0.347343 0.178508 0.082063 0.326719 0.007408 0.304563 0.174316 -0.423034 -0.131672 -0.059628 -0.322349
right -0.303725 0.212404 -0.171017 0.262816 0.028081 -0.423476 0.304739 0.010230 0.350265 -0.212180 -0.669018 0.245829 0.471215 -0.625954 0.166018 0.003978 0.230739 0.071086 0.153550 -0.442180 -0.275532
compar -0.148007 -0.045799 0.108951 -0.015942 -0.126875 0.198706 0.246286 -0.383831 -0.291262 -0.012802 0.089757 -0.401366 -0.161304 0.000512 0.109633 0.085102 -0.188124 -0.188126 0.192689 -0.063847 -0.454376
creat 0.328079 -0.263368 0.039357 -0.038197 -0.216375 0.141199 -0.119949 0.181281 -0.021571 -0.014390 0.240610 0.079343 0.091201 0.244476 -0.156455 -0.047630 -0.189426 0.035499 -0.009130 -0.095694 -0.155251
doubt -0.314382 0.086251 -0.155327 0.070298 0.148535 -0.256220 -0.106280 -0.091708 -0.035370 -0.068603 -0.342010 0.229732 0.143114 -0.115568 0.264043 -0.288092 -0.229487 -0.043186 0.184401 -0.173866 -0.188925
form -0.168936 -0.234597 -0.106683 -0.105945 -0.067195 -0.056497 -0.039842 0.060008 -0.373355 0.127212 -0.109750 0.195850 0.105265 0.014330 -0.026615 -0.094297 -0.407375 0.055586 0.204052 0.030920 -0.418713
interest -0.065846 -0.139719 0.016354 -0.106793 0.091238 0.081659 -0.122851 0.040584 -0.222312 0.092346 -0.128086 0.215377 0.151776 0.054881 -0.113181 0.075374 -0.284360 0.056146 0.147538 0.106651 -0.250847
may -0.192926 -0.158263 -0.110364 -0.019775 -0.140077 0.012934 0.160270 0.106339 0.121780 -0.038671 -0.231557 0.109732 0.103573 -0.265274 0.118532 -0.050039 0.028768 -0.074288 0.077128 -0.322240 -0.236365
process 0.134250 0.050023 0.146183 -0.204102 0.304803 0.365876 0.214357 0.395957 0.000495 0.323229 0.106969 0.090832 0.437568 0.015762 -0.056687 0.135826 0.181443 -0.172213 -0.128433 -0.023725 -0.218118
product 0.140932 0.172559 -0.069731 0.146771 -0.151269 0.122645 0.083170 -0.087353 0.173602 0.085890 -0.044353 -0.015389 0.123981 0.231257 -0.115911 0.151375 -0.052696 -0.067484 0.121062 0.077080 -0.219113
slow -0.218531 0.224434 0.135217 -0.068156 -0.018477 -0.139125 -0.036457 0.242154 0.246775 -0.178463 0.073738 -0.234688 0.040571 -0.048137 -0.038027 -0.062728 0.410233 -0.139383 0.260731 -0.054519 -0.302113
week 0.286238 -0.112022 -0.084428 0.052140 -0.580553 0.159351 0.018280 -0.172418 0.010699 -0.149083 0.143780 0.150934 -0.214716 0.177205 0.100655 0.013712 -0.037519 -0.257363 0.129423 -0.099349 -0.377180
wherea 0.028865 -0.192993 -0.088436 0.026481 -0.113881 0.219701 0.095023 -0.108658 -0.413086 -0.014264 0.232081 -0.409237 -0.084753 0.051415 -0.062288 0.167477 0.111946 -0.573313 0.232941 -0.086623 -0.624027
year -0.297438 -0.047356 0.115668 0.002147 -0.082392 0.134772 0.444621 -0.204847 -0.117438 0.100676 0.008810 -0.461277 -0.183827 0.234908 0.287254 -0.219364 0.281381 -0.120609 0.025110 0.241033 -0.137542
zone 0.131967 -0.370091 -0.122970 -0.081216 -0.291537 0.049620 0.265303 0.153966 0.520705 -0.139653 -0.039045 0.049756 -0.069519 0.062226 -0.191331 0.258108 0.157887 -0.559917 -0.069432 -0.078328 -0.306293
contribut -0.035557 -0.125366 -0.158109 -0.031183 -0.071683 0.107864 -0.129915 -0.121540 -0.094053 -0.006155 -0.116586 0.087289 -0.025571 0.007022 -0.190672 -0.105795 -0.295441 -0.048162 0.111327 0.084860 -0.235610
enjoy -0.243610 -0.068545 0.015279 0.032360 0.035179 -0.179205 -0.082794 -0.095581 -0.151273 0.181396 -0.297382 0.013911 0.166384 0.173316 -0.024992 -0.050347 -0.283902 -0.140871 0.286974 -0.229151 -0.604076
receiv -0.358585 -0.119450 -0.013159 0.266041 0.097693 -0.255998 -0.016701 -0.027766 0.153851 0.013099 -0.428742 0.025705 0.162456 -0.488058 0.219601 -0.084720 -0.323448 0.073708 0.155769 -0.390312 -0.280556
say -0.423811 0.026590 0.119651 0.157543 0.045433 -0.033049 0.022388 0.037181 -0.126625 -0.021210 -0.064564 -0.158028 0.011246 -0.008962 0.041449 -0.041925 -0.041047 -0.042338 0.246285 -0.203935 -0.389531
therefor -0.035247 -0.210485 0.060171 -0.049961 0.041390 0.267004 0.016708 0.081328 -0.207314 0.175709 -0.078173 0.036469 0.239246 0.151938 -0.070668 0.074516 -0.300361 -0.051701 0.116008 0.019431 -0.381497
tri -0.053547 0.213722 -0.062556 -0.132553 -0.024378 -0.068742 0.000827 0.095237 -0.154166 0.033350 -0.066932 0.065360 0.137495 0.094178 -0.070087 -0.100499 -0.078271 -0.193073 0.101557 0.003148 -0.297293
wait -0.056228 0.142873 0.016815 0.101223 -0.009218 -0.103523 -0.026974 0.048133 0.312619 -0.129489 -0.272135 0.001517 0.038448 -0.826877 0.570181 0.236993 0.182250 -0.208699 0.137716 -0.117119 -0.011641
awkward 0.106784 0.057514 0.030457 0.039880 -0.136364 0.516292 -0.215906 -0.108593 -0.116287 -0.133582 0.113856 0.008214 -0.288877 -0.022561 -0.184207 0.265628 -0.070009 -0.053157 0.167251 -0.025725 -0.243843
break -0.212947 0.226960 0.231585 -0.215245 0.091961 -0.123855 -0.123560 0.641510 0.098135 0.173753 0.271012 -0.296503 0.047183 0.180482 -0.129168 0.380303 0.384462 -0.296941 0.248831 0.113072 -0.481926
due 0.233457 -0.235077 -0.066278 0.041005 -0.290095 0.287098 0.176655 -0.081681 0.062244 -0.072251 -0.090732 0.081358 -0.239586 0.084255 -0.018996 -0.116468 0.077191 -0.188490 0.101759 0.057717 -0.213094
effect -0.100777 -0.197886 0.000354 -0.053595 0.042946 0.090370 0.016552 -0.035332 -0.177356 0.313600 0.097217 0.039641 -0.005320 0.071608 -0.167248 0.034623 -0.415874 0.126321 -0.044432 -0.060497 -0.332718
effici 0.075692 -0.191319 -0.151983 -0.043828 -0.076817 0.182945 0.392373 0.054005 -0.089019 0.070225 -0.052168 -0.022550 0.070698 0.063176 -0.052497 0.043964 -0.067279 -0.376357 -0.000088 -0.220706 -0.460329
inperson -0.337025 -0.164667 -0.195938 0.173030 0.026800 0.227800 0.299787 -0.528751 -0.290594 -0.264631 -0.296250 -0.275221 -0.208953 0.375478 -0.036465 -0.067297 -0.536938 0.077115 0.268179 -0.053840 -0.620609
least -0.049570 -0.139738 0.193486 0.104041 -0.024263 0.027752 -0.142401 -0.124979 -0.174192 0.002709 -0.010387 0.093271 0.112810 0.275587 -0.218882 0.222723 -0.378185 -0.016336 0.344406 0.074630 -0.377826
organ 0.146639 -0.137491 0.020300 -0.062488 -0.106797 0.193305 0.134953 0.075362 -0.007249 0.083649 0.094717 -0.029589 0.039859 0.194877 -0.168663 0.148911 -0.085791 -0.375303 -0.135073 -0.103779 -0.397822
quit 0.194559 0.128004 -0.031441 0.048318 0.067473 0.113942 0.009702 -0.252883 -0.452212 -0.185583 0.025317 -0.021480 0.056132 0.106592 -0.168383 -0.097599 -0.023991 -0.062875 -0.066303 -0.089286 -0.314715
resembl -0.098437 0.011476 -0.026543 0.210813 0.051082 0.143669 0.041355 -0.737330 -0.191804 -0.275018 -0.027886 -0.105417 -0.493093 0.111908 0.047740 -0.062252 -0.418380 0.167904 0.422274 -0.117713 -0.263671
struggl 0.094738 -0.033471 -0.132145 0.048850 -0.164077 0.224524 -0.037857 0.171114 -0.024716 0.116192 0.212680 -0.056769 -0.071631 0.094411 -0.081772 0.103168 -0.035534 -0.186588 -0.005715 -0.140530 -0.296720
almost -0.086836 -0.039427 -0.006611 0.132376 -0.039685 0.098851 -0.069261 -0.332002 -0.118872 0.000577 -0.216927 0.027944 0.022470 0.212093 -0.230527 0.037003 -0.474643 -0.029647 0.256773 -0.033738 -0.624623
although 0.008987 -0.185893 -0.028866 0.042525 -0.236305 0.136251 0.286440 -0.132060 -0.132185 0.073937 -0.095787 -0.040022 -0.179470 0.021130 0.008048 -0.140939 -0.071367 -0.219483 0.157577 -0.061632 -0.408736
can’t -0.234754 0.336587 -0.076890 0.143158 -0.279225 -0.062260 -0.111748 0.098947 0.039698 -0.011552 -0.526709 -0.008178 -0.074715 -0.015753 0.032903 -0.030859 -0.039929 -0.230713 0.238783 -0.235861 -0.438917
happen -0.069516 0.038187 0.121610 0.135021 -0.038397 0.093198 -0.066531 -0.194919 -0.141636 -0.081214 0.010740 -0.166744 -0.139687 0.101473 -0.148262 0.234717 -0.095837 -0.389277 0.247197 -0.418086 -0.335110
human -0.136060 -0.290413 -0.066598 -0.040172 -0.038251 -0.092138 -0.216804 -0.109659 -0.077574 0.205005 -0.296696 0.369300 0.153348 0.052613 -0.321504 0.058499 -0.520287 0.101173 0.220217 0.130849 -0.575341
languag 0.088840 0.033802 0.142450 -0.274898 -0.043847 -0.036799 -0.114506 0.244584 0.046636 0.021944 0.280960 0.157222 -0.014934 0.445597 0.103535 0.095426 0.083764 0.155284 -0.150534 0.014723 -0.020958
plu -0.326794 -0.070542 -0.011508 0.005535 0.029269 -0.112459 0.021491 0.114858 0.133117 -0.098531 -0.251778 -0.113344 0.151058 -0.163540 -0.021864 0.187589 -0.047063 -0.199528 0.252532 -0.245795 -0.539189
tend -0.100637 0.130506 0.158129 0.125486 -0.098848 0.152077 0.248897 0.078630 0.075631 0.055948 -0.123120 -0.287693 -0.036516 0.045650 -0.048039 -0.040350 0.142121 -0.197132 0.015372 -0.145819 -0.492349
alon 0.121455 0.048478 -0.132671 0.019479 -0.084944 0.195393 -0.118883 0.021628 -0.010635 0.003512 0.030002 -0.053780 -0.094210 0.339899 -0.099241 0.211827 -0.212531 -0.091430 -0.048261 -0.008179 -0.315198
around 0.282056 0.019520 -0.128513 -0.223816 -0.345876 0.235153 0.023443 0.406238 0.143256 0.312812 -0.144936 0.202325 -0.031529 0.524753 0.044263 0.059880 -0.282580 -0.220318 -0.390242 -0.181180 -0.440384
degre 0.054124 -0.054855 -0.053742 -0.042104 -0.058317 0.148366 0.055478 0.017776 -0.072221 0.037487 0.000198 -0.010019 -0.069279 0.193700 -0.028059 0.026218 -0.113336 0.124874 -0.040667 -0.013408 -0.278353
fit 0.362631 -0.281207 0.366124 -0.017859 -0.144678 0.390674 -0.136039 0.224519 0.156883 0.298297 0.377235 -0.216165 0.189032 0.497538 -0.157914 0.122399 -0.286885 -0.349978 -0.196575 -0.061314 -0.503300
physic -0.289027 0.032563 -0.024353 0.109415 0.057685 0.189136 0.111932 -0.444539 -0.058261 -0.151807 -0.246780 -0.242095 -0.107451 0.346279 0.018442 -0.148280 -0.336758 0.135726 0.262637 -0.056990 -0.452460
room -0.263554 -0.030313 -0.135607 -0.155632 0.132793 -0.152120 -0.192082 0.005001 -0.179078 0.062107 -0.127256 0.105887 0.004679 -0.060355 0.144850 -0.139519 -0.262548 0.164842 0.005364 -0.144366 -0.200027
seem -0.190132 0.001257 0.027645 0.040404 -0.165028 0.052942 0.074430 -0.039858 -0.027829 0.114272 -0.009812 -0.020708 -0.150500 0.249766 0.056063 0.043029 -0.330967 -0.011852 0.036014 -0.057549 -0.365029
sit 0.117476 -0.052911 -0.088397 0.095674 -0.003517 0.228543 0.253987 -0.151975 -0.038547 -0.009440 0.065665 -0.156706 -0.105803 0.157116 -0.144717 0.013514 0.027152 -0.118809 0.097385 -0.050737 -0.279505
environ -0.127868 0.014503 -0.121615 -0.038256 0.086590 0.179331 0.056087 -0.381063 -0.155418 -0.063403 -0.070979 0.080232 -0.061490 0.255265 -0.095804 -0.061543 -0.478553 0.332731 -0.022775 -0.012768 -0.279769
fast -0.318184 0.355550 0.079193 -0.072814 -0.058497 -0.207489 0.016607 0.385832 0.083507 -0.023217 -0.312494 -0.299919 0.041894 0.066844 0.193925 -0.006934 0.438352 0.008582 0.031812 -0.122801 -0.343713
free 0.131920 -0.149469 -0.207954 -0.165874 -0.088573 0.248300 0.127122 0.185604 0.286037 -0.099028 0.029487 -0.117343 0.086870 0.220730 -0.127021 0.253867 0.078551 -0.258311 0.033190 -0.080949 -0.487406
info -0.127400 0.246118 0.010916 0.010779 -0.016488 -0.117447 0.106968 0.259054 0.052164 0.084063 -0.062672 -0.036431 0.050877 0.021461 -0.004211 -0.051129 0.074624 -0.037497 -0.011268 -0.016599 -0.241485
join -0.077948 -0.103547 -0.079375 0.186083 -0.233261 -0.101275 0.070053 -0.100422 -0.208923 -0.188401 -0.060974 -0.221807 -0.215737 -0.186709 0.038394 -0.234918 0.131095 -0.327827 0.260669 -0.084507 -0.454792
whilst -0.169565 0.096847 0.151636 0.002338 0.022349 -0.063464 0.064304 0.056913 0.056544 0.169768 -0.012419 -0.010726 0.047674 0.094158 0.010940 -0.059643 -0.075513 0.043474 0.027757 -0.060462 -0.341442
facetofac -0.290719 -0.069062 -0.075783 0.093060 -0.066919 0.083435 0.394852 -0.332911 0.004480 -0.102723 -0.215809 -0.190632 -0.134257 0.116276 -0.010122 -0.118843 -0.314053 0.116452 -0.023295 0.124131 -0.414900
knowledg -0.061024 0.024408 -0.073867 -0.125189 0.116556 -0.285580 0.002586 0.063637 0.046769 0.118289 -0.147369 0.191057 0.000728 -0.221322 0.036225 -0.301230 -0.041268 0.196699 -0.400138 -0.039664 -0.081876
lack 0.131942 -0.281832 -0.187309 0.023701 -0.239502 0.330258 0.245808 -0.080097 0.008662 -0.045829 -0.030263 0.142143 -0.072292 0.074117 -0.094998 -0.015805 -0.089789 0.004123 0.146636 0.129818 -0.373345
long -0.115267 0.314017 0.034874 -0.106212 -0.053416 0.126686 0.308230 0.290329 0.170310 -0.177681 0.034367 -0.333939 0.018069 0.156127 -0.097473 0.177746 0.435409 -0.288048 0.019066 -0.068317 -0.553933
maintain 0.450134 -0.272667 0.161794 -0.019747 -0.071944 0.148833 -0.164584 0.033261 0.036271 0.130106 -0.092617 0.392561 0.013189 0.248771 -0.070334 0.026279 -0.041577 -0.109699 -0.053038 -0.132539 -0.238567
repeat -0.100746 0.232319 0.173241 -0.106337 0.299092 -0.149844 0.040308 0.046097 0.034782 -0.221110 0.157685 -0.133141 0.197692 0.054347 -0.013548 0.043683 0.365576 -0.107683 -0.098495 -0.012384 -0.252143
share -0.363234 -0.116122 -0.258420 0.099470 0.061036 -0.155648 0.004020 -0.375103 0.147273 0.072426 -0.360093 0.342282 0.217873 -0.436998 0.180089 -0.409553 -0.259168 0.342641 -0.025023 -0.080752 -0.045322
small -0.072491 -0.079497 -0.050724 -0.110012 -0.171860 0.059051 0.046705 -0.321603 -0.183266 -0.099232 -0.288832 0.182580 0.016191 -0.033542 0.084736 -0.271134 -0.299969 0.025097 -0.019310 -0.010981 -0.334021
spot -0.392750 -0.015550 -0.075351 -0.050917 -0.002208 -0.322018 -0.235848 0.119946 0.153689 -0.068725 -0.318099 0.103579 0.221334 -0.374834 0.063789 0.081685 -0.230007 0.109889 0.188582 -0.366744 -0.393856
taught -0.133391 -0.092874 0.083517 0.059196 0.247343 0.050836 -0.172530 -0.168917 -0.237221 0.138442 0.031988 -0.274318 0.114988 -0.015508 -0.127361 -0.096292 -0.253448 0.055309 -0.253995 -0.136458 -0.366307
via -0.234976 -0.033660 -0.048531 -0.083210 -0.193932 -0.035366 0.087214 -0.024811 -0.142247 -0.188400 -0.168081 -0.037780 -0.004181 -0.651062 0.117335 -0.017292 0.030881 -0.257211 0.313395 0.015601 -0.541689
voic -0.392899 -0.031229 0.297962 0.048791 0.254434 -0.269579 -0.004160 -0.065259 -0.069162 0.086188 -0.221946 -0.079755 0.287383 0.103707 0.185929 -0.169001 0.177723 -0.029960 0.067253 0.053319 -0.252250
comfort -0.107855 0.157607 0.047206 0.199951 -0.047286 0.143582 0.099967 -0.052915 0.107862 -0.028315 0.155670 -0.205936 0.043515 0.381609 -0.104697 0.152507 -0.142238 0.009064 0.110588 0.035575 -0.368256
depend 0.153453 -0.154038 -0.059597 -0.001732 -0.078548 0.082816 0.179098 -0.226597 -0.039980 -0.026570 -0.049507 0.093372 -0.064806 0.137118 0.025835 -0.019592 -0.016800 -0.088568 0.079415 -0.136611 -0.145405
didnt -0.048491 0.414541 -0.158287 -0.122466 0.248341 -0.278234 0.137638 0.074524 -0.281534 -0.358292 0.012030 -0.252390 0.452669 0.090503 -0.132255 -0.100055 0.232150 -0.344065 -0.334018 -0.392090 -0.460516
doesn’t 0.015839 0.048789 0.004955 0.168924 -0.045281 0.192222 0.066446 -0.187978 0.016130 -0.022853 0.019467 -0.145079 0.000361 0.440103 -0.167069 0.024495 -0.143627 0.082106 0.214344 0.151085 -0.323898
educ -0.098748 0.126968 -0.179875 0.124989 -0.043713 -0.064868 0.126806 -0.289073 0.048712 -0.056762 -0.146212 -0.008968 -0.180371 -0.081405 0.011373 -0.145620 -0.144925 0.092225 0.028579 -0.080221 -0.226424
last -0.162497 -0.057882 0.094093 0.082111 -0.044990 0.131927 0.658411 -0.261148 -0.042084 -0.063457 0.086054 -0.380445 -0.389257 0.166153 0.132552 -0.165705 0.450794 -0.027459 -0.074424 0.286147 -0.021446
oppos -0.119819 0.051938 0.106534 -0.067013 -0.061755 0.030095 0.143692 0.089899 -0.192094 0.121341 0.001242 -0.172659 -0.029308 0.137642 -0.002677 0.151813 0.095604 -0.073805 -0.009505 -0.054925 -0.416449
quickli -0.108195 0.134010 -0.105990 0.053478 -0.128450 -0.043561 0.147939 0.106056 0.039716 0.011370 -0.243848 -0.010534 0.185946 -0.331603 0.093665 -0.129866 0.081852 -0.061948 -0.039762 -0.122367 -0.236301
review -0.162996 0.177513 0.282818 -0.026052 0.156130 -0.039055 0.236599 0.096761 0.118791 0.183291 0.084677 -0.362014 0.130567 -0.066838 0.168588 0.074965 0.339092 -0.253534 -0.032074 -0.187421 -0.659332
revisit -0.015920 -0.113449 0.164308 -0.052205 -0.004838 0.149892 0.073318 0.108829 0.012475 0.184481 -0.064445 -0.241085 0.135520 -0.022185 -0.019245 0.085097 0.176726 -0.270865 -0.080234 -0.210547 -0.611125
skip 0.200732 0.006819 0.027260 0.010241 0.239934 0.143841 0.204422 0.080980 0.191957 0.041810 0.119964 -0.263819 0.105550 -0.009286 0.038367 0.141766 0.467896 -0.154362 -0.076255 -0.170826 -0.059622
visual 0.010052 0.034515 -0.077930 -0.071438 0.085303 -0.012445 -0.015246 -0.171462 -0.069674 0.059588 0.053179 -0.024524 0.062021 0.308657 -0.081938 -0.023529 -0.178371 0.168545 -0.119953 -0.011315 -0.198991
you’r 0.034408 -0.105829 0.010574 -0.000710 0.075857 -0.126104 -0.134641 -0.104978 -0.003769 -0.025076 0.040441 0.021943 -0.012157 0.131248 0.060823 -0.050526 -0.066245 0.064451 0.168194 -0.008108 -0.184035
benefit -0.200478 -0.186765 -0.109302 -0.023081 0.015788 -0.229799 0.109701 -0.103118 0.021764 -0.010227 -0.151152 0.170087 0.090551 -0.152063 0.056590 -0.169820 -0.202000 0.103521 -0.019405 -0.036778 -0.452623
board -0.139357 -0.265832 -0.242167 -0.148255 -0.057260 -0.408787 -0.118422 0.024731 -0.489809 0.071692 -0.113832 -0.215152 -0.305189 -0.112708 -0.100193 -0.472439 -0.233549 -0.461531 -0.120420 0.022413 -0.533308
case -0.157121 0.047973 0.063933 0.070667 -0.082545 0.093114 0.160223 -0.025097 0.028176 -0.001425 -0.122758 -0.195695 -0.078906 -0.141699 0.060332 -0.065892 0.071648 -0.109750 0.075474 -0.176266 -0.433138
catch -0.000329 0.094330 0.102104 0.042756 -0.000271 0.041947 0.047949 0.037091 0.028422 -0.103767 -0.057459 -0.117908 -0.035871 -0.094652 0.076079 0.074282 0.269643 -0.032743 0.088569 -0.079095 -0.239893
clarif -0.337415 0.113008 -0.066780 -0.024500 0.060139 -0.549156 -0.117381 0.245735 0.164102 -0.086671 -0.306903 0.308550 0.276657 -0.393369 0.219524 -0.016708 -0.003221 -0.003422 0.095361 -0.298150 -0.376221
collabor -0.153587 -0.045250 -0.045017 0.003743 0.125553 -0.288858 0.005287 -0.017741 -0.162530 0.025462 -0.063960 0.134599 0.078450 -0.243414 0.056923 -0.178394 -0.064077 0.082965 -0.011273 0.058841 -0.265639
combin 0.060575 -0.172751 -0.024200 0.108162 -0.250182 0.167352 0.127502 -0.306552 -0.269460 -0.010813 0.099920 -0.341092 -0.333215 -0.082482 -0.107395 -0.094081 -0.048954 -0.322940 0.246317 0.021181 -0.389159
faster -0.069899 0.099339 0.174686 -0.099393 0.034404 -0.029548 0.036000 0.133724 -0.061018 0.207561 -0.005858 -0.261321 0.005120 0.241855 -0.082018 0.061842 -0.027315 -0.206689 -0.052917 -0.160672 -0.550334
fellow -0.179242 -0.583768 -0.013480 -0.103184 0.060755 -0.487919 -0.149275 -0.024875 -0.208764 0.139962 -0.318020 0.635985 0.228925 -0.000876 0.022050 -0.378745 -0.359168 -0.055693 0.285734 0.086251 -0.688802
found 0.103381 -0.136514 -0.046801 0.086220 -0.270096 0.354528 0.287500 -0.233719 -0.090643 0.034568 0.027306 -0.254484 -0.230322 0.020506 -0.031665 -0.009867 0.004976 -0.119849 0.202489 0.052688 -0.471132
offer -0.132072 -0.160743 0.018299 -0.006278 -0.048157 0.188630 0.035065 -0.012521 -0.183425 0.029325 -0.028042 0.045820 -0.002974 0.014799 0.024416 -0.007901 -0.152032 0.001573 0.165520 0.014562 -0.415601
realtim -0.147627 -0.237695 -0.003893 -0.127019 -0.138089 -0.236327 -0.234039 0.248056 0.106442 0.184997 -0.246867 0.273706 0.258185 -0.215741 -0.178449 0.129837 -0.172738 -0.030615 0.159832 -0.313823 -0.596356
regular 0.187273 -0.076177 0.001696 0.008585 -0.031450 0.495209 -0.005685 -0.313233 -0.062064 -0.252654 -0.043434 -0.023373 -0.304671 0.431267 -0.008641 -0.098527 -0.385142 -0.007070 0.146363 0.034685 -0.430956
revis 0.140995 -0.090143 0.100776 -0.058834 0.084865 -0.025298 -0.007205 0.087888 -0.012813 -0.025717 -0.132118 -0.060785 0.136918 -0.045291 0.118443 0.172680 0.362576 -0.281501 -0.030782 -0.253906 -0.367633
start -0.007227 0.177701 0.041819 -0.024576 0.012452 0.166924 0.048561 0.039309 0.045323 -0.263863 0.026821 -0.053616 -0.100481 0.260217 0.070162 -0.083101 0.103462 -0.058553 0.150032 -0.013595 -0.257116
timet 0.177040 -0.088039 -0.098977 -0.032909 -0.204530 0.178447 -0.070000 0.134656 0.010271 0.113508 0.151482 0.150951 -0.137868 0.208184 0.093552 0.098683 -0.096898 -0.076654 -0.119239 -0.091357 -0.414691
view 0.036019 -0.063984 0.031417 -0.012574 -0.043195 0.068072 0.385151 0.039200 0.117341 0.015004 -0.104449 -0.094303 0.210664 -0.000612 0.067756 -0.038458 0.257388 -0.247572 -0.181712 -0.195286 -0.332418
written 0.026142 0.061260 0.132820 -0.147447 0.305362 0.153003 -0.013066 0.105839 -0.195570 0.176508 0.164117 -0.101445 0.118487 -0.030285 -0.054533 -0.097734 0.083639 0.070155 -0.275168 0.025409 -0.234787
along -0.073174 -0.059214 0.087383 0.000907 0.002455 0.079469 -0.103062 0.549263 0.098326 0.266287 0.223000 0.145042 -0.014108 -0.146698 0.060608 -0.022715 0.137813 -0.116224 0.009984 -0.036056 -0.185794
check -0.012007 0.165785 0.092924 0.039334 0.172289 -0.081299 0.070167 -0.006508 0.036327 -0.045072 0.046486 -0.147075 0.158104 0.034228 0.184379 0.064584 0.372012 -0.089331 -0.008227 -0.071409 -0.265615
clear 0.037154 0.093919 -0.112184 0.022829 0.131096 -0.093939 0.011166 -0.174333 0.089284 -0.077682 -0.121840 0.081059 -0.025534 -0.230788 0.192061 -0.038836 0.053897 0.171527 0.042953 -0.055968 -0.027293
decid 0.226291 0.124664 0.081883 -0.076014 0.003305 0.280312 0.189334 0.258418 0.099262 -0.139660 0.291694 -0.187307 0.039199 0.311244 0.013584 0.132773 0.314751 -0.192209 0.034262 0.027990 -0.388703
enabl -0.009762 -0.202839 -0.075861 0.030283 -0.151360 -0.151569 0.104877 0.054235 -0.089246 0.045051 -0.096685 0.101162 0.014317 0.044698 0.154531 -0.108340 -0.238373 -0.108385 -0.081701 -0.177132 -0.538916
gain -0.190651 0.118410 0.060134 -0.096488 0.091379 -0.166520 0.060414 0.143481 -0.221755 -0.078830 -0.038942 -0.205265 0.291986 -0.080120 -0.002133 -0.125202 0.105607 -0.197416 -0.053754 -0.177754 -0.359744
instant 0.103757 0.325078 -0.136363 0.307049 -0.321959 -0.226285 -0.012785 0.088211 0.612529 -0.223355 -0.553777 0.298638 0.105908 -0.550170 0.066763 0.013997 -0.291514 -0.120625 -0.052835 -0.337176 -0.423985
made 0.155886 -0.078782 -0.013836 0.031532 -0.087998 0.279181 0.126332 -0.063901 0.049139 -0.041040 -0.076498 0.085481 0.044144 0.001962 -0.093996 0.030146 -0.020693 -0.058605 0.028395 -0.006909 -0.348836
passiv -0.205337 0.104728 0.059843 -0.231628 0.146420 0.194942 0.115401 0.146445 -0.220002 0.130050 0.112472 -0.142343 0.130322 0.374361 -0.125686 0.218059 -0.257164 -0.109609 -0.043713 0.173450 -0.454910
refer 0.008168 0.101933 0.148638 -0.128260 0.249558 -0.209919 -0.068007 0.079120 -0.090826 -0.275610 0.120136 -0.276493 0.320551 -0.194249 0.380280 0.202409 0.688864 -0.375618 0.040812 -0.109403 -0.353676
repli -0.040877 0.159284 -0.230395 0.107197 -0.128292 -0.174771 0.120110 -0.000464 0.338846 -0.043512 -0.178421 0.220211 -0.023948 -0.452193 0.218936 -0.033988 0.082049 0.121627 0.036720 -0.012816 0.042853
replic -0.014771 -0.142900 -0.195414 0.082267 -0.020349 0.041818 0.038845 -0.272599 -0.165087 -0.101775 0.047527 0.023407 -0.261965 0.077643 -0.012852 -0.098120 -0.336753 0.243875 0.090572 0.095842 -0.091262
school 0.074829 0.035466 -0.030439 -0.103263 -0.028745 0.278417 -0.043418 -0.123475 -0.081335 -0.058011 0.080717 -0.001034 -0.131997 0.428767 -0.082843 0.023798 -0.113628 0.036635 0.125570 0.043662 -0.407461
stuff 0.001747 0.131598 -0.117026 -0.203223 0.143429 -0.252981 0.057871 0.071339 -0.071870 -0.115655 0.028196 -0.013001 0.224607 0.031109 0.005822 -0.085831 0.137964 -0.142305 -0.248593 -0.067354 -0.406593
add -0.032351 0.010099 -0.061067 0.102062 -0.029218 -0.063970 -0.037230 0.029051 0.044085 -0.095892 0.082418 0.059450 0.004343 -0.115566 0.086212 -0.029350 0.037843 0.030276 0.097490 -0.127490 -0.127405
camera 0.011168 -0.093979 -0.161901 0.091127 -0.111788 0.038282 0.187777 -0.206020 0.122870 -0.073478 0.034448 0.116547 -0.142341 0.012512 0.112907 -0.175742 0.066772 0.240173 -0.044402 -0.029774 -0.149915
doesnt 0.207616 0.031525 -0.112916 -0.015616 -0.105280 -0.027545 0.007683 0.068196 0.243743 -0.048875 0.074630 0.025042 0.050538 0.147524 0.013315 -0.001478 0.027481 0.056697 -0.173966 -0.000133 -0.109247
dynam -0.083744 0.001317 -0.008611 -0.073234 0.114075 0.121433 -0.002226 -0.037089 -0.055109 0.129665 0.018225 0.078029 -0.033213 0.223676 -0.132654 0.026439 -0.275260 0.089930 0.020275 0.014096 -0.106213
encourag 0.070937 -0.173198 0.009972 -0.001520 0.019834 0.034495 -0.051940 0.045597 -0.156666 0.288357 0.047016 0.206476 -0.008125 -0.084535 -0.051893 -0.084732 -0.217706 0.042826 0.091650 0.090900 -0.496950
fact -0.071993 -0.061544 -0.115846 0.013935 0.024872 -0.018703 0.051095 -0.076898 0.011869 0.039194 0.019184 0.053013 0.059399 0.129389 -0.109006 0.097319 -0.112930 0.092318 0.111468 0.038961 -0.285605
independ 0.145670 -0.021961 -0.124991 -0.268345 -0.073793 0.219565 0.129934 0.123238 0.027076 0.069159 0.068839 -0.110589 -0.054343 0.224000 0.035316 0.059387 0.067930 -0.050294 -0.308964 -0.057660 -0.210745
level 0.040005 0.051243 -0.100034 0.039466 -0.024284 -0.089172 -0.021919 -0.044992 0.002810 0.021591 -0.042054 0.134829 -0.036492 -0.076690 -0.030197 -0.135967 -0.127990 0.206523 -0.100825 0.133859 -0.210051
love -0.072767 -0.053544 -0.021563 -0.029440 -0.033730 0.017916 0.061900 -0.020948 0.011215 0.029798 -0.071436 0.130313 0.121501 -0.019594 -0.006101 0.034640 -0.188620 0.031505 -0.010628 -0.029856 -0.336427
move 0.119776 0.042290 0.081592 0.032504 0.099208 -0.151672 -0.024931 -0.051191 -0.052488 -0.006121 0.073234 0.038032 0.174638 -0.089516 -0.091659 -0.191615 0.061570 -0.081736 -0.290009 -0.064064 -0.130518
prof -0.084423 -0.090066 -0.003736 -0.153230 0.057409 -0.090635 -0.020080 0.129185 -0.182876 0.123150 -0.090275 0.085198 0.239758 -0.090881 0.014952 -0.008766 0.061501 0.011318 0.052534 0.098708 -0.384706
said 0.086776 0.172345 0.093071 -0.048762 0.143485 -0.300929 0.060819 -0.030352 -0.002351 -0.259784 -0.022547 -0.012401 0.172955 -0.041508 0.269993 -0.104455 0.455981 -0.003738 -0.228620 -0.078911 -0.268968
show -0.032893 -0.083649 0.120778 0.015281 0.046243 0.124288 0.000896 -0.009490 -0.072659 -0.091674 0.000713 -0.037636 -0.121862 0.154234 -0.030529 0.011381 -0.058443 0.014781 0.093335 -0.004230 -0.255984
stick 0.255359 -0.190743 0.018629 0.082575 -0.070335 0.108795 -0.090669 -0.016564 0.207638 -0.018660 0.092952 0.083522 -0.130756 0.126297 -0.115353 0.038807 -0.116547 0.027310 -0.079400 0.039737 -0.287159
understood 0.096206 0.246215 0.160240 0.018495 0.294302 0.028342 -0.090597 -0.022462 -0.072144 0.044013 0.028287 -0.039786 0.141891 -0.093140 0.076649 -0.004510 0.374867 0.088852 -0.421842 -0.081027 -0.063770
aspect 0.115992 -0.073216 -0.223461 0.327586 0.084294 -0.400227 -0.026188 -0.350389 0.015796 0.173941 -0.289162 0.476779 0.114947 -0.173355 0.013528 -0.251830 -0.126448 0.616430 -0.029072 0.015166 -0.025903
current 0.115694 0.021117 -0.112660 -0.030539 -0.095110 0.119266 0.233936 0.053595 0.120447 -0.049612 -0.048148 -0.027827 -0.115521 0.063642 0.044383 -0.008823 0.088615 0.009024 -0.083992 0.004198 -0.437917
increas 0.318692 -0.251337 -0.004431 -0.033659 -0.044286 0.129096 0.003595 0.064979 -0.029236 0.064479 0.172507 0.159755 0.194081 0.167206 -0.173814 0.031340 -0.037193 -0.046555 -0.035028 -0.008135 -0.317203
new -0.180989 -0.084537 0.089336 -0.065421 0.179713 0.041395 -0.036763 0.078230 -0.215658 0.365781 -0.084935 -0.020555 0.175467 -0.156186 -0.034195 -0.289504 -0.145847 0.000226 -0.361749 -0.177557 -0.330418
oblig -0.164853 0.116563 0.088841 0.065805 -0.104337 0.190946 -0.059925 0.026318 -0.207190 0.065572 0.076842 -0.217016 -0.115115 0.153470 -0.187046 0.148331 -0.179680 -0.034693 0.235100 0.109684 -0.623632
problem 0.006784 0.010334 -0.158352 0.003360 0.004530 -0.014629 0.030010 -0.097932 -0.096426 -0.047331 -0.107859 0.008318 -0.149828 0.088294 0.211213 -0.204539 -0.079324 0.066591 -0.179824 -0.083135 -0.305466
there -0.007973 0.055025 -0.096865 0.044296 -0.154314 0.128433 0.074543 -0.015045 -0.104043 -0.211261 -0.032736 -0.050901 -0.110790 0.023878 0.008981 -0.001997 0.184274 -0.183696 0.188967 -0.129491 -0.421094
whatev -0.000337 -0.073261 -0.093648 -0.178428 -0.118301 0.042551 0.343390 0.154768 0.156172 -0.107909 -0.034399 -0.140805 0.164083 0.161496 -0.043960 0.137158 0.255805 -0.344555 -0.027550 -0.224585 -0.581800
your -0.178568 -0.107738 -0.122835 0.036785 0.131177 -0.099256 -0.118021 -0.242647 0.068863 0.075213 -0.109693 0.045136 0.067139 0.173437 -0.174032 0.078641 -0.350553 0.140640 0.179464 -0.052739 -0.296727
anyway -0.052503 -0.041011 -0.023017 0.079904 -0.161720 0.152501 0.299282 -0.126697 0.008425 0.015329 -0.004216 -0.171157 -0.102982 0.126555 0.114629 -0.022128 0.058445 -0.073064 0.119770 -0.000379 -0.394178
caus 0.093024 -0.032365 0.109602 0.024810 0.072614 0.112825 0.021291 0.163835 -0.101882 0.014856 0.034832 -0.102334 0.081616 -0.012384 -0.026854 0.013883 0.099450 -0.146835 0.105590 -0.031934 -0.562588
colleg -0.127192 0.139325 -0.070579 0.036052 0.096955 0.044900 -0.082730 -0.254323 -0.047995 -0.126567 -0.023599 -0.250023 -0.054175 0.343212 -0.118018 0.009860 -0.166150 0.061423 0.134064 0.065190 -0.493358
conduct 0.099324 -0.113392 0.059218 -0.075298 -0.093129 0.232281 0.177502 -0.155846 -0.134179 -0.030312 -0.044184 -0.120468 -0.092314 0.072202 -0.044709 -0.102096 -0.036097 -0.272904 -0.040494 -0.025907 -0.438635
easiest -0.110240 0.062133 -0.004414 -0.033744 0.028199 -0.031043 0.038609 0.214389 -0.037219 0.256953 0.265690 0.096098 -0.170311 -0.034616 -0.163662 -0.006469 -0.072720 0.054298 -0.142109 0.086863 -0.296640
end -0.029660 -0.029621 -0.112112 -0.101261 0.030368 0.118198 0.185669 -0.192774 -0.032308 -0.177447 -0.091823 0.094198 -0.075751 0.137590 -0.026256 -0.089595 0.003349 0.042590 0.096255 -0.053979 -0.308888
enough 0.167516 -0.162212 -0.147504 -0.006404 -0.026735 0.072757 0.081395 0.064421 0.045046 -0.027751 0.083693 0.059223 0.012720 -0.010999 -0.118566 0.029269 0.057028 -0.185618 0.050647 -0.066554 -0.337588
forget -0.061228 0.154409 0.227717 0.010939 0.148611 -0.126691 -0.027667 0.044985 0.087331 -0.249712 -0.053538 -0.147284 0.048987 -0.242965 0.190933 0.022329 0.452081 -0.043418 -0.068964 -0.038480 -0.348426
hand -0.051449 0.057260 -0.024995 0.072506 -0.060498 0.051278 0.227176 -0.150443 -0.009028 -0.020443 -0.150059 -0.083638 -0.063238 -0.005902 0.134306 -0.121787 0.053198 0.028272 0.029267 -0.034682 -0.385214
involv 0.029812 -0.034197 -0.053537 0.100313 0.012252 -0.045023 -0.155811 -0.125588 -0.114973 0.107513 -0.059354 0.120154 0.058619 0.128175 -0.172705 -0.024595 -0.314437 0.076348 0.139958 0.033533 -0.574066
learner 0.139851 0.069738 -0.139851 0.021058 0.170559 -0.012787 0.075486 -0.216939 0.141576 0.007378 0.148737 -0.049994 -0.021879 0.190339 -0.100597 -0.008429 0.055001 0.383353 -0.197501 0.148477 0.088703
lost -0.092531 0.270946 -0.007333 0.191130 -0.193136 -0.094564 -0.077011 0.003000 0.206785 0.090398 -0.158783 0.161216 0.011276 -0.026742 -0.152219 0.073061 -0.253338 -0.096756 0.074435 -0.066927 -0.587604
necessari 0.011817 0.134372 0.037315 0.008952 0.052849 -0.060196 0.001226 0.115870 0.059311 -0.071878 -0.032060 -0.089977 0.083437 -0.093150 0.093996 0.205978 0.283252 -0.139545 -0.003015 -0.078515 -0.541411
never -0.000525 0.082419 -0.001303 -0.006013 -0.031642 0.122480 0.347357 -0.086314 -0.007577 -0.140004 0.013417 -0.157012 -0.132126 0.186110 0.126176 -0.045807 0.227670 0.003609 -0.073372 0.041905 -0.164479
otherwis 0.113640 0.002840 -0.024514 0.055961 -0.099486 0.129316 0.072413 0.088828 0.074964 -0.059694 0.121636 -0.059627 -0.102055 0.074200 0.121528 0.062364 -0.155133 -0.116649 -0.100682 0.069317 -0.153036
play -0.174324 0.281343 0.214970 -0.099852 0.254723 -0.072392 -0.266630 0.432076 -0.130280 -0.160218 0.225574 -0.248399 0.287282 0.006362 0.049032 0.124590 0.448154 -0.075198 0.221105 -0.141920 -0.620945
post -0.004507 -0.077746 0.040212 0.061776 -0.062299 0.194302 0.136072 -0.033117 -0.079126 0.059631 0.063338 -0.271215 -0.105133 0.081550 0.056126 -0.024642 0.101989 -0.173981 -0.059861 -0.078608 -0.375863
properli -0.070254 0.145177 0.006362 -0.063294 0.193293 -0.175217 0.031421 0.054767 -0.244631 -0.110547 -0.053824 -0.099746 0.163526 0.035797 0.019824 -0.104678 0.043215 -0.151271 -0.084865 -0.040705 -0.383290
research -0.035453 0.206757 0.038844 -0.088261 0.084668 0.050694 0.142669 0.092713 0.065962 -0.045118 0.065755 -0.167293 0.055045 -0.018170 0.025591 -0.060187 0.287655 0.072067 -0.227160 -0.035036 -0.165054
space 0.071235 -0.311540 -0.019129 -0.053070 -0.199647 -0.292744 -0.221951 0.170667 0.016038 0.083437 -0.128712 0.309507 0.037079 0.020670 0.017097 0.301777 -0.225335 -0.085477 -0.005770 -0.084816 -0.606937
there’ -0.031493 0.037141 -0.023232 0.138289 0.149707 0.024672 0.018112 -0.081479 0.117225 -0.010817 0.027826 0.041749 -0.017869 -0.083072 0.072208 -0.042972 -0.057323 0.124868 0.047507 0.003660 -0.318784
amount 0.156321 -0.275971 -0.124018 -0.075572 -0.054971 0.059931 0.245638 -0.002667 0.239481 -0.026553 0.006012 0.158768 0.050112 0.018996 0.044820 0.114591 0.139172 -0.072342 -0.132531 -0.047759 -0.207980
anoth 0.029627 -0.158203 -0.034824 -0.005246 -0.168450 0.152589 0.134658 -0.178555 0.042402 -0.091690 -0.087688 -0.068337 -0.143917 -0.022522 0.000359 -0.069213 -0.021923 -0.091927 0.127755 -0.079625 -0.436703
anxiou -0.034847 -0.012374 -0.118617 0.100231 -0.361206 0.051398 -0.129135 -0.047110 -0.000503 0.064944 -0.077951 0.072433 -0.230956 -0.008289 -0.280839 0.153691 -0.174994 -0.065192 0.314640 0.135045 -0.665290
audio 0.152998 0.019495 -0.004747 0.064077 -0.053463 0.048669 0.123006 -0.154198 0.014634 0.040849 0.104811 -0.061009 -0.141401 0.143425 0.039112 -0.051237 0.056656 0.092468 -0.111028 0.139637 -0.313346
base -0.041835 -0.115797 -0.120268 -0.094918 -0.015553 -0.057490 0.044025 -0.054537 -0.197155 -0.008165 -0.030989 0.025558 -0.130459 -0.021457 0.019874 -0.226902 -0.216628 -0.017098 -0.161634 -0.026949 -0.268489
behind 0.021817 0.252305 -0.105254 0.176208 -0.046345 -0.061933 0.053204 -0.195761 0.113402 -0.091506 -0.066582 0.008269 -0.101187 0.058063 -0.027007 0.009481 -0.051120 0.091420 0.002674 0.103759 -0.236074
chang 0.056418 0.015652 0.028540 0.064213 0.027233 -0.146835 0.071204 0.170864 0.134656 0.070070 0.114133 -0.060648 0.158833 0.104103 0.048161 0.118334 0.171679 -0.100953 -0.115604 -0.179747 -0.237346
debat -0.158131 -0.013665 -0.015431 0.080113 0.041229 -0.145802 -0.137424 -0.047073 0.048145 0.019713 -0.118435 0.181585 0.105823 -0.312160 0.011065 0.014986 -0.150401 0.112253 0.134061 -0.044923 -0.209945
depth -0.094042 0.083195 0.021180 -0.076528 0.126723 -0.050734 -0.114221 0.092982 -0.232413 0.080266 -0.081374 -0.203204 -0.038088 -0.011470 0.044480 -0.089465 0.081543 -0.019933 -0.192260 -0.076474 -0.316303
exampl -0.141275 0.090428 0.053878 0.005180 -0.004646 0.140656 0.093177 -0.236429 -0.141654 -0.096663 -0.071912 -0.076067 -0.167406 0.058912 0.050427 -0.169233 -0.061212 0.017765 0.175633 0.003243 -0.567396
far -0.030249 -0.125299 -0.031117 -0.018263 -0.066851 0.112653 -0.037425 -0.085825 -0.276943 0.214462 -0.113688 0.114272 0.144894 0.103539 -0.106973 0.000302 -0.328529 -0.005188 0.199195 -0.011547 -0.527481
gener -0.059484 0.033554 0.019087 -0.026719 -0.079048 0.068209 0.091487 -0.047137 -0.151118 0.183456 -0.094961 -0.073974 0.004715 0.115355 -0.043072 0.030162 -0.095541 0.023847 -0.056330 -0.070025 -0.471059
i’v -0.094505 -0.012071 0.045254 0.018872 0.090447 -0.025307 -0.071028 0.004196 -0.066620 0.038373 -0.088421 -0.100509 0.085944 0.086642 -0.106081 -0.002551 -0.106053 0.065548 -0.039363 0.062569 -0.487932
ie -0.063142 0.012809 0.061037 -0.058864 0.008214 0.142809 0.180131 -0.020167 -0.116163 -0.007231 0.093024 -0.095598 -0.082505 0.133907 0.005621 -0.074715 -0.021722 -0.093396 -0.024695 -0.043767 -0.384062
isn’t -0.063892 0.061025 -0.000219 -0.071251 -0.044055 0.051144 0.216609 -0.021218 -0.153033 -0.037636 0.022863 -0.060284 0.058071 0.025596 -0.015967 -0.058644 0.070147 -0.101023 0.018288 0.043249 -0.370510
ive 0.047090 0.051645 -0.085148 0.006106 -0.097772 -0.068367 -0.004808 -0.147601 0.009385 -0.175715 0.059110 -0.042485 -0.216743 -0.213831 0.045137 -0.156271 0.131728 0.187181 -0.109982 0.085589 -0.059104
littl 0.018123 -0.018161 -0.174146 -0.037249 0.028645 0.133149 0.042171 -0.196539 0.062442 -0.086052 -0.033440 0.126372 -0.086505 0.204329 -0.119516 0.083828 -0.039057 0.123424 0.094829 -0.001133 -0.114162
multipl 0.101649 0.016415 -0.070811 -0.142359 -0.106326 0.184608 0.307622 0.291261 0.204681 -0.116941 0.042888 -0.103989 0.054613 0.027443 -0.079499 0.258349 0.414215 -0.274515 -0.063359 -0.133071 -0.529301
order 0.041954 0.208218 -0.090959 -0.092072 0.072339 -0.091501 0.010429 0.106615 -0.161076 -0.168021 0.072709 0.057941 0.175361 0.037171 0.000244 -0.101669 0.120220 -0.206455 -0.026636 -0.078938 -0.469181
platform -0.027637 -0.113632 -0.077947 0.033476 -0.169773 0.099573 -0.044514 -0.219310 -0.279793 -0.088677 0.050695 -0.213997 -0.201738 -0.218896 -0.098246 -0.015620 -0.134793 -0.112733 0.146180 0.209886 -0.640502
prepar 0.233743 0.021307 -0.008333 -0.024654 -0.144526 0.306808 0.105110 -0.183914 0.049963 -0.128749 -0.076904 0.021632 -0.221966 0.198716 0.024942 -0.104483 -0.118466 -0.076083 -0.036767 -0.047730 -0.561874
situat 0.080471 0.063951 -0.090823 0.021354 0.020065 -0.026565 0.009893 -0.025662 0.064815 0.080076 -0.044051 0.145274 0.010846 -0.053157 -0.000331 -0.029883 -0.049561 0.170491 -0.109903 0.027825 -0.279080
wifi 0.071510 -0.059256 -0.155984 0.096439 -0.125364 0.000484 0.021493 -0.173528 0.001106 -0.060381 -0.054901 0.206137 -0.136044 -0.045711 -0.006262 -0.061379 -0.013714 0.189786 0.216499 0.046639 -0.353586
addit -0.126392 0.114342 0.042737 0.112759 -0.019850 -0.093075 0.202180 -0.058200 0.021822 0.082716 -0.218926 -0.037243 0.112527 -0.131400 0.163633 -0.087309 0.075598 -0.043567 -0.012547 -0.087155 -0.269100
aren’t 0.042637 -0.152236 0.028338 0.064537 -0.134105 0.203884 0.126910 -0.138994 -0.097316 0.009633 0.041739 -0.172861 -0.259923 -0.152829 -0.044663 -0.036684 0.163043 -0.174805 0.154345 0.090623 -0.437834
cannot 0.041487 0.075614 -0.130689 -0.001309 -0.013415 0.180822 0.187986 -0.102502 0.083576 -0.031677 -0.076397 0.058832 -0.109018 0.007585 0.043008 -0.110243 0.034786 0.215583 -0.147108 0.024858 -0.131819
friend -0.277755 -0.136265 -0.015458 -0.009427 0.028254 -0.132876 -0.071617 -0.146779 -0.024896 0.040041 -0.228714 0.117822 0.127425 -0.025753 -0.069261 -0.114593 -0.151345 0.185158 0.023827 -0.012429 -0.229780
full 0.063743 -0.034447 0.007982 -0.137355 -0.161156 0.033968 0.161991 0.151571 0.143758 0.052179 -0.104489 0.108034 0.047681 0.063205 -0.039835 -0.024046 -0.005736 -0.115693 -0.202820 -0.123770 -0.436065
longer 0.064113 0.084768 -0.099525 0.011650 -0.107510 0.020908 0.014331 0.162245 0.107645 -0.004081 0.073443 0.082227 -0.037644 -0.094718 -0.102278 0.039072 0.076931 -0.090180 -0.010832 0.118029 -0.275346
mate -0.097165 -0.160251 0.114720 -0.083828 -0.059069 0.056391 0.007419 -0.182310 -0.296558 -0.029446 -0.339281 0.122798 -0.006469 -0.014133 0.065408 -0.265563 -0.282217 0.016172 -0.024006 0.072998 -0.318342
natur -0.073157 -0.263757 -0.035993 0.024021 -0.066783 -0.116554 -0.195476 -0.044998 -0.133989 0.075574 -0.188661 0.271428 0.109867 -0.026942 -0.128651 -0.041156 -0.358499 0.118804 0.063691 0.027233 -0.546603
organis 0.182459 -0.015166 -0.034971 0.025387 -0.066565 0.046478 0.075422 -0.008494 0.039274 0.099216 -0.007609 0.185017 0.024426 -0.077296 0.043552 -0.129001 0.004965 0.068756 -0.148131 0.018724 -0.181663
poor 0.097231 -0.099501 -0.207599 -0.097450 -0.293413 0.129978 0.000755 -0.061537 0.176976 -0.109967 -0.127256 0.307500 -0.246774 -0.141019 -0.024044 -0.099410 -0.008748 0.197188 0.155723 0.133493 -0.215575
quick 0.129741 0.004198 -0.120129 0.087866 -0.064494 -0.178772 -0.120009 -0.002509 0.182372 -0.029871 -0.360160 0.259322 0.070138 -0.637800 0.192444 -0.055248 -0.185353 0.165481 0.024903 -0.073063 -0.182906
reli 0.094901 0.015871 -0.041935 -0.030241 -0.086288 0.126821 -0.012974 -0.030375 0.009516 -0.029463 0.059592 0.279509 -0.035627 -0.068143 -0.060776 -0.110525 -0.065010 0.138986 0.016525 0.059389 -0.312785
rememb -0.011027 -0.201379 0.145915 0.042385 0.180030 0.006588 -0.161279 -0.041362 -0.108172 0.213912 -0.107582 0.161106 0.107830 -0.070919 -0.004886 -0.019601 -0.241297 0.155820 -0.123281 -0.112677 -0.220001
rush 0.149354 0.263167 0.125228 -0.009360 0.118405 -0.045075 0.021420 0.070511 0.042908 -0.084367 0.197432 -0.175955 0.102922 0.122782 0.051340 0.029684 0.257118 -0.025001 -0.071348 0.028397 -0.054446
self 0.212535 -0.081680 -0.153411 0.086571 0.003299 0.165679 0.014298 -0.039199 0.083773 0.015165 0.157306 0.126275 0.035812 -0.021486 -0.059452 -0.046405 -0.021648 0.120622 -0.042163 0.067937 -0.128723
spend 0.035401 -0.060194 -0.069360 -0.237436 -0.132998 0.220482 0.258569 0.270247 0.012455 0.090952 0.035206 0.096864 0.123783 0.016622 -0.241560 0.191496 0.108396 -0.306568 0.043057 -0.044618 -0.424328
task 0.129398 -0.070653 -0.096877 -0.152486 -0.087133 0.104328 0.151646 0.040327 0.114213 -0.071355 0.126364 -0.085232 0.057646 0.131902 -0.109956 0.104836 0.078608 -0.127159 -0.157477 -0.048617 -0.198812
they’r 0.088211 -0.048084 -0.016914 0.156892 -0.097083 -0.024110 0.134329 -0.076637 -0.014338 -0.009799 -0.110171 0.018433 -0.038824 -0.205879 -0.042257 -0.050392 0.067366 0.013180 0.064065 0.088307 -0.282883
thought -0.034199 -0.000801 -0.181125 0.002088 0.087874 0.038884 -0.031955 -0.180364 0.013472 -0.050946 -0.015844 0.103937 -0.042753 -0.152394 0.080668 -0.229463 -0.096246 0.192319 0.008550 0.144980 -0.197945
togeth 0.101894 -0.050871 -0.015569 0.091348 -0.010256 0.052336 0.032267 -0.204490 -0.013659 -0.015646 -0.007614 0.029012 0.041338 0.132453 -0.081709 0.116099 -0.237489 0.042048 0.032894 0.039828 -0.598630
type -0.100106 0.074727 -0.012555 -0.038226 0.090537 0.028111 -0.035695 0.182144 -0.100067 0.003139 0.058438 0.004514 0.075695 -0.074888 0.067228 -0.011862 0.046879 0.014955 0.013504 -0.006469 -0.433714
wast 0.231294 -0.193020 -0.209435 -0.144193 -0.235028 0.290036 0.361967 0.050570 0.240334 -0.106580 -0.026713 0.000336 -0.039609 0.059668 -0.147769 0.179499 0.305636 -0.293320 -0.056631 -0.150462 -0.537870
1 0.229154 -0.081967 -0.053143 0.027871 -0.104637 0.131691 0.107601 -0.259678 -0.011108 -0.102798 -0.032069 0.074511 -0.259798 0.022427 0.116540 -0.161588 -0.011571 0.172727 -0.143115 0.105299 -0.205233
adjust -0.046144 0.179795 0.260427 0.030171 0.164886 -0.093346 0.071335 0.039081 0.075840 0.039292 0.236872 -0.225226 0.160914 0.185783 0.010754 -0.134533 0.156170 0.041371 -0.082045 -0.045064 -0.322565
afterward -0.002109 -0.060528 0.024525 -0.018172 -0.026647 -0.005312 0.083404 0.023839 -0.154590 0.133823 0.128022 -0.181567 -0.099288 -0.060022 0.057716 -0.160358 0.031193 -0.154221 -0.105272 -0.008647 -0.495362
bad 0.077104 -0.001093 -0.005159 0.146768 -0.060759 -0.031979 -0.099788 -0.159695 0.116975 -0.042878 -0.010884 0.111994 -0.006767 -0.069778 0.040973 0.059011 -0.020381 0.145543 0.086689 0.072767 -0.378446
closer 0.023246 0.064077 -0.003969 0.117358 -0.011966 0.118128 -0.101935 -0.237526 -0.065881 0.029039 0.081757 0.095190 0.036388 0.167353 -0.160327 0.114003 -0.347430 0.282106 0.103189 0.028521 -0.417620
essenti -0.007663 0.004042 -0.145443 0.010629 0.024719 -0.006560 0.006438 -0.102008 0.060159 0.024759 0.061597 0.079942 -0.036302 0.088463 0.027971 -0.042326 -0.075880 0.156166 -0.045864 -0.036649 -0.201948
everi 0.099576 0.058156 -0.013963 -0.113166 -0.028762 -0.017182 0.236151 0.117386 0.065007 -0.071866 -0.042325 -0.068212 0.089434 0.014513 -0.023682 0.037659 0.284998 -0.145927 0.042840 -0.079442 -0.465828
extra 0.061045 0.151119 0.006637 -0.101248 -0.002975 0.010979 0.041786 0.208229 0.081433 0.005138 0.046807 -0.070104 -0.055091 0.103738 0.055579 0.102716 0.200851 -0.025479 -0.064521 -0.004552 -0.431334
i’d -0.022802 -0.013828 0.069801 0.078197 -0.000160 0.009685 0.026106 -0.116542 0.089174 0.050841 0.074878 -0.095445 -0.093913 -0.101440 -0.073872 -0.006831 -0.239362 -0.115970 -0.016161 0.132365 -0.229059
isnt -0.008922 0.023826 0.154841 -0.018120 0.086713 0.071698 0.059025 -0.041231 0.136206 -0.039258 0.009587 -0.099810 -0.032342 -0.012025 -0.026500 0.064551 0.257203 -0.012763 -0.049316 0.067601 -0.288024
kind 0.044235 -0.140424 -0.055740 0.018896 -0.050919 -0.021244 -0.026660 -0.000265 -0.095051 0.053163 0.104936 0.145876 -0.116469 0.178590 0.031944 0.022576 -0.134645 0.231964 -0.048795 0.074822 -0.208317
limit 0.043298 -0.098910 -0.212486 -0.108705 -0.053052 0.002177 0.108572 0.052064 0.119495 -0.070861 -0.007575 0.079801 0.070168 -0.076682 -0.183154 0.108290 0.097732 0.009348 -0.102853 -0.021629 -0.506997
lose -0.004898 0.206951 -0.189171 0.022138 -0.112045 0.169266 -0.041955 0.101990 0.049481 -0.021393 -0.039187 0.167653 -0.048237 -0.109735 -0.085179 0.005553 -0.035693 0.048322 -0.106796 -0.007545 -0.218113
mayb -0.004562 -0.047772 0.018596 0.048201 -0.012267 -0.061125 0.059331 -0.140764 -0.053793 -0.156136 -0.077900 0.013575 -0.075200 0.000081 0.053640 -0.110210 0.019844 0.028411 0.078986 -0.159760 -0.352469
people’ -0.350968 0.016856 0.030092 0.018435 0.159089 -0.352373 -0.159137 -0.064900 0.254610 -0.093315 -0.212083 0.121353 0.104446 -0.120630 -0.002469 -0.221742 -0.161485 0.322552 -0.041847 0.084968 -0.055028
place 0.044834 0.166711 0.051806 -0.149870 0.006801 -0.095600 -0.059957 0.263794 0.134729 -0.086867 0.116794 0.010156 -0.087851 0.022214 0.080475 0.024251 0.270629 0.003003 -0.088863 0.059002 -0.245557
reason 0.012946 0.065138 0.067028 0.065289 -0.055238 -0.076704 0.077169 -0.046141 0.110596 -0.081056 -0.065877 -0.032596 -0.093840 0.159000 0.048283 0.006608 0.079663 -0.070605 -0.046898 0.043319 -0.330335
relisten -0.069889 0.145684 0.091493 0.009982 0.071741 -0.129675 -0.005385 0.082409 0.044533 -0.120055 0.016889 -0.046206 0.111509 -0.064680 0.145625 0.006262 0.209486 -0.009286 0.076535 -0.091563 -0.198937
resourc -0.031372 0.040658 0.051427 -0.005649 0.065391 0.059407 0.082256 -0.041916 -0.039499 0.066556 0.096873 -0.107755 0.002712 0.024390 -0.000907 0.053529 0.176716 -0.088556 -0.019839 0.074713 -0.415958
retain 0.250680 0.047145 0.038034 0.011046 0.126147 0.192635 -0.125332 0.080456 0.084929 0.051834 0.192486 0.121655 0.070211 -0.088168 -0.025402 0.090931 0.134765 0.008194 -0.074272 0.035009 -0.010848
somewhat -0.018366 -0.075143 0.003916 0.039675 -0.065499 -0.040421 -0.150694 -0.135363 -0.079963 0.071304 -0.079752 0.210929 0.119428 0.111410 -0.177759 0.087541 -0.421277 0.045531 0.159514 -0.045878 -0.478720
technic 0.261300 -0.037435 -0.221649 0.038094 -0.020064 0.115554 0.204294 -0.174633 0.215466 -0.178181 0.015276 0.135934 -0.221257 -0.115240 0.129940 -0.109984 0.254858 0.275682 -0.179907 0.065116 0.084137
term 0.206067 -0.006241 -0.127846 -0.043011 0.034065 0.101290 0.126463 0.055149 0.144309 -0.041948 0.140341 0.057379 0.038189 0.017372 0.037809 0.069757 0.124714 -0.020723 -0.232734 0.037021 -0.236584
uncomfort -0.034003 -0.008275 -0.056520 0.156098 -0.051932 0.123601 -0.109613 -0.241276 -0.153773 -0.034715 0.069705 -0.121015 0.006823 0.048824 -0.200649 0.104858 -0.181731 0.073164 0.264529 0.100373 -0.494705
whole -0.091851 0.076949 0.018169 0.034744 -0.057728 0.153402 0.178270 -0.197767 -0.100269 -0.054639 -0.169887 0.079925 -0.112913 -0.039405 0.152102 -0.189389 -0.065273 0.077311 0.009946 0.003724 -0.398274
absorb 0.191563 0.024707 -0.044045 -0.156632 0.125908 0.137828 -0.057369 0.324170 -0.006867 0.081592 0.107187 0.168142 0.259413 -0.127419 -0.097863 0.114818 0.259479 -0.160476 -0.141688 -0.011957 -0.478909
affect 0.066704 0.005632 -0.049782 0.088078 -0.060100 0.111650 0.211803 -0.132220 0.023471 0.060459 0.096877 -0.093982 -0.076460 0.085534 0.121906 -0.077220 0.175993 0.078773 -0.092083 0.037211 -0.331048
arent -0.064345 -0.074283 -0.021425 -0.006786 0.037600 0.008295 0.083490 -0.102142 -0.054380 -0.038762 -0.202079 0.087114 0.063572 -0.083263 0.086354 -0.115724 -0.065056 0.116774 -0.036226 -0.031502 -0.345620
bounc -0.243782 -0.026826 -0.034205 0.073695 0.045345 -0.133390 -0.076243 -0.192787 0.119565 0.077654 -0.185730 0.196283 0.189484 -0.268726 0.086605 -0.177224 -0.236300 0.344541 -0.096294 -0.078495 -0.365653
clarifi -0.303336 0.026266 -0.195077 0.011469 0.069565 -0.278842 -0.071333 0.044949 0.110969 -0.199135 -0.189873 0.079426 0.116442 -0.440781 0.138069 0.020187 -0.054272 0.103636 0.087146 -0.238663 -0.444711
document 0.207323 0.077217 0.045827 -0.217786 0.028372 -0.032633 0.101972 -0.108346 -0.106118 -0.024448 0.133941 -0.203895 -0.049386 -0.222712 0.137208 -0.093999 0.248607 0.123292 -0.194645 0.280710 -0.162656
eg -0.255710 -0.001168 -0.034083 0.002651 0.002786 -0.168977 -0.052086 -0.028849 -0.004415 -0.058587 -0.156408 0.029441 0.039337 -0.230857 0.092957 -0.122927 -0.063831 0.074605 0.125983 -0.044160 -0.468778
exam 0.035421 0.080256 -0.029167 -0.003320 0.006759 -0.028469 0.104466 0.030244 0.190049 -0.007310 0.034934 0.128130 -0.089531 -0.014170 0.127751 -0.048732 0.085564 0.292576 -0.133132 0.127851 -0.275692
felt -0.034951 0.044106 -0.176200 0.038942 0.077758 0.067022 -0.062915 -0.361321 -0.126210 -0.075677 -0.064714 -0.025012 -0.099450 0.339901 -0.154117 -0.017734 -0.323708 0.107669 0.157389 0.052204 -0.505292
format 0.045376 -0.045369 -0.024679 0.099469 0.017816 0.093865 -0.017442 -0.145601 -0.106779 -0.093816 0.025489 -0.127927 -0.167240 0.118250 0.000950 -0.008162 -0.112867 0.030322 0.070630 0.065108 -0.375441
got -0.001973 -0.031099 -0.055679 0.031188 -0.048902 -0.060209 0.122013 -0.024606 -0.012820 -0.075098 0.022398 0.020273 -0.122299 0.037109 0.067076 -0.069957 0.044508 0.020119 0.023754 -0.030948 -0.371973
grasp 0.148658 -0.115530 0.063957 0.076689 0.131251 0.085511 -0.015487 0.006663 0.022296 0.141051 0.006110 0.134803 -0.004571 -0.102704 0.081287 -0.054728 0.067237 0.151031 -0.216867 0.053607 -0.141168
interrupt 0.068605 0.103481 -0.034851 -0.027352 0.047978 -0.016718 0.041087 -0.023037 0.095115 -0.027723 0.083881 -0.040448 -0.157987 0.016693 0.001915 -0.123605 0.137580 0.114444 -0.170464 0.140239 -0.301677
job 0.116424 0.034915 -0.206061 -0.082226 -0.098498 0.045279 0.143085 0.096147 0.162214 -0.075390 -0.024276 0.111905 -0.010024 0.019380 0.100929 0.010991 0.110643 0.125153 -0.157527 -0.024766 -0.129508
let -0.053197 0.033962 -0.000056 -0.045627 0.009095 -0.068345 0.073102 0.107487 0.012554 -0.065903 0.034690 0.033273 0.076162 0.071018 0.081310 0.005205 0.045271 -0.022479 0.011449 -0.076425 -0.555483
modul 0.019475 0.063027 -0.023125 0.005716 0.065952 0.135150 0.281668 -0.091565 -0.015817 -0.057506 -0.034145 -0.018950 -0.059394 0.140947 0.171238 -0.187999 0.066261 0.098794 -0.113873 -0.024333 -0.268887
mostli -0.044796 0.059628 -0.044181 0.051440 0.069486 -0.066570 0.004279 -0.064924 0.018656 -0.084484 -0.126439 0.132584 -0.064814 -0.118899 0.135176 -0.127991 -0.046580 0.128292 0.112669 -0.025900 -0.421368
second 0.144288 -0.035788 -0.148686 -0.018345 -0.027661 0.131595 0.081591 0.093687 0.179616 -0.063596 0.011290 -0.030621 0.079998 0.013700 -0.054714 0.101026 0.210968 0.094016 0.016829 0.005209 -0.530343
send 0.007914 0.055315 0.081899 -0.016227 0.091894 -0.141739 -0.008956 0.032394 0.116976 0.011435 -0.061658 -0.057292 0.118825 -0.192025 0.088011 0.102837 0.181998 -0.038637 -0.004442 -0.021038 -0.555339
