time -0.490521 -1.113451 -0.971009 -0.826086 -0.307714 0.529979 0.020142 0.613769 1.323127 -0.180646 -0.339196 0.363483 1.374420 0.311943 -0.867564 0.007902 -1.076158 0.502687 -1.140051 -0.614172 0.482338
lectur -0.642268 -0.746670 -0.706517 0.408554 -0.325967 -0.965062 0.250801 0.177865 0.592175 0.313737 1.112974 -0.090614 0.838493 -0.058461 -0.013023 0.183834 -0.695925 0.812252 -0.068223 -0.433870 0.576154
paus -1.016072 -0.893002 -0.142219 0.557404 -0.436927 0.080385 0.142051 -0.472026 0.454272 0.272141 0.402063 0.763355 1.076106 0.063939 -0.178808 -0.183142 -0.165250 -0.280738 0.741420 0.283967 0.023133
watch -0.873323 -0.469287 -0.292299 0.636408 0.004411 0.092015 0.039004 -0.044858 0.016558 -0.290759 0.392719 0.679055 1.085327 -0.259924 -0.320899 0.092720 -0.377755 -0.119194 -0.360956 0.131687 -0.022685
class -0.590745 -0.689725 -0.346525 0.225917 -0.139839 -0.935245 -0.048468 0.677710 0.331951 0.654952 0.658575 -0.356666 0.558361 -0.349915 -0.125172 0.034855 -0.494047 0.139087 -0.443922 -0.791139 0.247144
pace -0.444187 -0.515834 -1.081339 -0.210914 0.591349 0.283672 0.356707 0.358170 1.099558 0.066831 0.534778 0.189066 0.872454 0.353210 -0.337952 -0.025061 0.081479 -0.318265 0.124938 -0.079836 -0.128544
go -0.966422 -0.096927 -0.393340 0.678654 -0.459890 -0.323581 0.710749 0.224632 0.208553 -0.577860 0.629077 0.542722 1.067268 -0.284210 0.050986 -0.065019 0.132304 0.403338 0.068321 0.234192 -0.087785
live -0.573501 -1.086662 -0.277057 -0.059170 -0.278930 -0.628444 -0.035140 0.267406 0.172813 -0.100379 0.135809 -1.000297 0.455735 -0.392776 -0.128294 0.189562 -0.607396 -0.602083 -0.401743 -0.311501 0.121063
record -0.504439 -0.920451 -0.627653 0.180095 0.199576 -0.794364 0.320064 0.243242 0.258508 -0.467807 0.743567 0.051768 0.745858 -0.236880 0.149027 0.305738 0.010209 -0.218376 -0.020502 -0.233933 0.065741
back -1.168602 -0.408024 -0.314064 0.393450 0.116865 -0.007970 0.180582 -0.159854 0.453302 -0.485509 0.447295 -0.032114 1.103259 0.345871 0.215684 0.053945 0.899705 0.396186 0.594496 0.199109 -0.031622
understand -0.818249 -0.287360 -0.457053 -0.114278 -0.305368 0.108443 0.007444 0.717025 0.877860 -0.612458 -0.169408 0.602944 1.219124 0.082626 0.658965 -0.949914 0.483591 0.049701 -0.307666 0.407492 0.134491
work -0.014798 0.361833 -0.518269 0.625310 0.316356 -0.138996 0.055513 0.216185 0.815044 0.051851 0.700808 0.488424 0.630054 -0.142247 -0.220535 -0.049165 -0.527526 -0.069737 -0.399071 0.222211 0.155009
take -0.516430 -0.386439 0.137746 0.139907 -0.063027 -0.099504 0.587464 -0.036531 0.436048 -0.235004 0.409775 1.130697 1.009632 -0.092845 0.097588 -0.500154 -0.300714 -0.852347 0.426442 -0.036545 -0.201047
note -0.871451 -0.957489 -0.063533 0.314023 -0.725161 0.001767 0.460580 -0.263630 0.250996 0.345076 0.331444 0.369383 0.534089 0.103157 -0.312868 0.071295 -0.473816 -0.388671 0.402529 0.186829 -0.095535
also -0.737501 -0.589115 -0.495915 -0.017248 0.099535 -0.139525 0.300691 0.255345 0.228821 -0.026766 0.415553 0.283271 0.920494 -0.018670 -0.146497 0.061286 -0.112922 0.006107 -0.217624 0.076121 0.146752
like -0.652665 -0.553933 -0.584077 0.206391 -0.120908 -0.389823 -0.203252 0.271193 0.755383 0.045401 0.644473 0.078368 0.292599 -0.529952 0.034003 0.098376 -0.198924 -0.316650 -0.329837 -0.313835 0.003620
want -0.827773 -0.640084 -0.549902 0.477421 0.238937 0.623053 0.232684 0.156273 0.269590 -0.026190 0.373943 0.298983 0.673091 -0.016799 -0.306968 0.014392 -0.372705 0.026503 -0.251894 -0.172568 -0.139449
learn -0.463367 0.095408 -0.439296 0.290820 0.031953 -0.423515 0.236721 0.384344 0.560437 0.223905 0.214665 0.229085 0.582811 -0.252456 -0.067763 -0.150983 -0.433357 -0.217906 -0.499192 0.185801 0.085555
abl -0.678801 -0.503401 -0.676245 0.076854 -0.138715 -0.393625 0.184429 -0.036683 0.276950 0.246161 0.587922 0.237359 0.585755 0.134070 -0.323470 -0.028321 -0.068498 -0.320216 0.174459 -0.186004 -0.125670
video -1.025574 -0.743930 -0.350442 -0.043331 -0.239155 0.014863 0.285981 -0.145708 0.095603 0.155190 0.438162 0.306294 0.642798 -0.136081 -0.016630 -0.228423 -0.506289 -0.000697 0.243296 -0.126687 -0.095980
allow -0.660315 -0.379565 -0.855583 0.140986 0.378733 0.396289 -0.007451 -0.153278 0.489683 -0.120396 0.279683 0.091895 0.954436 0.232649 -0.635683 0.377511 -0.160659 -0.169488 -0.190637 0.105774 -0.158291
need -0.634399 -0.331213 -0.112418 0.370163 -0.073647 -0.023909 0.244520 0.000070 0.118633 -0.220519 0.371012 0.526882 0.891553 0.153827 0.057561 -0.163281 0.056937 -0.238035 0.347084 -0.149772 -0.159971
whenev -0.788409 -0.455702 -0.486030 -0.207589 0.012815 0.251808 0.270053 0.053061 0.338637 0.041964 0.376196 0.269007 0.883772 -0.077387 -0.370735 0.092510 -0.492307 -0.311608 -0.020508 -0.243795 -0.224525
easier -0.783889 -0.794860 -0.400676 -0.088005 -0.093887 0.558490 0.478450 0.031869 0.293938 0.183980 0.661462 0.009865 0.078501 0.364505 0.050032 -0.256282 -0.169897 -0.347396 -0.364417 -0.463618 -0.133804
materi -0.284795 -0.109667 -0.562634 0.277503 0.270153 -0.133641 0.164758 0.076191 0.245389 -0.275850 0.903527 -0.212084 0.603495 0.041579 -0.136894 -0.132079 0.081278 0.095622 -0.235761 0.022479 0.119825
make -0.354565 -0.138706 -0.192438 0.032337 -0.095728 -0.188785 0.417897 -0.118595 0.146964 -0.293303 0.437728 1.070500 0.536606 -0.150201 -0.137140 -0.160493 -0.240427 -0.782128 0.088404 0.054329 0.005947
zoom -0.385941 -0.622279 -0.099614 -0.128935 0.278123 -0.685476 0.076977 0.271970 -0.419265 -0.151263 -0.001126 -0.723996 0.147467 -0.098934 0.290871 0.066809 -0.678637 -0.740765 -0.331251 -0.009606 -0.068009
someth -1.078391 -0.106978 0.025908 0.144960 -0.352432 0.109170 -0.009930 -0.354689 0.044972 -0.299898 0.463787 -0.032166 0.751024 0.218865 0.055404 -0.433743 0.657737 0.130258 0.104344 -0.008751 -0.039515
get -0.255117 -0.125912 -0.195960 0.239565 -0.033955 -0.506222 -0.114331 -0.087009 0.029827 -0.062771 0.179899 0.239092 0.529775 0.136867 -0.044950 -0.015918 0.214199 -0.164979 0.106220 -0.148049 0.151719
it’ -0.503465 -0.226703 -0.165829 0.002651 -0.115497 -0.403742 0.226159 0.161966 -0.202882 0.033309 0.310290 0.387783 0.330489 -0.193598 -0.061702 -0.058975 -0.300368 -0.447581 -0.561522 -0.075190 -0.064282
schedul -0.022993 -0.225383 -0.362429 0.286578 0.444776 0.471960 0.343944 0.297768 0.143783 0.160389 0.257987 0.313470 0.277847 0.095171 -0.423743 0.103103 -0.253099 -0.261394 -0.047193 0.117561 0.030336
feel -0.579510 -0.323923 -0.472005 -0.005130 -0.135984 -0.513831 -0.150141 0.215728 -0.065430 0.098810 0.112716 0.098026 0.254731 -0.176223 -0.332392 -0.017535 -0.380855 -0.386190 -0.449247 -0.113317 -0.023596
better -0.484786 -0.227468 -0.218557 -0.079338 0.094806 0.021121 0.187407 -0.051445 0.273757 -0.103118 0.438642 -0.065951 0.371914 0.259610 0.014404 -0.324400 -0.104119 -0.363460 -0.351404 -0.426603 -0.094176
flexibl -0.032086 -0.092537 -0.499860 0.247606 0.413573 0.306030 0.244446 0.333720 0.506922 -0.024230 0.529846 0.196128 0.455117 -0.007566 -0.255265 -0.012343 -0.417855 -0.026766 -0.247030 0.034595 -0.176435
don’t -0.996063 -0.094079 -0.147184 0.093274 -0.276086 -0.299371 0.200131 -0.142118 0.081582 -0.005469 0.433400 -0.018520 0.473403 0.124980 -0.095886 -0.537836 0.073834 0.022249 -0.147080 -0.167579 -0.207376
content -0.537452 0.101383 -0.094331 0.193355 0.116076 0.055887 0.191915 -0.278331 0.365892 -0.250057 0.561433 -0.105789 0.561241 0.181136 -0.122697 -0.263228 0.100189 -0.078865 -0.156850 -0.006284 -0.036661
speed -0.397816 -0.339894 -0.200186 0.160384 0.063954 0.101460 0.044093 -0.305244 0.351495 0.050541 0.421465 0.181522 0.498205 0.189312 -0.079696 0.020606 0.078065 -0.314091 0.366574 0.080791 -0.153889
access -0.209532 -0.037381 0.034236 0.404943 0.301894 0.100955 0.018999 0.100541 0.061677 -0.002178 0.163856 0.354497 0.576715 0.005766 -0.152631 0.026051 -0.513446 -0.243161 -0.170540 0.069864 -0.287953
miss -0.867001 -0.232618 -0.215948 0.222580 -0.073486 -0.502137 0.186558 -0.061634 -0.213833 -0.437940 0.230942 0.014414 0.363527 -0.250819 0.311203 -0.286957 0.650535 -0.042959 0.229824 -0.289257 0.030302
rewind -0.800686 -0.269802 -0.170185 0.031116 -0.501853 0.048390 0.385872 -0.323963 0.395926 0.029379 0.332322 0.662826 0.685733 -0.027939 0.093471 -0.184461 0.074260 -0.114691 0.456328 0.000639 -0.318602
listen -0.621756 -0.269919 -0.052207 0.286003 0.040196 0.015799 0.073924 -0.116157 -0.014163 -0.325089 0.357198 0.330719 0.636311 -0.199639 -0.047903 0.100301 0.018179 -0.067421 0.124484 0.034502 -0.283553
rewatch -0.740964 -0.360358 -0.093952 0.265688 -0.181808 -0.020856 0.050255 -0.274095 0.160449 -0.186825 0.275604 0.414722 0.677944 0.009862 -0.029576 0.011257 0.123602 -0.137940 0.184364 0.148384 -0.389056
inform -0.453173 -0.068907 0.001055 0.005071 -0.131283 0.172956 -0.077349 -0.221467 0.160991 0.168133 0.017342 -0.015808 0.455358 0.218354 -0.267998 0.110598 -0.082080 0.106579 -0.063202 0.029956 0.100466
question -0.074907 -0.455775 -0.134803 0.425820 0.141554 -0.783816 -0.403552 -0.011511 0.315635 -0.084239 0.131944 -0.638876 0.307620 0.140550 -0.182988 0.035947 -0.004013 0.289235 -0.125955 0.192658 -0.024259
give -0.176348 0.038065 0.022884 0.340295 0.365657 0.086487 -0.054134 -0.192869 0.086992 -0.115031 0.078329 -0.044443 0.503493 0.233273 -0.073384 0.095711 0.004063 -0.439057 -0.087324 0.025644 0.032693
onlin -0.246435 -0.432182 -0.254719 -0.079302 0.355595 -0.419306 -0.041314 0.245217 0.105869 -0.227396 0.057225 -0.440713 -0.062880 -0.136459 -0.012897 0.209995 -0.276200 -0.636317 -0.273423 -0.256743 -0.068078
studi -0.189779 0.171446 -0.087517 0.481894 0.266621 0.190847 0.171179 0.021198 0.145007 -0.106942 0.265112 0.414602 0.581402 -0.054198 -0.319009 0.031770 -0.309765 -0.241093 -0.172592 0.371703 -0.079601
find -0.211014 -0.254541 0.008230 0.042807 0.111916 -0.394051 0.144049 0.295950 -0.031157 0.040276 0.249226 0.193264 0.166649 -0.275088 0.026318 -0.150223 -0.294052 -0.528563 -0.126408 -0.326542 -0.178192
would -0.179964 -0.406426 -0.088351 0.250227 0.038890 -0.831299 -0.070807 0.159675 0.071516 -0.232257 0.193793 -0.129416 0.081932 -0.191796 -0.008377 0.245370 -0.422186 -0.284925 -0.274551 -0.129262 -0.085279
less 0.109899 -0.038608 -0.198297 -0.071608 -0.026500 -0.131482 -0.061153 0.169147 0.018421 0.219203 -0.063972 -0.138567 0.069332 -0.066097 -0.242118 -0.080374 -0.441855 -0.557711 -0.337301 -0.387339 0.059402
thing -0.511391 -0.055201 -0.196152 0.242594 -0.081534 0.108028 0.075729 -0.061693 0.196816 -0.240276 0.360180 0.088716 0.637484 0.162579 -0.055006 -0.223725 0.137944 0.037125 -0.005047 0.102008 -0.109384
much -0.461956 -0.228371 -0.018903 -0.088812 -0.082559 -0.145957 0.168042 0.105222 -0.095821 -0.050945 0.108648 0.329320 0.547615 -0.214910 -0.051180 -0.130081 -0.325792 -0.464260 -0.292716 -0.056877 -0.261505
prefer -0.375753 -0.479933 -0.142118 0.284067 0.151480 -0.617665 -0.020138 0.144648 0.058770 -0.040584 0.323711 -0.257744 0.432707 -0.393278 -0.085677 0.378360 -0.302698 -0.128790 -0.109113 -0.165315 -0.407570
explain -0.218329 -0.002883 -0.099135 0.088206 -0.131558 -0.219430 0.135163 0.077745 0.364811 -0.267175 -0.124277 0.205778 0.417319 0.169254 0.117584 -0.045349 0.293835 0.070530 -0.212883 0.248064 0.097660
professor -0.204118 -0.061577 -0.106430 0.242610 -0.035023 -0.194085 -0.055870 -0.040262 0.088308 -0.301461 0.251149 -0.174931 0.310902 0.149941 -0.011230 -0.139937 0.043146 0.045749 -0.277751 -0.023009 -0.038932
way -0.289749 -0.155772 -0.271509 -0.064529 0.269875 -0.009995 0.038748 -0.076059 0.192583 -0.152424 0.138667 0.063136 0.410208 -0.001767 -0.173442 0.028896 -0.158780 -0.442268 -0.238525 -0.106395 -0.249748
dont -0.614715 -0.087419 -0.003721 0.073650 -0.265627 -0.135526 0.080940 -0.263767 0.053755 -0.176070 0.285813 -0.011975 0.513615 0.105975 -0.108856 -0.309291 0.118664 -0.104283 -0.318863 -0.087384 -0.162946
follow -0.223192 -0.069384 0.093308 0.267501 -0.016805 -0.216993 0.268880 -0.079205 -0.082655 -0.298292 0.173548 0.187597 0.224544 -0.208534 -0.015757 -0.100515 -0.335003 -0.643081 -0.098529 0.140055 -0.073238
student 0.132971 -0.033528 -0.193576 0.014328 0.354341 0.065054 0.159266 0.295282 0.410159 -0.131427 0.072597 0.062586 0.408022 0.087574 -0.173329 0.099326 -0.333042 -0.085717 -0.247815 -0.060278 -0.183450
help -0.380586 -0.171656 -0.057449 0.053334 0.153373 -0.115003 0.047897 -0.186629 0.141135 -0.182250 0.354964 -0.148564 0.414473 0.167631 -0.105730 -0.127656 0.064915 -0.224207 -0.278145 -0.083823 -0.197407
conveni -0.276791 -0.246983 -0.109380 0.261980 0.301062 -0.017894 0.004653 0.193537 0.221653 -0.081632 0.277060 -0.085179 0.335492 0.042396 -0.146247 -0.037156 -0.318994 -0.315333 -0.347016 -0.190276 -0.337071
discuss 0.011532 -0.313647 -0.144357 -0.016060 0.205614 -0.476034 0.021496 0.477823 0.100062 -0.285751 0.266855 -0.161369 -0.046600 -0.304528 0.130066 0.191086 -0.225816 -0.109587 -0.005786 -0.221554 -0.073068
i’m -0.279506 -0.341258 -0.319012 0.033085 0.100967 -0.248570 -0.022260 0.105734 0.143639 -0.006180 0.162722 -0.066679 0.163281 -0.075421 -0.196985 0.072706 -0.214630 -0.413968 -0.135863 -0.118847 -0.116890
realli -0.162460 -0.220145 -0.077750 0.099741 0.074266 -0.083657 -0.003348 0.009036 0.049962 -0.019516 0.205095 -0.040167 0.240711 0.192157 -0.075149 -0.125706 -0.023776 -0.145017 -0.282699 -0.062294 -0.165443
day -0.036424 -0.033852 -0.125866 0.298415 0.459892 0.266826 -0.042184 0.062181 0.234858 -0.090203 0.079208 0.023409 0.432858 0.178945 -0.281827 0.083697 -0.253880 -0.133338 -0.334873 0.098115 -0.091898
use -0.141203 -0.142589 0.042307 0.274504 0.156836 -0.313470 -0.048895 0.147362 0.009867 -0.121944 0.203441 -0.008613 0.181928 -0.142592 0.007463 0.076872 -0.114817 -0.250821 -0.105305 0.021453 -0.289991
easi -0.267308 -0.284665 -0.095478 -0.102484 -0.154047 0.266302 0.163947 -0.043189 0.248443 0.080387 0.322219 0.154751 0.231832 0.095062 0.000706 -0.108465 -0.065225 -0.046370 0.091278 -0.274572 -0.145311
replay -0.577638 -0.147149 -0.223397 -0.068686 -0.222030 0.249650 0.216191 -0.261816 0.197729 -0.133256 0.315606 0.413436 0.439071 0.067550 0.042610 -0.352006 0.252391 -0.036789 0.262649 -0.014002 -0.412585
stop -0.801504 -0.458228 -0.115830 0.289067 -0.118760 -0.012412 0.052873 -0.298364 0.088717 0.142161 0.201925 0.214671 0.646365 -0.183497 -0.133212 0.172081 -0.041130 -0.010146 0.316100 0.020976 -0.669851
still 0.002400 0.094743 -0.135782 0.239579 0.097982 -0.179897 -0.087697 0.054638 0.215996 -0.066000 0.179311 -0.021606 0.386926 0.177124 -0.133281 -0.029796 -0.000388 -0.075767 -0.239513 0.021228 -0.103209
part -0.656447 -0.295045 -0.122061 0.164781 -0.247557 0.219386 0.008383 -0.294354 0.115351 -0.119017 0.162774 0.152197 0.439000 0.241616 -0.136835 -0.143089 0.287359 0.252272 0.097706 0.080127 -0.344153
pressur -0.188494 0.057047 0.106301 -0.044617 0.253671 -0.326912 -0.104514 0.375802 0.049052 0.330383 0.345767 0.113666 -0.002653 -0.338036 -0.117523 -0.128958 -0.521323 -0.308096 -0.192070 0.001979 -0.009405
ask 0.118858 -0.495749 -0.013394 0.049587 0.059583 -0.531593 -0.355493 0.129156 0.147026 -0.410519 -0.022019 -0.511548 0.289929 -0.021005 -0.192485 0.060213 -0.025262 0.104549 -0.129504 -0.374248 -0.301687
actual -0.291103 -0.308989 -0.235126 0.015141 -0.024550 -0.320384 -0.089369 -0.052347 0.085552 -0.131046 0.174946 -0.116827 0.160656 -0.051344 -0.144634 0.167114 -0.004457 -0.321926 -0.212873 -0.055027 -0.341535
alway -0.410254 -0.240913 -0.059738 0.173666 -0.017451 -0.151309 -0.064488 -0.072961 -0.085944 -0.179841 0.168918 -0.190494 0.318570 -0.051777 0.057517 0.091286 0.342136 0.064649 0.250982 -0.080117 -0.156660
best 0.016663 -0.162533 -0.195620 0.022882 0.403706 0.182410 -0.051467 0.165748 0.260088 0.058160 0.075367 -0.198323 0.091248 0.095968 -0.211208 0.072433 -0.350931 -0.342712 -0.295093 -0.146758 0.035098
engag -0.024114 0.082056 -0.047179 0.235152 0.207821 -0.222670 0.118693 0.175915 0.153529 -0.041907 0.250510 0.120109 0.262709 -0.042571 0.079429 -0.059010 -0.178219 -0.094220 -0.058833 0.158446 -0.187765
good -0.299253 -0.392160 0.028812 0.039842 -0.065377 -0.270257 0.180607 -0.084494 0.091431 0.011417 0.128411 0.078856 0.198724 0.042479 0.051854 0.035561 -0.227313 -0.324074 0.116267 -0.184335 -0.140446
write -0.385480 -0.369798 0.048213 -0.196284 -0.408960 -0.101074 0.196767 -0.114891 0.235348 -0.233740 0.109286 0.670463 0.360571 0.012949 0.208523 -0.173408 0.157060 -0.335808 0.446333 -0.051993 -0.464932
etc -0.261884 -0.327659 -0.103498 -0.193160 -0.239965 -0.094635 0.202680 -0.147045 0.007796 0.038756 0.171273 0.313671 0.155917 -0.015920 0.023812 -0.100762 -0.042933 -0.247538 0.247390 -0.138789 -0.250583
interact -0.196046 -0.157057 -0.141572 -0.027621 0.071649 -0.216531 -0.023045 0.136467 -0.026087 -0.007511 0.058974 -0.009689 -0.043257 -0.210789 -0.024480 0.065895 -0.075263 -0.144597 -0.069737 0.033232 -0.044824
internet 0.355185 0.129705 0.154333 0.097742 0.215979 -0.375586 -0.058809 -0.029722 -0.073135 0.032458 0.027804 -0.177340 -0.141991 -0.078891 -0.206322 0.038087 -0.239267 -0.164900 0.135356 -0.065220 0.241200
lot -0.066177 -0.097603 -0.091447 0.218417 0.339470 -0.042527 0.002186 0.138399 0.028480 0.010121 0.168089 -0.127769 0.186425 0.057909 -0.069015 0.057373 -0.199787 -0.163162 -0.307712 0.052224 -0.238897
mean -0.386186 -0.255799 -0.210003 0.145302 -0.050418 -0.002434 -0.044727 -0.063641 0.260758 -0.103690 0.196272 0.063423 0.548525 0.181278 -0.080829 -0.082041 0.032042 -0.190172 -0.102341 -0.047137 -0.452729
upload -0.136935 -0.101424 -0.158995 -0.033134 0.075050 -0.352467 0.280223 0.090848 0.250664 -0.179776 0.100347 0.121254 0.155045 -0.031940 0.037676 0.212313 0.042694 -0.135145 -0.011081 0.142506 -0.172240
anytim -0.401339 -0.297278 -0.263951 -0.093345 -0.061971 0.199480 0.099759 0.005087 0.252597 0.034373 0.294648 0.234722 0.525081 -0.002905 -0.226373 -0.007628 -0.269370 -0.114082 0.079113 -0.157660 -0.344769
connect 0.578095 0.145254 0.143841 -0.076552 0.158682 -0.391334 -0.086857 0.009336 -0.159417 0.063946 -0.015449 -0.235335 -0.202814 -0.019904 -0.076940 0.095268 -0.177731 -0.055664 0.033222 -0.197744 0.215983
mani -0.351868 -0.163267 -0.081330 0.289647 0.158116 0.037599 -0.038898 -0.002562 0.145476 0.026088 0.268066 0.067617 0.594600 0.197970 -0.145684 -0.126392 -0.174347 -0.159929 -0.067192 -0.013967 -0.453484
person -0.362145 -0.306028 -0.192390 -0.008864 0.145459 -0.235025 0.076610 0.037691 -0.010803 -0.159271 0.114356 -0.118558 0.101921 -0.107905 0.013594 0.091541 -0.216603 -0.386358 -0.302995 -0.110579 -0.320658
think -0.132863 -0.134140 0.060592 0.234063 0.108464 -0.053710 0.069493 -0.073450 0.102096 -0.056500 0.200615 0.193205 0.192115 0.077642 0.036957 0.005476 -0.135543 -0.336027 -0.038106 -0.027489 -0.178852
detail -0.141177 -0.295869 0.056767 -0.090328 -0.253861 -0.230189 0.138823 -0.153678 0.186186 -0.173754 0.138291 0.347653 0.162699 0.128475 0.006627 -0.021168 0.093906 -0.245154 0.134674 -0.082717 -0.079887
topic -0.387852 0.000674 0.048395 0.047440 -0.184590 0.143836 0.089050 -0.247112 0.034521 -0.164663 0.314055 -0.078381 0.306537 0.185625 -0.024278 -0.320446 0.211494 0.038292 -0.192495 -0.071229 -0.305323
well -0.084058 -0.137218 -0.132712 -0.035139 0.129693 -0.117275 0.020830 -0.034401 0.163154 -0.162792 0.078911 0.015792 0.173999 0.097501 -0.031866 0.224163 -0.023881 -0.201001 -0.080704 -0.005586 -0.283401
without -0.009738 0.023157 -0.077967 0.104743 0.044929 -0.093256 -0.031355 0.082228 0.034750 0.037290 0.026507 0.014006 0.200640 0.055109 -0.072356 -0.027425 -0.115029 -0.220794 -0.092358 -0.055098 -0.083528
call -0.110085 -0.329243 -0.020944 0.115746 0.031138 -0.394793 -0.177392 0.375154 0.073888 0.149817 0.206991 0.025442 -0.014651 -0.287146 0.035815 -0.156562 -0.158993 -0.194040 -0.064023 -0.430884 -0.253691
choos -0.024262 -0.005808 -0.224908 0.139304 0.307542 0.311091 0.088481 0.054332 0.255576 0.079582 0.231009 0.169338 0.390220 0.173459 -0.247847 0.058280 -0.261690 -0.108226 -0.041891 0.043980 -0.365937
easili -0.232473 -0.252543 -0.138254 -0.027199 -0.114662 0.033628 -0.008549 -0.072731 0.140493 -0.011011 0.096688 0.136751 0.427164 0.132402 -0.110039 -0.009721 0.083957 -0.028882 0.127640 -0.094819 -0.339473
one -0.028647 -0.177842 0.053712 0.049645 0.168648 -0.266177 -0.059216 0.127603 -0.103500 -0.169658 -0.006339 -0.239712 -0.021611 -0.084713 0.044067 0.088224 -0.209098 -0.275631 -0.102137 -0.149273 -0.195091
read -0.045361 0.094161 -0.050197 0.110852 0.007738 0.012953 0.233780 0.048275 0.087142 -0.104496 0.067440 0.128425 0.199580 0.083970 0.015586 -0.039176 0.006648 0.017630 -0.138285 0.090258 -0.148272
attend -0.197266 -0.395798 -0.066997 0.196690 0.243102 -0.471622 0.004782 0.278986 0.037841 -0.162687 0.194118 -0.223353 0.054722 -0.417173 0.052558 0.139336 -0.493102 -0.319398 -0.092595 -0.166362 -0.447916
certain -0.294940 -0.090516 -0.156809 0.251897 0.232655 0.282511 0.052617 -0.009794 0.091401 -0.216028 0.239566 0.073632 0.453404 0.217955 -0.028009 -0.294814 0.140195 0.040244 -0.041712 -0.036370 -0.283147
complet -0.025760 0.036883 -0.123213 0.359040 0.479019 0.050472 0.028309 0.130143 0.215330 -0.046355 0.210194 0.016905 0.380430 0.177267 -0.167815 0.019084 -0.257852 -0.338900 -0.300122 0.106868 -0.575857
email 0.001346 -0.376023 -0.024091 0.055554 0.057331 -0.511011 -0.272826 0.002657 0.131206 -0.532983 0.041144 -0.298389 0.335278 0.041972 -0.167400 0.132378 0.187738 -0.027499 -0.136511 -0.126737 -0.261896
everyth -0.367345 -0.048650 0.169172 0.228290 -0.243661 0.054613 0.181300 -0.248108 0.089862 -0.063665 0.276286 0.133471 0.281807 0.178656 -0.107565 -0.145955 -0.062245 -0.132394 0.024986 0.074826 -0.352385
look -0.467892 -0.104657 -0.070101 0.281755 -0.240363 -0.008305 0.165178 -0.098712 -0.224050 -0.349128 0.269112 0.182687 0.429154 -0.045263 0.054326 -0.087409 0.280388 0.146534 0.126049 0.074211 -0.442166
rather -0.074283 -0.043090 -0.023009 0.036028 0.062683 -0.083017 0.081912 0.109253 0.195205 -0.118982 0.121531 -0.007904 0.126880 0.134676 0.048853 0.112140 0.006203 -0.126631 -0.133375 -0.035925 -0.043333
suit 0.080247 0.041762 -0.013484 0.398292 0.438952 0.028861 -0.135269 0.136326 0.104271 0.069741 0.067376 0.077961 0.306769 0.247961 -0.236467 0.127219 -0.341456 -0.291225 -0.321099 0.076897 -0.337411
could -0.377955 -0.344113 -0.201484 0.123570 0.076604 -0.165138 -0.050260 0.004288 0.076857 -0.048398 0.206262 -0.204923 0.368157 -0.138311 -0.129339 0.224448 -0.048001 -0.107814 -0.011387 -0.106847 -0.473414
normal -0.108774 -0.293782 0.005311 0.149894 -0.082451 -0.641341 -0.082378 -0.035785 -0.034573 -0.149549 0.083516 -0.229206 -0.005183 -0.173828 -0.039241 0.400072 0.010352 -0.298740 -0.266808 -0.028564 -0.233957
similar -0.030285 -0.178333 -0.195729 0.039962 -0.008544 -0.520857 -0.093691 0.085074 0.058973 -0.184079 0.028312 -0.060285 -0.078893 -0.161084 -0.009421 0.351314 -0.010862 -0.299939 -0.221709 0.020840 -0.069055
teach 0.125763 0.106013 0.041709 0.174382 0.092808 -0.236271 -0.029188 0.064134 -0.044417 -0.013782 -0.009421 -0.072651 0.016258 -0.109359 -0.027141 0.236186 -0.075962 -0.086630 -0.140239 0.046407 -0.134810
abil -0.432601 -0.180103 -0.277379 0.003876 -0.096892 0.013867 0.217077 -0.134572 0.263634 -0.051256 0.223473 0.293149 0.468584 0.117384 -0.071724 -0.053585 -0.058913 -0.131468 0.168094 0.009418 -0.551388
keep -0.081442 -0.056472 0.084323 0.226265 0.031100 -0.078318 0.012548 -0.018803 -0.009904 0.001115 0.078041 0.168735 0.173426 0.096415 0.048921 -0.077514 -0.136315 -0.225989 0.083142 0.019078 -0.239678
home 0.132975 0.166896 -0.068408 0.142965 0.290230 0.053556 -0.062776 0.040362 0.047366 -0.051337 -0.048246 0.027001 0.091369 0.086865 -0.110707 0.073422 -0.083897 -0.117018 -0.165436 0.116143 -0.176847
manag 0.065827 0.150332 0.100380 0.420993 0.439125 0.108857 0.004310 0.112488 0.107136 -0.018345 0.060973 0.142467 0.411736 0.196147 -0.084675 -0.064679 -0.328539 -0.322749 -0.300026 0.123281 -0.429441
talk -0.161236 -0.109014 -0.035156 0.063220 -0.079480 -0.187945 0.057687 -0.038213 -0.014195 -0.199730 0.032213 0.184784 0.108494 0.063133 -0.041150 0.071796 0.122453 -0.112402 0.071493 0.122475 -0.045133
anyth -0.458957 -0.120933 0.026102 0.056266 -0.406231 -0.130901 -0.103163 -0.154311 -0.114417 -0.176463 0.036977 -0.091509 0.153068 -0.020491 0.116206 0.043714 0.412397 0.185875 0.181975 0.068959 -0.289328
cours -0.119086 -0.095958 -0.129032 0.055007 0.064849 -0.053571 0.015036 -0.016384 0.039933 -0.098026 0.106862 0.072095 0.166437 -0.042499 -0.045174 0.065783 -0.052348 -0.085725 -0.075375 0.025671 -0.170582
differ 0.195821 0.169047 0.049490 0.364294 0.454119 0.106761 -0.281549 0.238646 0.125225 0.140480 -0.121376 -0.154645 0.204686 0.127281 -0.223543 0.075855 -0.625861 -0.196310 -0.495097 0.070657 -0.333823
lesson -0.264618 -0.258658 -0.013867 0.251432 0.066021 -0.202785 -0.023345 0.040075 -0.059544 0.159764 0.159177 0.002294 0.225897 -0.156782 -0.006031 0.100295 -0.259493 -0.120662 -0.011582 -0.071250 -0.390984
difficult -0.311499 -0.376962 -0.088742 0.000362 0.044051 -0.174002 0.052814 0.113764 0.008149 -0.150069 0.126031 -0.310391 -0.013882 -0.118047 0.139503 -0.087244 -0.164619 -0.242815 -0.118636 -0.248320 -0.382512
hear 0.009072 0.040009 -0.097571 -0.004219 0.028263 -0.246536 0.010649 0.059333 0.055650 -0.105211 -0.086879 0.037253 0.154016 0.043805 0.000250 0.075769 0.052707 -0.007752 -0.094229 0.102681 -0.099165
peopl 0.055373 -0.084618 0.077095 0.029355 0.010775 -0.070059 -0.105040 0.146668 -0.045057 -0.024953 -0.070306 -0.116359 0.038067 -0.043520 0.011913 -0.008617 -0.082671 0.034224 -0.193415 -0.080764 -0.179340
plan 0.103434 0.058862 -0.066047 0.129742 0.393033 0.257587 0.019278 0.115339 0.045309 0.063486 0.074225 0.189323 0.309983 0.106342 -0.285409 0.074388 -0.387948 -0.128548 -0.284326 0.055310 -0.208398
point -0.253432 0.036952 0.130272 0.237659 -0.204598 0.137431 0.076408 -0.197612 -0.114624 -0.081253 0.192056 0.052291 0.083742 0.133139 -0.017144 0.011652 0.203623 0.214133 0.096275 0.162876 -0.072214
session -0.051530 -0.215457 -0.051748 0.090663 0.199583 -0.511124 -0.158520 0.390742 0.072905 0.115369 0.276938 -0.161872 -0.016627 -0.221312 -0.022235 0.052809 -0.341702 0.021464 -0.161228 -0.386204 -0.261882
sometim -0.110425 -0.181106 -0.116623 -0.001025 0.051990 -0.394036 -0.035467 0.094270 0.038484 0.001695 0.215276 -0.051394 0.093137 -0.181285 -0.055909 0.117069 -0.191520 -0.129388 -0.039989 -0.164899 -0.310407
teacher -0.185692 -0.129944 0.056598 0.091561 -0.085518 -0.170378 -0.036900 -0.079097 -0.002052 -0.079496 0.076549 -0.152378 0.118660 -0.035333 -0.011694 -0.009259 -0.024355 0.081822 0.046621 0.020972 -0.314715
anxieti 0.024822 -0.089358 0.023126 -0.103957 0.026758 -0.051687 -0.028616 0.091538 -0.026777 0.059851 -0.058788 -0.128920 -0.179708 -0.216211 0.043462 0.072562 -0.092503 0.149334 0.019702 -0.187743 -0.052627
especi 0.069398 -0.005836 0.086028 0.200467 0.183050 -0.045642 -0.031318 0.123476 0.023085 0.093464 0.021828 0.023770 0.031961 0.068251 -0.098478 -0.031071 -0.142593 -0.164111 -0.152408 0.033127 -0.377420
specif 0.196432 0.176020 0.192133 0.374642 0.325061 0.064173 -0.144389 0.049085 0.045801 -0.061864 0.054689 -0.074624 0.256894 0.283775 -0.017416 -0.076391 -0.115692 -0.168033 -0.180681 0.103509 -0.276428
stress -0.093669 -0.108239 0.049377 -0.213419 0.109328 -0.209452 -0.080639 0.322489 0.123490 0.224200 0.164489 0.054712 -0.099399 -0.302529 -0.040196 0.021729 -0.310798 -0.073040 0.032264 -0.028501 -0.019620
break -0.463362 -0.307682 -0.152539 -0.057152 -0.272588 0.298714 0.221298 -0.223710 0.250201 0.280864 0.037613 0.307128 0.339023 0.069070 -0.150935 -0.020762 -0.234288 0.054839 0.170179 -0.040428 -0.535758
distract -0.176332 -0.194545 -0.193095 -0.146941 -0.350352 -0.096713 -0.112275 -0.035043 0.043658 0.012395 0.039273 0.026054 0.287545 0.028074 -0.143729 0.118823 0.082857 0.207154 0.064250 -0.073913 -0.247197
focu 0.110313 0.072320 0.136065 0.197847 0.158003 -0.051254 0.041529 0.086564 -0.014608 -0.068904 0.048161 0.126855 0.027371 0.016226 0.016343 -0.062100 -0.151774 -0.192722 -0.075280 0.049972 -0.171834
hard -0.071372 -0.222406 -0.053367 -0.115880 0.026982 -0.166532 0.037496 0.167518 -0.034714 -0.062780 0.070131 -0.173094 -0.093390 -0.029892 0.042064 0.055701 -0.161426 -0.168060 -0.132531 -0.175692 -0.168280
later -0.182394 -0.236162 -0.019051 0.159810 -0.021489 -0.059231 -0.112574 -0.089704 0.097864 -0.124792 0.112478 -0.051906 0.329961 0.108329 -0.099390 0.060005 0.031523 0.090784 0.050795 0.000239 -0.407982
often -0.117066 -0.090513 -0.019384 0.052620 0.075090 -0.154233 -0.067958 0.133310 -0.008257 -0.002171 0.032370 -0.017808 0.148815 -0.069426 -0.022342 -0.006180 -0.209656 -0.102672 -0.116187 -0.050859 -0.279492
uni 0.059306 -0.046398 -0.301028 0.051469 0.186521 -0.088901 -0.044484 0.165797 0.101999 -0.051125 0.076185 -0.007846 0.056236 -0.008563 -0.147505 0.123554 -0.051491 -0.184043 -0.088975 -0.008307 -0.200032
us 0.093907 0.009843 -0.222911 0.085517 0.273071 0.167135 0.188258 0.116924 0.367986 -0.031637 0.264228 0.221148 0.484356 -0.003751 -0.093866 -0.043584 -0.076594 0.100861 0.127926 0.061199 -0.394219
concept -0.134623 -0.016610 0.059254 -0.076009 -0.037235 0.191742 0.040685 -0.185417 0.003221 0.029239 0.072946 0.010621 0.081370 0.209526 -0.029340 -0.114421 0.017043 -0.082092 -0.007225 -0.091208 -0.229852
done -0.008180 0.152008 0.092132 0.358380 0.292333 0.009950 -0.050279 0.093870 0.083564 0.016228 0.136615 0.036204 0.292639 0.060018 -0.071581 -0.055224 -0.252296 -0.163546 -0.197936 0.039144 -0.464359
face 0.287205 0.153440 0.122146 0.112440 -0.036726 -0.265674 -0.167742 -0.171921 -0.056199 -0.228735 -0.164018 -0.199833 -0.192452 -0.062923 -0.012575 0.450728 0.035331 -0.073807 -0.017384 0.112857 0.303088
first -0.282632 0.205998 0.153257 0.444529 0.186011 0.198620 -0.021775 -0.192114 0.040606 -0.131383 0.347153 -0.091717 0.501497 0.441489 0.017613 -0.391327 0.202329 -0.005849 -0.275536 0.001548 -0.457745
instead -0.139582 -0.243821 0.004776 0.006135 -0.075579 -0.114701 0.012981 -0.042274 0.080708 -0.097546 0.100403 0.069068 0.091248 0.048110 -0.041551 0.114214 0.038236 -0.140624 0.071888 0.060298 -0.381364
meet 0.116642 -0.265320 -0.049357 0.047552 0.117161 -0.343794 -0.209847 0.358799 0.002891 0.214925 0.097618 -0.248921 -0.236357 -0.303356 0.050353 -0.039384 -0.150415 -0.066634 -0.154007 -0.513302 -0.207484
slow -0.115737 -0.069629 0.003312 0.032878 -0.093652 -0.033397 0.065488 -0.208366 -0.015763 -0.012428 0.175213 0.154239 0.250517 -0.016846 -0.048629 0.022499 -0.041149 -0.012338 0.257560 0.043007 -0.446511
univers 0.034297 0.031378 0.056425 0.209037 0.165712 -0.140206 -0.162548 0.025481 -0.042896 -0.013249 -0.025126 -0.061597 0.086022 0.005835 -0.071827 0.114000 -0.208409 -0.172040 -0.220800 0.075407 -0.289687
bit -0.164835 -0.102451 0.008552 0.034278 -0.094824 -0.056133 -0.031887 -0.005624 -0.052034 -0.063916 0.053626 -0.015728 0.030504 -0.020993 0.030171 0.001275 0.086793 0.002893 0.101465 0.012456 -0.329247
didn’t -0.439752 0.070574 0.108087 0.144395 -0.271087 0.163662 0.120747 -0.251069 -0.081030 -0.255420 0.271070 -0.109813 0.363394 0.220422 0.035658 -0.456274 0.476983 0.198832 -0.076694 -0.088560 -0.351214
opportun -0.002152 -0.064777 -0.067412 -0.079310 0.018408 0.007022 -0.053792 -0.006063 0.241470 -0.109986 0.046373 -0.155738 0.165417 -0.014839 -0.059669 0.058661 -0.104853 0.207052 0.030856 -0.011484 -0.168157
slide 0.112101 -0.024260 0.062491 0.021897 0.017612 -0.200941 -0.081830 -0.140025 0.065565 -0.219668 0.036935 0.010659 -0.025540 0.073798 0.006174 0.237106 0.138939 -0.116475 0.021336 0.132423 0.104687
awkward 0.065829 0.026992 0.064705 -0.130005 0.105841 -0.042718 -0.080878 0.259398 0.049489 0.176522 0.111728 0.005538 -0.219364 -0.154763 -0.036632 -0.045822 -0.152396 -0.031034 -0.033974 -0.011335 -0.059164
didnt -0.418692 0.061409 -0.017759 -0.000926 -0.219703 0.127536 0.161775 -0.259237 0.078126 -0.145135 0.242201 -0.024199 0.349663 0.247422 -0.040529 -0.477921 0.287877 0.094979 -0.184780 -0.033969 -0.374600
fast -0.188288 -0.137237 -0.017210 0.058330 0.032493 -0.003976 -0.065176 -0.249643 0.046361 -0.085738 0.234212 -0.042760 0.195289 0.128194 -0.055607 0.067767 0.394151 0.116108 0.350724 0.044498 -0.262123
fulli -0.385961 0.093138 0.152622 0.114894 -0.221715 0.265428 0.082475 -0.298520 0.091259 -0.046287 0.193783 0.008656 0.314550 0.301804 -0.066417 -0.485933 0.128090 0.037735 -0.177278 -0.072821 -0.397001
hour 0.177138 -0.008749 -0.068155 -0.082621 0.219152 0.081634 0.012517 0.083683 -0.060725 -0.038677 -0.096451 -0.066257 -0.146408 0.048416 -0.084318 0.087104 -0.045725 -0.209890 -0.097362 -0.045631 -0.107580
see 0.103695 -0.038727 0.099961 0.119487 0.080127 -0.144425 -0.146231 -0.031231 -0.090278 -0.049670 -0.048005 -0.065899 -0.018447 0.039979 0.006818 0.108828 0.105818 -0.147830 -0.067847 0.122918 -0.037178
sinc -0.055747 -0.109623 -0.093681 -0.020676 0.063307 -0.039934 -0.035245 0.059016 0.095658 -0.099131 -0.016873 0.017643 0.084160 -0.024346 -0.069092 0.003626 -0.012037 -0.164604 -0.060654 -0.086123 -0.239183
concentr -0.050981 -0.146224 0.000699 0.010324 0.073705 -0.138128 0.024523 0.160033 -0.072449 0.030802 0.041918 -0.006481 -0.048346 -0.072417 0.006710 -0.004851 -0.160638 -0.208844 -0.069338 -0.132464 -0.214561
given 0.010099 0.054566 0.125860 0.129515 0.031243 -0.038242 0.063973 -0.062858 0.015292 -0.022487 0.012567 0.207314 0.076888 0.105574 0.058316 -0.044453 -0.056329 -0.182458 0.055255 0.022374 -0.212233
option -0.135448 -0.112206 -0.066091 -0.036574 -0.043737 0.031450 0.100680 -0.069708 0.112938 -0.089087 0.093992 0.226002 0.260320 -0.008707 -0.025343 0.025392 0.071852 -0.098328 0.106194 -0.025627 -0.408912
usual -0.079193 -0.044473 0.037578 0.059140 0.045697 -0.093862 0.013950 0.005388 0.001357 -0.112371 0.033372 -0.088500 0.043373 -0.014683 0.011036 0.124654 -0.015290 -0.121100 -0.045857 -0.043717 -0.215184
even 0.022376 -0.120605 -0.008126 -0.033824 0.019083 -0.095508 -0.132638 0.063198 0.023282 -0.075953 -0.106330 0.022522 -0.065279 -0.124675 0.072943 0.095580 0.023909 -0.032677 -0.051746 0.092039 -0.363873
explan 0.177155 0.056591 -0.019377 -0.142493 -0.067462 0.085046 -0.051804 -0.015796 0.016506 0.003489 -0.213612 -0.084374 -0.098595 -0.018411 0.035521 0.039421 0.044899 0.092723 0.015030 0.061192 0.008423
fit -0.001307 0.038252 -0.211304 0.095048 0.142405 0.083353 0.003834 0.065599 0.116385 -0.071184 0.080736 0.305208 0.185372 0.040350 -0.158056 0.078937 -0.122610 -0.129959 -0.248795 0.150069 -0.372970
freedom 0.072385 0.033529 -0.083294 -0.167846 0.062850 0.140151 0.046064 0.025182 0.226800 -0.081846 0.005184 -0.060446 0.022556 0.013862 -0.001777 0.019236 -0.028771 0.167806 0.092596 -0.072729 -0.102102
possibl -0.195305 -0.178343 -0.141864 -0.030480 -0.127792 0.038153 0.127968 -0.081449 0.044944 0.037965 0.123978 0.171107 0.059280 -0.016911 -0.060637 0.027715 0.049813 -0.044318 0.155636 -0.074787 -0.282702
revis -0.260754 -0.039231 0.015033 0.174942 -0.041979 0.123579 0.058902 -0.018221 -0.040190 -0.065413 0.088751 0.128687 0.205769 0.053541 0.013055 -0.108208 0.093769 0.103780 0.035343 0.084152 -0.370300
seminar 0.032913 -0.185196 0.002393 0.037592 0.156097 -0.390091 -0.133382 0.180053 -0.030625 0.014642 0.017428 -0.259305 -0.107058 -0.251714 0.006354 0.218894 -0.101845 -0.108687 -0.137641 -0.164831 -0.356712
struggl 0.095684 0.081774 0.015169 0.060099 -0.003973 0.000097 -0.021341 0.083057 0.026007 0.021618 0.060206 0.036278 -0.031620 0.026318 -0.058358 -0.003658 -0.091027 -0.054687 -0.081935 -0.059481 -0.259823
zone 0.262919 0.107909 0.095203 0.279789 0.474772 0.152406 -0.154346 0.165107 0.206327 0.046128 -0.007671 -0.103402 0.226358 0.283908 -0.155247 0.090917 -0.483092 -0.101118 -0.470134 -0.022268 -0.234480
chat 0.091412 -0.147841 -0.036607 0.076590 -0.028104 -0.228160 -0.068939 0.076735 -0.157777 0.022175 -0.016412 -0.002539 -0.115829 -0.062957 0.070858 0.076098 -0.049236 -0.021713 0.048627 0.053236 -0.231565
come -0.331514 0.096469 -0.041109 0.192509 -0.262653 0.096557 0.125341 -0.083187 -0.267987 -0.284375 0.189242 0.112084 0.229805 0.014770 0.047632 -0.142352 0.298458 0.378067 0.110781 0.002429 -0.510713
forum 0.207389 -0.268322 -0.275927 0.052379 0.215933 -0.281725 0.050312 0.316591 -0.158431 0.013204 -0.068376 -0.297607 -0.168068 -0.112248 0.103954 0.192271 -0.069377 -0.116923 -0.112562 0.163852 -0.247460
howev -0.092240 -0.001032 -0.001693 0.193571 0.176892 -0.124647 -0.047516 0.065236 0.030310 -0.006711 0.079254 0.047194 0.247952 0.067555 -0.108925 -0.032551 -0.199329 -0.298855 -0.269315 0.045461 -0.491592
import -0.008466 0.031248 0.021831 -0.007009 -0.046029 0.014248 0.008596 -0.017856 -0.022606 -0.031576 -0.028742 -0.005719 -0.037831 0.053291 0.046303 0.014511 0.060689 -0.026522 0.000471 -0.036887 -0.257351
info -0.062988 -0.022418 0.014495 -0.093943 -0.114536 0.084193 -0.008583 -0.102848 0.048974 -0.002499 -0.047700 0.074407 0.025579 0.047320 -0.064274 0.054409 0.066407 -0.040107 0.085677 0.011648 -0.195250
may 0.060113 0.067886 0.076505 0.140795 0.097173 0.039374 -0.024921 -0.020050 0.004747 -0.056686 0.002100 -0.002199 -0.000235 0.114124 0.010304 -0.048688 -0.058759 -0.132296 -0.098089 0.031524 -0.324784
method 0.030708 -0.088542 0.003796 -0.059012 0.162616 -0.040726 -0.028486 0.079114 -0.025208 -0.063471 -0.023554 -0.134332 -0.102133 0.005899 0.078253 0.021415 -0.057669 -0.241324 -0.090114 -0.113026 -0.372381
particip 0.012217 -0.032431 -0.057952 -0.093262 0.000233 -0.153601 -0.057074 0.102963 0.002865 0.076669 0.017316 -0.056705 -0.090373 -0.127046 -0.005462 0.013413 -0.069023 -0.039716 -0.082873 -0.070114 -0.197505
revisit -0.132523 -0.031667 -0.050722 0.125734 0.077375 -0.080280 0.071110 0.056147 0.010506 -0.093394 0.067927 0.038511 0.246987 0.044222 -0.019897 0.037395 -0.012523 -0.009364 -0.046670 0.088591 -0.523216
subject -0.101131 -0.002334 0.067170 0.057488 0.039133 0.036281 0.068756 -0.108582 -0.025075 -0.012695 0.098814 0.044653 0.111788 0.077940 -0.030577 -0.115289 -0.079084 -0.086910 -0.098907 -0.003856 -0.398830
avail -0.089208 0.009194 -0.035633 0.117447 0.075315 0.132655 -0.022138 -0.027197 0.049655 0.020581 0.002021 0.067482 0.142238 0.016292 -0.107531 -0.003053 -0.036187 0.010462 -0.038963 0.057081 -0.306613
great -0.010953 -0.121347 -0.052791 0.010212 0.067621 -0.086786 -0.046121 0.066232 -0.018314 -0.030719 -0.020837 -0.029598 0.015144 -0.085661 -0.061849 0.182812 -0.055747 -0.095259 -0.068134 0.038113 -0.317414
im -0.025601 -0.093886 -0.054449 0.004211 0.027945 -0.041182 -0.057827 -0.074717 0.046911 -0.099599 -0.003644 0.016255 0.016243 0.023469 -0.054294 0.122976 0.091111 -0.051520 0.030496 0.072073 -0.241541
issu 0.320561 0.146592 0.151121 -0.071495 0.156811 -0.242250 -0.075830 0.088294 -0.126144 0.071177 -0.109891 -0.152811 -0.280019 -0.048662 -0.047069 0.042732 -0.207996 0.014776 -0.066192 -0.093632 -0.182388
moment -0.130751 -0.124208 -0.083702 -0.057281 -0.095343 0.110811 0.061157 -0.154886 0.020840 -0.005066 0.029333 0.081246 0.068999 0.069270 -0.027254 0.002422 0.098815 -0.011449 0.138401 0.057766 -0.158578
product 0.073128 0.129881 -0.041171 0.037832 0.125628 0.006992 -0.021053 0.074822 0.026119 0.037482 0.015841 0.009110 -0.049026 -0.006313 0.014482 0.014664 -0.072598 -0.057643 -0.077196 0.005827 -0.176925
repeat -0.099547 0.072502 0.041058 -0.040383 -0.066316 0.092278 0.029804 -0.083059 -0.046561 -0.010998 -0.062323 0.132940 0.081796 0.004719 0.089364 -0.139199 0.097516 0.081302 0.109762 0.002595 0.057711
review -0.260362 -0.160188 -0.123465 0.108072 -0.087329 -0.046750 0.044328 -0.052905 0.123944 -0.142653 0.136836 0.158716 0.313844 -0.068489 -0.035965 0.125058 0.069904 -0.007553 0.055288 0.133111 -0.634809
skip 0.006482 0.238888 0.093084 0.257002 0.149717 0.155576 0.026637 -0.099372 -0.006596 -0.003328 0.078972 0.149337 0.124962 0.113258 -0.015356 -0.162639 0.018211 0.001222 0.095624 0.127877 -0.148007
sure -0.182213 -0.427455 -0.292771 -0.051670 -0.286536 0.360540 0.203666 0.085038 -0.120973 0.242721 0.069252 0.107725 -0.029140 -0.018287 -0.225576 -0.048374 0.094855 0.068070 0.128153 0.002677 -0.240267
around 0.154641 0.042360 -0.341222 -0.046601 0.432563 0.196622 0.010162 0.253444 0.208777 0.089417 0.035908 -0.026578 0.119975 0.184178 -0.200809 0.030792 -0.151618 -0.207913 -0.085931 -0.054934 -0.388056
due 0.076812 0.022319 0.114839 0.161075 0.243760 -0.096597 -0.058142 0.113278 -0.062731 -0.056240 -0.060756 -0.110933 -0.021249 -0.021542 -0.059052 0.038635 -0.205743 -0.213269 -0.161414 -0.075110 -0.290910
free 0.048050 0.025833 -0.000645 0.236117 0.249928 0.064192 -0.093172 0.057877 0.066690 0.006317 0.011071 -0.000014 0.118431 0.108716 -0.073864 0.017686 -0.161973 -0.158491 -0.157619 0.069339 -0.370801
mode 0.221508 0.073128 -0.020014 -0.033145 0.110507 -0.060938 -0.069843 0.015105 -0.050087 0.127126 -0.065977 -0.107751 -0.166161 -0.040866 -0.017417 0.150661 -0.036844 -0.007299 -0.011374 -0.026914 -0.142726
play -0.456762 -0.168371 -0.172758 -0.056144 -0.363445 0.146685 0.229111 -0.175817 0.001110 -0.075393 0.261839 0.270286 0.218403 -0.012248 0.034276 -0.170617 0.161981 0.108118 0.211946 -0.026646 -0.683229
powerpoint 0.185597 -0.032909 0.094611 0.022373 -0.040200 -0.227814 -0.077007 -0.053586 -0.043241 -0.091833 -0.117629 -0.005804 -0.159297 0.017169 0.046351 0.140465 0.125252 0.016695 0.074065 0.159705 0.204846
process -0.029383 0.057897 0.090754 0.135998 0.049096 0.143208 0.120543 -0.060293 0.040290 0.083223 -0.034152 0.269892 0.251310 0.117360 0.012795 -0.069641 -0.114266 -0.168824 0.092397 0.033177 -0.070239
provid 0.054014 0.047343 -0.027007 -0.029849 0.052347 -0.004448 0.044791 0.064247 -0.011913 -0.005707 -0.083903 0.077681 -0.013004 0.026816 0.024296 0.076164 0.025206 -0.064802 -0.053719 0.092275 -0.387007
quit -0.048322 0.054784 0.116990 -0.110887 -0.122514 -0.001977 0.024587 -0.026755 -0.031891 -0.067937 -0.012962 -0.127079 -0.121983 0.025690 0.149291 -0.190516 0.188405 0.112640 -0.043129 -0.075943 -0.247485
set 0.049905 -0.006858 0.069381 0.232633 0.306284 0.033609 -0.078476 0.112172 0.053770 -0.123802 0.034192 -0.073502 0.222909 0.091687 -0.074689 0.015437 -0.180753 -0.153704 -0.239408 -0.014168 -0.374788
catch -0.045460 0.012663 0.029490 0.001007 -0.071533 -0.015020 0.021861 0.004706 -0.015040 -0.031718 -0.022128 0.078396 -0.019639 -0.026874 0.077670 -0.044221 -0.026635 -0.008380 0.108643 0.029249 -0.306304
decid -0.157722 -0.090189 -0.079994 -0.021503 0.037826 0.163407 0.063764 0.030782 0.101070 0.041735 0.088275 0.137642 0.186651 -0.006658 -0.071522 0.017917 -0.133092 -0.057183 0.031650 -0.023961 -0.354991
effici -0.036794 0.022951 0.023075 0.131409 0.130072 -0.014036 -0.036825 0.040574 -0.043253 0.003244 0.006272 -0.008139 0.093380 0.008697 -0.052875 0.073014 -0.102849 -0.118971 -0.115742 0.020673 -0.302708
everyon 0.131391 0.045447 0.068994 -0.071813 -0.017422 0.053612 -0.016317 0.016552 -0.023773 0.041995 -0.091722 -0.046215 -0.143540 -0.067384 0.026063 0.019261 -0.056350 -0.046635 -0.000305 -0.052767 -0.414206
might -0.104739 -0.112671 0.032621 0.059613 0.003228 -0.187930 -0.055069 0.045046 -0.078404 -0.036353 0.005755 -0.128663 -0.041433 -0.115856 0.006568 0.025381 -0.080578 -0.058876 -0.029911 -0.084391 -0.338713
move 0.009846 0.184187 0.127093 0.049895 -0.095553 0.022879 0.026551 -0.079955 0.006095 -0.045286 0.071832 -0.023503 0.025232 0.078492 0.030726 -0.175683 0.116502 0.018868 -0.095069 0.011896 0.015797
pre -0.306422 -0.283687 -0.085572 0.142034 -0.005813 -0.227996 -0.004715 -0.064901 -0.119911 -0.035201 0.024248 -0.137017 0.273495 -0.271392 -0.033542 0.302392 -0.074548 -0.014672 0.014384 0.069227 -0.600933
prerecord -0.077653 -0.112967 -0.111613 0.169607 0.073308 -0.212638 -0.022905 0.042045 0.105883 -0.255465 0.093321 0.043704 0.220494 0.025510 -0.056599 0.157443 0.079615 -0.133903 -0.093680 0.129624 -0.615920
say -0.075643 -0.204731 -0.004581 -0.035468 -0.056519 -0.251622 0.026696 0.069754 0.031634 -0.067792 0.044963 0.002063 0.014200 -0.083677 0.012865 0.134416 -0.035011 -0.078529 -0.010515 -0.017965 -0.368444
stuff 0.011678 0.165355 0.035642 0.029705 -0.030688 0.116285 0.014935 -0.066787 -0.102710 -0.046106 -0.000140 -0.033696 0.013381 0.097299 -0.000727 -0.037548 0.123233 0.122372 0.031578 0.023023 -0.446922
whatev -0.066708 -0.015682 0.028116 0.316410 0.204444 0.038822 -0.032925 0.008763 0.093271 -0.029031 0.112346 0.019115 0.315575 0.167907 -0.096647 0.036845 -0.141673 -0.199302 -0.140957 0.083522 -0.532296
wifi 0.125164 0.025892 0.070267 -0.040099 0.002225 -0.230312 -0.055751 0.021681 -0.132642 0.058365 -0.072264 -0.036926 -0.169366 -0.071820 -0.008373 0.073605 -0.084731 -0.051356 -0.021990 0.016690 -0.317911
check -0.116996 -0.013757 0.029768 0.100222 -0.102294 0.073891 0.040482 -0.052824 -0.082077 -0.102820 0.074423 0.085599 0.109866 -0.047968 0.033525 -0.051752 0.113028 0.061907 0.095768 0.039986 -0.276196
comfort 0.072874 0.034570 -0.046332 0.030427 -0.020188 -0.067194 -0.062497 -0.023902 0.004217 0.059300 -0.020938 -0.041403 -0.075731 -0.097317 0.026255 0.081173 -0.022994 0.005026 -0.093657 0.014508 -0.361428
harder -0.069526 -0.050832 0.037919 -0.093079 -0.093527 0.029353 0.017450 -0.073126 -0.056753 0.046533 0.065330 -0.132189 -0.136806 0.008507 0.080841 -0.118583 -0.012691 0.013492 -0.114889 -0.080285 -0.305317
know 0.073099 0.061561 0.014998 -0.089518 -0.024391 0.015583 -0.083114 0.001897 -0.068846 0.011919 -0.059416 -0.043441 -0.124163 -0.001742 0.052786 0.012254 0.124247 0.041303 0.037721 0.027355 -0.316772
necessari -0.118203 -0.013499 -0.035578 0.009190 -0.119020 0.084711 0.100013 -0.087154 0.011245 -0.021137 0.075489 0.137778 0.167872 0.016730 0.029717 -0.056283 0.109715 0.066057 0.092576 0.025757 -0.340723
refer -0.298740 0.039808 -0.050469 0.150273 -0.244865 0.125365 0.160247 -0.083944 -0.206070 -0.314820 0.162459 0.130054 0.241092 -0.001931 0.059343 -0.164188 0.320225 0.340399 0.167917 0.008385 -0.455265
relisten -0.165590 -0.062971 -0.014549 -0.037217 -0.123479 0.052946 0.018620 -0.107217 -0.020279 -0.043750 0.036397 0.113653 0.090651 -0.034961 -0.014829 0.025903 0.160008 0.080966 0.138667 -0.025394 -0.164074
requir 0.022312 0.078921 0.009117 0.015064 -0.038151 0.090868 -0.017169 -0.031052 -0.059884 0.071247 -0.001422 -0.053553 -0.075279 0.005847 0.032650 -0.039655 -0.051296 0.030865 0.009872 0.019086 -0.155337
seem 0.021963 -0.070202 -0.080187 0.012421 0.138674 -0.090963 -0.044361 0.007275 0.028652 -0.105765 -0.001419 -0.046979 0.080952 0.022537 -0.081755 0.133599 0.078139 -0.133622 0.020807 0.028221 -0.422102
sit -0.020782 -0.010200 0.041429 0.082464 0.077426 -0.123007 0.000055 0.070185 -0.004599 -0.075562 -0.053135 -0.015957 -0.032045 -0.018661 0.066776 0.029749 -0.013484 -0.142963 -0.118380 0.015930 -0.303324
someon -0.034687 0.134138 0.031867 -0.042919 0.001698 0.003040 -0.009115 -0.049537 -0.053239 -0.159099 0.008768 0.057660 -0.058013 0.038712 0.064904 -0.025947 0.049214 0.000067 -0.016052 -0.031636 -0.209602
start -0.091259 -0.043395 0.030942 0.029203 -0.086262 0.065932 0.193982 -0.099546 -0.079848 -0.076803 -0.007891 0.139281 0.032504 -0.031465 0.034421 -0.018542 0.053200 0.005194 0.153119 -0.032335 -0.222039
technic 0.318173 0.251032 0.218882 -0.014211 0.102299 0.044943 -0.163731 0.031215 -0.143582 0.088605 -0.152940 -0.114569 -0.288284 -0.023620 0.006863 -0.002210 -0.031203 -0.029513 0.037386 0.007018 0.041897
tri -0.086460 -0.012334 0.102214 -0.041430 -0.112336 0.085787 0.048240 -0.140033 -0.041455 -0.025833 0.003913 0.023881 -0.072875 0.017099 -0.005120 -0.078948 0.010297 0.023548 0.048342 0.004410 -0.496566
answer 0.228417 -0.106198 0.135107 -0.070752 0.005473 -0.199348 -0.178889 0.043628 0.001207 -0.198267 -0.106439 -0.304609 -0.069658 0.024803 -0.015328 -0.000907 0.022197 0.104803 -0.072885 -0.235881 -0.164052
anxiou -0.041083 -0.226357 -0.069840 -0.049646 -0.148023 -0.028388 -0.012642 0.093927 -0.055142 0.160179 -0.020419 -0.075408 -0.065924 -0.069666 -0.068431 0.030767 -0.115130 -0.102735 0.015820 -0.075788 -0.393682
cant 0.078921 0.038154 0.021685 -0.048849 0.080261 0.017271 -0.047719 0.026580 0.036500 0.028940 -0.046567 -0.077107 -0.049820 0.014301 0.001275 0.028008 -0.011332 -0.050923 -0.101564 0.002794 -0.287821
caus -0.131958 -0.015696 -0.068347 0.041507 -0.008814 0.055843 0.051501 0.012227 0.037514 0.014633 0.062358 0.155692 0.171684 -0.018939 -0.013436 -0.111929 -0.028409 -0.108213 0.017313 0.017976 -0.278315
chang -0.129944 0.034426 -0.027941 0.111919 -0.003357 0.126546 -0.007100 -0.119662 0.014941 0.024067 0.014095 0.139373 0.075134 -0.020501 0.004263 -0.019408 0.027255 0.093206 0.032709 0.110256 -0.353950
compar 0.073634 -0.024767 -0.007136 0.021184 0.050372 -0.167238 -0.035523 0.061880 -0.044567 -0.050659 0.028334 -0.078536 -0.120360 -0.082759 0.050887 0.062074 0.055878 -0.000803 0.000300 -0.013703 -0.279430
depend 0.079786 0.111950 0.063446 0.091799 0.098597 0.091527 -0.096428 -0.010637 -0.020926 0.058173 -0.008922 0.029719 -0.030113 0.046682 0.005016 -0.009976 -0.062787 -0.035114 -0.057359 0.047867 -0.320294
doesnt 0.097856 0.256332 0.107182 0.006712 0.009975 0.094954 -0.001406 -0.065697 -0.043325 0.005234 -0.050698 0.042052 -0.098378 0.047166 -0.000129 -0.042084 0.033059 0.034638 0.063376 0.127027 -0.165228
experi 0.151457 0.070111 0.015700 -0.029935 0.047150 -0.009687 -0.083504 0.001213 0.015494 0.064984 -0.118030 -0.141922 -0.158138 -0.054986 0.000608 0.077220 -0.017254 0.020284 -0.053146 0.002142 -0.304624
lost 0.028613 -0.073889 -0.144823 -0.111977 -0.120946 -0.027602 -0.120611 0.029191 0.016176 0.047591 -0.065554 -0.083586 0.048782 0.032092 -0.170769 0.147838 0.031883 0.116426 -0.104727 -0.009212 -0.391023
multipl -0.125532 -0.020974 -0.029292 0.321145 0.257039 0.200247 -0.001772 0.054305 0.188314 0.043187 0.194711 0.068963 0.404098 0.203021 -0.114262 -0.105126 -0.196002 -0.147642 -0.148344 0.052296 -0.585062
nice -0.019164 -0.091410 -0.072512 0.108817 0.043038 0.025746 -0.006201 0.033531 0.136770 -0.001262 0.137486 0.037020 0.052183 -0.110950 -0.013581 0.081091 -0.094697 0.005252 0.013403 0.056907 -0.439443
organ 0.117307 0.058240 -0.012595 0.099725 0.216435 0.066840 -0.032710 0.115301 0.043091 0.031558 0.049789 -0.020398 0.050724 0.032724 -0.083498 0.025356 -0.162140 -0.064689 -0.133750 0.027881 -0.091378
properli -0.111255 0.026322 0.018715 -0.091280 -0.067764 0.041856 0.016629 -0.077398 0.016730 -0.039377 -0.031418 -0.003005 0.052973 0.082674 -0.000380 -0.079138 0.111971 0.031571 -0.036599 0.021987 -0.274742
speak 0.132364 0.002279 0.032485 0.055721 0.037002 -0.130836 -0.066225 0.012785 -0.000426 -0.108447 -0.064585 -0.067138 -0.053592 -0.019586 0.004645 0.176988 0.096141 -0.111545 -0.065089 0.119793 -0.177356
straight 0.123177 0.189495 0.069539 -0.118738 -0.063560 0.053862 -0.085058 -0.103806 -0.092461 -0.034810 -0.142736 -0.031224 -0.247327 -0.023061 0.076713 0.028779 0.232092 0.123572 0.037977 -0.034973 -0.298769
structur 0.199129 0.145823 0.062623 0.101141 0.226498 0.107648 -0.039640 0.067075 0.039196 0.007732 0.030705 0.001201 0.061659 0.071981 -0.063348 0.034027 -0.104391 0.022135 -0.057704 0.063660 -0.224404
timet 0.112536 0.058492 -0.049813 -0.125661 0.078654 0.146650 -0.000155 0.082757 0.031775 0.032747 -0.036873 -0.018428 -0.092549 0.027386 -0.013556 0.041905 0.023428 0.030232 0.005368 0.037810 -0.273247
view -0.035365 0.038380 0.059807 0.153832 0.147261 -0.007886 0.009695 0.004816 0.002456 -0.100463 0.059380 0.049204 0.178017 0.067756 -0.023385 -0.023008 -0.079140 -0.115632 -0.086973 0.046419 -0.355933
worri -0.135659 0.063315 0.096680 0.119611 -0.122360 -0.007521 -0.072239 -0.067871 -0.041664 -0.053821 -0.033039 -0.046738 0.104503 0.006695 0.081272 -0.008443 0.145402 0.076575 0.036203 0.072687 -0.170293
along 0.005820 -0.057403 -0.000196 -0.155071 -0.123958 0.065896 0.104432 -0.020197 0.030779 0.041772 0.023275 0.216334 -0.062107 -0.046616 0.081707 -0.085486 0.019183 -0.059459 0.125443 -0.112791 -0.307297
although 0.069673 -0.057852 0.033624 -0.032433 0.043342 -0.164767 -0.069213 0.138308 -0.049019 -0.032461 -0.038979 -0.133341 -0.149317 -0.102881 0.043606 0.030769 -0.085717 -0.035738 -0.052127 -0.103111 -0.502151
assign 0.018966 0.054156 -0.011919 0.020798 0.013576 0.055706 0.017476 0.038654 -0.004389 -0.021460 -0.006750 -0.014071 0.005181 0.042980 -0.036154 -0.018946 0.031948 0.020289 0.013221 0.018210 -0.275422
attent 0.105102 0.121716 0.118333 0.008139 -0.020712 0.168323 0.012227 -0.099479 -0.064451 -0.037455 0.043002 -0.026231 -0.131937 0.140159 0.065925 -0.015714 0.037342 0.054042 -0.007531 0.011443 -0.248242
camera 0.190850 0.084340 0.138998 -0.020137 0.065975 -0.018170 -0.058325 -0.004251 -0.109649 0.012445 -0.176945 -0.053273 -0.255835 -0.067851 0.083862 0.043407 -0.001465 -0.032630 0.000760 -0.009320 -0.279048
contribut 0.122105 0.009963 -0.011495 -0.099267 -0.032107 -0.082592 -0.037395 0.067731 -0.061259 0.090075 -0.070706 -0.105700 -0.201647 -0.047965 0.001532 0.069251 -0.081394 -0.088281 -0.064184 -0.041122 -0.186205
fact 0.146496 0.090492 0.097120 -0.030684 -0.024190 0.065867 -0.048605 -0.044899 -0.091441 0.056000 -0.072601 -0.008774 -0.195198 0.001089 0.046297 -0.009862 0.013882 0.029761 -0.020733 0.046770 -0.323424
forget -0.108960 0.023582 -0.053395 -0.047357 -0.110608 -0.061579 0.086901 -0.021776 0.005259 -0.075788 -0.045077 0.012158 -0.013700 0.022097 0.143985 -0.072299 0.210341 0.186903 0.097378 -0.011979 -0.160868
full 0.095990 0.072265 0.006528 0.078054 0.102097 -0.008367 -0.036414 -0.001784 0.045442 0.011243 -0.032064 -0.004833 0.092940 0.037434 -0.006708 0.012196 -0.042919 -0.042371 -0.054172 0.029351 -0.208172
group 0.167071 0.038277 -0.083837 -0.093238 0.087351 0.101155 -0.002811 0.052183 -0.077074 0.084731 -0.109355 -0.100837 -0.157401 0.061116 -0.020441 -0.014389 -0.023951 -0.013972 0.020913 0.026151 -0.228351
ive 0.086649 0.083879 0.090333 -0.062361 -0.096234 -0.020075 -0.057802 -0.034790 -0.102885 0.044874 -0.072974 -0.118297 -0.182927 -0.024492 0.022036 0.054311 0.062260 0.117493 0.035467 -0.042851 -0.326997
job 0.147609 0.138442 0.044264 0.026205 0.107536 0.134746 -0.073887 -0.007977 -0.025770 0.073365 -0.053136 -0.045593 -0.048465 0.120691 -0.053016 -0.017960 -0.014485 0.014509 -0.060935 0.002421 -0.085039
motiv 0.054183 -0.018365 0.030721 -0.010936 0.056201 0.018095 -0.050040 0.050062 -0.037940 0.065642 -0.028296 -0.096121 -0.158709 -0.018814 -0.012005 0.015596 -0.093091 -0.041441 -0.088774 -0.040587 -0.284111
put 0.162818 0.172726 0.063946 -0.059421 0.048462 0.115168 -0.041886 0.022170 -0.045340 0.110736 -0.058303 0.036721 -0.128334 -0.012259 -0.043148 -0.041533 -0.008161 0.009002 0.003888 0.046063 -0.199122
real 0.086736 0.081730 0.123304 0.178698 0.246415 -0.154885 -0.067170 0.032300 -0.017917 -0.072267 0.023801 -0.064278 0.080523 0.095644 -0.065944 0.048603 -0.111758 -0.255022 -0.196792 0.097562 -0.379962
said -0.005677 0.133424 0.058129 -0.017921 -0.081895 0.120992 -0.007333 -0.107802 -0.126283 -0.069276 -0.022088 -0.013581 -0.101930 -0.006397 0.045408 -0.050798 0.274728 0.212962 0.136013 0.055106 -0.265363
though 0.093609 0.071743 -0.059325 -0.063067 -0.027630 -0.096605 -0.027537 0.023184 -0.033182 0.025840 -0.036361 -0.039928 -0.140760 -0.092932 -0.008147 0.036290 0.037983 -0.009236 -0.030175 -0.009933 -0.473673
understood 0.077358 0.134700 -0.021217 -0.088513 -0.089089 0.065778 0.069089 -0.012173 -0.016108 -0.028409 -0.160881 0.101766 -0.116376 0.022125 0.110689 -0.058170 0.203989 0.081288 0.107226 0.048723 -0.268021
year 0.028143 -0.108104 -0.033949 -0.054045 -0.030362 -0.119305 -0.076434 0.059212 0.016651 -0.123178 -0.137260 -0.034680 0.053902 -0.062357 0.020585 0.118047 0.010839 -0.000773 -0.065745 0.063486 -0.388798
adjust -0.076855 0.019605 0.035539 0.082983 -0.034253 0.082342 0.033386 -0.113483 -0.030177 0.004459 0.051888 0.063671 0.031252 -0.045586 -0.000458 -0.039867 0.036542 0.026192 0.004726 0.100275 -0.348616
aren’t 0.041842 -0.066436 0.013153 0.028123 0.068136 -0.251266 -0.019443 0.104297 -0.051291 -0.018446 0.021107 -0.051346 -0.005339 -0.111513 -0.035155 0.090418 -0.093277 -0.046362 -0.068800 -0.000795 -0.295937
case -0.031657 -0.041438 0.037250 0.048530 -0.000536 -0.061556 -0.024013 -0.043422 -0.031424 -0.085130 -0.084186 -0.027864 -0.048453 0.026289 -0.009292 0.081619 0.021048 -0.115844 0.022518 0.072439 -0.465976
closest -0.053261 -0.026209 -0.004640 0.007692 -0.062561 -0.073592 -0.002230 -0.007616 -0.008377 -0.063213 0.047274 0.066347 -0.001531 0.032459 -0.008948 -0.005394 0.075605 0.012798 0.036263 -0.010343 -0.141039
combin 0.061656 -0.028068 0.018022 0.028797 0.057903 -0.264974 -0.081596 0.100139 -0.120657 -0.012076 -0.010064 -0.092814 -0.105996 -0.161339 0.073966 0.153635 -0.090371 0.006882 -0.000019 -0.004099 -0.239560
doesn’t 0.114248 0.091470 0.106710 -0.034454 0.026571 -0.001231 -0.024315 -0.042378 -0.051002 -0.004092 -0.084069 -0.008139 -0.144008 -0.005189 0.037009 -0.003388 0.054151 0.008488 0.022416 0.067639 -0.361414
focus 0.088715 0.147428 -0.001442 0.019682 0.062580 0.163451 0.023553 0.000199 0.018000 -0.034163 0.005747 0.006875 -0.017430 0.057980 0.020571 -0.058659 0.045965 0.000945 0.016522 0.043960 -0.244703
forc 0.157610 0.107951 0.065893 0.027776 0.062713 0.000362 -0.092132 0.019118 -0.063670 0.011550 -0.047412 -0.068219 -0.118704 0.014186 0.025819 -0.045524 -0.000961 -0.002481 -0.059358 0.011556 -0.322318
interrupt 0.121728 0.017801 0.043849 -0.084830 0.015324 -0.011073 -0.034357 -0.009736 -0.031304 0.051561 -0.017326 -0.035003 -0.128142 -0.010811 -0.022771 0.040577 -0.048084 0.059035 0.011049 0.009929 -0.110962
join -0.025672 -0.114362 -0.041549 -0.026356 0.014709 -0.288945 -0.051561 0.189110 -0.022752 0.048536 0.087322 -0.041278 -0.033010 -0.145559 -0.012695 0.029650 -0.183029 0.022721 -0.037303 -0.211292 -0.333590
lack 0.094610 0.044509 0.089512 -0.012217 0.094765 -0.074179 -0.032868 0.038494 -0.093743 -0.070389 -0.053174 -0.121317 -0.175263 -0.063297 0.042255 0.066772 -0.044868 -0.097182 -0.082064 -0.013827 -0.424350
mental 0.227421 0.148737 0.098184 -0.075024 0.010422 0.154795 -0.032195 -0.062627 -0.112552 0.033768 -0.184757 -0.015660 -0.246620 0.042192 0.004224 0.012770 0.054601 0.117708 0.037281 0.051658 -0.038523
oppos 0.111888 -0.012427 -0.027052 0.024174 0.036966 -0.082035 -0.046998 0.068937 0.018501 -0.037578 -0.044798 -0.065698 -0.035584 -0.021993 0.011208 0.090682 0.047783 0.002564 -0.037489 -0.001466 -0.276748
poor 0.361706 0.173134 0.161579 -0.042772 0.065271 -0.069782 -0.046074 -0.046977 -0.096826 0.062571 -0.082026 -0.141216 -0.213429 0.039112 -0.013778 0.049366 -0.050966 0.044284 0.016499 -0.038077 -0.209536
problem 0.082721 0.036327 0.016084 -0.036165 0.025249 0.016849 -0.048445 0.058412 -0.101069 -0.037027 -0.085386 -0.051669 -0.138660 -0.017321 0.055401 0.005762 0.025076 -0.020058 -0.025597 0.041267 -0.161780
receiv 0.047695 -0.031946 -0.005088 -0.015936 -0.040551 -0.111214 -0.064100 0.066341 0.058596 -0.129321 -0.126006 -0.065399 -0.041165 0.017850 0.009385 0.079586 0.099241 0.066218 -0.006632 -0.004399 -0.260325
research -0.052693 0.048080 0.026819 -0.011543 -0.121890 0.072010 0.064442 -0.083309 0.028886 0.031286 -0.030035 0.115574 -0.000964 0.057320 0.019412 -0.082590 0.085271 -0.006332 0.131307 0.023838 -0.203495
section -0.092600 0.067480 0.050757 0.061358 -0.062619 0.114215 0.079576 -0.116941 -0.021216 0.012935 0.055289 0.132736 0.039588 0.067919 0.011934 -0.120719 0.097269 0.032018 0.048511 0.032536 -0.097600
spend -0.041021 0.061474 0.068700 0.201825 0.211136 0.107021 0.010539 -0.035254 0.017610 0.060344 0.085445 0.026126 0.196258 0.141788 -0.059699 -0.037597 -0.145496 -0.205711 -0.108905 0.010129 -0.551475
suitabl -0.025955 0.005891 0.046694 0.126083 0.063566 0.113254 -0.028006 -0.010476 0.034521 0.000816 0.055513 0.084677 0.109873 0.127885 -0.036528 -0.089848 -0.049531 -0.057233 -0.053952 0.042594 -0.428434
tend 0.139268 0.135288 0.078877 -0.078495 -0.085687 -0.026368 -0.099668 -0.093255 -0.075756 -0.029131 -0.150722 -0.074531 -0.097580 -0.005071 0.009235 0.081923 0.102014 0.059983 0.106137 0.056291 -0.250092
visual 0.121117 0.116270 0.075729 -0.021235 0.062324 0.005317 0.008566 0.018452 -0.038619 0.069957 -0.072051 -0.093527 -0.093102 0.024372 0.005899 -0.034885 -0.053419 -0.010337 -0.050823 0.028111 -0.206548
voic 0.004982 0.050008 0.091306 0.039590 -0.041782 -0.027624 -0.061141 -0.011654 -0.051424 0.030639 -0.026220 -0.019941 -0.004588 -0.042928 0.008630 0.025725 0.038144 0.009351 0.062905 0.085636 -0.228349
week 0.052067 -0.003969 0.052198 -0.073827 -0.013082 -0.066985 -0.008423 0.004632 -0.079369 -0.090948 -0.098468 -0.108270 -0.155656 -0.003789 -0.001391 0.031896 0.057378 -0.021944 0.047546 -0.042309 -0.344904
whilst -0.044888 -0.111542 0.018330 -0.065074 -0.005285 -0.022500 -0.017771 -0.071457 0.064696 -0.014020 -0.055441 0.035164 0.002894 -0.036879 -0.035353 0.052369 0.017980 0.004986 0.071079 -0.015959 -0.376336
written 0.051587 0.028807 0.046216 -0.103412 -0.078298 0.018329 0.036206 -0.002300 0.070848 0.001685 -0.090085 0.121564 -0.067082 0.036583 0.097955 -0.067266 0.037565 -0.026400 0.073072 -0.016444 -0.150843
affect 0.040184 0.084687 0.068385 0.061166 0.045500 -0.097373 -0.060366 -0.027729 -0.125944 -0.087109 -0.029489 -0.003547 -0.045057 -0.050155 0.000194 0.088017 0.074392 -0.020173 0.035240 0.086140 -0.329255
board 0.109872 -0.082479 -0.081208 0.024272 0.128753 -0.091567 -0.008844 0.122559 -0.096363 0.004709 -0.048025 -0.150876 -0.053592 -0.035654 0.073890 0.101956 -0.013045 -0.053631 -0.100317 0.084673 -0.339062
chanc 0.007402 0.016574 0.007136 -0.013892 -0.000011 0.091648 0.020958 0.002609 0.011020 -0.001612 -0.020481 0.034005 0.002410 0.012698 0.002407 -0.031909 0.034120 0.026465 0.028594 0.011307 -0.394139
classroom 0.168203 0.144717 0.069081 0.010679 0.000097 -0.071491 -0.063006 0.002486 -0.105479 0.034262 -0.103390 -0.035679 -0.149444 -0.040630 0.049165 0.033167 0.037788 -0.008454 -0.026891 0.008659 -0.358384
contact 0.255609 0.084294 0.027501 -0.071034 0.055142 -0.049196 -0.078377 0.043850 -0.037060 0.030288 -0.166059 -0.114118 -0.155387 -0.021141 0.038723 0.023312 0.029057 0.115626 -0.021882 -0.007016 -0.141748
difficulti 0.196887 0.127321 0.046593 -0.044540 0.040020 0.039273 -0.081437 -0.020505 -0.074094 0.005040 -0.139097 -0.063456 -0.145717 0.019611 0.037536 0.044364 0.004505 0.018011 0.012726 0.044833 -0.149249
doubt 0.152231 0.089002 0.075768 -0.046538 0.008365 -0.002866 -0.078251 0.005231 -0.061524 -0.012207 -0.150379 -0.124999 -0.222236 -0.006468 0.044899 0.005571 0.131867 0.136346 0.050027 -0.004246 -0.338940
easiest 0.090348 0.040919 0.034554 -0.110220 -0.036384 0.154968 -0.002482 0.026746 -0.009439 0.106960 -0.096463 -0.005157 -0.182706 0.028508 0.033236 -0.011479 0.009677 0.045552 0.010949 -0.033248 -0.250043
enough 0.038767 0.005420 0.037643 0.104505 0.072184 -0.080178 -0.079561 0.053984 -0.015387 0.024624 -0.000116 -0.089894 0.023263 -0.047479 -0.036455 0.006715 -0.156274 -0.020707 -0.057709 -0.018258 -0.399825
essenti 0.101911 0.131019 0.049978 -0.021227 0.079534 0.015703 -0.022747 0.047194 -0.108112 0.064991 -0.012290 -0.019085 -0.095644 -0.037523 -0.004006 0.028468 0.042449 -0.016403 -0.008079 0.053023 -0.176968
extra -0.049474 -0.040380 0.015167 -0.034297 -0.071477 0.105039 0.019814 -0.086699 0.083272 0.095833 -0.053233 0.099982 -0.002873 0.036102 -0.007701 -0.008156 0.000716 -0.003564 0.111872 -0.012848 -0.291447
faster -0.067023 -0.053175 -0.050807 0.026933 0.018606 0.033362 0.013351 0.000876 0.064160 -0.015192 0.034833 0.007776 0.057123 -0.005354 -0.029662 0.014404 -0.056386 -0.050396 -0.000570 -0.012376 -0.452440
forward 0.065955 0.060639 0.105043 0.023560 -0.106850 0.083695 0.028274 -0.047530 -0.091516 -0.048642 -0.106320 0.078341 -0.119936 0.001855 0.066052 -0.025395 0.215555 0.119895 0.154367 0.094960 -0.125314
grasp 0.133093 0.138046 0.044709 -0.044164 0.007994 0.098313 -0.001927 0.021812 -0.008962 0.051127 -0.106459 0.037295 -0.137837 0.007571 0.023937 -0.016403 0.055049 0.053995 0.011935 0.099963 -0.275532
instructor 0.100257 0.037737 0.000459 -0.045480 0.031027 -0.022811 -0.017983 -0.046029 -0.025949 -0.003333 -0.029974 -0.038236 -0.046810 0.043516 0.044962 0.054196 0.096830 0.035027 0.110135 0.050108 -0.498958
plu -0.087174 0.001709 -0.029796 0.080110 0.058110 0.109059 0.059553 -0.020083 0.039569 -0.024134 0.087429 0.072594 0.112302 0.030280 -0.018500 0.002172 0.014161 0.005457 0.016688 0.014759 -0.553564
present 0.065689 0.071608 0.022339 0.011519 -0.034615 0.000229 0.009989 -0.014860 0.020008 0.002533 0.006902 0.037816 0.003090 0.029344 -0.034084 -0.026326 -0.029191 0.013053 0.006981 0.041399 -0.372318
quickli 0.138606 0.118851 0.072501 -0.055366 0.033966 -0.019534 -0.038933 -0.004107 -0.063563 -0.021993 -0.056626 -0.069733 -0.160251 0.018554 0.008272 0.067169 0.067538 -0.012172 -0.032458 0.004772 -0.275598
routin 0.291734 0.244478 0.235912 0.017128 0.090196 0.061540 -0.114917 -0.034946 -0.127453 0.071300 -0.148450 -0.046996 -0.261384 0.092102 0.014790 0.049888 -0.004859 0.033409 -0.049412 0.044566 -0.345523
save 0.061946 0.135256 0.092926 0.250721 0.215902 0.066293 -0.063008 -0.041400 0.017515 -0.030645 0.018569 0.046765 0.173205 0.156275 -0.030771 -0.056367 -0.096598 -0.165840 -0.100578 0.093427 -0.516491
taught 0.077794 0.109479 0.015208 -0.024869 -0.041071 -0.035841 0.035547 -0.000305 0.018138 -0.011724 -0.091668 -0.036830 -0.111161 -0.010641 0.062595 -0.005586 0.089290 0.100592 -0.027815 -0.009398 -0.338017
therefor 0.064013 0.038826 0.036401 -0.007502 -0.030413 -0.008704 0.005517 -0.045928 0.006238 0.002257 -0.038976 0.067652 -0.047930 0.026136 0.006613 -0.007626 0.068567 0.021582 -0.035836 0.088229 -0.409866
they’r 0.041042 0.032053 0.084160 0.000703 -0.015047 -0.051446 -0.072286 -0.059381 -0.102546 0.027384 -0.109357 -0.073142 -0.108812 -0.072714 0.025309 0.052275 0.016771 0.011204 0.000308 0.046335 -0.129594
uncomfort 0.092962 0.017750 0.041607 -0.042442 0.015740 -0.153104 -0.021359 0.038415 -0.098529 0.040158 0.000553 -0.091240 -0.181955 -0.121601 0.034865 -0.020185 -0.019759 -0.003161 -0.039496 -0.120483 -0.450749
wherea -0.060429 -0.037612 0.046762 0.083415 0.097570 -0.047578 0.030867 0.076063 -0.039135 -0.004286 0.081569 -0.038527 0.105257 -0.016927 -0.012651 -0.017906 -0.115682 -0.054514 -0.046721 -0.036373 -0.397326
absorb 0.009579 0.087133 0.090117 -0.057343 -0.031888 0.115597 0.047773 -0.024674 -0.041267 0.034933 -0.014608 0.054767 0.016997 0.104139 0.054928 -0.139733 0.033646 -0.023495 0.009306 -0.044943 -0.579890
activ 0.031022 -0.016895 0.007778 -0.059421 -0.036740 -0.017362 0.019829 -0.022671 -0.034832 0.047701 -0.062115 -0.030890 -0.146101 -0.017675 -0.015359 0.022446 -0.008133 0.030703 0.019780 0.022769 -0.346644
ahead 0.111218 0.088003 0.041914 0.088555 0.003657 0.013147 -0.065706 -0.000870 -0.072293 0.018564 -0.063000 -0.050668 0.049462 0.042141 -0.014792 0.035916 0.055427 0.038400 -0.060020 0.064198 -0.240518
alongsid 0.091223 0.073266 -0.019898 -0.108916 -0.017725 0.106121 -0.007180 -0.002098 0.003314 0.006430 -0.068012 0.061263 -0.100160 0.037559 0.018990 -0.013434 0.064370 0.045633 0.080521 0.043028 -0.341822
amount 0.107270 0.152378 0.158378 0.086549 0.115225 0.013954 -0.020990 0.029667 -0.063805 0.008243 -0.013166 -0.046469 -0.052599 0.048455 0.046100 -0.014362 -0.022862 -0.028836 -0.048291 0.027465 -0.330978
anoth 0.099810 -0.091252 -0.024122 -0.071453 0.094808 -0.092692 -0.061867 0.117955 -0.007046 -0.034931 0.007389 -0.082599 -0.059614 -0.080191 -0.026633 0.078007 -0.095068 -0.031386 -0.041408 -0.103835 -0.427153
anyway -0.094868 -0.103145 -0.010625 0.013127 -0.022978 -0.078912 -0.021454 -0.052968 -0.016736 -0.064730 0.002774 0.017636 0.094274 -0.025873 0.000774 0.104243 0.043356 -0.096355 0.013790 0.036372 -0.412908
arent 0.091901 0.015846 0.053031 -0.049886 0.007913 -0.079395 -0.033402 -0.006519 -0.080185 -0.048777 -0.055487 -0.071291 -0.118497 -0.017366 0.021773 0.019249 -0.000693 -0.044860 0.016968 -0.019310 -0.370154
bad 0.095258 0.034056 -0.003688 -0.029268 -0.029734 0.005834 -0.039368 0.000207 0.018155 0.012232 0.022142 -0.003218 -0.079876 -0.062767 0.047428 0.052444 0.012131 0.106088 0.021297 0.041029 -0.241616
clear 0.107718 0.048128 0.055904 -0.045517 0.011945 0.055757 -0.047985 0.016893 -0.027472 0.064330 -0.097684 -0.045442 -0.114791 -0.013747 0.030800 -0.018120 -0.002612 0.061205 0.031030 0.027189 -0.106127
control 0.124906 0.051251 -0.075057 -0.049716 -0.026973 0.084786 -0.019183 0.039696 0.024368 0.047336 -0.026120 0.003905 -0.068235 0.016331 -0.043701 0.001365 0.003477 0.089494 -0.026300 0.008269 -0.363973
cover -0.066876 -0.098263 -0.056430 -0.043393 -0.021313 -0.037876 0.008084 0.031479 0.009746 -0.126738 -0.015285 -0.054251 0.023285 0.035848 0.080339 -0.030284 0.048993 -0.091430 -0.040871 0.012115 -0.466852
creat 0.166465 0.140645 0.082540 -0.017867 0.010261 0.078691 -0.025903 -0.042770 -0.021384 0.048255 -0.071863 0.117439 -0.141445 0.000259 -0.007970 0.001113 -0.034285 -0.014624 -0.005250 0.058647 -0.063698
current 0.123644 0.069665 0.025075 -0.036245 0.025615 0.089513 0.008577 0.003472 -0.004667 0.017166 -0.096270 -0.001602 -0.103951 0.026622 -0.027863 0.040317 0.004319 0.046305 -0.017445 0.000832 -0.269604
degre 0.140362 0.067047 0.050533 -0.029358 0.027771 0.032245 -0.046885 0.037050 -0.021786 0.026961 -0.097840 -0.018091 -0.084004 -0.001418 -0.010593 0.022503 0.028013 -0.004446 -0.015733 -0.028787 -0.449141
effect 0.127382 0.159327 0.033005 -0.073224 0.047625 0.123433 0.035634 0.000190 -0.030669 0.067234 -0.068758 0.009668 -0.124626 0.041145 0.027823 -0.020013 0.027059 0.037763 0.034341 0.018441 -0.336080
enabl 0.016740 0.039766 -0.047259 0.006471 -0.003889 -0.004855 -0.005480 -0.033063 -0.004762 -0.009103 -0.035682 -0.001725 0.002962 0.007603 -0.014613 0.068733 0.062347 0.021970 -0.007932 0.042386 -0.399519
enjoy -0.021365 -0.024610 -0.025402 0.070815 -0.014415 0.012354 0.017288 0.017674 0.035921 -0.050412 0.022008 0.020056 0.023959 -0.079594 -0.002930 -0.012222 -0.013253 -0.009599 0.088975 0.019859 -0.629311
happen -0.015209 -0.019597 0.028694 0.030386 0.040242 0.005522 -0.015597 -0.013030 0.032976 -0.041957 -0.024871 -0.020739 -0.016156 0.026686 0.035031 -0.009019 -0.012421 -0.005520 -0.059301 0.044725 -0.491193
havent 0.142490 0.112343 0.093491 -0.099255 -0.047306 0.052881 -0.007547 -0.007817 -0.112645 0.025545 -0.087957 -0.046228 -0.177181 -0.032382 0.071099 -0.057812 0.093678 0.129922 0.063934 -0.014085 -0.461057
i’v 0.067275 0.087182 -0.004253 -0.037577 0.008545 0.044764 -0.013968 -0.029550 0.004909 -0.034921 -0.031082 -0.018135 -0.076425 -0.000799 0.010574 -0.001989 0.096746 0.059470 0.003446 -0.020569 -0.285394
idea 0.111341 -0.019928 0.038706 -0.160221 -0.075474 -0.089259 -0.002077 0.013006 -0.091334 -0.003609 -0.096249 0.055728 -0.138413 -0.009372 0.083236 -0.054520 -0.016551 -0.054098 0.092101 -0.020243 -0.291081
increas 0.017388 0.095376 0.102577 0.038363 -0.004182 0.036136 0.005607 -0.013565 -0.048250 0.016328 0.007933 0.009332 -0.016874 0.018703 0.026609 -0.101867 -0.004915 0.034897 -0.004668 -0.022485 -0.367139
isnt -0.040769 0.020636 -0.025764 -0.014468 -0.064400 0.024928 0.083739 -0.036428 -0.044439 0.034875 -0.006076 0.041458 -0.039265 -0.043213 0.064913 -0.017620 0.051442 0.021111 0.069228 0.023018 -0.405215
least -0.085926 -0.114636 -0.041571 -0.003839 -0.018693 -0.154888 -0.015579 -0.005474 -0.034299 -0.051214 -0.008311 -0.003559 -0.004636 -0.084147 -0.005359 0.038234 -0.001560 -0.031899 0.009532 -0.021956 -0.644108
leisur -0.140302 -0.072722 -0.078125 0.002770 -0.078802 0.080824 0.079979 -0.076226 0.095466 -0.010599 0.060460 0.135744 0.109762 0.017825 -0.021591 -0.076834 0.038048 -0.013289 0.136263 -0.013531 -0.726020
level 0.145011 0.110194 0.102342 -0.093654 -0.094441 0.055741 -0.006856 -0.087064 -0.096837 0.020592 -0.083602 -0.031076 -0.182633 0.014092 0.064785 0.007544 0.114549 0.098090 0.064321 0.039868 -0.355965
life 0.181379 0.108858 0.139814 0.037346 0.065073 0.150798 -0.036083 0.033697 -0.108992 0.047844 -0.098834 0.028126 -0.155338 0.072112 0.031422 -0.042279 -0.044148 0.002868 -0.026892 0.071687 -0.236772
limit -0.013876 0.080429 0.053596 0.200497 0.140263 0.123101 -0.037458 0.001544 -0.001855 0.023481 0.064968 0.027510 0.124128 0.116270 -0.056741 -0.058265 -0.055995 -0.108355 -0.068162 0.041887 -0.425684
organis 0.140864 0.088747 0.004882 -0.020330 0.046227 0.083482 -0.039431 0.006822 -0.042007 0.048167 -0.074677 0.006040 -0.076754 0.029197 0.019354 0.016533 0.004585 0.015843 0.011251 0.006780 -0.256726
particular -0.055780 0.065401 0.008465 0.039255 0.023288 0.057920 0.039013 0.027057 0.082846 0.011180 -0.001540 0.012510 0.089490 0.074866 -0.021773 -0.109011 -0.037478 -0.025069 -0.055550 0.027658 -0.440892
prof 0.041803 0.096887 0.082126 -0.036630 -0.082897 0.110763 0.020282 -0.041380 -0.068712 0.022656 -0.059006 -0.013297 -0.096164 -0.021479 0.060818 0.002969 0.121295 0.129151 0.099507 0.072938 -0.323628
resourc -0.155661 -0.066738 0.030191 0.027391 -0.039293 0.007226 0.036083 -0.025127 -0.058310 0.010204 0.023963 0.056351 0.110767 -0.037867 0.013550 -0.015291 -0.032008 -0.003771 0.048631 -0.035849 -0.462330
second 0.046336 0.100667 0.062350 0.088418 0.061188 0.079982 -0.028575 0.018818 -0.061589 -0.003362 0.014198 0.018084 -0.012311 0.065204 0.012785 -0.061981 -0.041852 -0.029408 -0.036753 0.023204 -0.311394
sever -0.195017 -0.088106 -0.111069 0.251088 0.212593 0.088784 0.005187 0.040010 0.143720 0.019823 0.187164 0.026363 0.290548 0.146872 -0.091535 -0.019522 -0.146442 -0.114562 -0.063459 -0.026666 -0.587753
stay 0.224648 0.127227 0.180053 -0.129193 -0.101494 0.016710 0.022098 -0.037665 -0.192922 0.073744 -0.173361 0.120830 -0.276374 -0.043722 0.063914 -0.001789 0.041480 -0.029260 0.044532 0.028527 0.020173
term 0.048385 0.088053 0.050216 0.005107 0.037435 0.047270 0.001138 -0.032395 0.000563 0.037948 -0.021107 0.049134 -0.008933 0.028053 0.020136 -0.025471 0.030344 0.037169 0.037215 -0.005404 -0.356724
thought 0.050080 0.041194 0.070348 -0.037837 0.049879 -0.085176 -0.013056 0.006807 -0.055172 0.007832 -0.075407 0.005062 -0.124656 -0.077161 0.044324 0.032251 -0.049629 -0.081305 -0.017479 -0.019531 -0.454371
tutori 0.174489 0.063469 0.048352 -0.061116 -0.020137 -0.048009 -0.114225 0.068048 -0.073858 0.071047 -0.113030 -0.086010 -0.194526 -0.047904 0.067950 -0.024400 0.096981 0.116235 0.024054 -0.105333 -0.261930
via -0.023737 -0.132265 -0.015099 0.016537 -0.014186 -0.064400 -0.091715 -0.036080 0.039456 -0.032415 -0.001365 -0.045044 0.092876 0.041476 -0.032526 0.006421 -0.010687 0.020126 0.043592 -0.034833 -0.379054
wast 0.126643 0.148856 0.100129 0.223128 0.217742 0.081167 -0.059414 0.017743 0.009354 0.064326 0.019960 -0.009823 0.072816 0.168906 -0.056868 -0.036419 -0.181211 -0.166275 -0.169473 0.064995 -0.510021
whole 0.099243 0.037390 0.081810 -0.036911 -0.002698 -0.020672 -0.058746 0.009644 -0.067997 -0.064511 -0.135567 -0.119092 -0.172936 -0.029650 0.030273 0.041240 0.056004 -0.033120 -0.009318 0.053035 -0.390828
worker 0.158723 0.069721 0.022049 -0.081169 0.100303 0.037912 -0.046564 -0.000021 -0.086765 0.032416 -0.089754 0.000950 -0.245536 -0.022484 -0.008189 -0.009689 0.087429 0.060295 0.060984 -0.022751 -0.058443
1 0.145654 0.054249 0.053042 -0.017772 0.100938 -0.004324 -0.060039 0.034234 -0.039747 0.023346 -0.085807 -0.085227 -0.134107 -0.022477 0.027785 0.030823 0.005786 0.001658 0.035959 -0.012871 -0.390172
add 0.036206 0.005568 0.084217 -0.020182 -0.006554 -0.020345 -0.008639 -0.035369 -0.009907 -0.012840 -0.015028 0.055365 -0.041994 -0.017464 0.045063 0.023909 0.007397 -0.085965 0.017967 -0.017575 -0.315021
audio 0.127680 0.106080 0.052973 0.057794 0.113096 -0.008736 -0.068682 0.005971 -0.041056 0.032455 -0.105236 -0.089155 -0.074422 -0.028898 0.001027 0.037402 -0.023030 -0.012103 -0.060166 0.053723 -0.208186
away 0.149393 0.132262 0.083041 -0.087492 0.030051 0.042483 0.007158 -0.016083 -0.068927 -0.007779 -0.114295 -0.051019 -0.205447 0.019171 0.087861 0.012208 0.124811 0.116495 0.045391 0.047926 -0.033293
bc -0.084478 -0.077014 0.031048 -0.005801 -0.043405 -0.140718 0.024263 -0.047874 -0.043759 -0.066096 0.043643 0.008461 0.001378 -0.080901 0.065537 0.034272 0.075835 -0.030507 0.067502 0.007680 -0.171206
book 0.084059 0.058381 0.034505 -0.073238 0.005913 -0.003844 -0.074649 -0.017586 -0.029378 0.017572 -0.084613 -0.076143 -0.149221 -0.004043 0.005124 0.016795 0.096791 0.066481 0.075230 -0.018846 -0.343354
classmat 0.195335 0.066565 0.086099 -0.036765 0.020957 -0.073766 -0.055250 -0.024182 -0.061655 -0.025841 -0.158290 -0.079655 -0.170097 -0.021941 0.041771 0.088153 0.022837 0.018536 0.006871 0.043350 -0.290272
commit 0.058862 0.044844 0.013404 0.032272 0.044038 0.058082 -0.041598 -0.023201 -0.010769 -0.005785 -0.012140 -0.041598 -0.020918 0.038569 0.003974 -0.013885 -0.022453 0.007771 -0.035583 0.032032 -0.396907
commun 0.178761 0.133870 0.089518 -0.094184 0.000890 0.112293 -0.015679 0.014271 -0.093585 0.010631 -0.156142 -0.031344 -0.176573 0.013954 0.055610 0.023091 0.065046 0.110800 0.029321 0.009666 -0.274094
data 0.123716 0.059246 0.054936 -0.031256 0.025171 -0.002591 -0.043360 0.048681 -0.010930 0.037463 -0.029394 -0.072927 -0.102325 -0.025767 -0.022612 0.010112 -0.015570 0.016225 -0.034408 0.004512 -0.033556
depth 0.066531 0.072187 0.045105 -0.101812 0.000641 0.056183 -0.011736 -0.069951 -0.069817 -0.029479 -0.059888 -0.059072 -0.185985 0.036161 0.052293 -0.036865 0.086119 0.051465 0.029663 -0.012469 -0.323984
earli 0.097623 0.060964 0.128422 0.023994 -0.017475 0.016850 -0.015547 -0.017957 -0.067303 0.038324 -0.054350 -0.040001 -0.070761 0.067681 0.029659 -0.020774 -0.020646 -0.050153 -0.030247 0.039014 -0.435210
famili 0.228083 0.161341 0.106109 -0.045893 0.036775 0.080480 -0.025384 0.010552 -0.033190 0.031204 -0.121898 -0.003370 -0.222262 0.060441 -0.006824 -0.031368 0.020494 0.041657 0.003298 0.007266 -0.380273
found 0.205445 0.138604 0.142074 -0.055223 -0.001497 -0.036627 -0.072592 0.057964 -0.099245 0.031179 -0.135366 -0.121493 -0.271955 -0.042470 0.055533 -0.017093 0.047991 0.056999 -0.004456 -0.046101 -0.479054
gain 0.052560 -0.021093 0.044643 -0.056758 -0.030856 -0.012926 0.030054 0.019186 -0.033674 0.011820 -0.027848 -0.046949 -0.125436 -0.060565 0.007293 0.042775 -0.025943 0.014484 -0.009240 -0.067676 -0.272996
inperson -0.005946 -0.008920 0.021874 0.016311 0.008216 -0.028702 -0.041186 -0.031854 -0.008232 -0.074591 0.016597 0.037206 0.033779 0.041316 -0.022146 0.015195 0.083300 -0.074727 -0.002342 0.037183 -0.365389
languag 0.126784 0.073413 0.082761 -0.067297 -0.035993 0.098050 -0.037384 -0.037898 -0.032118 0.026156 -0.090539 -0.025521 -0.149573 0.035550 0.037862 -0.023284 0.059628 0.027929 0.044084 0.008653 -0.271503
long 0.078969 0.095772 0.046616 0.047118 0.076600 0.068246 -0.032248 -0.013890 0.060753 0.068821 -0.024524 -0.021580 0.039233 0.089108 0.009624 -0.045829 -0.066422 -0.004806 -0.051654 0.007326 -0.550364
made 0.100329 0.058953 0.041511 -0.014374 0.014343 0.058955 -0.011349 0.013792 -0.059036 0.030654 -0.026698 -0.017051 -0.107169 0.028135 0.004948 0.003032 0.050996 0.042134 0.022263 -0.022443 -0.226866
math 0.105161 -0.010420 -0.060679 -0.079136 0.011449 0.091954 0.009107 0.061454 0.027237 0.038342 -0.045950 -0.052864 -0.139547 0.020356 -0.046830 0.035082 -0.005800 0.028231 -0.026357 -0.029293 -0.152053
mayb -0.015252 -0.001311 0.014205 -0.013012 -0.036159 -0.007536 0.019502 -0.024190 -0.056993 -0.031263 -0.014456 -0.038089 -0.030175 -0.049402 0.022883 -0.008173 0.087158 0.027578 0.033113 0.018398 -0.511474
offer 0.046584 -0.025003 0.002176 -0.025040 0.004456 0.015304 0.006531 -0.034473 -0.051277 0.021646 -0.086921 -0.013712 -0.074854 -0.065290 -0.016560 0.071275 0.002393 0.025675 0.036452 0.012038 -0.395345
physic 0.074025 0.065549 0.030644 -0.048507 0.023457 -0.038149 -0.058917 -0.004554 -0.078355 0.051029 -0.085831 -0.049122 -0.153270 -0.087094 0.048424 0.062882 0.028693 0.054226 -0.012521 0.010195 -0.346295
place 0.066877 -0.011327 0.015904 -0.043669 -0.025332 0.015897 -0.029290 -0.001087 0.024034 0.064432 -0.068730 -0.054528 -0.057972 0.011096 -0.015353 0.042192 -0.034313 0.003043 0.001540 -0.017520 -0.420513
pleas -0.061678 -0.035200 0.004048 0.085457 0.045972 -0.027637 -0.035063 0.027256 0.029640 -0.023416 0.034107 0.072594 0.074153 -0.016091 -0.049284 0.030231 -0.039139 0.001004 -0.002928 0.063526 -0.580671
practic 0.165258 0.160656 0.106572 -0.079910 -0.041697 0.116911 -0.048230 -0.052056 -0.115764 0.028777 -0.133760 -0.017477 -0.180509 0.024185 0.028440 -0.009049 0.063360 0.080708 0.047906 0.031868 -0.017383
quiet 0.229323 0.139329 0.130418 0.024215 0.040145 0.054668 -0.048790 -0.061388 -0.070129 0.016319 -0.127810 -0.110833 -0.171686 0.036061 0.042917 0.016765 0.035731 0.073070 0.001449 0.011195 -0.282683
reli 0.190494 0.166247 0.119298 -0.103756 -0.016535 0.040601 -0.080158 -0.048889 -0.116689 0.036407 -0.182326 -0.038847 -0.217728 -0.001867 0.053325 -0.000525 0.045727 0.077175 0.040461 0.019893 -0.309235
respons 0.096466 0.084055 -0.005884 -0.051150 -0.015532 0.066125 0.006297 -0.012951 -0.048174 0.051452 -0.051447 0.010939 -0.123982 0.025647 -0.026778 0.022313 0.027183 0.086100 0.037911 0.008270 -0.384394
retain 0.108965 0.084533 0.007843 -0.062600 -0.006756 0.050943 0.043103 0.084248 -0.052972 0.050046 -0.034765 0.046378 -0.055058 -0.028660 0.047733 0.003015 0.016827 0.062538 0.006552 -0.018331 -0.239579
rhythm 0.048801 0.037884 0.008285 -0.054181 0.050200 0.063312 -0.016106 -0.004738 0.012771 0.028517 -0.005155 -0.011060 -0.058946 0.038727 -0.032804 -0.000556 0.035897 0.060292 -0.005566 -0.049773 -0.386880
right 0.053045 0.105852 0.042728 -0.003081 -0.006069 0.020198 0.024461 -0.065985 -0.052892 0.001963 -0.053200 0.050984 -0.041406 0.046686 0.052079 -0.013025 0.038760 0.028660 0.067618 0.009039 -0.222367
small 0.135261 0.114381 0.119785 0.002218 -0.023867 0.080217 -0.063453 -0.029804 -0.098801 0.013081 -0.082314 -0.013822 -0.109403 0.051810 0.019897 -0.011156 0.072018 0.086585 0.059517 0.059656 -0.329412
technolog 0.255868 0.155737 0.141711 -0.061803 0.000812 0.028387 -0.076797 -0.011964 -0.124232 0.016329 -0.147378 -0.093123 -0.275746 -0.004071 0.041835 0.077318 0.066400 0.064058 0.040362 0.059129 -0.294357
tempo -0.007520 -0.017900 -0.014250 -0.058995 0.000876 0.028256 0.001342 0.001221 0.007571 0.048894 0.002262 -0.008961 -0.018477 -0.024048 -0.041861 0.008197 -0.046382 0.006926 0.006986 -0.012761 -0.221122
thoroughli -0.061929 -0.067896 -0.092976 0.004019 0.023410 -0.153010 0.042036 0.050867 0.076630 -0.100133 0.087479 -0.005603 0.076035 -0.023744 0.002564 0.065008 0.020127 -0.100302 -0.063169 0.022393 -0.660947
unabl 0.059850 0.003398 0.067998 -0.037574 -0.025858 -0.148520 -0.051317 0.035930 -0.086969 0.004257 -0.003488 -0.100144 -0.096511 -0.068128 0.041873 0.035984 0.034617 0.052278 0.063642 -0.017434 -0.256111
unlik 0.051488 -0.009907 0.026230 -0.073631 -0.042057 -0.031061 -0.062782 0.074176 -0.051155 0.029200 -0.012375 -0.025806 -0.142218 -0.046231 0.028682 0.031473 0.069722 0.068442 0.060824 -0.100397 -0.321355
your 0.026243 0.019188 0.006713 0.033339 0.012346 -0.031712 0.003993 0.048087 -0.014334 0.012721 -0.024500 -0.002647 -0.092730 -0.114298 0.017172 0.023234 -0.039303 0.029845 0.059160 0.045961 -0.449332
2x -0.132391 -0.127856 -0.080042 0.037152 -0.033481 0.020242 0.029968 0.002427 0.061242 0.017446 0.044126 0.116855 0.100170 -0.044154 -0.047818 0.070115 -0.051642 0.037057 0.073718 0.018927 -0.540614
accommod 0.158287 0.127212 0.019718 -0.042752 0.019899 0.069788 -0.077258 -0.002014 -0.064376 0.023098 -0.129511 -0.030563 -0.143943 -0.017943 0.026138 0.044451 0.000244 0.054609 -0.003416 -0.003032 -0.376736
addit 0.090534 0.090269 0.072843 0.003828 -0.039178 0.068347 -0.007439 -0.039792 -0.069242 0.006156 -0.092420 -0.013663 -0.112160 0.020953 0.051830 0.024703 0.068221 0.066335 0.011549 0.080596 -0.544609
afterward -0.053065 -0.015026 -0.080837 -0.012379 -0.013020 -0.066362 0.065197 0.011430 0.075278 -0.033283 0.020979 0.021879 0.089369 0.017779 -0.030310 0.029856 0.002276 -0.002709 -0.005940 0.078618 -0.604907
alon 0.157641 0.087676 0.043377 -0.068351 0.034915 -0.005710 0.003461 0.000101 -0.037456 0.045149 -0.077122 -0.063860 -0.137467 -0.010157 0.027777 0.009555 0.023317 0.072727 -0.000914 0.005614 -0.594779
anyon -0.062556 0.001288 -0.028852 0.024140 0.040802 0.062704 -0.010009 0.041362 0.016759 0.041067 0.069509 0.014639 0.072250 -0.001483 -0.021997 -0.042751 -0.041001 0.023944 -0.007693 0.006150 -0.617897
avoid 0.087065 0.134694 0.056580 -0.090167 -0.091907 0.083470 -0.017726 -0.056378 -0.121502 0.014495 -0.079048 -0.038693 -0.145413 0.031206 0.043232 -0.020040 0.086336 0.106710 0.046271 -0.003118 -0.342290
benefici 0.129634 0.067142 0.049577 -0.026968 0.007660 -0.005851 -0.015947 0.027304 -0.010899 0.051773 -0.052850 -0.044235 -0.097380 -0.006575 0.030886 0.035338 0.012680 0.004856 -0.029873 0.030512 -0.435864
benefit 0.123671 0.121065 0.060782 -0.075397 -0.016371 0.039118 -0.062252 -0.016148 -0.094127 -0.021910 -0.090114 -0.027725 -0.142532 0.033524 0.010218 0.025880 0.079091 0.082323 0.046110 0.046116 -0.416017
can’t 0.031745 -0.019255 -0.002830 -0.059429 0.003455 -0.105219 -0.042589 0.013308 -0.062368 -0.034881 -0.028183 -0.043759 -0.049064 -0.039468 0.045080 0.047783 0.029448 0.020699 0.034577 0.013008 -0.565508
challeng -0.014944 -0.035273 -0.013900 -0.067241 -0.030682 -0.004904 0.013098 -0.010043 0.004080 -0.046825 -0.028845 0.008255 0.019379 0.013201 0.041796 0.016019 0.062250 -0.023274 0.062521 0.028809 -0.740449
chose -0.032514 -0.061417 -0.108835 0.001183 0.085774 -0.029227 -0.028489 0.054012 0.056074 0.007838 0.028946 -0.015662 0.092049 -0.068336 -0.052122 0.086764 -0.039632 -0.020796 -0.054185 0.025742 -0.737373
clarif -0.013569 0.057937 0.020994 -0.125106 -0.090651 0.124901 -0.025786 -0.071847 0.037848 0.075115 -0.104838 0.060427 -0.025103 -0.007048 -0.032085 0.015475 0.040194 0.144974 0.132262 0.046772 -0.492560
clearli 0.109604 0.099181 0.093789 -0.026806 -0.025175 0.043817 -0.015505 -0.058847 0.002046 0.023013 -0.037180 0.008627 -0.107617 0.070594 0.043129 -0.023811 0.034306 0.052066 -0.001786 0.034391 -0.556511
comprehend 0.174684 0.133152 0.065250 -0.046406 -0.001668 0.062455 -0.025397 -0.032119 -0.092383 0.004625 -0.117863 -0.010082 -0.158347 -0.000248 0.053034 -0.024244 0.067321 0.038645 0.031923 0.057092 -0.266944
comprehens -0.097646 -0.111227 0.004995 -0.127254 -0.108841 0.044703 0.135715 -0.061601 0.066244 -0.033574 -0.011840 0.250094 0.046470 -0.007340 0.052995 -0.098006 0.058974 -0.068469 0.140008 -0.021156 -0.546184
conduct 0.063571 -0.000405 0.031370 0.012132 0.086042 -0.082727 0.001374 0.044562 0.037500 0.047342 -0.004095 -0.057235 -0.030196 -0.012241 -0.003695 0.002552 -0.066786 -0.064141 -0.034791 0.009466 -0.406312
confus 0.000250 0.008047 -0.028344 0.070485 -0.028775 0.049647 -0.015479 -0.023263 -0.037770 -0.016677 0.044617 0.031068 0.066660 0.032289 -0.035573 -0.011035 0.031113 0.017564 -0.034801 0.028029 -0.547531
consult -0.043986 0.040353 -0.036317 -0.041454 -0.054785 0.031739 0.057491 -0.012304 0.001920 -0.038905 -0.016648 0.083490 -0.008749 -0.011553 0.031274 -0.004104 0.048955 0.035151 0.057878 0.031224 -0.454363
couldnt 0.043180 -0.022320 0.014834 -0.031325 -0.058660 -0.062889 -0.018207 -0.032924 -0.069441 -0.011926 -0.077591 -0.017463 -0.087204 -0.034860 -0.024347 0.061632 0.020187 -0.006090 0.001245 0.065556 -0.448769
covid 0.059577 0.089752 0.043901 -0.013818 0.005634 0.078334 0.021893 0.020976 -0.063498 0.034683 -0.043691 0.012979 -0.086880 -0.054451 0.075490 -0.002898 0.044343 0.035889 0.028738 0.036110 -0.215914
daili 0.219097 0.199032 0.064024 -0.100649 -0.028929 0.100701 -0.074802 0.013349 -0.033755 0.038183 -0.178091 -0.024720 -0.200018 -0.007470 0.026005 -0.017838 0.029250 0.067359 -0.044701 0.036847 -0.230492
deliv 0.125788 0.107667 0.070753 -0.054432 0.013492 0.039863 -0.009424 0.054374 -0.059184 0.045199 -0.091364 0.043694 -0.106971 -0.016083 0.062036 0.014958 -0.049291 -0.011543 -0.028000 -0.048221 -0.189538
direct 0.092625 0.060104 0.010227 -0.040271 0.046891 0.016732 -0.000040 0.057275 -0.030959 0.026708 -0.074789 -0.032160 -0.028489 -0.003082 0.038206 0.004435 -0.019166 0.008205 -0.028461 -0.027595 -0.498232
directli 0.028502 0.032238 0.008970 -0.013681 0.000948 0.044886 -0.032093 -0.022981 0.035232 0.008054 -0.002001 0.031642 0.020182 0.061589 0.008099 -0.015145 0.063873 0.035875 0.068941 0.018957 -0.419237
document 0.140264 0.103329 0.090291 -0.059883 -0.070610 0.085025 -0.024173 -0.082380 -0.072507 0.045805 -0.115371 -0.028217 -0.149818 -0.015035 0.076027 -0.005794 0.131104 0.119995 0.086273 0.042195 -0.342515
els 0.111145 0.029807 0.037251 -0.110176 0.015077 -0.060369 -0.049712 0.012561 -0.040968 0.042822 -0.101592 -0.087227 -0.171166 -0.089279 0.051855 0.014570 0.057051 0.012287 0.037411 -0.052221 0.169115
end 0.118429 0.056547 0.038060 -0.029024 0.012828 -0.010780 -0.054673 0.026342 -0.064992 0.015468 -0.114739 -0.079866 -0.179818 0.001632 0.045864 -0.005935 0.019779 0.047822 -0.008504 0.017213 -0.372619
exam 0.202855 0.159866 0.096563 -0.064324 0.004776 0.111525 -0.066340 -0.022214 -0.074562 0.071481 -0.173305 -0.060907 -0.213293 0.019833 0.020344 0.013263 0.090060 0.075721 0.082611 0.064500 -0.371235
facetofac 0.013872 -0.125891 0.007224 0.096137 0.061677 -0.244183 -0.056056 0.030822 -0.025240 -0.133304 0.007722 -0.060816 0.036076 -0.010376 -0.034878 0.169156 0.025014 -0.158874 -0.065567 -0.004324 -0.539872
finish 0.015877 -0.009210 0.011804 0.039228 0.011499 -0.077820 -0.035895 -0.055211 -0.030439 -0.094312 -0.031283 -0.010436 0.013455 0.008416 0.020484 0.019748 0.071968 -0.017179 -0.035827 0.067149 -0.572685
frame -0.058069 0.038471 0.013390 0.089834 0.107046 0.085124 0.007609 -0.010997 0.019236 0.104131 0.056148 0.024048 0.135789 0.082989 -0.065115 -0.015665 -0.090509 -0.025036 0.007249 0.021404 0.006982
googl 0.231991 0.107022 0.110445 -0.103909 0.012828 0.019017 -0.044853 -0.001181 -0.101916 0.020736 -0.136012 -0.136325 -0.321475 -0.043092 0.032839 0.056406 0.066111 0.082912 0.035970 -0.007541 -0.332489
hall 0.014677 -0.056762 0.033950 0.052925 0.013700 -0.146297 -0.053459 -0.020502 -0.044717 -0.111900 -0.038285 -0.000634 0.047980 -0.009298 0.014921 0.118296 0.099288 -0.096429 -0.027319 0.055522 -0.399725
handi 0.041706 0.041131 0.066871 -0.007798 0.016580 0.065107 0.014749 -0.048766 -0.037737 0.015633 -0.057464 0.017461 -0.097448 0.027864 0.045416 0.003032 0.031302 0.021352 0.031072 0.007422 -0.429134
health 0.215238 0.135418 0.122848 -0.072665 0.003027 0.101584 -0.082207 -0.081764 -0.092385 0.038904 -0.159038 -0.073053 -0.242621 0.039444 0.063912 0.022486 0.088784 0.053744 0.013473 0.024255 -0.260333
honestli -0.000135 0.007071 0.026379 0.008634 0.018096 0.026834 -0.013678 0.050296 -0.004235 -0.040204 -0.035070 -0.061082 -0.021578 -0.040825 0.009415 -0.026001 -0.057283 -0.043085 -0.041096 -0.012936 -0.711038
hous 0.094733 0.041094 0.061099 -0.024678 -0.021604 0.050901 -0.033696 -0.012807 -0.071766 0.043425 -0.076923 -0.070851 -0.102381 -0.028849 0.065397 0.016543 0.069143 0.039657 0.074121 -0.012440 -0.330801
human 0.112595 0.111648 0.036942 -0.007171 0.000741 0.008266 -0.023581 -0.023241 -0.076526 0.008641 -0.057919 -0.008148 -0.145314 0.038951 0.025629 -0.014378 0.016287 0.035894 -0.033805 0.059370 -0.266684
ideal 0.114118 0.021195 0.049488 -0.001961 0.086280 -0.041287 -0.041119 0.053991 -0.032120 -0.032980 -0.088074 -0.082744 -0.110564 0.008990 0.036494 0.019855 -0.020631 -0.049626 -0.031113 0.037253 -0.607916
lag 0.074222 0.057986 0.039073 -0.004292 -0.032491 0.043440 -0.012045 -0.002159 -0.019424 0.053809 -0.056646 -0.028880 -0.131584 -0.037280 0.029831 0.011554 0.035564 0.039849 0.062960 0.032370 -0.534702
last 0.204323 0.148259 0.125516 0.009263 0.095708 -0.016049 -0.037721 -0.020710 -0.076874 0.004610 -0.081270 -0.075795 -0.119153 0.023183 0.018215 0.020833 0.009280 0.005706 0.001765 0.036042 -0.438185
let 0.052059 0.078282 0.017982 -0.003073 0.035394 0.125494 -0.022735 -0.008439 0.041633 0.017022 -0.011784 0.017841 -0.027458 0.021432 -0.022455 -0.016277 -0.011996 0.017764 -0.060190 0.015632 -0.646524
love 0.140013 0.117256 0.086540 -0.013670 0.010091 0.029299 -0.030651 -0.015269 -0.036621 -0.000227 -0.088830 -0.023795 -0.162775 -0.025543 0.007131 0.029338 0.023062 0.041663 -0.002774 0.017905 -0.487245
morn 0.105631 -0.006843 0.034749 -0.061300 0.018008 -0.037902 -0.030150 0.022979 -0.079090 0.026127 -0.093362 -0.099942 -0.185751 -0.100083 0.028566 0.032958 0.025526 0.048101 0.004732 -0.072268 -0.356151
mostli 0.082729 0.072218 0.061793 -0.004441 0.039344 -0.018474 -0.042885 0.019223 -0.051289 0.012284 -0.078360 -0.052189 -0.101601 0.011796 -0.005183 0.028136 -0.008983 -0.032976 -0.020836 0.014247 -0.541207
nois 0.174317 0.049294 0.092109 -0.016097 0.037672 0.029894 -0.022444 -0.020468 -0.136707 0.058921 -0.133961 -0.069509 -0.179100 0.010551 0.022602 0.034322 0.056152 0.051453 -0.012297 0.032813 -0.274498
opinion 0.176802 0.129011 0.100059 -0.053243 -0.011929 0.075015 -0.034990 0.006030 -0.092967 0.060570 -0.131336 -0.043024 -0.234121 -0.000978 0.078771 0.012877 0.078032 0.110834 0.061815 0.019862 -0.491643
order -0.022100 0.028631 0.044767 -0.020892 0.009407 0.075406 0.023229 -0.041106 -0.012783 0.031598 -0.022966 0.057778 0.073364 -0.023193 -0.003886 0.002411 -0.062827 -0.047401 0.002171 -0.007115 -0.336037
other 0.067557 0.030779 0.029726 0.007309 0.005621 0.016519 -0.013955 -0.010934 -0.072913 0.036891 -0.021320 0.020667 -0.102152 0.016019 -0.005957 -0.011877 0.022022 0.040783 0.037029 -0.002293 -0.453979
overwhelm 0.041050 0.035948 0.054206 -0.028062 -0.013991 0.008710 0.019320 -0.010821 -0.040154 0.030990 -0.062322 -0.061648 -0.111863 -0.044875 0.026850 0.001869 0.027521 0.023820 0.040272 -0.031382 -0.561084
pay 0.230824 0.139568 0.073565 -0.061016 0.004378 0.033260 -0.025643 -0.035605 -0.082688 0.056637 -0.179835 -0.061310 -0.253112 -0.034199 0.044361 0.041297 0.073340 0.104538 0.052000 0.020939 -0.172498
perfect -0.056350 -0.053211 0.005822 -0.017406 -0.028379 -0.087349 -0.001875 -0.005434 0.024959 -0.058125 0.007061 -0.042933 0.000976 0.011867 0.011583 0.112161 0.078325 -0.042944 -0.014489 0.026011 -0.786552
platform 0.017003 0.000669 -0.012014 -0.107330 -0.062216 -0.012492 0.015606 0.020907 -0.071121 0.052829 -0.051575 -0.021354 -0.064899 -0.062633 0.020473 -0.004874 -0.012950 0.029748 0.051235 -0.032032 -0.478422
proper 0.097188 0.049903 0.035806 -0.114081 -0.062800 0.049338 0.034690 -0.025665 0.020086 0.032878 -0.078670 0.054516 -0.099016 0.025545 0.020009 -0.025078 -0.043807 0.034302 0.027836 -0.005591 -0.457078
qualiti 0.054013 -0.000787 0.024583 -0.037317 -0.050762 -0.020407 -0.033292 -0.035848 -0.048977 0.042904 -0.071708 -0.032813 -0.081944 -0.037255 0.009810 -0.013669 0.051046 0.013206 0.017045 0.026703 -0.369643
reason -0.136635 -0.003329 0.011984 0.059707 -0.119286 0.013040 0.019604 -0.042119 -0.008466 -0.052571 0.044164 0.020172 0.064304 0.056378 0.035415 -0.008410 0.056476 0.020131 0.027260 0.020306 -0.615998
rush -0.057071 0.004326 -0.006967 -0.060324 -0.109804 0.008922 -0.023782 -0.072362 -0.023810 0.020242 -0.048471 0.037572 -0.012683 -0.009016 0.005520 0.031517 0.070186 0.084136 0.082204 -0.030687 0.110285
situat 0.062695 0.106498 0.039820 -0.036699 -0.043359 0.037910 0.016105 -0.037980 -0.082314 0.008253 -0.102691 -0.021370 -0.178669 -0.023815 0.058950 0.020932 0.080302 0.068419 0.061109 0.048077 -0.453938
social 0.134501 0.140504 0.115434 -0.080107 -0.002304 0.060223 -0.029994 -0.021586 -0.109893 0.034677 -0.121859 -0.053418 -0.172017 -0.016229 0.066993 -0.019423 0.045262 0.081166 0.005599 0.051029 -0.544253
space 0.042026 0.060333 -0.020861 -0.028010 0.036258 0.058999 0.012184 0.020891 0.114414 0.003526 0.019191 -0.004601 0.047350 0.028301 0.000688 -0.039377 -0.032341 0.060935 -0.028338 -0.045500 -0.412424
team 0.244118 0.156915 0.144099 -0.081576 0.025827 0.073712 -0.083906 -0.001092 -0.066337 0.078662 -0.112744 -0.125921 -0.266399 -0.031723 0.038012 -0.001190 0.028678 0.042890 -0.005551 0.021255 -0.089588
that 0.016527 -0.044449 0.034361 -0.022832 0.026770 0.005776 -0.003875 0.027238 0.000858 -0.006597 -0.065431 -0.069095 -0.038746 -0.033790 0.007191 -0.017580 -0.125858 -0.045989 0.004766 -0.018957 -0.470590
thu 0.154548 0.103125 0.066820 0.025225 0.076425 -0.011069 -0.056500 -0.003757 -0.036301 -0.028225 -0.082850 -0.010362 -0.082113 0.006911 0.027164 0.038172 0.058509 0.017957 -0.011256 0.063590 -0.538852
tire 0.084289 0.007053 0.070336 -0.103801 -0.046312 0.054057 -0.024352 -0.033401 -0.058035 0.021837 -0.094947 -0.032538 -0.154186 -0.033144 0.020529 -0.042538 0.020677 -0.018199 0.012584 -0.013459 -0.555050
tutor 0.031765 -0.012334 0.007979 0.023818 0.018064 -0.047809 0.010142 0.022946 -0.001826 0.006397 -0.025095 -0.014433 0.007995 -0.045258 0.023668 0.008650 -0.001109 0.018252 0.026736 0.011016 -0.329630
verbal 0.117776 0.047131 0.045636 -0.057295 -0.014201 0.001682 -0.038603 0.024650 -0.025515 0.000717 -0.062694 -0.048612 -0.096885 0.006560 0.024061 0.049133 0.022467 0.033435 0.020710 -0.015354 -0.154117
wake 0.146691 0.098941 0.079234 -0.082968 -0.047562 0.009664 -0.018382 -0.008722 -0.071277 0.024208 -0.129903 -0.043041 -0.203748 -0.033416 -0.001089 0.024755 0.025549 0.015321 -0.000382 0.020675 -0.322633
wish -0.032423 -0.060100 -0.023686 -0.026314 0.004884 0.017861 0.015144 0.047945 0.008490 -0.039047 0.008863 -0.052238 -0.001505 -0.021584 -0.002965 -0.021837 -0.026275 -0.026623 -0.007476 -0.025718 -0.373516
you’r 0.001659 -0.004587 0.004583 -0.038746 -0.090829 0.042311 0.036125 -0.029446 -0.039131 -0.037267 0.003475 0.008262 -0.058949 -0.023100 0.025279 -0.022838 0.080965 0.117921 0.041055 -0.010425 -0.275389
accord 0.079856 0.039805 0.027430 0.029153 0.050204 0.015090 -0.054110 -0.017143 -0.023937 -0.012194 -0.043170 -0.024580 -0.055494 -0.008105 -0.012205 0.023732 -0.017982 0.010649 -0.037768 -0.001281 -0.150199
across 0.142665 0.145526 0.110409 -0.032478 0.020172 0.073402 -0.022512 -0.013216 -0.079054 0.045499 -0.068842 -0.037124 -0.149163 0.018709 0.023616 -0.012138 0.025430 0.107047 0.003536 0.036331 -0.462499
adapt 0.055008 0.024467 0.019892 0.016651 0.058501 0.044205 0.003515 0.005735 0.023183 0.010415 -0.033396 0.001551 -0.028653 -0.014524 -0.001358 0.016888 -0.050513 -0.004303 -0.060251 0.018189 -0.353297
alloc 0.000701 0.035704 0.008077 0.047812 0.036609 -0.022169 -0.010162 0.032835 -0.026271 -0.043621 0.015057 -0.012700 -0.015889 0.016512 0.000188 0.038253 -0.013513 -0.024534 -0.002792 0.011030 -0.053875
almost 0.012393 -0.027860 -0.009411 -0.051940 -0.013349 -0.017322 -0.016094 0.020881 0.006886 0.002980 -0.008888 -0.059075 -0.133125 -0.038881 0.011414 -0.003765 -0.003439 0.001831 -0.063814 -0.015985 -0.403788
anonym -0.022718 -0.035870 -0.017458 -0.065064 -0.049157 0.009562 0.014526 -0.000991 -0.015793 0.011631 0.006902 -0.028554 -0.055908 -0.010831 0.051123 -0.039134 0.029025 0.040987 0.041137 -0.006090 -0.569843
asynchron 0.036876 -0.015455 -0.048691 -0.037415 0.038416 0.009105 0.020586 0.031776 0.068536 0.013768 0.040223 -0.006412 -0.028129 -0.015375 -0.009638 0.024268 0.006210 0.052112 0.007607 -0.024914 -0.407176
basic 0.006991 0.002972 -0.022558 -0.051082 -0.002625 -0.030225 0.003999 -0.019114 -0.045866 -0.001429 0.004524 -0.041063 -0.037433 -0.033978 0.004076 0.001300 0.058023 0.068805 0.024457 -0.013603 -0.628621
cannot 0.171251 0.103420 0.136138 -0.059287 -0.015814 0.077181 0.002202 -0.010448 -0.064031 0.045056 -0.116658 0.041706 -0.158299 -0.004050 0.040681 0.026073 0.059280 0.085035 0.044568 0.035517 -0.354348
care 0.111377 0.107669 0.057773 -0.063932 -0.021039 0.079588 -0.053212 -0.024066 -0.089783 0.024101 -0.106392 -0.014197 -0.179734 -0.009020 0.027425 0.037729 0.044001 0.081748 -0.014710 0.053095 -0.373916
chaotic 0.163246 0.153361 0.123449 -0.015302 0.034973 0.049665 -0.063808 0.004924 -0.065188 0.036121 -0.072885 -0.031425 -0.134453 0.011310 0.020363 0.004245 0.041316 0.070908 0.027652 0.018146 -0.528899
chunk 0.109145 0.103516 0.046653 -0.106716 -0.056523 0.111513 -0.000696 -0.008055 -0.046920 0.038825 -0.107548 0.021152 -0.169032 0.027124 0.050995 -0.038947 0.075973 0.095935 0.081239 0.020011 -0.276040
circumst 0.183628 0.112298 0.119750 -0.095796 -0.040238 0.064694 -0.068336 -0.034887 -0.096125 0.052843 -0.175750 -0.036980 -0.256201 -0.022035 0.048865 0.020916 0.074441 0.103089 0.062119 -0.030340 -0.584903
