discuss -0.003290 -0.064194 0.068498 0.068664 -0.056270 -0.052623 0.027465 0.044795 0.083016 0.042689 0.017927 -0.090435 0.008698 0.021074 -0.031374 -0.091347 0.027002 0.035078 0.071704 0.073942 0.280278
question 0.130558 0.174794 0.139883 0.043305 0.047073 0.004058 -0.168605 -0.039516 0.212134 0.181555 0.225749 0.042964 -0.145416 -0.002910 0.218260 -0.095316 0.116593 -0.125489 -0.121019 0.204559 0.344433
get 0.001595 0.002990 -0.015314 0.147628 -0.003817 0.070581 -0.026872 -0.078253 -0.028956 0.132401 0.054505 0.050470 -0.031878 0.031003 0.059052 -0.007266 0.050499 -0.000669 0.004550 0.101920 0.113344
time -0.067580 -0.073238 0.011054 0.027783 -0.010547 0.051110 0.015032 -0.044188 0.000625 -0.008761 -0.060550 0.002380 -0.003689 0.032050 0.005568 0.011490 -0.023591 0.008304 0.042211 -0.042585 0.082700
ask -0.092423 -0.003154 0.008717 0.256807 -0.083130 0.005600 0.095752 -0.015525 0.013191 0.220612 -0.013124 0.079794 -0.032930 0.128142 0.071942 0.008908 0.025404 0.086211 -0.057942 0.116092 0.048217
interact 0.015966 0.010699 0.065864 0.024067 -0.022919 0.018312 -0.007015 0.028034 0.039886 -0.002030 0.025791 0.013261 -0.009742 0.017448 0.040661 -0.003924 0.015524 -0.010383 -0.018640 0.002964 0.129163
lectur 0.007506 -0.028522 -0.008635 0.023671 -0.050235 -0.037878 -0.059029 0.028834 -0.063529 0.021007 -0.021333 0.034068 0.022637 0.084338 -0.023484 0.000772 -0.057141 0.036274 -0.079435 -0.017404 0.336917
class -0.020331 -0.011120 -0.088990 0.009715 -0.064980 0.023640 -0.001364 -0.003578 -0.088642 0.049150 0.025613 0.010254 -0.012705 0.031191 -0.046130 -0.004894 0.041497 0.044631 0.063487 -0.104916 -0.030816
learn 0.021750 0.033594 0.007659 -0.034456 -0.026818 0.003678 -0.048582 -0.033023 -0.007423 -0.015380 0.060332 0.007046 0.010576 -0.048810 0.007218 0.043932 0.027731 0.040788 0.015966 -0.009430 0.086601
abl 0.040643 0.013194 0.035902 -0.016431 -0.027112 0.010677 -0.047856 -0.020774 0.008663 0.010672 -0.001379 -0.011269 -0.047949 -0.029037 0.014694 -0.020094 0.040400 0.017778 -0.012225 0.043286 -0.068294
student -0.037528 -0.043610 0.020785 -0.056385 -0.034085 0.006234 -0.022702 0.030802 0.021212 -0.009190 -0.025177 -0.011642 0.018285 -0.006172 0.012967 0.002484 0.036912 -0.003906 0.048003 -0.067688 -0.025281
like 0.037042 0.047520 -0.024232 -0.060641 -0.046496 -0.042281 0.010324 -0.018077 -0.063353 -0.032116 0.019622 -0.018704 -0.072841 -0.015680 0.033502 0.035317 0.085280 0.072449 0.076965 -0.001675 -0.103477
live -0.033202 0.002034 -0.035792 -0.026527 0.057257 -0.006858 -0.002463 0.032557 0.053795 -0.032785 -0.072819 0.072991 0.001407 0.052356 0.023900 0.018502 -0.016541 -0.041398 -0.049358 0.053680 -0.105257
better 0.024566 0.028452 -0.024222 -0.037997 -0.037072 -0.015575 0.025361 -0.026433 -0.034037 0.006606 -0.039767 0.008401 -0.029318 -0.010739 0.015737 -0.000890 0.010700 0.047458 -0.041499 -0.035710 -0.004218
engag -0.007972 -0.000373 0.015565 0.013912 0.004773 0.005532 0.000473 -0.022102 -0.026352 -0.018648 0.026004 0.015859 0.037081 -0.026723 0.000017 0.004220 0.015011 0.020237 -0.034811 0.016520 -0.244118
feel -0.041892 -0.010745 0.010927 0.065861 0.013878 0.008028 0.002298 0.032911 -0.023701 -0.016942 -0.032906 0.005762 0.027267 -0.016994 0.023878 0.014032 -0.009502 -0.034931 0.085213 0.029933 0.022312
allow -0.003344 -0.037533 0.010377 0.039033 -0.024092 -0.002498 0.019546 0.040384 0.038122 -0.015988 -0.056455 -0.023541 0.026527 0.004213 -0.010786 -0.043113 -0.002648 0.038318 0.004308 -0.022912 -0.241377
peopl 0.024856 0.030167 -0.001946 0.068874 0.000397 0.001331 0.011639 0.006222 0.028947 0.064715 0.040579 0.020534 -0.016716 0.008853 0.013565 -0.005341 0.033238 -0.000562 -0.038174 0.015374 -0.160832
understand 0.034993 -0.010300 -0.027453 0.023423 0.018662 -0.023556 -0.018591 -0.060243 -0.006415 0.053085 -0.013758 -0.008143 -0.035625 -0.019371 0.045191 -0.005747 -0.027472 0.035191 0.000578 -0.008895 -0.122832
also -0.035383 -0.030879 -0.005865 0.046947 -0.027139 0.036222 0.023028 0.018568 0.027333 0.022698 -0.007085 0.007095 0.054626 0.039735 -0.042771 -0.027325 0.001910 0.018321 -0.019479 -0.033136 -0.013245
way -0.011670 0.013835 0.012169 -0.020707 0.010215 0.026658 -0.012974 -0.002677 0.009962 -0.032782 0.043175 0.005682 0.010511 -0.002991 -0.013460 0.001442 0.019638 0.008787 -0.043586 -0.044642 -0.215944
zoom 0.003997 0.019514 -0.023176 -0.041853 -0.016500 -0.011875 -0.010007 0.010025 -0.008135 -0.034600 -0.045627 0.014317 -0.028593 0.016801 -0.023975 0.033916 -0.032827 0.008237 -0.018378 0.060145 -0.252794
chat -0.024036 0.007243 0.015470 0.041518 -0.005121 0.027427 0.012861 -0.027999 -0.021628 0.015758 0.026174 -0.002642 -0.007323 -0.017595 0.025251 -0.038455 0.020122 -0.001530 0.014861 -0.003402 -0.325790
make 0.016580 0.027569 0.013514 0.006957 -0.039124 0.010931 0.013520 0.042267 0.009884 0.006150 -0.025965 0.016459 -0.001524 -0.007375 0.016175 0.000454 0.002461 -0.005980 0.025506 -0.001418 -0.133530
easier -0.022801 0.034192 0.007322 0.002709 0.036648 0.015831 0.003767 0.013964 -0.027554 -0.000595 -0.019020 -0.029976 0.007691 0.010683 -0.005529 0.011746 -0.037835 0.025170 -0.003743 0.010619 -0.299509
help 0.008311 0.020398 0.023307 0.016085 -0.004329 -0.022151 0.028418 0.001988 0.020495 0.015459 -0.016001 -0.014681 -0.008366 -0.001708 -0.035299 0.006270 -0.014707 0.010678 0.016783 0.013557 -0.468188
less -0.001734 0.022260 -0.027806 0.004398 -0.023249 0.026918 0.023890 0.002231 -0.021274 -0.021521 0.017108 -0.002031 -0.020333 0.020826 0.022672 -0.000509 0.001900 -0.005058 0.007580 -0.025973 -0.350153
materi 0.005342 -0.007244 0.027419 -0.005200 -0.015232 -0.022690 -0.035355 0.010171 0.006245 -0.025008 -0.018774 -0.037031 -0.011837 -0.008825 0.004340 -0.038106 -0.029421 -0.010691 0.024770 0.008229 -0.209842
particip 0.027514 0.025270 -0.005417 -0.000933 -0.024369 -0.031707 -0.028420 0.003181 0.014830 0.005252 -0.023099 0.000447 0.030608 0.011924 0.012645 0.011611 -0.015742 0.017370 0.017845 -0.016327 -0.165056
record -0.000094 0.029587 0.026988 -0.008800 0.017076 -0.060742 -0.041427 -0.003400 -0.006054 -0.045421 -0.003966 0.032019 -0.009116 -0.005113 -0.002908 0.045490 -0.001858 -0.015518 -0.063709 0.064912 -0.105793
answer 0.000636 0.022062 -0.016259 0.049230 0.012804 -0.026175 -0.007474 -0.011692 0.010125 0.052982 0.012178 0.043945 -0.008569 0.012418 0.032775 -0.009440 -0.016649 0.024967 -0.006091 0.022740 -0.216201
inform -0.021550 0.002603 0.015649 -0.009468 -0.038177 -0.004042 0.009083 -0.024590 -0.030461 0.007299 -0.019266 -0.016998 0.033194 -0.008206 -0.030710 -0.016874 0.017993 0.013371 0.012072 -0.014279 -0.266698
onlin 0.032605 -0.007869 -0.000350 -0.023651 0.012548 0.032967 -0.012890 -0.009350 0.004723 -0.018032 -0.018396 -0.002008 -0.005187 -0.006008 0.017888 -0.054118 -0.007453 -0.014009 -0.026830 -0.028327 -0.367893
professor 0.002243 0.018455 -0.031093 0.075384 -0.003991 0.015466 -0.039537 -0.012979 0.019497 0.063673 0.065309 0.010985 0.009553 0.010300 -0.000069 -0.029389 0.030697 -0.005460 -0.025697 0.056292 -0.178473
think -0.021618 -0.015761 -0.014921 -0.033445 -0.029218 -0.023392 0.001918 0.013938 0.020095 0.002876 0.031944 -0.019337 0.039712 0.014707 0.009303 0.026211 0.005300 -0.023900 -0.033265 -0.044640 -0.240012
work -0.000294 -0.012159 -0.005007 -0.007587 0.043631 -0.023695 0.004972 0.007159 -0.019459 -0.011370 0.011369 0.014770 -0.005777 -0.025466 -0.008713 0.006001 -0.003987 0.016788 0.003303 -0.044592 -0.118715
idea 0.022113 0.020170 0.017421 -0.016613 0.000995 0.022756 0.035165 0.025512 -0.023805 -0.011095 0.009319 0.005944 -0.015732 -0.027179 0.022993 0.025232 0.025201 -0.029875 -0.017613 0.008467 -0.377281
much 0.017186 0.020028 0.003794 0.013153 -0.021218 0.012614 0.000360 -0.038752 -0.029860 0.017668 -0.020792 -0.020241 -0.026244 0.012622 0.003243 -0.001721 -0.020498 0.019243 0.009344 0.014123 -0.343728
still -0.030329 -0.002321 0.019172 0.018379 0.014592 -0.044668 0.019440 -0.035022 0.035540 0.022879 0.020235 -0.027018 -0.007179 -0.000972 -0.004282 -0.019110 0.018100 -0.009248 -0.001130 -0.018986 -0.365160
studi 0.003020 0.001849 -0.025473 0.006424 0.020075 0.025570 0.037409 -0.020212 0.002000 0.004460 0.002252 -0.017488 0.024108 -0.005847 0.031277 -0.017432 0.006599 0.018764 0.002964 -0.025487 -0.522317
without -0.012337 0.008878 -0.023083 0.023087 -0.005136 0.028120 0.001281 0.017054 0.000706 -0.003519 -0.006102 0.013036 -0.026516 -0.014109 0.014152 -0.014211 -0.021565 -0.000546 -0.000636 -0.032887 -0.186693
activ -0.009915 0.024536 -0.010541 -0.019170 -0.000882 -0.017294 0.004933 -0.000243 0.030387 -0.023009 0.008161 -0.024576 0.028495 -0.013401 -0.023746 -0.013772 0.031295 -0.033896 0.023837 -0.012637 -0.518022
actual -0.023609 -0.011507 -0.014107 -0.008976 0.009336 -0.020098 0.002095 -0.019089 -0.011414 -0.015160 -0.014241 -0.006358 0.002553 0.012694 0.020138 -0.025831 0.021413 0.000091 0.034165 -0.010367 -0.210190
call 0.009271 -0.006625 -0.023582 -0.017940 -0.016336 0.023220 0.028255 0.027277 -0.020197 -0.009953 0.008160 0.003412 0.010144 -0.010208 -0.013019 0.008680 -0.005224 0.002579 -0.014486 0.006332 -0.013984
find 0.030639 -0.020158 0.020756 -0.010616 -0.006423 0.029240 -0.000505 -0.013462 -0.012645 -0.000325 0.004494 -0.003239 0.009614 -0.001460 0.017484 0.009200 -0.023734 -0.025928 0.019546 0.028986 -0.465628
knowledg -0.007548 -0.002812 0.036607 0.011516 -0.024171 0.027104 -0.039216 -0.013640 0.028852 -0.004098 0.060393 -0.009382 -0.030261 -0.043492 0.028400 -0.005517 -0.044311 -0.007216 -0.002382 0.024931 0.012608
lot 0.027179 -0.004958 0.021402 0.013898 -0.009554 -0.008379 -0.012190 0.013422 0.000039 -0.036926 0.004332 0.011300 -0.004138 -0.031547 -0.017401 0.008845 -0.030754 0.027331 0.021996 -0.013184 -0.480123
opinion -0.006073 0.019457 -0.024884 -0.001571 -0.000276 -0.033914 -0.020321 0.001692 0.001074 -0.010020 -0.010067 0.011687 0.013024 -0.001878 0.011179 0.015245 -0.023719 -0.012067 -0.019565 0.010201 -0.204650
other -0.032802 -0.011366 -0.007810 0.001861 -0.003273 -0.000175 0.031892 -0.024395 -0.039335 -0.023026 0.001076 0.017474 -0.010362 0.005396 0.007318 -0.025568 -0.007752 0.049500 -0.028556 0.007367 -0.256862
peer -0.012858 -0.042044 0.030914 0.002282 0.024837 0.004821 -0.021056 0.035619 0.015803 0.031576 -0.020640 0.019788 0.031030 0.001880 -0.019681 -0.026324 -0.004695 -0.025437 0.000855 0.007270 -0.243774
take -0.013600 0.008948 -0.036637 -0.017652 0.001834 0.036893 -0.003647 -0.010985 0.020002 0.028912 -0.008554 0.027218 0.045845 0.017057 -0.012651 -0.026055 0.035926 -0.020876 -0.001046 -0.005959 -0.295395
video 0.015484 0.013485 -0.018457 -0.027515 0.002869 -0.032151 0.013586 -0.012187 -0.016107 -0.012913 0.013211 0.008149 -0.001675 -0.018512 0.008594 -0.022542 0.021441 -0.009359 -0.018765 0.022882 -0.259572
would -0.022145 -0.025942 0.018878 0.014631 0.025025 0.001923 0.006016 0.006891 0.008410 -0.004938 -0.035923 -0.019502 0.005227 0.005140 0.003708 0.025698 -0.007581 0.031566 0.001221 0.010086 -0.515222
best 0.021249 0.021238 0.023349 -0.028231 -0.000756 0.001953 -0.020415 0.004007 0.025533 -0.018681 0.020241 -0.023314 -0.012142 0.013026 0.013720 -0.035881 -0.025882 -0.014294 -0.029320 0.020867 -0.043455
contribut 0.021884 -0.032019 -0.012548 -0.038923 -0.026765 -0.014386 -0.014775 0.014797 0.002282 0.004976 -0.033138 -0.032139 0.014882 0.021371 -0.024719 0.013032 0.019930 0.021628 0.001422 0.001358 -0.188741
cours -0.001628 0.003854 0.020045 -0.007766 -0.025421 -0.011142 -0.032744 -0.023113 -0.032538 -0.022257 -0.001029 -0.008124 -0.021450 -0.006575 0.000157 -0.016415 -0.022079 -0.000486 -0.026256 -0.017276 -0.354521
everyon 0.010700 0.010508 0.002116 -0.008546 -0.002466 0.012671 -0.012769 -0.002725 -0.029706 0.010320 0.016553 -0.013299 0.025995 0.024198 0.007867 0.010736 0.010079 -0.021202 0.007367 0.018889 -0.448610
give -0.016368 -0.027555 -0.022547 -0.019924 -0.012832 0.009798 0.019416 -0.002192 0.014647 0.041934 -0.003122 0.013902 -0.005664 -0.002207 -0.020193 -0.022915 -0.009016 0.010837 0.002821 -0.007709 -0.422404
listen 0.000654 0.013668 0.016131 0.008598 0.020950 0.033769 -0.028102 0.016308 -0.013195 -0.016898 0.003367 0.007657 0.018536 -0.018162 0.023652 -0.002200 -0.000439 0.004503 0.008751 0.018756 -0.127675
prefer 0.013966 -0.013562 -0.001002 0.011029 -0.012257 -0.038649 0.010182 -0.004580 -0.010075 -0.011928 0.011676 -0.017275 0.014095 0.002513 0.004252 0.006950 0.035055 0.027808 0.010277 -0.030215 -0.619011
realli 0.007939 -0.007558 0.018487 -0.011774 0.007379 0.018917 0.004245 -0.027286 -0.017918 0.019393 0.029436 0.009905 0.011791 0.024610 -0.021606 -0.015420 0.003640 0.012681 -0.000385 0.033296 -0.191195
speak -0.014458 0.000657 -0.013077 -0.019730 0.012472 0.010923 -0.011876 -0.000850 0.015554 -0.023924 0.028940 0.012243 -0.019304 0.039811 -0.028403 -0.000317 0.025611 0.022159 -0.006379 -0.017883 -0.404926
talk 0.024221 0.011593 -0.005082 0.050869 -0.014569 -0.024129 0.020040 -0.028355 0.004574 -0.000358 -0.029622 0.031322 0.004443 -0.002524 0.006223 0.020036 -0.022233 0.032920 0.015143 -0.013162 -0.241600
use -0.006289 -0.009046 -0.019211 -0.028462 -0.030528 0.008121 0.002942 0.009239 -0.005477 -0.013385 0.018614 0.008970 -0.033725 0.002290 0.003841 -0.025795 0.021829 0.029335 0.004599 -0.024516 -0.427524
anxieti 0.036061 -0.000134 -0.008602 -0.021632 0.015542 -0.011848 0.006706 0.004997 -0.022967 0.019776 0.006714 0.003723 0.000010 0.028468 -0.035799 -0.008861 -0.026344 0.017716 0.017629 0.020120 -0.375998
appli -0.025238 0.012061 -0.014525 -0.025258 -0.013441 -0.005000 0.024031 0.007816 0.057417 -0.058871 0.004484 -0.012545 0.014139 -0.017316 0.008216 0.035822 -0.028300 -0.020586 -0.030701 0.023433 -0.323197
back 0.021835 -0.016790 -0.010852 0.029747 0.019162 -0.020518 0.019614 -0.003901 -0.002399 -0.006319 -0.025524 -0.016749 0.006905 -0.024132 -0.013635 -0.008889 -0.026434 0.007547 -0.006636 0.007273 -0.117492
board 0.049431 -0.006087 -0.004885 0.027896 -0.058402 -0.043922 -0.065132 0.014307 0.050520 -0.003126 -0.022360 -0.000869 0.027225 -0.026362 0.007901 -0.063169 0.039980 0.032337 0.026111 0.020344 -0.284509
classmat 0.023541 0.019680 0.012312 -0.020160 -0.015506 0.037028 -0.022971 0.022762 0.016869 -0.018802 0.002870 -0.017146 0.037407 0.014577 -0.024080 -0.011554 0.009435 -0.015126 -0.019523 -0.018528 -0.441774
face -0.010828 -0.023957 0.021093 -0.017268 -0.005373 0.028237 -0.009551 0.006352 -0.005377 -0.012115 0.026937 -0.003539 -0.003117 -0.017172 -0.012544 0.017132 0.012618 -0.031417 0.027316 0.004299 0.154153
feedback -0.011903 0.031374 0.015283 0.028402 0.004663 0.002221 0.016181 -0.014025 0.028838 0.033293 -0.017280 0.002472 0.022432 0.005723 -0.015702 -0.031054 0.006743 0.011198 0.016609 -0.020966 -0.333405
forum -0.007415 0.013079 0.012420 0.012979 -0.031005 -0.025042 0.014815 -0.001438 0.006705 -0.024619 -0.045215 -0.018731 0.014418 -0.001500 -0.018631 0.003585 0.024310 0.009216 0.025919 -0.019382 -0.537896
im 0.004508 0.015160 -0.023869 -0.007517 0.013360 -0.016810 -0.027220 0.007921 -0.008395 0.000816 0.011769 0.016850 0.024163 -0.021237 0.021730 -0.012445 -0.004075 0.022832 0.022676 -0.018309 -0.213335
internet -0.012653 0.003702 -0.021697 -0.036579 0.020510 -0.012414 -0.025439 -0.009966 -0.024343 0.019871 -0.021285 0.027459 -0.018032 0.001051 -0.028262 0.023184 0.013383 0.003249 -0.018172 -0.001721 -0.265023
it’ 0.023723 0.037496 0.010774 0.016560 0.013296 -0.021968 -0.006180 -0.011754 0.011442 0.011157 -0.034034 0.000871 0.006886 0.015911 -0.020174 -0.024314 -0.014532 -0.027610 0.024763 0.018560 -0.463914
someth 0.012017 -0.017332 0.023139 0.020523 0.002909 -0.017673 -0.009691 0.022245 -0.017655 0.016813 0.021801 -0.005541 0.001620 -0.013701 -0.003226 0.015450 -0.002808 -0.026670 0.031453 0.030275 -0.560061
watch 0.009896 0.014507 -0.009262 0.013037 -0.015304 0.017997 -0.008342 0.008303 0.010213 -0.019892 0.003989 0.024544 0.024145 -0.017469 0.007567 0.023111 -0.024005 0.014867 -0.027522 0.025909 -0.213630
attent 0.028647 -0.006166 -0.024371 -0.000617 0.016159 0.002072 0.024041 0.006631 0.004812 0.009874 -0.027872 0.015981 0.007088 0.024545 -0.037596 -0.022303 -0.015021 -0.026827 0.015196 -0.022018 -0.435693
content -0.008413 0.019510 -0.000843 -0.026586 -0.001253 -0.002004 0.022219 -0.008264 0.002446 0.007785 0.012800 -0.019892 -0.018292 -0.010434 -0.012254 0.006235 0.020439 -0.005815 0.010829 -0.021666 -0.328302
don’t -0.015287 -0.014018 0.027299 0.009365 0.001345 -0.020309 -0.000185 0.015115 0.034679 0.011750 0.007425 -0.007511 0.008490 0.021373 -0.004049 -0.009427 -0.023349 -0.005132 0.019316 0.010420 -0.515950
fellow -0.011398 -0.012268 -0.004951 -0.000604 -0.004000 0.018305 -0.024352 0.030512 0.025265 -0.004949 -0.009206 0.000409 0.026564 -0.005012 0.009749 0.006640 0.009098 0.000403 -0.004679 -0.022888 -0.286483
meet 0.015073 0.034156 0.017903 -0.008144 -0.026248 -0.020206 -0.007092 0.049617 -0.045751 0.004837 0.010989 -0.004261 0.008202 -0.017767 -0.020870 -0.005589 -0.031013 -0.009081 -0.002371 -0.016807 -0.275368
person -0.002841 -0.001195 0.025311 0.003005 -0.004459 0.026530 -0.018803 -0.005581 0.003497 0.003853 -0.003783 0.002601 0.018911 0.012663 -0.012015 -0.029522 -0.023386 0.005581 0.028181 -0.007731 -0.512751
read -0.033226 0.020573 0.021426 0.011915 0.011957 0.013435 -0.014713 -0.000309 0.005889 -0.037565 -0.021546 0.012955 -0.009226 -0.009321 -0.006350 -0.005472 0.011397 -0.019732 -0.014541 -0.002208 -0.444627
respons -0.011803 0.025557 0.012542 0.001945 -0.007680 -0.015193 0.006088 -0.011182 0.015664 0.006745 -0.026045 -0.028223 0.001253 0.016028 -0.013682 -0.015902 0.000523 0.020553 0.023573 -0.029493 -0.286493
see 0.018472 0.006439 -0.012691 -0.011612 -0.020078 -0.019919 0.019514 -0.009460 0.016204 -0.009912 -0.009149 0.015019 -0.007965 0.009111 0.001281 -0.028740 -0.009955 -0.013559 0.013089 -0.012646 -0.371820
teacher -0.022897 -0.031634 -0.001776 -0.014804 0.021416 0.008765 -0.006261 0.016409 0.000122 0.000444 0.013999 -0.031088 -0.011568 0.010730 -0.000623 -0.007592 0.005637 0.010753 0.024838 -0.003569 -0.212896
topic -0.007815 -0.009931 -0.012762 0.013647 -0.030560 0.003611 -0.032022 0.014992 0.014345 -0.008898 0.007938 0.006452 0.014145 -0.004421 -0.017220 -0.004423 0.017261 0.027227 -0.006261 -0.008179 -0.516982
us -0.034108 0.010337 0.001374 0.025565 0.031798 0.032531 -0.025794 -0.025198 0.004700 0.019104 -0.039491 -0.008281 -0.003296 0.006036 -0.028767 0.030611 0.024032 -0.013465 0.010705 -0.025885 -0.494608
whilst 0.020964 -0.004000 -0.011369 0.013823 -0.021647 0.008700 -0.007268 -0.021965 -0.019881 0.004466 0.010213 -0.000005 0.003046 0.001894 0.031312 0.003294 -0.002372 0.002715 -0.041961 0.031879 -0.375392
write -0.018827 -0.039647 -0.009895 -0.009632 0.013023 0.024906 0.006067 0.033773 0.015002 -0.005093 -0.007279 0.004132 0.029280 0.019615 -0.026457 0.001002 -0.007482 -0.019098 0.019786 0.011536 -0.521565
access -0.033159 -0.007548 -0.022340 0.016264 0.017550 -0.007411 -0.012094 -0.007462 0.006848 0.012483 -0.011705 -0.017809 0.007026 0.005128 0.011703 -0.007262 -0.014727 0.012868 -0.001639 -0.002893 -0.272493
background 0.012628 0.008207 0.010100 0.008379 -0.026481 0.016411 0.018551 -0.005143 -0.004255 -0.006165 0.007348 -0.007506 -0.001936 0.022075 -0.029167 -0.001684 -0.011788 0.013603 -0.011881 -0.019287 -0.426110
bounc -0.013363 0.008162 -0.024115 -0.021787 0.013182 0.009000 -0.013537 -0.014829 -0.000928 -0.002485 -0.007349 -0.007591 0.011728 0.023874 0.027918 0.005190 0.010859 -0.016891 -0.014079 0.014901 -0.070321
chanc 0.018769 0.018463 0.016647 -0.010330 -0.003504 0.000362 0.004302 0.013516 -0.017049 0.025242 -0.025435 -0.016559 0.017798 0.010695 0.019156 0.007392 -0.017076 -0.016518 0.024774 0.023803 -0.437013
commun 0.025389 -0.003492 -0.020776 0.016143 -0.012899 0.016631 -0.002364 0.022994 -0.000550 -0.010975 -0.009761 -0.011339 -0.018763 -0.009191 -0.031746 0.014635 0.004498 -0.024182 -0.031106 -0.013020 -0.351563
concept 0.008669 0.005030 0.025563 0.006074 0.006014 0.015611 -0.023018 0.023194 0.013644 -0.008648 -0.006671 -0.006600 0.004074 -0.013865 0.007451 0.012247 -0.013798 -0.007279 0.016649 -0.015156 -0.301665
connect 0.018974 -0.011144 -0.026202 -0.019328 0.015030 -0.010665 -0.009734 0.006751 0.027461 0.011791 0.025480 0.005306 0.021006 -0.009932 0.014332 0.027566 0.003229 -0.016055 -0.026487 0.012028 -0.626568
convers 0.012913 -0.019022 -0.017645 0.024199 0.021255 -0.024407 -0.008887 0.031727 0.007712 0.003219 -0.006892 0.023914 0.022765 -0.022179 -0.027521 -0.002607 0.005802 0.026606 -0.017767 -0.008086 -0.486101
differ -0.025508 -0.010357 -0.008485 -0.045385 0.021969 -0.018665 0.008520 -0.008794 0.015676 -0.015813 0.002981 0.000502 0.038891 -0.026653 -0.026579 -0.004810 -0.003228 0.018374 0.021793 -0.041011 -0.553928
difficult 0.007556 -0.003602 0.016784 -0.016630 0.021483 -0.008601 -0.017189 -0.025827 -0.012168 0.030462 0.033011 -0.011730 -0.014510 -0.001444 -0.019632 0.005424 0.008616 -0.015216 0.005438 0.013554 -0.503632
distract 0.018580 0.030148 -0.000591 0.016032 -0.017152 -0.020315 0.023428 0.012856 0.017796 0.020612 -0.002825 0.018536 -0.003899 0.013009 0.002487 -0.001258 -0.032338 0.019514 0.017595 0.009628 -0.449871
doubt -0.007935 -0.020231 -0.020785 0.005018 0.006186 0.004882 0.019821 -0.014157 0.009751 -0.026714 -0.021104 -0.021242 0.008428 0.024384 -0.017323 -0.014851 0.022204 -0.012083 0.023926 -0.023289 -0.359454
easi 0.029432 0.011991 0.021511 0.023103 0.016386 -0.001860 -0.014787 0.018349 0.003406 0.019908 0.026432 -0.012455 -0.006569 -0.006788 0.014573 0.018308 0.022687 0.020347 0.013083 0.002519 -0.242784
enjoy 0.018036 -0.013299 -0.026458 0.021691 -0.005357 -0.010381 0.011130 0.019694 -0.001018 0.006156 -0.023177 0.003214 0.003783 -0.018412 0.019350 -0.001849 0.021320 -0.027082 -0.018911 0.008455 -0.488525
even 0.038021 0.007675 -0.011535 -0.016357 -0.009792 0.009515 -0.018613 -0.011366 0.022376 -0.033450 -0.009430 0.021579 0.027121 0.013455 -0.010888 -0.027684 0.017276 -0.006707 0.013465 -0.014724 -0.592045
first 0.014526 0.004076 -0.025442 0.015828 0.015208 -0.001840 0.001987 -0.011055 -0.016703 -0.008277 0.014465 0.001901 -0.006168 -0.021170 0.009582 0.002015 -0.000220 0.002678 0.007217 0.011016 -0.416191
go -0.005980 -0.020269 -0.026852 -0.019330 0.021426 0.024619 0.020235 -0.003417 0.002880 0.002662 -0.009300 -0.025060 -0.011960 0.005589 -0.000766 -0.013983 -0.005947 -0.025994 0.003796 0.000466 -0.313119
good 0.023676 -0.015555 0.010563 0.018033 -0.019748 -0.009730 0.016205 -0.002757 0.017974 0.009377 -0.025731 0.013413 0.017536 0.019934 -0.019842 -0.008482 -0.021530 0.002635 -0.011209 0.028106 -0.559385
hard -0.000399 0.016684 0.037992 -0.009801 -0.006995 -0.027586 0.014996 -0.005475 0.017435 0.001494 0.022727 0.016702 -0.025288 0.011288 -0.006736 -0.028655 0.013311 0.013215 -0.008737 -0.020881 -0.609820
i’m -0.024541 0.026986 0.028739 0.029522 0.027646 0.011996 0.016502 -0.021378 -0.026471 0.007554 -0.017984 -0.031825 -0.016185 -0.009243 0.032661 0.021765 -0.025224 -0.007594 -0.007925 0.019024 -0.283949
interest -0.020785 0.021531 0.003134 0.026193 0.016716 0.021632 -0.015788 -0.010534 0.013598 -0.001162 -0.019654 -0.023348 -0.010437 0.018362 -0.014045 -0.005143 0.012973 0.010176 -0.009503 -0.021402 -0.346732
intimid 0.001632 0.029909 0.015979 0.007420 0.008259 -0.027166 0.010376 0.016018 0.016560 -0.022236 0.000762 0.006777 0.006111 0.026654 0.010556 0.006073 -0.010439 0.012405 0.010101 0.016545 -0.373188
know 0.008817 -0.007079 0.043511 -0.002508 0.005038 -0.027580 0.004645 -0.028020 0.010599 0.006863 0.003396 0.022592 -0.019140 -0.012092 -0.009459 0.009026 -0.005789 -0.000462 0.000867 0.018527 -0.210121
leader 0.013917 0.015564 -0.028970 -0.009946 0.003323 0.020633 -0.018332 -0.003768 0.003090 -0.033081 -0.004680 0.010437 0.017091 0.020964 0.013868 -0.005858 0.024077 -0.020627 0.006026 0.030062 -0.305968
mani -0.005755 0.014400 -0.001403 -0.006925 0.000861 -0.024664 0.020283 0.017719 -0.018668 -0.030773 -0.011649 -0.036994 -0.016130 -0.011393 -0.010951 -0.025245 -0.013913 -0.024160 -0.030583 -0.013980 -0.452333
mean -0.000572 -0.005142 0.000829 0.014218 0.012581 0.005014 -0.018869 0.010252 -0.006444 0.009952 0.012059 -0.006451 -0.005224 -0.015260 -0.012984 0.003618 0.016949 -0.019036 0.001631 0.027383 -0.136487
motiv -0.007661 -0.005269 -0.012666 0.005750 0.017594 -0.014223 0.008298 -0.020873 -0.027652 0.003405 -0.025054 0.014339 -0.021225 0.018271 -0.011286 0.003398 0.021259 0.017391 -0.019521 0.022387 -0.420041
need 0.018049 -0.018715 0.025177 -0.009350 -0.008878 0.001712 -0.005904 -0.015861 0.005930 -0.028411 -0.020025 0.017047 -0.016956 -0.012748 -0.019032 -0.003188 -0.028405 0.024264 0.018087 -0.028587 -0.389742
opportun 0.003656 0.019323 0.013696 -0.017384 0.017273 -0.011388 0.006515 0.016395 -0.015480 -0.010321 0.006996 0.016125 -0.000087 -0.005369 -0.002605 -0.031917 0.009317 -0.015687 -0.008802 0.015870 -0.353162
part 0.030931 -0.017678 0.016532 0.002766 0.017522 -0.009650 0.027213 -0.026294 0.006209 0.002963 -0.015532 0.005754 0.015177 0.017941 0.028463 0.018156 0.001950 0.015839 0.000935 -0.018187 -0.422162
post -0.002004 -0.028432 -0.016495 0.029750 -0.030477 0.016134 0.014865 -0.014906 -0.001663 0.037087 0.008653 0.010100 -0.025564 0.030683 -0.007133 0.012747 -0.017531 0.016841 0.017188 0.020315 -0.310434
pressur 0.006159 -0.006428 0.017893 0.008597 0.026134 -0.003599 -0.024213 0.025579 0.009059 0.001646 0.004611 -0.003579 0.002165 0.011071 -0.023198 0.029517 0.026855 0.005179 0.028776 0.000572 -0.207947
real -0.012734 -0.002278 0.021363 0.010689 -0.036265 -0.002840 0.015510 -0.014639 0.016753 -0.017390 0.027649 0.013847 0.019921 -0.023487 -0.004670 -0.010157 0.030735 -0.003597 0.010200 -0.022934 -0.524589
requir -0.024353 0.006960 -0.010086 0.011645 0.025741 -0.022564 0.009428 0.007198 0.023924 -0.017831 0.021249 -0.016548 -0.006684 -0.000739 -0.025748 -0.016745 0.020904 0.014801 0.005837 -0.016158 -0.472800
seminar -0.020782 -0.021368 0.011684 -0.015510 0.027215 -0.001965 0.011228 -0.027250 -0.004939 -0.011208 -0.017823 -0.015820 -0.010807 -0.005017 0.002558 0.011133 0.017517 0.016210 -0.005075 -0.001076 -0.619677
sinc 0.003352 -0.003710 -0.018011 -0.022643 0.023552 -0.018816 0.027144 -0.012700 0.023233 -0.010625 0.015334 -0.010552 -0.013336 0.017246 -0.017705 -0.010541 0.028310 -0.033097 0.010980 -0.004492 -0.521667
sometim 0.005264 -0.023647 -0.022891 -0.011361 0.025693 0.019280 -0.009014 -0.010659 -0.009664 0.019678 0.018686 0.017329 -0.017577 -0.008097 -0.012554 -0.012549 -0.005826 -0.017600 0.003213 -0.019586 -0.348750
sure 0.013256 0.012451 0.004557 -0.017917 -0.010938 -0.002262 0.001339 -0.021584 0.004163 -0.007974 0.014218 -0.011744 -0.025223 -0.025658 -0.021240 0.009683 0.008515 0.011747 0.000038 -0.000575 -0.330165
understood 0.007352 0.005542 0.011344 0.003254 -0.004189 -0.020890 0.018445 0.016230 -0.007994 -0.013771 -0.007101 -0.008598 0.017321 0.000447 -0.022241 0.022581 -0.012026 -0.022419 -0.010743 -0.020387 -0.426552
well -0.001776 0.004965 -0.020281 0.010474 -0.016635 0.013516 0.015997 0.024610 -0.004713 -0.032305 -0.014069 0.032054 -0.031974 0.011226 -0.018929 0.014177 -0.014020 -0.021693 -0.036274 0.016426 -0.572501
zone -0.022059 -0.014040 0.002761 0.004968 -0.020527 0.007177 0.016870 -0.014352 -0.004335 0.009744 0.019673 0.017256 0.028929 -0.026641 -0.002417 -0.024558 0.022857 0.006058 -0.005776 -0.026751 -0.278996
across -0.030094 0.020803 0.016517 -0.007189 -0.013089 -0.003520 -0.012015 -0.008001 0.011412 0.029910 0.021221 0.006435 -0.003984 -0.019268 0.009436 -0.003296 -0.003021 -0.015519 0.013741 -0.016275 -0.366923
afraid -0.013357 0.018509 -0.012723 0.017024 0.014524 -0.002418 0.009438 0.018666 0.021112 -0.000348 0.002853 0.012231 -0.007646 -0.014882 -0.011247 -0.018755 -0.021309 -0.010619 -0.004210 -0.015599 -0.376102
alon -0.007029 0.005147 -0.002487 -0.005515 0.008932 0.028327 0.017503 -0.017425 0.013531 -0.030630 0.014287 0.003601 -0.010368 0.016126 -0.010654 0.011939 0.000909 0.002241 -0.025449 -0.025311 -0.585543
alreadi -0.009452 -0.005295 0.005266 -0.020800 0.004910 0.015596 -0.008434 0.000173 -0.010400 -0.000058 0.017967 0.001687 -0.001928 -0.030142 0.009420 0.020146 0.002633 0.012114 -0.001438 -0.008032 0.058565
alway -0.007067 0.023539 0.028053 0.011618 0.010619 -0.026817 0.007351 -0.019210 0.012275 0.001024 0.023178 -0.015902 -0.022416 0.009731 0.019115 0.001904 -0.015598 0.019957 0.000645 0.027866 -0.501760
argument 0.027442 -0.000402 0.014183 0.001828 -0.020006 -0.026107 0.013564 -0.002344 0.019693 -0.001180 -0.024332 -0.020061 0.003870 -0.021894 -0.024003 -0.002879 -0.028128 0.027778 -0.001153 -0.024879 -0.503406
assign -0.026243 0.002090 -0.018214 0.007164 0.027268 0.016052 0.000882 -0.001849 0.007704 0.003637 0.021529 0.012075 0.009382 0.019464 -0.015032 0.004062 0.000820 0.014608 -0.010082 0.005746 -0.473303
awkward 0.007091 -0.006411 -0.003350 -0.000356 -0.018991 0.003260 -0.009007 -0.014232 -0.001140 0.015512 0.009110 -0.008594 0.009853 -0.002459 0.012749 0.024740 0.017108 0.004000 0.020936 0.021439 0.053423
beforehand -0.012790 -0.010683 0.013685 -0.035205 0.005500 0.013583 0.003478 -0.012676 0.010531 0.011894 0.023454 0.010820 -0.013900 -0.006770 -0.008404 -0.025637 -0.015577 -0.003516 0.023815 0.016162 -0.327266
believ -0.018923 -0.029407 0.002653 -0.027992 -0.007599 0.010548 -0.013958 -0.012017 0.020529 -0.009533 -0.022333 -0.006040 -0.034605 -0.000815 0.027153 0.021729 0.020127 0.001045 0.008673 -0.001745 -0.613322
camera 0.009588 -0.005844 -0.014044 -0.002778 -0.005298 0.016766 -0.024279 0.004026 0.013536 -0.013349 0.003912 -0.012273 0.001940 -0.005382 0.020598 -0.015394 -0.013300 0.019586 -0.008592 -0.014666 -0.388672
certain -0.004959 0.010216 0.009309 0.003132 0.015289 0.015403 -0.004268 -0.003936 0.009746 0.017986 -0.015510 -0.019205 0.016487 0.004549 -0.000120 -0.029486 0.021254 0.026048 0.001541 0.012625 -0.475605
chaotic 0.020303 -0.017429 -0.001669 -0.014535 0.008493 -0.013239 0.005548 -0.005810 -0.029778 -0.005551 0.026808 -0.028130 0.018938 -0.013811 0.010807 0.023647 -0.012885 -0.016208 0.013519 0.012531 -0.430048
choos -0.023712 -0.020925 0.009215 0.019161 0.013168 0.016727 0.002679 -0.012667 0.024188 -0.002352 0.003402 0.012801 0.018241 0.012292 -0.011507 0.015251 -0.008192 -0.003264 -0.005258 -0.012602 -0.255463
clarifi 0.005455 -0.013868 -0.019235 0.012377 -0.018406 0.005704 -0.004118 -0.006518 -0.012954 0.010344 -0.014091 0.002963 -0.031933 -0.004400 -0.013045 0.015400 0.000911 -0.012419 -0.025876 0.027057 -0.382863
combin 0.014844 -0.024728 -0.009391 0.016759 -0.000427 0.019444 0.005967 0.005509 -0.021723 0.016964 -0.013497 0.001841 0.003191 -0.009576 -0.004258 -0.010174 -0.007253 0.001290 0.003741 -0.016447 -0.823178
come 0.002304 0.017742 0.021420 -0.002960 -0.022403 0.016143 -0.014729 0.022369 0.007444 -0.007970 0.013791 -0.031538 -0.001721 0.001433 0.008012 -0.013226 -0.003466 -0.013019 -0.020167 -0.007369 -0.506343
compar -0.015459 -0.001977 -0.005326 -0.000240 -0.016766 0.009618 -0.016462 0.014322 -0.007780 -0.015770 -0.004502 0.013720 0.022644 0.030209 -0.023016 0.019461 0.003081 0.004367 -0.021641 -0.034408 -0.472587
conduct 0.011223 0.007989 -0.005304 -0.001116 0.022578 -0.004928 -0.003077 0.031191 -0.007547 0.009335 0.001122 0.001169 0.005175 0.007276 0.030970 0.026871 0.002030 -0.036435 0.018871 0.021806 -0.211668
construct 0.026639 -0.014707 -0.005548 -0.007705 -0.016452 -0.021237 -0.003704 0.007179 0.000087 0.015178 -0.010915 0.008027 -0.007295 0.004546 0.006134 -0.012614 0.021401 0.004204 -0.011692 -0.030536 -0.388429
contact -0.009835 0.004057 0.001449 0.017349 0.002963 -0.010086 0.014415 0.021509 -0.007551 0.011710 -0.016411 0.005782 -0.008977 0.005749 -0.000483 -0.019865 -0.013681 0.012241 0.025197 0.007748 -0.517320
creativ -0.004336 0.016018 0.007311 0.026618 -0.015658 0.007040 -0.013522 -0.020014 -0.014857 -0.019691 -0.005980 0.006429 0.020361 -0.013409 -0.020965 0.010260 0.013598 0.007870 0.002189 -0.014461 -0.387135
degre 0.023328 -0.019824 -0.014945 -0.010552 0.002396 0.007617 0.005390 0.013043 -0.013737 -0.012869 -0.013016 0.004087 -0.009216 -0.008455 0.004020 0.000071 -0.002622 0.007781 -0.009402 -0.019325 -0.638382
doesn’t -0.017680 -0.022631 0.009612 0.020163 -0.001955 0.002138 0.012428 -0.010259 -0.028307 -0.016025 0.008257 0.010925 0.016457 0.013790 0.012939 0.017160 0.004028 0.003092 -0.007477 0.030675 -0.570253
done 0.006870 -0.009940 -0.009367 0.006315 0.002312 -0.004648 -0.005462 0.000768 0.021823 0.006619 0.001518 -0.008234 0.002083 0.028215 0.014001 -0.025613 -0.011058 0.013604 -0.019400 -0.022298 -0.723711
effect -0.018829 -0.004609 0.017083 -0.014967 0.008461 -0.007058 0.006797 -0.026236 0.010376 0.006539 0.014159 0.016109 0.001042 -0.008313 -0.013722 0.015436 -0.005356 0.022248 0.006760 -0.006835 -0.190858
email -0.013471 -0.012247 0.015035 0.019790 0.004828 0.013027 -0.008934 0.005433 -0.001973 -0.034380 0.007353 -0.035910 -0.019811 0.018385 -0.029306 0.016057 0.006346 0.004693 -0.012077 0.005222 -0.515409
etc 0.019348 -0.000524 -0.026879 -0.019894 0.000710 0.024930 -0.025095 -0.014262 0.021383 -0.006011 0.020004 0.020029 -0.007195 0.006096 -0.031658 -0.016639 0.014607 -0.008424 -0.004382 -0.011338 -0.752166
exampl 0.010214 -0.020993 0.020354 -0.036536 0.020761 0.022357 -0.012613 0.014039 0.022261 0.015900 0.018381 -0.021826 -0.019880 -0.025997 -0.016743 0.014724 -0.004600 -0.010061 0.004416 0.013302 -0.418462
express 0.014217 -0.008972 -0.013115 0.001053 -0.002088 -0.025377 0.016501 -0.011044 -0.030265 0.021204 -0.030374 0.021330 0.007915 0.026073 -0.020626 0.002400 0.007277 0.016194 0.015651 -0.002007 -0.439788
facetofac 0.015405 0.030745 -0.013224 0.004183 0.015672 0.026050 -0.014939 0.019828 -0.026676 -0.018978 0.005494 -0.012754 -0.012762 -0.001194 -0.014175 0.005457 0.013041 0.000528 0.006654 -0.014358 -0.317240
far 0.019389 -0.011699 -0.017111 -0.009279 0.001186 -0.023581 0.020914 -0.003704 0.012858 0.015468 -0.009528 -0.002973 -0.017390 0.012789 -0.024148 -0.005279 -0.019112 0.012566 0.022182 0.015239 -0.359060
felt -0.020726 0.025069 0.003813 -0.003047 0.023146 0.015170 -0.018240 0.006703 -0.001023 -0.021770 -0.020754 -0.003322 0.011006 -0.004814 -0.019598 -0.021624 -0.003405 0.025906 -0.006210 -0.016504 -0.437786
focus -0.009544 -0.025449 -0.001987 0.001445 -0.006315 -0.009364 0.021213 0.023705 0.005895 -0.018954 -0.014309 -0.006950 0.000747 0.020310 -0.013989 0.017996 -0.015227 0.008405 0.002135 0.002393 -0.141502
form -0.024515 -0.012560 0.011349 0.008440 0.023698 -0.000927 -0.016319 0.017564 -0.006523 0.019391 -0.015716 -0.012728 -0.018186 0.013398 -0.030491 0.015083 -0.016318 -0.014089 0.029048 0.001386 -0.445192
forumschat 0.002518 -0.024091 0.020838 0.014895 0.002663 -0.026364 0.001726 -0.014935 -0.006427 0.018700 0.010201 0.013866 -0.020058 0.014603 0.028072 0.012528 0.014532 0.017668 -0.006556 -0.021587 -0.436703
freedom -0.023269 -0.020648 0.022674 -0.008866 -0.019023 0.022491 -0.023866 0.000998 0.006094 0.002379 0.016878 0.019722 0.017510 0.021871 0.018700 0.000556 -0.021121 0.013711 -0.011890 0.017733 -0.318034
gain -0.019601 -0.002330 -0.006574 0.001650 -0.006103 0.017026 0.010109 0.006141 -0.019659 -0.021301 -0.006720 -0.017294 -0.015051 -0.019361 -0.010111 0.015917 -0.005896 0.003337 -0.026982 0.027369 -0.445161
gener -0.018754 0.006276 -0.006822 0.005760 -0.009779 0.016890 -0.010089 0.014532 -0.017146 -0.011597 0.001472 0.004478 0.005661 -0.001992 0.011512 0.022061 -0.022644 -0.020712 0.011378 -0.038207 -0.630792
hear -0.015223 -0.016379 -0.000972 -0.019612 0.023542 0.011235 0.013106 -0.025023 -0.024316 -0.025725 0.000949 0.026514 0.015212 -0.014959 -0.014500 0.019042 0.018238 -0.015970 -0.004922 0.008107 -0.229889
immedi -0.017413 0.013563 0.022581 0.016729 -0.011486 0.025031 -0.027893 0.001479 0.003528 -0.008410 -0.000968 -0.004037 0.000405 0.021997 0.021812 -0.026729 -0.022146 0.004158 0.001333 0.022104 -0.572970
induc 0.016790 0.020831 -0.012374 -0.028819 -0.019050 -0.022811 -0.011032 0.002305 -0.033498 0.012919 0.006563 0.000969 -0.026139 0.032539 -0.000195 -0.012946 -0.016511 -0.032085 0.034914 -0.001490 -0.531040
inperson -0.010137 0.014687 -0.028817 0.025051 -0.010951 -0.019795 0.017273 0.020363 0.021157 0.009860 -0.022874 0.002412 -0.017460 0.002791 0.006628 0.020985 0.000297 0.004811 -0.029394 0.027479 -0.437130
instead 0.009320 -0.008860 -0.017009 -0.003737 0.001379 0.019732 0.008776 0.004277 -0.020075 -0.007038 -0.007898 0.002862 0.002882 0.022741 -0.016212 -0.010843 0.026854 -0.025582 -0.013423 0.032637 -0.394791
issu 0.005920 -0.001544 -0.020277 -0.022061 -0.001379 -0.014171 -0.005629 0.002363 -0.006282 -0.010243 0.001079 -0.008371 0.010196 0.020946 -0.028667 -0.024789 0.020693 0.012752 0.021992 -0.011705 -0.340909
join -0.004486 -0.031019 -0.027165 -0.023610 -0.005508 0.016129 -0.008423 0.014885 -0.025917 -0.012188 -0.009035 -0.023100 0.010229 0.008713 -0.026963 -0.026446 -0.018873 0.025645 0.006914 -0.025051 -0.634105
kind -0.016733 -0.014439 -0.013815 -0.022559 -0.005048 -0.007950 -0.009429 0.013098 -0.006779 0.010330 -0.016352 0.015405 0.023065 -0.021860 -0.009310 -0.013417 -0.016037 -0.007787 -0.012928 0.000531 -0.405598
lecturerseminar -0.026279 0.007734 0.028981 -0.008226 0.013145 -0.015095 0.005095 -0.014961 0.000498 -0.008812 0.017206 0.018121 0.029657 -0.006330 -0.032134 -0.014487 0.016059 0.016702 -0.017565 -0.028077 -0.452520
look -0.006733 -0.008288 0.008919 -0.001669 0.008806 0.000743 -0.006375 -0.009100 -0.027827 -0.004169 0.002447 0.000108 0.001047 0.023411 0.018172 0.028126 0.023323 -0.013195 -0.016043 -0.003028 0.177285
might 0.020731 0.015373 -0.020827 -0.006537 0.027625 -0.020791 -0.004283 -0.002635 0.015035 -0.007176 -0.023826 0.015023 0.005700 -0.022133 -0.023445 -0.011755 -0.023513 0.018541 -0.011523 -0.035641 -0.570527
miss 0.014355 -0.017260 0.007540 -0.014995 -0.023894 -0.031026 -0.019580 -0.014273 0.003125 0.020312 -0.021494 -0.000263 -0.008346 -0.017669 -0.004727 -0.022343 -0.006283 0.009920 -0.013611 -0.002458 -0.529674
note 0.017380 -0.018714 0.031189 -0.008897 -0.020726 -0.005683 -0.008187 0.011291 0.006770 -0.030407 0.002103 -0.011717 0.041139 -0.023418 -0.016746 0.017562 -0.002860 -0.009945 0.000526 0.012139 -0.620241
order -0.016105 0.007809 -0.011743 -0.013183 0.010371 -0.009173 0.008624 -0.008437 0.019437 0.017213 -0.002146 0.002794 0.001002 0.018242 -0.000191 0.026308 0.029609 0.006480 -0.002754 0.026086 -0.595844
passiv -0.025338 0.008019 -0.002416 -0.015776 0.020381 0.012624 -0.012824 0.019329 -0.016424 -0.003138 0.005477 -0.017047 0.024662 0.010330 -0.002907 0.011410 0.014610 0.016665 0.023450 0.023825 -0.407677
people’ 0.008202 0.003418 -0.006781 -0.021364 0.000267 -0.017293 -0.018431 0.008799 0.031297 -0.008118 -0.006219 -0.015868 0.022898 0.007457 -0.011521 -0.002250 -0.006563 -0.027636 -0.018290 -0.016650 0.048135
platform 0.012218 -0.000118 0.016901 -0.008057 0.018436 0.002833 -0.007259 0.023556 0.016677 -0.012473 0.011640 -0.005235 0.028419 0.006641 0.009790 -0.004984 0.011217 -0.013316 0.032410 -0.011722 -0.756968
plu 0.018280 0.002219 -0.003908 0.013400 0.002662 0.009750 -0.016777 0.000376 0.003544 0.004403 -0.005284 0.011917 -0.013148 -0.006439 -0.004731 0.008622 0.021927 -0.015771 0.028974 -0.003292 -0.681111
possibl -0.019074 -0.004578 0.010103 -0.012888 0.003619 -0.012369 -0.014465 0.003695 0.021111 -0.024480 0.021189 0.016204 -0.026074 -0.023854 -0.011877 0.009275 0.015600 0.010196 0.006567 -0.013483 -0.796228
rather 0.020603 -0.016437 -0.008887 0.003515 -0.021633 -0.020338 -0.002529 0.008304 0.010095 0.000537 0.022545 0.018597 0.023078 0.015349 0.013404 0.002215 -0.007979 -0.016806 -0.014341 -0.023256 -0.232408
reach 0.002462 0.017290 -0.016716 0.019152 -0.003445 0.009953 -0.019011 0.029105 0.006573 -0.018251 0.027254 -0.008480 0.006788 -0.020164 -0.000954 -0.017608 0.002281 0.020052 -0.015398 -0.003091 -0.466675
reli 0.012206 -0.015671 -0.011899 -0.019114 -0.019207 -0.021061 0.018268 0.013690 0.016052 0.021978 -0.016741 -0.004488 0.016439 -0.000585 -0.004231 -0.002844 -0.015216 -0.011760 -0.019436 -0.026108 -0.520868
respond -0.017478 -0.005780 0.005247 -0.017891 -0.027049 0.022094 -0.011530 0.001425 -0.018857 0.005185 0.000351 0.025792 0.007830 0.010580 0.007863 0.026636 0.021373 -0.008019 -0.028537 0.000310 -0.576841
say -0.007577 0.020649 -0.015851 0.017518 0.002714 -0.009036 -0.004347 -0.001308 -0.002172 -0.025651 -0.005498 0.015433 0.002014 -0.002495 -0.011676 0.017888 0.005562 -0.002248 0.014619 -0.001800 -0.444964
schedul -0.000354 0.018457 -0.014934 0.003477 0.009605 0.016975 -0.017787 0.009299 -0.004663 -0.027130 -0.022389 -0.012143 -0.012322 0.010722 0.026466 -0.011742 -0.015622 -0.017911 -0.017697 -0.012955 -0.696240
slow 0.001233 0.006331 0.026178 -0.018985 -0.020944 -0.021313 0.017674 0.008095 -0.004201 0.004257 -0.019871 -0.023218 0.029908 0.012578 -0.006900 -0.017209 -0.005276 -0.014339 0.020592 -0.010136 -0.545262
social -0.023654 0.022200 -0.012594 -0.016556 -0.008511 0.029074 -0.007943 -0.008762 0.013777 0.010710 0.005435 0.004281 0.001318 0.003002 -0.014858 -0.012815 -0.005465 -0.002334 0.018105 -0.015626 -0.503219
someon 0.009603 0.011455 -0.008126 -0.007515 0.010034 0.023054 -0.008480 -0.001923 0.016846 -0.005294 0.010072 0.005459 0.004224 -0.007862 -0.014354 -0.009007 -0.021898 -0.000537 -0.010320 0.004499 -0.380415
task -0.012552 0.010039 -0.016494 0.015391 -0.018905 0.006238 -0.001458 -0.028253 0.013681 -0.014257 -0.007935 0.013620 -0.025476 0.000209 -0.020782 -0.008668 -0.005964 0.011770 0.015020 -0.017004 -0.048084
teach 0.003354 -0.008301 0.017467 -0.027076 0.005306 -0.020684 -0.021905 0.012720 -0.009063 0.025749 -0.004285 -0.005223 0.024161 0.012030 0.025978 -0.015731 -0.012823 0.029962 0.027186 0.011816 -0.438111
uni 0.003709 0.007597 -0.004998 -0.030657 0.023453 -0.014926 -0.006078 -0.017631 0.011590 -0.013700 0.003121 -0.005267 -0.005837 0.004586 -0.004759 0.018540 0.003535 0.002239 0.017817 -0.021133 -0.575689
usual -0.007371 0.009494 -0.021945 -0.008461 0.009401 0.001664 0.015354 0.005983 -0.008719 -0.022494 0.022060 -0.020737 -0.021009 -0.006720 -0.026266 0.022068 0.010533 0.000608 -0.004355 0.022224 -0.556911
view 0.015792 -0.029064 -0.004905 0.004570 0.015115 0.022655 -0.000910 -0.007253 -0.019726 -0.016565 0.004670 -0.006305 -0.008776 0.008670 -0.017955 -0.020637 0.005308 0.016420 0.000039 0.018155 -0.063331
wait -0.016993 -0.003069 -0.015372 -0.014820 0.017047 -0.012337 -0.009571 0.012090 -0.028271 0.029609 0.005348 0.004135 0.015429 -0.015788 -0.010382 -0.003462 -0.027059 -0.018419 -0.002036 -0.007513 -0.354004
workshop -0.010091 0.011799 -0.006409 0.015911 0.013975 0.030919 -0.013627 -0.006407 -0.007191 -0.004348 -0.015797 0.018903 0.014399 0.013946 0.007973 -0.009956 -0.007284 -0.003622 0.014765 0.020820 -0.395252
written 0.015724 -0.012651 -0.028765 -0.005238 -0.015993 0.008369 0.019406 0.013700 -0.021926 0.022504 0.007640 0.007792 0.012962 -0.014887 -0.017017 0.018312 0.024884 0.015467 -0.024489 -0.008885 -0.513126
‚put -0.015350 0.013498 0.016654 -0.005519 0.001531 -0.016292 -0.004249 0.025657 0.014635 -0.014950 -0.003769 -0.026293 0.002936 0.008533 -0.001638 -0.004191 0.027002 -0.008499 -0.006648 -0.014075 -0.630694
23 0.006932 -0.014848 0.024055 0.019213 0.001955 -0.020667 0.022431 -0.010918 -0.013937 0.001855 -0.019912 0.028328 0.016414 -0.013022 0.011725 0.007642 -0.010960 0.006629 -0.021988 0.014173 -0.440183
3 0.006110 0.008022 0.020720 -0.011867 0.004773 0.023601 0.009612 0.007543 0.007101 0.020955 0.014683 -0.015158 0.014710 0.013308 0.021935 -0.001113 -0.003754 0.016972 -0.003616 -0.013235 -0.487812
50 0.001765 0.025355 0.010650 -0.029310 0.017620 0.022895 -0.003779 -0.005055 -0.021931 -0.029614 -0.010254 0.010902 -0.031056 -0.021634 -0.018320 -0.017465 0.024677 0.001129 0.010349 0.020773 -0.482518
abil 0.003720 0.005166 -0.006214 -0.011253 0.014049 -0.002680 0.009413 0.016869 -0.017894 0.019701 0.007456 0.016764 0.016927 -0.001240 -0.017033 0.016947 0.015916 -0.020994 -0.015659 0.017093 -0.689498
abilityknowledg -0.009539 0.012906 -0.005791 -0.020535 -0.021651 -0.012262 -0.007168 -0.005766 -0.007639 -0.024392 0.020205 -0.002915 0.010036 0.007447 -0.025532 -0.001172 -0.005455 -0.006933 -0.027793 0.023711 -0.360660
achiev 0.014909 0.020887 -0.007844 -0.000944 0.001090 0.022464 0.017329 0.005056 -0.012847 0.000931 0.007997 0.007235 0.023712 0.027020 -0.011787 -0.023560 -0.025648 0.003438 -0.007614 -0.013404 -0.709015
add 0.022074 0.024914 -0.017754 0.009098 0.010258 -0.027987 -0.011099 0.014278 -0.010512 0.007888 0.010394 -0.008491 0.021891 -0.012651 -0.021936 -0.023358 -0.011591 -0.009283 0.027119 -0.022899 -0.446737
addit -0.020990 0.027725 -0.018158 -0.007731 0.033053 -0.023099 0.026252 0.005730 0.000846 0.014233 -0.000300 -0.022043 0.014629 -0.001670 -0.015891 -0.012391 -0.022152 -0.028013 0.015672 0.013589 -0.547523
advanc 0.006668 0.020102 0.003033 0.020970 -0.005058 0.020114 -0.013033 0.022004 0.015716 0.014667 -0.018684 0.001364 0.020820 0.011239 -0.016348 0.031979 -0.021248 0.009330 -0.011344 -0.007913 -0.495273
afterward 0.002911 -0.006438 0.019519 0.015533 -0.025057 0.011791 -0.018599 -0.009297 -0.000443 -0.009466 0.014632 -0.020061 -0.016319 0.008931 -0.022154 0.017107 -0.001385 -0.008263 -0.000012 -0.026172 -0.079513
alongsid 0.020656 -0.006995 -0.010976 -0.020576 -0.008577 0.020410 0.009951 0.022125 0.001288 0.016463 -0.003784 -0.019285 0.017313 -0.012088 -0.028023 0.012841 -0.012782 -0.023236 0.018400 -0.015199 -0.810617
although -0.025089 -0.020908 -0.029312 0.023206 -0.025408 0.009484 -0.015208 -0.018573 -0.014849 0.008588 0.004650 0.017081 0.025249 -0.005903 -0.018086 0.015541 -0.003991 0.001583 0.022159 -0.021046 -0.450698
angel 0.004762 0.004442 0.017082 -0.033391 -0.020413 -0.014922 0.004122 -0.022955 -0.018504 -0.012058 -0.016419 -0.013511 0.013795 -0.015326 -0.035737 -0.022098 -0.006769 -0.027591 -0.016961 -0.010018 -0.364634
anxiou -0.012136 -0.012904 -0.011676 -0.007617 0.014326 0.006745 -0.014997 0.010392 -0.003855 -0.009029 -0.009471 0.008182 0.002364 -0.000494 -0.021942 -0.025965 0.019079 0.022609 0.000360 0.011828 -0.565314
anyth 0.020443 0.018061 0.003084 -0.014046 -0.026386 -0.017313 0.011341 0.022443 0.002476 -0.021526 -0.010440 0.014751 0.010218 0.025114 0.019688 0.014025 0.029074 -0.005292 -0.011720 0.001990 -0.604159
anytim 0.023242 -0.004954 -0.011787 0.001585 -0.015134 -0.016599 0.022336 -0.020411 0.017555 -0.016242 -0.017325 0.020687 0.019564 -0.007971 -0.014209 0.022765 -0.001485 -0.001152 -0.007634 -0.017022 -0.645713
anyway -0.006116 0.019365 -0.015354 0.017588 0.017740 0.004792 -0.002076 -0.005275 -0.018664 -0.015460 0.008272 0.010434 -0.002657 -0.019369 0.013414 0.029077 0.011450 0.022815 -0.010928 -0.025567 -0.632024
around 0.030808 0.007829 0.026177 0.030939 0.001333 0.008362 -0.009986 -0.028437 -0.005437 -0.017804 0.026839 -0.021575 0.023206 -0.010847 0.013516 -0.008629 -0.029652 0.004720 0.024258 -0.012616 -0.751294
art 0.012334 -0.027200 0.023801 -0.014044 -0.022527 -0.022103 0.018943 -0.006236 -0.015359 0.002233 -0.028404 0.009353 0.019870 -0.014919 -0.003815 -0.018480 -0.015957 0.022807 -0.018463 -0.010394 -0.461617
artifici -0.009522 -0.021837 0.014859 0.006917 0.022856 0.004371 -0.013022 -0.028759 0.000757 -0.015413 -0.023682 0.019245 -0.024670 0.016056 0.001519 0.021841 -0.005555 -0.005194 0.008920 0.024265 -0.454156
atmospher -0.032021 0.009811 0.008105 -0.000263 -0.020296 0.002358 0.008751 0.016706 -0.018612 -0.030014 -0.000474 -0.009832 -0.010173 -0.004116 -0.007430 -0.020211 0.015343 0.002686 -0.002952 -0.004855 -0.473466
attend -0.025145 0.015193 0.018784 0.001758 0.012422 0.023292 0.020440 0.023914 -0.002740 -0.008931 0.013206 0.008318 0.020183 -0.018275 -0.017328 0.001730 0.002984 -0.013993 0.029080 -0.029268 -0.583700
audiopressur 0.001729 0.009306 -0.010424 0.022483 0.008522 -0.000457 0.001906 -0.003897 0.001129 -0.020138 0.013807 -0.004349 0.003653 -0.017726 -0.025451 -0.019082 0.007578 -0.004020 -0.012920 0.002673 -0.712640
automat 0.016773 -0.011115 -0.000594 0.021633 -0.000341 -0.007383 0.015565 0.016278 0.001547 -0.000387 0.001828 -0.023008 -0.012083 0.006665 -0.010631 0.006763 0.000215 -0.015291 -0.003797 0.013187 -0.739074
avail -0.020471 0.001819 -0.022889 -0.006230 -0.021319 -0.020875 0.005043 0.006949 0.019604 -0.000756 0.014265 0.016647 -0.015046 -0.005121 0.005452 0.025736 -0.002490 -0.003383 0.005013 -0.023246 -0.436590
away -0.015150 0.005118 0.014381 -0.024856 -0.008906 -0.022188 0.027898 -0.000997 -0.005524 0.004811 0.020375 -0.015633 -0.015991 -0.006887 0.014596 -0.011938 0.018367 0.022335 -0.015029 -0.009681 -0.352322
bad -0.026186 0.015475 0.014812 -0.024844 -0.014324 -0.006587 0.014280 -0.005426 0.004762 -0.024687 0.027876 0.013204 -0.017398 0.009690 0.003668 0.017024 -0.023675 0.002543 -0.012274 -0.005228 -0.503527
barrier 0.000131 0.018373 0.007267 -0.012587 -0.002842 -0.007539 0.009513 0.000005 0.015705 -0.010823 -0.002408 0.005358 0.014864 -0.021632 -0.022063 0.024330 0.013210 0.019620 -0.013144 0.016011 -0.486911
bit -0.010802 -0.000377 -0.017300 -0.021947 0.009083 -0.009613 0.002435 -0.005581 -0.001216 0.020330 -0.016384 -0.003884 -0.022389 -0.002193 -0.006201 0.013335 0.010354 0.023141 0.000517 0.011800 -0.404160
bore -0.015797 0.000381 0.009915 0.004513 0.026581 0.005040 -0.008164 -0.000604 0.010139 -0.015098 0.021774 0.004702 -0.016515 -0.004216 0.016620 0.006307 0.019160 -0.016154 0.014607 0.003595 -0.054424
bother -0.016222 0.008387 0.008353 -0.006882 -0.008727 0.021516 0.019325 0.023138 0.005981 0.023427 0.001709 0.013186 0.013758 0.026701 -0.006272 -0.006948 -0.000552 0.019612 -0.021509 -0.008614 -0.811555
casual 0.013819 0.007264 -0.012159 0.009899 -0.011403 0.016302 0.023315 -0.010429 0.022261 0.007279 0.006209 -0.022091 0.001596 0.005351 0.009960 -0.009970 0.000690 0.010932 0.021117 0.020759 -0.130684
caus 0.007689 -0.005781 -0.021682 -0.002738 -0.001710 -0.020788 -0.028217 0.009576 0.022645 -0.007325 -0.023057 0.008061 0.000939 0.012181 -0.024794 -0.007188 -0.005666 -0.004617 0.010496 -0.013189 -0.552533
chatsforum 0.003107 -0.013410 -0.020126 -0.015718 0.012626 -0.012827 -0.009003 0.018594 0.005011 -0.012507 -0.026992 -0.024196 -0.014205 -0.013099 0.021101 -0.012742 -0.005887 -0.017737 -0.004617 -0.002281 -0.546883
clarif -0.017227 0.013888 0.010230 -0.004736 -0.017035 0.027216 -0.005661 0.009546 -0.012244 -0.004795 -0.022997 -0.007131 -0.011483 0.027110 -0.007700 0.006741 0.014024 -0.003011 -0.006074 -0.002151 -0.667076
classroom 0.012604 0.028149 -0.011808 -0.030777 0.005332 -0.009442 0.027948 -0.004495 -0.029131 -0.017287 0.003413 0.006056 -0.008860 0.002426 0.009070 0.008142 -0.000471 -0.003685 -0.001925 -0.009748 -0.200655
clear -0.022009 -0.021280 -0.007370 -0.019437 -0.010516 0.000518 0.001998 -0.018753 -0.009530 -0.011211 -0.014536 -0.003288 -0.011159 -0.002597 -0.017942 -0.015659 0.024553 0.014507 -0.001420 -0.003111 0.151914
closest 0.003660 -0.001112 0.015516 -0.013410 0.025209 0.015563 -0.007132 -0.024409 -0.010518 0.017322 -0.019186 0.004322 0.015389 0.019229 -0.021386 0.009324 0.011081 -0.010403 0.014260 -0.012508 -0.221197
clunki 0.011244 0.010209 -0.025623 -0.006879 -0.005974 0.015558 0.013321 -0.023204 -0.001342 -0.001223 0.008574 0.025339 0.000810 -0.027656 -0.019634 0.018232 0.015566 -0.003790 -0.003258 0.019397 -0.377087
complet 0.019758 0.014884 -0.019123 -0.014111 0.011977 0.024543 0.016565 -0.008418 -0.000870 -0.001555 0.014585 0.022119 -0.016723 -0.005714 0.022828 -0.003561 -0.005723 -0.023462 0.002143 0.024342 0.145922
complex -0.022681 0.015244 0.002909 0.011719 -0.004055 0.006577 -0.012584 -0.020678 -0.000923 -0.018886 0.008210 0.028582 -0.014759 -0.008954 0.019490 0.024114 0.006561 -0.002829 0.001451 -0.011335 -0.588978
comun 0.027120 0.022570 0.000213 0.005499 -0.024017 0.024853 0.003880 0.019321 -0.018351 0.013424 -0.019380 0.003466 0.008722 0.019949 0.009335 -0.003132 0.000951 -0.005754 0.011418 -0.000678 -0.486396
concis 0.006735 -0.018950 -0.021178 0.024984 -0.006706 -0.018697 0.005478 0.003736 -0.015840 0.004397 -0.019595 0.006123 0.025178 0.014693 0.011539 0.013091 0.007828 0.005594 0.025279 0.004630 -0.264786
conect 0.005641 0.004419 0.012772 0.020000 -0.015461 0.019179 0.000727 0.019179 0.014174 -0.003797 0.021142 -0.029378 0.004314 -0.002082 -0.015999 0.021090 0.000277 0.013390 0.020976 -0.008896 -0.548926
confid 0.022010 -0.011894 0.013399 0.011236 0.003012 -0.011583 -0.014623 -0.020759 -0.004387 -0.000857 0.004730 -0.011347 0.011268 0.002805 0.006930 0.010543 0.017433 0.014177 -0.019155 -0.016113 -0.612236
confront 0.001725 0.014397 -0.017204 -0.010078 0.012739 0.004451 0.009521 0.005799 -0.005056 -0.017002 -0.020085 -0.022415 -0.009432 -0.011211 0.006391 0.001770 0.012663 0.021493 0.006633 -0.005097 -0.200999
conveni -0.025316 0.012960 -0.004270 -0.009247 -0.022531 -0.017650 -0.024135 0.010225 0.021593 -0.014978 -0.018443 0.012378 0.015143 0.000883 0.003598 0.013923 -0.004180 0.013888 -0.014121 -0.000540 -0.682276
correctli -0.008772 0.011710 -0.019159 -0.024650 0.022386 -0.008963 -0.015864 -0.002158 -0.013754 -0.000910 -0.015696 0.003715 0.019126 0.016711 -0.018872 0.015279 -0.020337 -0.010003 -0.023559 -0.005054 -0.788367
could -0.002904 -0.001000 0.015246 0.012108 0.008828 0.015141 -0.012096 0.013543 -0.014509 0.005980 -0.005982 -0.002963 -0.008527 0.000564 0.018822 0.002016 0.018539 -0.011720 0.021388 -0.014331 -0.244916
couldn’t -0.002952 -0.002779 0.008558 -0.013832 -0.021666 0.010499 0.004248 0.013370 -0.008911 -0.013157 0.023311 -0.026824 0.024634 0.020023 -0.003725 -0.019370 0.000590 -0.027321 -0.008959 0.028288 -0.349114
creat -0.000638 0.008340 0.021586 0.021906 0.027031 -0.013128 -0.021943 0.012069 0.008829 -0.001823 -0.019629 -0.015941 0.026067 -0.015149 0.014719 0.003431 0.017547 -0.002937 -0.003391 0.005711 -0.584099
cross -0.019036 -0.007933 -0.004165 0.016148 -0.012515 0.007583 0.004626 0.021947 0.019794 -0.042876 0.003484 0.023794 -0.018894 -0.010143 -0.033916 -0.019742 -0.026957 -0.019082 0.001045 -0.015466 -0.527840
crucial -0.011588 -0.010919 -0.000909 0.021264 0.020755 0.008928 0.004236 -0.004587 -0.021293 0.003151 -0.000927 0.013873 -0.025520 0.026030 -0.005072 0.031221 -0.000365 0.004205 0.023254 -0.000620 -0.541874
cue 0.031168 -0.009383 -0.006750 0.016515 -0.014388 0.015833 -0.020629 -0.024919 -0.010677 0.025085 -0.003558 0.015784 0.010575 0.013781 0.024227 0.007539 -0.003835 -0.007531 -0.005474 0.015595 -0.515864
curat -0.005614 0.003086 0.012097 -0.020201 -0.003325 0.000832 -0.012805 0.024384 -0.003628 -0.020685 0.016074 -0.004866 0.002614 -0.016248 -0.017553 -0.002265 -0.017322 -0.008081 -0.008749 -0.012529 -0.135702
daunt 0.017141 -0.001926 0.016553 0.007043 0.008131 -0.010273 0.015101 0.015762 -0.023658 0.010806 -0.011624 -0.004333 -0.006804 0.011100 0.013510 0.000509 0.014073 0.006544 -0.024738 0.017943 -0.179897
day -0.024467 0.019122 0.019828 -0.012556 0.010864 -0.002029 0.010359 -0.013062 -0.021236 -0.014702 0.003696 0.016711 -0.018229 0.002284 -0.020426 -0.004857 0.017481 0.023327 -0.010330 0.019105 -0.675598
deadlin 0.014066 -0.003577 -0.020253 0.001015 -0.021042 0.014782 0.032176 -0.022747 -0.012372 -0.019906 0.009889 0.007926 0.000488 0.001509 -0.021459 0.021953 0.003586 -0.022481 -0.007540 0.019878 -0.548542
deal -0.010343 0.013438 -0.011699 -0.005796 0.000073 -0.024911 -0.001693 -0.017068 0.001137 0.011992 0.019866 0.017881 0.018533 0.002611 -0.012223 -0.016784 -0.005887 -0.013377 -0.016484 -0.018963 -0.528553
debat -0.004706 -0.018788 0.005702 0.008392 0.028653 -0.010968 -0.004578 0.005583 -0.008555 -0.011757 -0.003523 0.003845 -0.005937 0.006671 0.022237 0.006755 0.000487 -0.010874 0.016782 0.007634 -0.646371
deeper -0.025688 -0.006074 0.010954 0.004001 0.011025 -0.021170 0.025650 0.021840 -0.001992 -0.022693 -0.009133 -0.008258 -0.006149 0.001013 -0.003677 -0.004421 0.011666 0.008081 0.014902 -0.004670 0.060447
delay 0.017725 0.016029 -0.015085 0.018543 -0.002184 -0.022837 0.008580 0.021387 -0.017051 -0.022361 0.019246 0.015961 0.012644 -0.013377 0.020833 -0.026673 -0.019393 0.001249 -0.015244 -0.000481 -0.504011
depth -0.024697 0.021550 -0.004988 -0.017258 -0.002805 0.026595 0.012791 -0.018000 -0.007326 -0.025083 0.020590 -0.007886 0.017844 -0.006432 0.009781 -0.027572 -0.023045 0.000184 -0.014622 -0.027076 -0.642138
dicuss 0.011516 -0.004806 -0.014826 -0.008347 0.011685 -0.022818 0.007075 0.019327 0.002712 -0.032467 -0.008501 -0.016844 0.015795 0.025272 -0.015172 0.005799 -0.001599 0.006905 0.024430 -0.005009 -0.572871
digest -0.011926 0.011401 -0.009513 0.011383 0.017048 -0.015693 0.013713 0.002603 0.016065 -0.029938 0.008120 0.015037 0.007259 -0.005314 -0.030215 0.004396 0.000892 -0.004048 0.026125 -0.017397 -0.566555
directli -0.016003 0.020655 0.008488 -0.005769 0.004330 -0.008791 -0.012401 -0.013117 -0.009906 -0.001603 0.002834 0.023360 0.001918 0.011374 -0.004226 0.019464 0.012589 0.018927 -0.002814 0.003213 -0.974501
easili 0.009489 0.008458 -0.004261 -0.022715 -0.000829 -0.022550 0.014455 0.002266 0.002854 0.003693 -0.020036 0.013317 0.023821 -0.008313 0.010262 0.011925 -0.009179 0.009004 -0.011089 0.006354 -0.427247
effici 0.012331 0.014593 -0.001252 0.017713 0.009174 0.002402 -0.011187 -0.024490 0.017288 0.004567 0.000542 -0.005519 0.012502 -0.003267 0.021512 0.015954 0.018142 -0.007683 -0.018636 0.009575 -0.607497
eg 0.015930 0.009565 0.024571 0.025211 0.025337 0.022783 0.022085 0.020162 0.009105 -0.029734 0.014341 0.015246 0.020141 0.005153 -0.002995 -0.026568 0.001747 -0.015674 -0.002108 -0.002649 -0.406418
either 0.005853 0.010503 -0.015172 0.021365 -0.013663 0.022077 -0.017622 -0.008970 0.010198 -0.002354 -0.007028 -0.012779 -0.009471 -0.017987 0.013330 0.007699 0.013141 0.009223 -0.002484 -0.023061 -0.727927
enabl -0.020469 -0.005421 -0.020805 -0.019045 0.018070 -0.011293 -0.014071 0.014777 0.012047 -0.017704 0.003254 -0.000396 0.003500 0.022288 -0.017728 -0.008237 0.009397 0.017770 0.018340 -0.012733 -0.802067
encourag -0.025812 0.010026 0.010702 -0.007140 0.018498 0.013321 -0.027482 0.011025 -0.017973 0.009414 -0.002664 -0.019400 0.008897 -0.019321 -0.016355 0.015294 -0.014838 0.008569 -0.016047 0.015377 0.058603
english -0.001106 0.000385 -0.030083 0.002846 0.022866 -0.000453 -0.003990 -0.017743 -0.007268 -0.011940 -0.029362 -0.007012 -0.011797 0.003674 -0.010863 0.020441 0.003955 -0.016376 -0.004834 -0.019223 -0.615510
englishcr -0.009609 0.012310 -0.024126 -0.002318 0.004632 0.003407 -0.008785 -0.005477 0.007580 -0.010092 0.014501 0.002290 -0.001872 -0.020172 0.008062 0.026905 -0.018063 0.010630 -0.010520 -0.005762 -0.541131
environ 0.022943 -0.017834 -0.018863 0.007444 -0.013336 -0.023008 0.021584 -0.004664 -0.000458 -0.031478 -0.002047 0.002655 0.014466 -0.014111 -0.014244 0.011067 -0.020353 -0.014834 -0.027554 -0.027933 -0.453278
eventu 0.018608 0.001278 -0.012484 -0.013142 0.021263 -0.000682 0.014974 0.010971 -0.001820 0.009659 0.019336 0.015665 -0.025634 0.007420 -0.027739 0.021714 -0.008415 -0.004286 -0.000744 -0.027171 -0.437188
everyth 0.005601 -0.022061 -0.018621 0.005104 0.025468 -0.015224 -0.019785 -0.009721 -0.014363 0.016996 -0.002888 -0.012506 -0.005920 0.006344 0.002362 -0.015856 -0.007239 -0.018877 0.017595 -0.022608 -0.564929
ex -0.008995 -0.003686 0.005632 -0.013024 0.007073 -0.024261 -0.006801 0.015966 -0.014537 0.011397 0.022533 -0.011111 -0.023008 0.001670 -0.000280 -0.017783 0.011871 -0.008698 -0.006508 0.007877 -0.452979
exactli -0.021797 -0.002430 -0.004750 -0.017089 0.026062 -0.010128 -0.000049 0.017685 0.025701 -0.026541 0.018980 0.024083 -0.025534 0.018778 0.002227 -0.020359 0.017857 0.015950 -0.016388 -0.009867 -0.688536
exchang 0.012347 0.006118 0.014857 -0.000544 0.024685 -0.014473 -0.026754 -0.023446 0.003614 -0.013562 -0.016326 -0.011522 -0.010368 0.024173 -0.023813 -0.007983 -0.018518 0.009388 0.021912 0.020020 -0.583388
exclud 0.000149 0.022664 0.011220 -0.008197 -0.005097 -0.011368 0.028058 -0.021600 0.003667 0.016795 -0.003870 0.024670 0.018895 0.011373 0.001228 0.010892 0.007136 0.009405 -0.003222 -0.023810 -0.818827
explain 0.014687 -0.023468 -0.007241 -0.023935 -0.014260 0.004669 -0.016279 0.003580 -0.001629 -0.020666 -0.016316 0.012533 -0.005305 -0.023440 -0.023387 -0.009636 0.019372 0.017440 -0.014744 0.009277 -0.551748
explor -0.003242 -0.020482 -0.005334 -0.019323 0.010661 0.009758 0.012388 0.024991 0.020071 0.020569 -0.014734 0.013785 -0.014991 0.021356 -0.018067 0.008513 -0.010272 -0.002172 -0.010162 0.017328 -0.449333
extens -0.001841 -0.005144 -0.005871 -0.006736 -0.006216 -0.009823 -0.001935 -0.016245 -0.013082 -0.025404 0.019576 0.004898 0.016553 0.004273 0.001811 -0.031819 -0.015869 -0.005064 0.007958 -0.017204 -0.657373
fact 0.016346 0.014053 0.001340 0.008346 -0.020953 0.005437 -0.005127 0.010341 0.021715 -0.009724 0.015783 0.011528 -0.010349 -0.007288 -0.013864 -0.006509 0.023931 -0.018479 0.011319 -0.000891 -0.233633
fair -0.018519 -0.009828 0.006256 -0.021992 -0.004744 0.012042 -0.015175 0.022415 0.017049 -0.012815 -0.014668 -0.015988 0.015368 0.019775 0.010019 -0.015729 -0.014358 0.005464 -0.016847 -0.018237 -0.334629
fake -0.008567 0.015468 -0.017806 -0.009803 -0.025706 -0.008858 -0.002450 0.016249 -0.026950 0.025059 -0.003879 -0.005564 0.001807 -0.013606 -0.007047 -0.008333 0.009667 -0.024259 -0.000113 -0.021283 -0.374773
famili -0.020385 0.000507 0.028492 -0.007700 -0.017097 -0.031330 0.001171 0.015255 0.022760 -0.026314 -0.008562 -0.011765 -0.023710 0.015872 0.023493 0.003301 0.009250 0.008378 0.016481 -0.015917 -0.387196
faster 0.022332 -0.016785 -0.022868 -0.011995 -0.009656 -0.003132 0.015218 -0.000665 0.018692 0.011204 0.012100 0.017032 -0.004682 -0.003931 -0.014679 -0.010413 -0.000301 0.011130 0.017302 -0.003077 -0.508843
fave -0.007253 -0.015545 0.002140 -0.019268 0.009320 0.011481 0.015872 0.012615 0.015424 -0.000993 -0.010389 0.010387 -0.001647 -0.007227 0.018866 -0.004274 0.003824 -0.014523 -0.017756 -0.018742 -0.326430
fill -0.009925 -0.013146 0.006582 -0.003475 0.020953 -0.006439 -0.022377 0.012816 -0.020223 -0.011468 -0.007507 0.005532 -0.016872 0.019724 0.002029 0.004230 0.026891 0.011947 -0.015358 0.002013 -0.490017
fine 0.004557 -0.010402 0.006760 0.011210 -0.011450 -0.015873 0.011634 0.011871 -0.015886 0.016563 -0.016492 0.014511 0.012907 0.000928 0.024122 -0.014112 0.019150 -0.003859 -0.018960 -0.007875 -0.548265
flexibl 0.007255 -0.020067 -0.021222 0.015428 0.025656 -0.012566 0.017951 0.008067 -0.021302 -0.023796 0.008860 0.025634 0.003674 -0.002693 -0.005490 -0.003389 -0.017289 -0.003439 0.011861 0.007501 -0.000074
flow -0.015808 -0.013820 0.001159 -0.023580 -0.015216 -0.020693 -0.019833 -0.016729 -0.001111 0.005125 0.008811 -0.020774 -0.024405 -0.014255 0.012850 0.017373 0.008077 -0.011005 0.003264 0.009049 -0.608752
follow -0.014528 -0.006605 -0.014756 -0.001559 0.013869 -0.007316 -0.009218 -0.004666 -0.018899 0.019663 -0.023685 0.011622 -0.004738 -0.004725 -0.026309 -0.007604 0.003521 -0.020516 0.001370 0.001622 -0.271449
forc 0.011766 -0.004385 0.003090 0.018473 -0.011564 0.000935 -0.019487 0.004214 0.013966 -0.018020 -0.017781 0.019851 -0.003458 0.007896 -0.011936 0.010495 0.001761 -0.009751 -0.021618 0.024103 -0.350333
format -0.000022 -0.022362 -0.019991 -0.011730 0.022453 0.022674 0.007685 -0.008049 -0.025689 -0.020300 0.003110 -0.010666 0.005151 0.015485 -0.007369 0.021050 0.000925 -0.024623 -0.014627 0.015475 -0.148602
formul -0.023515 -0.006425 0.000782 -0.019965 0.016096 0.032083 -0.005132 0.004252 -0.015029 0.010077 0.002935 -0.009774 0.017251 -0.023889 0.007723 -0.024321 -0.008815 -0.022061 -0.015232 -0.001692 -0.677390
forth -0.026852 -0.002133 -0.003637 0.021106 -0.012164 0.007357 0.032561 0.022203 0.009508 -0.022706 -0.024813 -0.019514 0.030679 -0.016467 0.017763 0.006874 -0.005992 0.007664 -0.016791 0.002302 -0.527995
foster 0.015331 -0.006332 -0.018413 -0.000886 0.016159 0.001026 -0.018043 -0.029169 -0.008305 0.028714 -0.003065 -0.002236 0.017666 -0.026890 -0.013701 0.002631 0.009790 0.024712 -0.016740 -0.001760 -0.574455
found -0.021924 -0.004334 -0.015030 -0.003180 -0.003566 0.000638 -0.017179 -0.010226 0.000686 -0.014114 0.013179 0.011791 -0.013321 -0.012605 -0.020407 -0.023325 -0.014520 -0.002256 -0.019333 -0.003353 -0.373456
free 0.013537 -0.001963 -0.019608 0.012828 -0.014486 0.017484 0.022734 0.021508 -0.005803 -0.011880 0.009559 -0.015304 0.015071 0.009362 -0.008178 -0.004592 -0.003873 -0.006156 0.010062 -0.001133 -0.418503
freeli 0.002544 0.022340 -0.001106 0.024868 -0.019834 -0.006417 0.019525 -0.003946 -0.011478 -0.011778 -0.013565 0.002596 -0.012722 0.009503 0.019982 -0.014751 -0.016504 -0.005551 -0.021088 -0.017168 -0.413099
friend 0.019234 -0.029247 -0.020904 -0.034161 -0.014080 -0.006292 -0.005232 0.023808 -0.012080 0.012230 0.011484 -0.018797 0.022805 0.000578 -0.000303 -0.019830 -0.006317 0.004058 0.011561 -0.011322 -0.214270
front -0.002918 -0.022977 0.009974 0.004450 0.026670 0.013762 0.015615 0.002841 -0.000269 -0.026286 0.014510 0.004233 -0.023587 -0.023134 0.010572 -0.015886 0.013093 -0.000765 -0.020246 -0.018894 -0.496711
fulli 0.014190 -0.025942 0.009544 -0.013833 0.006678 0.007885 -0.020160 -0.006098 0.013125 0.008435 -0.024965 -0.017938 0.015465 -0.013484 0.023397 -0.025080 -0.006373 -0.004253 -0.022629 0.019211 -0.466355
fun -0.016878 -0.003245 0.020301 -0.001269 0.024239 -0.004806 -0.015816 0.006382 -0.023160 0.001024 -0.020161 -0.012673 0.011216 -0.001472 0.016592 -0.000875 0.002049 -0.003286 -0.020498 0.001071 -0.107614
furthermor 0.011806 -0.005675 0.003266 -0.025124 -0.022334 0.018412 -0.018232 -0.007212 0.009281 0.011167 0.008305 0.012135 0.021550 0.021719 0.017413 0.025995 0.002562 -0.004585 0.015073 -0.000210 -0.793985
gap -0.022178 -0.008152 0.010924 0.004696 0.005532 0.004592 0.007715 0.007650 0.016216 -0.002958 0.023841 0.007351 -0.018863 0.008462 -0.002971 -0.016305 0.027522 0.018585 -0.006533 -0.003645 -0.551234
goe -0.019619 0.005685 0.022675 0.003775 0.023452 -0.025916 0.021821 -0.013719 0.016380 -0.017957 0.009741 -0.005701 -0.017024 -0.008595 -0.011669 0.020237 -0.026798 0.015762 -0.007759 -0.011271 -0.429841
grasp 0.008318 0.014877 0.022612 -0.012946 0.023203 0.012144 -0.004406 -0.018326 -0.010885 -0.019478 -0.008662 -0.029338 -0.004922 0.006440 0.006492 0.008178 0.010767 -0.023375 0.025712 0.003582 -0.206039
guidanc -0.007158 0.000478 0.018160 0.014107 0.024779 0.002464 -0.012294 0.000728 -0.012690 0.009556 -0.000479 0.017022 -0.025904 -0.016973 -0.032591 -0.026510 -0.019786 0.009978 -0.002791 -0.008433 -0.535198
hand 0.017789 -0.014007 -0.004576 -0.024795 0.029028 0.019440 -0.022669 0.016875 -0.008666 0.020591 -0.023184 -0.017812 -0.017647 -0.003297 -0.031995 -0.020420 0.021941 0.023835 0.004224 0.013800 -0.634148
happen 0.001100 0.009305 -0.021178 0.020071 0.004220 -0.024925 0.007741 -0.000535 0.001161 0.017887 0.004163 -0.023978 0.014237 0.007453 -0.013371 0.022336 0.006647 -0.015199 0.011728 0.017236 -0.659024
hectic 0.004246 0.015992 -0.019337 -0.014688 -0.001820 0.008804 -0.016838 -0.005231 0.017436 0.003827 0.025221 -0.023678 0.006965 0.010399 -0.023893 -0.020072 -0.022608 0.020117 0.030736 -0.013500 -0.817488
hey -0.009254 0.024668 0.006129 -0.018236 0.014952 -0.021832 0.019327 0.014492 0.018788 -0.025875 0.007577 0.001435 0.009522 -0.011395 -0.007064 -0.022606 -0.022564 -0.010918 -0.013414 -0.030846 -0.550232
howev -0.012730 -0.015484 -0.018024 0.002282 0.007763 -0.024475 -0.020390 -0.004002 -0.015891 -0.008875 0.005291 -0.022414 0.002507 0.018112 -0.018755 0.019637 -0.015668 0.028883 0.014170 0.008392 -0.779695
ie 0.012556 -0.025183 -0.006910 0.008592 -0.000156 -0.025105 0.018685 -0.000104 -0.026526 -0.008006 -0.004447 -0.007552 0.026366 -0.019715 0.004324 -0.027203 0.020637 0.016675 0.022783 0.004597 -0.588541
imo -0.023383 0.001889 -0.016140 -0.007859 -0.006276 -0.025631 0.018168 0.013372 0.011241 0.018052 -0.015434 0.009325 0.028940 -0.019028 -0.014824 -0.019713 -0.021432 0.013383 -0.013224 0.023984 -0.682392
import 0.015413 0.004266 -0.006758 -0.024254 -0.002675 0.017149 -0.005068 0.026909 0.020609 0.019908 -0.001609 -0.020323 -0.008265 -0.008670 0.010801 0.009470 -0.011163 0.015388 -0.009397 0.002577 -0.459704
imposs -0.002368 0.022267 0.015210 -0.021830 0.023070 0.009382 0.006960 0.008026 -0.001334 0.001911 -0.012144 0.000493 -0.011286 -0.012255 -0.022893 0.017383 -0.009720 -0.027087 0.002248 0.003790 -0.675775
inclus -0.020108 -0.001545 -0.012957 -0.017981 -0.015557 -0.017763 0.000138 0.006733 0.010938 0.006917 -0.016628 -0.012044 0.021567 -0.005481 0.023938 -0.016556 0.026393 0.017333 -0.000808 0.020729 -0.730473
inconveni 0.010887 -0.023735 -0.021253 -0.019948 -0.014721 -0.024992 -0.001428 -0.019228 -0.010203 -0.009536 -0.017668 -0.000031 -0.006077 0.017798 -0.018535 0.004160 0.009167 -0.013525 0.009237 0.017269 -0.322785
india 0.010176 0.008807 -0.008117 0.016500 -0.018809 0.016129 0.027823 -0.022886 0.018897 -0.005007 0.000999 -0.012592 0.013592 0.018232 0.018490 -0.001097 -0.020284 0.005228 -0.010046 -0.006478 -0.549147
input -0.018977 0.015615 -0.012676 -0.002390 0.015898 -0.001201 0.005338 0.013596 0.010018 -0.014487 0.000692 0.022737 -0.001396 0.000218 0.002623 0.011360 -0.004498 0.013075 -0.013662 -0.002151 -0.715892
insight 0.007408 -0.015455 -0.018160 -0.014674 0.019535 0.020202 0.002737 -0.016437 0.001758 0.005201 -0.020931 0.009865 -0.009117 0.000800 -0.005394 -0.017440 -0.015711 0.004690 0.013546 -0.013619 -0.733663
inspir -0.018103 0.017283 -0.012664 -0.018008 -0.021860 -0.003894 -0.019104 0.021235 0.018800 0.008694 0.026051 -0.008232 -0.015662 -0.002036 -0.007576 -0.017948 0.023447 -0.021684 -0.002374 -0.019194 -0.332486
instructor -0.020062 0.016218 -0.006870 0.023552 0.017149 0.010148 -0.003166 0.018110 0.021256 0.015401 -0.014037 -0.005270 0.016761 -0.008598 0.019910 -0.021142 -0.011075 0.009555 0.021215 -0.024215 -0.438276
integr 0.009115 -0.001325 0.024983 0.015734 -0.020697 0.008294 0.003678 -0.011600 0.012546 -0.011620 -0.022678 0.007551 0.007235 -0.021149 0.016495 -0.018604 -0.001577 -0.005557 -0.011341 -0.021485 -0.249023
interactengag 0.015297 -0.009858 -0.008453 0.011447 0.025200 -0.028996 -0.025351 0.026391 -0.008760 0.012017 -0.009000 -0.020697 -0.021821 0.014273 0.020498 0.006399 -0.014305 -0.024080 0.006385 -0.005297 -0.540406
intern 0.003482 0.003176 -0.002458 0.002728 0.029714 -0.008995 0.017494 0.022505 0.015252 -0.008882 0.009220 -0.021665 0.005795 -0.003965 -0.014751 0.027702 -0.017776 -0.018965 -0.006953 -0.024572 -0.695815
interrupt 0.004932 0.021624 -0.002187 -0.017667 -0.020687 0.020077 0.006425 0.019192 0.004233 0.019359 0.000335 0.000726 0.023589 -0.004119 0.011649 -0.017478 0.018102 0.020139 -0.029169 0.021097 -0.587303
involv 0.025238 -0.000789 0.001294 0.005982 0.016819 -0.016443 -0.017429 0.012598 0.014908 0.018082 0.019676 0.013233 -0.013452 0.000721 -0.016218 -0.002945 0.017548 -0.016158 0.002974 -0.022282 -0.954052
isn’t -0.013491 -0.018483 -0.019383 -0.019004 0.002651 0.020004 0.011965 0.016408 -0.010400 0.028373 0.023482 0.030751 0.011121 -0.008099 -0.014200 0.024684 -0.008585 0.013581 0.009568 0.013722 -0.462007
itlong -0.014118 -0.010818 0.017767 0.013787 0.012524 -0.009239 0.008624 -0.021212 0.009375 0.001093 -0.017256 0.005930 -0.018400 0.016232 -0.010504 -0.008694 0.006631 -0.021754 -0.031203 -0.025661 -0.518110
jammu -0.018396 -0.015300 -0.006746 0.011691 0.014114 -0.011278 -0.006845 -0.027004 0.022960 0.016401 0.028633 0.009867 -0.024767 -0.010150 0.001372 0.013963 0.016461 0.005353 0.007852 -0.009400 -0.580224
joke 0.001344 -0.011818 -0.019145 -0.011909 0.001197 0.013920 0.004959 0.002183 -0.024168 -0.028941 -0.014209 0.006553 0.006582 0.022954 0.000818 -0.009760 0.009381 -0.020092 -0.004006 0.003102 -0.572314
kashmir 0.021511 -0.015965 0.004855 -0.010967 0.021496 0.006414 -0.017597 -0.002198 -0.011876 0.016339 0.007734 -0.002460 0.020627 0.020291 -0.013045 0.023884 0.014205 -0.013410 -0.011203 -0.019343 -0.547866
keep 0.004656 -0.004366 0.010101 0.024550 0.024625 -0.014645 -0.020433 -0.004995 0.026225 -0.014303 -0.023042 -0.015392 -0.010583 0.006872 0.015042 -0.008460 -0.013901 -0.017675 -0.001373 0.002046 -0.509687
kept -0.022385 -0.022120 0.018099 0.010956 -0.001362 -0.019334 -0.023246 0.004158 0.016910 -0.001987 -0.013653 -0.010449 0.014297 -0.009705 0.013116 0.022523 -0.006698 -0.016805 0.010862 -0.005867 -0.183636
lack -0.018068 -0.003901 0.009831 0.000102 0.024628 -0.026838 0.019892 0.023145 -0.022759 0.012839 -0.006860 0.004193 -0.002292 -0.011503 -0.004801 0.028394 -0.009216 0.023669 0.000591 -0.012382 -0.558513
languag 0.014134 -0.029155 -0.006794 -0.006975 0.016335 -0.012321 -0.005356 0.007471 -0.000486 0.010949 -0.027054 0.001105 0.003494 0.015820 -0.023979 0.002305 -0.031257 0.006524 0.003995 -0.009098 -0.477109
larg -0.019259 -0.014271 -0.014632 -0.006624 0.005437 -0.004924 0.008048 0.022637 -0.011386 0.024065 -0.022197 -0.003864 -0.001304 0.027812 -0.008584 0.019994 0.020432 0.006107 -0.002163 0.020597 -0.658822
learner -0.022748 -0.016408 0.013827 -0.006554 0.019802 -0.013300 -0.023568 0.012951 0.002424 0.003414 -0.004080 0.017569 0.025130 0.004149 -0.014881 0.023810 -0.017926 -0.002583 0.000033 0.021816 0.428725
learnt 0.015317 0.011627 -0.007938 0.024694 0.000817 -0.016913 -0.022820 0.006526 0.003189 0.003888 0.021569 0.023821 0.007772 -0.004186 -0.001616 0.022580 -0.017241 -0.001215 0.015120 0.012595 -0.093263
least -0.017835 0.019084 0.012985 -0.018389 -0.017997 -0.007558 -0.021050 -0.002308 0.012891 -0.010964 0.003051 -0.016569 0.004638 -0.012092 0.010098 -0.009968 0.002563 -0.022248 -0.000833 0.022430 -0.568262
left -0.023490 0.003132 -0.013489 0.007974 -0.005626 0.002670 -0.009693 -0.003231 0.024477 0.014110 -0.009975 -0.009270 0.019604 -0.019182 0.016930 -0.002731 -0.012892 -0.023068 0.005795 0.017044 -0.422509
lesson 0.026528 -0.002036 0.004006 -0.013362 0.017483 -0.024438 0.019461 -0.016413 -0.002163 -0.020448 0.008767 -0.021906 -0.013074 -0.022746 -0.026573 -0.014533 -0.013377 0.014868 -0.002808 0.013932 -0.565565
life -0.025760 0.015759 0.010182 0.017863 0.018828 0.025831 -0.023244 0.003848 0.004090 0.025634 -0.010139 0.013424 -0.023131 -0.017679 -0.011046 0.014584 -0.012140 -0.003651 0.004040 -0.010951 -0.327524
littl 0.012248 0.000409 -0.016221 -0.005446 -0.020579 0.022058 -0.006854 -0.018658 -0.014993 0.012341 0.021352 -0.000638 0.005625 -0.025411 0.021794 -0.003839 0.007062 -0.024620 0.000649 0.020687 -0.437078
long 0.026418 0.009720 0.014701 0.001816 -0.025347 -0.012656 -0.006783 -0.022310 -0.018034 -0.013035 0.007367 0.013948 0.016070 -0.022417 -0.018225 -0.015658 0.006363 -0.009012 -0.018266 -0.028825 -0.327432
longer 0.009279 0.023990 -0.005561 0.004850 0.014903 0.026203 -0.009706 -0.014563 0.014036 0.011726 -0.007977 0.024250 -0.001487 0.015095 -0.011719 0.011282 -0.019849 -0.016451 -0.026169 -0.011471 -0.253581
loud 0.001328 -0.015123 0.021399 -0.024896 0.003909 -0.028482 -0.003451 -0.005590 0.000937 0.007310 -0.004090 0.011992 0.009105 -0.024889 -0.009500 0.001591 -0.001838 -0.003072 -0.012819 -0.005540 -0.558779
made -0.022604 -0.014740 -0.000918 0.007710 0.001833 -0.018366 -0.016015 -0.016871 0.012119 0.018958 -0.023012 -0.009603 0.014122 -0.019487 0.005707 0.004410 -0.019144 -0.020328 0.013794 0.014521 -0.429493
manner -0.022621 -0.001785 -0.012880 0.023031 0.019897 0.012842 -0.005657 0.007682 -0.014521 0.018812 -0.004518 -0.009519 0.013908 0.003032 0.003124 0.012318 -0.015757 -0.007261 0.012408 0.013436 -0.631980
mark -0.005203 0.008591 0.012927 -0.016589 0.022392 0.016961 0.016831 -0.012662 0.000378 -0.007644 0.013688 -0.016241 -0.028977 -0.004503 0.011823 0.012544 -0.017286 -0.016042 0.016168 -0.017040 -0.663561
may 0.008915 0.014095 0.000133 0.018523 -0.018050 0.020196 0.006545 -0.001528 0.020427 0.009486 0.011536 0.013445 -0.003839 0.012921 0.001706 -0.010676 -0.012340 0.002348 -0.020400 0.001333 -0.923678
memoris -0.000220 -0.012751 -0.001400 -0.005570 -0.003251 0.009267 -0.008354 -0.024258 -0.028991 0.004001 0.017796 -0.004799 -0.019594 0.002627 -0.025812 -0.006636 -0.020168 -0.006979 -0.022888 0.007872 -0.810441
messag -0.020863 -0.005072 0.001776 -0.007433 0.013229 0.021646 -0.000693 -0.022341 0.023949 0.005094 -0.006402 -0.017540 -0.005998 0.007884 -0.008415 -0.015253 0.016592 -0.019860 -0.009884 -0.010966 -0.525904
messi -0.011622 0.008184 0.018344 0.010359 -0.005976 -0.012011 -0.000370 -0.022259 -0.026432 -0.012259 -0.030923 -0.023242 -0.007315 0.014697 0.026326 0.021008 -0.013500 0.021908 -0.012811 -0.000021 -0.505818
microphon -0.003752 0.012074 -0.005913 0.011598 0.025009 -0.012571 0.019949 -0.011354 -0.009027 0.019539 0.011659 -0.009346 -0.004437 -0.005755 -0.001639 -0.006280 0.004210 0.008094 0.022386 0.005442 -0.451826
microsoft 0.003619 0.012613 0.002082 -0.014994 0.001477 -0.015707 0.006102 -0.011862 0.019331 -0.012851 0.010502 0.007439 -0.009348 0.016567 0.003554 0.011798 0.013347 0.024634 0.008338 -0.003921 0.002174
mimic -0.017189 -0.011037 0.021335 0.004737 -0.003075 -0.019698 0.005551 0.015278 0.017498 0.017688 -0.013712 -0.009768 -0.008274 0.012780 -0.021876 0.004013 -0.010433 0.009797 -0.008594 0.015738 -0.578766
mind 0.010122 0.012223 -0.025109 -0.025814 -0.010655 -0.009691 -0.022606 -0.016626 0.009802 -0.031947 0.020472 0.015411 -0.008749 -0.000116 -0.009661 -0.025015 0.016406 -0.017283 -0.005929 -0.006546 -0.446458
mix 0.009301 0.005190 0.004766 -0.002920 0.001456 -0.018069 -0.016133 0.002687 0.001199 -0.011309 0.013345 0.009708 -0.026690 0.001152 -0.007392 -0.001618 0.014593 0.011936 -0.006974 0.012951 -0.342290
mode -0.030245 -0.022271 0.013771 0.015195 0.003896 -0.020756 0.003496 -0.023161 0.006720 0.018519 -0.017725 -0.007265 -0.024337 -0.018133 0.022790 0.019520 0.011764 0.019138 -0.018208 0.014743 -0.684437
modul -0.023726 -0.026012 -0.012279 0.010252 -0.014548 0.018991 0.018763 0.001999 0.003238 -0.010523 -0.008590 0.019104 -0.020542 0.022994 -0.018784 0.009307 0.002276 -0.009600 -0.018264 -0.003589 -0.700825
month -0.002439 0.004782 -0.013187 0.023234 -0.009449 -0.009177 0.027008 0.014818 0.009281 -0.024393 -0.012218 -0.011344 0.012198 0.012281 -0.008945 -0.021706 -0.024655 0.012325 -0.016680 -0.025978 -0.588046
moreov -0.013303 -0.018013 0.025269 -0.025600 0.003929 0.014962 -0.015106 0.009895 0.014796 -0.022634 -0.003008 0.022060 -0.002916 -0.021656 -0.015373 -0.013842 0.017692 0.020557 0.020568 -0.015030 -0.699341
muself -0.021887 0.015700 0.003591 -0.019510 0.008014 0.003996 0.010398 -0.005626 -0.027005 -0.013024 -0.022758 -0.002713 -0.009319 -0.018460 0.009374 -0.019312 -0.019885 -0.017549 0.001213 0.025392 -0.725704
natur 0.025980 -0.005808 -0.002768 -0.014719 -0.003098 -0.005067 -0.011627 0.018158 0.012419 0.003474 0.018082 0.001556 -0.004193 0.005065 0.014162 -0.010144 0.013214 0.031718 0.011566 0.000173 -0.182204
never -0.001002 -0.002580 -0.022908 -0.009069 0.008377 -0.007071 -0.022056 -0.019530 -0.001246 0.005982 -0.011898 -0.015705 0.012583 -0.010279 -0.023118 0.025693 0.008840 -0.006602 -0.004852 -0.009035 -0.508203
nois -0.011568 -0.013692 0.032044 0.011477 0.015386 0.001601 0.011039 0.025144 -0.021920 -0.021323 0.018260 0.014484 -0.006201 -0.000024 0.014460 -0.024458 -0.032068 -0.005554 -0.013332 0.006271 -0.593553
noisi -0.003784 -0.006268 0.009046 -0.021071 -0.000899 -0.008607 0.016822 0.003618 -0.006755 0.010447 0.022435 0.004658 0.021417 -0.004773 -0.025668 -0.017481 -0.025460 -0.004009 0.015424 -0.024601 -0.530214
normal 0.020890 0.022088 -0.022179 0.020463 -0.009912 -0.021906 0.006259 0.010850 0.004360 -0.000653 -0.006632 0.003071 0.014214 -0.004753 0.013855 -0.010893 0.019277 -0.005078 -0.007107 -0.008168 -0.701232
nuanc 0.010700 0.018033 0.013742 0.021626 -0.002403 0.003848 0.012077 0.022145 0.002536 -0.005578 0.008054 -0.013849 -0.009007 0.016717 0.005340 -0.022072 0.014986 -0.014716 0.019288 0.023164 -0.596591
oblig -0.007579 -0.022862 0.013023 -0.023112 0.011314 -0.026214 -0.017433 0.000512 -0.029010 -0.025587 -0.006731 -0.007450 0.007992 0.011979 0.008158 -0.003031 -0.017480 0.018738 0.008615 -0.026872 -0.503410
occur 0.018045 0.010778 0.009910 0.016885 -0.005112 0.008661 0.002464 -0.004215 -0.017243 0.020034 0.008187 -0.016680 -0.017871 0.018788 0.014573 0.019339 0.007859 0.009167 -0.009703 0.019760 -0.414028
offens 0.008113 0.024148 0.014640 0.013328 -0.017044 0.001709 0.010529 -0.015228 0.012008 -0.007518 0.026208 -0.025228 0.021933 -0.001288 -0.030125 0.022607 -0.017541 0.008159 0.001804 -0.024266 -0.381412
offer 0.021767 0.010723 0.008794 -0.020731 0.005361 -0.022491 0.013808 0.000079 0.003716 -0.028262 0.008776 0.016692 0.013917 0.002616 0.016932 0.025735 0.005377 0.008368 0.014016 -0.020734 -0.649046
oftentim -0.000359 0.014511 -0.003050 -0.014272 0.016381 0.019856 -0.016320 -0.012360 0.018044 -0.022737 -0.025407 0.012095 0.000212 0.007800 -0.006389 0.001454 -0.006775 -0.008225 -0.021497 0.026840 -0.456186
one -0.003489 0.008841 -0.017783 0.005993 0.014502 0.014506 0.011440 -0.023134 0.010513 -0.001134 -0.015550 -0.022123 -0.019204 -0.020455 0.012643 -0.004436 -0.021307 0.006833 0.023337 0.020190 -0.204225
open 0.007192 -0.000589 0.021108 0.014261 -0.013637 -0.018908 0.008268 0.014572 0.016828 -0.030445 0.019022 -0.018725 -0.000594 -0.006079 -0.010006 -0.007083 0.011645 -0.015379 0.025697 -0.011033 -0.923355
oppos 0.016957 0.022893 -0.000439 0.026345 -0.004722 0.007702 -0.007380 0.016204 -0.020204 -0.018178 0.009534 -0.005292 -0.028400 -0.016928 0.011624 -0.003174 -0.018218 0.019275 -0.021836 0.018789 -0.706009
organ -0.014026 0.018868 -0.002288 -0.006395 0.008454 0.017487 -0.001440 -0.013738 0.019230 0.025831 -0.015854 -0.011411 0.024937 -0.006303 0.017107 0.014182 -0.002534 0.018746 -0.004420 0.006944 -0.638396
other’ 0.022870 0.005241 -0.016480 -0.000973 -0.012750 -0.020776 0.009220 0.013860 -0.025596 -0.023302 -0.015871 -0.002210 -0.025557 -0.026883 0.019380 0.021699 -0.007804 -0.000000 -0.010941 -0.010175 -0.447186
otherwis -0.002034 0.004852 0.009107 0.017921 -0.004045 0.022871 0.003211 0.006037 -0.018922 -0.015118 -0.023866 -0.013566 -0.005551 0.010445 -0.011178 -0.004959 0.014976 -0.021978 -0.021934 0.015420 -0.192639
paddiv 0.012208 -0.021485 0.019561 -0.003673 0.005900 0.020508 -0.021461 -0.007271 0.019233 -0.002047 -0.017714 0.026117 -0.002986 0.009675 -0.020092 0.020842 0.002924 -0.018494 0.009097 -0.003810 -0.345734
paper 0.012954 0.015444 -0.024321 -0.011312 -0.015308 0.001072 0.013480 0.001170 -0.009384 -0.006793 0.013103 -0.004871 0.000057 -0.008029 0.018781 0.002689 0.005455 -0.004815 0.005059 0.019221 -0.809174
past 0.008538 0.026028 -0.021055 0.015391 -0.012009 -0.008498 -0.005705 -0.002602 -0.018285 0.015339 0.006819 0.007018 -0.016588 -0.034438 0.014881 0.020698 -0.008716 0.008775 -0.005081 0.004999 -0.509873
pay -0.025523 0.021015 -0.013001 -0.026670 0.024364 0.024765 0.017109 0.011298 -0.019422 0.011962 0.002948 0.000975 -0.004997 0.004242 -0.014199 0.008428 -0.009023 -0.006062 -0.001307 0.006979 -0.703683
perhap 0.002982 0.018935 0.016331 0.006861 -0.006612 -0.014763 0.024409 0.012361 -0.002239 0.021744 -0.028846 0.017266 -0.022186 -0.001869 0.001992 0.015185 0.007339 -0.016722 -0.024010 0.007607 -0.379273
perspect -0.027872 -0.013335 -0.005481 0.013693 -0.022303 0.015491 0.002378 0.010861 -0.004087 0.004125 -0.025529 -0.013012 0.015995 -0.008973 -0.025075 -0.005686 0.018435 -0.003360 -0.009942 -0.011765 -0.496192
phrase 0.019820 -0.023551 0.013458 0.019640 0.016918 0.014383 0.020473 0.012387 -0.016033 -0.018017 0.003318 -0.007194 -0.001474 -0.030134 -0.012380 0.019276 0.017661 0.030009 0.011661 0.007092 -0.615876
physic 0.032283 -0.012913 -0.011704 -0.014314 0.013451 -0.021022 0.011241 -0.019224 -0.001635 0.022298 -0.006678 -0.016235 0.023276 -0.012742 0.014047 0.001936 -0.011010 -0.012765 -0.013067 -0.002389 -0.640483
place -0.000716 -0.016743 0.006023 0.004021 -0.010807 -0.014800 0.025934 -0.028351 0.011285 0.007901 -0.011427 0.014275 -0.018080 -0.003714 -0.026573 -0.019318 0.002981 0.005507 0.014397 -0.011278 -0.394832
point 0.007453 0.002308 0.004899 -0.014330 0.024564 -0.021598 0.000563 -0.020439 0.011819 0.001597 -0.003554 0.024781 0.003129 0.011554 0.015595 -0.021519 -0.005635 0.014542 -0.009293 0.021639 -0.636562
poor -0.004314 -0.005314 0.003795 -0.025568 -0.019456 0.001359 0.009718 0.020512 0.001636 0.013777 -0.023697 0.025915 -0.000826 -0.018060 0.014077 0.005831 0.010212 0.020732 -0.026924 -0.008754 -0.628907
practic -0.005032 0.006341 0.013571 -0.017337 -0.016424 0.000615 -0.003769 -0.013840 0.026614 -0.022237 0.020430 -0.021828 -0.015091 0.004887 0.017249 -0.010625 -0.004640 -0.014649 -0.023296 0.006526 -0.741350
prepar -0.025286 -0.023773 0.016620 -0.000436 0.014726 0.021726 0.023270 0.003398 -0.018504 -0.002507 0.013326 0.015832 -0.003849 0.006304 0.002166 -0.013773 0.008457 -0.015476 -0.000705 0.008746 -0.944400
present 0.022897 0.009385 -0.002980 -0.010978 -0.008918 0.010673 0.025853 -0.012401 0.003022 -0.003734 0.004676 -0.024353 0.004295 0.009788 0.020807 0.009096 0.016937 -0.020655 0.021398 -0.021076 -0.537658
press -0.007585 0.017923 -0.029395 0.021884 0.033690 -0.001659 0.002581 -0.029054 0.019598 0.025666 0.007047 -0.022922 0.005641 -0.006185 0.017200 0.021177 -0.003434 -0.017641 0.019116 0.003837 -0.538926
previou 0.000384 -0.020866 -0.012298 -0.005107 0.015477 -0.002401 0.015118 0.009263 0.004401 0.008059 -0.026942 0.002911 -0.008645 0.014078 0.004894 -0.017321 0.014752 -0.007142 0.023135 0.014112 -0.545256
privaci -0.004137 0.004714 -0.003587 -0.001658 0.022754 0.004281 -0.013848 -0.004167 -0.014081 0.013899 0.014384 0.018750 -0.007841 -0.022883 0.006602 0.020508 0.015774 -0.008740 -0.025046 0.018540 -0.356379
privileg 0.006923 -0.023532 -0.001363 0.025377 -0.010171 0.020656 0.023138 0.009589 0.011994 -0.008149 0.013636 0.006981 -0.006618 0.012042 0.018441 0.012073 -0.011703 -0.015463 0.005033 0.015449 -0.706870
process -0.007770 -0.009350 -0.000587 -0.016598 -0.001810 0.005079 0.024364 0.009378 0.015850 0.011195 -0.004135 0.000053 -0.014132 0.017424 0.014589 0.024729 0.016369 -0.010240 -0.006704 -0.017061 0.093151
procrastin -0.019979 -0.013790 -0.011219 0.024119 0.008950 0.025844 0.005962 -0.006041 0.000351 0.004116 -0.003284 -0.012028 0.018254 -0.008465 0.009613 0.018826 0.013276 -0.026530 0.011408 -0.009848 -0.388962
product 0.026117 -0.020334 0.006268 0.012711 -0.006249 0.008779 0.012333 -0.013427 -0.007287 -0.006448 -0.027738 -0.017833 0.018543 0.010316 -0.023701 -0.016942 -0.013758 0.012942 -0.007529 -0.018348 -0.455438
project 0.001015 -0.010425 -0.008918 -0.019617 -0.002146 -0.029866 0.008570 -0.021956 -0.022141 0.017337 -0.008610 0.020223 0.015527 0.015850 0.008037 -0.011411 -0.007377 0.004558 0.008917 0.014900 -0.552319
proper 0.004436 -0.004955 0.016874 -0.012919 0.014707 -0.017023 0.009198 0.009481 -0.012085 -0.024703 0.007545 -0.025396 0.017870 -0.028222 0.006260 0.024783 0.014123 -0.003602 -0.007984 0.021235 -0.312059
prove 0.008549 -0.012913 0.007805 0.008147 0.021417 0.002007 -0.005176 -0.016214 0.003609 0.011434 -0.001646 -0.003206 0.009024 -0.018427 -0.008849 -0.020813 0.015778 -0.001733 -0.019316 0.025889 -0.384113
provid -0.028906 -0.018825 0.016919 0.015830 0.015626 -0.002661 0.013401 0.019906 0.008728 -0.023912 0.010126 -0.008918 -0.025928 -0.012093 0.005701 -0.004580 -0.028279 -0.004466 0.026865 -0.007985 -0.500112
push 0.020433 0.009637 -0.000877 -0.012678 -0.019018 -0.012012 -0.018195 -0.003689 0.020892 -0.019531 0.015117 -0.012455 0.001373 0.002232 0.008216 -0.012573 -0.021032 0.014666 -0.023364 0.016709 0.088464
put 0.021180 0.013156 -0.024088 -0.010402 0.004289 0.019616 0.016052 -0.027784 -0.004786 0.030249 -0.020506 0.011770 -0.008973 -0.012979 -0.010717 -0.013761 -0.012392 0.003121 -0.005846 0.012674 -0.509786
qa’ 0.019673 0.002665 -0.021108 -0.021793 0.016450 0.016625 -0.006241 -0.026738 -0.003417 0.007335 0.001674 0.012709 0.029337 -0.012874 -0.016404 -0.004382 0.003362 0.009234 -0.007024 0.005954 -0.745661
queri -0.007426 0.017494 -0.006093 0.002640 0.029073 0.031137 0.016160 0.013807 0.000162 0.002318 0.031196 0.027052 -0.018046 0.005167 -0.000264 0.003296 0.022420 0.022267 0.011954 -0.008242 -0.372128
quickli 0.024836 -0.009159 -0.018635 0.003055 -0.009876 -0.004390 0.007196 -0.004742 -0.007243 0.004988 -0.011925 -0.010697 0.000140 0.000896 0.018483 0.001732 -0.008692 0.006609 0.022595 -0.011671 -0.480263
quieter 0.008965 0.015868 0.009100 -0.008991 0.006509 -0.018524 -0.000960 0.024618 -0.030840 0.016515 -0.004609 -0.003043 0.006007 0.004844 0.002722 0.009366 0.027053 -0.012697 -0.005373 0.003257 -0.473079
r -0.008703 0.017301 0.014906 0.007960 0.020221 0.013711 0.000767 0.010389 0.016777 -0.007726 -0.024070 0.001914 -0.018640 -0.011181 0.015526 0.025675 -0.007533 0.000598 0.000646 -0.015988 -0.156859
realtim 0.005771 0.019445 0.003221 -0.007800 0.027941 -0.019354 -0.016658 -0.015718 -0.025786 -0.015491 -0.017310 0.013806 0.007361 0.011235 -0.002660 -0.018618 0.006324 -0.026795 0.001992 -0.019553 -0.093891
reason -0.024938 -0.020919 -0.008487 0.011866 -0.013420 -0.010371 0.009553 0.015099 0.020463 0.013295 0.017452 0.006417 0.008521 -0.012510 -0.005277 -0.001374 0.017284 0.017721 0.017816 0.011115 -0.423353
receiv -0.010478 -0.024880 -0.009921 0.017923 -0.018667 -0.007177 -0.014119 -0.025908 -0.016723 0.012491 0.001769 -0.016002 0.026066 0.006027 -0.016913 0.015575 -0.021109 -0.012221 0.024815 -0.010213 -0.608507
reflect 0.007293 0.028328 0.017573 0.015795 0.018842 0.006130 0.026897 0.010425 0.008349 0.016124 0.009143 0.000614 0.020945 -0.023931 0.025393 -0.009653 0.005998 -0.023860 -0.014817 0.003498 -0.504740
regard 0.010624 0.002603 0.017060 -0.020231 0.003556 0.002678 -0.018805 0.019415 -0.022761 0.001802 0.010742 -0.016451 0.019269 0.009958 -0.002959 0.021626 0.000808 -0.022261 0.014471 0.006562 -0.735944
regul 0.008387 0.006684 0.013956 0.006676 -0.030520 0.010080 0.007303 -0.015759 -0.009800 -0.014896 0.009571 -0.003419 0.016134 -0.014073 0.019190 0.003427 -0.024792 0.008618 -0.007027 0.010608 -0.404130
regular -0.001321 -0.002901 -0.013748 -0.011701 -0.010020 0.011394 0.006655 -0.019078 0.007883 -0.002644 0.003625 0.011196 -0.012098 -0.022637 -0.019875 0.015561 -0.011059 0.018399 0.006467 0.007065 0.465654
relat -0.025912 0.025629 -0.016736 -0.012853 -0.023126 -0.009441 -0.007865 0.018586 0.023929 -0.014099 -0.009680 0.029872 0.015078 0.006535 0.024684 0.011668 0.013206 -0.003711 -0.022984 0.019480 -0.306571
repli -0.002245 -0.007924 -0.004606 0.016164 0.007061 -0.026946 -0.023750 0.027446 0.008147 0.003657 -0.021555 0.007217 -0.009296 0.014921 0.008898 -0.017301 -0.022643 0.012240 0.005104 0.000380 -0.611383
resourc -0.015808 -0.012476 0.022518 0.007697 0.029195 0.019608 -0.021030 -0.009063 0.021889 -0.002941 0.020717 -0.005361 0.002258 -0.018827 -0.017780 0.014062 -0.002525 0.000657 0.018462 0.006655 -0.385691
restrict -0.027119 -0.012714 0.010734 -0.012991 0.010494 0.013830 0.008628 -0.009985 -0.005417 -0.013648 0.008487 0.025531 0.018919 -0.006312 -0.015683 -0.008259 0.010954 -0.018018 0.012863 0.000456 -0.470677
retain 0.015904 -0.028507 -0.026124 -0.003145 -0.014744 -0.025614 -0.023229 -0.005109 -0.019497 -0.027599 -0.026179 -0.010894 -0.021904 -0.008216 -0.022612 0.014972 -0.007017 0.007236 0.014815 -0.009895 -0.458606
retyp -0.021043 -0.020492 -0.027029 0.008365 -0.001211 -0.015060 -0.005526 -0.021010 -0.011903 -0.016007 -0.017560 0.019952 -0.010310 -0.026071 -0.015601 -0.001120 0.013321 0.018085 -0.015620 -0.007811 -0.544987
review -0.014627 -0.023394 -0.016057 0.011775 0.022346 -0.010533 0.013834 0.009682 -0.011130 -0.028389 -0.010835 -0.006071 0.010288 0.006853 0.019129 -0.021836 0.012011 -0.021069 -0.006339 -0.021377 -0.771043
revisit -0.029104 -0.014213 -0.005536 0.016207 -0.021425 0.026024 -0.009331 0.012770 -0.023955 0.010950 -0.014930 0.004715 -0.007706 -0.022252 0.016762 0.001857 0.002756 -0.022621 -0.014715 0.015468 -0.449771
room 0.015874 0.007229 -0.024027 0.012191 0.009774 -0.015711 0.023339 0.025525 0.006757 0.017859 -0.011501 -0.010650 0.022622 -0.001153 -0.009589 -0.016962 -0.010745 0.006006 0.014806 -0.011048 -0.392010
rote -0.014729 0.000874 -0.013407 -0.007513 0.001006 0.019186 -0.022546 0.013525 -0.016528 -0.019412 -0.004069 -0.013122 0.017273 -0.023195 -0.010098 -0.000307 0.009955 -0.007377 -0.023447 0.004439 -0.531749
routin 0.021188 0.012300 -0.011062 0.014255 0.004923 -0.016153 -0.002605 -0.010044 -0.007271 -0.024632 -0.007771 0.017250 -0.016861 -0.025964 -0.022803 0.019302 0.008110 0.010431 0.018079 0.002984 -0.609559
said -0.020256 -0.005406 -0.001469 0.025081 0.015255 0.015858 -0.015623 0.001244 0.024970 -0.019389 -0.011338 0.009589 -0.013517 0.024909 0.011213 0.009743 0.002332 0.020017 0.016330 -0.008588 -0.243618
saywrit -0.005300 0.005769 0.006182 -0.001424 -0.002872 -0.000060 -0.008468 0.010575 0.019036 -0.013521 0.003347 0.011410 -0.010066 0.019465 -0.020196 0.018062 -0.014668 -0.016029 0.005374 0.001536 -0.406004
school -0.026938 -0.004310 0.009756 0.018686 0.005962 0.020398 -0.007326 -0.003884 -0.007293 -0.025156 0.006103 0.020183 -0.011401 0.007478 0.013477 0.025318 -0.020424 -0.024110 -0.001454 -0.026464 -0.640653
screen -0.006810 0.022682 0.017167 0.021079 -0.014656 0.009076 -0.011292 -0.022343 -0.014465 0.024829 0.007491 0.000981 0.010740 0.015291 -0.019456 0.018229 -0.022689 -0.026622 -0.023377 -0.020158 -0.223558
search -0.011330 -0.014321 -0.030165 0.012519 0.005897 -0.017501 0.005431 0.007214 -0.012286 0.010346 0.022145 -0.011327 0.027198 -0.018165 -0.026077 0.016304 0.004925 0.011179 0.013101 0.003692 -0.359534
second 0.025349 0.002323 -0.014732 -0.005218 -0.005207 -0.020606 0.007272 -0.004546 0.015234 -0.006954 -0.016923 -0.025310 -0.000692 -0.011222 -0.002431 -0.015517 0.000679 0.007561 -0.007689 0.010137 -0.610919
seem -0.008938 0.021491 -0.006231 0.009439 0.012435 0.020259 -0.005732 0.018534 -0.018576 0.007932 0.027044 0.000719 0.001283 0.012877 0.018601 0.005265 0.025665 0.002256 -0.027001 0.023141 -0.679513
semest 0.008694 -0.018713 0.017670 -0.013854 0.012730 0.005972 0.015216 0.011640 -0.000812 0.001734 -0.021074 0.019771 0.001775 -0.020312 0.002200 -0.021537 0.005231 0.023640 0.005690 -0.028568 -0.557399
send 0.005359 0.016063 -0.003270 0.017683 0.002308 0.012792 0.011513 0.011553 0.017317 -0.017350 -0.009567 -0.002748 0.006233 -0.001551 -0.030548 0.019409 -0.006709 -0.016211 -0.021009 0.012706 -0.599270
sens 0.024606 -0.006735 -0.022156 -0.004342 -0.012620 -0.001206 -0.015318 0.015546 0.024277 -0.010516 -0.006520 -0.022814 -0.014814 -0.023456 0.017882 -0.016281 -0.015423 0.012335 -0.012394 0.013223 -0.649709
sentenc -0.013446 0.014053 0.018025 -0.022414 0.010042 -0.021758 -0.013076 0.004123 -0.018379 -0.012551 -0.015688 0.016686 -0.007982 -0.006471 -0.006240 -0.015118 0.007201 0.006139 -0.015641 0.019353 -0.475323
share 0.006055 0.005607 -0.024454 -0.000755 -0.022202 0.011658 -0.005013 0.006197 0.000608 -0.019191 -0.005224 0.003206 0.021736 0.017347 0.005974 -0.016319 -0.014329 0.019384 0.008879 0.005777 0.066660
skill 0.005945 0.020721 0.013821 0.024359 -0.007988 0.014514 -0.001000 0.001277 0.017523 0.012109 0.016831 -0.002803 -0.008653 -0.009044 0.010838 -0.000995 0.009631 -0.003902 0.028080 -0.019055 -0.497966
skype 0.023511 -0.010898 -0.024301 -0.007872 0.004085 0.015431 -0.018477 0.001643 0.001434 -0.008690 0.022850 0.001557 0.020854 -0.003698 0.019325 0.005870 0.021983 -0.012548 -0.008861 -0.024112 -0.357019
slide -0.002348 -0.008382 0.013165 -0.001742 0.027545 0.014692 0.021813 0.007402 0.023017 -0.010490 -0.003660 0.020689 0.018665 0.006404 -0.016454 0.000840 0.019746 -0.006008 -0.004059 0.019897 -0.472442
soak -0.001178 -0.000075 0.012427 -0.012100 0.019602 0.006730 0.007837 -0.016518 -0.020278 0.001059 -0.017927 -0.007550 -0.008556 -0.014316 0.016874 0.006244 0.006812 -0.014668 0.001332 0.011553 -0.374767
spark -0.015934 -0.017955 0.025717 0.005694 -0.003074 0.013480 0.008195 -0.006420 0.018069 -0.004249 -0.013398 -0.003239 -0.004519 -0.008757 0.003400 0.005742 -0.009133 0.011026 0.014500 0.020829 -0.444956
speech -0.000145 -0.004529 -0.007685 -0.022562 -0.012990 -0.013128 0.023809 -0.000187 -0.012717 -0.007697 -0.013854 0.007084 -0.014087 0.011225 -0.017511 -0.018293 -0.005281 0.000449 0.017409 -0.009129 -0.394440
spot‘ 0.016745 0.003546 -0.018560 -0.016225 0.017848 -0.006212 0.016478 -0.021937 -0.022785 0.023105 0.011404 -0.021692 0.014371 0.021949 0.004009 0.026068 0.008653 0.020163 0.024264 0.022672 -0.596974
staff -0.011415 0.012397 -0.007602 0.013091 0.019681 0.013126 0.007820 -0.003571 0.024123 -0.020713 0.016650 -0.021123 0.016950 -0.023748 0.012688 0.011365 0.021643 0.019671 -0.004197 0.019032 -0.470361
stimul 0.001311 0.010900 -0.011037 -0.019149 0.013317 -0.019756 -0.025127 0.016189 0.010348 -0.015012 -0.017168 0.015896 -0.000591 -0.020802 -0.012227 0.015289 -0.001048 0.029397 -0.020639 -0.024145 -0.529670
store 0.017502 0.004495 0.013325 0.011472 0.023423 -0.016459 0.002835 -0.000306 -0.007733 0.023955 0.001748 0.013843 0.015436 -0.000348 -0.011912 0.003019 0.011234 0.008812 -0.008790 -0.003125 -0.690895
stress -0.023237 -0.015712 -0.017918 -0.007231 -0.003681 -0.026919 -0.004371 0.014346 -0.003382 -0.018008 0.022860 0.009846 0.004964 -0.009730 0.024181 0.031004 -0.012496 0.016565 -0.012522 -0.003869 -0.672940
struggl -0.016654 -0.007314 0.021134 0.008512 0.017454 -0.012097 -0.017322 -0.003116 -0.004192 0.027218 0.000641 0.018311 -0.004465 -0.026511 -0.003298 -0.007025 -0.007733 0.020446 0.022228 0.020690 -0.611045
students’ -0.024551 0.019149 -0.004798 0.021477 -0.013471 0.004067 0.013464 -0.027128 -0.014760 0.002714 0.013175 0.007516 -0.011936 -0.027885 -0.025845 0.022744 0.013982 0.004503 -0.004881 -0.008804 -0.472261
stupid 0.014468 0.007865 -0.000939 -0.013140 0.021305 0.009793 -0.007887 -0.005219 -0.028664 -0.019117 -0.013980 -0.023599 0.008892 0.023018 0.000853 0.005743 0.005613 0.009165 -0.004544 -0.017557 -0.381653
subject 0.013263 -0.021813 0.007174 0.011033 -0.008103 0.011699 0.007571 -0.018588 0.020756 0.000972 -0.003227 -0.005690 -0.009744 0.016970 0.010556 -0.007208 0.006261 -0.018334 0.001742 0.016293 -0.161680
submit -0.005966 0.002203 -0.026897 0.020349 0.027875 0.013600 -0.013036 -0.010244 -0.011122 0.003538 0.019019 -0.008276 0.025448 0.022262 -0.023131 0.019465 0.018047 0.009524 -0.024238 -0.019691 -0.714849
supervisor 0.025042 -0.017403 0.002916 -0.011990 0.001392 0.003344 -0.003554 0.021757 -0.008073 -0.005740 0.014935 -0.005112 -0.005373 0.001976 -0.014586 0.025251 -0.023668 -0.001896 0.009300 0.017424 -0.417563
switch 0.004667 -0.000731 0.016362 -0.020822 -0.000698 -0.000668 0.018849 0.002700 -0.017430 -0.023010 -0.007431 -0.022662 -0.021677 -0.015115 0.003500 -0.004265 0.003661 0.001402 -0.012905 -0.024337 -0.292237
system -0.014167 -0.018897 0.014086 0.008465 -0.021787 0.016354 -0.011698 0.021134 0.015615 -0.004098 0.000446 -0.003695 -0.014381 -0.023156 -0.012419 -0.008011 -0.016169 -0.000449 -0.002191 0.015093 -0.481811
tackl -0.023550 -0.021347 -0.022210 -0.003916 0.001724 0.018565 -0.002419 0.000507 -0.004828 0.009408 -0.014662 0.011512 0.003433 -0.018251 0.022391 0.022799 -0.009902 0.004407 0.009751 0.011667 -0.443593
taught 0.015806 0.011234 0.013604 -0.010730 -0.011260 0.024189 0.002829 -0.007381 0.001556 0.007403 0.028418 0.018614 -0.022711 0.019757 -0.020512 -0.018656 -0.015256 0.017831 -0.023028 0.024298 -0.421285
team -0.006693 -0.003547 0.023887 -0.024252 -0.000778 0.000358 0.006753 -0.013010 -0.021960 0.010187 0.011965 -0.014448 -0.000138 0.021109 0.010245 -0.019055 -0.010355 0.018124 0.006347 0.012082 0.004840
teamwork 0.020878 0.002889 -0.008631 0.009276 -0.024936 0.006185 -0.027770 0.000313 -0.022858 0.003845 0.006221 -0.012186 -0.023275 -0.002868 0.020016 -0.016373 0.004658 -0.000967 0.012818 0.004602 -0.171507
that’ 0.018486 -0.005693 0.017444 0.012973 -0.016644 -0.006561 0.013036 -0.011560 -0.002917 -0.019730 0.001445 0.003936 0.011085 -0.001887 -0.016250 0.014865 0.015044 -0.027086 0.017529 -0.011794 -0.629597
theatr 0.003873 -0.004403 0.009515 0.015517 0.026607 -0.016029 -0.013028 0.008398 -0.012518 -0.025572 0.024327 -0.016902 -0.008963 0.012923 -0.019392 -0.005477 -0.005077 -0.007838 -0.008403 -0.010214 -0.327124
therefor -0.007657 -0.007842 0.011585 0.011672 0.015415 0.020205 -0.017956 0.014852 -0.012949 0.018135 0.004709 0.000127 0.007125 0.013275 0.011932 -0.020375 -0.013498 -0.005859 0.008500 -0.006295 -0.531843
